25 128
3560 0.13215856 -0.0600964 -0.0053320453 0.06921534 0.111407794 0.10507919 -0.058418736 0.09786729 0.2579099 -0.1367131 0.12798448 0.0138211 -0.06309151 0.00028753834 -0.22272217 0.059663355 -0.032603785 0.166053 -0.026801242 -0.06650743 -0.048586406 -0.10257947 0.002209003 -0.009805789 0.011146062 0.139932 -0.006332064 0.014609216 -0.08672213 0.06811715 -0.029465029 0.123167105 -0.13424435 -0.08701685 0.096858434 -0.030328546 -0.1392036 0.2066763 0.10592207 0.044278745 0.0676224 -0.072465435 0.056530632 -0.07017269 0.22044958 -0.10249222 0.07796179 -0.06157545 0.040110096 -0.00072545593 0.17194279 0.19006085 0.07627723 0.15754996 -0.05371925 0.09365899 -0.03297027 -0.065785974 -0.048102327 0.031796962 -0.12500717 0.11123002 -0.108997315 0.024109632 -0.0819833 -0.10473034 0.026492173 -0.08778321 -0.074411824 -0.043324273 0.09583477 -0.055330724 0.06491079 -0.017057193 -0.04549774 -0.25513735 -0.014086669 0.07464386 -0.018773861 0.14735161 0.01648126 0.06516305 -0.24001995 0.009184066 0.06693139 0.064880416 0.15997687 0.15507944 -0.24356288 -0.07215987 0.1209997 -0.06925635 -0.14545186 -0.051477317 0.0064932047 0.10056394 0.0032370267 -0.042085126 0.03870552 0.037919655 0.058898665 -0.037028763 -0.08179188 -0.011642767 -0.05394673 -0.15479216 -0.0080529405 0.038787745 -0.06912033 0.15733737 0.10082071 -0.27271962 0.08893825 -0.098471954 -0.14129275 0.019166373 -0.20014352 -0.12791176 0.060686994 0.03983473 0.08580356 -0.03541535 -0.07512786 0.044771142 0.22646765 -0.18411817 0.056557074 0.15260786
3555 0.13459454 -0.055285044 -0.0047334307 0.08135009 0.12435128 0.09174621 -0.030263957 0.11423089 0.20642751 -0.14010933 0.12929529 -0.008607722 -0.052037593 0.046296656 -0.2074499 0.08429239 -0.010380649 0.12988193 -0.012330558 -0.10991118 -0.052251033 -0.117300056 -0.042798504 -0.004446788 0.008208369 0.14633636 -0.006876831 0.011126776 -0.057247374 0.070710674 -0.03760525 0.1640009 -0.15121523 -0.080135815 0.0872271 -0.014824928 -0.14846359 0.19698957 0.13962904 0.065621935 0.031977136 -0.022702046 0.0814807 -0.05022685 0.20631224 -0.10177024 0.07872677 -0.034315903 0.04452832 -0.07199229 0.15041275 0.19685267 0.09159206 0.15253527 -0.06509089 0.1144628 -0.01618745 -0.013914883 -0.061677564 0.02558605 -0.16746177 0.14844869 -0.06672939 0.032076813 -0.05148206 -0.08569592 0.053997178 -0.07405712 -0.039918046 -0.05176528 0.09621686 -0.03820179 0.09247272 -0.027334766 -0.068273984 -0.24883625 -0.04019936 0.051745117 -0.031010678 0.13556142 0.043969963 0.06673681 -0.22825211 0.0060191173 0.008694339 0.059158076 0.13166577 0.15854938 -0.24241166 -0.08085317 0.12704206 -0.07955217 -0.15111955 -0.009728705 0.048114877 0.10755499 0.0053104525 -0.026594657 0.06816375 0.019712407 0.07404821 -0.061983183 -0.07507278 -0.04277284 -0.052267477 -0.123470604 -0.010800234 0.015272491 -0.034023922 0.17936306 0.11131937 -0.27081156 0.05899979 -0.096127786 -0.12656413 0.017867679 -0.19739328 -0.111517884 0.080181554 -0.0029846707 0.10543642 -0.06443816 -0.06757623 0.054965533 0.25287825 -0.16422251 0.092009574 0.166176
3559 0.1206629 -0.058818128 -0.01418338 0.06516082 0.11390222 0.10122282 -0.038102623 0.07268427 0.24053635 -0.11687769 0.15011056 -0.011019151 -0.06953252 -0.011676518 -0.20415387 0.019466344 -0.024944002 0.13512073 -0.030586813 -0.07375985 -0.040931173 -0.08031875 0.005905804 -0.022791782 -0.02484241 0.1389016 -0.0015013661 -0.019418579 -0.06900951 0.036942627 -0.015808785 0.11407402 -0.11029287 -0.08159559 0.10095825 -0.050720003 -0.13665223 0.19456558 0.09514495 0.029114466 0.05429481 -0.04150096 0.052637365 -0.064521894 0.20410305 -0.102746874 0.08033006 -0.07427923 0.036593355 -0.01915382 0.15016817 0.18657343 0.061463606 0.14693074 -0.029332085 0.12459498 -0.0500754 -0.056604315 -0.042436216 0.031946093 -0.1316317 0.103478305 -0.10167786 0.03394861 -0.06850016 -0.11335692 0.007114464 -0.06009283 -0.055147205 -0.02738029 0.10961524 -0.039221548 0.08046172 -0.006684162 -0.024694875 -0.23326631 -0.009221002 0.059458215 -0.0036031788 0.1590708 0.00028225174 0.08401523 -0.22084542 0.0363786 0.07071329 0.04863076 0.14124194 0.1308659 -0.22469655 -0.052402366 0.15449826 -0.06709566 -0.13796765 -0.05874319 -0.019345341 0.09267243 0.02544347 -0.05865298 0.020841502 0.022206673 0.05815196 -0.05272991 -0.085415386 -0.038278643 -0.04757323 -0.17003012 -0.0028725853 -0.0035369853 -0.05720084 0.14675169 0.0818874 -0.23418559 0.081899114 -0.09847914 -0.1686131 -0.0026249182 -0.19160552 -0.10715265 0.037678245 0.037175827 0.085581966 -0.05655696 -0.04775504 0.025245983 0.2321881 -0.19187997 0.049696725 0.16132808
3564 0.102153614 -0.05386097 -0.030295901 0.055484563 0.10636968 0.11829511 -0.045692272 0.020605471 0.29955035 -0.091537945 0.19668216 -0.018649818 -0.09879422 -0.087156415 -0.22337988 -0.06302104 -0.056866903 0.15811042 -0.050252106 -0.019203898 -0.026201122 -0.041815456 0.08122476 -0.04731408 -0.054286275 0.12599632 0.012280907 -0.06424605 -0.09684287 -0.013067432 0.023030983 0.05294525 -0.068953305 -0.09875429 0.12620667 -0.09391844 -0.122041725 0.20515075 0.0409686 -0.027433792 0.09617005 -0.0790081 0.014670137 -0.089571126 0.21048906 -0.101069644 0.100264795 -0.12294468 0.032671947 0.058675002 0.16736442 0.18535915 0.025827274 0.15650302 0.0049718455 0.15279745 -0.0956498 -0.1208667 -0.008294807 0.043379497 -0.084307596 0.04490898 -0.14742878 0.03649498 -0.09423004 -0.14604248 -0.05019455 -0.041320544 -0.09078436 0.018304422 0.1253429 -0.05234994 0.054692883 0.021730347 0.030828742 -0.22345454 0.03658258 0.06925598 0.033444732 0.19994654 -0.05383252 0.106504045 -0.22851476 0.06964789 0.15565017 0.038466673 0.16154034 0.11580257 -0.21748291 -0.031822093 0.18756491 -0.052029144 -0.12227388 -0.11971745 -0.10815101 0.069265924 0.060620718 -0.10818996 -0.048165906 0.026132818 0.04453108 -0.04513727 -0.10780598 -0.02649065 -0.03321397 -0.23911186 0.0053422083 -0.025080305 -0.09905435 0.110981055 0.049014244 -0.21265548 0.12084567 -0.10546379 -0.22090499 -0.022870153 -0.19979107 -0.11377011 -0.015769362 0.09512251 0.05795037 -0.05682402 -0.03703097 -0.014532357 0.22039369 -0.23815456 -0.0058639557 0.16803704
3554 0.12693112 -0.05926018 -0.0099983355 0.077981524 0.122409195 0.092617445 -0.03793788 0.09785479 0.22693971 -0.13028003 0.1403416 -0.008817002 -0.059572708 0.014540722 -0.21373838 0.059080686 -0.024004837 0.13520119 -0.01901643 -0.08919097 -0.048590023 -0.101446144 -0.016135318 -0.010667909 -0.0034761997 0.1458702 -0.002383454 -0.0053734337 -0.06691607 0.057613455 -0.02709668 0.1418372 -0.13336031 -0.080721885 0.09049001 -0.02920917 -0.14638302 0.1993674 0.121286966 0.04844744 0.04502485 -0.03924297 0.06553299 -0.056791387 0.20899567 -0.1026368 0.080467455 -0.057790127 0.03661794 -0.04388564 0.15918967 0.19806243 0.07913209 0.1576402 -0.051780835 0.11822757 -0.03359263 -0.035638526 -0.05527639 0.03034873 -0.15050212 0.13022162 -0.0900641 0.03097367 -0.05930153 -0.1006256 0.03149801 -0.07097053 -0.048520606 -0.038169276 0.103211775 -0.037144616 0.0853519 -0.02101389 -0.052300647 -0.25112984 -0.026628079 0.05639821 -0.015713729 0.14526536 0.02403831 0.073092215 -0.23284015 0.018881941 0.040367268 0.05584022 0.1383617 0.14958082 -0.24235192 -0.07156366 0.13751666 -0.07334592 -0.14657062 -0.03348413 0.017953398 0.10095803 0.0076233633 -0.03984375 0.048145376 0.02447761 0.066238195 -0.058822323 -0.08535895 -0.034284115 -0.04870799 -0.1474415 -0.008174629 0.008052708 -0.05076743 0.16946413 0.1001852 -0.25883123 0.06923647 -0.097363286 -0.14796422 0.009945093 -0.19620503 -0.11957863 0.06346615 0.017567025 0.09518208 -0.056109644 -0.061567485 0.043156255 0.24654199 -0.17428331 0.07271808 0.16529906
3565 0.11419092 -0.059003823 -0.021182587 0.052845493 0.09683637 0.113737665 -0.05196387 0.046022486 0.27704868 -0.10064741 0.1648358 -0.011640669 -0.0838132 -0.054421674 -0.2139414 -0.019565182 -0.051561996 0.16102782 -0.039894406 -0.0392972 -0.032689296 -0.05756358 0.04934113 -0.03506178 -0.030714922 0.12538542 0.0068289693 -0.032576077 -0.09040331 0.013050913 0.0025426669 0.077141635 -0.08931938 -0.09525718 0.10557489 -0.06573569 -0.12755083 0.20193167 0.060630035 0.0029964321 0.080151156 -0.06933681 0.023778567 -0.07933119 0.20345843 -0.09885206 0.08254966 -0.09214238 0.03136359 0.038623303 0.16076747 0.18300962 0.03753746 0.15082763 -0.011010064 0.123658165 -0.074117996 -0.09768616 -0.019901665 0.033948068 -0.0922139 0.063501894 -0.12983823 0.027049191 -0.08727561 -0.12980682 -0.026060529 -0.058164652 -0.08195801 -0.004861535 0.114721514 -0.0493909 0.05803624 0.004161444 0.0053431722 -0.22546525 0.017313058 0.06958133 0.0154239265 0.17120697 -0.032990824 0.09153209 -0.22303905 0.049878623 0.121699125 0.04223588 0.15527923 0.118702926 -0.21287589 -0.040141866 0.1599469 -0.05043675 -0.12610094 -0.093058415 -0.06665877 0.07571933 0.035946164 -0.076124355 -0.014685564 0.025204966 0.0498557 -0.040825885 -0.100553386 -0.022000665 -0.03791711 -0.20377856 -0.0008085947 -0.0040180474 -0.08865572 0.12413031 0.06147361 -0.21755365 0.1040792 -0.10216154 -0.1860893 -0.011576139 -0.18964356 -0.113598816 0.0120671615 0.073242046 0.06737501 -0.044909813 -0.044074237 0.012335441 0.21463813 -0.20762007 0.021042518 0.15629444
3561 0.13475652 -0.059034158 -0.010201928 0.06314398 0.105967 0.11610874 -0.07251568 0.10105333 0.26468688 -0.13324116 0.12214762 0.022593925 -0.06435087 -0.01301456 -0.21482049 0.053218327 -0.035310134 0.17870396 -0.031765245 -0.047684286 -0.051215224 -0.09873378 0.0042634895 -0.010981724 0.014901383 0.13679606 -0.008832783 0.019571515 -0.10293298 0.07396335 -0.033423867 0.120464295 -0.1302849 -0.085425854 0.08582608 -0.028679427 -0.13754617 0.20307438 0.08539471 0.041474883 0.07358309 -0.08749059 0.049276 -0.0746707 0.21718481 -0.097714305 0.069036454 -0.06227356 0.045150023 0.016755579 0.17299534 0.18819787 0.07869791 0.1533147 -0.047715887 0.07998546 -0.024995292 -0.081911795 -0.042354815 0.034701712 -0.12065826 0.09463886 -0.112356305 0.030310014 -0.09607572 -0.09948241 0.026474454 -0.09710957 -0.07988519 -0.043831572 0.09566004 -0.05820741 0.05109554 -0.016975507 -0.042478044 -0.2607292 -0.011299362 0.07730387 -0.020534465 0.14414234 0.009498009 0.05910479 -0.24001592 0.0074869385 0.07781915 0.07076826 0.1630463 0.14801428 -0.23844732 -0.06868949 0.107524216 -0.060083136 -0.13908686 -0.058869295 0.0042764302 0.09400212 0.001630138 -0.037719596 0.036251176 0.049563114 0.054933406 -0.021848844 -0.083626024 -0.00092962285 -0.04784208 -0.15464383 -0.007769364 0.05403675 -0.07082669 0.1429591 0.09097157 -0.26508597 0.08964528 -0.08599393 -0.12814039 0.027665118 -0.18762289 -0.13258977 0.059833933 0.041223787 0.0736013 -0.025526112 -0.07803153 0.041214574 0.20305209 -0.1774219 0.041834954 0.1384995
3556 0.14337222 -0.06018878 -0.0050486685 0.07853089 0.12433813 0.10009482 -0.052336767 0.12575142 0.22521731 -0.15191728 0.11391685 0.014048983 -0.04644558 0.037587427 -0.21403444 0.10026656 -0.015714185 0.14916453 -0.013181767 -0.098588765 -0.05943495 -0.12301708 -0.038925134 -0.002533447 0.025708312 0.15156092 -0.016424218 0.027791953 -0.07335989 0.09199868 -0.05024909 0.1607637 -0.15979348 -0.078387864 0.08861571 -0.008757424 -0.15080732 0.19923764 0.13669327 0.070716985 0.042045705 -0.04762305 0.078654476 -0.052873433 0.20958085 -0.10390892 0.07531191 -0.0365651 0.04591963 -0.059212014 0.16114028 0.19737637 0.09923888 0.15750907 -0.07543316 0.09553406 -0.0072093992 -0.024256054 -0.05967152 0.02751818 -0.16551352 0.14317422 -0.07490652 0.02903423 -0.061406497 -0.08479984 0.0557855 -0.09604767 -0.043507162 -0.064625956 0.09301205 -0.04807801 0.085917935 -0.025500396 -0.077070124 -0.26654458 -0.038435027 0.060681727 -0.04172991 0.12971763 0.051399708 0.051186576 -0.23738219 -0.002174492 0.017935954 0.070189685 0.14677283 0.16381446 -0.24866955 -0.08495917 0.11372045 -0.078437865 -0.15039206 -0.015952174 0.052650675 0.114641376 -0.006095899 -0.015693845 0.07361105 0.03694029 0.068715245 -0.047895774 -0.077144936 -0.025958205 -0.057596598 -0.12063523 -0.009313293 0.039987233 -0.042223055 0.18073528 0.11493895 -0.28709677 0.05916909 -0.08913694 -0.11850594 0.03435746 -0.2010076 -0.11987224 0.08980071 0.001896489 0.10741401 -0.051099166 -0.076487385 0.061001934 0.24382454 -0.1574445 0.082736745 0.16068196
3566 0.1418246 -0.057027474 -0.004025331 0.045118447 0.08217437 0.13462162 -0.09924629 0.09579291 0.31263453 -0.14229229 0.12033897 0.042523243 -0.0778164 -0.04490804 -0.22888811 0.03497162 -0.0628081 0.22031659 -0.042714767 -0.012658254 -0.047475524 -0.089907385 0.046304896 -0.015143977 0.018323742 0.121196486 0.0026542535 0.025036799 -0.13900062 0.06904974 -0.021176105 0.086194836 -0.11896535 -0.10398995 0.09276265 -0.03753672 -0.13112423 0.21332939 0.05620451 0.020332558 0.10340384 -0.13151428 0.020673856 -0.0934081 0.2327242 -0.09297552 0.063494906 -0.08254129 0.04990872 0.08089518 0.20033471 0.18304504 0.062395558 0.1719983 -0.042676978 0.055820983 -0.036367845 -0.13031375 -0.031864196 0.04819676 -0.08210339 0.06443297 -0.14903823 0.025440948 -0.13432977 -0.11318683 0.0057191025 -0.11024224 -0.121275775 -0.038619123 0.10313938 -0.08208818 0.026873948 -0.008000799 -0.025034763 -0.270757 0.012831706 0.09842327 -0.020387018 0.15340881 -0.0069093388 0.059646048 -0.25516218 0.0036112426 0.12612912 0.07801607 0.1951399 0.15113018 -0.24034476 -0.07680494 0.0929671 -0.055239074 -0.13524733 -0.08916311 -0.028736625 0.08412883 -0.002303809 -0.048597813 0.020309392 0.0657219 0.0492997 0.0072552203 -0.08906013 0.027119372 -0.054296598 -0.17281887 0.0007638072 0.08377008 -0.110509135 0.11779609 0.085089386 -0.2717767 0.11725447 -0.09423341 -0.13341579 0.034428596 -0.18514782 -0.15527059 0.056594923 0.07990222 0.0517164 0.008455169 -0.08860656 0.047091577 0.18049666 -0.19100374 0.017795743 0.13147494
3550 0.1372246 -0.057218157 -0.0015594529 0.07955653 0.13023669 0.09145123 -0.036232658 0.12608705 0.20260577 -0.14721683 0.119009726 2.9266754e-05 -0.042272903 0.05559588 -0.20654339 0.10474788 -0.003937569 0.124547265 -0.009582945 -0.115365826 -0.06083105 -0.12479717 -0.053880557 -0.00024937035 0.01538253 0.1514183 -0.016377775 0.020172097 -0.05562782 0.086658895 -0.052850965 0.1775869 -0.1637442 -0.07210685 0.08908136 -0.004116487 -0.15855701 0.20050351 0.14806949 0.07502189 0.029994212 -0.020111945 0.086847655 -0.045985393 0.20623922 -0.10415936 0.074756935 -0.026244914 0.0421981 -0.08377573 0.14885512 0.20477031 0.09769077 0.15520805 -0.075200535 0.10593952 -0.0075016106 -0.0050884373 -0.06760792 0.024991749 -0.1778357 0.15814918 -0.062299855 0.030739114 -0.04994922 -0.085738055 0.06488426 -0.089054406 -0.032801103 -0.06664864 0.09640582 -0.036539003 0.10141414 -0.033749558 -0.07789629 -0.2609002 -0.050379988 0.053920954 -0.0423036 0.12386285 0.059937067 0.05601437 -0.23107614 0.002666787 0.004845239 0.06059607 0.13680236 0.16328351 -0.24449506 -0.07938611 0.12609789 -0.078148454 -0.15197407 -0.003822122 0.059786756 0.12104344 -0.005356052 -0.01622254 0.08002479 0.022272978 0.08017207 -0.06487285 -0.06848897 -0.0383932 -0.053205546 -0.119105004 -0.008623988 0.019590681 -0.031493325 0.18835628 0.11517573 -0.28062412 0.05756708 -0.094977915 -0.12251967 0.028854653 -0.19786689 -0.113795556 0.09475193 -0.011294939 0.11466095 -0.06761221 -0.07008082 0.06231717 0.25824964 -0.15954882 0.09610448 0.1668903
3551 0.13994722 -0.05957056 0.0018273721 0.07685225 0.12070712 0.097704425 -0.05783055 0.13008907 0.22692429 -0.15500496 0.10815894 0.014687673 -0.04594067 0.038641214 -0.21913199 0.102073886 -0.021783251 0.1563823 -0.017714158 -0.089968376 -0.05707674 -0.11891833 -0.035363864 -0.0017621518 0.028523015 0.14902137 -0.0136029795 0.029696776 -0.07680007 0.0974532 -0.051871616 0.16199322 -0.15731615 -0.08010306 0.08275497 -0.006644952 -0.15185241 0.20177671 0.13217671 0.066547416 0.047104415 -0.057412017 0.07618527 -0.05665276 0.21224512 -0.10028563 0.0668821 -0.038163554 0.04891151 -0.04706416 0.16379154 0.19632873 0.099037506 0.15389991 -0.07239512 0.0827282 -0.0051734396 -0.036773544 -0.056967694 0.033264976 -0.15665975 0.13724287 -0.07743523 0.031661082 -0.07158397 -0.086142324 0.057926286 -0.101920545 -0.04982568 -0.06494416 0.092739016 -0.046459083 0.07413533 -0.031368963 -0.07113694 -0.264539 -0.039086446 0.066422716 -0.04560565 0.123782374 0.0506869 0.049804606 -0.23663346 -0.008568041 0.026951771 0.07204745 0.1453116 0.16574189 -0.24856046 -0.085642785 0.102014184 -0.07051902 -0.1468535 -0.014671122 0.05260851 0.113129064 -0.014856224 -0.013202374 0.06990272 0.039943088 0.067988805 -0.044491895 -0.07154836 -0.017506002 -0.0562524 -0.118985265 -0.0070575443 0.046383984 -0.04489981 0.17349428 0.11603287 -0.28749973 0.06094399 -0.086978 -0.109265395 0.04016492 -0.19701064 -0.12696823 0.09005405 0.004896137 0.099884294 -0.0429873 -0.08370545 0.062311295 0.23346566 -0.15382005 0.08011884 0.15254886
3563 0.10576735 -0.05774149 -0.028626561 0.05416629 0.10834176 0.106561005 -0.02818026 0.026385035 0.2590634 -0.08648179 0.18524235 -0.023321588 -0.08795282 -0.05958369 -0.20780724 -0.04623475 -0.0487085 0.13619655 -0.041761626 -0.03848325 -0.023572234 -0.04770193 0.051608402 -0.046120867 -0.058486894 0.13152948 0.013639582 -0.062065333 -0.074158534 -0.011281587 0.014399066 0.07511356 -0.07518221 -0.093036264 0.116280966 -0.07951729 -0.12575711 0.19669615 0.0622321 -0.009734073 0.077903986 -0.049979534 0.023189027 -0.069372065 0.19479169 -0.09986015 0.09418458 -0.100795716 0.03233197 0.018138334 0.14770284 0.1788193 0.03664142 0.14177264 0.00028276758 0.1566758 -0.08255245 -0.09179739 -0.019570637 0.034320973 -0.10562354 0.060908917 -0.124291874 0.03674622 -0.068162076 -0.12835184 -0.034314796 -0.033333264 -0.066600494 0.00863792 0.11745868 -0.033364065 0.07198325 0.016192123 0.020645062 -0.21108115 0.01712817 0.05777474 0.027513694 0.18850288 -0.041257106 0.1072343 -0.21286823 0.06821483 0.12526996 0.03875869 0.1458469 0.10982717 -0.21388702 -0.030191839 0.18854064 -0.05220325 -0.12084219 -0.096041985 -0.08367592 0.074717134 0.057151448 -0.09626046 -0.03243502 0.016331458 0.049665894 -0.05676174 -0.100381404 -0.042193558 -0.03551805 -0.21896079 0.0033713111 -0.036005102 -0.07233435 0.12319155 0.046600845 -0.20039174 0.09852917 -0.10186498 -0.20455456 -0.020201568 -0.18895762 -0.09582857 -0.010119434 0.064873025 0.07081314 -0.067984805 -0.031944375 -0.010384372 0.2269914 -0.2213777 0.013575204 0.16361916
3549 0.12524135 -0.0532556 -0.0062667658 0.092107534 0.13752593 0.07094701 -0.0029420874 0.10488023 0.18008721 -0.13183868 0.15322892 -0.038128417 -0.049146496 0.06288624 -0.20513265 0.07890795 0.00962257 0.08959123 -0.0047856513 -0.13800395 -0.05502778 -0.107241325 -0.055493135 -0.013302502 -0.015575684 0.1519352 -0.0070641264 -0.015809756 -0.01745106 0.059449304 -0.0356366 0.17915581 -0.14564365 -0.07028123 0.09071534 -0.027353968 -0.15937321 0.1892203 0.15744726 0.06803151 0.0109452475 0.018713351 0.08693081 -0.040050358 0.1905006 -0.10375971 0.08935381 -0.03654988 0.03547184 -0.1160939 0.12634724 0.2058864 0.0869151 0.14826937 -0.058214124 0.14942753 -0.032078046 0.020605188 -0.06894348 0.013747971 -0.18845387 0.17081995 -0.04360161 0.0380992 -0.017949633 -0.08954717 0.052003246 -0.0594346 -0.012813587 -0.047530618 0.1059047 -0.015472141 0.12126713 -0.028258905 -0.065259464 -0.2380341 -0.055565458 0.031890467 -0.01807027 0.13662033 0.05044691 0.076283604 -0.21975069 0.025732888 -0.006699053 0.038094465 0.11190106 0.1446826 -0.23529005 -0.06794665 0.16188417 -0.085116155 -0.1510197 0.00092318445 0.047795754 0.119639 0.020637065 -0.029335048 0.06636461 -0.004801578 0.08371547 -0.099020906 -0.07475954 -0.07585288 -0.047032908 -0.12873942 -0.010435366 -0.032734368 -0.010340593 0.19586873 0.108053476 -0.25082067 0.045748767 -0.10415 -0.15313314 -0.0012972825 -0.19243641 -0.094647974 0.07546454 -0.02737441 0.12414755 -0.09879232 -0.046253074 0.03847437 0.28568587 -0.16240323 0.108878456 0.18239
3558 0.10770527 -0.05539013 -0.020999756 0.07129688 0.12198119 0.0949212 -0.022191321 0.050167665 0.24416688 -0.099533856 0.17650715 -0.033518303 -0.07346874 -0.021856721 -0.20764498 -0.0071516633 -0.028505353 0.12605394 -0.0261641 -0.07148954 -0.0383313 -0.06436166 0.016171688 -0.034652732 -0.046859216 0.1387748 0.0020035447 -0.048345994 -0.05805691 0.009614014 -0.0033230234 0.10608656 -0.098957404 -0.0861856 0.112792715 -0.06697637 -0.13317841 0.199553 0.09308311 0.0103475675 0.053741064 -0.026713833 0.04544296 -0.05909941 0.19648536 -0.103881575 0.09591806 -0.087381996 0.0345641 -0.024151916 0.14443642 0.18808194 0.053593952 0.14606325 -0.018451564 0.15925728 -0.06967919 -0.056243654 -0.028857099 0.026913721 -0.13326174 0.09912764 -0.09964197 0.036330644 -0.055385303 -0.12174723 -0.006469877 -0.04660935 -0.048081808 -0.003951933 0.117906876 -0.03424459 0.08974694 0.0024519376 -0.00879488 -0.22569932 -0.0024518473 0.050070573 0.009086424 0.17142996 -0.013196983 0.098010816 -0.21607812 0.056265935 0.08064073 0.037414305 0.13888732 0.12749594 -0.22598825 -0.043045603 0.18392873 -0.062689416 -0.13070394 -0.07002944 -0.04058562 0.08677718 0.045677986 -0.07392378 -0.0027313684 0.0064822347 0.056281988 -0.071254484 -0.098621584 -0.05373407 -0.036451038 -0.19819921 -0.002255044 -0.039617892 -0.056310557 0.14377782 0.06769116 -0.2202362 0.08663418 -0.10068659 -0.19682468 -0.012974008 -0.19876868 -0.09845074 0.021039385 0.038550947 0.0887731 -0.08020933 -0.035497744 0.0095940735 0.2518005 -0.20372945 0.044797413 0.17297044
3562 0.15056568 -0.06255927 0.0010228574 0.048747323 0.085452504 0.13117099 -0.110344164 0.123377904 0.29314578 -0.16084021 0.087876834 0.060653377 -0.06272549 -0.016767295 -0.22433352 0.07990123 -0.053865954 0.22025748 -0.03472502 -0.032114282 -0.0525263 -0.11128419 0.014917536 -0.0019575786 0.050150026 0.12445581 -0.002620779 0.062026273 -0.13726327 0.09968494 -0.04095833 0.11684774 -0.13845803 -0.101556174 0.07660608 -0.012373233 -0.13825132 0.21669911 0.073242016 0.04978111 0.09883187 -0.13054885 0.035007324 -0.08582461 0.24015418 -0.09235762 0.054036796 -0.055572376 0.054936208 0.058907226 0.20702381 0.18466166 0.08520939 0.17352489 -0.06869297 0.027507538 -0.014427586 -0.11204827 -0.04370189 0.047267396 -0.0968899 0.08144241 -0.13499087 0.022579461 -0.13428715 -0.09411113 0.03888951 -0.12800351 -0.116460286 -0.061470818 0.090287544 -0.09005946 0.028907793 -0.02165167 -0.049516246 -0.28445822 -0.0035459057 0.098486386 -0.04237081 0.12848067 0.022243464 0.03722219 -0.26332647 -0.019360147 0.09424125 0.08639656 0.19208306 0.16526577 -0.2490622 -0.09239448 0.06469743 -0.058399078 -0.13930507 -0.056912288 0.017908698 0.09102252 -0.02966485 -0.020777494 0.05204391 0.07521825 0.05059005 0.016264398 -0.07085182 0.036185704 -0.066373736 -0.1338276 -0.006757731 0.1173899 -0.096408695 0.13668978 0.10640364 -0.29581064 0.1066956 -0.08507052 -0.09405898 0.053620193 -0.18903668 -0.15992802 0.08484486 0.052440222 0.063619256 0.01775667 -0.107609645 0.068945765 0.17304192 -0.17257345 0.032663506 0.12199738
3567 0.1439507 -0.058665164 -0.0063591935 0.03072949 0.053285073 0.14705035 -0.12974843 0.089633524 0.34527168 -0.14090796 0.10284893 0.06672916 -0.080065496 -0.077399604 -0.21853927 0.018169742 -0.0816449 0.2527108 -0.055106543 0.03133125 -0.039606716 -0.081037655 0.080125466 -0.012464652 0.024675552 0.09489528 0.011905936 0.035083316 -0.16851366 0.064802244 -0.017539216 0.054760475 -0.09224073 -0.119216576 0.08451943 -0.04325414 -0.120599195 0.2168469 0.011214779 0.00089124264 0.1393263 -0.17131226 -0.0018151202 -0.11276217 0.23674126 -0.07658149 0.05597087 -0.098197654 0.05945149 0.14520577 0.2190463 0.16135673 0.054369625 0.17531596 -0.030658647 0.017788721 -0.047499057 -0.18130869 -0.018737609 0.054661386 -0.030297367 0.018656619 -0.18002161 0.020859234 -0.16705957 -0.12040782 -0.0076841298 -0.119879566 -0.15738562 -0.030144136 0.101729065 -0.09667463 -0.011487362 -0.008231812 -0.0033313464 -0.26926836 0.03390941 0.11164202 -0.019075867 0.15442704 -0.026766486 0.052030202 -0.25877985 0.0038303602 0.16356282 0.078869715 0.21460243 0.13163722 -0.22930457 -0.06921019 0.07162134 -0.03413989 -0.11833424 -0.1162301 -0.04792585 0.061544634 -0.008892859 -0.053985566 0.0042740875 0.08323144 0.033412017 0.048147827 -0.083007105 0.0498963 -0.054409303 -0.17598881 0.007911171 0.1250015 -0.13996944 0.084326416 0.06947226 -0.25175315 0.1445595 -0.08503829 -0.120239384 0.04296802 -0.16495182 -0.16778049 0.04799436 0.10186119 0.024907224 0.04939928 -0.09212666 0.044777416 0.12431521 -0.19540556 -0.014084533 0.10625533
3553 0.12224703 -0.053448558 -0.013026727 0.08894517 0.13959673 0.07919113 -0.0046306965 0.08388262 0.19438685 -0.12407306 0.16961436 -0.04261137 -0.054298434 0.043066848 -0.20704518 0.044036854 -0.000730269 0.09261359 -0.012795911 -0.12749843 -0.044079598 -0.09991803 -0.03285235 -0.01521023 -0.031232359 0.15574346 -0.0031286972 -0.035498317 -0.024265395 0.0351563 -0.02729528 0.15814148 -0.13447149 -0.07483889 0.103667215 -0.038802482 -0.15787227 0.19590634 0.1504371 0.050739296 0.022355245 0.011724727 0.08006708 -0.039668694 0.19480611 -0.11046233 0.09169744 -0.04786402 0.0374074 -0.10138099 0.13266236 0.20648377 0.075468756 0.14357908 -0.047523376 0.1665181 -0.0470829 0.0034824149 -0.059815183 0.01801954 -0.17887744 0.15127343 -0.057041474 0.039547507 -0.019486459 -0.1013104 0.03253345 -0.045102578 -0.015916511 -0.034730125 0.1084803 -0.0117731225 0.11486138 -0.02185591 -0.047485936 -0.23138565 -0.040109128 0.03582023 -0.011118937 0.15659666 0.029940885 0.08781407 -0.21921901 0.040521476 0.012612481 0.03864767 0.118462786 0.13856691 -0.23996072 -0.06361933 0.1780155 -0.08121843 -0.14624694 -0.013853766 0.01620386 0.10664424 0.034632746 -0.050459985 0.049102675 -0.0021245442 0.07548689 -0.097532295 -0.08754275 -0.080880895 -0.047952022 -0.14696331 -0.0065602306 -0.043991152 -0.018247193 0.18458475 0.09354433 -0.24327466 0.050182264 -0.106965296 -0.1741699 -0.012233124 -0.19664067 -0.093074195 0.05228825 -0.012190075 0.11876487 -0.100853145 -0.036432177 0.030027285 0.28731763 -0.18305664 0.092802756 0.18726407
3569 0.12197054 -0.06103898 -0.019756429 0.053507764 0.0995998 0.12200586 -0.06472693 0.043677133 0.30449343 -0.105038285 0.17097108 -0.0009917031 -0.08562287 -0.07111242 -0.2191386 -0.025913775 -0.061453972 0.18105084 -0.050226998 -0.027650269 -0.03414545 -0.055228222 0.067542784 -0.03764096 -0.035088293 0.12596494 0.0153714605 -0.03308166 -0.102756456 0.009442687 -0.00034941005 0.07005069 -0.081003524 -0.10363661 0.114269875 -0.07786476 -0.13209523 0.21317004 0.051278062 -0.0120953405 0.09840329 -0.094556674 0.021382708 -0.09210918 0.2198929 -0.099621035 0.08501243 -0.11160757 0.035665054 0.06427174 0.17302783 0.1873767 0.03882463 0.16504844 -0.006608263 0.1254148 -0.07704395 -0.121087745 -0.015392596 0.039174557 -0.089713715 0.04975343 -0.14713813 0.030509213 -0.10363981 -0.13980727 -0.027104275 -0.06369189 -0.100361265 -0.0012448039 0.117026895 -0.053947296 0.04714321 0.011483111 0.014640994 -0.24550895 0.023479065 0.07781295 0.015443662 0.18708834 -0.039004378 0.08824229 -0.23696966 0.054127626 0.14346485 0.0484524 0.17062959 0.12505291 -0.23039596 -0.042692557 0.1584054 -0.04680343 -0.12720935 -0.10661523 -0.07484919 0.07330098 0.04152384 -0.0891056 -0.019785237 0.04038521 0.04834641 -0.025792094 -0.105317295 -0.0097312955 -0.044102732 -0.22145684 0.00468077 0.009722792 -0.102052115 0.118146405 0.059192188 -0.23470145 0.115033925 -0.10490117 -0.19467998 -0.002800811 -0.19516768 -0.12268813 0.010303589 0.085969344 0.060500484 -0.03229567 -0.051793877 0.0074339868 0.21180047 -0.2273323 0.004475671 0.15298691
3570 0.113813944 -0.055207685 -0.020511996 0.03881363 0.07999923 0.13843775 -0.07838074 0.025654115 0.3399951 -0.097695895 0.17745017 0.011863825 -0.100061946 -0.1119559 -0.22801043 -0.06508149 -0.08226738 0.20964924 -0.064196125 0.018002098 -0.023810904 -0.033738367 0.10274769 -0.049798038 -0.039734032 0.10764402 0.01936447 -0.03897308 -0.13347362 -0.0069361473 0.016081646 0.026909176 -0.05965564 -0.11016026 0.111624904 -0.09464005 -0.10834369 0.21405633 0.0061469087 -0.03475045 0.12301954 -0.13046108 -0.0061275098 -0.107555896 0.21602999 -0.09359329 0.0869874 -0.13240092 0.03765894 0.12748149 0.1927959 0.17658898 0.023618441 0.16250299 0.009690515 0.10598309 -0.092223816 -0.16669883 0.0014478671 0.04998033 -0.04126227 0.0080507565 -0.17821334 0.031239994 -0.13108763 -0.14958519 -0.06165345 -0.06502131 -0.12986732 0.015359207 0.11911145 -0.071747825 0.016524635 0.019211685 0.040281963 -0.2356993 0.054931246 0.09066836 0.027034363 0.19525789 -0.06858399 0.09442758 -0.2415877 0.05920628 0.19564196 0.053690676 0.1918027 0.111396916 -0.21513739 -0.033165134 0.15420456 -0.038276363 -0.119174324 -0.14593786 -0.12187097 0.058220863 0.03936358 -0.101674594 -0.05462539 0.050371103 0.028581413 -0.004299633 -0.11129093 0.014398607 -0.03675844 -0.24705368 0.011875485 0.02235881 -0.12772173 0.09237229 0.047998786 -0.22010545 0.1427104 -0.100040615 -0.20658624 -0.0050410293 -0.18785863 -0.13574462 -0.01166062 0.12550119 0.032714564 -0.016296566 -0.056392018 -0.0047082296 0.18348593 -0.23672913 -0.030016564 0.14878249
3557 0.14258966 -0.058773354 -0.003205699 0.053313896 0.09190674 0.116163895 -0.08629555 0.11033402 0.27889687 -0.14166102 0.103187084 0.04225878 -0.061812 -0.016822748 -0.21617785 0.06779451 -0.044344384 0.19745845 -0.028140368 -0.04218149 -0.0492811 -0.10441696 0.008370872 -0.007977044 0.028291978 0.1305544 -0.005986393 0.035719823 -0.11825668 0.084957905 -0.036767155 0.11621198 -0.13021962 -0.095171355 0.08423153 -0.024476377 -0.13574404 0.20572357 0.082344376 0.043381903 0.08467841 -0.10678948 0.04550929 -0.08300514 0.22542328 -0.093997106 0.060390994 -0.062263504 0.046010368 0.033160668 0.18455884 0.18391699 0.0800497 0.16014725 -0.053337995 0.054608043 -0.02147301 -0.097878985 -0.036873948 0.038696792 -0.105542496 0.090226 -0.1237981 0.026666967 -0.11149986 -0.09938378 0.02794199 -0.10597477 -0.09624971 -0.04802175 0.092897296 -0.06824306 0.041245375 -0.017511275 -0.043412946 -0.26884264 -0.01054649 0.08637483 -0.031347726 0.13299279 0.014895162 0.05331212 -0.24204957 -0.0030677456 0.08243365 0.07785915 0.17647223 0.15493834 -0.24125677 -0.080281295 0.09159762 -0.05535551 -0.13863923 -0.056390863 0.011426189 0.09111032 -0.01058834 -0.034198277 0.03781235 0.06378299 0.051218454 -0.0032755875 -0.0765079 0.014585693 -0.0538075 -0.14922684 -0.0070097274 0.08078749 -0.08493149 0.13442704 0.09571379 -0.27869973 0.09050569 -0.08504322 -0.116085246 0.042821426 -0.18840453 -0.14142214 0.06644205 0.052315656 0.07098974 -0.002734093 -0.0841213 0.055911884 0.18498924 -0.17443416 0.040302824 0.12846118
3571 0.1387044 -0.06283875 -0.01707368 0.039634883 0.08371134 0.14421031 -0.10373119 0.06896121 0.3428808 -0.13182056 0.14884181 0.038606185 -0.09333241 -0.08394302 -0.23147346 -0.004611297 -0.07621559 0.23547131 -0.0570489 0.0016369716 -0.041219298 -0.075752765 0.07305357 -0.028041376 -0.0070730005 0.11202143 0.015997691 0.0053158533 -0.15254994 0.03993403 -0.009259578 0.057379592 -0.0931451 -0.11975258 0.107608564 -0.065766945 -0.12794402 0.22847244 0.03139655 -0.00893438 0.12847808 -0.14844878 0.006367916 -0.11199881 0.24949485 -0.09230951 0.07756403 -0.10607018 0.048352893 0.11699348 0.21338364 0.189301 0.050917897 0.18333982 -0.019738726 0.06956401 -0.06824975 -0.1590214 -0.021025086 0.050158758 -0.06318137 0.03656095 -0.17805824 0.023322206 -0.14459196 -0.13551326 -0.025513658 -0.09594713 -0.14388943 -0.018557193 0.11827683 -0.09078636 0.016372614 0.0030023823 0.008503692 -0.27496114 0.031849757 0.10603797 0.0019376334 0.18499652 -0.040232718 0.07099844 -0.26274672 0.029399985 0.16688752 0.06660399 0.21297729 0.14247541 -0.24648868 -0.06551474 0.116203465 -0.04308759 -0.1351514 -0.11851683 -0.06440542 0.07192117 0.010726876 -0.07741296 -0.011239021 0.06900798 0.041485004 0.013798895 -0.09610037 0.023891613 -0.05931294 -0.21192634 0.002190772 0.07120893 -0.13014999 0.104470134 0.07213635 -0.25848046 0.14492878 -0.1053593 -0.16938254 0.02109946 -0.19813028 -0.15493786 0.026144067 0.100721866 0.040831838 0.010900232 -0.081431784 0.026910638 0.17991553 -0.22956343 -0.005053098 0.13714123
3552 0.14875391 -0.06333042 0.0040862714 0.07336754 0.12013769 0.09770099 -0.06440905 0.13392796 0.2304836 -0.15646712 0.10186642 0.027756633 -0.05045392 0.038456198 -0.21895379 0.11017733 -0.021073751 0.15926841 -0.01187033 -0.09140967 -0.06374818 -0.12635502 -0.042698838 0.006353448 0.039776783 0.14615037 -0.017145868 0.0398577 -0.08418077 0.104831144 -0.057710703 0.16401854 -0.16357045 -0.07907697 0.08132477 0.001423309 -0.15170677 0.20185225 0.13363554 0.0774605 0.048040383 -0.059334695 0.07896378 -0.06154445 0.2173021 -0.097714365 0.067185156 -0.031806767 0.042654183 -0.043526784 0.16994028 0.19922952 0.10411446 0.16191553 -0.07970127 0.0763917 0.0008957423 -0.036210507 -0.06451592 0.032284364 -0.1596272 0.14253493 -0.07962885 0.02677579 -0.0707846 -0.08342976 0.060009744 -0.10338856 -0.0515034 -0.06674967 0.0876207 -0.054014526 0.07600464 -0.03225084 -0.0826858 -0.2742416 -0.035792556 0.06582285 -0.0459986 0.11633761 0.053069007 0.0445642 -0.23876424 -0.013197961 0.018748976 0.07091098 0.15113933 0.16769762 -0.25124285 -0.08675936 0.09337085 -0.069998816 -0.14775373 -0.01843871 0.06407207 0.11201995 -0.020571033 -0.007506405 0.076320946 0.04822422 0.07162213 -0.039423574 -0.07044817 -0.008951468 -0.056080572 -0.11119581 -0.010588367 0.053777352 -0.044269808 0.17851393 0.11414011 -0.29005492 0.06368317 -0.08581801 -0.09963281 0.04406302 -0.19677009 -0.13364395 0.09999468 0.0018598174 0.10140089 -0.036794268 -0.0867038 0.06684208 0.23049831 -0.1509316 0.08276577 0.14914122
3568 0.10164304 -0.05361946 -0.027007587 0.053480286 0.10483798 0.10968131 -0.038486235 0.026568372 0.27576622 -0.09194576 0.18703645 -0.0142809935 -0.084945075 -0.06743277 -0.2124479 -0.048251264 -0.05102404 0.15050133 -0.04230361 -0.028288484 -0.028329877 -0.041499913 0.06313292 -0.04694353 -0.04858769 0.12948522 0.013683838 -0.059381533 -0.08034277 -0.011127992 0.010101578 0.06551135 -0.07020908 -0.097060084 0.11895603 -0.08922194 -0.12116627 0.19664991 0.051959135 -0.021144189 0.08816939 -0.06544173 0.019874623 -0.085342176 0.19738111 -0.09768774 0.091257386 -0.107476585 0.029473469 0.045221247 0.15320353 0.18217058 0.030073205 0.14915727 0.00089998683 0.1500048 -0.08779309 -0.09997563 -0.01686176 0.03554287 -0.096534744 0.05065765 -0.13626346 0.03388911 -0.081498556 -0.1331624 -0.0399343 -0.045886658 -0.08388129 0.010248444 0.11506782 -0.041840494 0.0562558 0.020058062 0.019486094 -0.22143757 0.02490032 0.06892626 0.028199948 0.189241 -0.046933085 0.10354064 -0.2173585 0.066611424 0.13980506 0.035553627 0.15417178 0.11257125 -0.21287487 -0.027190201 0.17514457 -0.049011897 -0.11712158 -0.105571076 -0.087253235 0.07407174 0.0533044 -0.1002607 -0.037408084 0.018214166 0.04256215 -0.04879427 -0.10170513 -0.029725352 -0.03468329 -0.2274514 3.1048945e-05 -0.028631102 -0.084018774 0.119294375 0.04802378 -0.212269 0.102622986 -0.10513138 -0.20712557 -0.013604749 -0.19028603 -0.10001683 -0.011456755 0.07504559 0.060667038 -0.059645478 -0.031277772 -0.0089740185 0.21600543 -0.22497089 0.004570694 0.16294914
3548 0.124270424 -0.057196762 -0.015624513 0.08878148 0.13959247 0.08557496 -0.010783891 0.09419215 0.20957193 -0.12837856 0.160342 -0.03469703 -0.05320519 0.03585105 -0.20995267 0.051496036 -0.004844169 0.10545611 -0.010047181 -0.11867966 -0.050185226 -0.098092295 -0.034819473 -0.019107357 -0.022074271 0.15510125 -0.004949555 -0.026691208 -0.034052722 0.043654844 -0.029910546 0.157021 -0.13361056 -0.07904562 0.09476288 -0.032287028 -0.15673168 0.19548221 0.14393008 0.048497293 0.027473772 0.0014829319 0.0793944 -0.050246675 0.19944714 -0.10841893 0.09208767 -0.052893665 0.04263387 -0.083247356 0.1352614 0.20425215 0.07519684 0.15313381 -0.044648893 0.1499692 -0.03941375 -0.011236586 -0.0597641 0.017139602 -0.17019533 0.15297122 -0.06910738 0.03324433 -0.034659147 -0.10418894 0.033129256 -0.05335401 -0.029329568 -0.03969871 0.11051141 -0.018064704 0.111734144 -0.0183366 -0.0468043 -0.2448131 -0.03828994 0.04470978 -0.012110859 0.15223172 0.030891364 0.083108775 -0.22749971 0.03303227 0.016384266 0.04325501 0.12736194 0.14417174 -0.24289626 -0.0610175 0.16209285 -0.076658934 -0.1493205 -0.023415633 0.020334024 0.11324446 0.025580902 -0.04086617 0.049491283 0.0029585753 0.07866725 -0.0874487 -0.083148934 -0.069361225 -0.04856925 -0.14920995 -0.0042488165 -0.029685352 -0.030377297 0.18233217 0.09549024 -0.24627978 0.060760118 -0.10125863 -0.16415973 -0.0024595647 -0.19728445 -0.1014171 0.06289946 -0.0061956374 0.10829325 -0.085388385 -0.04419771 0.031517953 0.27580857 -0.18151435 0.09152379 0.18370445
3572 0.14886722 -0.06156998 -0.008064976 0.02749958 0.058510277 0.15548842 -0.1286019 0.07960679 0.37498152 -0.14274585 0.129626 0.05659068 -0.09086103 -0.0890246 -0.23597872 -0.0047805076 -0.08169519 0.2673658 -0.063457645 0.032809775 -0.043031108 -0.07315855 0.091785505 -0.025819117 0.0086801015 0.10087757 0.020624513 0.029364895 -0.17944227 0.05616753 -0.0077705574 0.051431537 -0.09314872 -0.1317597 0.09064852 -0.06114607 -0.1324976 0.23490472 0.011391867 -0.010925239 0.15192679 -0.17831047 -0.012091408 -0.12022233 0.25990775 -0.085708104 0.06288925 -0.11412324 0.06317688 0.16169156 0.23388052 0.17466737 0.046337884 0.18522878 -0.024380656 0.03848126 -0.065185115 -0.19775887 -0.020589063 0.056210157 -0.028700668 0.014054043 -0.19626264 0.022700358 -0.17701273 -0.13691448 -0.022977663 -0.12145622 -0.17197587 -0.028538968 0.113871895 -0.101837575 -0.011795243 -0.0045796223 0.014635345 -0.28043526 0.035146765 0.11680423 -0.006228647 0.17894156 -0.038252857 0.06502864 -0.27818963 0.017458612 0.18924005 0.07559678 0.23135196 0.13850674 -0.24222918 -0.07671587 0.08808115 -0.035842862 -0.12897746 -0.12824215 -0.07170983 0.06818475 -0.00095571275 -0.064135164 -0.0072811474 0.08715269 0.033473004 0.04500171 -0.08930055 0.044443052 -0.065403104 -0.20795287 0.009674346 0.1187886 -0.15518966 0.09043401 0.066934176 -0.26043972 0.16168997 -0.097350545 -0.14699599 0.029478457 -0.17851624 -0.17475824 0.040208027 0.11995796 0.029985769 0.048130807 -0.09155125 0.032323953 0.14183316 -0.22808146 -0.023187047 0.12030878
