625 128
3620 0.14139175 0.15002634 0.30033123 -0.13326019 0.026220968 -0.16849284 0.12909412 -0.17906679 0.07521512 0.0014744151 -0.5855047 0.14775828 -0.44844508 0.29287803 0.21863225 0.13328952 -0.4968665 -0.117447816 -0.049773093 0.33447012 0.25827 -0.5300366 -0.043397043 -0.058393635 -0.31975183 0.4179072 -0.15339723 -0.40747043 -0.019735571 -0.52637494 -0.4367087 0.20643334 -0.118875176 0.13912363 -0.39270273 -0.18922643 -0.5450204 0.5090705 0.11184779 -0.40121275 0.37471578 -0.8001618 0.4230502 0.11032784 0.1359315 0.5068368 -0.050755367 -0.25489753 0.33256236 0.060443655 -0.18862723 0.59876096 -0.1003982 0.20697196 0.1477306 -0.11460022 0.6266659 -0.026841087 -0.44756246 -0.28657812 0.35617548 -1.0970986 0.11904878 0.067940764 0.64747155 0.002409772 0.15425433 -0.503074 -0.16570896 0.21061197 0.26881886 -0.4269313 -0.05192183 -0.17704006 -0.14612772 -0.2987482 -0.4566824 0.29924047 1.0455127 -0.5064847 0.29684693 0.1389451 0.22715159 -0.48066476 -0.6589617 0.1303503 0.27845493 0.46171862 0.03913568 0.30120972 -0.25426793 0.13758633 -0.3676738 0.024756487 0.39814913 0.1458276 -0.033305477 -0.13290669 -0.04179988 0.75904304 0.15652649 -0.1538789 -0.017800005 -0.096636936 -0.14340842 -0.10057758 0.09230352 0.2745969 -0.07476411 -0.038419884 -0.09640771 -0.81904644 -0.124500625 -0.4997494 -0.1800561 0.39727122 0.36069387 -0.50486356 -0.007673941 0.20733316 0.253697 0.87529516 -0.62914133 0.44387913 0.040241998 -0.07417363 0.1018494 -0.43241894
4170 0.1714435 0.22129934 0.019704223 -0.18297955 0.18184975 0.13977346 0.2933573 0.15705334 0.6406067 0.1598572 -0.27396014 -0.10907316 -0.76519835 -0.020516884 0.26471087 0.27577984 0.13890523 0.16475344 0.2076886 0.2024153 0.35720775 -0.06846952 0.26046792 0.32039535 -0.5726409 0.52993697 -0.27128822 -0.12022982 -0.021633703 -0.7130775 -0.06812539 -0.0067574177 0.24143885 -0.09047437 0.07430867 -0.43085405 -0.18923108 0.022649461 -0.28943112 -0.5325239 0.67325765 -0.28423724 -0.8269748 0.35511386 0.5750645 0.25858214 0.023517078 0.028543144 -0.41199666 -0.19096197 -0.1040352 -0.38954896 -0.034949224 -0.25410864 0.4053561 0.46838203 0.32727018 -0.16227289 -0.2766315 -0.2878255 -0.31907818 0.2603166 0.6420576 0.041240696 0.11234125 0.07819775 0.2575152 0.059234176 0.33783418 0.39708045 -0.11674709 -0.4005053 0.5624654 0.10379368 -0.20812719 -0.23898281 -0.39757854 0.54472804 0.5651359 0.24757276 -0.26876137 -0.394398 0.2856112 -0.4480354 -0.65415984 0.012739873 0.46119773 -0.3472728 -0.43098462 0.72061396 -0.80163366 0.012637811 -0.10281483 0.10621708 0.18927702 0.1346592 0.37589914 0.4124934 0.28350613 0.61570126 -0.34075636 -0.10084681 0.584058 0.0830377 -0.7292355 -0.32758865 0.13450511 -0.1931705 -0.42091703 -0.6924705 -0.10401325 -0.35499394 0.009258997 -0.35472685 -0.15441683 0.099012464 0.3890056 -0.03886027 0.20621581 0.28396893 -0.047453888 0.21993215 -0.34945405 0.13756531 0.21326685 0.15016079 0.04895975 -0.37328234
3621 0.087477505 0.097661115 0.13980702 -0.09399885 0.025084026 -0.25971958 0.27493572 -0.17714639 -0.04346629 0.008167287 -0.6973104 0.19990149 -0.4810129 0.28990373 0.22948007 0.03253995 -0.41634142 -0.20690025 0.025165817 0.4002631 0.2732022 -0.5021339 -0.1180114 -0.06931188 -0.30954596 0.35396504 -0.3015546 -0.53925586 -0.05251981 -0.49262175 -0.34805894 0.19222932 -0.1901231 0.28533235 -0.43736002 -0.24400853 -0.66877794 0.50131077 -0.011218681 -0.37963706 0.30569512 -0.72873044 0.40945616 0.13939582 0.11624054 0.52748275 0.02125694 -0.27249387 0.3427104 0.103952385 -0.36407408 0.71185344 -0.3480133 0.11614182 0.1175437 -0.065853484 0.6617018 0.014714476 -0.47575194 -0.2688708 0.42786038 -1.12411 0.18191794 0.09091975 0.6344218 0.07076717 0.16025922 -0.49630898 -0.19287583 0.31518152 0.3834948 -0.50515527 0.021096366 -0.030455453 -0.26372895 -0.3010746 -0.41571015 0.22447096 1.0955304 -0.45077723 0.17831479 0.041891623 0.25153247 -0.44029966 -0.68059605 0.23436 0.29361817 0.4522703 -0.034487423 0.2749112 -0.09442371 0.12083705 -0.40194067 0.0009021387 0.4468481 0.12590232 -0.14313458 -0.17296223 -0.16073929 0.7793509 0.034779806 -0.24441896 -0.007964925 -0.063515946 -0.11124005 -0.1750483 0.20487969 0.19618022 0.0035889521 -0.06337597 -0.06575923 -0.82657206 -0.17273031 -0.56189644 -0.21809842 0.34411636 0.32980055 -0.5033855 0.06991787 0.17826699 0.24892938 1.0259817 -0.5783856 0.4772411 -0.0095759 0.053483732 0.09960573 -0.36872256
4169 0.19638537 0.19330302 -0.00545741 -0.18745752 0.14333722 0.1578787 0.34522942 0.24697812 0.533063 0.23119026 -0.2879761 -0.08502085 -0.70556694 -0.034338314 0.15501188 0.31651178 0.17978197 0.116721734 0.14307912 0.21783136 0.4316634 -0.08437928 0.30129907 0.15836404 -0.59821945 0.47781065 -0.20047034 -0.22565404 -0.0021244667 -0.750191 0.023210717 -0.008261681 0.27488515 0.01054306 0.14171696 -0.38201132 -0.19362108 0.007608383 -0.29688796 -0.58154535 0.70916915 -0.27700782 -0.8683541 0.273534 0.50767773 0.34571218 0.11433791 0.060892668 -0.48798928 -0.07261876 -0.066679426 -0.4306279 -0.08794811 -0.30613932 0.4065504 0.44713998 0.32503024 -0.059559606 -0.28476983 -0.18047997 -0.3354653 0.27592883 0.4967272 0.025987653 0.052029252 0.17357324 0.18829158 0.031210462 0.41327834 0.36373892 -0.014118284 -0.45859727 0.5418727 0.09985695 -0.27870604 -0.22199585 -0.38836795 0.41571715 0.60542417 0.39518234 -0.26464698 -0.3673025 0.27302274 -0.39009094 -0.6246666 0.010413499 0.4439715 -0.39205322 -0.31386665 0.67148274 -0.72548103 -0.035689507 -0.070174895 0.22520873 0.08112177 0.12985088 0.21220239 0.4133954 0.14992811 0.59128755 -0.31234252 -0.10504543 0.5401881 0.116641805 -0.82288045 -0.33944607 0.166011 -0.21182767 -0.37646657 -0.65962505 -0.060834143 -0.420727 0.023250554 -0.29160953 -0.17894569 -0.0010938265 0.43424806 -0.101191334 0.10512935 0.32673386 -0.046274245 0.16884473 -0.3472548 0.06985122 0.18577427 0.11757288 0.067771554 -0.23995982
3600 -0.27742267 -0.035549603 0.106996834 -0.12738973 -0.58851063 -0.029717749 0.33630428 0.18071757 0.33643824 0.06088765 -0.5113934 0.27454773 -0.55904675 -0.051624354 0.023174565 0.05429357 -0.08447138 -0.13980517 0.2564254 0.20718175 -0.41777086 0.14229167 0.26975024 0.3712845 0.028767407 0.22458576 -0.45175135 -0.2826186 0.037672207 0.026243577 0.2385009 -0.16205601 0.39821607 -0.16302699 0.519924 -0.51168543 -0.35080254 0.79205424 -0.110922225 0.17016669 0.449657 -0.5570378 0.089951016 0.1396676 0.07676797 0.29233944 0.032252517 0.31648493 -0.35137698 -0.22367199 0.6507635 0.18947826 0.4132951 -0.090569615 -0.05946161 -0.231445 0.018687071 0.034906767 -0.326142 -0.14226319 0.0842053 0.101125866 0.008828123 0.04378039 0.6957697 -0.19809572 0.57248694 0.14902875 -0.01750488 0.56582415 0.2376927 -0.41610378 -0.043582693 -0.33560473 0.28816855 -0.16550846 -0.12622862 0.29705244 0.48185313 0.31558424 -0.020825582 -0.1181897 -0.032185562 -0.33428708 -0.5669913 -0.072049715 0.009407482 0.05963332 -0.06766825 0.8892707 0.06707034 0.12194831 0.09999032 0.049448434 0.5023013 -0.19886228 -0.2558921 0.7716658 0.18494941 0.18094213 0.3026263 -0.046391625 0.15989587 -0.19135262 -0.26899633 -1.0321429 0.24218945 -0.3902293 0.0047217347 -0.6107001 0.6745333 -0.6858787 -0.6365606 -0.20007847 -0.026298197 0.48718655 0.29664427 -0.21348697 -0.118886635 -0.12045341 0.3047104 0.2244648 -0.8154048 0.22688083 0.31451645 0.49081817 -0.16551928 0.06818602
3637 0.47652826 -0.07680045 0.041554473 -0.24556722 -0.051876172 0.12152052 -0.06487066 0.037746303 -0.1294849 0.59947824 -0.18728375 -0.43249363 -0.09901745 0.15197518 0.38581735 0.9828518 0.12993924 -0.45973706 0.12685627 0.115067065 -0.04659875 0.0073163654 0.17152582 0.48433173 -0.28165513 0.13631566 -0.10255618 0.26124808 -0.35783798 0.100455634 0.050973304 -0.5256794 0.32339704 0.49769652 0.38745004 -0.4723038 -0.23451081 0.22748499 0.0038368562 -0.45444748 -0.4114874 -0.84420323 -0.596368 -0.16605635 0.0702531 0.34484255 -0.19353972 -0.29582474 -0.28871182 -0.36921567 0.17261139 -0.085567184 -0.2984363 -0.14227079 0.19218402 -0.23195592 -0.22498678 0.35999146 0.18307047 0.06984849 -0.38540584 -0.51276374 -0.017945588 0.3828565 0.18350048 -0.14185199 -0.007867042 0.16552955 0.20202899 0.7013426 0.5896265 -0.24541683 0.30759323 -0.39965388 -0.09559586 -0.0042350143 -0.091852255 -0.22237988 0.5438038 -0.02502332 -0.26711926 -0.43250966 0.117715016 -0.17943782 -0.5085629 0.34329847 -0.0029231338 0.15605736 0.021012994 0.48487774 -0.41875556 0.4163522 -0.29749826 -0.20887367 0.18986483 -0.040856414 -0.02248421 0.57282966 0.8489185 0.32493678 -0.15621985 0.09218918 0.06340866 -0.008659714 -0.17952548 0.017599553 0.5293109 0.021146812 -0.08339715 -0.08742958 0.09614277 0.37474552 -0.28287166 -0.5577166 0.37226152 -0.052312896 0.5548174 -0.16960436 -0.063285865 0.84434986 0.066470236 0.5789501 -0.24736108 -0.13890068 -0.023557294 0.3328082 0.17542626 -0.13722497
3619 0.14548078 0.18162952 0.3752957 -0.20025322 0.08880465 -0.024655644 -0.046187304 -0.118558064 0.080187455 0.059733514 -0.4518499 0.09238078 -0.34252903 0.25900218 0.35209227 0.36431456 -0.39338833 -0.11041653 -0.06752447 0.29173914 0.22272477 -0.44854894 -0.05914121 -0.038762506 -0.30554497 0.38199472 -0.105106086 -0.2580345 -0.0030972892 -0.49511954 -0.56458193 0.106631584 -0.0956337 0.14368176 -0.28969085 -0.185672 -0.4065027 0.47336215 0.16039671 -0.441448 0.26667684 -0.88448286 0.36598343 0.034190796 0.0868695 0.44124305 -0.14534277 -0.24717318 0.28211918 -0.01262377 0.032069784 0.5185712 0.086802006 0.27881345 0.1754072 -0.17206399 0.49781662 0.004311592 -0.3126756 -0.31308013 0.1605922 -1.0578281 0.050630733 0.094248354 0.630895 -0.11029976 0.14135665 -0.39745697 -0.051365733 0.19737844 0.24523245 -0.36465493 -0.074575655 -0.25341168 -0.093726486 -0.27763695 -0.3995719 0.30728522 0.9749108 -0.43643066 0.31069517 0.12272564 0.20580862 -0.48058885 -0.63820416 0.07603538 0.2531263 0.52542967 0.1489645 0.3568335 -0.35745627 0.23573358 -0.41827193 -0.019421067 0.31148493 0.18034971 0.048752356 0.04083521 0.12812665 0.718377 0.25621632 -0.06264201 -0.028084429 -0.13154085 -0.11673008 -0.029675312 0.040756915 0.33772638 -0.10490657 0.023822403 -0.1039158 -0.6539878 -0.12507154 -0.48049217 -0.096574984 0.4293537 0.43018982 -0.4835165 -0.045003247 0.25279862 0.26890454 0.7996762 -0.6398176 0.42055425 0.02082741 -0.11269784 0.13753766 -0.44972682
3645 0.1695302 0.061397653 0.37534794 -0.14459376 -0.0345751 -0.17400256 0.2348253 -0.05002251 0.048824076 0.21611136 -0.54183745 0.070027545 -0.44529566 0.22284557 0.0984611 0.11049549 -0.50776005 -0.22738595 0.06264496 0.33682787 0.19357026 -0.5217429 0.002812358 -0.031035988 -0.2158297 0.36994597 -0.07285952 -0.36109713 -0.0024297966 -0.414321 -0.4811336 0.24837765 -0.007946524 0.19934809 -0.37580776 -0.05799615 -0.50932574 0.6770634 0.049083516 -0.2350423 0.38136718 -0.71448094 0.50432 0.090185136 0.12684727 0.49844593 -0.12218368 -0.36306798 0.29305467 -0.06177068 -0.18156636 0.64393 -0.11337288 0.15475422 0.06849948 -0.06286172 0.5671489 -0.06158023 -0.2701908 -0.22548327 0.35014957 -1.0474043 0.1341143 0.09657398 0.57242006 -0.07180888 -0.0075126733 -0.519221 -0.26478514 0.22488217 0.20840076 -0.36878768 -0.054030504 -0.1355784 -0.326351 -0.0187775 -0.37256774 0.32313132 1.0041533 -0.5944508 0.27780724 0.24220553 0.22447649 -0.47067702 -0.5113701 0.045727037 0.23778564 0.38639185 -0.15718569 0.40951666 -0.04838108 0.03750581 -0.4733728 -0.095968455 0.292915 0.11161997 0.005287184 -0.09125965 0.10176363 0.8013584 0.093196794 -0.16809162 -0.0987541 -0.10016443 -0.12399833 0.06509905 -0.054823574 0.23125148 -0.108875796 -0.029817479 -0.11603256 -0.7198705 -0.14474629 -0.34714776 -0.24640284 0.4163325 0.44453862 -0.4203379 0.08312273 0.4254903 0.37245527 0.92962235 -0.590209 0.38254514 0.14114915 -0.015378258 0.1356224 -0.44254676
4168 0.15929542 0.16114755 -0.036704406 -0.18218084 0.12516658 0.16738722 0.39468879 0.30153614 0.36642465 0.22619471 -0.35191977 -0.044942472 -0.6495581 -0.050447006 0.033125427 0.35312793 0.1409295 0.12868471 0.10398826 0.17834885 0.51857495 -0.08774337 0.314416 0.01188355 -0.55299854 0.42683348 -0.19082822 -0.29335913 0.03468273 -0.81073284 0.03771081 -0.045519862 0.2371476 0.15039718 0.11321634 -0.3591518 -0.2400061 0.03442922 -0.2516002 -0.65094256 0.7633288 -0.311115 -0.78391427 0.19103584 0.4210995 0.49750882 0.17269026 0.20776072 -0.51381606 0.07880696 0.0076937815 -0.3674609 -0.18241471 -0.31230688 0.4349223 0.35341868 0.29478747 0.07010122 -0.25749898 -0.15266089 -0.3190421 0.22962809 0.37339652 -0.029715788 -0.024146888 0.28409475 0.13774465 -0.0065586204 0.44417346 0.34801757 0.13217987 -0.54917806 0.43834677 0.15210482 -0.45058623 -0.21149427 -0.36119345 0.3134155 0.6895536 0.48138338 -0.22501992 -0.36477223 0.21363856 -0.30757412 -0.69946796 0.020766271 0.39297277 -0.37027407 -0.20920914 0.6091478 -0.6124074 -0.07721114 -0.037523504 0.2511893 -0.03681342 0.15567692 0.06622016 0.3127079 -0.005471202 0.6192764 -0.21349497 -0.03543485 0.45115176 0.108404346 -0.9495212 -0.35748506 0.16426052 -0.28714648 -0.28720313 -0.6287679 -0.0569538 -0.44469336 0.0758611 -0.2119579 -0.16431099 -0.06937322 0.48933035 -0.15291944 0.004623993 0.33582518 0.0034104767 0.2258255 -0.3509539 0.068954736 0.13657789 0.1462137 0.06824264 -0.12550257
3599 -0.09256228 -0.06686043 0.11710794 -0.17263885 -0.49651852 -0.01893207 0.3310383 0.19162235 0.24675095 0.22796144 -0.5108657 0.25063545 -0.45174265 0.07003171 -0.019781489 0.1611998 -0.099168696 -0.20361014 0.2618625 0.21375106 -0.43848556 0.054768655 0.32689533 0.4002021 0.010679052 0.23496644 -0.43788746 -0.19326179 0.024341967 0.1324241 0.15020368 -0.08408845 0.5343108 -0.12426584 0.4646989 -0.5797075 -0.3041734 0.768081 -0.12755992 0.17037947 0.41356197 -0.61422986 -0.07674269 0.14602232 0.015546021 0.24817778 0.08526815 0.18601665 -0.4763131 -0.21786183 0.62200713 0.09039257 0.5183482 -0.04114312 0.13626467 -0.20352563 -0.062194902 0.032008592 -0.098866776 -0.057132468 -0.02204269 0.06512392 0.050165497 -0.062736146 0.7262029 -0.21082188 0.51989233 0.098600864 -0.048509974 0.5382301 0.37808925 -0.43475664 -0.14835872 -0.40821585 0.18537025 -0.28776896 -0.1481497 0.31713086 0.5783771 0.24137452 -0.12027774 -0.08532438 -0.017228661 -0.334785 -0.6201815 -0.23398976 -0.03586843 0.0880291 -0.1830969 0.79540193 0.10713566 0.13296668 0.08318784 0.09535169 0.5693799 -0.3701571 -0.22861062 0.8232601 0.10900486 0.2963594 0.39830118 -0.053794682 0.15342395 -0.2760935 -0.26925626 -0.9200282 0.26033294 -0.4826827 0.055099852 -0.63696086 0.7171888 -0.6700812 -0.7101993 -0.25041798 -0.015614666 0.40906766 0.18188357 -0.16032712 -0.16632238 -0.12168562 0.34914157 0.16395946 -0.7453638 0.26491672 0.3623936 0.33900034 -0.213877 -0.06808203
4171 0.15679191 0.25150746 0.040659018 -0.105165355 0.18347289 0.06549936 0.25009266 0.057331774 0.75842935 0.0008055367 -0.2367843 -0.119007826 -0.7681954 0.01464678 0.34243807 0.19688573 0.13923782 0.23267171 0.2799557 0.09232808 0.17490643 -0.058713574 0.2041201 0.5361471 -0.43494165 0.5882724 -0.34728572 -0.105938874 -0.062003642 -0.5134807 -0.18264157 -0.00799545 0.17298396 -0.09877718 -0.0034096169 -0.4639885 -0.20651773 -0.0052735535 -0.25041518 -0.52715546 0.56747323 -0.34879717 -0.7380879 0.28204688 0.6256272 0.10250751 -0.106841326 0.030113718 -0.42418796 -0.2362316 -0.11152565 -0.34611055 0.03338667 -0.18192153 0.33655772 0.31624895 0.23430577 -0.22686547 -0.23784909 -0.24107145 -0.29780704 0.18759672 0.706126 -0.0106465565 0.1624003 -0.01366604 0.40010884 0.03306643 0.16824105 0.34740877 -0.27120453 -0.3990858 0.53727937 0.09603098 -0.029368453 -0.40908247 -0.36150014 0.6068972 0.5267282 0.09997231 -0.3308036 -0.46813086 0.39326364 -0.42231518 -0.64520144 0.020331746 0.39080065 -0.33143494 -0.53369504 0.7230485 -0.91472054 0.04035465 -0.087730415 -0.024112897 0.26703525 0.14155692 0.5146968 0.39247304 0.4301542 0.6296185 -0.37671387 -0.13567561 0.57551235 0.0022597192 -0.5928345 -0.3678468 0.104991406 -0.21289843 -0.44107878 -0.77860904 -0.14414853 -0.26877478 0.005584521 -0.35515243 -0.23362353 0.13016888 0.33145556 0.06240912 0.27941358 0.21038973 -0.058711495 0.31775978 -0.3279749 0.27075657 0.15535948 0.2291629 0.032972444 -0.49926946
3636 0.5062465 -0.03255924 0.09004309 -0.16193093 0.0096002305 0.06363488 0.042565547 -0.026675332 -0.12875211 0.58215076 -0.33680427 -0.34726554 -0.12854554 0.12229194 0.31571484 0.89072543 0.077646814 -0.46400422 0.1893406 0.06570492 -0.015254868 0.05179972 0.20197663 0.52464515 -0.25078046 0.09393127 -0.14161626 0.15756392 -0.37244642 0.14764334 0.15932128 -0.6150259 0.39685935 0.49167272 0.39676425 -0.51739687 -0.24839635 0.14734438 -0.043213435 -0.37167358 -0.36337945 -0.8311133 -0.4981576 -0.14427133 0.13441637 0.3534346 -0.14297397 -0.17047444 -0.3708547 -0.41477802 0.18796681 -0.067102894 -0.33447567 -0.18910699 0.23165235 -0.3241457 -0.10986374 0.27564225 -0.014507858 0.048972692 -0.30653247 -0.44777107 0.013214297 0.33628932 0.17066152 -0.21897145 0.091384344 0.36053926 0.31159365 0.73408616 0.55570316 -0.25436926 0.3248275 -0.28917578 0.011019618 -0.03472488 -0.1963415 -0.26151034 0.47696355 -0.053458776 -0.22737713 -0.5164399 0.11239198 -0.07814638 -0.46216148 0.28505266 -0.071530685 0.18188338 0.10464011 0.51736856 -0.40234616 0.43360835 -0.22436742 -0.20362666 0.31958857 -0.03970361 -0.09578713 0.5507589 0.7646597 0.25393167 -0.09444487 0.017937662 0.16050404 -0.11754978 -0.1543691 -0.056395598 0.49755257 -0.03320508 0.058127888 -0.12385287 0.2624143 0.37137005 -0.28851405 -0.5856239 0.40910995 -0.05026433 0.40494856 -0.1752735 -0.013320772 0.7829406 -0.06028222 0.5678433 -0.21456057 -0.067857504 -0.09192446 0.4184014 0.10417412 -0.04608507
3612 0.4737276 -0.10164222 -0.017417513 -0.31631485 -0.04667453 0.22046567 -0.15322393 0.03370863 -0.11941315 0.4803812 -0.21850407 -0.4104513 -0.14965655 0.1723666 0.53652364 0.9805098 0.087531306 -0.49662077 0.19895639 0.054819223 -0.034957368 0.04433799 0.21655217 0.36036846 -0.19829346 0.10088828 -0.22872914 0.27100214 -0.3790583 0.123783514 0.0020494966 -0.62180287 0.17989199 0.50415254 0.33671093 -0.54949665 -0.22508642 0.10854569 0.09643195 -0.44101334 -0.31969228 -0.93627 -0.52080995 -0.1690898 0.08320991 0.34313872 -0.15887989 -0.298621 -0.34608915 -0.3699675 0.26004967 -0.11114232 -0.07024845 -0.13679944 0.30086175 -0.29739693 -0.1409332 0.38369936 0.051092573 0.11384834 -0.4938929 -0.5282887 0.082732946 0.36314204 0.28293583 -0.14573196 0.15641598 0.07132148 0.23354764 0.62750655 0.45674857 -0.3582412 0.24487944 -0.5492304 0.016636336 -0.06858161 -0.12967014 -0.2733756 0.55986273 0.025680961 -0.27062583 -0.32320437 0.08398143 -0.23046248 -0.5340426 0.48013124 0.07569931 0.14727157 0.17803678 0.41231635 -0.3378835 0.4613046 -0.24204378 -0.21743678 0.21662986 -0.13125117 0.083050646 0.5734005 0.7666903 0.35145187 -0.069153436 0.08968189 0.033191722 -0.021558462 -0.17492409 -0.09874942 0.4862307 -0.07669291 -0.0644526 0.055612218 0.07321695 0.22930886 -0.28772014 -0.6740225 0.4055085 -0.070099376 0.65006536 -0.14348556 -0.0451154 0.7747307 0.10891705 0.38744265 -0.30187273 -0.030741481 -0.06340754 0.18952994 0.16644429 -0.17375423
3669 0.12821688 -0.043881 0.5895955 -0.18783034 -0.10797648 -0.07850372 0.084389314 0.12808481 0.11178713 0.3747787 -0.3762695 0.06502034 -0.31444508 0.058161184 0.050382223 0.17173617 -0.45311558 -0.23245257 0.1086041 0.24489737 0.08529765 -0.48135522 0.12850748 0.008062231 -0.12378405 0.3363904 -0.018887136 -0.068266526 0.028266415 -0.34908965 -0.5360529 0.12679778 0.08320466 0.12886757 -0.2995047 0.05064877 -0.35038236 0.74113405 0.08269034 -0.12062843 0.314941 -0.7006732 0.49560273 0.046408422 0.086394735 0.49752945 -0.27888188 -0.38612399 0.11298011 -0.2723589 -0.034537848 0.5380807 0.14625944 0.24286176 0.006367938 -0.13467763 0.40475503 -0.1090321 -0.11080845 -0.24784563 0.113511465 -0.9182285 0.029223192 0.12721163 0.5388939 -0.086646624 -0.108491756 -0.41176787 -0.2314451 0.1962826 0.06923557 -0.3416396 -0.106501594 -0.28477025 -0.5233422 0.22665465 -0.27091137 0.30463684 0.8474732 -0.61659855 0.4123954 0.3946856 0.1877608 -0.4528753 -0.45242178 -0.033111982 0.3095802 0.37226737 -0.23301096 0.5020203 -0.07814412 0.004894054 -0.53733385 -0.18733239 0.18036659 0.1133795 0.13565034 0.00796501 0.30968451 0.72531843 0.13835299 -0.0994075 -0.21303368 -0.14817216 -0.19054176 0.16780613 -0.22830988 0.18302502 -0.23684311 0.05614543 -0.077533595 -0.5525307 -0.25557604 -0.19465494 -0.19776425 0.4771469 0.5765924 -0.3830675 0.1268154 0.6051834 0.39459515 0.81058025 -0.5845459 0.3594719 0.23087993 -0.060557548 0.15378152 -0.46461558
3662 0.4888982 -0.06771205 0.06262616 -0.12485918 -0.04982373 0.031985536 0.06342756 0.10843231 -0.12915592 0.70668507 -0.13775297 -0.48229226 -0.079760104 0.11895227 0.19070233 0.92207384 0.044220034 -0.42371443 0.12251123 0.17598116 -0.014792992 -0.013980698 0.045014683 0.53469217 -0.27242875 0.23377728 -0.06801892 0.23225282 -0.30435038 0.15429525 0.14378895 -0.3772981 0.4629628 0.431308 0.47570887 -0.435983 -0.2972191 0.3823594 -0.07192637 -0.39382857 -0.40424576 -0.75067985 -0.67320114 -0.14799161 0.11208768 0.3374649 -0.24154784 -0.24519268 -0.2309387 -0.32564238 0.09252942 -0.039671786 -0.47184244 -0.12063449 0.09212006 -0.19342433 -0.2942307 0.3261681 0.24830492 0.020435998 -0.24852332 -0.4775289 -0.034051612 0.40210417 0.11839091 -0.13959761 -0.14814411 0.15747048 0.1556521 0.80943567 0.6763176 -0.20813696 0.23602676 -0.2825991 -0.18137506 0.058230866 -0.04228745 -0.12976517 0.50477606 -0.06573739 -0.21986733 -0.48258916 0.09339037 -0.20472927 -0.3650682 0.16260228 -0.04554522 0.21446447 -0.14111899 0.5466645 -0.43004373 0.40194926 -0.3578501 -0.1176168 0.17697528 0.011612717 -0.18266763 0.5530375 0.81443506 0.22823553 -0.2283519 0.109801054 0.03642144 -0.052461106 -0.17059293 0.09471303 0.5178074 0.056109875 -0.16090617 -0.33378386 0.15520407 0.39738402 -0.2651381 -0.37824696 0.31593272 -0.03272035 0.44994742 -0.19817355 -0.09027926 0.8469935 0.09295473 0.6755807 -0.2442261 -0.24608235 -0.027570223 0.4863223 0.1064981 -0.040954735
4144 0.151883 0.19575045 -0.030563945 -0.21001126 0.16198571 0.31470343 0.34803388 0.19802159 0.37699267 0.12614481 -0.12784702 -0.11481624 -0.7236888 -0.017166588 0.1372287 0.15960832 0.24638334 0.16355623 0.06515877 0.45462617 0.34786138 -0.044682063 0.32071838 0.17148568 -0.700582 0.3751573 -0.14113502 -0.15474032 0.0343739 -0.79816824 0.11161989 0.007988293 0.28155726 0.07575166 0.00373564 -0.3541154 -0.17884849 0.024824737 -0.27720782 -0.48726353 0.6838632 -0.32889464 -0.8663917 0.25982648 0.58823687 0.39193335 0.13709752 0.062758334 -0.41730475 -0.1191887 -0.050838497 -0.45095512 -0.019346196 -0.32484728 0.26868924 0.44759822 0.33632636 -0.04105221 -0.12141432 -0.2973132 -0.30540806 0.1497537 0.47281602 -0.02393111 0.024714863 0.17561252 0.22885153 -0.015935518 0.3792875 0.30052504 0.13377759 -0.34426287 0.47265306 0.07377945 -0.21961112 -0.17992038 -0.34938595 0.42906788 0.66963786 0.25452924 -0.16347186 -0.2025011 0.22387356 -0.36414278 -0.7761664 -0.008680428 0.4999972 -0.42758447 -0.33195075 0.69651234 -0.799747 -0.11776157 -0.07406049 0.16906376 0.10207908 0.1530656 0.25577858 0.28536576 0.13171645 0.5102918 -0.29975408 -0.100683555 0.46722287 0.33093673 -0.69086087 -0.25203034 0.2640217 -0.10537426 -0.26959366 -0.38280267 -0.008456917 -0.36109594 -0.058603846 -0.3259518 -0.1949101 0.041346114 0.44818297 -0.16537946 0.048489455 0.3498254 -0.1643861 0.13072804 -0.39176252 0.055323724 0.3156084 0.06860573 0.040383052 -0.26612052
4079 0.23920704 -0.1587043 -0.23860222 -0.3220065 -0.40135768 -0.5647566 -0.13249287 0.38168433 -0.0626853 0.15293449 -0.20986794 -0.123911515 0.0021665308 -0.18353648 0.24877751 0.35892332 -0.28150576 -0.23282902 0.046368584 0.49879053 -0.19733052 -0.3597101 0.53977555 0.44041607 0.019121269 -0.103703275 -0.12299697 -0.1857751 0.03493734 -0.5062984 0.06975381 -0.051900014 -0.11865309 -0.3089254 -0.0337035 0.04168907 -0.027533421 0.6287433 0.35797587 -0.2613111 0.17988019 -0.52116793 -0.4198235 -0.18873776 0.1266575 0.22344083 -0.029677708 0.0077942703 -0.11667467 -0.46161422 0.03849443 -0.089818664 -0.29399323 0.03621823 0.12930322 0.18814202 0.48131356 0.18175039 -0.55030096 -0.10598331 0.20687073 0.06633132 0.15130399 -0.2924304 0.4338568 0.33341902 0.37915608 -0.063093394 -0.17166424 0.18225874 0.034470927 -0.44465938 0.12273322 -0.37417316 -0.04885819 -0.09588522 -0.5812456 0.015347514 0.82802397 -0.13367781 -0.061070662 0.12522511 0.6924283 -0.05571799 0.14676112 -0.19105789 0.06162772 -0.39571843 0.22047742 0.5497965 -0.29275873 -0.054906327 0.22542612 0.28335178 0.009603772 0.30792287 -0.16908734 0.19123453 1.1751237 0.21221173 0.019746618 0.014567353 -0.4371088 -0.14398916 0.3977919 -0.30680755 0.45246518 0.5442867 -0.20111234 -0.78474045 0.118464164 -0.3557745 0.1723586 0.33554 0.069705784 0.017479392 0.4915727 0.3765343 -0.32238233 0.55705565 0.014875534 0.42933488 -0.29494163 0.28971297 -0.30899933 -0.47628972 -0.5110297 -0.21339744
4021 0.058589213 0.28155002 0.11510872 -0.016424553 -0.20956568 0.112139 0.65857804 -0.09326706 0.19971149 -0.13460644 0.20063785 0.29251432 -0.34313816 0.33595666 0.16320811 -0.14324556 0.21991375 0.0059998864 -0.037401076 0.6057874 -0.2790516 -0.20438899 0.28926492 0.28273976 -0.42757034 0.18370475 0.15525827 -0.3664398 -0.24135214 0.18534045 0.19492704 0.09458682 0.3495729 0.5445337 -0.26215833 -0.12071092 -0.3835624 -0.06924292 -0.14981703 -0.2621515 -0.05591326 -0.84650135 -0.82623804 -0.48501915 0.5415253 0.24232955 0.023477532 -0.1525618 -0.5092946 -0.2719031 -0.29444563 -0.21985641 0.26621816 -0.20714651 -0.4064096 -0.19991581 -0.10057767 0.08391502 0.102513015 0.18421325 0.05152933 -0.6141782 0.21692334 -0.1229183 0.38098726 -0.09137362 0.6088945 -0.19755076 0.066437565 -0.0044060904 0.27240714 -0.16505508 0.2636257 -0.23966055 0.43164262 -0.63773626 -0.29901874 0.010643652 0.70161825 -0.2112933 -0.095980324 0.112256505 0.40661785 -0.052113116 -0.71399176 0.020139087 0.1970646 -0.3951628 -0.5740039 0.49243933 -1.1568546 -0.26155233 0.14358705 0.03479136 -0.047892943 0.19274382 0.10553848 0.20014939 0.37266025 0.2513099 -0.4407063 -0.38694328 0.024130821 0.4893701 -0.14822645 -0.22193384 0.54515904 0.25236154 -0.09795962 -0.06563443 0.2324952 -0.39448535 -0.43585384 -0.26272315 -0.5601729 0.14352901 0.27819774 -0.025010582 -0.038272046 0.024056364 -0.3638926 0.116563 -0.41325417 0.38447106 0.4868767 0.10355833 -0.13490209 -0.29793972
3646 0.10591974 0.018867118 0.21141109 -0.08359619 -0.05004821 -0.23842493 0.36790493 -0.08191934 -0.07105273 0.17921717 -0.6573258 0.09708737 -0.44105214 0.2058421 0.0613146 -0.00084127847 -0.44025576 -0.24515916 0.12464489 0.4239159 0.2153336 -0.5085158 -0.0146391215 -0.09908322 -0.24044931 0.3279566 -0.25826713 -0.5229009 -0.040646113 -0.4513987 -0.36252218 0.24087277 -0.082344875 0.31861785 -0.390857 -0.13354817 -0.6057619 0.62159944 -0.03567417 -0.2480949 0.34864175 -0.59473413 0.4678023 0.16007629 0.1858018 0.52060235 -0.044408277 -0.3734086 0.3250455 -0.008564775 -0.4069087 0.754341 -0.3528979 0.050287787 0.09017609 -0.0005067463 0.67738336 -0.061953407 -0.30732948 -0.18726209 0.38865915 -1.0585263 0.1679951 0.15604348 0.5588594 0.07399491 -0.01085775 -0.51093966 -0.32649758 0.29061666 0.30526155 -0.47938523 0.024122188 -0.031953603 -0.46846896 -0.028771592 -0.40570948 0.21516691 0.9975277 -0.5402605 0.17791842 0.11548431 0.28165016 -0.44437715 -0.54143184 0.24351132 0.27573276 0.34769994 -0.20254529 0.3492057 0.042806353 -0.0007751448 -0.44963366 -0.09026928 0.38237646 0.043568105 -0.09613351 -0.12575842 -0.010455468 0.8672543 -0.04777701 -0.24650349 -0.087836124 -0.031044047 -0.07697584 -0.0095997695 0.10643218 0.19025801 -0.008164146 -0.02620737 -0.12699296 -0.75383645 -0.20792833 -0.4338447 -0.24541974 0.34511074 0.42301795 -0.44498363 0.19056037 0.3968549 0.37870753 1.0716678 -0.49769711 0.41071162 0.087112576 0.079221606 0.20094703 -0.38090733
3686 0.46169892 -0.0092983255 0.17014463 0.027604591 0.0068518883 -0.10459437 0.22822952 0.062362112 -0.074258946 0.70802677 -0.22450413 -0.24170284 -0.15945432 0.059276365 0.11068916 0.6739326 0.13201822 -0.45686698 0.03214259 0.23051117 -0.030981416 0.028707488 -0.020915791 0.77879536 -0.2991797 0.30987394 0.004257233 0.14392357 -0.1767393 0.11420319 0.23607835 -0.32129082 0.5029146 0.34533122 0.37812793 -0.39205098 -0.30110314 0.40201038 -0.16362977 -0.39979228 -0.4740737 -0.7229757 -0.64827764 -0.13414775 0.10908186 0.27697426 -0.23598929 -0.118095286 -0.29024217 -0.40609214 0.056225564 0.0040822076 -0.5542323 -0.1406145 0.0056554684 -0.0576613 -0.19388646 0.20436378 0.12498143 -0.024271151 -0.057976883 -0.4173787 -0.07396788 0.24566798 0.0013616777 -0.1805428 -0.1482984 0.3058777 0.24462682 0.7928493 0.7631025 -0.123726524 0.21187913 -0.025340734 -0.16110109 0.09346651 -0.049606018 -0.10400747 0.5472462 -0.06538725 -0.17025791 -0.60218614 0.21257627 -0.04216202 -0.31726897 -0.15718198 -0.10532765 0.18308525 -0.1772515 0.623806 -0.3638554 0.32919803 -0.47438398 0.02200045 0.20753025 0.19692664 -0.37510073 0.43656465 0.6648739 0.107658245 -0.18360543 0.097333625 0.070112325 -0.14558469 -0.13127041 0.10290462 0.34775925 0.10677743 -0.17906478 -0.493167 0.27666745 0.5187538 -0.23681597 -0.21544734 0.31213215 0.071015574 0.3758562 -0.1943229 -0.13151269 0.8258751 -0.13201092 0.6811053 -0.14069091 -0.22114913 -0.056337774 0.6057494 -0.00096568884 -0.012619739
3611 0.52814287 -0.048848003 0.059361175 -0.18242359 0.056693304 0.12708394 -0.0032789847 -0.0043857396 -0.12678005 0.5237199 -0.3177136 -0.34403986 -0.17464805 0.123440586 0.49439833 0.86640877 0.09049743 -0.5457524 0.25132763 -0.009175191 0.033953946 0.04492223 0.28097627 0.45179334 -0.18839046 0.08885261 -0.1774337 0.23914689 -0.3967435 0.26860192 0.12857357 -0.7311267 0.29705656 0.52787113 0.30872652 -0.5478895 -0.23942994 0.08049411 -0.0050076824 -0.39198354 -0.31987873 -0.9262444 -0.4108281 -0.16073242 0.093680814 0.40498412 -0.08927834 -0.23833586 -0.4592896 -0.45564434 0.29596952 -0.14370114 -0.14205824 -0.1941347 0.34518337 -0.332097 -0.068781696 0.33368623 -0.10921153 0.07584679 -0.45031995 -0.45809656 0.1291389 0.30976737 0.22063328 -0.26735747 0.20458283 0.2500523 0.3818709 0.67310834 0.4806497 -0.3364106 0.2789141 -0.49437627 0.08255251 -0.011327496 -0.17086303 -0.33684826 0.58063966 -0.06293943 -0.25840068 -0.37496045 0.071383245 -0.07722333 -0.55103904 0.35446087 0.024244498 0.15242727 0.15908429 0.4579462 -0.26867637 0.45425555 -0.17754275 -0.26091808 0.29800773 -0.09457027 0.06320071 0.5164998 0.68304926 0.22786154 -0.09639188 -0.03109109 0.0974479 -0.119840726 -0.25553763 -0.19708952 0.45589352 -0.15040283 0.042670615 0.01108107 0.24215598 0.29673535 -0.30292347 -0.70003784 0.42764747 -0.09764927 0.53123313 -0.10101859 0.02291479 0.84618336 -0.091106646 0.3379338 -0.25364986 0.02777773 -0.056556154 0.2555374 0.076732635 -0.070658945
4119 0.1731144 0.18406336 -0.11891723 -0.28318292 0.15612654 0.39856192 0.4246338 0.2341695 0.28541356 0.06497877 -0.024751805 -0.06265928 -0.68445015 -0.022028394 0.12578003 0.046105783 0.32120413 0.1995205 -0.042011376 0.6960562 0.27326494 0.0068320287 0.35787734 0.12814735 -0.7299203 0.20488235 -0.091858685 -0.1285281 0.11699047 -0.84318316 0.22646627 -0.03850844 0.26557016 0.15862343 0.0115258 -0.33895594 -0.14929944 0.04451372 -0.24621092 -0.3984324 0.575953 -0.37291467 -0.9228047 0.2781854 0.63108104 0.33990613 0.14433624 0.02734651 -0.36740208 -0.18190095 -0.088131726 -0.46089494 0.043477014 -0.32011923 0.14338854 0.4158006 0.36401337 -0.030361807 -0.06679029 -0.31722647 -0.2907768 0.07646621 0.40980017 -0.07984834 0.024764849 0.16005972 0.27305758 -0.009333071 0.37282905 0.28532153 0.21902297 -0.35020736 0.3969095 0.020943573 -0.1788152 -0.22865225 -0.2675989 0.38510877 0.64691484 0.20536771 -0.076475404 -0.09408805 0.20806396 -0.295854 -0.88758075 -0.027971657 0.5761139 -0.44534314 -0.41207206 0.64251876 -0.87822455 -0.21327871 -0.07083705 0.19369192 0.036237534 0.13158484 0.23922159 0.26082778 0.09141669 0.45154074 -0.2702518 -0.11409384 0.34984303 0.4435544 -0.55721724 -0.22397055 0.37997514 -0.06780552 -0.15600175 -0.22421812 0.043602362 -0.36420488 -0.15913959 -0.3536048 -0.19010952 0.066276774 0.44885334 -0.20211314 0.050362706 0.30902943 -0.2786744 0.075829156 -0.4280618 0.0607315 0.35710087 -0.0028060013 -0.043619603 -0.22280125
3661 0.47072732 -0.046753295 0.13494352 -0.07878745 -0.021530988 -0.02187324 0.13761188 0.027510822 -0.08938498 0.6753903 -0.27257267 -0.33196828 -0.13453276 0.06876942 0.14109185 0.7903557 0.1349171 -0.4230353 0.09041392 0.13143454 -0.060278475 0.038219754 0.10410319 0.68535024 -0.28692725 0.21673374 -0.059657462 0.161516 -0.27466944 0.13082792 0.23890014 -0.44790754 0.48455742 0.4195131 0.4678354 -0.43645176 -0.2662343 0.3074923 -0.092251725 -0.39618182 -0.43672892 -0.7727714 -0.6403495 -0.13026768 0.1334526 0.2911646 -0.22328256 -0.14816938 -0.32939646 -0.43590724 0.09839091 -0.027933963 -0.4821076 -0.17243451 0.0656538 -0.21368985 -0.16280559 0.22124 0.101010844 0.026821164 -0.20978604 -0.40283337 -0.10916521 0.32036504 0.050173923 -0.17105676 -0.035694186 0.36861882 0.25622806 0.80600345 0.6585092 -0.17376584 0.28302255 -0.13084652 -0.088014565 0.060308885 -0.13021313 -0.21624283 0.45611912 -0.062135756 -0.20397949 -0.6335543 0.1764977 -0.038703285 -0.36588174 0.07841285 -0.11552523 0.16367716 -0.058687128 0.5871389 -0.44885138 0.36184767 -0.34219354 -0.0733062 0.28391358 0.093703136 -0.28390214 0.52087265 0.7975699 0.16614915 -0.16263187 0.08331369 0.11769493 -0.11776497 -0.12204217 0.045198463 0.46347 0.04925117 -0.07944766 -0.31156284 0.28413844 0.50114274 -0.29082385 -0.37782803 0.34580988 -0.016986223 0.41773438 -0.21453294 -0.073128 0.85746 -0.09430664 0.66978914 -0.18327367 -0.20983554 -0.043726455 0.5817075 0.08338427 0.011361051
4049 0.2044504 0.16294397 0.20326516 -0.1905228 -0.43233228 -0.6486973 0.34308398 0.19438376 0.37197134 0.5472963 0.009769316 0.5562088 -0.19404246 0.033730794 0.49171633 0.4511613 -0.39602962 0.28518665 -0.09714025 0.17512967 0.19285437 0.34119627 0.4421897 0.051281035 -0.20309782 0.33256033 0.088229 -0.28958303 -0.33872822 -0.34979084 0.31933403 0.12903835 0.082634956 0.27674782 -0.1275754 0.15250055 0.40121555 0.39193597 -0.40918896 0.003548682 0.26728454 0.027795583 -0.80924416 -0.52210623 -0.20228238 0.33936903 0.36328083 0.046798553 0.05914368 -0.3736268 -0.26330912 -0.02721304 -0.12285273 0.3358846 0.1130449 -0.129311 -0.07647176 0.44662693 -0.19561303 0.3386674 0.36029282 -0.19164735 0.045301754 0.024934784 0.6095487 0.23785892 0.0067080557 -0.32190257 0.00078507635 0.4446817 0.06816121 -0.4008371 0.24883385 -0.50939137 -0.14101759 -0.17970224 -0.45026195 0.18232435 0.5963079 -0.15447493 -0.38444337 -0.066548534 0.33541128 0.1807352 -0.2050891 0.3395129 0.05874557 0.03421763 0.2251637 0.39250338 0.030153468 0.29456368 0.28986534 -0.34576136 -0.052340124 -0.18238302 0.16079715 0.24029307 0.75710076 0.33264112 -0.5542222 0.16114397 -0.26413423 -0.006955262 -0.45833978 -0.8756553 0.42863822 0.1765797 -0.23969972 -0.78921866 0.10264536 -0.2206982 -0.33329588 -0.16176577 0.21244325 0.26400205 0.69346935 0.38755065 -0.10350233 0.2281991 -0.027033232 0.60044324 -0.20357305 0.56625575 0.0057422016 0.0262082 -0.45827353 0.16963427
3624 -0.13003445 -0.10854348 0.1806329 -0.32363045 -0.46934345 -0.014727991 0.3446712 0.2859727 0.35785624 0.2886829 -0.5174699 0.27904332 -0.50976646 0.08913182 -0.15883352 0.11173164 -0.030901471 -0.25554433 0.25505164 0.20191507 -0.4400428 0.1678152 0.22755909 0.4959695 0.020705815 0.36221528 -0.4487971 -0.2035334 0.0044553904 0.19969136 0.12299037 -0.061703168 0.38138238 -0.07643879 0.44857836 -0.61839145 -0.2804226 0.81980854 -0.08450339 0.09233083 0.43280774 -0.67025304 -0.1484423 0.23039469 0.048092913 0.29006517 0.08040297 0.15033 -0.4975822 -0.21333298 0.58943343 0.18071005 0.53192675 -0.028144067 0.12781376 -0.08208819 -0.0031274948 0.026200606 -0.22745273 -0.021937367 -0.05068641 0.08875431 0.06948653 0.018243989 0.69789535 -0.15512003 0.5876413 0.100292884 -0.16107352 0.60711473 0.36614037 -0.41262183 -0.26003885 -0.46145642 0.1657583 -0.24872485 -0.084377855 0.32248813 0.50549513 0.32868975 -0.14379902 -0.13221782 0.008848044 -0.35578606 -0.501548 -0.24118318 -0.04965301 0.008705553 -0.09520433 0.64328957 0.12586465 0.11435765 0.09074018 0.019702138 0.49175942 -0.3103419 -0.2647894 0.8779227 0.07204278 0.26290956 0.47535977 0.033228688 0.124385566 -0.31261855 -0.20056437 -0.8788993 0.24802926 -0.51662713 -0.07525174 -0.6753894 0.70963967 -0.6990885 -0.8213486 -0.15289393 -0.0055275955 0.40252206 0.2490021 -0.08939254 -0.14821701 -0.13100779 0.39311787 0.20013234 -0.7434224 0.28905764 0.32023844 0.36005673 -0.14535148 0.0036462871
4120 0.20036133 0.2002936 -0.073832765 -0.26262844 0.18662421 0.33525425 0.42028895 0.17767121 0.45586848 -0.09853978 -0.007945082 0.00019243582 -0.65211266 0.005793823 0.20496564 0.045363225 0.26107883 0.2738215 -0.020242881 0.5749348 0.237945 -0.025581183 0.34180123 0.29092407 -0.6679443 0.22638555 -0.13498493 -0.03633952 0.051393513 -0.7490005 0.14224729 0.005372243 0.3035542 0.08909347 -0.06778894 -0.35101438 -0.19615935 0.012785556 -0.22320582 -0.4260433 0.4262686 -0.45597163 -0.87276787 0.35596758 0.66012955 0.24195471 0.020504082 -0.059657507 -0.3373836 -0.28403026 -0.09935294 -0.41227356 0.104093455 -0.29658282 0.15477957 0.35015932 0.30280164 -0.13029099 -0.038502514 -0.40507782 -0.31668267 0.12777838 0.5327264 -0.08456095 0.07096636 0.042652782 0.37100667 0.07891463 0.24560337 0.29895234 0.06274207 -0.30488697 0.4474807 0.0077846013 -0.11604656 -0.30753642 -0.33664966 0.46278 0.52135533 0.06752967 -0.13748704 -0.2542339 0.22746824 -0.2812696 -0.96687883 -0.0057355827 0.53549606 -0.42255917 -0.5655002 0.6263484 -0.98487264 -0.20119186 -0.039562438 0.06276651 0.11115381 0.116566785 0.40837315 0.25679764 0.19514267 0.5638826 -0.38507217 -0.08987204 0.3869665 0.31659532 -0.46358874 -0.24977371 0.3043766 -0.03797415 -0.21538354 -0.28451627 -0.005011224 -0.32882306 -0.113553666 -0.4049496 -0.20685863 0.1843063 0.31601563 -0.061693117 0.19683947 0.28015503 -0.2823018 0.12425337 -0.36550212 0.17051981 0.40015835 0.044399314 -0.021868546 -0.3773673
4141 0.15111287 0.015711026 -0.15025404 -0.21597685 -0.01704412 0.22823147 0.46081418 0.35467553 -0.075786054 0.043057073 -0.39539006 0.10318464 -0.43247563 -0.02053595 -0.14329794 0.25473818 -0.050432432 0.37745765 -0.0034529117 0.40609577 0.65538275 0.052149147 0.3735433 -0.20793451 -0.59310037 0.2704841 -0.0862831 -0.22523983 0.03609199 -0.836835 0.23237646 -0.16986573 0.31403735 0.35044006 -0.046323836 -0.32773897 -0.34398577 0.1991452 0.027651232 -0.72452503 0.61774975 -0.4776387 -0.6880405 0.12331645 0.27179798 0.7754439 0.18007332 0.39593235 -0.48428962 0.1656318 0.1785231 -0.33156523 -0.22797987 -0.20762785 0.31220284 0.09677091 0.22035748 0.25637466 -0.15938221 -0.18958387 -0.1293544 0.15151925 0.1960455 -0.11161869 -0.13511822 0.5075077 0.119384855 0.051986136 0.24925657 0.40428647 0.46430653 -0.58692956 -0.0039924895 0.07423302 -0.6639722 -0.09977371 -0.36799273 0.123350516 0.752417 0.42133716 -0.0039459607 -0.2837067 0.032540794 -0.058997676 -0.9662994 0.05458136 0.28114 -0.3018569 -0.08362779 0.49860227 -0.56801915 -0.22193025 0.20486869 0.27581927 -0.20223677 0.15161161 -0.19091775 -0.08643805 -0.19611436 0.62521064 -0.13100018 0.17586474 0.16237797 0.15269402 -0.8028269 -0.44555834 0.3353069 -0.15201183 -0.10195627 -0.28494945 0.12561838 -0.37210274 0.04381231 -0.11806668 -0.050289206 -0.10855032 0.41498935 -0.18551473 -0.18144841 0.26467064 -0.02243117 0.29158542 -0.35162854 0.029413432 0.26148918 0.16533953 -0.029702323 0.09133448
3694 0.052088488 -0.05045036 0.6622799 -0.093710326 -0.16990593 -0.017337684 0.17319638 0.2653466 0.19581798 0.425061 -0.36467874 0.039553978 -0.32404184 0.03519565 -0.165581 0.08315589 -0.46702912 -0.22957113 0.19938491 0.16906464 0.12689358 -0.4819911 0.23464836 -0.050841592 -0.10406037 0.3032509 -0.01000576 -0.07595811 0.047051817 -0.34347877 -0.4823617 0.09116994 0.27909955 0.112801224 -0.20835647 0.061007228 -0.27297884 0.7468254 0.07190363 -0.045534223 0.32227856 -0.6531329 0.47680375 0.14079799 0.14990945 0.52613807 -0.32934228 -0.39653957 -0.05570333 -0.37344772 0.013141538 0.4174959 0.19148825 0.147496 0.041563112 -0.04785509 0.40589532 -0.17191379 -0.05631328 -0.16529836 0.0140545685 -0.7445207 0.019813078 0.0868281 0.44551405 -0.08183872 -0.13100672 -0.3299009 -0.25035316 0.23501286 -0.07003463 -0.3392096 -0.119165964 -0.2945182 -0.6617163 0.33690098 -0.27422792 0.35594514 0.71680254 -0.588136 0.38555968 0.41127655 0.1380257 -0.44688186 -0.37672272 -0.037491556 0.3036546 0.21043149 -0.40597886 0.5852775 -0.14511105 -0.059727635 -0.4823781 -0.1877113 0.09644649 0.049663085 0.22531058 0.08986307 0.41909364 0.75446546 0.045695033 -0.13314696 -0.14565419 -0.112041585 -0.2715561 0.23878093 -0.23094936 0.03164588 -0.23709194 0.01044648 -0.044290885 -0.4974308 -0.33616588 -0.1686302 -0.21763068 0.47993913 0.6521706 -0.3908145 0.2296645 0.7370556 0.41873428 0.77554595 -0.55104166 0.25090402 0.4294193 -0.009357451 0.18870665 -0.46963245
3996 0.107153736 0.27737403 0.11931769 -0.04646265 -0.28394157 0.056945644 0.6214372 -0.16156045 0.15324837 -0.007124887 0.13508968 0.19512524 -0.40666047 0.29451507 0.1201655 -0.16581263 0.2271589 -0.1582593 -0.0052261245 0.5621424 -0.31642509 -0.2290475 0.3263248 0.20560819 -0.3523934 0.19175723 0.19869319 -0.42998207 -0.27545005 0.27064627 0.258737 0.14133981 0.32052055 0.60586846 -0.22404611 -0.0973494 -0.39457807 -0.051693395 -0.13747168 -0.18358694 -0.060634427 -0.8607647 -0.83673906 -0.53915817 0.4854584 0.22115104 0.053149406 -0.069664314 -0.42688996 -0.19337234 -0.37677634 -0.24269919 0.19040713 -0.2602143 -0.3986348 -0.25996467 -0.11255558 0.16734768 0.022058278 0.3205089 0.08241935 -0.689371 0.19697118 -0.058415405 0.4714456 -0.08409027 0.56697315 -0.257665 0.18021648 -0.043622315 0.3102171 -0.08038915 0.2804032 -0.18728021 0.3995842 -0.6643312 -0.33636826 -0.07199857 0.78758496 -0.30570033 -0.15900682 0.23943754 0.36337936 -0.109698616 -0.5269206 -0.034608144 0.08370948 -0.28545278 -0.516491 0.44658607 -1.0994067 -0.19646707 0.13185063 0.11784738 -0.035064664 0.2506103 -0.023045795 0.16678745 0.3957006 0.18063144 -0.32330656 -0.48155048 -0.025235403 0.50933594 -0.11120032 -0.20299643 0.52031696 0.18162127 -0.124165386 -0.09558865 0.18592842 -0.40068233 -0.4027046 -0.20931858 -0.48607722 0.11767675 0.2958182 -0.09839324 -0.15116069 0.075811416 -0.22308376 0.056560323 -0.36649418 0.33137342 0.33754742 0.028045902 -0.19421072 -0.27077234
4002 0.23452736 0.029547788 0.15166083 0.16868268 -0.68323076 -0.4623981 0.03799762 0.08798507 0.20625208 0.5446347 -0.022228746 0.16366012 -0.16216594 0.13646694 0.15851131 0.25644866 -0.13534369 0.13109452 -0.16331469 0.1273821 0.38448635 0.1511126 0.42431688 -0.0016155035 -0.048637573 0.19279008 -0.16338733 -0.2588359 -0.24089818 -0.61521715 0.023756443 0.1475992 0.1265344 -0.11297797 -0.059280824 0.054149058 0.26195604 0.46254334 0.2771464 -0.04832682 0.0023791238 -0.31582525 -0.7840879 -0.454244 0.039312307 0.6169175 -0.030281428 0.12368329 0.16286457 -0.5564752 -2.8766473e-05 -0.3559868 -0.0319782 0.08502176 0.56198555 0.11394541 0.24153432 0.10614546 -0.3873565 -0.09489442 0.20488459 -0.015966961 0.1587563 0.04024709 0.6090501 0.36215574 0.0068001226 -0.093292676 0.1397748 0.24900989 0.13688879 -0.39809367 0.039751247 -0.5660221 -0.23611908 0.17097072 -0.6538405 0.094381645 0.65012354 -0.287199 -0.20494528 -0.10299038 0.25864884 -0.08960033 -0.033237584 0.18528278 0.02004306 0.16647014 0.19583419 0.4840439 -0.59791845 0.26385674 0.2646559 0.30300617 -0.06724123 0.018979553 0.019869441 0.22561161 0.92949075 -0.0071487804 -0.43865138 -0.14397494 -0.19109087 -0.18130445 0.16697699 -0.7279048 0.47547007 0.5239894 -0.49261102 -0.78182596 0.46177274 -0.2721924 -0.24705867 0.12627226 0.2462909 0.10616537 0.32418358 0.30327964 0.15551133 0.07604635 0.1073274 0.35095692 0.004819667 0.28893244 -0.23069383 -0.2521847 -0.4213878 -0.1670029
4003 0.24232008 -0.0046249405 0.13326405 0.13665126 -0.65809834 -0.38700187 -0.12857296 0.056586545 0.19170834 0.56275 -0.116968304 0.023602678 -0.07707499 0.09004534 0.13081197 0.2102006 -0.11846808 0.03892858 -0.06983787 0.19110514 0.4278536 0.1295295 0.44051328 0.015963681 -0.040403884 0.256554 -0.16202316 -0.2653144 -0.20069005 -0.5956022 0.021166874 0.08970993 0.11721285 -0.22927636 -0.032222826 0.0037425712 0.11673819 0.39505306 0.42272902 -0.200724 -0.046713218 -0.37562934 -0.86651754 -0.43563333 0.22548755 0.55100316 -0.17850646 0.05589948 0.1090866 -0.64607745 -0.035689916 -0.48823223 0.026443541 0.050602656 0.56454647 0.15305856 0.33967522 0.026113158 -0.42186967 -0.15100716 0.20140506 0.035709564 0.27099803 0.06314799 0.5834831 0.36858448 0.035530712 -0.0369597 0.11013917 0.2465963 -0.0023051722 -0.44987306 -0.0036439826 -0.6639295 -0.22896251 0.17786543 -0.7573699 -0.008699481 0.6415795 -0.21855901 -0.03898891 -0.06063265 0.25364897 -0.15213737 0.11312585 0.0062474357 0.048060693 0.1788496 0.17030251 0.45987195 -0.805972 0.24020581 0.26242155 0.51755655 -0.031562477 0.09117787 -0.07227991 0.13872868 0.927495 -0.03844127 -0.4053131 -0.1152217 -0.17985074 -0.20320062 0.34886432 -0.5737743 0.44123018 0.51165277 -0.5819067 -0.7052096 0.46346748 -0.26336813 -0.24932112 0.13824233 0.20854767 0.043922864 0.2380839 0.25990668 0.14189811 0.22466305 0.16332471 0.27177653 -0.0048288275 0.13533832 -0.19758692 -0.30029523 -0.46605006 -0.27811518
4140 0.23703226 -0.11175293 -0.09244966 -0.2147866 -0.055450935 0.05352205 0.40917486 0.36450168 -0.1316828 -0.057956822 -0.47106582 0.23104888 -0.3037096 -0.074579366 -0.15026218 0.3051338 -0.118329585 0.32114133 0.02963702 0.2508428 0.6887934 0.035909206 0.41029856 -0.1816873 -0.41297317 0.22731872 -0.068332024 -0.23641437 0.03628781 -0.6480179 0.32167575 -0.13296477 0.35250276 0.3948333 -0.098112136 -0.30112877 -0.43744874 0.20368315 0.095522426 -0.8660069 0.5600898 -0.6257925 -0.6490294 0.10437432 0.19760577 0.9545111 0.11968034 0.37956107 -0.50221884 0.23121792 0.3148835 -0.3232991 -0.34399915 -0.18312505 0.3316306 -0.028585285 0.093380526 0.3353344 -0.2067617 -0.0935166 -0.05957898 0.08235751 0.08092174 -0.10748332 -0.08796382 0.5993531 0.10431581 0.08214681 0.06862935 0.3978674 0.44315642 -0.6105421 -0.1371805 -0.064161174 -0.67102087 -0.068134926 -0.3911492 0.03264456 0.7149653 0.43520418 -0.039386313 -0.48594826 0.016781818 0.038142525 -0.94279796 0.06451976 0.07655514 -0.23663189 -0.034267247 0.3955989 -0.49050906 -0.26890066 0.20736724 0.14534871 -0.19591369 0.19734094 -0.36137226 -0.20882589 -0.2882579 0.7118842 -0.11054694 0.27002636 0.026605882 -0.037923206 -0.729065 -0.44033325 0.23518439 -0.15095212 -0.11888365 -0.33925152 0.08755729 -0.35488746 0.11570028 -0.1780704 -0.049837608 -0.063984334 0.29488847 -0.08055613 -0.17482403 0.3263822 0.06590672 0.30008334 -0.3827886 -0.0031029242 0.29888237 0.17515749 0.0029936577 0.19264199
4165 0.25151995 -0.05778437 -0.0849819 -0.21667077 -0.073163986 -0.057558764 0.45854634 0.47503632 0.018312477 0.030762922 -0.5682208 0.30085865 -0.27546394 -0.06894816 -0.24890205 0.37848955 -0.1925234 0.23144114 0.04564532 0.12227392 0.75055784 -0.08986882 0.40564048 -0.25183284 -0.41092038 0.2267534 -0.046669096 -0.3423225 -0.0025958235 -0.6627645 0.23595102 -0.13266934 0.3809207 0.3818184 0.011923739 -0.26495242 -0.46114787 0.19104265 0.031223863 -0.85844195 0.45936018 -0.59849846 -0.69513315 0.15862736 0.15458904 0.81355995 0.12371347 0.3522743 -0.5671185 0.25087354 0.22952504 -0.24218524 -0.36709297 -0.22593705 0.41268438 -0.011427702 0.09331045 0.28917706 -0.31739268 -0.07466395 -0.13552295 0.20126292 0.14061141 -0.10495937 -0.024281004 0.50272924 0.07449525 0.12957089 0.22505349 0.44246334 0.33287662 -0.6299325 0.026328756 0.013840006 -0.7470896 -0.19560768 -0.47235858 -0.009441625 0.6734084 0.5176867 -0.08303808 -0.50838846 0.05878548 -0.0038499453 -0.8470502 0.038028263 0.08860573 -0.2505814 -0.09853379 0.33409286 -0.44330257 -0.2487701 0.23938972 0.27076027 -0.25049934 0.2102757 -0.3281623 -0.07193911 -0.29951212 0.74448925 -0.10576762 0.16490553 0.06387756 -0.068595774 -0.8338253 -0.40328583 0.22831614 -0.23891349 -0.15133362 -0.53364253 0.025455786 -0.4522284 0.16975532 -0.13659163 -0.02065778 -0.05520511 0.31235155 -0.12900883 -0.15629926 0.34980696 0.14791268 0.28444618 -0.31311327 0.029567555 0.21140948 0.19831038 0.031159693 0.12020938
3650 -0.20109436 -0.20623253 0.191483 -0.38074708 -0.37323144 0.07191549 0.32998326 0.44860172 0.37246436 0.29186088 -0.49155432 0.3436225 -0.6686244 0.12547413 -0.24472071 -0.04494029 -0.06344502 -0.30015787 0.38238925 0.17046823 -0.33825034 0.2853381 -0.025093928 0.5717928 0.07791464 0.45982742 -0.52025 -0.19464335 0.009309759 0.18492383 0.14335231 -0.15030628 -0.0186741 0.031232866 0.39763585 -0.66005784 -0.31919196 0.814489 0.005901687 0.006775971 0.49932593 -0.76836944 -0.23658271 0.294918 0.16871645 0.39865804 -0.09790994 0.18480296 -0.43897986 -0.18369414 0.4119861 0.36061117 0.39347175 -0.045102008 -0.014223714 -0.0039705406 0.1888412 -0.036461134 -0.6183865 -0.113718115 -0.034285236 -0.043262687 0.099169396 0.15947329 0.6274572 -0.0010537975 0.62287194 0.15782571 -0.2666467 0.7683513 0.17710894 -0.4309201 -0.3508709 -0.4118281 0.12413404 -0.14246713 0.0765256 0.34495354 0.37830335 0.40176988 -0.090720735 -0.15599246 0.016539672 -0.39787924 -0.3144295 -0.075967565 0.121646784 -0.08628165 0.0063575585 0.5254254 0.04584523 0.05576431 0.011717687 -0.04929179 0.2952456 -0.008253117 -0.29851478 0.7058302 0.027896667 0.0836972 0.48213822 0.1344892 0.09362105 -0.2709658 -0.12656315 -0.68621063 0.16356517 -0.46472558 -0.2578606 -0.56848043 0.59880674 -0.7430447 -0.7897862 -0.05751862 -0.040081985 0.39957958 0.4579876 -0.09667588 -0.03428177 -0.1335254 0.40086913 0.31545922 -0.7620748 0.33368197 0.09689811 0.49739566 -0.081267744 0.14716788
3724 0.30297092 -0.27504462 0.15591195 -0.3226462 0.092358075 0.12958933 0.21357417 0.29844403 -0.0358834 0.5031603 -0.5446283 0.4653599 -0.43991423 0.54069084 -0.24240303 0.076633625 -0.35956848 -0.31711155 0.4574468 0.118130066 -0.065875 0.01821929 -0.15516864 0.6789089 0.2298938 0.2819954 -0.4660511 0.15874867 -0.048225556 0.2987753 0.2589407 -0.07291235 -0.31336504 0.055514827 0.0463118 -0.7894079 -0.2778497 0.3826432 -0.026080552 0.14685614 0.33788645 -0.89739853 -0.6127361 0.17319298 0.25505784 0.2828986 -0.35447624 0.09652567 -0.5950104 -0.12635073 0.08114883 0.12107134 0.20177688 0.1451116 0.24613877 0.16775087 0.058716178 -0.16393264 -0.7449655 0.05612691 -0.016440097 -0.46255732 0.29885313 -0.002567171 0.725651 0.30243722 0.37009618 0.13310136 -0.05833328 0.84116685 0.26611647 -0.40519103 -0.70905584 -0.43983752 -0.2363597 -0.40236232 0.14957967 0.36262226 0.54175425 0.1558807 -0.2878148 0.14995742 0.106467135 -0.33746427 -0.31979915 -0.23439315 0.2718577 0.078969836 -0.31652537 0.2891725 -0.1854147 0.08252321 -0.21659465 0.059895635 0.0290543 0.097511895 -0.33706212 0.36825395 -0.16701289 0.06823594 0.41482002 0.065306894 0.1531641 -0.22113957 -0.1646559 0.17614125 0.3548811 -0.5495519 -0.19338776 -0.70892227 0.34083104 -0.6559656 -0.5603114 -0.17371593 0.016346699 0.22885312 0.29078573 0.063262545 -0.04066687 -0.10828992 0.16688854 0.057005458 -0.49776465 0.4355614 -0.037144743 0.033488836 -0.43874586 0.037500255
4024 0.25820816 0.14904433 0.33708388 -0.088685594 -0.49188817 -0.64663327 0.2990239 0.12980324 0.47522435 0.4686395 0.031309467 0.63864034 -0.18458141 0.08139242 0.3628005 0.39170307 -0.42118278 0.32229054 -0.05187063 0.0065853945 0.3722102 0.31965333 0.29186007 -0.042681113 -0.16409048 0.4320079 0.030226827 -0.27144346 -0.37984335 -0.3265191 0.25780773 0.21934563 0.15437269 0.24767229 -0.07021099 0.07477349 0.44899482 0.31220645 -0.28872764 -0.019898938 0.22568992 -0.01608569 -0.7340342 -0.5384987 -0.1706955 0.37901747 0.27445856 0.08571469 0.055266645 -0.3964185 -0.17784469 -0.06976846 -0.117310695 0.28579372 0.2027888 -0.08246502 -0.09119176 0.44978175 -0.18591623 0.33626133 0.36894438 -0.2726827 0.036420416 0.061808396 0.71612084 0.31052646 -0.0004966929 -0.3970188 0.0638122 0.482001 0.09797981 -0.3289337 0.18001682 -0.50011146 -0.12725444 -0.27148348 -0.49455005 0.24281083 0.5466839 -0.22546597 -0.47795445 -0.027036099 0.22061604 0.1674333 -0.20049037 0.28600416 -0.018083505 0.08229662 0.20661278 0.36194664 -0.018971493 0.39782152 0.21748011 -0.38156205 0.044928357 -0.31116858 0.04142632 0.1934168 0.6897251 0.20346546 -0.7159143 0.022769654 -0.17160134 -0.10443209 -0.4653538 -0.928243 0.49237326 0.13622434 -0.44452944 -0.8036682 0.16258727 -0.15045819 -0.4210323 -0.23857245 0.26255503 0.29973456 0.7239257 0.37070313 0.008091578 0.18465637 -0.07499471 0.5025113 -0.10705361 0.60329366 0.014627277 -0.020361116 -0.40367064 0.08144456
3670 0.19303963 -0.04822253 0.4376387 -0.17029345 -0.13061284 -0.16002947 0.2604268 0.061066635 0.086615406 0.327604 -0.53380716 0.06149438 -0.46355334 0.11069644 -0.061705593 0.036738075 -0.5027797 -0.24927492 0.1794206 0.2788199 0.15466247 -0.47637177 0.15576926 -0.08497332 -0.1374526 0.31508335 -0.07525257 -0.33120927 -0.021988757 -0.37083727 -0.47020486 0.21438208 0.06777456 0.24888311 -0.37909102 0.015769864 -0.44626638 0.68142617 0.05473739 -0.118761584 0.37932017 -0.6266976 0.52353984 0.16119662 0.18969631 0.5089712 -0.17623423 -0.40118307 0.18914624 -0.19244255 -0.22608516 0.6060479 -0.03132389 0.12253605 0.06911402 -0.03898483 0.58657235 -0.13022007 -0.20516118 -0.123971686 0.26878786 -0.9285009 0.12896882 0.13567139 0.50923514 -0.03457117 -0.051446512 -0.45304364 -0.3397171 0.19835518 0.08699554 -0.37200564 -0.025897358 -0.1498119 -0.5320595 0.21036854 -0.4351145 0.28765553 0.8851376 -0.6353714 0.29288793 0.29542464 0.22240514 -0.4706392 -0.41990077 0.079969704 0.24355035 0.27094826 -0.27621 0.45719624 0.024753954 -0.054818537 -0.47856233 -0.1858285 0.23820367 0.030373089 0.08015049 -0.048052005 0.2359999 0.88653517 0.058364734 -0.1841449 -0.16295399 -0.109987125 -0.11899507 0.108096264 -0.11215701 0.11489873 -0.11981912 0.05175518 -0.12630518 -0.7110739 -0.22545688 -0.26048735 -0.29325968 0.4421545 0.52968735 -0.37781873 0.20286137 0.5768133 0.44973415 0.9124291 -0.5472549 0.35411167 0.24779281 0.0006535252 0.1843493 -0.46729228
4078 0.22964698 -0.12687665 -0.20307283 -0.2594258 -0.47804376 -0.61303514 -0.026413472 0.32895055 -0.06931056 0.29368663 -0.12833567 0.0008573148 -0.027192233 -0.17694332 0.32501784 0.3828944 -0.34505892 -0.11409238 -0.045718804 0.48806116 -0.18792728 -0.2246581 0.63494706 0.39306995 -0.018105103 -0.06885247 -0.05806583 -0.19415331 -0.020379392 -0.5409965 0.18973316 -0.07796608 -0.13840887 -0.20145349 -0.019040463 0.062399127 0.1768136 0.644767 0.25608742 -0.12767485 0.14930889 -0.3617559 -0.58165795 -0.2546147 -0.02889715 0.32235968 0.1276404 0.07367842 -0.027486715 -0.4090571 -0.03156854 -0.13037083 -0.29001313 0.09972019 0.17913102 0.18177277 0.3768385 0.25473917 -0.5710493 -0.016189253 0.22880682 0.08452851 0.11610642 -0.2701486 0.36535913 0.34988314 0.31021407 -0.0020522906 -0.08391996 0.21918343 0.047763847 -0.4302903 0.1587654 -0.41807696 -0.09084667 0.033388644 -0.50259984 0.019754842 0.7983992 -0.101190984 -0.16528529 0.013760131 0.665122 0.030846437 0.101046585 0.04077522 0.07124909 -0.3094304 0.27593824 0.53323865 -0.20919266 -0.052304853 0.29676807 0.16387446 -0.061636575 0.24805538 -0.01628833 0.25872457 1.1649365 0.24225523 -0.08263076 0.024201894 -0.50612736 -0.13320532 0.21912666 -0.43349186 0.4877095 0.5500764 -0.12853469 -0.8470052 0.11118373 -0.29991236 0.098852836 0.289038 0.12366949 0.03970075 0.50077474 0.37021297 -0.2963467 0.3821735 0.064765505 0.46831864 -0.27506104 0.32146436 -0.3604729 -0.3700165 -0.50687397 -0.03353627
3644 0.09995038 0.08993079 0.5267754 -0.17010331 -0.00809451 -0.0824068 0.07311098 -0.048892263 0.07590516 0.24676776 -0.42064342 0.1311372 -0.31623688 0.1297732 0.20812595 0.26295424 -0.465681 -0.15097255 0.017151559 0.32781774 0.16729593 -0.46416995 0.002923741 0.024900807 -0.20333722 0.39433208 -0.048402946 -0.18489866 0.017730823 -0.4071642 -0.5513726 0.14094362 -0.020637734 0.117698416 -0.2936687 -0.06660001 -0.35903314 0.64288133 0.10002704 -0.2647495 0.27645698 -0.7714988 0.45390284 0.006458975 0.07273639 0.43597627 -0.22760357 -0.32119635 0.20766927 -0.16894932 -0.01441547 0.58688974 0.099816106 0.30104157 0.051874656 -0.14622086 0.43359426 -0.08508581 -0.20185097 -0.30472612 0.2016385 -1.0529643 0.038230978 0.11801215 0.6452116 -0.1445696 -0.017859746 -0.43764234 -0.15398417 0.18162517 0.1913071 -0.3698824 -0.12522505 -0.25239873 -0.28971332 -0.0072310595 -0.2864223 0.31925657 0.9443808 -0.5797288 0.38931555 0.26771122 0.23112911 -0.459545 -0.50630766 -0.040282596 0.26295218 0.51590794 -0.08366317 0.44492745 -0.20882708 0.13107634 -0.5265327 -0.09550877 0.2444391 0.15462424 0.04143394 0.04327171 0.20600602 0.7080028 0.18655884 -0.08835556 -0.1381399 -0.14942482 -0.11842821 0.08914461 -0.13071708 0.32572675 -0.16412665 0.0012081078 -0.080080226 -0.5713076 -0.16295119 -0.31458256 -0.14803301 0.46038443 0.47456676 -0.40938184 0.055748142 0.40286183 0.32946193 0.85902876 -0.581459 0.39389828 0.12100988 -0.061909385 0.15981445 -0.43711826
4107 0.30623764 -0.31386054 -0.18620804 -0.48159897 0.0074926508 -0.7060603 -0.19583559 0.38999045 0.1802186 -0.31450254 -0.33105096 -0.1240834 -0.15349403 -0.24213003 0.0006272042 0.37943754 -0.23399499 -0.18601213 0.4200892 -0.09026158 -0.16392443 -0.4318787 0.38562074 0.62569624 0.24884292 -0.035077408 0.025096206 -0.10466175 0.172114 -0.13897635 0.11620461 0.1041501 -0.0019335727 0.04757188 -0.21618024 -0.004459875 -0.5835073 0.22980928 -0.017915046 -0.6135522 0.32444805 -0.5855284 -0.24682884 -0.10888135 0.35848278 -0.0048927474 -0.20555769 -0.10362794 -0.7945062 -0.43326843 0.25832826 -0.066529445 -0.2565354 0.1582283 -0.17714691 -0.018989317 0.20073316 0.06505579 -0.26891622 -0.091493994 0.19935398 -0.013472358 0.24054737 -0.32397607 0.5157642 0.35660726 0.5889278 -0.56617624 -0.21414785 0.09778312 -0.17673615 -0.50466764 0.10952125 -0.17728597 0.20891427 -0.32012007 -0.38550344 -0.096684724 0.70301366 -0.06599772 0.0018595271 0.050996847 0.581226 -0.3039926 0.18980311 -0.42986262 0.16592127 -0.37651366 -0.004770328 0.43881983 -0.04274564 0.15739843 -0.031676948 0.064259104 0.18806176 0.3540574 -0.52147084 0.1594676 0.47612354 0.36477274 0.027483614 0.032436214 -0.36062598 -0.27121863 0.4653524 -0.2561286 0.23253436 0.27916905 -0.19675235 -0.6411854 0.22769524 -0.4757048 0.11793249 0.011746951 -0.16266729 0.0597638 0.5413449 0.2922339 -0.40106362 0.8835053 -0.09803208 0.3498985 -0.32546842 0.035695624 0.041124783 -0.48264766 -0.187964 -0.4870499
4145 0.16884825 0.22026679 -0.04636185 -0.224514 0.16536577 0.27936712 0.3363557 0.17523271 0.5677541 0.05379997 -0.08958781 -0.06575954 -0.7467181 -0.01256479 0.23157181 0.12417269 0.2502422 0.23392935 0.09005497 0.44822407 0.25237417 -0.021857407 0.29759347 0.35475978 -0.6518337 0.3844367 -0.20754191 -0.08179238 0.027449599 -0.73927695 0.08750589 0.0032529267 0.2603793 -0.0057286043 0.007030594 -0.39850488 -0.16592106 0.039763555 -0.27952683 -0.43395045 0.5401561 -0.36674795 -0.91934144 0.35285422 0.6356768 0.23077656 0.013076132 -0.022620656 -0.4014007 -0.26193634 -0.08373965 -0.43021432 0.081354894 -0.2935913 0.23912212 0.40672413 0.30270606 -0.14177372 -0.14996645 -0.35363474 -0.3320156 0.21093252 0.5981916 -0.028655922 0.106990956 0.042486083 0.33245477 0.05614102 0.32569027 0.33561182 -0.03803872 -0.3346456 0.510991 0.04210195 -0.11114049 -0.28277707 -0.37063387 0.4946103 0.5512574 0.17202123 -0.19842756 -0.2770395 0.27978367 -0.37467876 -0.7903281 -0.004944994 0.540006 -0.43463078 -0.49036354 0.7253579 -0.9133759 -0.099310294 -0.07332465 0.092397705 0.17343387 0.1484261 0.424092 0.35845542 0.28622052 0.5293899 -0.36391065 -0.1266915 0.49964795 0.26011866 -0.57447606 -0.2902852 0.25357044 -0.10582978 -0.30939463 -0.4767939 -0.018352669 -0.3194074 -0.08696321 -0.37388566 -0.18667275 0.14427683 0.3932971 -0.07474448 0.16784054 0.3077184 -0.19427353 0.13252395 -0.36822307 0.14144427 0.32005966 0.10961985 0.0027835825 -0.3757853
4142 0.11677766 0.06846568 -0.129463 -0.20689383 0.040348075 0.28646627 0.40641332 0.29842752 0.0063843788 0.12577727 -0.33636498 -0.021384625 -0.57701516 -0.040415708 -0.0892994 0.2556775 0.036134616 0.32006097 0.040945742 0.38751775 0.5922479 0.07345022 0.34249362 -0.10060807 -0.6139572 0.36553437 -0.13137561 -0.2069586 0.070049636 -0.888292 0.15458672 -0.1610787 0.26716775 0.29245165 -0.0126554 -0.3662653 -0.27317667 0.14705463 -0.06861982 -0.66845345 0.74257636 -0.3791839 -0.7245485 0.115230516 0.35255176 0.66415894 0.18012144 0.40806556 -0.4806876 0.15491085 0.12971039 -0.39825156 -0.20639688 -0.24073823 0.3154293 0.21526445 0.25688437 0.21228662 -0.13658974 -0.2015264 -0.1829626 0.16922894 0.27913457 -0.10120736 -0.12594178 0.46208 0.13424608 -0.034507796 0.36754102 0.39969212 0.41674364 -0.5429435 0.122763656 0.14798792 -0.59850466 -0.12015649 -0.326216 0.20239367 0.80813634 0.40031523 -0.0794839 -0.21057951 0.081689306 -0.18196532 -0.8762866 0.016248541 0.37466747 -0.32641527 -0.0968019 0.61671406 -0.5818652 -0.12496084 0.09847645 0.29107654 -0.11390254 0.15909383 -0.08551215 0.014673468 -0.09263684 0.5621442 -0.11295879 0.09894084 0.2972613 0.22901028 -0.8741982 -0.43224117 0.32595888 -0.20342673 -0.15294015 -0.35661978 0.077574104 -0.32143992 0.044202447 -0.11874187 -0.068507366 -0.12302734 0.5099838 -0.22148597 -0.16857491 0.29028305 -0.041381255 0.2820745 -0.36804834 0.012966857 0.2226056 0.14340615 -0.029307354 0.016873019
3638 0.3835382 -0.07623974 -0.032676067 -0.2800796 -0.044017714 0.1919954 -0.1843454 0.1259162 -0.1366716 0.5510832 -0.09148622 -0.5131456 -0.16487712 0.22115317 0.5190742 1.081163 0.07855166 -0.44169968 0.110371634 0.19404319 -0.032148786 0.01446125 0.017646622 0.33904552 -0.23092571 0.25927842 -0.1748491 0.2711485 -0.25493523 0.030191882 -0.16725372 -0.38576174 0.17773 0.47154567 0.341434 -0.4843159 -0.30989477 0.3531248 0.0070214607 -0.5026426 -0.3237596 -0.82609427 -0.58278435 -0.1793521 0.070760906 0.36400184 -0.21195531 -0.35997245 -0.092169866 -0.23785643 0.21078515 -0.020108908 -0.23672143 -0.009267096 0.13813142 -0.16729726 -0.28003952 0.4276922 0.31087607 0.0038238014 -0.37805793 -0.62949836 0.06938179 0.44371587 0.27584925 -0.08426301 -0.050668005 -0.13226552 0.058382798 0.6622228 0.58940893 -0.24640402 0.1898156 -0.42901528 -0.12027264 -0.051557638 0.058653377 -0.058478944 0.63984084 0.02993451 -0.20096858 -0.23415607 0.061375916 -0.43371397 -0.479508 0.35233828 0.11721488 0.25826895 -0.0075554475 0.48370263 -0.3490173 0.44797122 -0.3985613 -0.1911904 0.08837292 -0.036319863 -0.006960912 0.5505254 0.7436246 0.4095535 -0.12925687 0.14782399 -0.028125446 0.025056949 -0.17512476 0.03316456 0.5035754 0.11239648 -0.24745604 -0.110733844 -0.056419548 0.17376596 -0.27610776 -0.5036595 0.24541728 0.060439512 0.6520582 -0.21083824 -0.10219522 0.71205896 0.3262247 0.61897206 -0.3536032 -0.07738168 -0.041731052 0.24148522 0.19642057 -0.21741016
4138 0.4303291 -0.3190327 -0.002484504 -0.30043513 -0.06553205 -0.30402243 0.3013035 0.29984227 -0.11849081 -0.32472175 -0.44771484 0.5229074 -0.1537393 -0.21317577 -0.11262737 0.41520435 -0.24338548 0.16374534 0.07466579 0.049424812 0.51757115 -0.114680596 0.5160986 0.15670191 -0.074703105 0.048839815 0.017107168 -0.17131138 -0.07848556 -0.37558952 0.40704098 -0.03283741 0.41610217 0.44699052 -0.25429964 -0.16759972 -0.55372655 0.18770866 0.023935169 -0.7715839 0.23652527 -0.82150877 -0.71378 0.0072017536 0.05009699 0.94567484 -0.12157955 0.25883526 -0.6239981 0.3099886 0.37895504 -0.15794186 -0.3577903 -0.07383258 0.15717402 -0.38363314 -0.20591415 0.46500856 -0.12063897 -0.040502768 0.112880155 -0.12315846 -0.10451085 -0.317562 0.04896289 0.6085489 0.20919496 -0.12130048 -0.084247306 0.36437997 0.34250292 -0.681835 -0.10709942 -0.26851982 -0.43555155 -0.17317425 -0.21827823 -0.20217334 0.6837218 0.276376 -0.14458747 -0.58965105 0.11536002 0.10137026 -0.8183424 0.02306462 -0.016692817 -0.18765165 0.011467187 0.24515094 -0.2161573 -0.26086414 -0.028737014 -0.1441605 -0.10266314 0.3145811 -0.5525323 -0.37298343 -0.36074632 0.8250687 -0.108673856 0.33093473 -0.28468364 -0.1990239 -0.5664083 -0.33939263 0.1327661 -0.11727382 0.037750512 -0.42385784 -0.065834306 -0.3361252 0.3301746 -0.2951355 -0.08502421 0.06792011 0.28366935 -0.0023629924 -0.19671328 0.39144322 0.048200168 0.41965342 -0.4080625 0.03873614 0.37518817 0.11494562 0.031287 0.023163054
4121 0.15765877 0.23874103 -0.03028539 -0.2121954 0.20489173 0.31204265 0.40701392 0.10104811 0.58244294 -0.23215729 0.04789443 0.046732012 -0.6736431 0.06448327 0.27105397 -0.014436978 0.20104657 0.3857011 0.07629593 0.5552375 0.06023044 -0.021947708 0.2688811 0.51569605 -0.65602124 0.31843558 -0.18794051 -0.042615183 -0.02766174 -0.5641508 0.14150046 0.035907496 0.3287811 0.06928047 -0.1414763 -0.40311784 -0.20287313 0.11248162 -0.19152623 -0.4147928 0.33080122 -0.5495115 -0.85845643 0.31086186 0.7097278 0.22841522 -0.10808679 -0.060677115 -0.3169171 -0.32162198 -0.056081615 -0.38490054 0.19143218 -0.24172448 0.11915764 0.18637982 0.18844727 -0.20279393 -0.024822721 -0.38431793 -0.2440223 0.06877943 0.64541954 -0.08804913 0.16972409 -0.04597139 0.45921302 0.10618249 0.053972643 0.3332091 -0.040862676 -0.2241424 0.3670139 -0.068447575 0.08602346 -0.46354884 -0.3756889 0.56025755 0.52227515 -0.030957475 -0.1855963 -0.321521 0.35533294 -0.24873607 -1.0580633 0.019263158 0.42962438 -0.44148254 -0.67036855 0.6728703 -1.1002947 -0.19052595 0.065364815 -0.08844191 0.18937567 0.17611592 0.57941425 0.24995299 0.3535535 0.58293015 -0.46265203 -0.0940612 0.37935176 0.29045388 -0.3167266 -0.29406282 0.32695565 0.002339933 -0.21974486 -0.3652099 -0.031091005 -0.26495555 -0.12066131 -0.46800488 -0.22652794 0.2517624 0.25840983 0.027111253 0.24552563 0.21690686 -0.30732074 0.20277402 -0.3696134 0.30275834 0.43532997 0.17800313 -0.041015968 -0.44319582
3767 -0.007026276 -0.32873482 0.44577688 -0.0723214 -0.39000022 -0.18992549 0.050438616 0.63435084 0.3529129 0.56427854 -0.14984693 -0.10302258 -0.19519144 -0.14276421 -0.018309468 0.029398143 -0.12279992 -0.37971845 0.19333968 -0.041686557 -0.11734241 -0.43644932 0.48115703 0.30584997 -0.096793085 0.22080484 0.07018034 0.47073135 -0.025586493 -0.050944485 0.062369823 -0.20480923 0.49543548 -0.11077344 -0.015333884 0.16667226 -0.2824881 0.8188727 -0.07942697 0.13281706 0.15249349 -0.47626722 0.005451867 -0.024034072 -0.060652938 0.6152294 -0.1989941 -0.36362234 -0.40590808 -0.5777039 -0.030533748 -0.22504035 0.022829201 0.00868629 -0.2081573 -0.13346918 -0.025655909 0.11574481 0.11666882 -0.24415147 -0.21558543 -0.014074512 -0.081124835 -0.057828788 0.086278014 0.1445527 -0.32035953 -0.05527204 -0.139991 0.4132874 -0.26179427 -0.1575458 0.07179934 -0.38789544 -0.8859103 0.59468895 0.1316391 0.27934068 0.44914624 -0.46550965 0.35158208 0.5036945 -0.028162602 -0.10084013 -0.36978054 -0.15496738 0.44337642 -0.10394297 -0.7260594 0.6937574 -0.032676693 -0.1447514 -0.116189905 -0.20148563 0.07571654 0.11867582 0.29286775 -0.09731011 0.5723495 0.18018107 -0.23836611 -0.12493767 -0.17944233 0.019629836 -0.6455741 0.009802196 -0.32863286 -0.30412227 -0.6047203 -0.17923495 0.14332357 -0.14798014 -0.53824383 0.09017405 -0.069944136 0.22925965 0.59659743 -0.19372374 0.17544307 0.9192888 0.19140564 0.4608212 -0.5539973 0.030381523 0.50134784 0.16897455 -0.24149564 -0.2473592
3609 0.3726255 0.02687701 0.1621923 0.011642981 0.058941983 0.026185459 0.2220906 -0.14650156 -0.12066084 0.35799176 -0.6458994 -0.13802566 -0.09285501 0.08465744 0.42981902 0.605585 -0.01608997 -0.5928809 0.3183159 -0.17588377 0.053743817 -0.009985811 0.4887706 0.47351417 -0.20187217 -0.109878466 -0.14894675 -0.04670844 -0.328535 0.04592713 0.23926173 -0.92697406 0.48764858 0.3578823 0.07144394 -0.43444562 -0.19512154 -0.06935061 0.045181315 -0.34780738 -0.14688669 -0.9369896 -0.12571064 -0.27603167 0.12974814 0.5421159 0.0006239887 -0.09399348 -0.5224788 -0.66121906 0.23115462 -0.12806845 -0.29073718 -0.4112963 0.40402243 -0.46218702 0.3170286 0.13623017 -0.438825 0.08505794 -0.23930524 -0.42540675 0.1849299 0.16033632 0.27498132 -0.3162296 0.30946943 0.5102069 0.4941439 0.6032682 0.18037963 -0.37706098 0.3080276 -0.2679197 0.17465736 -0.096008234 -0.47037563 -0.34170228 0.6573065 -0.19617337 -0.14089628 -0.40754303 0.19838744 0.19947603 -0.49091497 0.24428539 -0.03816511 0.12769666 0.2108401 0.64828366 -0.34804767 0.33667094 -0.0459844 -0.20798191 0.36400455 0.018536573 0.008877423 0.33453143 0.5735147 0.18255591 -0.10223418 -0.22386573 0.33068028 -0.20702872 -0.07929211 -0.12274832 0.22312897 0.019156177 0.24996829 0.09725091 0.41561696 0.31855437 -0.23764312 -0.7334322 0.42322683 -0.10968533 0.36619088 -0.14017646 0.21172813 0.7927483 -0.3926087 0.5017272 -0.20017941 0.155193 -0.2351593 0.2827697 0.05020763 -0.08716883
4114 0.28208345 -0.32662195 -0.19120723 -0.26717916 -0.101931036 -0.12659027 0.2897838 0.21472482 -0.30641156 -0.24531998 -0.40324882 0.35399812 -0.22995155 -0.14733814 -0.015768372 0.26006022 -0.1876306 0.39473188 -0.0012553511 0.31979588 0.5856638 0.05441547 0.45878997 0.0902548 -0.19652498 0.0512317 -0.1290395 -0.023109935 -0.0073345695 -0.5134659 0.42129466 -0.16327791 0.26112282 0.4944676 -0.32606164 -0.24013215 -0.5187611 0.23086175 0.08623992 -0.7243492 0.3354002 -0.674419 -0.5765566 0.053597644 0.0039822464 1.0926619 0.01935738 0.38984466 -0.57820207 0.19005157 0.4760394 -0.2027395 -0.333161 -0.029605761 0.15860322 -0.3025669 -0.054639995 0.44488302 0.018486058 -0.18856494 0.052815076 -0.12144899 -0.050413877 -0.30829784 -0.018475546 0.6473378 0.21949953 -0.042794753 -0.041451454 0.2528261 0.5500224 -0.62224215 -0.2465576 -0.13758649 -0.5220513 0.09051747 -0.18538083 -0.1513655 0.70403075 0.23180617 0.0035260601 -0.5099745 -0.0665716 0.112966046 -0.9707387 0.07491868 0.008770779 -0.18940622 0.069931164 0.41468763 -0.30971187 -0.28298417 0.008028246 -0.17138264 -0.052750193 0.20415701 -0.38899633 -0.41768232 -0.21427904 0.64982957 -0.065925896 0.35165444 -0.19869466 -0.08129142 -0.6141694 -0.44294554 0.2438224 -0.12449488 -0.015288839 -0.15759204 0.13228643 -0.242156 0.13975875 -0.20097703 -0.095691025 0.01948755 0.23318025 -0.0003449019 -0.2429984 0.30437216 -0.018377287 0.35035455 -0.45637348 0.027431505 0.37516516 0.18819349 -0.053982988 0.11964267
4046 0.1672712 0.22735028 0.098167814 -0.050515544 -0.0528545 0.15734798 0.5836028 0.013710824 0.3467609 -0.2259193 0.25465363 0.25762582 -0.40357184 0.28978094 0.20450097 -0.13028406 0.23417251 0.13969314 -0.055238742 0.59821826 -0.25963357 -0.17176284 0.2862186 0.39668536 -0.53509426 0.10432361 0.122180924 -0.21108995 -0.22905557 0.00799336 0.2393975 0.0831385 0.4037642 0.37824205 -0.25747785 -0.14441726 -0.34317097 -0.0028581321 -0.15488881 -0.28534532 -0.018280344 -0.81286937 -0.79553175 -0.24745242 0.5928347 0.25108665 0.006630992 -0.2307532 -0.49248788 -0.357408 -0.23585425 -0.2850248 0.31947944 -0.1744347 -0.29520667 -0.106851086 -0.022284782 -0.0364915 0.12849437 0.0015336074 -0.02273389 -0.43646646 0.29091823 -0.11083996 0.26118335 -0.09490128 0.56144816 -0.11693502 -0.08537062 0.099667385 0.15760158 -0.17982957 0.29639313 -0.27573055 0.3931502 -0.5613603 -0.29934588 0.2501501 0.633886 -0.19251153 -0.03812327 -0.02534482 0.41038442 -0.060232796 -0.9454073 0.04838976 0.2482176 -0.48052818 -0.6578419 0.49075285 -1.1603566 -0.3197774 0.15751915 -0.08227417 0.014750084 0.15140237 0.3162764 0.1730508 0.33483902 0.34460026 -0.54990983 -0.28240848 0.047884826 0.46697217 -0.10385005 -0.20504971 0.50245386 0.2196367 -0.12815963 -0.037500326 0.17031193 -0.40322205 -0.39513746 -0.3722347 -0.5547363 0.2139941 0.22366376 0.041375265 0.095943205 0.12422751 -0.48071593 0.16249847 -0.45246473 0.3941228 0.57380396 0.1454972 -0.099560715 -0.38755354
3675 -0.101011276 -0.2904584 0.1892364 -0.34063146 -0.25192982 0.12719026 0.29739976 0.4684595 0.22312365 0.37146264 -0.44462627 0.42510554 -0.63083863 0.26192698 -0.23806068 -0.084110156 -0.09340981 -0.32262406 0.45660216 0.15015164 -0.29851046 0.26244202 -0.11333801 0.61879355 0.09471339 0.424755 -0.5325715 -0.06468156 -0.009224677 0.20852233 0.14466554 -0.1503641 -0.19389594 0.07329226 0.2885868 -0.7503332 -0.32175845 0.64115614 -0.002093791 -0.008066333 0.46218333 -0.8401039 -0.4326936 0.29491544 0.18511318 0.38475108 -0.22486289 0.17883563 -0.480691 -0.15048473 0.263239 0.3675083 0.36825338 -0.006469036 -0.012255288 0.032049734 0.19929978 -0.06996453 -0.7139548 -0.113972515 -0.06903073 -0.19750476 0.14913201 0.14894688 0.59460646 0.1189402 0.57887626 0.17951342 -0.26123032 0.83104044 0.16214505 -0.45643207 -0.4606764 -0.39629695 -0.007259533 -0.18889853 0.166407 0.37805063 0.35427698 0.3826908 -0.08953573 -0.10229535 0.0030340322 -0.37011558 -0.28149816 -0.058498092 0.22901908 -0.11663296 -0.068344906 0.44079998 -0.008832696 0.011489406 -0.12417805 -0.002962648 0.18294317 0.12883937 -0.3183278 0.546196 -0.09163899 0.039446983 0.46831322 0.1684677 0.08664783 -0.25405872 -0.108526446 -0.37291163 0.1419395 -0.4595355 -0.28210893 -0.5310256 0.516223 -0.73080796 -0.7234317 -0.08904682 -0.051362175 0.37090144 0.5106702 -0.046020884 -0.032407362 -0.16937305 0.32074687 0.28056782 -0.66910833 0.36840543 -0.017762383 0.45314366 -0.09971394 0.13344093
3731 -0.1355429 -0.019247692 0.40318418 -0.11716443 -0.2410395 -0.42224208 0.22695595 -0.2653467 0.24052797 0.37189487 -0.648599 0.5059403 -0.6273331 0.0046687643 0.075247854 -0.117539644 0.25126788 -0.30956453 -0.08792155 0.17010751 -0.13413435 0.24003482 0.28862387 0.50393313 -0.36507463 0.4160602 0.106796876 -0.17284833 0.22565074 -0.2938837 0.30544302 -0.07455291 -0.27404523 0.24866804 -0.24196376 -0.39575872 -0.5518632 -0.06030071 -0.38080165 -0.51984334 -0.4264295 -0.549898 -0.19746725 0.11987956 0.34037107 0.31429014 -0.2067287 0.32944414 -0.21544957 -0.5739518 -0.0687985 0.16772008 -0.17230462 0.13418688 -0.27320817 0.36211544 0.3271063 0.22369882 -0.6675732 0.16173437 0.5501818 -0.305897 0.06040504 0.115263484 0.15039043 -0.054799967 0.41149732 0.6442257 0.090751454 0.32843474 0.19761184 -0.00741731 0.42166382 0.25760847 -0.29261768 0.32352597 -0.00081604015 -0.0038026269 0.4749027 0.028273154 0.20323317 -0.20578386 0.46342698 0.18962573 0.0032898977 -0.25096875 -0.10337392 -0.20941715 -0.14292867 0.6006547 -0.27284914 -0.07853668 -0.24507263 -0.0378218 0.015618395 0.49725315 -0.54142517 0.074792825 0.10980865 0.33820894 -0.14058691 -0.0980189 0.25079632 -0.041977894 0.052617714 0.30125162 0.049684346 0.24499597 -0.1466933 -0.36310086 0.30727777 -0.18362428 -0.20148496 -0.02398963 0.06401943 0.5937337 0.49428144 -0.0019946876 -0.07828151 0.5933701 -0.1377104 0.8110563 -0.03650671 0.023459911 0.09417064 0.7369714 0.16814907 0.32263997
3730 -0.21893366 -0.097935416 0.41431883 -0.18149655 -0.42960823 -0.3956653 0.23031911 -0.16123618 0.31483158 0.3967422 -0.5458916 0.646202 -0.6097946 -0.011504662 0.091594666 -0.27551278 0.21286483 -0.25608757 -0.014468481 0.10206475 -0.13859452 0.25820705 0.24956624 0.45567828 -0.32829326 0.46924588 0.06871039 -0.1576352 0.0922504 -0.24366814 0.31792626 -0.058796454 -0.43058932 0.11934577 -0.3212009 -0.40703645 -0.4843037 -0.046833802 -0.38432896 -0.4781694 -0.35874346 -0.56800425 -0.24141146 0.19967732 0.3131861 0.3196919 -0.22712912 0.3074131 -0.19950482 -0.5509779 -0.09978232 0.23074901 -0.0030691836 0.09585449 -0.3307699 0.41612318 0.27448946 0.21070673 -0.82386947 0.1246419 0.55051565 -0.3474886 0.13693805 0.22235489 0.20661156 0.024006503 0.49727836 0.4936407 0.037555523 0.35423592 0.10307161 -0.031731088 0.34559378 0.08078184 -0.35448745 0.3009444 -0.022006722 0.08033785 0.46986008 0.055539202 0.27100164 -0.09982282 0.39471117 0.14382428 0.0594684 -0.12221196 0.052837297 -0.24531429 -0.17368045 0.47191358 -0.26109976 -0.14265527 -0.3118461 -0.019255906 -0.10293816 0.560654 -0.49428436 0.045261633 0.095130935 0.20712213 -0.19625677 -0.018694758 0.17908195 -0.041720767 0.054245368 0.29410863 0.045917995 0.19022489 -0.25116292 -0.370696 0.28097942 -0.30129224 -0.23792426 0.030183092 -0.049155742 0.6437963 0.649595 0.08238132 -0.071997866 0.4826055 -0.18970883 0.6587787 -0.07197575 0.078427546 0.09561048 0.69955915 0.20229642 0.31149524
3603 -0.52177763 0.036147784 0.03313574 0.036497477 -0.4795292 -0.10260399 0.31906262 0.15193908 0.30339393 -0.15516669 -0.5990241 0.28210434 -0.598509 -0.1828857 0.18884744 0.038552374 -0.16197102 -0.07219207 0.36773205 -0.098162025 -0.26309472 0.107980624 0.30992922 0.12546612 0.036237948 -0.037271347 -0.4455844 -0.45292398 0.026073761 -0.08048478 0.42810538 -0.46588117 0.049373407 -0.13957188 0.12827376 -0.22000378 -0.3972378 0.5020463 -0.16539909 0.10882807 0.5314685 -0.62507534 0.34667087 -0.041085213 0.20298989 0.4294973 -0.022538366 0.44535422 -0.353942 -0.3612531 0.5614047 0.27256134 0.11062613 -0.24531327 -0.1979167 -0.5160314 0.32156667 0.11812429 -0.8395826 -0.25756255 0.25515658 0.110248685 0.19723056 0.1554359 0.72677106 -0.07395557 0.6990924 0.32711 0.21933421 0.4783075 -0.2698906 -0.3324602 0.1890684 -0.064012825 0.38318488 -0.052752927 -0.23213062 0.057174884 0.48232833 0.13505769 0.2923394 -0.024155052 -0.0036186539 -0.15031028 -0.3072802 0.13965291 0.20899525 0.044821713 0.018291552 0.9343935 -0.16791576 0.13898194 0.21874455 -0.12751377 0.2781293 0.24240111 -0.24786015 0.30872798 0.3074309 -0.088770084 -0.08061069 -0.28372318 0.43339518 -0.012543644 -0.20435856 -0.78574765 0.13010028 -0.18693388 0.047834422 -0.36577582 0.6137616 -0.6345922 -0.42535424 -0.2153243 -0.11881065 0.43182725 0.30033198 -0.18938036 0.12196793 0.10493988 -0.04571492 0.5052745 -0.69002485 0.37895364 0.027445765 0.59718806 0.0044669057 0.26726314
4115 0.1777628 -0.19074449 -0.22201821 -0.20826699 -0.08387615 0.078591295 0.3262498 0.2363825 -0.2759621 -0.15209605 -0.3313033 0.2164263 -0.29749995 -0.04327292 -0.017187176 0.16483894 -0.08763701 0.4899204 -0.04297596 0.44402432 0.65083677 0.14857754 0.4065541 -0.014987576 -0.35602337 0.15966752 -0.16647632 -0.031506885 0.025600415 -0.67563874 0.37359127 -0.19888717 0.20927028 0.4288766 -0.25992888 -0.31405953 -0.41639188 0.18358554 0.105771765 -0.7016569 0.43848398 -0.5449903 -0.62179446 0.07401102 0.13714163 1.0330665 0.061196163 0.44549373 -0.52178925 0.15809597 0.43884104 -0.32164592 -0.25566214 -0.06815351 0.20381996 -0.10136764 0.058262985 0.347931 0.04718723 -0.24875572 -0.045972183 -0.013945268 0.06166188 -0.26701766 -0.08965784 0.6204236 0.21013412 0.003043215 0.052354652 0.2682866 0.57643175 -0.6098151 -0.24495466 -0.06888633 -0.5856082 0.11014872 -0.24330166 -0.05729246 0.7175108 0.31653932 0.04331457 -0.41691512 -0.09233984 0.042589795 -1.0063266 0.082210615 0.12815787 -0.24680811 0.055465825 0.48499948 -0.46834102 -0.30212536 0.08549222 -0.008677442 -0.093079634 0.15048818 -0.24160926 -0.32760578 -0.1870894 0.5731011 -0.118560396 0.29284638 -0.047662497 0.05255984 -0.67278 -0.47373286 0.3405806 -0.1196129 -0.06476744 -0.13810726 0.19774115 -0.2144422 0.045851033 -0.10632095 -0.10497438 -0.03441206 0.28323102 -0.058885198 -0.22503835 0.25556424 -0.03652154 0.28897467 -0.43962234 -0.007943948 0.3881577 0.19211894 -0.06928438 0.13319372
3602 -0.42197853 0.009144657 0.036150746 -0.01224901 -0.51142114 -0.06372431 0.28468153 0.17704634 0.31616092 -0.17124563 -0.5786579 0.24683636 -0.69056404 -0.15991838 0.13484018 0.016759822 -0.17296013 -0.03294668 0.3300516 0.045853704 -0.2605181 0.16642691 0.23452847 0.23956892 0.10011354 0.054581247 -0.4800882 -0.35597605 0.045137264 -0.08550093 0.34855497 -0.34238386 0.12737568 -0.15675965 0.38905275 -0.27392733 -0.39816055 0.7130547 -0.11674477 0.21192858 0.5489565 -0.5929515 0.3063058 -0.00884025 0.1772654 0.37799445 -0.09180333 0.4176675 -0.27869126 -0.2825755 0.6199255 0.30211115 0.15536858 -0.15704851 -0.2154217 -0.45291469 0.19736178 -0.008379948 -0.6671107 -0.2947339 0.19076966 0.12279318 0.08235155 0.14067827 0.7482219 -0.08202615 0.5993349 0.24570978 0.1274262 0.5469899 -0.090870835 -0.41562873 0.08297585 -0.11518235 0.39579692 -0.060954656 -0.13605236 0.12752455 0.40818033 0.2367324 0.16268834 -0.09280501 -0.034947313 -0.33075088 -0.4080239 0.12482897 0.14163493 0.16445765 0.007065189 0.993803 -0.09140866 0.13481937 0.17708194 -0.051309254 0.38802725 0.10358945 -0.26727855 0.4222481 0.33050177 -0.046532497 0.049659844 -0.15633015 0.29832652 -0.052961286 -0.2772789 -0.99148345 0.18671975 -0.28805357 -0.005357953 -0.4792829 0.5990516 -0.67674357 -0.47068104 -0.17745002 -0.10102833 0.4467586 0.31837776 -0.29667494 0.031381186 -0.013166709 0.18991967 0.40064088 -0.82083595 0.29336742 0.12881292 0.5715344 -0.13018064 0.21300021
4074 0.13564129 0.18064354 0.08250654 -0.37057045 -0.35169986 -0.54974073 0.3902755 0.18631512 0.32322222 0.61058635 -0.022869382 0.4754666 -0.26858404 -0.053263877 0.6530797 0.49139932 -0.37641042 0.23671667 -0.11874559 0.2657865 0.02968036 0.3983317 0.5516681 0.17288557 -0.28281963 0.28215113 0.17089838 -0.2897917 -0.31721222 -0.2704594 0.46925163 -0.004145058 -0.013642516 0.2931011 -0.16809277 0.18296972 0.33948058 0.41443658 -0.5545672 0.030327715 0.284449 0.058669455 -0.8487372 -0.46186674 -0.21735407 0.24474843 0.45176426 -0.011162577 0.04816344 -0.3407993 -0.39692783 0.0010091453 -0.11427356 0.35262644 0.010084188 -0.19950926 -0.13368087 0.4136756 -0.216559 0.3893098 0.34861007 -0.15651701 0.10042397 0.068113215 0.5036573 0.12812006 0.049160868 -0.2166911 -0.051245444 0.46907693 -0.01923377 -0.4321649 0.30448443 -0.54151064 -0.13108659 -0.11143515 -0.34953874 0.119227774 0.60738117 -0.05732303 -0.27258995 -0.10392591 0.3931147 0.16357741 -0.23534775 0.38610017 0.15143241 0.05857522 0.16292456 0.35253394 0.044743624 0.19369346 0.31533793 -0.32613152 -0.17888096 -0.028629238 0.2567797 0.31795394 0.75022066 0.4190927 -0.4318229 0.32731363 -0.28107703 0.12662923 -0.4788143 -0.77758384 0.36946762 0.110275485 -0.030316515 -0.777504 0.025088895 -0.24788752 -0.2891865 -0.14861949 0.12897648 0.24656102 0.63916355 0.35237765 -0.17645071 0.24336258 0.0028112838 0.68088406 -0.2887761 0.5173051 0.03203711 0.16434838 -0.54376864 0.32479677
4103 0.19693549 -0.07017436 -0.23101597 -0.41802034 -0.40542015 -0.529339 0.017215393 0.4118939 -0.03814182 0.10471915 -0.14777927 -0.0690046 -0.10731677 -0.14658196 0.43094805 0.34496298 -0.41257563 -0.15240139 -0.12752569 0.532461 -0.25236073 -0.3201565 0.51992977 0.43706045 -0.058807585 -0.17513558 -0.041330755 -0.13145007 0.0039662295 -0.49432904 0.24682063 -0.10220128 -0.26388273 -0.22802095 0.01008589 0.014605134 0.08460735 0.74265325 0.24371848 -0.1561211 0.080800146 -0.50291866 -0.30078232 -0.11988979 -0.0583514 0.13011596 0.14947157 -0.010295117 -0.0026524435 -0.33161402 -0.021749504 -0.0037172872 -0.34993303 -0.0022829033 0.06153009 0.12850505 0.280478 0.18359283 -0.57151353 0.052777532 0.19522473 0.040592365 0.14127718 -0.2681154 0.44350284 0.09618891 0.39946496 0.055238534 -0.055881254 0.25135422 0.09851071 -0.41679594 0.26070228 -0.36709106 -0.17245 -0.04830906 -0.43882272 0.06359202 0.85535914 -0.1438389 -0.11652074 -0.008344581 0.7435931 -0.0011446835 -0.042427562 -0.024661407 0.028830327 -0.3922957 0.11426215 0.4996469 -0.17384744 -0.18930012 0.2387066 0.18320543 -0.16184343 0.29084867 0.11459336 0.32412365 1.2563779 0.33605862 -0.07895578 0.054231793 -0.42339745 -0.023250904 0.18432845 -0.31025836 0.4984061 0.46076238 0.023112092 -0.93251276 0.013213108 -0.34916058 0.19380367 0.34291926 0.049863804 0.05252291 0.5513566 0.3491105 -0.33535138 0.48429194 0.0010994877 0.5804364 -0.34132066 0.43399122 -0.2869175 -0.40031648 -0.5491511 0.0401848
4077 0.18356383 -0.117387 -0.13204645 -0.24847631 -0.5203397 -0.57811624 0.09716549 0.25847307 -0.03968977 0.34747225 -0.060842656 0.09067373 -0.14592037 -0.13864739 0.49145356 0.39328685 -0.45513108 0.0043539703 -0.17857207 0.545195 -0.1293397 -0.12982991 0.59613806 0.33887064 -0.10726319 -0.03258554 -0.03154725 -0.17097893 -0.097489394 -0.54345167 0.30736774 -0.09403659 -0.14386545 -0.15319736 0.0054392447 0.0003931341 0.30649835 0.7637194 0.245407 0.008906774 0.08702088 -0.26241016 -0.6149803 -0.23002963 -0.2051693 0.35940903 0.27270997 0.06860058 0.1258724 -0.32274547 -0.1498742 -0.07647655 -0.29275802 0.07266231 0.23983829 0.11195669 0.261569 0.26519123 -0.5957201 0.06389949 0.2970238 0.050390407 0.091475494 -0.22569641 0.3625549 0.26535416 0.25866586 0.037293486 -0.026045462 0.29531392 0.111993015 -0.43787602 0.19692376 -0.43895745 -0.16820282 0.14204079 -0.4265792 0.07670776 0.83480704 -0.1289135 -0.26055437 -0.079058334 0.6432334 0.107793525 -0.03358307 0.20995164 0.08179042 -0.22578368 0.20417044 0.5241206 -0.15578662 -0.07505769 0.30852613 0.075200215 -0.14527275 0.20485283 0.15928487 0.28691983 1.2151747 0.2939781 -0.18752487 0.050802685 -0.4474624 -0.078612894 0.015706968 -0.5344775 0.5253547 0.5266837 -0.049859446 -0.889116 0.034757312 -0.27819487 0.07278586 0.273259 0.13781148 0.055354875 0.4939061 0.3423734 -0.22743739 0.17495863 0.078825206 0.6129343 -0.27088034 0.4383814 -0.357615 -0.27017677 -0.5466285 0.13359667
3691 -0.055762127 -0.051569816 0.6306279 -0.18959016 -0.1986995 0.116232984 -0.044006743 0.25899458 0.16040768 0.52349937 -0.061091688 -0.27250084 -0.11023408 0.20431842 0.3246756 0.60758036 -0.2514174 -0.3321427 -0.0004216347 0.22626407 -0.14399935 -0.28546318 0.060438167 0.17926702 -0.17531376 0.43195173 0.062457643 0.3696724 0.044923693 -0.16515283 -0.27927038 -0.03150429 0.32735032 0.08219546 0.2221608 -0.1636217 -0.2013314 0.72962505 0.0071930597 -0.12953308 -0.018255042 -0.7582903 0.004280123 -0.20553458 -0.06994467 0.40918517 -0.2797642 -0.38944036 -0.040436625 -0.4040722 0.24203777 0.17356613 0.044406846 0.27199963 -0.12786593 -0.16904126 -0.2351046 0.23161957 0.29809204 -0.08932185 -0.13729325 -0.7555322 -0.14150704 0.23988478 0.46128637 -0.19747835 -0.33189037 -0.36796007 -0.20033205 0.47703594 0.2225402 -0.18537316 -0.05738163 -0.46321908 -0.6080137 0.204832 0.34785584 0.36983195 0.71766204 -0.36037585 0.18825059 0.33573425 0.010996181 -0.41695297 -0.334681 -0.04854581 0.23266539 0.3741199 -0.455458 0.6954034 -0.30530295 0.18028499 -0.53426147 -0.16829415 -0.12237074 0.062644325 0.17603347 0.32488278 0.6776128 0.46498027 -0.115115285 0.07043341 -0.10924183 0.034360394 -0.38769415 0.3449689 -0.22999513 0.20172359 -0.40522888 -0.357925 -0.14856388 -0.04346629 -0.35351288 -0.07751162 0.09527621 0.37442628 0.717223 -0.31254804 0.05428092 0.7301148 0.5257793 0.74304885 -0.5311571 0.049765814 0.31138402 0.13654308 0.1090554 -0.17157532
4149 -0.053420614 0.16576913 -0.07765492 -0.68281734 -0.10301818 -0.29117692 0.44467065 0.15599774 0.32970563 0.42802352 -0.20173432 0.18928756 -0.493004 -0.14956714 0.90502524 0.5231277 -0.29473856 0.2863756 -0.101211235 0.5068073 -0.13248447 0.3846234 0.47068822 0.3578698 -0.20947994 0.09107495 0.18230338 0.004773588 -0.36405084 -0.075378984 0.7036697 -0.22726604 -0.28108698 0.118514 -0.20438087 0.4422588 -0.022972805 0.55032754 -0.633596 -0.045351658 0.3187659 -0.26297602 -0.5049315 -0.06884673 -0.18418944 -0.08551029 0.27851295 -0.19158427 0.00062896806 -0.2732193 -0.47820443 0.13211037 -0.024452562 0.26196694 -0.29437494 -0.2864116 -0.2926417 0.23926294 -0.19226766 0.46215853 0.480871 -0.066900216 0.35302016 -0.0062777144 0.36624184 -0.30345172 0.1730867 -0.06840611 0.0013751467 0.37230176 -0.06763748 -0.40542796 0.4294477 -0.4640784 -0.12785357 0.109280705 -0.28283456 0.068331175 0.78532827 -0.015078311 0.13231891 -0.15387584 0.5281202 -0.23535162 -0.31767362 0.26920316 0.027164659 0.03422601 -0.116533384 0.2628878 -0.073505126 0.18882138 0.13337386 -0.023031848 -0.42325434 0.21244794 0.33710897 0.2874811 0.5625743 0.72300804 -0.30459866 0.6812475 -0.18541521 0.38009945 -0.3774897 -0.5920249 0.26558554 0.0019329009 0.34357744 -0.783847 0.0321137 -0.34318247 0.07263739 -0.20574236 -0.19098093 0.16897753 0.5781967 0.31123936 -0.30742952 0.37763205 -0.008724794 0.7868675 -0.53936255 0.3866873 0.3488165 0.37995604 -0.44113618 0.3528087
3625 -0.24542418 -0.090585835 0.17330171 -0.26369625 -0.47693208 0.015093824 0.3288283 0.2772852 0.39025527 0.1491451 -0.53304696 0.28457046 -0.6822325 0.014732765 -0.12682481 0.03143149 -0.069847226 -0.18194747 0.2686873 0.17821509 -0.33674493 0.24603362 0.066729516 0.4947852 0.06853794 0.3570872 -0.4810828 -0.24978797 0.042166177 0.08231768 0.20723717 -0.14291772 0.18235351 -0.04926707 0.52600235 -0.5311774 -0.31835392 0.8789522 -0.060223106 0.12632102 0.44178262 -0.6779076 -0.0048580645 0.19778858 0.13318014 0.33506724 -0.032790385 0.22393847 -0.3351279 -0.18001792 0.5673421 0.295201 0.35576573 -0.058699295 -0.053182933 -0.10050488 0.07473948 -0.034492563 -0.44663894 -0.12140077 0.043799356 0.05636041 0.017030127 0.15549296 0.66403127 -0.10432648 0.5505487 0.15461001 -0.12159168 0.6689771 0.23309578 -0.3917567 -0.21311934 -0.33805513 0.23996899 -0.10182286 -0.0022610237 0.26880708 0.39249074 0.37623164 -0.09361818 -0.19832736 0.01128166 -0.4076185 -0.43141213 -0.06500574 0.027124565 0.06502163 -0.029399559 0.73146564 0.02490404 0.10982302 0.051269114 -0.0136820385 0.38563967 -0.12004125 -0.28813195 0.7619882 0.16805114 0.09964567 0.35542995 0.05757883 0.13846217 -0.20842482 -0.2177944 -0.882543 0.25700355 -0.42464933 -0.14711697 -0.6121904 0.59119105 -0.6704114 -0.71376127 -0.10377139 -0.019144764 0.42725515 0.359665 -0.20113999 -0.050882842 -0.10674011 0.38708967 0.2707874 -0.7755031 0.25495052 0.23958781 0.52883166 -0.11168204 0.1296019
4054 0.21151862 -0.13677758 -0.1909419 -0.16278033 -0.47846526 -0.5394537 -0.16914527 0.25768134 -0.06697117 0.3379457 -0.22262524 -0.10882901 0.027985098 -0.18547584 0.18331756 0.33959675 -0.15582114 -0.18435532 0.06565651 0.5282633 -0.07968164 -0.2394909 0.5781194 0.38351747 0.0520847 -0.046461146 -0.12868918 -0.20840919 -0.04947407 -0.58674425 0.0668552 -0.04277273 -0.035413306 -0.34420708 -0.06564679 0.11528351 -0.018726688 0.56019044 0.39386615 -0.25320867 0.16453856 -0.5324539 -0.599292 -0.2335038 0.19233105 0.37285617 -0.13404913 0.0504431 -0.07256353 -0.56480634 -0.019035041 -0.230468 -0.19186312 0.07112312 0.18273067 0.2289602 0.5277548 0.20146002 -0.52791554 -0.13970253 0.24757431 0.1065688 0.18341652 -0.28007358 0.35565308 0.4336145 0.27488685 -0.023348752 -0.14420526 0.16275443 0.004825298 -0.45639595 0.06695122 -0.4461862 -0.05380213 0.053048387 -0.64919966 -0.038713187 0.8229885 -0.11966586 0.02907715 0.12043869 0.6127739 -0.12071486 0.212425 -0.19808224 0.02705532 -0.2627396 0.23638625 0.5505766 -0.48168868 0.06829072 0.22356434 0.42393604 0.008855722 0.3402517 -0.24213482 0.081719086 1.0589349 0.19415294 -0.022278111 0.019509314 -0.4276497 -0.17402841 0.42780337 -0.3464976 0.40633625 0.60703254 -0.32823932 -0.7197537 0.23864909 -0.32898825 0.14545402 0.27299437 0.08725183 0.00044333778 0.38602275 0.36735952 -0.25852913 0.5018801 0.07901045 0.34631962 -0.2484553 0.16166118 -0.27478895 -0.39457095 -0.512176 -0.25465372
4102 0.15014906 -0.1516278 -0.19167875 -0.43893108 -0.40508664 -0.49571228 0.10312073 0.2692152 -0.050232027 0.21021612 -0.109428234 0.037009656 -0.16659564 -0.18555695 0.5781307 0.409446 -0.49657878 -0.0036812278 -0.15017554 0.5315691 -0.19039518 -0.14713691 0.554106 0.42148176 -0.12582362 -0.07209726 -0.021013808 -0.09846722 -0.060064152 -0.41325575 0.3523479 -0.17874013 -0.24376333 -0.16968057 0.015535626 0.02018427 0.19340833 0.7865751 0.20752314 -0.06776549 0.079763286 -0.32954094 -0.47316945 -0.14137053 -0.18701668 0.18353207 0.27026585 0.018869165 0.061454725 -0.2668356 -0.17538713 -0.019317772 -0.30007255 0.030736117 0.12355102 0.036708012 0.21218877 0.20317815 -0.58324695 0.09092673 0.27471557 0.06318998 0.12463828 -0.20005946 0.35476646 0.10174382 0.35129675 0.03144504 -0.032294188 0.32438672 0.04915733 -0.43596673 0.242633 -0.40740332 -0.15357354 0.09755529 -0.40434852 0.050029885 0.85464585 -0.07246685 -0.16032258 -0.06721368 0.6915138 0.07506419 -0.059663545 0.13779719 0.08633905 -0.28494307 0.14263791 0.45383853 -0.13231859 -0.1550091 0.26330796 0.10298053 -0.20321758 0.24597085 0.16575053 0.31623122 1.186502 0.33293945 -0.16032472 0.17551948 -0.4193901 -0.020393215 0.035057034 -0.42662734 0.51896626 0.4360805 0.073850945 -0.88581836 -0.019407986 -0.27956954 0.14031893 0.28639892 0.03917808 0.040722392 0.5425834 0.295766 -0.28219053 0.27392754 0.020089421 0.65914834 -0.31915307 0.46169323 -0.2423914 -0.23219857 -0.56694835 0.1528866
4139 0.3015854 -0.26377442 -0.061566602 -0.23971519 -0.11160127 -0.1535399 0.34595835 0.3327235 -0.19697522 -0.18869124 -0.46555644 0.38507494 -0.19221684 -0.11620972 -0.105778076 0.34692726 -0.19593379 0.27195784 0.011222352 0.17031097 0.59304655 -0.005852376 0.46961182 -0.0082126055 -0.23280047 0.1280005 -0.052318435 -0.14981943 -0.04793759 -0.49126947 0.38838854 -0.13675572 0.36781645 0.40892345 -0.16955526 -0.24076615 -0.4727992 0.23714016 0.12333429 -0.81970525 0.35240692 -0.738918 -0.68691164 0.03989857 0.07785188 1.0584544 -0.009385286 0.33973223 -0.53801423 0.29422626 0.42200917 -0.25932488 -0.37763938 -0.10762159 0.25580874 -0.2251937 -0.071608245 0.4248512 -0.14637546 -0.07191841 0.0066629727 -0.00827806 -0.037271146 -0.22622442 -0.02540804 0.6215846 0.13325584 0.019124331 -0.049735554 0.3810177 0.41525742 -0.6326183 -0.18126005 -0.19962884 -0.56820726 -0.0358479 -0.2858426 -0.14910926 0.69721925 0.38753176 -0.093699306 -0.54383117 0.026348718 0.109345675 -0.88560903 0.064627506 -0.023531718 -0.21899606 0.027394647 0.35087553 -0.30340612 -0.295375 0.09768997 -0.016206697 -0.13960364 0.24951929 -0.42548493 -0.34136248 -0.30223006 0.73771065 -0.12860566 0.31988835 -0.1702124 -0.14911331 -0.6660777 -0.39983657 0.20903341 -0.13516887 -0.06411995 -0.3676471 0.05473174 -0.29678753 0.21885413 -0.19540149 -0.05298829 -0.00262167 0.25801665 0.0008637465 -0.21722113 0.34652558 0.08512015 0.33733132 -0.40754974 -0.0029713719 0.33685583 0.18413147 0.01006835 0.17080583
4163 0.42124823 -0.22356488 -0.010508894 -0.26149717 -0.12566057 -0.39907697 0.35572705 0.5131965 -0.0133501245 -0.21909612 -0.53754425 0.5945971 -0.058764774 -0.15155342 -0.19984213 0.43573913 -0.30151883 0.089661 -0.0023481115 -0.030152494 0.5857193 -0.19520862 0.5335035 -0.016920604 -0.04778635 -0.0057897554 0.024636678 -0.30241007 -0.026590405 -0.4425681 0.29811496 -0.05939823 0.32406193 0.49329886 -0.1301583 -0.15578699 -0.5270698 0.13811079 0.0076218625 -0.78594923 0.03224013 -0.8402825 -0.68683785 0.051041465 0.036669333 0.805961 -0.08949247 0.22888926 -0.5880122 0.30091125 0.3536315 -0.043376632 -0.37703574 -0.10911618 0.22966209 -0.33551207 -0.18079096 0.40345758 -0.1914283 0.013066397 -0.02497568 -0.048639137 -0.1080027 -0.333249 0.14217414 0.44281211 0.2239308 0.0072358837 0.04607596 0.36358225 0.23451614 -0.7433982 0.0005795208 -0.22828828 -0.6053374 -0.28313914 -0.2881288 -0.27679402 0.6254163 0.38091448 -0.114495814 -0.6634744 0.1117334 0.08494642 -0.7577475 0.006379077 -0.023660118 -0.16907027 -0.047763705 0.17193143 -0.21520226 -0.3071069 0.023069257 0.027032869 -0.16609988 0.26795807 -0.45569548 -0.22208856 -0.36576465 0.8839388 -0.10746875 0.16929263 -0.30546618 -0.24231401 -0.6548689 -0.23448893 0.13840896 -0.2667174 0.039379247 -0.6031165 -0.0631181 -0.43305054 0.27529493 -0.23360807 -0.09638036 0.14219712 0.29302448 -0.093804464 -0.14588453 0.49457064 0.1747683 0.44532013 -0.39034942 0.080072716 0.2723523 0.13172571 0.09336323 0.016939905
3627 -0.4895506 -0.05991088 0.123778015 -0.112358846 -0.4932572 -0.041427866 0.3271622 0.24882588 0.36344153 -0.06878142 -0.5095607 0.33050925 -0.7351418 -0.16457291 0.06179831 -0.08437916 -0.055150304 -0.07910269 0.28455874 0.013376138 -0.30382034 0.2532051 0.11154014 0.35026804 0.068938084 0.21369895 -0.44842815 -0.3228238 0.06724672 -0.10743054 0.3242391 -0.26736555 -0.101131 -0.09585344 0.33137304 -0.3506738 -0.3785833 0.66242194 -0.10450884 0.08710176 0.47827414 -0.67532295 0.17001727 0.09066269 0.20533231 0.36608043 -0.15505335 0.38839272 -0.2704121 -0.26773104 0.51136786 0.43176985 0.20492338 -0.15330167 -0.291222 -0.29266784 0.21518198 -0.012161593 -0.7378741 -0.24880911 0.13121618 0.09760223 0.038455237 0.28999522 0.632324 -0.024038361 0.64567786 0.25630984 0.039800514 0.56168485 -0.09017044 -0.35297513 0.017794156 -0.100660264 0.33788627 0.0003853385 -0.03652593 0.1450677 0.35313824 0.3391601 0.16134392 -0.14890374 0.03708535 -0.32577717 -0.2505444 0.17429174 0.20051761 0.03607267 0.05371841 0.79471 -0.10476834 0.057240903 0.047519557 -0.08066058 0.27759835 0.22662936 -0.3351611 0.40385088 0.25591576 -0.13208339 0.09072692 -0.028416589 0.2448093 -0.062716044 -0.20285235 -0.7910807 0.121628344 -0.2465529 -0.15910786 -0.40548888 0.50230104 -0.6199947 -0.48367408 -0.06733846 -0.13470578 0.47710374 0.5599329 -0.2413013 0.04655652 0.012995316 0.17691484 0.43182772 -0.73432565 0.25725523 0.07048721 0.6552504 0.04928624 0.2719717
3604 -0.47376475 0.058619037 0.0414513 0.07032824 -0.3449834 -0.097270325 0.33556592 0.11931898 0.24404821 -0.06737361 -0.6577377 0.23221701 -0.5604708 -0.18457066 0.27875382 0.14900546 -0.08634855 -0.19399479 0.38304418 -0.22653344 -0.24149638 0.06918814 0.38035908 0.17674865 -0.021217627 -0.11990831 -0.41642058 -0.4624509 0.0031059978 -0.087319605 0.42278993 -0.63937575 0.07140033 -0.045114767 -0.00800664 -0.14048602 -0.36438078 0.3785324 -0.19312578 0.0025126806 0.44678256 -0.70064765 0.35140085 -0.09648788 0.19071646 0.48500788 0.023613077 0.39142388 -0.3863638 -0.47974294 0.4884195 0.22951192 -0.009385157 -0.3609894 -0.10603748 -0.5815318 0.45004374 0.17130463 -0.86607563 -0.23669077 0.20139785 0.06965149 0.22951908 0.17511617 0.6321586 -0.124885105 0.6814583 0.43617538 0.31803295 0.49308684 -0.29956296 -0.25817052 0.28568178 0.028987259 0.37018582 -0.03118438 -0.31355903 -0.041094325 0.5777469 0.010432625 0.2946695 -0.054641344 0.05958908 -0.004838155 -0.27743948 0.17379305 0.19212604 -0.022923572 0.07087652 0.93014014 -0.21434365 0.1992986 0.20360565 -0.20398177 0.26280928 0.3052642 -0.19881803 0.27176684 0.37146598 -0.09475797 -0.1309905 -0.37425688 0.50692147 -0.014418153 -0.14772926 -0.61496735 0.10509174 -0.08322093 0.10865127 -0.21175674 0.62619936 -0.44948092 -0.34347403 -0.29920262 -0.074945055 0.3308214 0.32695353 -0.19559205 0.20037013 0.27470586 -0.2393776 0.6292576 -0.5719851 0.40615073 -0.1234226 0.64583105 0.121846214 0.25384676
4143 0.1779828 0.120327115 -0.08279793 -0.24757396 0.1362193 0.33769718 0.35013628 0.29916403 0.19849537 0.09401651 -0.18492194 -0.06987394 -0.67335653 -0.052979525 -0.026216937 0.20773302 0.15317371 0.2231419 0.057951976 0.47554147 0.46045443 -0.015240924 0.34779343 0.06631024 -0.7308311 0.33976248 -0.08918008 -0.19567347 0.06220406 -0.8941295 0.2420281 -0.029592426 0.32744592 0.17997387 0.018717295 -0.37189847 -0.20624968 0.12479484 -0.2242832 -0.576674 0.7261968 -0.37149188 -0.8629595 0.21368322 0.48598015 0.57537013 0.1460535 0.22000377 -0.4837234 0.066477604 0.0928694 -0.48722476 -0.107463256 -0.33145127 0.29446763 0.34447822 0.28406113 0.105447166 -0.116128735 -0.25897437 -0.25580496 0.17698067 0.35463458 -0.08941853 -0.06971411 0.33969632 0.16333184 -0.02012645 0.37744427 0.3765847 0.29628178 -0.395038 0.31166244 0.07311143 -0.36049235 -0.17109694 -0.33800876 0.30613062 0.78754413 0.386241 -0.14515471 -0.18501554 0.19470552 -0.27996197 -0.86471146 -0.02620017 0.43599474 -0.4350712 -0.1880364 0.6706306 -0.64107853 -0.15917529 0.020885197 0.24456418 0.018322019 0.21478614 0.084753 0.16103894 -0.042335283 0.5408462 -0.23820916 -0.029840192 0.36953077 0.33655694 -0.75949955 -0.28057474 0.3227207 -0.13104871 -0.17684329 -0.3616106 0.015161587 -0.35781088 0.034074392 -0.2644095 -0.12243677 -0.06155437 0.49745664 -0.22876176 -0.108997755 0.39807996 -0.14123109 0.15605791 -0.38007152 -0.0067547625 0.29872248 0.08887866 0.023422416 -0.1054407
