1225 128
69 0.4276312 -0.3504583 0.33266288 -0.2900234 0.3155357 -0.4312712 -0.39579064 0.27698004 0.22817563 -0.5486741 0.16389227 -0.047374636 0.3057375 0.27013013 0.32442614 -0.18866682 0.8335105 0.46653506 0.1377257 -0.7643868 0.0075645 0.019673219 -0.22868815 1.178284 -0.44173852 0.15391515 0.096321754 0.32497132 -0.1890174 -0.23821507 0.27133703 -0.5711099 -0.22660938 0.27746513 -0.24668238 -0.36270353 0.22637352 0.45617494 -0.11510357 0.8767657 -0.015619353 0.10597352 0.5112332 0.010518498 -0.38458297 0.26793382 -0.35998183 -0.43331885 -0.22209258 -0.26544768 0.41678646 0.10842412 0.28704804 -0.5371136 0.027708597 0.32423756 0.5399992 0.12853596 -0.33130008 -0.18051843 -0.4674828 0.22415912 -0.25671625 -0.19985582 0.05247732 0.42969134 -0.43104926 0.17041492 -0.6696278 0.2478038 -0.1414795 -0.25512713 -0.2580981 0.21965249 0.021218738 0.474175 -0.08346764 -0.19786863 0.83760905 0.2509325 0.35250106 -0.27162918 -0.41177323 0.84537673 0.77885 -0.06432023 -0.035960738 0.24925245 -0.7606762 0.047931116 -0.30943108 -0.5178545 -0.5688536 0.5060802 -0.1320551 0.6154687 0.35302582 -0.22642799 -0.099317275 -0.41077417 -0.54676986 -0.09719936 -0.25408357 -0.3464922 -0.5225708 0.11730694 -0.9448505 -0.41465595 0.15504752 -0.63076097 0.3540477 0.22301508 0.048419394 0.7687255 0.0072238813 0.34580743 0.5161081 0.2929237 -0.36481586 -0.2056836 -0.067612305 -0.3469946 1.0707731 0.25092855 0.06439823 -0.46643028 0.13763346 -0.07398501
51 -0.45150128 0.109951034 -0.42464066 0.2582624 0.7543759 0.4928723 -0.6113274 -0.016709564 -0.4761731 -0.15541662 -7.360287e-05 0.033174414 0.21934076 0.091231965 0.40537545 -0.11709591 0.36698934 0.08527376 0.16608901 -0.053098854 0.20521915 -0.29275632 0.36169028 0.41052005 -0.24846463 0.5964032 -0.018788533 0.001131572 -0.8572332 -0.20573425 0.20878226 -0.29236177 -0.108026065 0.047500324 -0.4672238 -0.0302841 -0.45655325 0.2948027 -0.19317237 0.22237192 -0.77041614 0.19545983 0.008311606 0.049938925 -0.3016871 0.39915973 -0.029002335 -0.7599242 -0.19750746 0.059430804 -0.12688391 0.22801068 0.34264067 -0.35894358 -0.27611786 0.16657871 0.03432593 0.049325388 -0.081886485 -0.04391681 0.4264397 -0.04227851 -0.7396697 0.04584565 -0.33780152 0.4372738 -0.8699909 -0.39748207 -0.7575629 0.37522188 0.75757706 -0.43871078 -0.059126884 -0.057827592 -0.3605217 -0.12746662 -0.11314051 -0.52419555 0.6199591 -0.695428 0.35096428 0.21691905 0.8491506 -0.22254133 -0.55849737 0.114491105 0.2462585 -0.026091682 -0.1542686 -0.16557723 0.43301687 -0.22476594 -0.7708219 0.020043882 -0.50358135 0.30272287 0.15600273 -0.22189029 -0.05668706 0.20299408 -0.4512452 -0.30432668 -0.4272794 -0.2619909 -0.31371194 0.05620377 -0.62823915 -0.7019536 0.42044437 -0.40303165 0.0719649 -0.22917607 0.5240801 -0.38895932 0.53774554 0.3885224 0.31211945 0.05632434 0.43897334 0.17049158 -0.19936502 0.30252892 -0.08659857 0.10136902 -0.40204382 -0.16065931 0.768716 -0.10054408
50 -0.4227481 0.107600115 -0.50259954 0.16929722 0.7423288 0.5271979 -0.68734103 -0.08970699 -0.40667543 0.14096652 -0.05202908 -0.1654328 -0.04350042 0.17225799 0.5623983 -0.21250081 0.28805733 -0.2919748 0.109469295 -0.0142111955 0.23108478 -0.43155125 0.30032796 0.42673934 -0.0688058 0.7096585 -0.27476537 0.047807477 -0.6649875 0.036632624 0.26919547 -0.36094102 -0.07372423 0.5485661 -0.11488898 -0.07344368 -0.21828042 0.41942048 -0.3363001 0.24621308 -0.51324564 0.35259676 0.2936053 0.09055806 -0.55060285 0.339372 -0.079031944 -0.6738514 -0.074350394 0.010132862 -0.18483685 0.22556087 0.003949191 -0.48077127 -0.2372411 0.14566419 0.035288833 0.016343376 0.11634558 -0.19799346 0.52865803 -0.049013656 -0.74406064 0.11439497 -0.25814244 0.37172326 -0.8409219 -0.5390171 -0.7559231 0.4956699 0.620974 -0.5596588 0.28141177 -0.18566023 -0.41593698 -0.015537331 0.20458633 -0.6254982 0.44812995 -0.65873724 0.23983839 0.41994652 0.69472766 -0.3650116 -0.7058444 0.029475372 0.36276537 -0.17717989 -0.3754829 -0.14461657 0.04642696 -0.18810315 -0.63025725 0.26174137 -0.3936475 0.19357212 0.2920494 -0.32171816 0.1840904 0.25487185 -0.37420976 0.069061235 -0.5041164 -0.060653694 -0.2761668 -0.27054706 -0.49415448 -0.5958339 0.021739952 -0.5381361 0.026995825 0.13110955 0.31779674 -0.21861178 0.6102142 0.31451657 0.11326095 -0.11120813 0.58473104 0.18353201 -0.15602382 0.5837758 0.32370213 0.3070654 -0.42771843 -0.32497644 0.6201289 -0.10685925
1122 -0.32314944 -0.019243658 0.09215381 0.13073449 0.7527568 -0.085990995 -0.20585014 -0.02530128 0.12576085 -0.24336885 0.21757476 0.35591477 0.17320076 0.4132575 -0.22611567 0.01842134 -0.12526365 0.15625031 0.6306537 -0.011525312 0.041530542 0.48223662 0.03456773 0.9262717 -0.61562306 -0.24752532 0.0123055335 -0.5709827 -0.31585145 0.28597668 0.34972066 -0.34474266 0.008404247 -0.15979199 -0.16215418 -0.29767066 -0.6216553 0.036397908 0.48931155 0.14835012 -0.09091421 0.07273688 0.18121687 0.22450681 -0.45482835 0.4381081 -0.19279392 -0.29642695 0.8714821 -0.30103898 0.008286495 0.4534345 0.37901312 0.032016777 -0.12825598 -0.22109573 0.25942072 -0.05418504 -0.06277616 0.04818384 0.45233262 0.12601948 -0.09136604 0.033673953 0.20684017 0.119661935 -0.9031164 -0.33727118 -0.46933985 0.44092375 0.33319527 0.45060617 -0.088086076 0.08789388 0.07460617 -0.8315374 -0.28196153 -0.5758578 1.0251392 -0.06985931 0.21567512 0.4287211 -0.46159822 0.50735456 -0.24707152 0.079498045 -0.062120322 0.16951571 -0.23381476 -0.008110463 -0.1570086 -0.24039441 -0.24363561 0.34465575 0.52794224 -0.15347384 0.20104992 -0.12609252 -0.17738844 0.4397915 0.19279318 -0.08338499 0.018244375 0.15611523 -1.06951 0.3097496 -0.13546026 -0.24125034 -0.0516369 -0.0014020024 0.53718644 0.31126127 -0.26182884 -0.33223754 0.52513 0.49509007 0.3891321 -0.51695997 0.24261051 -0.29112542 -0.5302273 -0.0720058 0.70011103 0.35380307 -0.01794902 -0.0392914 0.033390272 -0.06895373
67 0.43596035 -0.30304006 0.27112064 -0.44725308 0.41575807 -0.2853614 -0.18603872 0.3528958 0.38937145 -0.5644013 -0.010893208 -0.039450426 0.42189887 0.08327106 0.11674409 0.11779785 0.4512581 0.4888053 0.24143162 -0.3830047 -0.2102308 -0.19428861 -0.2729459 1.0779642 -0.7173477 0.35583505 0.020344839 0.13590871 -0.14711605 -0.07658253 -0.07922871 -0.4507264 -0.0894859 0.18227737 -0.04595669 -0.039024387 0.14596352 0.53006727 0.16495414 0.7908631 0.18422443 0.4276174 0.4397956 0.2987546 -0.59523064 0.18281928 -0.2617727 -0.67636704 -0.048629474 -0.34401917 0.13215278 0.1828956 0.28487447 -0.27337176 -0.16378124 0.5425288 0.43852034 0.17679392 -0.19327353 -0.198333 -0.49512532 0.23645985 -0.17788935 -0.120207965 0.14174499 0.41092858 -0.1616552 0.17454265 -0.46840587 0.32292986 -0.19803758 0.16317354 -0.055930667 -0.016449558 0.21083897 0.27979937 -0.009856412 -0.5171157 0.94684297 0.252615 0.3983836 -0.107933596 -0.13480006 0.954699 0.71781266 0.13097984 0.29743385 0.04367679 -0.1998522 0.37356386 -0.038747877 -0.59285 -0.45164126 0.2594784 -0.29928982 0.6628514 0.51859087 -0.2112946 -0.03781738 -0.18200323 -0.504914 -0.1282788 -0.2218211 -0.4591145 -0.5177317 0.24419132 -0.7728001 -0.5378953 -0.04067901 -0.4275957 0.27885002 0.13957845 0.09086374 0.68855625 0.13532631 0.29943365 0.5621534 -0.25289044 -0.2530413 -0.09110881 -0.2539881 -0.5981865 0.84023786 0.00015620491 0.24460118 -0.1777884 0.22926885 0.09477366
68 0.56606406 -0.355916 0.34252498 -0.3981957 0.552155 -0.15295638 -0.28065124 0.32387716 0.3355016 -0.69226205 0.11670795 0.13486551 0.3737743 0.18455577 0.25696832 0.046220902 0.5708065 0.42585555 0.121152885 -0.5455563 -0.16769715 -0.25930515 -0.058180753 1.0560466 -0.59212637 0.20533767 0.1978807 0.10794041 0.055754222 -0.058735497 0.014416822 -0.5415547 -0.08729681 0.1100125 -0.08711879 -0.32846546 0.021629805 0.41635436 0.16205527 0.84400105 0.2823161 0.52511907 0.430103 0.21601911 -0.5342313 0.35325807 -0.22908503 -0.7027591 -0.09157929 -0.30120948 0.16422938 0.14719701 0.09247501 -0.47127992 -0.12738086 0.16905327 0.55047566 0.19204484 -0.31760514 -0.21307291 -0.34722686 0.120421894 -0.4085115 0.08113892 -0.12787743 0.14505865 -0.32695344 0.17452209 -0.5173846 0.22929807 -0.36544013 0.05794842 0.031447142 0.22631505 0.054811165 0.2221929 0.0056044664 -0.25423953 1.00728 0.21422596 0.26104906 -0.2520802 -0.23747136 1.0238516 0.7905154 0.06085568 0.107352 0.05783529 -0.5728902 0.40633795 0.015305349 -0.72684604 -0.6612309 0.5232454 -0.22658119 0.6220459 0.35796592 0.06823441 -0.04618047 -0.119414546 -0.6704194 -0.13715494 -0.2823849 -0.31644678 -0.3422968 0.17826809 -0.88176817 -0.47378784 -0.05195274 -0.4189327 0.2181677 0.21981671 -0.050726797 0.7920747 0.15877302 0.40340304 0.6139523 -0.08950289 -0.25597936 -0.12821029 -0.052917864 -0.42666015 0.9484044 0.1206667 0.23265596 -0.2619644 0.16715562 -0.12947161
614 -0.47673556 -0.024679415 -0.21357796 -0.3420039 0.13718913 0.18254225 0.14529096 0.26413536 0.09120151 -0.066645876 0.13878784 0.060016908 -0.04374507 -0.09524282 -0.059231833 -0.508559 0.8046311 0.46060342 0.2625121 -0.2259638 -0.33101097 -0.26701903 -0.09756558 0.53215224 -0.07010958 -0.26689902 -0.3128397 0.7827408 0.17160174 -0.14831562 -0.3923485 -0.37993935 0.21492758 0.34700546 -0.655224 -0.6096386 -0.2514885 -0.28184432 -0.28245416 0.53135765 -0.5472088 0.33531877 -0.29886627 0.08446536 -0.25556466 -0.44986647 -0.15366569 -0.87840515 -0.20416383 0.058648217 -0.045855027 0.6873899 0.060902316 0.015609071 0.11477159 -0.013609723 0.100974254 -0.078638375 0.061060593 -0.23252273 0.56400365 -0.11375059 0.082815856 0.047499746 0.40873328 0.20911881 -0.77883327 -0.15739372 -0.50041926 0.27387798 0.13195288 -0.24269123 0.22978653 -0.20222875 -0.09271111 -0.20306738 -0.29487672 -0.3383391 0.0331481 -0.22416164 -0.600801 -0.25375524 -0.52111435 0.11912396 0.21124603 0.33839792 0.6944796 -0.3454061 -0.24803318 0.05938229 -0.37218595 -0.5985067 -0.24043947 0.013310009 0.29393974 -0.10924021 -0.11609128 -0.57312524 0.08452918 -0.46933246 0.09818655 0.9283085 -0.0201244 -0.9384136 -0.6873451 -0.09242689 -0.0029785386 -0.95715034 -0.45903015 0.1736109 0.218009 0.73207784 -0.07756072 -0.15223102 0.76738477 0.42945427 0.5637676 -0.22215083 0.27489945 -0.4328134 -0.22609481 -0.19536784 0.44790468 0.2431235 0.15084901 -0.19382986 0.456689 -0.064081416
704 0.6894551 0.54956293 0.01174134 0.066590965 0.4685709 -0.2729286 0.43596038 -0.018288074 0.18988846 -0.23773572 0.4946745 -0.6098141 -0.24043624 -0.3769667 0.04758068 0.32683748 0.36265627 0.36368793 -0.09008172 0.030895907 -0.04857138 0.3255556 0.5071692 0.18516687 -0.16923782 0.41789553 -0.12996915 0.11352882 -0.19452068 0.3102334 -0.038807586 -0.6737747 -0.74526715 -0.18165238 -0.06110503 0.7768043 0.058983825 0.012110578 0.27452022 0.58843374 -0.35669845 -0.08394324 0.5033551 -0.43264484 0.10758778 -0.05358016 -0.48638484 -0.16213568 -0.49179852 -0.9446752 0.054855626 0.34761095 0.088096805 -0.037256222 0.098179914 0.18546298 0.5329029 0.17841643 -0.16285087 -0.12172433 0.337825 -0.0068358225 -0.31922078 -0.16810304 0.47687796 0.2681563 -0.6958612 0.30139297 -0.3754209 0.5821548 0.5230006 -0.4114514 -0.3116157 -0.120355204 0.07960802 -0.58234596 -0.23503281 -0.34416774 0.83021975 -0.36012876 0.7382568 -0.052506566 0.28516722 0.21645728 -0.44592884 -0.072677456 -0.23277855 -0.10297206 -0.10367398 0.16756807 0.13834573 0.14876252 -0.15633447 0.10947493 0.3042834 0.10005251 -0.5260584 -0.38944966 -0.32944 -0.37575418 -0.0077308505 0.33310926 0.3171506 -0.530723 -0.19063428 -0.22413677 -0.83246243 -0.92083037 -0.28640097 0.07201087 -0.22908928 0.51548725 -0.42297727 0.39602926 0.074900754 -0.019045217 -0.12996212 -0.15378694 0.50403196 -0.35208923 -0.02398343 0.118218906 0.98071384 -0.06885706 0.099266835 -0.4747818 0.28750545 0.11932125
857 0.04773672 0.31333384 -0.019092819 0.08884825 0.18885317 -0.3582524 0.24794944 -0.33004415 0.36732706 -0.41177657 0.100209594 0.46818152 0.671087 0.44264984 -0.04115923 0.4657714 0.3776056 0.43540785 0.16159853 0.49173957 -0.42599633 -0.008943308 -0.016222222 0.22559936 -0.4563751 0.06814455 -0.64951015 0.36034876 0.14188077 -0.1223263 0.0059971353 -0.18000112 0.03909298 -0.2094767 -0.55585724 -0.52111036 0.23660563 -0.12522198 -0.4777092 0.67786574 -0.07084642 0.32163614 0.15078855 0.15344387 -0.9494862 0.03815052 0.10480689 -0.6510233 -0.20025319 0.23639731 -0.13524114 0.44552264 -0.24091499 -0.09902782 0.25475377 0.26257014 -0.0077635827 -0.071773894 -0.41022483 -0.50265455 0.24197827 0.2643017 -0.16206326 -0.03425227 0.44804502 -0.4756668 -0.33233297 -0.611172 -0.9776887 0.65800434 -0.0144057 0.2394783 -0.41480985 0.050698757 0.48852378 0.3572064 -0.120763674 -0.0102184275 0.030520376 -0.06874201 0.39283112 0.15770927 -0.2322452 -0.021965409 -0.24766953 0.35558435 0.07148829 -0.6471827 -0.54264826 0.08038068 0.2983013 -0.22902818 -0.4466465 0.24472368 0.700438 0.62473315 -0.58240885 -0.21075024 0.30439925 -0.11396522 0.60490143 0.5453549 -0.4848562 -0.4544211 0.19477242 -0.3363502 -0.39781877 -0.98808867 0.16843562 0.14256006 0.35544008 -0.37479973 0.44777897 0.3337207 0.4461046 0.47165295 0.5085563 -0.30321044 0.27353725 0.055440784 -0.5484137 0.3437736 0.018524485 -0.3407703 -0.023633223 -0.40231675 0.521777 -0.15336359
1173 -0.5002454 0.87258464 -0.22336087 0.09534087 0.5465825 0.18086772 0.6573061 0.338656 0.17778173 0.055995077 0.27037737 -0.51875883 0.037126523 0.28650996 0.37423003 0.17216454 0.438374 0.08784654 -0.2865771 -0.12245122 0.0024864227 -0.20230125 -0.16530013 0.572224 0.38523954 0.028646968 0.057417467 0.5801172 0.013443683 0.26642674 -0.47175643 -1.0491874 0.3543114 0.5903575 -0.6570817 -0.1279235 0.497651 0.18510385 -0.24268416 0.13538341 -0.6109601 -0.015428288 -0.04065753 0.1942663 0.05728653 0.31013033 0.10757957 0.12362778 0.5421929 -0.71093243 -0.6447698 0.5071922 -0.024270255 -0.2073274 0.06812981 -0.032824043 -0.17043357 0.6137508 0.027503045 -0.55817014 0.49182144 -0.025541728 -0.18779662 -0.0453988 -0.013930252 -0.048589833 -0.6200716 0.05611671 -0.6967663 -0.122293405 0.48908943 0.014595461 -0.047285337 0.6356248 0.08037135 0.8188704 -0.53282946 -0.5912317 0.50943404 0.6526022 0.46633303 0.17033805 -0.064829804 0.41679302 0.012266804 0.15690131 0.16271523 -0.27830982 -0.4021 0.13100612 -0.036151864 -0.8468193 -0.41505995 -0.21239394 -0.21162756 0.4272196 0.21657504 0.037954487 -0.19976908 0.14044729 0.0192762 -0.1383818 -0.38582423 -0.027763544 -0.51133746 0.24553484 -0.07143713 -0.78690404 0.044839323 0.01157543 -0.15260978 0.098438285 -0.51225734 0.27048752 0.21760547 0.20877008 -0.094010875 -0.47227263 -0.06900019 -0.52705663 0.04051652 0.046302285 0.082229644 0.2885917 -0.45538223 -0.11756179 0.5664826 -0.057258956
65 0.16882016 -0.03736821 -0.010421784 -0.36085337 0.37015322 -0.32227755 -0.1625582 0.46679196 0.91650003 -0.59612316 0.11045346 -0.14405842 0.315076 0.08017895 0.39786252 0.01446881 0.2921344 0.42259833 0.082975976 -0.082488075 -0.2650946 -0.15691365 -0.18563795 1.2197667 -0.4625932 0.184789 0.012113279 0.15212607 0.17723179 -0.19965133 -0.17907915 -0.08598126 -0.114282265 -0.20803542 -0.004958863 0.22402848 -0.048802402 0.58636165 0.2052168 0.4657899 0.019937001 0.5690471 0.55414486 0.22993821 -0.54568464 -0.0623158 -0.14331284 -0.5938231 0.2306703 -0.682805 -0.15612647 0.5780752 0.18063475 -0.14705603 -0.12159546 0.2867948 0.4540543 0.17362085 -0.3645233 -0.16035363 -0.07844023 -0.01466323 0.005483903 0.12746745 0.17106727 0.4326739 -0.30362168 0.47683504 -0.36456892 0.23501122 -0.0019265927 0.16069531 -0.017800663 -0.10931062 0.3717263 0.54170907 0.002516301 -0.48776788 0.80296886 -0.11005801 0.022994896 -0.256068 -0.27385116 0.84903795 0.7293691 0.10802652 0.4818855 -0.15864459 -0.17937745 -0.022264065 0.29169664 -0.45957127 -0.33497268 0.30446553 -0.5497862 0.42912906 0.80745983 -0.29774833 0.04391365 -0.2813383 -0.401909 -0.20912072 -0.5494941 -0.38402307 -0.52883387 0.19632545 -0.63878113 -0.4710938 0.21504685 -0.1803322 0.34079087 0.506832 0.27614766 0.8625623 0.3258875 0.2752854 0.4524447 -0.21091914 -0.05260071 -0.08642021 -0.2506329 -0.43606198 0.6828289 0.041012395 0.18119754 -0.2241848 0.059918698 0.2810616
1157 -0.17600884 -0.079628095 -0.14636378 0.31782708 0.7260813 -0.21810223 -0.37658864 -0.12170129 0.36085 -0.1636754 0.15643582 0.67934954 0.020774528 0.38802445 -0.19858809 -0.08187964 0.20504025 -0.033478927 0.85255694 -0.07765275 -0.061707377 0.48757738 0.11304521 1.1176643 -0.57631916 0.09102822 0.045356937 -0.6191896 -0.3040767 0.33485776 0.25210136 -0.35025045 -0.20323208 -0.22971831 -0.13665694 -0.21337074 -0.586154 0.023752313 0.6390463 0.10487482 -0.22182627 0.23216449 0.254853 0.020756707 -0.63523775 0.34284008 -0.36852872 -0.062003076 0.8177827 0.012841765 -0.26919237 0.44216934 0.6597824 0.10724327 -0.5130541 -0.37799412 0.48975798 -0.010771541 -0.095225915 0.019794842 0.22191791 0.30988103 -0.2646471 0.12356646 0.029910669 0.14832841 -0.88973665 -0.29179072 -0.7525461 0.37484717 0.31505233 0.04593611 0.041131917 0.012942694 -0.039177347 -0.69688296 -0.3772351 -0.57763636 0.9600053 0.057296768 -0.012971225 0.09002374 -0.40975744 0.3880321 -0.108136445 -0.1677263 -0.16341431 -0.11314523 -0.32426068 -0.10527453 -0.39390704 -0.2753834 -0.79191667 0.30618948 0.41898662 0.0075535164 0.0746317 -0.22948053 -0.22149909 0.62821966 0.21738078 -0.015762841 0.06313741 0.26187882 -0.83449095 0.09686561 -0.36469612 -0.3253633 -0.29813763 -0.014430331 0.7985402 0.311679 -0.018201148 -0.38292196 0.27119607 0.52706105 0.20906518 -0.20112143 0.39177766 -0.1835327 -0.6169306 -0.019062612 0.8222918 0.2990893 -0.15543158 0.18313736 0.10214871 -0.14108859
454 -0.5311095 0.39425856 0.4446916 -0.03246467 0.70814943 0.32876354 -0.17792352 0.72938675 0.43565333 -0.05138065 0.13599771 -0.09669368 -0.30900916 -0.18590944 0.117389776 -1.128023 0.47898483 0.5127341 -0.26533303 0.7387698 -0.18226542 -0.0951831 -0.2302616 0.5871736 -0.09208634 0.36165872 0.057582233 0.16358295 -0.02874703 -0.23982562 0.31528068 -0.8469016 -0.32111079 0.1343646 -0.2547769 -0.28040817 0.5659998 -0.14921628 -0.17693776 0.58899796 -0.40940028 -0.36341482 0.1519352 -0.19356608 -0.17891957 0.5614282 -0.13813882 -0.75116557 -0.28961602 -0.19992475 0.26500624 0.15981156 0.40424323 0.79278105 -0.3599869 -0.2806513 0.12784271 0.30365884 0.06478216 -0.48755822 -0.2459064 -0.3428919 0.07078055 0.099365085 0.30183128 -0.24082787 0.020270078 -0.23439321 -0.6897676 0.40198848 0.109200075 0.2076764 -0.74278325 0.3879828 0.40532327 -0.42480215 -0.6185571 -0.4732171 0.51795316 -0.3363117 -0.22354116 -0.12944096 -0.103085496 0.32020453 0.06590397 -0.3536782 0.19319989 0.3884054 0.18228006 -0.12992845 0.10980305 0.004144153 0.38256153 0.2193823 -0.18625478 0.32880738 -0.07114363 0.02398817 -0.17784268 0.16973034 -0.335352 0.19158933 0.40957245 -0.19950905 -0.3420393 0.390103 -0.8130713 -0.39472342 0.09190177 0.1267138 0.52465314 -0.25427052 -0.28335655 -0.22061999 0.34156162 0.72916937 0.72254044 -0.21553269 -0.16589698 -0.6200633 -0.2930542 0.05745973 0.35243556 0.658114 -0.20695691 -0.0372936 0.45610577 -0.004690696
956 -0.09022135 0.115645 0.13570784 -0.17317821 0.32744396 -0.1850141 -0.10222899 0.10628691 -0.23842092 -0.38005 0.27255005 0.047871955 0.13791296 -0.031025643 0.71813637 0.07605243 -0.4810826 0.40934715 -0.25256526 0.5447361 0.16511059 -0.59574914 0.47222465 0.421246 -0.25395876 0.5381652 -0.23214042 -0.35243693 0.18722747 0.431369 0.19953789 -0.2138434 0.46156964 -0.46220633 -0.47289026 -0.15502569 0.37720773 0.48080382 -0.66503465 0.40301064 0.3589799 -0.11720107 -0.28763938 0.008339234 -0.7574044 0.10038174 -0.18429667 -0.4823453 -0.5152848 -0.32402384 -0.04922194 0.14754532 -0.6846789 -0.12368126 0.44444373 0.44748333 0.70291257 0.17237404 0.43100187 0.29185832 -0.2953043 -0.30780634 0.260749 -0.1315724 0.24925399 -0.2113858 -0.11664443 -0.11000818 -0.7018204 0.42603093 0.23951173 0.42505804 0.032920565 0.24938767 -0.26114655 0.4168079 -0.19172165 -0.0636252 0.3141073 0.16035727 0.4942851 0.1735609 -0.5016462 0.28510535 -0.54486763 -0.06812495 0.2139247 -0.1465354 -0.35729128 -0.40838388 1.1212788 -0.38103732 -0.14264157 0.45158538 0.38924748 0.057306916 -0.09895472 -0.2655159 0.15550013 0.1407045 0.37607092 0.72168505 -0.42360917 -0.26210472 -0.5574627 0.29158613 -0.3007452 -0.7480012 -0.4265005 -0.078250766 0.34520727 -0.270039 0.0357242 0.105112076 -0.01922672 0.8320954 0.36201698 -0.67038053 -0.1910796 -0.4678028 -0.47995618 0.0376626 0.2051524 0.68935263 0.12205493 -0.64425826 0.514839 -0.303374
294 -0.2873946 0.5216052 0.43873984 -0.19513269 0.3395765 -0.09543774 0.068188906 0.5501746 -0.595194 0.0006664798 0.43577257 -0.11990764 0.44187123 0.27640235 0.3265136 -0.8121717 0.54276043 0.46515405 0.17501304 0.16978009 -0.41005775 -0.62499034 0.008228544 0.3497707 -0.8097513 0.4300849 -0.44910553 -0.60817087 -0.20830292 -0.12711124 0.36037248 -0.59782654 -0.047839504 0.20160235 -0.38593823 0.32279277 -0.056813233 0.22594231 0.14968707 0.024334835 0.35169637 -0.6012298 -0.14753662 -0.3588098 -0.26152298 0.21536991 0.06148883 -0.345276 0.19196177 -0.34080604 -0.50224364 0.20640172 0.0061853486 -0.22119266 -0.18689187 -0.41186258 0.12844455 0.19908196 0.51667523 0.55479777 0.45537907 0.03904002 -0.76050854 0.2997229 1.1141444 0.63350314 -0.57505345 0.18145497 -0.7196564 0.013376434 1.2584497 -0.52167356 -0.24699332 -0.38200563 -0.17915015 0.0619483 -0.11487223 -0.32467344 -0.08414576 0.2926764 0.38455588 0.046550877 -0.1643249 0.44498914 -0.10035272 0.28070414 -0.20472977 0.45722866 -0.07806745 -0.05108603 -0.11386666 -0.33558163 -0.40559596 -0.23704016 0.036218517 -0.12663588 -0.07560733 -0.07828763 -0.58791333 0.318917 -0.21642691 -0.2633968 -0.5563172 0.49228925 -0.45314762 0.22075911 -0.6843917 -0.57973844 0.57389504 -0.33457413 -0.2531816 -0.01950747 0.5485336 0.08650755 0.4777505 0.17124751 0.7683551 -0.36032566 0.17348203 -0.3070896 0.13226682 -0.36859724 0.4173653 0.1566654 -0.35017088 0.22971642 0.56672096 0.016766272
334 -0.5806911 0.30531213 0.11382121 0.37423474 0.6371871 -0.1357481 0.36542296 0.6934997 -0.021544453 -0.21635453 0.124046735 -0.32678542 0.6289516 0.45625493 0.37255433 -0.43800628 0.35501915 0.55555534 0.07975361 0.08243663 -0.7795579 -0.3765134 0.22251986 0.75232714 -0.44155744 0.14264648 -0.14148454 -0.70288473 -0.33591214 0.0228474 -0.34831396 -0.9088312 -0.39717156 -0.025456553 -0.44846624 0.3568167 -0.38820195 -0.011407016 -0.045029286 0.015445353 -0.24167517 -0.64125764 -0.20786549 0.1878316 -0.34879816 -0.17669877 -0.039240323 0.28906754 0.008093531 -0.22714745 -0.5487224 0.45215023 -0.18821853 -0.39918283 0.034571823 0.032665055 0.07383209 0.1594248 0.70876676 0.5465246 0.033720456 0.110381916 0.2411335 0.15905823 0.44106334 0.39329633 -0.40643334 -0.11751326 -0.7546407 -0.29098222 0.18882337 -0.13048998 0.35009864 0.14890164 -0.64041656 -0.19247773 -0.61145896 -0.4444103 0.11343297 -0.46809736 -0.00096592767 -0.15326674 -0.038440052 0.6840979 -0.008590172 0.6114326 0.31594536 0.0041616517 -0.8751429 -0.42603168 -0.5895141 0.03922723 -0.47485033 -0.26696473 0.46021563 -0.35644525 0.18009597 -0.04558198 0.31848845 -0.24958585 -0.49375677 0.56515163 0.24655527 0.16564624 -0.122040704 0.149267 -0.2115837 -0.41306677 -0.08530934 -0.27002332 0.17842788 0.22740322 0.49727935 0.33218682 0.13124704 0.42197758 0.50462 0.34310597 0.432761 -1.0118517 -0.4332792 -0.19566004 0.06906947 0.53741664 -0.3706973 -0.24658436 0.12411319 0.2803455
692 0.2955057 0.22536355 0.28060076 0.042806994 0.3711835 0.002869047 0.5729721 0.82787615 0.024337023 0.149612 -0.32686737 0.80219954 0.36880133 -0.07773048 -0.16022095 -0.3816544 0.8179309 -0.3689725 0.10587703 0.5269643 -0.56063235 0.006264511 -0.3030847 0.3288353 -0.1576489 0.10930851 -0.1521381 0.19563352 0.29103398 0.16068543 0.17331259 -0.68828344 -0.15678117 -0.25297034 -0.1911315 -0.17427817 0.14839852 0.2535695 0.063034505 0.29649276 -0.5666354 0.06418422 0.3600736 0.057313733 -0.74803877 0.2182848 -0.33008227 -0.3057749 -0.18758765 -0.15347613 0.15872553 0.31274122 -0.03101734 0.12649778 0.61557335 -0.5060084 0.4440376 0.8980067 -0.20619711 -0.1114256 0.23348096 0.13770075 -0.60277534 -0.107444935 0.22873911 0.852303 0.08322724 -0.458179 -1.2502373 0.057371523 0.038823653 -0.19947942 0.059495278 0.12891911 0.030961802 0.12279415 0.36931124 -0.49484128 0.32376936 -0.22094423 0.5149158 0.08681345 0.1139877 0.075951345 -0.27980638 0.078686565 -0.682155 -0.43984127 -0.37595868 -0.64486295 -0.081138514 0.33635595 0.10682083 0.04567125 -0.80705345 0.05357298 0.42895836 -0.50650656 -0.13371615 0.20296505 0.13597253 -0.06325847 -0.39887783 0.009028077 -0.64539397 0.045514446 -0.5108251 -0.22594269 -0.2619777 0.1401672 0.18914749 0.58709586 -0.13311204 -0.32178822 -0.13131692 0.6421897 0.048452165 -0.48843035 -0.18356928 -0.31357536 -0.07021089 -0.07599143 0.41941744 -0.17439075 -0.2040992 0.1980532 0.20994863 0.040535346
369 -0.44906956 0.5087118 0.35895613 0.14343485 0.49247482 -0.26010722 0.5577816 0.6169226 0.32233095 -0.024232233 0.5872219 -0.30098733 0.84628 0.7021379 0.35591325 -0.43646425 0.19691908 0.3323764 0.21432737 0.114644006 -0.54124546 -0.31810233 0.100747384 0.40135783 -0.5273256 -0.00589195 -0.4366344 -0.5383737 -0.1698374 0.03432561 -0.28771544 -0.83138865 -0.54539824 0.013741912 -0.657191 0.15251012 -0.3904393 -0.2113281 0.02690377 0.21032733 0.03388471 -0.835579 -0.2930106 0.06513456 -0.029552026 -0.20825687 0.014749618 0.041593544 0.07691803 -0.39390326 -0.47561812 0.008677155 -0.23482734 -0.19181369 0.081205726 -0.05156093 -0.06252868 0.13792843 0.45350313 0.67553145 0.13163155 0.13807486 0.4904638 0.3910206 0.4687466 0.28777796 -0.666802 -0.11680872 -0.73628634 -0.12893942 -0.13086204 0.0142215295 0.34933028 0.08680735 -0.7601709 0.05402087 -0.52570057 -0.78521764 0.019048808 -0.40222877 -0.10748244 -0.48809254 -0.17681773 0.80020326 -0.045456905 0.3297541 0.45757657 0.07552801 -0.68739206 -0.17581339 -0.23847969 -0.13803396 -0.22329767 -0.3562212 0.19338806 -0.2285797 0.05037123 0.14318398 0.02524285 -0.19153921 -0.58490914 0.55610585 0.11565217 -0.055467736 -0.08716007 0.086033866 -0.14226986 -0.4157872 -0.31196207 -0.29251027 -0.033391 0.19872126 0.47798583 0.11499492 0.23349155 0.7579032 0.37145728 0.022806926 0.34129995 -0.71069324 -0.28792524 -0.28074345 0.35998568 0.65988564 -0.31733847 -0.18538591 0.33167788 0.115116894
1167 -0.22943953 -0.015036015 -0.017938005 0.7249388 0.2248616 0.08212398 0.1879906 -0.06769798 0.2432123 0.06524959 0.032796957 0.011816717 0.13404232 0.17586933 0.37478343 0.0754343 0.40931514 0.6480183 0.3171076 0.441452 0.005691244 -0.19691603 -0.17413422 0.6308255 -0.062410843 0.7005725 0.22753806 0.2901829 -0.13425018 -0.2459728 -0.1394608 -0.5991778 0.24500675 0.11330771 -0.37319744 -0.0591814 0.07788029 0.39408118 -0.48927167 0.018824335 -0.53165287 -0.0070587816 0.71914226 0.0347461 -0.1947188 0.07549347 -0.33146077 0.05890473 0.17684945 -0.39049998 -0.6737942 0.26241776 -0.1095795 -0.25635776 -0.06441847 -0.4986197 0.3257631 0.30680147 0.4269468 0.36815012 -0.23711361 -0.26181492 0.00516133 -0.25112233 0.015804159 0.060287658 -0.66898257 -0.35095796 -0.284157 0.36515886 0.21800092 -0.67129654 -0.043645486 0.5619412 0.14436924 0.768116 -0.5200571 -0.08351745 0.5338015 0.22732031 0.38489398 0.35341772 -0.2887662 0.06190283 -0.16050309 -0.0117495265 -0.08808908 -0.54051435 0.090094395 0.021012077 -0.40109268 0.053335432 -1.1061267 0.41965878 0.1118935 0.42186436 0.3525521 -0.054565527 -0.14633918 -0.44225827 0.03827517 0.24672757 -0.064718656 -0.34971878 -0.6310535 0.12061983 -0.04165638 -0.8242531 -0.32623127 -0.24632618 0.27062938 0.6657681 -0.51449776 0.5890767 0.3857588 0.49534592 0.076920845 -1.3056394 0.4967802 -0.2703013 -0.86965483 0.10102556 -0.112835124 0.62423915 -0.36244747 -0.10615429 0.5395618 0.44926795
1023 -0.49616033 0.32160693 0.07905736 -0.13697228 0.1912049 -0.26921695 0.2720214 0.09316864 0.40308785 -0.22968262 0.061403118 0.39685225 -0.36480266 0.045349907 0.48028165 -0.0762133 0.20847163 -0.028473506 0.6001972 0.47478315 -0.03361561 -0.036956437 0.37078464 0.5486142 -0.20266615 0.38716885 0.706654 -0.4263965 -0.27775 0.23533924 -0.116499096 -0.2252138 0.22997212 -0.021319062 -0.57050955 -0.52067626 0.17403066 0.13234627 -0.24476314 -0.030516304 -0.08896743 -0.27642772 -0.5923451 0.56869453 -0.6875185 -0.24773715 -0.33416668 -0.14090386 -0.08523617 -1.0102155 -0.49823388 0.42861855 -0.28773102 0.32637912 0.42715842 -0.57750607 0.5733059 0.071335465 0.13357006 0.28362307 0.1571309 -0.27986842 -0.19875722 0.10861646 -0.30577028 -0.2624331 -0.57888013 -0.54384154 -0.23530027 0.5573328 0.28209972 0.52112573 0.10897559 -0.38093925 -0.31656396 0.39332333 -0.0007119961 -0.13440368 0.78222215 0.37151313 0.25544235 0.09672968 0.0029294372 0.111360036 -0.30608803 -0.18048519 0.009160244 -0.43190768 -0.10715435 0.049728815 0.84451085 -0.69398624 -0.72512907 0.51533854 0.35488668 0.15630703 0.21797235 0.22463481 -0.29618108 -0.049436495 -0.14398631 0.36102226 -0.61737657 -0.17908329 -0.4883385 0.042789254 -0.5519842 -0.604953 0.17199251 -0.02762868 0.31981665 0.21596941 -0.45065877 -0.06480231 0.19589204 0.6785372 0.28868923 -0.7965393 -0.5054691 -0.5485493 -0.7339931 0.2862628 0.26748538 0.3328213 -0.11397366 -0.14096703 0.4767218 0.25013116
115 -0.187609 0.39907423 0.22657399 0.19368778 0.57122576 0.52437454 -0.37330222 0.20319276 0.24705738 0.23821501 0.13174438 0.20246112 -0.22555314 0.1338776 0.42184904 -0.42616037 0.43824208 -0.2161691 0.031771977 0.28276703 0.415044 0.051099535 0.023760835 0.26153895 0.23293626 0.7108489 -0.5832403 0.31305748 0.2917338 -0.037126463 0.0010230733 -0.4037532 -0.27382657 0.37553066 0.22807197 -0.39824983 0.3279218 0.27956897 -0.32529333 0.53034 -0.43199062 0.65618664 0.5811729 0.38777918 -0.48609555 0.24088225 0.14882562 -0.28547806 0.410478 -0.17114715 -0.29000536 -0.23824812 0.31554312 0.12385611 0.06562408 0.2796422 -0.31380463 0.15587822 -0.09488856 0.17897533 0.17742515 0.7495369 -0.40359718 0.06419495 0.82721204 0.39100724 -0.51145697 -0.681695 -0.75433666 0.36323088 -0.029478017 -0.305889 -0.23521541 -0.36822182 -0.031187234 -0.011060314 0.32025263 -0.14326955 0.3918607 -0.25945044 0.4350835 0.19729796 0.15078698 0.5047789 -0.30093205 -0.11441674 -0.0659866 -0.4313885 0.011542204 -0.31921014 -0.01098365 -0.5408059 -0.10484014 0.4910153 0.27056658 0.4140552 0.07811695 -0.069635354 -0.10658612 -0.045681443 -0.4270163 0.0150238015 -0.3215096 0.26115206 -0.39836952 -0.26107237 -0.71682423 -0.41236535 -0.8730176 -0.420226 -0.3083301 -0.046064556 0.19906211 -0.095870055 0.35805273 0.43572024 0.6115962 0.12770723 0.83475 0.04005002 0.34856582 0.033422112 0.8993544 0.52710783 -0.08370871 -0.25593784 0.6431703 0.11845801
52 -0.51020724 -0.07390374 -0.28886023 0.24328834 0.9439018 0.5334166 -0.7958461 0.106253624 -0.408563 -0.40252504 0.11167419 -0.07430899 0.04833627 0.021734279 0.44497088 -0.051022008 0.22614008 0.32887012 0.36818352 -0.13840084 0.07872033 -0.46906266 0.22384487 0.48708132 -0.04872114 0.79261094 -0.06896148 -0.09013939 -0.75003475 0.16906174 0.09734884 -0.33142176 -0.0070232796 -0.16427276 -0.22581433 0.2067982 -0.63991064 0.21515411 -0.32371646 0.32306913 -0.6709319 0.23550484 0.09551501 0.15137815 -0.24227518 0.6612417 -0.096861616 -0.62090474 -0.084394455 -0.043988153 -0.0414739 0.29472175 0.28291288 -0.41812772 -0.16014488 0.10123532 0.10303606 0.29742628 -0.062896736 0.066594526 0.20543745 0.04021426 -0.5793925 -0.10226896 -0.51233906 0.46575245 -0.798804 -0.4524982 -0.7058268 0.51120186 0.70350856 -0.3011958 -0.12630123 -0.02370845 -0.50776345 -0.11111303 -0.1259796 -0.55783767 0.42328963 -0.6155093 0.6302178 0.06740569 0.59097725 -0.08976716 -0.21862881 0.14865495 0.12600069 0.07420351 -0.27915248 0.14216156 0.51081043 -0.2533811 -0.8016411 0.24207333 -0.34634572 0.31202304 0.11690103 -0.14000857 0.04771746 0.16722439 -0.20359121 -0.09005228 -0.110611044 -0.13134673 0.010930264 0.2954143 -0.58836997 -0.49509975 0.23010932 -0.49230802 0.11025563 -0.08187396 0.6957164 -0.19366705 0.568124 0.72874767 0.22319391 -0.15193 0.6446811 0.10166289 -0.1581225 0.34136677 -0.29541487 -0.05241733 -0.5924607 -0.124649465 0.68445563 -0.0058390773
53 -0.63997436 0.014010362 -0.21987724 0.14021066 0.8380016 0.44485137 -0.6706754 0.119324416 -0.2955834 -0.36443165 -0.020410663 -0.11993986 0.10298788 0.13500883 0.3126397 -0.085647404 0.09952572 0.18053608 0.16849723 -0.12442659 0.11038952 -0.12839706 0.2756657 0.38885576 -0.010226257 0.8778334 -0.13161945 -0.014852924 -0.6307527 0.15392736 -0.00037269326 -0.26601118 -0.025958627 0.017696252 -0.10419415 0.18795647 -0.46062133 0.14764331 -0.37042794 0.38355252 -0.6989779 0.077196814 0.3795854 0.1686254 -0.6289455 0.44351965 -0.1221814 -0.53280264 -0.24908234 0.006628336 -0.1260223 0.11580593 0.5305895 -0.54708815 -0.09989315 0.030713823 0.21316096 0.4738254 -0.24480447 -0.20937346 0.018642228 0.012759004 -0.29315248 -0.1911877 -0.6326712 0.32130897 -0.96252793 -0.228247 -0.8166829 0.44075269 0.8596647 -0.5380819 -0.23536015 0.05580386 -0.3323672 -0.28857267 -0.061733052 -0.6759748 0.632689 -0.55054104 0.5536081 -0.10983499 0.34563297 -0.5889242 -0.10756134 -0.029461572 -0.0025964428 0.010170792 -0.31721494 -0.15809432 0.38354507 -0.2671157 -0.59578633 -0.000824351 -0.057852022 0.13704936 0.22320631 -0.14772432 0.37634638 0.17894717 -0.14600965 0.098503664 -0.16517964 -0.17385681 0.04024181 0.41993913 -0.46704367 -0.70203733 0.43768457 -0.6965141 0.111108795 -0.060148172 0.36239994 0.0074361893 0.47173494 0.75324434 0.067010395 -0.35055894 0.6534917 0.047020774 -0.21307799 0.5819727 -0.07003241 0.24372597 -0.61594534 -0.17977759 0.5734474 0.08906114
64 -0.20586747 -0.1675077 0.049033042 -0.31376037 0.4476463 -0.2314732 -0.26296693 0.18276423 0.90567565 -0.42947868 -0.11590384 -0.050867412 0.36167854 -0.10979434 0.505834 -0.0320051 0.43583924 0.4585134 -0.11172058 -0.13628988 -0.2585055 -0.07668378 -0.27972147 1.283278 -0.4060762 0.1032079 -0.17613925 -0.09169155 0.15643497 0.032343682 -0.3109652 -0.16548622 -0.21293312 -0.17015451 0.13468419 0.07306289 -0.38425282 0.4242612 -0.16570345 0.45926327 -0.035099287 0.68112236 0.69973963 0.26435417 -0.65902317 0.37185666 0.01881426 -0.669917 0.3254169 -0.7317587 -0.28156376 0.44603017 0.058242522 -0.072804146 -0.17679007 0.22395365 0.21177454 -0.0023098486 -0.5786583 -0.008315025 -0.21054469 0.07730607 0.027416429 -0.01573458 0.52238417 0.326891 -0.1600948 0.35785887 -0.3782751 0.17548318 0.011692993 0.37628734 -0.19869326 0.10108115 0.40116432 0.26685938 0.005623149 -0.38988754 0.89284927 -0.34364483 -0.050490268 -0.34961212 -0.28141984 0.79951 0.82445514 0.1256231 0.47060472 -0.3263486 -0.16822627 -0.047047008 0.32659802 -0.306362 -0.36292255 0.32121515 -0.11454549 0.4168913 0.56964046 -0.3059094 0.036174014 -0.14540944 -0.10059539 -0.19891234 -0.27284172 -0.2440057 -0.1710165 0.2687556 -0.40817448 -0.57419276 0.22474158 -0.3246735 0.14655933 0.43918613 0.10823751 0.73875535 0.12030454 0.2831588 0.36824942 -0.2693476 -0.06182806 -0.028090598 -0.0863344 -0.20862857 0.44780567 0.28506303 0.23599437 -0.2269973 -0.031659335 0.46598917
979 -0.51303643 0.43696427 -0.018696275 -0.22557327 0.0062664174 0.1951769 0.24578741 0.3061254 0.2322078 -0.7225491 0.061376363 -0.3698953 0.058426518 -0.10708356 -0.1152832 -0.11576032 0.19618453 0.43013376 -0.31918785 -0.07912248 -0.53483623 -0.8182848 -0.12706205 0.6489594 -0.4269161 -0.17760743 -0.16141012 -0.47788832 -0.2560687 0.5452898 -0.03800181 0.07260199 -0.20505485 0.34388208 -0.10181569 0.19145255 -0.1943904 0.11752177 -0.18441084 0.29775646 -0.11110629 -0.07895713 0.25988585 0.29874521 -0.062842056 0.46974498 -0.5679635 -0.6027035 -0.822255 -0.20865099 0.22763167 0.00065114227 -0.17846325 -0.19049187 0.02974672 -0.504415 -0.39931634 -0.035569683 0.20515783 -0.06284743 -0.09250708 0.33292016 -0.46819472 -0.44498822 0.009675036 0.21597306 -0.16319616 -0.43119064 -0.68906814 -0.049462706 0.33040434 0.32816005 -0.5175131 0.3101121 -0.5344841 0.3012163 -0.22282001 0.26154074 0.49706778 -0.06430334 -0.044283073 0.5887148 0.25262216 0.5580908 -0.06707502 0.5066395 -0.21172196 0.009053848 -0.31419513 0.08954563 0.65510786 0.04914706 -0.5702512 0.71111137 -0.27050352 0.394597 -0.5302166 -0.32306904 -0.037930187 0.15204327 0.5370231 0.14065605 0.37563607 0.37263322 -0.83461154 -0.33786455 -0.45062485 -0.80687416 0.138519 -0.30234164 0.48732784 0.48728356 0.11568013 -0.0852038 0.7665399 0.62597144 0.5279592 -0.3272092 -0.55469394 -0.15181616 -0.31724122 -0.36346653 0.36507037 0.093685135 0.48347592 -0.23635295 0.2503362 -0.21309446
1052 -0.5501296 0.29113427 0.11060242 0.13797861 0.3844228 -0.38644516 0.15058525 0.12674874 0.04497288 0.029258344 0.33501232 0.7385988 0.08006799 0.41577417 0.03258702 -0.083009 -0.32752624 -0.051923852 0.5765486 -0.045515675 -0.21797349 0.54012305 0.33295846 0.91976094 -0.48244235 -0.30889335 -0.28029114 -0.3147401 -0.51929533 0.23808321 0.28954926 -0.51383734 -0.49908632 -0.22810079 -0.12248891 -0.14674386 -0.8255173 0.079435825 0.8401682 0.15514009 -0.053465527 -0.19295688 0.09920248 0.01827251 -0.5136002 0.22261897 0.036985833 -0.49951097 0.5592989 -0.19320397 -0.04019436 0.12021323 -0.22578026 0.011103373 -0.058484774 -0.17176849 0.4537776 0.024239823 -0.16744494 0.01039002 0.45336425 0.37572685 -0.11845731 0.32813853 0.035627995 0.339481 -0.7630178 -0.11118862 -0.4968835 0.18372421 0.594788 0.74823797 -0.20492591 -0.03018152 0.06988226 -0.806257 -0.27020055 -0.39558417 1.4245366 0.07744136 0.2931649 0.37784708 -0.29658046 0.17411758 -0.3814992 -0.24056603 -0.1362118 0.13618289 -0.5057206 -0.26703414 -0.048771415 -0.39860094 -0.1846274 0.35763177 0.51082563 0.09640109 0.14539602 -0.53357905 -0.23957042 0.13552085 -0.0011234535 0.08710598 -0.20019779 0.05060056 -0.897422 -0.010000973 -0.55817336 -0.33315346 -0.28642797 -0.30357864 0.25776598 0.11354274 -0.20220622 -0.46498924 0.33337486 0.34194037 0.29251075 -0.5120987 0.10393033 -0.19324781 -0.6311592 0.0020063203 0.8784092 0.26487136 0.2165146 -0.17957033 -0.05233354 -0.37173623
1134 -0.15297751 0.32665485 -0.11540473 0.46516806 0.046064597 0.22632274 0.28348652 -0.0033681388 -0.10774257 0.024452973 0.5113498 -0.30292323 0.113374494 -0.12800623 0.107984774 -0.2071214 0.10728615 0.6028978 -0.28891426 0.51248336 0.14198041 -0.49897018 -0.2916083 0.394398 -0.39042962 0.64751244 0.15881714 0.4917971 0.21816178 0.07599808 -0.1879583 -0.9095664 0.27647632 0.3316922 -0.8205792 -0.1327482 0.41436577 0.073544785 -0.4250688 -0.27041996 -0.40908748 0.1914466 0.5460277 0.15596573 -0.1506127 0.6262159 -0.24324602 -0.022601834 0.28077355 -0.62325263 -0.7732544 0.17706898 -0.07574249 -0.65821326 -0.06885111 -0.31242746 0.15123074 0.31394222 0.37160364 0.35165685 -0.06420047 -0.3064068 -0.12995857 -0.15412496 -0.17649369 0.016551165 -0.595842 -0.16810271 -0.40205684 0.14738008 0.026654225 -0.30757245 0.0035989606 0.1222988 -0.10772678 0.94111764 -0.42999476 -0.031536255 0.86652976 -0.1034208 0.2278571 0.30741647 -0.13584962 0.0057520177 0.2416929 0.25044253 0.14897636 -0.112156995 -0.07390658 0.07980941 -0.18544574 -0.23305498 -0.8736982 0.42923304 -0.27510333 0.6076022 0.21194711 -0.28302196 -0.1849474 -0.3000503 -0.20047937 0.09459529 -0.13238376 -0.3423114 -0.4787768 -0.22666702 -0.02147144 -0.8052725 -0.27527732 0.12330148 0.11487444 0.44335777 -0.5714055 0.65910035 0.22468884 0.54437214 0.39348522 -0.7917006 0.5488779 -0.29889205 -0.4488755 0.0502028 0.017043037 0.16222294 0.056483056 -0.46857297 0.66610086 0.21840057
944 -0.58687866 0.34470725 -0.009382927 -0.056430534 0.13461278 0.3875948 -0.108827755 0.15691164 0.31270614 -0.61259043 0.035140984 -0.39000338 0.15206249 0.19004099 -0.08042851 -0.028452342 0.30691803 0.64257014 -0.18266521 -0.13102166 -0.69299567 -0.45871052 0.094651036 0.6052477 -0.3020073 -0.10142055 0.046872053 -0.45268026 -0.12546937 0.42314166 -0.28402644 -0.2527823 -0.2448085 0.48875245 0.037882324 0.08324626 -0.26826 0.21966347 -0.12004689 0.32075477 -0.21912669 -0.10583524 0.18120742 0.066525474 -0.07593186 0.6458655 -0.66008675 -0.4432576 -0.6507748 -0.35162494 0.17535374 0.062039766 -0.08429731 -0.08698403 0.19475493 -0.4006217 -0.68218476 0.20539008 0.087162666 0.23958336 -0.09041778 0.55377793 -0.6520772 -0.38603398 0.0892513 -0.067862146 -0.25476372 -0.31213516 -0.7561296 0.3041233 0.17984247 0.28916696 -0.46347234 0.48262012 -0.4604891 0.3005033 0.01829719 0.18876095 0.35855561 -0.44000173 -0.1658575 0.5891014 0.3662226 0.63554513 -0.21793325 0.21879838 0.03397089 -0.285552 -0.18894364 0.46466476 0.59755164 -0.05939498 -0.6593516 0.5801832 -0.076059476 0.591218 -0.11879022 -0.25609812 -0.24879624 0.30622417 0.22921804 -0.057554632 0.4120285 0.21574707 -0.9539206 -0.4633404 -0.40844426 -0.67880845 0.17266645 -0.33793175 0.38674223 0.6046699 0.20779693 0.051835906 0.78592557 0.6362733 0.21908802 -0.01673675 -0.7233629 -0.37673238 0.016951265 -0.52746344 0.41294068 -0.14207616 0.3167956 -0.077449486 0.096965514 0.167644
422 -0.15049973 -0.5192183 0.28341565 0.19149952 0.03350934 -0.7661078 0.1385543 -0.032008167 0.38502836 -0.24578772 -0.17030554 -0.10016899 0.23916157 0.41635007 0.46446556 -0.020159082 0.27174568 -0.23985966 0.081875555 -0.101244375 0.055303622 0.4189932 0.4852294 0.37018928 -0.607752 0.32145742 0.12919128 -0.19114162 -0.54437983 0.106818125 -0.07213222 -0.21732657 -0.20039733 0.55364966 0.016299045 0.55176145 0.3659046 0.008369512 -0.19156356 0.55014163 -0.45486936 0.07735717 -0.07828729 -0.10118275 -0.06905693 0.25595146 -0.42162597 -0.4822447 0.15334657 -0.5544145 -0.08414263 0.21696107 -0.12786062 -0.12080276 -0.3194287 -0.08584434 -0.06518034 0.11047186 -0.76929384 -0.10589056 0.6038382 -0.011990746 -0.06704131 -0.31397617 -0.5006224 0.36716485 -0.66532946 -0.31891567 -0.39127666 0.8651394 0.26946634 0.1484721 -0.10258346 0.38548732 -0.026280517 0.2223777 -0.13063091 -0.23125273 0.3657313 -0.30083317 0.5659164 -0.2663042 -0.0026903301 0.2987029 -0.2953385 0.26099014 -0.43263993 -0.47264406 -0.2897663 0.36808774 -0.4807505 0.002082996 -0.27045098 -0.079595804 -0.113214776 0.08860984 0.13641347 0.15025765 0.52563906 -0.24445471 0.104168475 0.13398202 0.0076805726 -0.21888645 0.32050166 -0.07098724 -0.61363363 -1.0145742 -0.05820862 -0.28021404 -0.4645532 -0.12046637 -0.8858351 0.6662567 0.6561658 0.7088773 0.648282 -0.424234 -0.48444983 -0.2273703 0.07966512 -0.16012152 0.5400498 0.25475952 0.044572625 -0.7026077 0.30307412 0.08454463
387 -0.36202863 -0.5323805 0.08644528 0.45321453 0.10506227 -0.80956674 0.09883158 0.05501199 0.17618679 -0.15466332 -0.0008124363 -0.04114958 0.2531576 0.44172108 0.76289064 -0.07902894 0.42785138 -0.12886767 0.008440531 0.08706212 0.14770177 0.28893113 0.35212487 0.516319 -0.7171922 0.25406405 0.12612408 -0.18035834 -0.61233026 0.13893075 0.18758765 -0.2547846 0.0052626412 0.6693805 0.11476909 0.3111724 0.36635748 -0.06672838 -0.20665944 0.43130046 -0.48808232 0.14318116 -0.12320644 -0.24009311 -0.03503955 0.17451249 -0.4466058 -0.37496763 0.14978334 -0.48933196 -0.13144277 0.16340409 -0.098676264 -0.07000284 -0.5508613 -0.089282595 0.18033446 0.03869669 -0.85740554 -0.20507929 0.54047287 -0.3019042 -0.034964982 -0.022372495 -0.26505414 0.3928562 -0.88124865 -0.20041054 -0.21666019 0.6779348 0.06379111 0.20612791 0.024076525 0.4495931 -0.03407488 0.5165506 -0.26246178 -0.21410376 0.54705316 -0.27474362 0.47363144 -0.16446011 0.056930598 0.035953864 -0.22202225 0.6655689 -0.46790513 -0.22604333 -0.10740625 0.5665426 -0.52084684 -0.03975453 -0.29179507 -0.07295541 -0.030436743 0.38896152 -0.07590051 0.10501368 0.5605881 -0.34857526 0.10907573 -0.0053774966 -0.29545635 -0.40740487 0.18953225 -0.1660448 -0.5039653 -0.91914296 0.21004415 -0.17608728 -0.4456812 -0.26962337 -0.88534826 0.7457873 0.7854357 0.80259097 0.89575994 -0.54658234 -0.18325463 -0.15859304 0.117408246 -0.33100674 0.51176596 0.3111983 0.25901967 -0.44962108 0.22720698 -0.038491905
578 -0.66082233 -0.15057929 0.16276135 0.023620928 0.062411066 0.41960618 0.12575616 0.21481512 -0.23640695 -0.1430684 0.23860791 0.06616645 0.17174046 0.095568754 -0.019837469 -0.56823665 0.8564386 0.2578899 -0.029883867 -0.23122258 -0.31931654 -0.12906387 0.120685756 0.70952827 -0.44342756 -0.20558926 0.233524 0.6112237 0.11215736 -0.05091218 -0.35847843 -0.08702273 0.17770372 0.43076777 -0.80536693 -0.62169325 -0.3576805 0.101319134 -0.10864788 0.21038884 -0.14928597 -0.04918581 -0.40992364 -0.032291256 -0.08023644 -0.32290107 -0.25781783 -0.8609563 -0.36372405 0.15713829 0.02331465 0.6076312 0.13398601 -0.11009753 0.068104565 -0.18189213 -0.41663656 0.096089445 -0.020511497 -0.28565463 0.52929634 -0.18282002 -0.276649 0.216653 0.58704776 -0.059400614 -0.6689046 0.010803369 -0.92429864 0.15979639 -0.10877681 -0.28151986 0.7862346 -0.035037197 -0.38138795 -0.6493463 -0.24331313 -0.46112445 0.18533754 -0.45007917 -0.52404314 -0.1890818 -0.14077042 0.12722991 0.032988913 0.22603863 0.49924675 -0.4512435 0.11508217 0.07711416 -0.71222544 -0.4676369 -0.5527118 -0.0323721 0.10646002 -0.29356712 -0.28195322 -0.73195153 -0.1902855 -0.18788308 -0.36500737 0.890762 -0.26839513 -0.78049475 -0.30064347 -0.1812502 -0.09578331 -0.8690231 -0.6082696 -0.29910412 0.25209644 0.6290853 -0.08493925 -0.24086235 0.69200474 0.3168608 0.44010833 -0.17671779 0.113180704 -0.79729646 -0.44281265 -0.27147976 0.5529031 0.22883174 0.22882521 -0.0023539998 0.27065802 0.049311005
436 -0.5150711 0.39120364 0.16971138 -0.054060437 0.4905522 0.11899196 0.5750365 0.21905501 -0.41107833 0.38550648 0.72473073 -0.57744 0.083078034 0.5860911 0.012992378 -0.7609187 0.26221338 0.6803794 -0.30880824 -0.17162706 -0.58647686 -0.67389953 0.065151535 0.5273796 -0.8173588 0.101015866 -0.1538361 -0.49202102 -0.31292924 0.19640857 0.095266365 -0.22844407 -0.33141837 0.43821043 -0.34495988 0.19573134 -0.41138068 0.26894936 0.4633393 0.49394822 -0.27762946 -0.33120698 -0.56156653 -0.096847676 -0.347411 -0.4208291 -0.024181228 -0.3329107 0.019912936 -0.034290418 -0.38906622 0.023608256 0.11296457 0.5014497 -0.08888754 -0.09732871 0.34832236 -0.007913409 0.425873 0.29739186 0.23166211 -0.4085537 0.17090274 0.117966756 0.43033412 0.3595614 -0.53339136 0.04514481 -0.6713235 0.18214932 0.1303382 -0.39176396 0.099490635 0.22361559 -0.4032598 -0.5610104 -0.5731026 -0.6707118 0.18313602 -0.58364785 0.035060443 -0.43268526 -0.21860214 0.529901 -0.12142491 0.41280514 0.0018374841 0.14703684 0.045951404 -0.11723261 -0.471269 -0.18140505 -0.54804575 -0.5123314 -0.25334555 -0.21628067 -0.20705043 -0.5042449 0.10728773 0.16073374 0.15135004 1.0678483 0.06669789 0.18637176 -0.4332288 0.0021461926 0.13729367 -0.44960296 -0.8300657 -0.37398246 -0.1996302 0.1551471 -0.05219347 -0.14085397 0.42186964 0.25687125 0.40626442 -0.4342132 0.29654175 -0.23222007 0.024408458 -0.7947717 0.77875656 0.4246603 -0.33523288 -0.16418344 0.3657491 -0.29447913
658 0.47853926 0.09376332 0.26281136 0.26618347 0.2137854 -0.12731095 0.3420699 0.65444595 -0.09685985 0.13665679 -0.63908154 0.6288391 0.35773245 -0.05704659 -0.019585196 -0.06594745 0.90341985 -0.6803325 0.18217893 0.36328217 -0.51765865 -0.12951149 0.032369483 0.22746566 -0.35530642 0.35355762 -0.34219155 -0.105447285 -0.017788459 0.4807855 0.35494894 -0.720396 -0.1804857 -0.5401431 -0.47616556 0.08896856 0.31742227 0.38405317 -0.12132858 0.16388611 -0.35904732 0.045911115 0.23081692 0.060356792 -0.3067399 -0.18071614 -0.3466084 -0.36298844 -0.1549543 0.19325018 -0.0703871 0.4415335 -0.13569582 0.16427986 0.27851027 -0.6801166 0.2888388 0.3764533 -0.13725999 -0.57082564 0.068886355 -0.019318216 -0.6321296 0.010135937 0.3397088 0.27462515 -0.37595773 -0.44717497 -1.1562746 0.33410773 -0.17772232 -0.09112668 0.2032771 0.4736436 0.07378264 -0.1792468 0.22282726 -0.5557242 0.32955736 -0.3554357 0.6792169 -0.19370502 -0.028389044 0.1420302 0.23571344 0.61934406 -0.64137876 0.060978144 -0.5558787 -0.8032882 -0.045206465 0.5350304 0.09504008 -0.13286883 -0.9690876 -0.2747845 0.5259312 -0.39761603 0.16650768 0.23514093 0.2738843 -0.34388763 -0.13535997 -0.478085 -0.53979355 0.01788777 -0.2569963 -0.29238015 0.057088405 0.5026016 -0.23436518 0.32038417 -0.4531853 0.15557384 0.003394753 0.6765867 0.4298624 -0.5228384 0.32980847 -0.025403531 -0.09205957 -0.34750548 0.58693147 0.1385084 -0.46703935 0.1492864 0.50575006 0.10958964
925 -0.300444 0.3794151 0.008624064 0.3494964 0.61872965 0.14545606 0.6259883 -0.030218542 -0.2465795 -0.48412862 0.53015584 0.005394085 0.14735146 0.29446697 -0.3900195 0.41804218 -0.12193643 0.47550532 -0.095445916 1.1305428 -0.0569088 -0.047103643 -0.20791581 0.400826 -0.5993669 0.19130217 -0.21052389 0.33334464 -0.08544798 0.2313494 -0.02491457 -0.49332988 0.3883905 -0.20118445 -0.3972894 -0.20664261 0.5423773 0.30967948 -0.4851204 0.27424037 0.36962324 0.4733374 0.33909005 0.14175731 -1.1565967 0.38426706 0.13545994 -0.8379982 -0.1131964 -0.18782066 -0.33776867 0.19326644 -0.24743369 -0.03874427 0.31808594 0.54491943 0.12416723 0.43535703 0.06509208 -0.5593275 0.039279997 -0.23650339 0.12065437 -0.39054957 -0.14918797 0.14554349 -0.30521742 -0.24253792 -0.8705756 0.008155144 0.07584566 -0.020877348 -0.103038326 -0.05674033 -0.13570684 0.48923323 -0.47504774 0.059478387 0.44615188 0.27300778 0.48096302 0.3532535 -0.1515555 0.15192136 -0.107568935 -0.15799764 -0.35322076 -0.5716849 -0.39763516 0.24364513 0.5666126 -0.5478211 -0.50164896 -0.016222637 0.20509087 0.46586612 -0.84199965 -0.12873533 -0.23805688 0.26983964 0.6401543 0.3604882 -0.2734418 0.016651649 -0.1244407 -0.045466397 -0.46106905 -1.0933442 -0.08418584 0.06322979 0.19755381 -0.44580796 0.52006394 0.6826627 -0.21279411 0.2998122 0.36404797 -0.45679104 -0.075533904 0.08473791 -0.3186573 0.37125883 -0.0064076213 0.42612165 -0.3293892 -0.35881132 0.53767705 -0.14685594
114 0.17158966 0.38676608 0.4024591 -0.013322163 0.5645747 0.21830927 -0.35781136 0.16242598 0.24686432 0.39142534 0.21080992 0.11975678 -0.36393386 -0.041518208 0.5069318 -0.5835059 0.37916595 0.0050221654 0.118617795 0.21133095 -0.051491596 0.26219437 0.023722356 0.6018152 0.09302794 0.53378546 -0.40330285 0.051467773 0.23846066 -0.35748407 0.0084059285 -0.59198874 -0.0785188 0.3366456 0.0560608 -0.343908 0.07550053 0.32750982 -0.3199412 0.35754213 -0.34074935 0.63881093 0.42752072 0.34360814 -0.5634788 0.14818366 0.19872224 -0.42769817 0.089664 0.041967276 -0.25682667 -0.13417004 0.114845395 0.16669866 -0.040447574 0.21172282 -0.4098768 0.34917146 -0.20711717 0.43966496 0.029238386 0.88806796 -0.22604632 -0.022002256 0.5903422 0.31109372 -0.2584201 -0.569883 -0.5493558 0.27007687 0.029398981 -0.3758277 -0.40433562 -0.0731277 -0.11449153 0.20472328 0.18343598 -0.17561156 0.41005087 -0.06463891 0.15301166 0.05099001 0.32276222 0.31910944 -0.45594046 -0.04016809 -0.36537957 -0.36493078 0.00015407782 -0.55544204 -0.18935059 -0.36526823 -0.041044362 0.5963788 0.5425561 0.13907497 0.16830286 -0.24689119 -0.15224573 -0.22441964 -0.20328215 -0.11566884 -0.14130796 0.19891757 -0.4389471 -0.27796122 -0.7059109 -0.34065464 -0.8319278 -0.366285 -0.25364563 -0.344546 0.15827674 0.12003757 0.20636043 0.46081555 0.46176326 0.31500295 0.9138494 -0.2953768 0.16235659 0.18909729 1.0061303 0.92399704 -0.17352495 -0.44566166 0.69725674 0.10830875
79 -0.09439869 0.07260542 0.4765517 0.2824471 0.7963707 0.2132896 -0.26878127 0.17628232 0.05926563 -0.15353234 0.36505517 0.261331 -0.58443135 0.03707817 0.22645475 -0.19329672 0.17166378 -0.24597384 0.054438144 -0.034626912 -0.38302374 0.15335202 -0.12719378 0.64180255 0.39097366 0.60889727 -0.13385484 0.14751631 -0.10138567 -0.39371395 -0.229195 -0.50085425 0.12513085 0.57108885 -0.023899944 -0.08013851 0.16281968 0.42595518 -0.30273005 0.377434 -0.062378403 0.7180774 0.28090268 0.094698094 -0.5954511 -0.15686606 0.017306585 -0.42180875 0.03641409 -0.06913479 -0.018594384 0.03373991 0.050651662 0.021884676 0.14653106 0.17735206 -0.60858274 0.09180546 -0.11059605 0.23590186 0.08106912 0.7964607 -0.26998246 -0.013170681 0.6285496 0.36641604 -0.49846607 -0.7073427 -0.57025605 0.38516265 -0.02072606 -0.358057 -0.5154301 -0.1307656 -0.13200629 0.1842937 -0.11139985 0.073916316 0.49349964 0.018913174 0.088879265 0.06223858 0.35388243 0.33184433 -0.24923137 -0.09080048 -0.19792123 -0.65262616 -0.048284378 -0.20982331 -0.008550913 -0.39023122 -0.37125835 0.7348903 0.5788334 0.17638871 0.22708118 -0.06757807 -0.072865315 -0.22940738 0.3521417 0.14232159 0.10336262 0.3708449 -0.32505503 -0.08997059 -0.7776604 -0.18618159 -0.79418695 -0.41457057 -0.195231 -0.30177674 0.18642704 0.1453604 0.5624174 0.5894133 0.45001855 0.33297127 0.60050976 -0.30820945 0.18654963 0.32882896 1.1123896 0.70806193 -0.20001473 -0.20174871 0.73800576 0.087627865
143 0.070637256 0.61141235 0.6866827 0.098673224 0.21931121 -0.14343981 0.65596277 0.43451008 0.32765025 0.07601778 0.5191692 -0.22512446 0.1674151 0.33614007 0.09203045 -0.0040195296 0.28957418 -0.28631908 -0.028621925 0.26131776 -0.30101606 0.029770384 0.16576521 0.57824516 -0.8613771 -0.028437749 -0.37519652 0.011363066 -0.100122124 -0.19280928 -0.32404995 -0.5638375 0.074092485 0.13620755 0.273609 -0.19077648 -0.31779715 -0.03948447 0.35469392 0.19118404 -0.22510344 0.6439594 -0.037988737 0.2702246 -0.26340818 -0.03563691 -0.2497191 -1.2646929 -0.17273971 -0.023369301 0.06303348 0.36570054 0.26583478 -0.10515961 0.10079007 -0.031799745 0.27951536 0.1928961 -0.33582035 0.20318744 -0.2977991 -0.1623058 -0.6103698 0.31709108 -0.07781208 0.10325807 -0.9854038 -0.7007617 -0.46796995 -0.14504327 -0.14625168 0.0002389196 0.074179225 0.20563225 0.12739117 0.23845235 -0.08628091 -0.512455 0.3621441 -0.37324125 -0.2514126 0.19536157 0.8448788 -0.01647316 0.43140516 0.5177666 -0.48123428 -0.26632726 0.14296965 0.45050576 0.028392041 -0.7129611 -0.5793973 0.19664735 0.21628998 -0.2129101 0.16734518 -0.2778342 -0.03798165 0.10223418 0.1997288 0.51539695 -0.27394918 -0.26742214 -0.32254383 -0.37669042 -0.30448052 0.081529155 -0.6138136 0.37188914 -0.29073524 0.042106036 0.029136024 0.21687293 0.20567566 0.07049778 0.90742016 0.010439599 0.32670414 -1.1078535 -0.24774368 0.45499068 0.7820313 0.3138062 0.29270297 -0.3165388 -0.01546111 0.111068286
59 -0.5646927 0.51232433 0.6524849 0.13117692 0.8815856 -0.13850556 -0.16127017 0.20711294 0.825784 -0.3901294 0.10145778 0.24415526 -0.041638967 -0.1855817 0.67075264 0.25717694 -0.030525638 0.23454964 -0.1378363 0.19184811 -0.29718426 0.12639946 0.09096627 1.2094967 -0.5802189 0.26180592 0.118419245 0.026838863 -0.108162776 0.19818254 -0.5992164 -0.254476 0.2537791 -0.2992635 0.33397347 0.5571656 -0.65901375 0.63647586 -0.25148505 0.015967404 -0.38454133 0.6015676 0.4841605 -0.32934076 -0.20832527 0.3089331 -0.30711222 -0.7601228 -0.058051776 -0.5831054 0.029432274 0.45278737 0.08015564 -0.12985443 0.1075262 -0.1520657 0.057995718 0.42835772 -0.69199675 -0.16070084 -0.118327335 0.035207104 0.09492921 -0.028095538 0.4553126 0.3878723 -0.10817199 0.5922762 -0.22300485 -0.32881135 0.3650986 0.1234028 -0.27083254 0.3092826 0.16202377 -0.053035557 -0.20460053 -0.47633967 0.9117913 -0.2632774 0.1993845 -0.30104148 0.23405549 -0.47063327 0.0063954145 0.43938002 0.14886156 -0.13180777 -0.110828914 -0.62474823 0.45486656 -0.25907305 -0.59460735 -0.049912382 0.40936506 0.49496785 0.5236349 -0.46157512 0.18596646 -0.066693604 0.8316526 0.1300346 -0.5599207 -0.26281613 -0.36087367 0.19376923 -0.09914184 -0.4575772 0.7327455 -0.5774507 -0.07332723 0.19528936 -0.009983295 0.70630014 0.3225364 0.5878953 0.13463028 -0.27133083 0.0895932 -0.2350821 0.041786842 0.10545979 0.1527499 0.4482193 0.04848741 -0.19658133 -0.09044539 0.17624432
573 -1.18817 0.018681664 0.45812273 -0.27124876 0.021993106 0.13657965 0.23216256 0.21461266 -0.28845617 0.27889973 0.29275444 0.37976503 -0.17850065 -0.17343926 0.033341207 -0.34262985 0.94665504 0.55085534 -0.16762479 0.6643227 -0.2391253 -0.11138566 -0.26223108 0.91662574 -0.10780442 -0.014432983 -0.24964345 0.007398631 0.08034893 0.26075044 0.121861875 0.14973046 0.19852883 0.30267596 -0.008354847 -0.056212384 -0.47068542 -0.061210386 0.54123795 0.11968977 -0.41011277 0.16704772 -0.42607415 0.15892923 -0.6764317 -0.22774395 0.018840998 0.06279026 0.56782365 0.07863779 -0.66434044 0.13860992 -0.15036887 0.28231975 -0.2082878 -0.8013693 0.015266162 0.42621723 -0.18959507 -0.34413904 0.09960923 -0.4983624 -0.32492083 0.39621264 0.068559006 0.0123251565 -0.689477 -0.29909986 -1.1789631 0.46277225 0.086481385 -0.2818241 -0.06451754 0.19231313 0.019474922 0.07322025 -0.837515 -0.19033775 0.2929649 -0.64040047 0.1719197 0.08694559 -0.31325403 0.028198345 0.09499727 0.24839383 -0.10873777 0.0078012445 -0.006538959 -0.11011909 0.38752642 -0.44778156 -0.43715638 -0.044067178 -0.36374763 0.29974702 0.10167756 -0.32932806 0.0437717 0.3880952 0.227402 0.5341046 -0.7575692 -0.3234183 -0.06401684 -0.2113638 0.1005191 -0.75110364 0.0991785 -0.17208683 0.59571487 -0.04866158 0.26882613 0.29582372 0.6169345 -0.03595177 0.32377398 -0.059831984 0.5021101 0.063479446 0.044116557 -0.5836976 0.9777641 -0.23455171 0.19182752 0.04452481 0.11150885 0.0427596
693 0.6923317 0.2412951 0.2787641 0.1584082 0.20492457 0.087406196 0.53992105 0.8002426 0.03776796 0.10987762 -0.17344262 0.9505189 0.5277206 0.1957935 0.26317623 -0.01721428 0.8187241 -0.3970098 0.06476626 0.6482232 -0.48824078 0.22195452 -0.26732755 0.5407089 -0.11580734 0.12267869 -0.039389916 0.108634666 0.2683935 0.36916998 0.30823082 -0.6717575 -0.08606186 -0.057487328 -0.28771815 -0.36662012 0.024824457 0.41220778 -0.12839153 0.36001456 -0.63538814 -0.012529451 0.28148338 0.016163725 -0.438397 -0.016605368 -0.12722306 -0.33370492 0.03881559 -0.041266944 0.26145852 0.40859222 -0.17277054 0.2201984 0.26302317 -0.4203933 0.27594236 0.7007932 0.11422433 -0.3411439 0.16984054 -0.064092346 -0.80932903 -0.0918876 0.15079871 0.4765817 0.061849605 -0.15730092 -1.241406 -0.025955556 -0.20576306 0.073364034 -0.029868765 0.5275512 0.11029045 0.25396648 0.16860753 -0.4030573 0.2216695 -0.24083863 0.8157237 -0.048371423 -0.1713843 0.2818683 -0.1742519 0.2753824 -0.61966985 -0.17030331 -0.4995113 -0.8104185 -0.07529811 0.4302498 0.036927134 -0.028044937 -0.82151884 0.010590122 0.40770015 -0.36817628 -0.1462858 -0.088862956 0.2280007 -0.16413373 -0.3203038 -0.2921922 -0.5651284 -0.1670055 -0.42283067 -0.22722676 -0.2500479 0.44469693 0.082254626 0.6767141 -0.18145004 -0.012215341 0.012955553 0.54062223 0.31313467 -0.9895551 -0.12570232 -0.0694587 -0.18092151 -0.1507983 0.401938 0.20145552 -0.3249931 -0.07706434 0.26395237 0.033607963
705 0.3481206 0.739386 -0.16919968 0.19343357 0.4838309 -0.13608345 0.40256754 0.14535183 0.29656196 0.051259235 0.36064175 -0.5458357 -0.5746216 -0.7034129 0.33061883 0.74555993 0.5846632 0.1006018 -0.21548878 0.2525073 0.07369659 0.4851399 0.2532256 0.27452597 -0.2526783 0.25271642 -0.35506746 0.28682777 -0.14818248 0.15047441 0.22394784 -0.40489835 -0.9740076 -0.3705132 -0.064953595 0.50992894 -0.15395087 -0.20294316 0.22214475 0.6800939 -0.38159785 -0.15082172 0.22048639 -0.33032227 -0.10016344 -0.16515622 -0.6515361 -0.27516302 -0.59948546 -0.9466451 0.06521418 0.5795724 0.11075716 -0.090907104 -0.0058672847 0.057194326 0.18928349 0.31571588 -0.37432742 -0.14035097 0.23091002 0.02325608 -0.567567 -0.13025841 0.3606799 0.16248946 -0.6775198 0.23287232 -0.71306574 0.53294927 0.38121685 -0.1611152 0.03483414 -0.4882737 -0.22330132 -0.44094944 -0.4770925 -0.32269529 0.44583786 -0.23719597 0.849864 -0.1436793 0.3242398 -0.17887954 -0.7969415 -0.08094837 -0.0341588 -0.36574253 -0.13467777 0.074646585 0.2937229 0.18118139 -0.058946785 0.47592658 -0.023708772 0.42665336 -0.5531883 -0.40347266 -0.31272689 -0.29606846 0.0669514 0.53583306 0.18533798 -0.38238734 -0.43685338 -0.16766702 -0.5249537 -0.74127686 -0.117554784 0.19560826 -0.035538927 0.6650965 -0.34040013 0.391299 0.28313485 -0.15107633 -0.16526692 -0.24471658 0.27562696 -0.17596523 0.103290334 0.26535764 0.8989422 -0.09605453 0.12860315 -0.5942234 0.14272016 -0.02072131
579 -0.4710236 -0.05468753 -0.39914557 -0.19297381 0.3326256 0.42639577 0.2834269 0.21112768 -0.16082522 -0.14377159 0.26332396 0.16664816 0.0037988855 -0.08606092 -0.17031227 -0.45883006 0.9940798 0.1585917 0.50845194 -0.34938738 -0.2460214 -0.19283262 0.22771187 0.44225252 -0.07610081 -0.30993044 -0.13113917 0.6280663 0.26751468 0.018829847 -0.45368344 -0.3581773 0.10809188 0.5878898 -0.52423614 -0.68098575 -0.38800687 -0.28882825 -0.42175996 0.27252296 -0.4673335 0.26540843 -0.1771295 -0.011560765 -0.14462137 -0.33274132 -0.19557013 -0.59092 -0.35783824 -0.051232055 -0.19682637 0.7970546 0.28848436 0.4341415 0.36251116 -0.15511793 -0.17076926 0.004427082 0.056486696 0.08531034 0.7297612 0.21570152 -0.15575778 0.24284272 0.21157898 0.27960482 -0.97135186 -0.16031647 -0.5754589 -0.08721389 0.048096318 -0.127347 0.34451872 -0.057141967 -0.34166825 -0.4093102 -0.2783871 -0.24272016 -0.22881636 -0.2969313 -0.600163 -0.33599716 -0.4959721 0.22353186 0.011274535 0.3433755 0.38025096 -0.27717268 -0.13981053 -0.037549302 -0.32002997 -0.19330402 -0.15366967 -0.0922448 0.23637918 -0.009879797 -0.39633012 -0.44938663 0.07117394 -0.25973472 0.3471245 0.874046 -0.12669267 -0.7553663 -0.64282936 -0.36204806 -0.18333007 -0.9065614 -0.7588222 0.106015466 0.2242042 0.52018386 -0.16219173 -0.12474823 0.7525176 0.5308551 0.6320754 -0.007974065 0.14035262 -0.6444982 -0.33212775 -0.4073075 0.74631137 0.2588637 0.2683753 -0.1838205 0.28055513 -0.012603359
663 -0.046399713 0.49804196 0.21533854 0.30599743 0.45338428 0.09892954 0.089105554 0.49678487 0.22980838 -0.03967042 -0.2639664 0.26842165 0.7002604 -0.09010075 0.31110394 -0.33934137 0.37842053 0.6532641 -0.38439885 0.45194322 -0.26003793 -0.3414472 -0.3293778 0.5430392 0.030789556 0.09725025 -0.053614426 -0.60284334 -0.4220258 0.36528265 0.27868128 -0.9536469 -0.21421939 -0.26102343 -0.042577505 -0.05557613 -0.075576946 0.18074131 -0.46513504 0.12150009 -0.63242006 0.32748 0.24989879 -0.02267367 -0.24291067 0.081777744 -0.6705608 -0.51525366 -0.79102194 -0.7462484 0.26918736 -0.071304224 -0.18453494 0.42948827 0.03428782 -0.21760336 0.19073217 -0.67439765 -0.21962713 -0.55473274 0.16228358 -0.5182247 -0.7649648 0.24329735 -0.27856645 0.4053054 -0.18317491 -0.418671 -1.0390466 -0.42272782 0.040874045 0.03263428 -0.87359405 0.7927037 0.16122264 -0.19120358 -0.09664925 -0.68516403 0.63069516 -0.3008768 -0.17206633 -0.57237875 -0.30447742 -0.032315347 -0.5370796 0.54085386 -0.014631122 -0.28661212 -0.44564998 -0.42788917 -0.20501867 0.26655462 -0.31860384 0.07138009 -0.3581682 -0.34790927 -0.25618508 0.376969 -0.11050608 -0.011314076 -0.16125855 -0.3600071 0.20484015 -0.32265392 -0.53378695 0.22241111 -0.21324004 -0.84394085 -0.04694362 0.35854894 0.5074389 0.22473083 -0.40928438 -0.12349936 0.06716947 0.4140613 0.79693025 -0.33508253 -0.26714396 -0.2403777 -0.21382508 -0.10535685 0.7740733 0.7060681 -0.16542663 0.19125494 0.69985396 -0.18795192
909 -0.48749846 0.5197234 -0.11143292 0.015926883 0.23457545 0.30730084 0.030731868 0.3520391 0.0058877603 -0.37639314 0.13785608 -0.3232722 0.30407742 0.39472264 0.09738047 -0.047680415 0.4839261 0.35961485 -0.11270096 0.1324159 -0.5242829 -0.46508324 0.06434754 0.42754865 -0.17640422 0.12391476 0.06401553 -0.282703 -0.22753474 0.610084 0.038792044 -0.20818357 -0.44223878 0.644368 -0.018785099 -0.08538427 -0.18783487 0.22906074 0.04137276 0.15347254 0.29267848 -0.15904102 0.48876613 0.04766575 -0.10066505 0.35295975 -0.643133 -0.4473416 -0.5056043 -0.4839533 -0.11873127 -0.066900045 -0.04959718 -0.00972751 0.35511896 -0.19269313 -0.97989124 0.3390471 -0.18568021 0.02076909 -0.21072589 0.47436163 -0.69660115 -0.15378486 0.07402534 0.11757355 -0.18987656 -0.0585173 -0.668137 -0.022256222 0.2369849 0.3143722 -0.55003625 0.52412605 -0.53379613 -0.12285645 -0.10113878 0.093092695 0.53636247 -0.38162786 -0.092480935 0.6348244 0.45564124 0.46568054 -0.15831997 0.2627419 0.25792456 -0.36648348 -0.14148518 0.54810375 0.5791201 -0.080135524 -0.5737851 0.39233825 -0.1800022 0.8063888 -0.34060588 -0.7710072 -0.28776476 0.34402683 0.058534194 -0.033603318 0.29323435 0.29240388 -0.6630604 -0.17806406 -0.7314425 -0.49966845 -0.013652107 -0.35811162 0.536846 0.15977013 0.26330113 0.24183205 0.4637259 0.60924816 0.24310592 -0.24261044 -0.90327233 -0.5575401 -0.25213936 -0.40017205 0.84450144 0.21036664 0.32928357 -0.02711923 0.09381916 0.13084544
948 -0.3474804 0.5392049 0.20010242 -0.2629708 0.15084721 -0.20816801 -0.011733391 0.264679 0.3323647 -0.038479958 0.46471372 0.4455009 -0.11695695 -0.0025044058 0.25697032 -0.28568408 -0.06481316 -0.34594402 0.2554915 0.07754855 -0.34648183 0.4982734 0.23485349 0.8201977 -0.9455538 0.06128574 0.3684031 -0.2528127 -0.37904245 0.22798361 0.21441048 -0.3059403 -0.73077005 -0.36392972 -0.36170897 -0.41372615 -0.36360663 -0.14538947 0.6933015 0.3789155 -0.23225723 -0.29884145 -0.25786957 0.031095052 -0.211087 -0.043816123 -0.069262005 0.06681978 0.06442466 -0.61927766 -0.31788814 0.013028339 -0.1572652 -0.011948271 -0.14195536 -0.06952242 0.206529 -0.25452137 -0.3605136 -0.5346141 0.4483408 0.33125752 -0.32528707 0.24428473 -0.074378364 0.18428105 -0.9444703 -0.29347473 -0.80578357 0.18547808 0.6538016 0.1463874 -0.32712555 -0.7454429 -0.34004873 -0.5862951 -0.035675146 -0.5348049 1.401078 0.30030707 0.31365946 0.01571927 -0.19461806 -0.23011447 -0.12558979 -0.30848077 -0.21716549 0.4385708 -0.2841343 -0.36639467 -0.117201425 -0.23888011 -0.36320633 0.3623977 0.7799375 0.3058485 0.17873742 -0.11945344 -0.37419775 -0.012089183 -0.13048118 0.09723962 -0.11460489 -0.53980005 -0.24260527 -0.16196011 -0.85186124 -0.47253355 0.3655924 0.048502725 0.06506314 0.4963212 -0.3061192 -0.101485334 0.24427916 0.29303542 0.0056775897 -0.20537494 0.07298994 -0.052790955 -0.5022878 0.26353517 0.7839602 -0.1833977 0.05748883 0.09069106 -0.11045827 -0.14023255
858 -0.26574174 0.25529128 -0.1277815 0.2576581 0.24108574 -0.22189324 0.13072197 -0.4834293 0.510973 -0.43266374 -0.2002623 0.4177801 0.527288 0.6747503 -0.25249445 0.037582524 0.30220053 0.5890319 0.5175219 0.4666096 -0.30709684 -0.09333402 -0.00403378 0.37494797 -0.5853028 -0.204815 -0.75025094 0.4456319 -0.11167354 -0.084185965 0.042372487 -0.34815118 0.18402193 -0.13175921 -0.36406094 -0.56227255 0.6737992 0.058144685 -0.24430141 0.1383986 -0.13154462 0.1945227 0.36938342 -0.09454798 -0.97751755 0.2464899 -0.008908162 -0.793092 -0.32166418 0.13779123 -0.32647222 0.5351971 -0.30576646 -0.5455782 0.29030275 0.026931213 -0.1546791 -0.009783762 -0.582973 -0.8492738 0.6308188 0.30606103 -0.15157399 0.08282895 0.28104192 -0.2501558 -0.51497775 -0.3987533 -0.84457207 0.45014936 -0.098906785 0.2941975 -0.44013166 0.4355999 0.05387158 0.33366182 0.09154142 0.07243728 -0.009042512 0.3452997 0.36895922 0.4168482 -0.07517357 0.1797908 0.10034671 -0.015265303 0.023587862 -0.50774384 -0.4444283 -0.009151626 0.35792756 -0.43455344 -0.35993522 0.34358352 0.47569653 0.5557124 -0.4757684 0.033497173 -0.29035893 0.054126643 0.53303254 0.25072423 -0.43308446 -0.5139564 -0.048598163 -0.25435466 -0.18734927 -1.0650235 0.17186104 0.38738713 0.1448839 -0.26513177 0.14358793 0.42146567 0.5277843 0.13540694 0.3109552 0.06706714 0.5365902 0.043160643 -0.4343194 0.15554667 0.13848205 -0.12023279 -0.20863865 -0.19074029 0.34032044 0.07198922
34 0.07555411 -0.29731804 0.3141257 -0.19624686 0.21914947 -0.40080857 -0.31805918 0.2552419 0.40572363 -0.4345613 -0.07774768 0.15364434 0.32976902 0.19375762 0.32643366 -0.22420795 0.5961742 0.30589518 -0.22118613 -0.3347846 -0.09459452 -0.0220152 -0.10829195 1.2220913 -0.85865426 0.14336482 0.06448452 0.15507303 -0.0055159614 -0.045884054 0.04495855 -0.69705206 -0.040930986 0.036803115 -0.043843076 -0.39546505 0.27114344 0.5241574 0.17094612 0.6300304 0.083986446 0.18370359 0.61917067 0.17935485 -0.4276334 0.26699844 -0.28659686 -0.72051775 -0.09806454 -0.1552189 0.29315904 -0.031433046 -0.08028004 -0.5658938 -0.1309312 0.396822 0.3802474 0.29787573 -0.41223982 -0.36608046 -0.65963894 0.20619094 -0.27324328 -0.07354549 -0.13836773 0.17267427 -0.32184744 0.016173724 -0.5485339 -0.104865886 -0.1924245 0.13231441 -0.23180605 0.21172655 0.06642294 0.5092492 -0.115319505 -0.35583365 1.123588 0.48314577 0.36064005 -0.394013 -0.31859887 0.80872047 0.6071403 -0.087757155 0.18697971 0.21720639 -0.568337 0.102493994 -0.25928593 -0.55038685 -0.4163758 0.5847127 -0.11426327 0.7086619 0.5146582 -0.20777333 -0.2330873 -0.22206971 -0.5505072 -0.11239033 -0.23668276 -0.35419703 -0.22838818 0.38491893 -0.7699177 -0.47582823 0.027625423 -0.3910135 0.24753733 0.32806996 0.048074733 0.71476215 0.020980941 0.3768822 0.7680881 0.088042155 -0.5348982 -0.06018787 -0.06171111 -0.2890163 0.9345895 0.12652867 0.043007623 -0.5168995 -0.1401444 -0.05475188
367 -0.2952431 0.47194362 -0.12758632 0.3721957 0.4210741 -0.17720023 0.62120444 0.7471902 -0.5078372 -0.012290444 0.56101745 -0.19752425 0.90497035 0.5800347 0.41258502 -0.89250195 0.4012515 0.46252504 -0.17625825 0.21413605 -0.67022574 -0.4338108 -0.024298409 0.71625537 -0.7823018 0.0053624446 -0.09461182 -0.6096554 -0.4127861 -0.39016426 -0.15010524 -0.48188156 -0.18368775 0.066364646 -0.5219815 0.48655885 -0.62620753 0.38466978 0.024298746 0.32874414 0.1088148 -0.33089235 -0.7774955 -0.20042364 -0.32436928 -0.12799782 0.30208907 -0.078719944 0.07618796 0.055710193 -0.22323315 0.084374785 -0.32456934 -0.0894204 0.15952973 -0.17189963 0.082072884 -0.039107215 0.64044046 0.40468675 0.38862383 0.04784072 0.13169026 0.55703074 0.748286 0.020877691 -0.82744986 -0.015762702 -0.62055963 0.2497844 0.49102986 -0.31588838 0.018174505 -0.27550742 -0.33455807 0.20208284 -0.5015322 -0.64507675 0.13360856 -0.39764032 -0.1103464 -0.28686288 -0.0669652 0.2901777 0.258695 0.4382913 0.1741523 -0.06907315 -0.093613796 -0.26152244 -0.3162259 -0.34329775 -0.0864983 -0.23014586 0.0044868286 -0.17232165 -0.16675435 0.17868137 -0.19532599 0.13681008 -0.39433485 0.50511587 -0.12786442 0.31634054 -0.32186273 0.14081389 0.3212006 -0.7667018 -0.2127137 -0.31714636 0.093220115 0.08408318 0.2689458 -0.27638376 0.18890886 0.39099857 0.29262963 -0.22731933 0.6523795 -0.51526755 -0.39739752 -0.42456648 0.4307685 0.61982495 -0.066292 0.09425684 0.38273966 0.19178881
39 -0.28406006 0.24077806 0.7075469 0.08138688 0.3399834 -0.20190106 0.37037906 0.18375424 0.11708904 -0.122538745 0.44190282 0.1149657 -0.04007856 0.015765619 0.0734699 -0.6008045 0.067025416 -0.6442234 0.06428824 0.15162854 -0.45173734 -0.46572897 -0.26372734 0.9673918 -0.15872437 0.14805287 -0.29580927 -0.12185023 -0.10814982 -0.3590965 -0.21475671 -0.2705148 0.24047145 0.10466729 0.34095296 -0.26078174 -0.38638794 -0.11010945 0.074453376 0.28960872 -0.42139724 0.4132323 -0.015382037 0.30243334 -0.44070095 0.31276277 -0.44827935 -0.87216955 -0.44131976 0.116135225 0.17801446 0.16504738 -0.18995945 -0.16892871 0.28860232 0.11322975 -0.09227501 0.09889575 -0.12924932 0.45618418 -0.18204439 0.30076674 -0.6351815 0.12809686 -0.004505871 0.16394457 -0.59788436 -0.77025014 -0.56667095 -0.25260624 -0.1512553 -0.20911075 -0.09504223 0.294609 0.008782322 0.31742817 -0.18521975 -0.23013544 0.6935896 -0.22305106 -0.13869482 0.34912527 0.89111584 0.026654605 -0.054957226 0.24509114 -0.4980526 -0.37582085 -0.2811172 -0.13014859 0.1422957 -0.492614 -0.28943145 0.53127927 0.31304887 -0.1868738 -0.37527266 -0.10971933 0.6291826 0.3996659 0.35104027 0.0483132 0.15160348 -0.18423806 -0.40463665 -0.17154373 -0.3566129 -0.21860409 -0.7668508 0.09894335 0.24532151 -0.39353335 -0.12960897 0.44945922 0.37941083 0.088341415 0.68204343 0.15117766 0.6081084 -1.2915833 0.33501145 0.3772637 0.5343417 0.4380107 0.02670745 -0.3138848 0.47312117 -0.31539527
1158 -0.45517832 0.059685305 -0.11591006 0.1571657 0.8850414 -0.28036806 -0.32101 -0.06909017 0.30592805 -0.3037437 -0.0032357036 0.61648154 -0.062940925 0.38142857 -0.12120749 0.14507502 0.018499633 0.048359275 0.8727881 0.15213186 -0.28295234 0.5710242 0.25429848 0.98848844 -0.79723674 -0.07985583 -0.031956486 -0.667366 -0.37431663 0.17746955 0.23387226 -0.056466952 -0.17059468 -0.1963328 -0.07193208 -0.23876546 -0.5123855 -0.080855645 0.24231821 0.029058551 -0.05788489 0.2411839 0.3771924 0.1690252 -0.53948635 0.33285236 -0.1567685 -0.038586203 0.7935242 -0.2543748 -0.035107095 0.5423563 0.33708477 0.34105825 -0.62535673 -0.23128827 0.5047035 -0.25766537 -0.21918018 0.21085179 0.42780071 0.4524927 -0.26522186 0.08760736 0.32876685 0.11578182 -0.8733124 -0.6786545 -0.62865967 0.43610865 0.52702165 0.043251272 0.23008296 -0.11638019 -0.089156725 -0.6083662 -0.46899158 -0.44170883 0.7455123 -0.14943422 -0.02598281 0.20034851 -0.41440892 0.39075765 -0.018959483 -0.13135938 -0.44663128 -0.27672705 -0.24684837 0.016661337 -0.17070675 -0.1629712 -0.7312145 0.3021427 0.22948441 -0.0054147756 0.02294636 -0.043722257 -0.11192854 0.53039956 0.41613153 0.06946387 0.040634498 -0.04416707 -0.95091146 0.069337726 -0.50324774 -0.3719523 -0.3749764 -0.114671 0.4463886 0.2530167 -0.13087521 -0.44359854 0.34369832 0.44054717 0.00567088 -0.3027395 0.26019505 -0.15842535 -0.48010248 -0.011238963 0.64888835 0.47745886 0.0600525 0.15897167 -0.027155653 -0.13828458
1180 -0.10000426 0.3084388 -0.04019595 0.025260417 0.52392536 -0.04024174 0.2537494 -0.22286186 0.702006 0.33453768 -0.20368251 -0.43198887 0.088846 0.25841138 -0.18920566 -0.6615434 0.44294068 -0.6937498 -0.05958108 -0.4925031 0.267565 -0.40051976 -0.20841075 0.53345007 -0.5390637 0.42806536 0.28463674 -0.26171646 0.19022855 0.20112462 -0.21488334 -0.68508345 0.32753238 -0.26947588 -0.10281406 0.021737691 0.605656 -0.028166484 0.17616224 0.60852593 -0.13824268 -0.108324386 -0.2693218 -0.3110852 -0.6107857 0.13807675 -1.0069941 -0.18713243 0.035265256 -0.5994066 -0.802623 0.11617369 0.10556535 -0.123957604 0.02115142 -0.07359118 0.27094802 0.21037984 -0.020596657 -0.011318293 0.31957066 0.43697226 -0.18700673 0.25774315 0.27685192 0.11070131 -0.089182496 0.07590283 -0.59043634 -0.19116485 0.3793675 -0.5019804 -0.048896525 0.5048308 0.13720752 0.49254844 -0.44903532 -0.57648146 0.49459526 0.2289991 0.45639193 -0.67885244 0.45691445 0.06673372 -0.26343644 0.38103727 0.056618437 0.040527515 -0.25150883 -0.6669051 -0.1747123 -0.19851975 0.018212808 -0.05958472 -0.24172284 0.47617137 0.009393354 -0.14197075 0.21067634 0.4120184 -0.1447948 -0.13082436 -0.25156593 -0.4671414 -0.29397285 -0.29160783 -0.11483674 -1.233465 -0.024064267 0.11098902 0.3254042 0.08818785 0.11380257 0.107517004 0.28882366 -0.17240797 -0.2698869 0.014688098 0.24608645 -0.33186504 0.16533746 -0.5730456 0.6505143 0.34709814 0.14005777 -0.41094887 0.20023197 0.26118338
1148 -0.2751779 0.305821 -0.011524668 -0.19098909 0.6142031 -0.12342054 -0.37553936 0.11802949 0.5530439 0.010608864 0.0036877831 -0.4655054 0.09266964 -0.036876425 -0.16573799 -0.68872845 0.6949859 0.023939483 0.15620227 0.33278954 0.38238752 -0.2311843 -0.011693672 0.9511812 -1.0600653 0.5565487 0.25356263 -0.08801218 0.24223927 0.28214148 -0.5057482 -0.44236484 0.09187347 0.14710677 0.25742492 0.06508417 0.6395996 -0.21577957 0.103535354 0.59870946 -0.29823488 -0.13314874 -0.02669108 -0.20156854 -0.24030733 0.21816331 -0.74100244 -0.2494943 0.25411025 -0.3491918 -0.25898138 0.04730875 0.4646817 -0.07174157 0.10891658 -0.4026379 0.42393827 -0.18489815 0.048988838 -0.05521545 0.43284497 0.7894529 -0.23575287 -0.08100333 0.031348027 0.13509302 -0.1589769 -0.3293511 -0.3303552 -0.14496307 0.09496686 -0.38902625 -0.18382218 0.19227901 -0.32896256 0.69225615 -0.5014387 -0.37771422 0.71587723 -0.038287077 -0.05031135 -0.34029317 0.1645985 0.17011437 -0.6348072 0.27796465 0.17347434 0.09604548 -0.33616275 -0.9447436 0.17469779 -0.01642192 0.16203302 -0.08547627 0.09680904 -0.07896149 0.26013464 -0.015661454 0.038873006 0.61236703 0.073895335 0.18357588 -0.27176836 0.011348149 -0.18420005 -0.30354097 -0.10113004 -1.2092623 0.17661755 0.14963385 0.3379261 0.41270345 -0.052010164 0.19963737 0.5249849 -0.051909436 -0.18611744 -0.19363235 0.2624568 -0.19301723 0.018227786 -0.82071567 0.6826645 -0.02853341 0.3797807 -0.054653965 0.045274265 -0.011411261
810 0.04211754 0.5890998 0.09817229 -0.29913387 0.038229123 0.08225009 0.54096884 0.060161684 0.85503817 -0.27931812 0.5306527 -0.36170527 -0.23928878 0.1249475 0.08199309 0.6131703 0.10279587 -0.29397908 -0.09997251 0.3551232 -0.36500823 -0.031995554 0.78277606 0.6612391 0.08342551 0.2557986 0.14100267 -0.158559 -0.16749369 0.40658388 0.21772668 -0.24132034 -0.75402224 -0.6012717 -0.049110673 0.2631454 -0.11075424 -0.029914787 -0.043733872 0.8500915 -0.22997071 -0.03133323 0.06812339 0.03452466 0.09837453 -0.47733167 -0.42580953 -0.08092995 -0.32740176 -1.0729128 -0.022053236 0.4229079 -0.048562713 -0.060821205 0.586524 0.24826412 0.6546542 0.046063427 -0.11054258 -0.3575289 0.42945632 0.042893797 -0.7493918 -0.06888825 0.46265727 0.15429974 -0.45843416 -0.2743793 -0.43612283 0.86026627 0.7409693 0.13041115 0.11993019 -0.42123494 -0.37635303 -0.44819298 -0.17488466 -0.34571275 0.6612525 -0.37430835 0.45463434 0.0038876627 0.28954443 0.21923615 -0.78862244 -0.18074414 -0.111719444 -0.017061967 0.047978025 -0.5263351 0.18329696 -0.26656136 -0.42688084 0.1308486 0.28979194 -0.06941159 -0.0007118276 -0.10980796 -0.18487614 -0.16341877 0.41551992 -0.13756435 -0.24973473 -0.6053134 -0.3164731 -0.19159026 -0.643003 -0.59719557 -0.004503171 0.043078907 -0.14772916 0.76417196 0.19718435 0.29028445 0.24511345 0.36312047 -0.03086708 0.33003607 0.085570686 -0.009938406 -0.25023612 0.101650864 0.5411524 -0.017989071 0.09910606 -0.3390906 0.4979706 -0.14180201
649 -0.5782962 -0.24847871 -0.07564276 -0.07979598 0.11673647 0.1028965 -0.24599741 0.42458346 -0.038784783 0.051260598 -0.017433112 0.299474 -0.126433 0.039157227 -0.06919543 -0.60205823 0.58328116 0.5042485 0.273627 -0.2307209 -0.3680825 -0.19367623 -0.3271124 0.18298896 -0.084510244 -0.44969094 -0.29146254 0.8008635 0.27646422 0.0024176214 -0.43604147 -0.28634757 0.117114514 0.33138707 -0.6276939 -0.45291033 0.0025449614 -0.29735547 -0.15573743 0.6469696 -0.5253815 0.15800025 -0.28461975 -0.34904066 -0.29876056 -0.3258338 -0.020949807 -0.87728214 -0.4734953 0.2412568 -0.17806618 0.5586697 -0.29984656 -0.052903235 0.40907323 0.12125263 0.3384289 0.23607059 -0.22344111 -0.31733394 0.6640144 -0.18118328 -0.19017081 -0.0027087296 0.36875972 0.3274243 -0.8127724 0.08820766 -0.6120782 0.3335404 -0.00023041156 -0.18269199 -0.022449281 0.037473667 -0.38881168 -0.13414991 -0.09703297 -0.36445734 0.50260067 0.055232726 -0.5651349 -0.30531013 -0.2812858 0.42276546 0.18675733 0.23773481 0.35200346 -0.45044327 -0.34792507 0.09884124 -0.13238665 -0.4488247 -0.069700845 0.14943042 0.24435309 -0.42255193 -0.15503447 -0.6023178 -0.12454669 -0.54649264 -0.26457956 0.57022256 -0.370691 -0.80877846 -0.63629884 -0.04076456 -0.09500606 -0.97904617 -0.060441498 0.07292751 0.07838606 0.6628091 -0.15599415 -0.51876706 0.74046606 0.11670193 0.57424676 -0.4283957 0.24014442 -0.48292696 -0.29914552 -0.0028932972 0.60157645 -0.06577339 0.26833346 -0.24259081 0.62245584 -0.0055240123
191 -0.36596918 0.36265454 0.31900728 0.03966755 0.45874724 0.44187883 -0.10327523 0.21672727 -0.15813152 -0.3581147 0.1212443 -0.2900064 0.114081584 0.2940348 0.04648875 -0.5734102 -0.13534434 0.108416885 0.5327389 -0.068717144 -0.27620915 -0.37877274 0.024827095 0.08229023 -0.07904269 0.85477 -0.47095206 -0.39649203 -0.21359627 -0.10058446 0.01835385 -0.83507365 -0.13309242 -0.081441864 -0.34629816 0.39251995 -0.13613169 0.35954976 -0.16450304 0.24632178 -0.3215702 -0.3440076 0.34369564 -0.2039581 -0.40035856 0.44663718 -0.24650423 -0.32737088 -0.048547577 0.23573384 -0.23662624 0.039074786 -0.28061384 -0.68206334 -0.38837153 -0.17245491 0.22068378 0.34391156 0.49856234 0.2431323 0.6352939 0.013857066 -0.6542594 0.13908051 0.40759498 0.4857956 -0.24651809 -0.13664742 -0.55423295 0.580228 0.46148238 -0.60901874 -0.022926427 -0.20372888 -0.45825723 0.45579508 -0.16040182 -0.5021409 0.31309915 -0.8086418 0.3965731 -0.008680082 0.09464646 0.62478614 -0.3206084 0.39836425 0.30312046 0.023844112 -0.40269223 -0.15378919 -0.28750452 -0.24226807 -0.49047253 0.06187842 0.10727831 -0.49016878 0.073875874 0.12596777 -0.028768837 0.33175743 -0.35359117 -0.2680592 -0.26296896 0.258936 -0.09128273 0.057270285 -0.4650389 -0.56480455 0.36947188 -0.62036425 0.34454226 -0.087060556 0.85922337 0.06985594 0.4703158 0.5019896 0.25498405 0.12260398 0.3928165 -0.41498983 -0.5173655 0.11875832 -0.08141037 -0.094456926 -0.8137632 -0.062459413 0.56102514 0.3359075
1174 -0.78297216 0.9411481 0.025185553 -0.031683102 0.47718528 -0.055381566 0.8099019 0.12688097 0.2566126 -0.05747258 0.22165428 -0.4941895 0.32068902 0.024239624 0.5547646 -0.078488335 0.5510402 0.07767274 -0.32687858 -0.086429544 -0.0890911 -0.2946264 -0.32230395 0.30782962 0.39377958 0.07440636 0.1925266 0.20139466 0.13626121 0.11334559 -0.11554671 -0.9597872 0.7234406 0.35235292 -0.56406265 0.007474419 0.59174234 0.15051207 -0.30927777 0.1684786 -0.47167134 -0.02542825 -0.024302645 0.44982502 -0.32382226 0.4451522 -0.11230117 0.05824901 0.28187233 -0.85314655 -0.6186063 0.14481235 -0.032317117 -0.12150297 0.113107674 0.022004507 -0.12561932 0.31710893 -0.19126074 -0.4847824 0.5710228 0.25948042 -0.28733385 -0.021992527 0.051230907 -0.099606 -0.5579055 0.07984312 -0.6880723 -0.19377127 0.5988825 -0.04713634 0.055173773 0.6531023 -0.0008092296 0.9283385 -0.55072397 -0.84922004 0.09916143 0.8456128 0.21381438 -0.11172545 -0.023080526 0.19283116 -0.037887152 -0.13245462 0.16706575 -0.3508266 -0.44643372 0.06192565 0.14119236 -0.68558383 -0.43212283 0.043230012 0.0044683614 0.4631258 0.27956262 0.008716627 -0.079234995 0.07218681 -0.16425407 -0.12770966 -0.4517753 -0.224297 -0.35007635 0.038276307 -0.022763144 -0.8612608 0.0036760317 0.29246485 -0.16454482 0.0039632805 -0.30208203 0.37020057 0.10926724 0.3224211 -0.03553684 -0.33945018 -0.006675922 -0.22326963 -0.026313089 -0.41910675 0.2760361 -0.09277034 0.02400731 -0.14245138 0.57672095 -0.029825542
657 0.439597 0.19751711 0.42332894 0.02001208 0.03846224 0.37036458 0.45751742 0.2812943 0.042832 0.29783636 -0.71965504 0.6424855 0.11558919 0.06333915 0.040836826 -0.19237359 0.69070524 -0.54346806 -0.023511937 0.4659648 -0.81406456 -0.09925577 -0.61882424 0.30245596 -0.056129593 0.50653535 0.069737315 0.13486138 0.051873982 0.40892932 0.2600431 -0.69749826 -0.1790711 -0.0828635 -0.3976532 0.2110354 0.093904756 0.4596842 0.0820184 0.1561243 -0.23504364 0.05442621 0.22331314 0.050110597 -0.5958625 0.058961116 -0.48499972 -0.17320284 -0.05424573 0.042147916 -0.10677125 0.61641234 0.19288315 0.18374492 0.19902912 -0.6027041 0.2134317 1.0349501 0.05609204 -0.1551863 0.10971987 0.24682055 -0.37272784 0.16845143 0.37082255 0.4218253 -0.33608064 -0.27954566 -1.1828388 0.07956074 -0.2947014 -0.20220211 0.38652185 0.2844476 0.013699423 0.099412434 0.20299056 -0.6534076 0.5468158 -0.55988103 0.4796646 -0.13595809 -0.25454938 0.09133878 -0.20199735 0.33087233 -0.79420173 0.04177907 -0.51204544 -0.58896214 -0.0013723411 -0.15125194 0.24112567 0.09798537 -0.8343687 0.3012944 0.1435742 -0.47425595 0.01637406 0.38056144 0.3629072 -0.04546846 -0.50068134 0.04758294 -0.517953 0.3362863 -0.4499561 -0.32099858 -0.30138803 0.35689074 0.09665515 0.40407595 -0.18678723 0.0011466795 -0.2917717 1.1068208 0.20059255 -0.63277036 0.10398845 -0.5693934 -0.23374389 -0.014176548 0.31974837 -0.05540903 -0.122448705 0.034688644 0.2370105 0.27424717
1187 -0.37232557 0.09360057 0.009664407 -0.050746 0.4806089 -0.020414352 -0.44523945 0.14647111 0.39121246 -0.05073784 0.2014112 -0.24294314 -0.18556246 0.28852323 -0.1852007 -0.90401554 0.82276607 0.11161498 -0.13818155 0.55648494 0.39088437 0.18821082 -0.32232746 1.0207696 -0.86128765 0.6044147 -0.25238594 -0.03924373 -0.3165032 0.42537656 0.13303754 -0.38012856 -0.315307 0.31179497 -0.013410574 0.62942135 0.48916736 0.10075822 -0.04592879 0.31213638 -0.49528605 0.099619955 -0.38914722 -0.60357994 -0.42360783 0.070637435 -0.6597499 -0.15436187 -0.17687185 -0.12689789 -0.15064567 0.21429388 0.21725954 -0.21342333 0.021466808 0.036944605 0.68537 0.038596343 0.0153951105 -0.27027315 0.17763557 0.20118758 0.14220409 -0.23110302 0.23865479 0.42213082 -0.565889 -0.40418616 -0.6849412 0.089001335 0.40060547 0.2178528 -0.11481251 -0.2683703 -0.3873131 0.54218745 -0.32559782 -0.009207726 0.41367716 -0.19285075 -0.055125475 0.020463664 0.05701566 0.5181479 -0.2753414 0.56527805 0.34217843 -0.21031418 -0.32015285 -0.40056375 0.42861742 -0.065278985 0.078132 0.0014289228 0.8877485 -0.34277377 0.1900907 -0.29403812 0.40536073 0.3328671 0.45215297 0.38403505 0.17977412 0.22590831 -0.10637592 -0.5085514 -0.20473015 -0.9789091 0.2884162 0.25324863 0.22871844 0.9501928 0.19755252 0.16916841 0.47481322 0.5589753 0.062047444 -0.41223073 0.08410791 -0.12204032 0.250544 -0.41857606 0.26079592 -0.14797136 0.26989892 -0.18425936 -0.13387121 -0.13287331
328 -0.13466728 0.036124162 0.62393755 -0.012080708 0.42292172 -0.26139697 0.110348806 0.68061286 -0.03641067 0.054869503 0.55281925 -0.31685352 0.13876465 0.3000798 1.0841384 -0.9057916 0.3638228 0.7366035 -0.1121654 0.21939397 -0.20098388 -0.44867143 0.104547255 0.4345486 -0.31993726 0.45780227 -0.358967 -0.71634984 -0.0045906617 -0.013684532 -0.2701048 -0.33642384 0.21649481 -0.06652845 -0.47581944 0.25426033 -0.30925673 0.49094957 0.45038417 0.0957838 -0.057376523 -0.086492114 -0.34507108 -0.17712839 0.1512435 0.017939629 0.07318758 -0.47117585 0.43364945 -0.264938 -0.30393353 -0.075062364 -0.12274806 0.120678514 -0.08008244 -0.3298202 -0.2526368 0.4582471 0.4317009 0.39570373 0.3247099 0.17213799 -0.52807415 0.34467736 0.9212061 0.6639961 -0.554132 -0.28870544 -0.61375386 0.11230881 0.71949196 -0.3501667 -0.41739562 -0.26152414 -0.021833925 0.022694746 -0.36596945 -0.071129635 -0.1401378 0.10195409 0.49779227 -0.06499901 0.02624384 0.67161375 -0.16702153 0.36039004 -0.1477189 0.49224964 0.27957118 -0.10375522 0.40224037 -0.0150315985 -0.32706928 0.045409784 -0.08630124 -0.036484834 -0.124810554 0.1097325 -0.49360746 0.37717956 0.32529753 0.039131623 -0.3345852 0.40554067 -0.35815567 0.27029988 -0.44253066 -0.083131015 -0.06776667 -0.07395559 -0.15313984 -0.15925092 0.1930829 0.15550587 0.46615317 0.4880132 0.32198414 -0.39225113 0.27246672 -0.27991426 0.45877662 -0.5098775 0.41942954 0.3262476 0.24549839 0.34264714 0.99366826 0.029623566
370 -0.13503681 0.3019278 -0.12263269 0.27938044 0.43392345 -0.15263727 0.58582205 0.44117808 0.23762177 0.07477752 0.621832 -0.057156865 0.95120734 0.87479377 0.50505143 -0.60168606 0.5715758 0.36159614 -0.079223506 -0.08574809 -0.18148698 -0.21214159 0.047848713 0.397366 -0.48899394 -0.16426659 -0.41642717 -0.29319137 -0.20616361 -0.04873659 -0.2462412 -0.71752065 -0.50790024 0.18491781 -1.1457996 0.038652755 -0.4708424 -0.22702508 -0.30902305 0.16945805 0.1811749 -0.66641784 -0.17661363 0.36819866 0.04107991 -0.10165704 -0.2472032 -0.0025932787 0.13961029 -0.09423261 -0.1278431 -0.064245254 -0.16563283 -0.34678972 0.22490957 -0.21476194 0.13639802 -0.0699737 0.3122554 0.5452924 0.47433454 0.38981283 0.3248017 0.42518684 0.2872392 -0.010991645 -0.6923154 -0.3578194 -0.7008145 -0.02057601 -0.07365841 -0.13345054 0.4992201 0.040064767 -0.5749097 -0.045404956 -0.6387229 -0.37194893 0.19677497 -0.37738365 -0.11522286 -0.31852135 0.090369664 0.59721804 -0.037337862 0.3231058 0.8890042 -0.21261732 -0.5173512 -0.08620449 -0.2527938 -0.26768875 0.05132299 -0.081099436 0.29664934 0.1942877 0.058329653 -0.11969918 0.29478607 -0.35585952 -0.24401675 0.233568 0.04791575 -0.14281456 0.043911543 0.2180046 -0.04632025 -0.45145062 -0.4713607 -0.43227783 0.005533889 0.17509912 0.1146488 0.10059799 0.20721136 0.99028826 0.22404614 0.02170183 0.5853751 -1.0251681 -0.12212184 -0.5318452 0.09386569 0.6689917 -0.28797013 -0.05609591 0.25384158 0.0405066
404 -0.5502892 0.20388913 0.25850326 -0.030390747 0.71779233 -0.29604656 0.44900995 0.55495787 -0.4272776 0.004623745 0.48575827 0.28841537 0.7400213 0.7074811 0.16756745 -0.2743633 0.10994275 0.25012785 0.12908757 -0.016731309 -0.71781534 -0.4142978 0.15479028 0.513788 -0.4064012 -0.12973751 -0.26631212 -0.50869024 -0.07455457 -0.03948885 -0.39249372 -0.8280183 -0.07585349 0.1945944 -0.42716137 0.13835593 -0.47969532 -0.20324282 -0.28912428 0.2027307 -0.112535894 -0.42926422 -0.4766399 0.3015985 0.010509161 -0.12130489 0.15890658 -0.33849052 0.14143538 -0.15809411 -0.5471848 0.34833437 -0.14414711 -0.030954428 0.24026051 0.06431368 0.23843558 0.04099184 0.368098 0.46384752 0.11863947 -0.0574931 0.42784762 0.39030847 0.24822496 0.31234264 -0.59008163 0.056846198 -0.6636159 -0.10262851 -0.11278603 0.17625132 0.48075497 -0.06807713 -0.51059395 -0.17147149 -0.6444069 -0.4975603 -0.09448165 0.00020008763 -0.33021653 -0.46434075 -0.19256315 0.5356825 -0.0065092556 0.8713956 0.5202257 -0.05213311 -0.70009005 -0.018271549 -0.6503304 -0.0047193025 -0.47863862 -0.07709921 0.072011754 -0.28635243 -0.08188226 0.029722951 0.33526832 0.10133745 -0.39175308 0.6595686 0.15962426 -0.29648015 -0.1312649 0.48058233 -0.06091228 -0.65809536 -0.12557803 -0.34168184 0.06784821 0.1387669 0.4373842 0.21381582 0.42582157 1.0322025 0.5858029 -0.06153906 0.73341995 -0.37569293 -0.15055634 -0.5089538 0.3455904 0.6098125 -0.02622043 -0.13907556 0.3590428 0.20252891
543 -0.8513602 -0.22815377 0.2350135 -0.07086343 0.31238315 0.57091856 0.3576229 0.10819288 -0.64693105 -0.17854135 0.68359584 0.05237353 0.60426384 -0.06626491 0.08117485 -0.52410513 0.51988536 0.5271507 -0.047551144 -0.20469913 -0.4120254 -0.19726507 0.19004433 0.50438374 -0.45034468 -0.21552211 -0.10626491 0.34349003 0.09422063 -0.06222131 -0.5159765 -0.060048472 0.019436086 0.56457037 -0.51480013 -0.46680352 -0.46807992 -0.047454596 0.2475011 0.5070679 -0.21583113 0.36272824 -0.2828104 -0.17437774 -0.33155116 -0.29300117 -0.17146398 -0.18178567 -0.38763827 0.28883544 -0.25435603 0.33130527 -0.016789684 0.009885029 0.17953971 -0.19350432 -0.13628992 0.25738126 0.30511054 0.043940965 0.6169131 -0.009366608 -0.16663907 0.24174358 0.6649272 -0.023848109 -0.50605834 0.09097723 -0.8292048 -0.05454249 0.12968586 -0.2339224 0.6142609 0.17886253 -0.23060219 -0.25859022 -0.3359776 -0.58434796 0.39898714 -0.11073561 -0.4142794 -0.068002306 -0.14405584 0.24647218 0.26886123 0.22156979 0.5764756 -0.16151802 -0.13416512 0.0091157295 -0.23598194 -0.4177027 -0.2531579 -0.27537316 0.056500897 -0.10164844 -0.116239175 -0.82388365 0.015129177 -0.6015926 0.027905347 0.89940965 -0.24291116 -0.48834404 -0.27536163 0.04382621 -0.2212135 -0.8496947 -0.29735738 -0.5138054 0.1999202 0.36221975 -0.22713353 -0.15911464 0.76560444 0.38728958 0.3452929 -0.4942817 0.2004891 -0.42936152 -0.24900068 -0.5158162 0.55632526 0.19544667 0.20787361 0.17728725 0.14100422 0.11006946
706 0.13375041 0.48341814 -0.08293387 -0.11382839 0.19604711 -0.1531182 0.4110732 -0.11230696 0.00660333 -0.018643232 0.5301998 -0.4333301 -0.44342807 -0.6056985 -0.20827827 0.49629 0.84799075 0.12427518 -0.026850317 0.42880875 -0.07901764 0.09804029 0.39472917 0.8297558 -0.2583206 0.5893197 -0.46651134 -0.03655662 0.10210845 0.13975239 0.297074 -0.032430124 -1.0036509 -0.59609395 -0.18591055 0.33262748 -0.152673 -0.35597646 -0.112419 1.0619969 -0.35596043 -0.027184043 0.3785491 -0.257383 -0.43865624 -0.0077247024 -0.49378067 -0.10486312 -0.41850904 -0.8901631 -0.13633576 0.36144683 -0.054058306 -0.14367014 0.032805823 -0.08401858 0.57282275 0.052084327 -0.36132762 -0.11598774 0.057552896 0.14896879 -0.58102167 -0.24173456 -0.14402208 0.4277613 -0.47864062 0.31749573 -0.53845364 0.53390425 0.35202247 -0.5892781 -0.426204 -0.18048482 -0.2925721 -0.49845013 -0.40291968 -0.1790792 0.11112467 -0.36271894 0.81566864 0.21133225 0.28203818 -0.37049174 -0.38788727 -0.42590475 -0.15423846 -0.050073065 -0.38031408 -0.2915936 0.0096037695 0.32615346 -0.14641298 0.28313097 0.14604257 0.21085389 -0.5723359 -0.30119157 -0.19886583 -0.15156749 0.18073487 0.76550615 0.03565803 -0.7793049 -0.6998876 -0.19917473 -0.46696064 -0.53847396 -0.10936337 -0.0041306266 0.0495527 0.53134555 -0.23741749 0.32142147 0.37685478 -0.11728506 0.08288398 -0.020632783 0.20560148 -0.10869545 -0.17115523 0.26990792 0.7124037 0.17700952 0.18328214 -0.48299623 0.2529951 0.16593274
1045 -0.1308827 0.5018706 0.048912965 -0.042578198 0.22476481 0.20955877 -0.374212 0.011333424 0.62074786 -0.4499676 0.14203449 -0.30812806 0.382764 0.3983817 -0.056512393 -0.64223295 0.8608272 0.21154219 -0.053937748 0.5253799 0.043971058 -0.63896585 0.05778174 1.0402573 -1.0858636 0.32701954 -0.15157753 -0.2048558 -0.11790146 0.40648696 -0.03694986 -0.19930784 0.069426484 0.31935552 0.0043561826 -0.320261 0.47769913 0.05629609 -0.06816287 0.3725106 -0.3621411 0.028176846 0.33646756 -0.3054925 -0.26254973 0.06475354 -0.92524374 -0.34428707 -0.36815494 -0.3901128 0.3650399 0.014018331 -0.07251439 0.10508951 0.15662257 -0.41885257 0.07575105 -0.24011114 0.21036239 0.57369137 0.040565077 0.43767866 -0.288364 -0.5010398 0.50999045 0.17986454 -0.16618645 -0.25387385 -0.51790464 -0.41034758 0.14872614 -0.05763051 -0.2224604 0.41148144 -0.60912144 0.6799124 -0.29810295 0.123709515 0.3771802 -0.066239245 0.19465946 0.16775808 0.50841606 0.22434558 -0.35809776 0.61882615 0.36014318 0.05512104 -0.40755948 -0.21889557 0.31504107 0.31903827 -0.29036844 0.49349186 0.47868735 0.26620543 -0.15343615 0.014463159 0.16894633 0.5240025 -0.11510366 -0.057868343 0.05255784 -0.071141884 -0.69813585 -0.8100191 -0.28393674 -0.7058838 0.069261745 -0.2616707 0.3936482 0.8515413 -0.18035068 -0.0010065513 0.5973433 0.038423616 0.008338516 -0.4341455 -0.22649975 -0.23676711 0.20398925 -0.9193162 0.42431253 0.19968262 0.6909871 -0.25566146 -0.39104304 0.02760548
435 -0.76062405 -0.03370325 0.2861983 0.18526146 0.26924205 -0.08050316 0.20863076 0.47147897 -0.6583675 0.04700444 0.65959907 0.0027294934 0.3590927 0.46054056 0.44779536 -0.83280957 0.2667687 0.3875152 -0.47183725 0.13200925 -0.45636728 -0.89758676 0.12666635 0.73073745 -0.73064965 0.13735825 0.06394204 -0.4388081 -0.17994152 -0.01207788 -0.42081934 -0.08589468 -0.23103993 0.09341969 -0.47271714 0.13597102 -0.4943016 0.59029776 0.14304197 0.41911367 -0.053483944 -0.12204779 -0.7137756 -0.2046427 -0.23194768 -0.38765997 -0.21814373 -0.5702773 0.16397905 -0.14830285 -1.0215511 0.16429596 -0.122987635 0.15360987 0.076938696 -0.22130029 -0.07117949 -0.13140547 0.24395783 0.54022723 0.25587958 -0.44899163 0.029919729 0.18805987 0.32569504 0.50190604 -0.30167645 0.026120488 -0.54729235 0.26573437 0.44948953 -0.04526914 0.1493523 0.073925056 -0.07487034 -0.2528908 -0.45086926 -0.31598458 0.20692833 -0.47547394 0.008140704 0.14898832 -0.07130061 0.44511244 -0.13744316 0.12557463 -0.032668795 0.11308023 0.29273313 -0.18293479 -0.2639354 -0.2460806 -0.48754412 -0.49745634 -0.6199553 -0.2592738 -0.2012618 -0.6326891 -0.44795454 0.23618694 0.50767 0.7591788 0.13717054 0.08569674 -0.26861936 0.20785688 -0.16584747 -0.5837865 -0.455483 0.0557871 -0.13144824 0.09221958 -0.071364984 -0.08260898 0.676032 0.074310936 0.4490895 -0.33198687 0.31562942 0.20387897 0.3705701 -0.5534403 0.6798287 0.37947324 -0.17354728 0.14088191 0.58222336 0.23632371
591 -0.06450914 0.17756183 0.12120754 0.4252811 0.2112918 0.054254286 0.43445545 0.9224269 0.46229205 -0.1300647 -0.44073132 0.2997357 0.3383327 -0.22989933 0.406406 -0.3544576 0.13888979 0.37330484 -0.5085 0.20921929 -0.5957685 -0.4279418 -0.27308744 0.71303856 -0.3260127 0.13519408 -0.09018744 -0.19077873 -0.12682128 -0.027606465 0.5230374 -0.5779513 -0.2758307 -0.012973872 -0.37895828 -0.15519093 0.47116524 0.52822256 0.061849054 0.57750034 -0.6036772 0.20720562 0.29799777 -0.18231681 0.0119881425 0.18310677 -0.60141116 -0.4279567 -0.42066285 -0.3468803 0.5898102 -0.3013996 -0.11593905 0.4061027 0.06116288 -0.011218952 0.29032212 0.20885344 0.11625874 -0.6184545 0.28738657 -0.5226325 -0.87841654 -0.00481984 -0.20156257 0.24349317 -0.4051078 -0.38551584 -0.96649706 0.12709948 0.12962565 -0.15375091 -0.733995 0.74241734 0.45026675 0.17817765 0.12298547 -0.72739047 0.083460376 -0.50954443 -0.06850576 -0.37000445 0.10748825 0.032737095 -0.27356997 0.5882911 -0.12765273 0.010873781 -0.50877964 -0.46956465 -0.20674126 0.01793814 0.20084132 0.0068626245 -0.25910982 0.09249866 0.4388763 -0.31804156 -0.18228805 -0.12928398 -0.19550434 -0.32284775 0.14435321 -0.17003073 -0.35627857 0.0952498 -0.39775622 -0.21532258 0.21511418 0.6842767 0.533381 0.38209718 -0.43251166 0.3512777 -0.03864476 0.6792395 0.9980642 -0.31386435 -0.090094805 -0.28168228 -0.31511062 -0.069435604 0.54901856 0.3781036 -0.2965542 -0.012360818 0.32313782 -0.7537052
694 0.24776973 0.5879006 0.22082566 0.25193864 0.15873906 0.042397454 0.5569986 0.6720497 0.0063418793 -0.004736808 -0.17038931 0.6032882 0.65404433 0.053647276 0.6194763 -0.2410839 0.747263 -0.32592517 -0.18237542 0.4105269 -0.9096352 0.13593571 -0.3787703 0.89389604 0.0429305 -0.07840049 0.09120915 0.37202665 -0.09304254 0.5154556 0.35084695 -0.3717872 -0.18696405 -0.25094542 -0.26490775 -0.23293121 -0.29796275 0.34492743 -0.36642942 0.33562115 -0.25168654 0.47445124 0.29211563 0.023565806 -0.56779706 0.27507734 -0.2996672 0.13976184 -0.086484514 -0.43255708 0.3500661 0.122930214 -0.37831897 0.64690083 0.12823428 -0.51478106 0.47142407 0.25940236 -0.32915816 -0.15926701 -0.17255479 0.13157466 -0.54188764 -0.13121745 0.31239215 0.12749602 -0.036521 -0.26512825 -1.0796125 0.03792343 0.256264 -0.22525378 0.04026279 0.4460211 -0.021364678 0.17548414 0.06469029 -0.56322706 0.5501519 -0.5805434 0.6114689 0.03227477 -0.13784827 0.14549209 -0.058145612 0.60955983 -0.41916054 -0.07924533 -0.7273846 -0.3900848 -0.3585217 0.30020243 0.03648274 -0.025785513 -0.81670094 -0.28543296 0.16424985 -0.25207356 0.0655091 0.23780024 0.46206668 -0.077203624 -0.24264812 -0.49196178 -0.64240485 -0.14526984 -0.537269 -0.12037567 -0.19660224 0.24098332 0.22425915 0.39120755 -0.63843334 -0.31289002 -0.2887333 0.66369545 0.23216264 -0.7330373 -0.20777401 -0.20646463 -0.09768516 -0.22781932 0.24200945 0.51839006 0.21115266 -0.22253785 0.07549769 -0.47173348
804 -0.34868187 0.37786573 0.14483072 0.051348295 0.5812215 0.009760882 0.33979422 0.26672715 -0.13758963 0.0957077 -0.0823119 0.16160396 0.78965366 0.36062402 0.4080202 0.16646421 0.2348697 0.3468236 -0.42051944 -0.15571234 -0.4896627 -0.08918247 -0.1496723 0.5100179 0.072344236 0.04269311 -0.19819689 -0.5060517 -0.06859639 0.9529752 -0.00907285 -0.38977885 -0.10986724 0.23712198 0.2959667 -0.08625967 -0.4578311 -0.16783212 -0.41476017 -0.13206005 0.21330002 0.3886672 0.49305364 -0.34604114 -0.017263133 0.25701004 -0.83956105 -0.3864327 -0.5215587 -0.67483306 0.011229046 -0.06903948 -0.08513188 0.08840722 0.18581554 -0.30611643 -0.4587571 -0.5323936 -0.21766894 -0.11131698 -0.04880261 0.107334845 -0.8565516 0.117593035 -0.22044349 0.20476764 -0.39722624 -0.17139372 -0.92849714 -0.42277884 0.26003292 0.059400387 -0.37243837 0.569512 -0.28495565 -0.21221894 -0.09111908 -0.41572526 0.34455052 -0.06538772 -0.30314678 0.023862716 -0.00061795826 0.16032882 -0.23288175 0.26013526 0.15875377 -0.41740742 -0.017947827 0.43730965 0.2221724 0.12450336 -0.8497699 0.061262283 -0.19940479 0.35678044 -0.121205755 -0.42598334 -0.48685578 0.02166224 0.28074226 -0.315887 0.14730747 0.108677045 -1.0731035 0.12770368 -0.70240104 -0.76570415 -0.2584412 -0.00095509 0.60486054 0.17168449 0.034312844 0.0634772 0.30803198 0.31952193 0.37511218 -0.23646054 -0.6081461 -0.42612422 -0.29417515 -0.29549107 0.94965726 0.29395455 0.33036134 0.0554061 0.54660213 0.13647047
