558 128
97 0.052509494 -0.14481057 -0.21534769 0.45763168 0.32819167 0.0976847 0.106095254 -0.01920973 0.07261822 -0.05219307 0.6242024 0.18552414 0.35474226 -0.60874295 -0.007193405 -0.22608037 -0.14201441 0.049232334 -0.10541343 -0.39786282 0.4504553 -0.22324067 -0.51473564 0.13903128 0.019113574 0.4760645 0.16397965 -0.17823385 -0.30374524 -0.060856834 0.3614117 0.34006792 -0.3376212 0.39100942 0.36229035 -0.14531568 0.19292821 0.04640506 -0.256695 0.094490394 0.158284 -0.11146289 -0.46436203 -0.43811926 -0.46051702 -0.48847088 0.40273687 -0.52581143 -0.37814873 0.020840477 0.50488096 0.31318158 -0.30449075 -0.5710877 -0.6059633 0.2114048 0.5779164 0.20929888 0.36739904 0.3860957 0.29619446 0.16673401 0.33516228 0.038547125 -0.2697588 -0.033949032 -0.031602245 -0.4147811 0.10479987 -0.38576695 0.06837338 -0.10470386 0.032276902 -0.07654252 0.24518265 0.3849338 0.56450975 -0.10251946 -0.52446216 -0.4806935 0.2695632 0.030919405 -0.26707056 -0.67554075 -0.4725431 -0.098490246 -0.21718194 0.14204581 -0.15809177 0.13398059 0.30076623 -0.3510095 0.36877313 0.41235894 0.33785108 0.18457533 0.669255 -0.33313322 -0.1386135 -0.0017169997 0.11195921 0.37995392 0.24569353 0.29874083 0.5126252 0.08872607 0.35416186 -0.00531494 -0.2247342 -0.32880005 -0.8487017 -0.4792185 -0.19049284 -0.7722307 -0.3656378 -0.055661153 -0.31708592 -0.40623352 -0.27969992 -0.54649764 0.14729053 -0.15061055 -0.5352181 0.016583256 -0.20516829 0.34233388 0.0008145597 -0.39862344
132 -0.11227969 -0.064445496 -0.34301564 0.60152084 0.37583277 0.06787146 0.11437601 0.123863265 0.22622676 -0.059922963 0.7459705 0.20893683 0.40589744 -0.57999367 -0.0033940051 -0.13816176 -0.19676892 0.15789019 -0.09492404 -0.36340624 0.4239013 -0.39483422 -0.23836724 0.27310044 -0.002572557 0.49917588 0.07426277 0.040695794 -0.2078349 -0.02821014 0.3963964 0.36597365 -0.31527886 0.46748248 0.40458426 -0.039148882 0.07210222 -0.0029476262 -0.17929517 0.10842004 0.22463237 -0.00039481506 -0.48053992 -0.22061378 -0.5806343 -0.56782824 0.3317123 -0.6472914 -0.24108867 -0.009787922 0.40977332 0.2774526 -0.20909925 -0.5666892 -0.6022562 0.13098136 0.5348365 0.22513977 0.39776608 0.42786184 0.2501864 0.0742329 0.33820796 0.0063625835 -0.2883915 0.10257442 0.02966837 -0.3030214 0.042842146 -0.39489743 0.13822438 -0.11577921 0.10150532 -0.30046946 0.2100816 0.37790883 0.33741513 -0.14308622 -0.57513374 -0.38306892 0.40842575 0.03805333 -0.25538993 -0.76873755 -0.3036773 0.005014488 -0.1739993 0.05887821 -0.17791021 0.123288676 0.5676188 -0.24177046 0.4717203 0.4464824 0.3912971 0.118371114 0.7373353 -0.23004855 0.018228944 -0.021864306 0.17867868 0.30263504 0.41728196 0.33649415 0.33469805 0.023045985 0.3319474 0.01638423 -0.4888188 -0.31997576 -0.8984978 -0.40532437 -0.43567643 -0.72802836 -0.40759665 -0.033665393 -0.19888914 -0.2971771 -0.23710261 -0.61944085 0.046513755 -0.124679334 -0.5435312 0.15711823 -0.28025055 0.35580277 0.2299947 -0.4481671
178 0.0051141367 -0.37549204 0.008465416 0.4291942 0.35484394 0.08941 0.08486902 0.037067566 -0.04435862 0.03764546 0.6470219 0.16525267 0.33043924 -0.63858587 -0.20706756 -0.40445143 -0.17905599 0.18274346 -0.08556186 -0.42771915 0.46285665 -0.2637037 -0.26624814 0.0953621 0.16795272 0.50897 0.10572664 -0.095540375 -0.46410343 0.06953588 0.49235833 0.30065545 -0.4951297 0.48665416 0.38609344 0.0027526326 0.17245327 0.09375534 -0.16692537 0.12954463 0.099386424 -0.24068184 -0.25798383 -0.32704073 -0.517859 -0.47042128 0.31167287 -0.51781154 -0.34928337 0.16183516 0.5741307 0.36639 -0.3393388 -0.52599734 -0.59975636 0.20808573 0.6491902 0.29983023 0.44598636 0.43622562 0.30981523 0.06754681 0.25911683 0.061506536 -0.26909646 -0.13331406 -0.017498508 -0.43058935 -0.0075506996 -0.5388911 0.11135054 -0.23878372 -0.01545457 -0.18468724 0.2133663 0.43745005 0.5205187 0.019773146 -0.5575841 -0.4540379 0.41609535 -0.043684006 -0.3419241 -0.7148943 -0.2462713 0.06121523 -0.16892573 -0.0021589887 -0.15719773 -0.03532695 0.4411179 -0.5822196 0.43805405 0.21528326 0.32306263 0.13278387 0.5640351 -0.15860607 -0.15581423 -0.10426134 0.16053051 0.21918112 0.3370074 0.2641702 0.47495738 0.2822876 0.40066144 -0.08576226 -0.224595 -0.35387304 -0.7804542 -0.6304853 -0.30088007 -0.736141 -0.40139404 0.128238 -0.18845962 -0.50634295 -0.3368018 -0.5947976 0.14902623 -0.1519504 -0.57414454 -0.08417178 -0.30895388 0.31221557 0.10459176 -0.40600774
190 -0.033061888 -0.2774367 -0.26233825 0.6420594 0.36679658 0.2206501 0.028864857 0.13012746 0.10110608 -0.15650272 0.66402555 0.23156618 0.41776943 -0.65808064 -0.10377064 -0.19266473 -0.1106277 0.15041438 -0.15933666 -0.38468817 0.5359576 -0.33230105 -0.29924121 0.13600527 0.10784962 0.44601542 0.20910735 -0.058370844 -0.25315523 0.023003044 0.4899574 0.17682135 -0.36772513 0.46964702 0.373572 -0.12009805 0.2297503 -0.04264735 -0.12753779 0.20912845 0.21524797 -0.15209417 -0.27948532 -0.30965927 -0.5498178 -0.4682159 0.2323541 -0.39820552 -0.29022926 0.30702353 0.66504586 0.32386866 -0.25313535 -0.47805816 -0.56313103 0.20295402 0.719137 0.15564138 0.40104052 0.3567484 0.2603252 -0.014527611 0.41230708 0.09592327 -0.2968334 0.02247892 -0.10476894 -0.36419338 0.09722903 -0.57680404 0.07271254 -0.24256106 -0.022220967 -0.28020942 0.17273153 0.53676814 0.5081021 0.08380247 -0.60955197 -0.5930445 0.28447115 0.07855681 -0.2784078 -0.7078878 -0.14837664 -0.06780353 -0.2489903 -0.0609463 -0.24553774 0.008703717 0.5879645 -0.4320269 0.4901952 0.36654037 0.48583427 0.1930471 0.62602156 -0.3327349 -0.0858926 -0.038601626 0.07966312 0.2143344 0.3991818 0.14790845 0.3955432 0.077242136 0.25833946 -0.027276482 -0.20192961 -0.30428937 -0.7879504 -0.5144991 -0.28078547 -0.86613584 -0.53046966 0.27524215 -0.026053606 -0.36013657 -0.38815832 -0.59082645 0.17700516 -0.21833797 -0.3919873 0.11050057 -0.3413107 0.21580335 0.16890526 -0.47864616
191 -0.0326936 -0.3433265 -0.23507456 0.57596296 0.3994656 0.12590365 0.1448252 0.05254744 0.14998978 -0.20947225 0.71333474 0.3194594 0.3952306 -0.66345197 -0.039422225 -0.21200177 -0.16820827 0.1985451 -0.06407575 -0.33503503 0.46015915 -0.2859299 -0.19131576 0.2930137 0.13467753 0.51306194 0.038953554 -0.014882181 -0.3477265 0.10294482 0.45300415 0.36436182 -0.42879376 0.5111173 0.33420923 -0.038989376 0.17957754 0.13875958 -0.14125142 0.17545 0.20289728 -0.07387708 -0.28749308 -0.27011043 -0.5458302 -0.42775938 0.22942257 -0.48673183 -0.2999464 0.21187456 0.6237705 0.4364602 -0.29747662 -0.54188967 -0.5177559 0.2479489 0.55431396 0.31974122 0.33818662 0.3170256 0.19629174 0.008585709 0.42053795 0.15637338 -0.41146463 0.021070031 -0.12632489 -0.37378076 -0.01678426 -0.53266203 0.16451037 -0.16345501 -0.012718138 -0.19936785 0.16997181 0.50172263 0.41868237 0.0609913 -0.5204712 -0.6473488 0.25575373 -0.015347011 -0.3413145 -0.6409048 -0.17811212 -0.109355174 -0.22782901 -0.12015385 -0.14732905 -0.029058201 0.7183347 -0.5559972 0.3660494 0.27572355 0.4982626 0.21039608 0.6408897 -0.26374182 -0.23723815 -0.14699556 0.1025375 0.04649215 0.35683978 0.3023539 0.23240092 0.061670654 0.27694952 0.017811637 -0.29318145 -0.36422738 -0.8776707 -0.52423626 -0.18145896 -0.787111 -0.4748974 0.24964936 -0.14451294 -0.31680456 -0.52936924 -0.5146555 0.06993304 -0.21527375 -0.5249815 -0.021886436 -0.27520102 0.2327962 0.20115244 -0.5162126
192 -0.14359783 -0.36649698 -0.17662418 0.6578047 0.43823949 0.14006448 0.12883471 0.07211654 0.20404838 -0.3307731 0.85459477 0.349213 0.54050136 -0.71048033 -0.16217896 -0.33631986 -0.27695137 0.241298 -0.13891715 -0.42895973 0.55256665 -0.282582 -0.21061046 0.073751636 0.16950792 0.50443757 0.23614703 -0.1713634 -0.39740178 0.17780484 0.49069437 0.4027034 -0.42231283 0.44145045 0.43272877 0.01846347 0.18519416 0.1666152 -0.15987109 0.17283383 0.27230075 -0.12480642 -0.30169687 -0.32248786 -0.5574227 -0.30552503 0.2006056 -0.56941926 -0.2587661 0.24473995 0.5703794 0.4390421 -0.26550972 -0.52621543 -0.5781653 0.2718791 0.5817435 0.23311093 0.31290174 0.2972642 0.18549778 0.055293825 0.48018888 0.2387412 -0.44443524 0.07681742 -0.0718855 -0.33023894 0.09310136 -0.5871175 0.22783881 -0.23897691 -0.027329154 -0.16600205 0.09484679 0.4787167 0.3471058 0.14478841 -0.53735566 -0.6491361 0.23949651 0.08020492 -0.34975863 -0.6633894 -0.12343635 0.01138168 -0.19180995 -0.1172091 0.029758893 0.005243453 0.55884916 -0.62728834 0.45182174 0.18235272 0.47241804 0.23895273 0.5879238 -0.2584749 -0.16220632 -0.15806654 0.14001432 0.070115454 0.24467361 0.14824747 0.34525806 0.1869656 0.31293148 0.09669877 -0.2464971 -0.26224485 -0.9700671 -0.51789105 -0.21567033 -0.785083 -0.4524731 0.24460457 0.031662155 -0.37094152 -0.6736649 -0.61194474 0.0799241 -0.30613926 -0.46745303 -0.040507823 -0.21526806 0.27308753 0.049979303 -0.520925
193 0.057159852 -0.48578852 -0.26193285 0.5434778 0.4930875 0.08225089 0.10755461 0.22344097 0.20327409 -0.21181048 0.8189295 0.33964163 0.25859594 -0.6199995 0.047580857 -0.23905964 -0.03291844 0.14154094 -0.05324503 -0.5083309 0.4431004 -0.5003753 -0.10196835 0.023574574 0.23185158 0.44941825 -0.04634109 -0.117204934 -0.32667103 0.2740245 0.5198957 0.1907248 -0.36609304 0.37414274 0.43381798 0.0061107753 0.23026422 0.049831957 -0.029035136 0.053175237 0.34498003 -0.24424733 -0.32067636 -0.26192078 -0.61750776 -0.3395678 0.21701004 -0.47722706 -0.19644403 0.11541 0.59270126 0.4346592 -0.3063544 -0.4310828 -0.7901209 0.10009497 0.6548748 0.24334356 0.21348026 0.20243362 0.08769263 -0.09764011 0.42612296 0.2017373 -0.4641427 -0.15132405 -0.278635 -0.31416526 -0.029064933 -0.674053 0.34648702 -0.08775573 -0.09132085 -0.120886855 0.09884575 0.55044156 0.5209651 -0.0003696482 -0.7377732 -0.6907506 0.3563558 0.08530188 -0.28650203 -0.552497 -0.033506878 0.05807777 -0.22843441 -0.098596804 -0.007933456 0.0046418 0.6600279 -0.56634355 0.44480336 0.2966701 0.401878 0.25575376 0.68246734 -0.116480514 -0.13989435 -0.05469249 0.18549353 0.16024451 0.344987 0.1778584 0.2294155 0.10010669 0.48819512 0.0005549239 -0.06654184 -0.20182018 -0.8856188 -0.57876754 -0.18386754 -0.70303065 -0.39438474 0.25621668 0.082685314 -0.5257717 -0.5113164 -0.6531437 0.040315732 -0.32744017 -0.4957462 -0.046977136 -0.2809271 0.24684165 0.27524778 -0.6251089
194 -0.057263047 -0.6327058 -0.088144876 0.43453905 0.3275356 0.03485905 0.24587643 0.14202292 0.25718758 -0.34698904 0.80692995 0.15741797 0.3966461 -0.5863191 0.1631506 -0.18543334 -0.12395305 0.22289038 -0.09557336 -0.49063858 0.49149632 -0.6319053 -0.22260469 0.15700348 0.20516704 0.75191724 -0.029926887 0.0157521 -0.4523506 0.19026297 0.4714422 0.08456443 -0.4822997 0.43265298 0.33681738 -0.21858644 0.048797097 0.06040434 -0.1434485 0.083209306 0.36049125 -0.11697982 -0.21720004 -0.21726552 -0.7126623 -0.48667324 0.37162304 -0.37156323 -0.11109908 0.3047817 0.52417576 0.5864881 -0.11526005 -0.3594413 -0.6512278 0.2798073 0.7450316 0.22534221 0.27976936 0.08235595 0.09359517 0.015655894 0.26884687 0.32805598 -0.4321095 -0.02116517 -0.12676905 -0.26791912 -0.022642544 -0.5288321 0.26198834 0.05245282 0.04161636 -0.25937355 0.14876093 0.3082689 0.46143028 0.17731906 -0.65989536 -0.77241117 0.24002664 0.109014355 -0.4467355 -0.63723063 -0.07019808 0.005052745 -0.30945966 -0.2206114 -0.13386302 0.14444748 0.64284426 -0.7253743 0.28044394 0.42731184 0.26122668 0.092921995 0.69022626 -0.21815564 -0.26311597 -0.087472275 0.1262765 0.19577222 0.3721413 0.30216345 0.39383727 0.23592004 0.4149859 0.14348565 -0.09573814 -0.2400628 -1.0301841 -0.46974415 -0.26279402 -0.8560089 -0.2680674 0.41971537 -0.03735594 -0.32125625 -0.46271092 -0.58801055 -0.011486065 -0.16900092 -0.36507577 -0.007519802 -0.35236838 0.40531242 0.50978565 -0.340697
195 -0.017970158 -0.24966751 -0.35699224 0.46582797 0.4233001 0.16996995 0.30044428 0.0035417597 0.17241059 -0.45605296 0.6501723 0.31649286 0.42165878 -0.683679 0.13744274 -0.318986 -0.17810687 0.17180324 0.12157801 -0.6835124 0.3949162 -0.34815595 -0.19489111 -0.02183989 0.023879282 0.36852062 -0.079658836 -0.1598159 -0.15181643 0.07718614 0.4551437 0.2084487 -0.4060093 0.3829637 0.540925 0.10447575 0.2688582 -0.17031634 -0.20418328 0.13181488 0.3101441 -0.2698873 -0.39563257 -0.3463376 -0.51183933 -0.48438245 0.2917203 -0.5924842 -0.024659764 -0.017340556 0.4239332 0.5362587 -0.11341689 -0.41222006 -0.6390598 0.2174015 0.5591387 0.20911017 0.3556588 0.14535798 -0.024251197 -0.039812583 0.46420804 0.3145416 -0.4977627 -0.047896978 -0.26739633 -0.05124306 -0.017035658 -0.65298074 0.4021606 -0.14738649 0.05923501 -0.15691142 0.122810274 0.30408207 0.40786296 -0.019415658 -0.90834624 -0.81394535 0.35435265 0.035593282 -0.34116742 -0.55961317 -0.115787044 -0.04490586 -0.32551315 -0.14899942 0.058850918 0.15495357 0.773205 -0.6058738 0.5292136 0.2096481 0.4478857 0.2896843 0.8811884 -0.031967293 -0.11715157 0.08931028 0.2139449 0.21670003 0.35096928 0.24149524 0.2481139 0.24500173 0.16346139 -0.01851173 -0.3376991 -0.21464156 -0.7986221 -0.42708012 -0.076232076 -0.73468393 -0.37918285 0.2539422 -0.14592336 -0.44230595 -0.5330695 -0.65494734 -0.032684896 -0.17293537 -0.4265445 -0.13819878 -0.22908431 0.27395287 0.38540804 -0.4627917
196 0.13892652 -0.3233279 -0.12001191 0.31517515 0.37630272 0.023852868 0.12326145 0.2740106 0.26878506 -0.34074578 0.6149153 0.16752502 0.2713714 -0.51212245 0.13853823 -0.2716832 -0.34342965 0.094033875 0.12541018 -0.84449476 0.45438743 -0.20639999 -0.25355887 -0.07108604 -0.050699703 0.4852824 -0.043557096 0.020592786 -0.22992471 0.30043092 0.39652884 0.2028384 -0.53162485 0.17183027 0.32079262 -0.15868782 0.2531303 0.052163213 -0.31820405 0.14879009 0.35715693 -0.19679521 -0.39482164 -0.2855645 -0.5707606 -0.48198867 0.32869798 -0.45075765 0.07355895 0.088380925 0.47481915 0.35618305 -0.21715471 -0.55980664 -0.5877803 0.124323435 0.78183854 0.16081601 0.15348998 0.10427289 -0.072748326 0.2150293 0.56357056 0.25374913 -0.34110194 -0.06417952 -0.38703555 -0.14726919 -0.10827863 -0.46612003 0.31792593 -0.031535666 0.108162895 -0.15982619 0.16004218 0.22838527 0.41387376 0.10852933 -0.58264303 -0.65914756 0.25689718 0.12028495 -0.44663686 -0.815544 -0.09058059 -0.13762422 -0.41618258 -0.24087292 0.05112629 0.17893742 0.45407715 -0.5405749 0.5060403 0.47794417 0.30535427 0.15737483 0.8536316 -0.050975733 -0.11493969 0.17180876 0.03231713 0.3146374 0.3954659 0.32373226 0.3436745 0.24796128 0.34008962 0.29570788 -0.25860763 -0.33545777 -0.93131524 -0.3970151 -0.10115104 -0.6510147 -0.16700026 0.14497696 -0.21604644 -0.4665257 -0.45991164 -0.504852 0.0020278455 -0.1756202 -0.5376843 -0.009229154 -0.14309523 0.3772534 0.55327684 -0.38544217
312 0.15803339 -0.33630055 0.10764265 0.19285691 0.22990078 0.1156708 0.0035964174 0.2450545 0.23687343 -0.44949958 0.3214357 0.14271614 0.28214097 -0.33498213 0.19309916 -0.35589516 -0.2992488 0.091074854 0.1674265 -0.8479432 0.5945357 -0.4181717 -0.20616825 -0.155487 -0.20172983 0.39980087 0.041906595 0.042655434 -0.28389722 0.13746735 0.22845134 0.23358263 -0.56023914 0.22294655 0.3552633 -0.06443292 0.21616314 0.03823315 -0.39722416 0.23986863 0.17029686 -0.02968348 -0.287964 -0.43969086 -0.5393661 -0.5026768 0.31890786 -0.5413908 0.15452947 0.2080478 0.3845682 0.37140596 -0.17224132 -0.70851415 -0.3699508 0.29992184 0.8962101 0.12549706 0.22346336 0.18479162 -0.086666815 0.33676082 0.65245724 0.29728344 -0.26467448 -0.116062894 -0.41842642 -0.09485013 -0.10468503 -0.37302542 0.31072128 -0.00841015 0.05228276 -0.042492323 0.15138258 0.12535694 0.36433753 0.1309462 -0.6319813 -0.693917 0.22548217 0.22434711 -0.42634365 -0.71095794 -0.121071 -0.2189106 -0.5223922 -0.29159895 0.036489524 0.22309549 0.48754734 -0.4892492 0.38502416 0.53674805 0.32451424 0.16859542 0.80002356 0.065024175 -0.26823384 0.20680796 0.046448134 0.38692707 0.43115622 0.28466052 0.4623675 0.29490966 0.31568128 0.33036998 -0.3657419 -0.36284435 -0.977691 -0.30445218 0.05648584 -0.5832697 -0.12913862 0.20228697 -0.25749287 -0.4273363 -0.42641082 -0.6035843 0.032602146 -0.21768922 -0.41065058 -0.17376193 -0.09194675 0.43355477 0.5012687 -0.42817754
313 0.2616621 -0.18894769 0.016963476 0.20577121 0.4124297 0.15513393 0.07791393 0.24759454 0.173658 -0.35747567 0.37855926 0.11141725 0.3066021 -0.5469919 0.22751737 -0.36564368 -0.3421237 0.052375976 0.16845678 -0.9588568 0.50461566 -0.32512185 -0.36272898 -0.1289589 -0.2191239 0.3572038 -0.094286814 -0.043862827 -0.2447474 0.232297 0.14935954 0.3196124 -0.39098266 0.10505144 0.32219929 -0.070468955 0.2210545 -0.012882374 -0.37373868 0.21250953 0.2222965 -0.1369593 -0.4904983 -0.43512094 -0.5894427 -0.47135743 0.39082745 -0.4971421 0.1507815 -0.058946747 0.2407977 0.42910403 -0.19072914 -0.64589065 -0.40474972 0.33090496 0.8134892 0.048230223 0.25008845 0.09223052 -0.13533103 0.29052433 0.5754821 0.26238304 -0.2487809 -0.08004985 -0.49353957 0.005950206 -0.032253716 -0.3534796 0.25528896 0.034170352 0.061043918 -0.064088605 0.13175288 -0.010752031 0.4293737 0.071750335 -0.70907235 -0.6561722 0.26271218 0.21638866 -0.46044716 -0.64169705 -0.22411348 -0.15970261 -0.5734837 -0.20780453 0.07534638 0.21578059 0.42092782 -0.42809868 0.38221315 0.45370084 0.2641353 0.11285572 0.7894149 0.1422133 -0.32726383 0.29095078 0.03777235 0.43130937 0.38980675 0.423757 0.3673455 0.39315677 0.20219457 0.31554914 -0.42310685 -0.3808632 -0.9729581 -0.2626016 0.061865337 -0.49431974 -0.10430085 0.106956095 -0.31642136 -0.45164597 -0.32470244 -0.5760552 -0.15686148 -0.17135641 -0.4024656 -0.09941856 -0.13692445 0.4467671 0.46415445 -0.4376193
331 0.055536266 -0.050796434 0.085484564 0.2049172 0.26389402 0.08486524 0.06768277 0.1590177 0.1618121 -0.18245848 0.42900467 0.09971161 0.4544851 -0.32315308 0.15028165 -0.5388218 -0.39924827 0.03275905 0.15121678 -0.8857952 0.37656617 -0.42687917 -0.15757178 -0.14854333 -0.23966664 0.37550625 -0.19285545 0.14654098 -0.37293065 0.028926374 0.10659619 0.1600922 -0.5473757 0.40244055 0.48239887 -0.091435425 0.03783477 -0.05876219 -0.24423447 0.2843219 0.036025032 -0.09585753 -0.33388212 -0.29685116 -0.6120374 -0.59549916 0.3635201 -0.5592799 0.24200265 0.06548922 0.351689 0.34246433 -0.13684449 -0.5904467 -0.3644653 0.26239604 0.8582381 0.08311034 0.3930527 0.2681492 -0.2514879 0.29166153 0.47393745 0.21392459 -0.13019733 -0.015198419 -0.34956086 -0.02038492 -0.06141823 -0.34348524 0.5155544 0.01625187 0.058689278 -0.17738488 0.15165213 0.053269837 0.31858167 0.041021362 -0.573693 -0.54508907 0.5133132 0.27795693 -0.47627917 -0.79224426 -0.22201318 -0.050929993 -0.42642844 -0.18158275 0.06785634 0.16712399 0.5028234 -0.41362366 0.46211284 0.506496 0.16157287 0.04209915 0.66617167 0.343132 -0.080162555 0.2018836 0.03622936 0.40342712 0.57585645 0.39682955 0.4029207 0.4507787 0.34622383 0.30850145 -0.45824873 -0.43681514 -0.9574092 -0.24238952 -0.11398383 -0.33932525 -0.05905376 0.10678822 -0.33630577 -0.42596135 -0.24450727 -0.6918815 -0.017053802 0.010440543 -0.4272781 -0.085369475 -0.25588572 0.5727351 0.51391625 -0.3093041
334 0.18955812 -0.2981793 0.10443833 0.17706688 0.4167639 0.2798919 -0.08163706 0.43672004 0.11531635 -0.3612664 0.25262362 -0.04572523 0.3056544 -0.44857392 -0.0076197567 -0.38487506 -0.3052075 0.1621081 0.12646565 -1.0363615 0.49150074 -0.42146674 -0.43178472 -0.22846526 -0.15001684 0.46007788 0.14106674 -0.09041732 -0.41266376 0.3495358 0.1692612 0.18790306 -0.45661503 0.088135466 0.31843024 -0.030911392 0.31149387 0.01095465 -0.3926326 0.3384534 0.26579866 -0.26496562 -0.4348845 -0.4526159 -0.5785168 -0.48146313 0.39219162 -0.49472687 0.1517527 0.18278116 0.27411172 0.35361552 -0.10779038 -0.5817225 -0.41344327 0.18241656 0.84687376 -0.015191393 0.32270503 0.0868431 -0.043498598 0.3308339 0.50705165 0.11480238 -0.08475515 -0.055877596 -0.3516833 -0.06619735 -0.04623129 -0.25705373 0.29607236 -0.21205114 0.11342826 -0.12940213 0.0896116 0.06078065 0.55230474 0.14639147 -0.75555944 -0.57685375 0.251252 0.16440628 -0.38471067 -0.72018194 -0.26521572 -0.026373645 -0.5646369 -0.18079071 -0.01938336 0.15410624 0.146161 -0.50335854 0.49974027 0.5442693 0.24601899 0.04021718 0.71252525 0.16260758 -0.22470208 0.28775957 -0.022655997 0.46515816 0.47651556 0.4008945 0.5768333 0.541868 0.33129936 0.22035405 -0.36745283 -0.3752037 -0.8675484 -0.27193022 0.013631425 -0.5016939 -0.12500438 0.12692861 -0.3140469 -0.40916923 -0.2337963 -0.6155959 -0.06990961 -0.092150114 -0.2720243 -0.083716065 -0.11579861 0.41420192 0.32178077 -0.39519614
521 0.12930383 -0.091176696 0.20055217 0.24734758 0.39027804 0.06751423 0.021966837 0.47244978 0.3244298 -0.26607963 0.24788968 -0.13548851 0.3466703 -0.25148115 0.013686099 -0.27070218 -0.23916528 0.082664676 0.115481526 -0.9370468 0.3621144 -0.43184367 -0.3050185 0.027700445 -0.33648527 0.5657766 0.09766739 0.10809063 -0.44512585 0.2537128 0.09719076 0.23986177 -0.57280517 0.3139426 0.3793002 -0.06865 0.13173501 -0.11345695 -0.30627254 0.3005568 0.28133187 -0.16953258 -0.46951136 -0.35373917 -0.6673443 -0.6200675 0.3496738 -0.34888572 0.32368398 0.16747177 0.47621977 0.27413914 -0.13569666 -0.47789407 -0.46351987 0.12238952 0.7719185 0.17672108 0.17378783 0.20952487 0.035816487 0.25155357 0.54019254 0.22579552 -0.081136845 -0.04542308 -0.51476866 -0.23565166 -0.07785921 -0.36877364 0.31781092 -0.04751503 0.14896703 -0.12705056 -0.04714017 0.19523506 0.49211577 0.03404222 -0.541548 -0.54104984 0.40745595 0.23795952 -0.34448907 -0.71457106 -0.17817234 -0.045475405 -0.55951893 -0.20162737 -0.07806759 0.17811355 0.3955729 -0.41427797 0.48436314 0.63246226 0.30047986 0.124123685 0.8076817 0.23935977 -0.22768278 0.06532246 0.034430645 0.27000168 0.57811147 0.44365683 0.19760138 0.28805816 0.23400106 0.30412155 -0.35540244 -0.36116552 -1.1063014 -0.23608175 0.021335194 -0.51757056 -0.06170692 0.048816353 -0.2949884 -0.40080658 -0.26361758 -0.69028765 -0.06245896 0.028850583 -0.4280939 -0.08998421 -0.17898871 0.41416898 0.49146318 -0.3251233
552 0.11536919 -0.06108126 0.080036305 0.22508293 0.29510024 0.14862804 0.0044152304 0.32122344 0.25454393 -0.36501148 0.2307192 -0.004649392 0.3733918 -0.2777294 0.17897071 -0.35578778 -0.18622845 0.096415386 0.13014226 -0.93999386 0.3707058 -0.50649977 -0.363633 -0.07571507 -0.22666475 0.43822822 0.041588005 -0.014971694 -0.38738015 0.119852014 0.09507467 0.16567539 -0.55261374 0.41605183 0.37327302 -0.089673884 0.1769248 -0.0023095054 -0.33865643 0.35914302 0.25289625 -0.13980317 -0.43265232 -0.4656038 -0.61240864 -0.68053216 0.34971812 -0.46300456 0.18176402 0.11483262 0.39005423 0.26634765 -0.16400065 -0.6341426 -0.3637198 0.14070854 0.74286264 0.21809418 0.3059437 0.28136125 -0.16396892 0.17463909 0.5126872 0.11646101 -0.06820911 0.03611255 -0.51960367 -0.13677162 -0.08489407 -0.15292932 0.4136409 -0.16969314 0.057340946 -0.08962035 0.06638751 0.31735212 0.5574881 0.0371535 -0.61524534 -0.58742464 0.27644172 0.23063155 -0.2852009 -0.63519305 -0.38555056 -0.03174348 -0.4756618 -0.124097444 -0.05212863 0.1939847 0.44717506 -0.47538415 0.43703666 0.522323 0.2953174 0.13297881 0.65830487 0.09626577 -0.13237755 0.09523521 0.0852154 0.25108457 0.48310646 0.4237045 0.39660892 0.33697298 0.3336664 0.117621705 -0.37384745 -0.4288357 -0.9209414 -0.16057426 0.07464864 -0.55096143 -0.12077034 0.00029457352 -0.44556332 -0.21344875 -0.29648465 -0.72125417 -0.051129695 -0.030258095 -0.4051424 -0.18588765 -0.064305775 0.4159665 0.28303888 -0.42242968
553 0.17453557 -0.131288 -0.0023604494 0.2221763 0.42733425 0.122037366 -0.02085145 0.34945804 0.21788603 -0.31906524 0.33868283 0.00032459735 0.3166638 -0.18083034 0.0683456 -0.4010901 -0.2636924 0.16497904 0.103183195 -0.903028 0.34778985 -0.4166377 -0.49080148 -0.07696396 -0.24245417 0.55513746 0.048185073 -0.17454329 -0.513241 0.28199944 0.09964806 0.21688642 -0.52434987 0.35765982 0.27682173 -0.14161688 0.2366632 0.11574607 -0.28346792 0.39159948 0.3432594 -0.29259303 -0.5131758 -0.56222606 -0.6306765 -0.5769998 0.29517052 -0.46514562 0.20639046 0.13327868 0.4815426 0.25173286 -0.066921376 -0.51289535 -0.37952384 0.13921016 0.5523232 0.24082837 0.26717103 0.20018542 -0.103502095 0.23190787 0.5745049 0.14817196 -0.14164838 0.13016663 -0.51076174 -0.1295742 0.01519904 -0.23302624 0.4544141 -0.2644734 0.06936747 -0.014249206 -0.027013533 0.44200155 0.76504576 -0.004038449 -0.6730699 -0.6029675 0.17891657 0.040180784 -0.2022767 -0.6534025 -0.44065186 0.012788526 -0.41436416 -0.115449876 0.14924549 0.12409406 0.32642797 -0.45225325 0.51299155 0.5104284 0.2960867 0.2024342 0.5654758 0.11362481 -0.07096359 0.022468349 0.16229038 0.21865262 0.48115423 0.5474563 0.3670007 0.30923304 0.30640802 0.06192893 -0.2838493 -0.3367114 -0.937273 -0.15988044 0.1662976 -0.498495 -0.10133503 -0.11463035 -0.411119 -0.22053324 -0.41753307 -0.61419904 -0.14337449 -0.007999617 -0.38549474 -0.17750579 0.013311179 0.3525996 0.2524497 -0.44645584
554 0.102733046 -0.11952556 0.17126045 0.17956121 0.30645955 0.046740294 0.08075747 0.38585106 0.32485822 -0.2883066 0.32024702 -0.11252786 0.30066058 -0.33483365 0.13617387 -0.3228002 -0.025665332 0.16544156 0.20065886 -0.80230033 0.4267399 -0.7402006 -0.40232712 -0.008401868 -0.2567455 0.6669208 0.13502328 -0.047690194 -0.37155634 0.24198774 0.22373264 0.15951754 -0.4612349 0.4775068 0.2974635 -0.123291425 0.17909285 -0.1774284 -0.30840573 0.081180796 0.36677793 -0.14188708 -0.6201774 -0.4432094 -0.72087914 -0.6164833 0.36677408 -0.5588296 0.21284108 -0.112167984 0.4052191 0.2982987 -0.097003475 -0.5115043 -0.5538847 0.12015778 0.52702564 0.23603484 0.0017022263 0.1740367 0.0759781 0.11969103 0.44599384 0.13468647 0.07558009 0.099812925 -0.4164173 -0.0556648 0.116183884 -0.22256023 0.37189326 -0.14792585 0.15337689 -0.1151043 -0.099604584 0.25540048 0.505876 -0.15631314 -0.7830182 -0.5960916 0.25484318 0.18661164 -0.26646876 -0.59876424 -0.2965446 -0.051292975 -0.51636916 0.044262767 -0.015667314 0.21410912 0.27744058 -0.46357483 0.5726044 0.55396116 0.36700848 0.17741932 0.60057443 0.08185687 -0.14629613 -0.038835566 0.257824 0.35297737 0.55916154 0.43804687 0.37197646 0.29938176 0.44254658 0.21112864 -0.35383758 -0.22145116 -1.209985 -0.3776453 0.0058616744 -0.6686757 -0.103805944 -0.091434516 -0.2494268 -0.38676384 -0.26674393 -0.77840394 -0.07232072 -0.07361155 -0.35186368 -0.24044465 0.021090576 0.42285666 0.19622982 -0.42774862
387 -0.12179184 -0.69979376 0.0059369677 1.0800242 -0.062304456 -0.41555217 0.638381 0.46385276 0.42551267 -0.013538785 0.7058737 -0.31189618 -0.15531464 -0.39423084 -0.08028062 0.30667126 -0.13518688 -0.24870405 -0.07229658 -0.49544942 0.03254659 -0.8440185 -0.15312727 -0.24141245 -0.122553006 0.28331777 0.30823413 0.21164042 -0.6752122 0.21948189 -0.07856848 0.21378289 -0.62227887 0.43587992 0.3714379 -0.28219944 -0.23114052 -0.35652435 -0.54229575 -0.13161385 0.55025846 0.051341005 -0.057808343 -0.022791777 -0.49474868 -0.32095718 -0.3287005 -0.6677056 0.3025839 0.44028482 0.4460168 0.14406379 0.63428795 -0.029498085 0.5322584 0.2775069 0.7652391 0.068776704 -0.2500787 -0.2955329 -0.0737898 0.2968514 0.07448363 0.55520535 -0.4390034 -0.35624382 -0.22886582 -0.69752204 -0.3682094 0.12191104 0.3789295 0.2112758 -0.4095873 0.34007066 0.16455834 0.31417572 0.2789668 -0.10030563 -1.263189 0.07904621 -0.25090325 -0.3382263 -0.23473585 -0.016336681 0.6434566 0.45295835 -0.17627338 -0.2797388 0.06434561 -0.46949482 0.7339324 -0.0932357 0.61186236 0.25708663 0.2668791 -0.20917517 0.26572594 0.05807366 -0.4989227 0.21604182 -0.34418947 -0.02281553 0.35928974 0.08070051 0.14948742 0.3590057 0.38320786 0.29616812 -0.34932545 -0.0138302585 -0.1805251 0.09827394 -0.041494004 -0.31045625 0.57123977 0.28413036 0.14129336 -0.18062842 0.059852988 -0.3596025 -0.13048516 -0.055606373 0.31658483 -0.70478886 0.20062628 0.3090168 0.2888993 -0.43479702
220 0.30751023 -0.056120187 0.14441372 -0.01417961 -0.0401928 0.26702145 0.18307777 0.18077539 0.18282725 0.21961811 -0.038290016 0.012873873 0.8970798 -0.31389987 0.18439229 -0.3168842 0.09540241 -0.2212901 -0.11744014 -0.3854682 0.52626836 -0.2895066 0.020651232 0.27188244 0.08860718 -0.05637106 0.21517475 -0.046462625 0.18721671 0.2990222 0.036307767 -0.008223962 -0.25894937 -0.12238504 0.64986116 0.11492039 -0.43374985 -0.70776635 -0.47123697 -0.06981435 0.00925373 0.028585436 0.060633797 -0.17391814 -0.97910476 0.5294878 -0.2033218 -0.4558773 -0.23356546 -0.6473523 0.13664234 0.34758094 0.16702731 -0.25157142 -0.1335992 -0.07037235 0.604005 0.66748 -0.17815597 -0.114730656 0.10635739 -0.30087858 0.13235947 0.09044118 0.11739463 -0.2811636 0.06927879 -0.46163106 -0.3503509 0.068158686 0.08598819 -0.21317728 -0.5551501 0.13906963 0.4061134 -0.28172678 0.38257954 0.46266955 -0.4482837 -0.10869264 0.12744117 -0.09990064 -0.021952521 -0.43677226 0.5723263 0.12916215 0.11193069 0.2687339 -0.04049305 -0.15884939 0.21229412 0.029659625 0.08652702 0.04090582 0.15265182 0.40888742 0.4639953 0.027451226 -0.17296062 0.27830887 -0.19712313 0.24105448 0.20469609 0.20502652 -0.41214865 -0.22166371 0.50940937 -0.33339065 -0.13963757 0.0050640227 -0.3088429 -0.40643305 0.5041395 -0.6376989 0.047579587 0.67537826 -0.15469433 -0.06145899 0.18724345 0.06394717 -0.4961834 -0.2799171 -0.7360683 -0.7670099 0.3182652 -0.22246452 0.13700666 -0.3379801
40 0.4046164 0.069779925 -0.19778179 0.12642309 0.23513074 0.18336311 0.058278043 -0.08446907 0.26280934 -0.03138391 0.90810865 0.24026099 0.24932262 -0.506444 -0.010612109 0.12824869 -0.19590601 -0.22199054 0.07020918 0.13768345 0.22479643 -0.43910637 -0.020104242 -0.4144593 0.10291319 -0.3147751 -0.53815675 0.5820445 -0.29413533 0.4148871 -0.21663854 0.3537586 -0.15480284 0.17911829 -0.17686513 -0.26506785 0.019675286 0.12550741 -0.2314104 -0.39443257 0.4524151 -0.22505543 -0.10727913 0.36833364 -0.3178727 0.09367149 -0.2008249 -0.08049109 -0.06526832 0.31303972 -0.03058588 0.2676314 0.34921798 -0.047888022 0.17316599 0.22995181 0.9624844 0.031217264 -0.025252631 0.09918323 0.009936906 -0.37843508 0.19750842 0.73382056 -0.29672715 -0.10378328 0.059738 -0.55718195 -0.41810587 0.078896895 -0.6433427 0.30708277 -0.01884252 0.020513076 0.3684713 -0.20956579 -0.06366688 0.7296641 0.27949002 -0.08714748 -0.008484279 -0.19323784 0.1365574 -0.20014861 0.4023352 0.19225197 0.208981 -0.16543718 0.014753654 0.27990764 0.30157375 -0.025219975 0.22934821 0.46819425 0.33676428 -0.12564473 0.39151412 0.1449043 -0.018254438 -0.09599456 -0.03549167 -0.04831936 -0.056752663 0.7685005 -0.16710411 -0.3304507 0.045454185 0.114381865 0.1502941 0.2263199 -0.5668678 0.008599995 -0.17158258 -0.34191594 -0.44229954 -0.23913169 -0.42700154 -0.12836516 0.27911958 -0.11108886 -0.43025878 0.16350871 -0.23555459 0.3887096 -0.3367191 0.31119072 0.44056138 -0.7433024
58 0.41962695 0.07371473 -0.22151808 0.14320768 0.15052247 0.16212101 0.05684009 -0.016723255 0.1869812 -0.1114414 1.0387623 0.25816464 0.30046225 -0.5303814 -0.013463626 0.23948616 -0.28543562 -0.25714228 0.010277018 0.17055275 0.26629302 -0.49484527 0.12128014 -0.40785167 0.16914964 -0.12382802 -0.6042912 0.5696638 -0.38614732 0.48167232 -0.24537754 0.27093676 -0.3288078 0.26701465 -0.27632615 -0.3768531 0.02055088 0.14461908 -0.30413532 -0.31447735 0.41793153 -0.27595574 -0.3145239 0.3426742 -0.28129634 0.10527721 -0.10070251 -0.051202774 0.03561059 0.24904779 -0.08179227 0.27758968 0.5035663 0.05255734 0.0906326 0.23972751 0.9332494 0.14211702 -0.013191466 0.0458559 -0.06698467 -0.33877105 0.17165384 0.8810395 -0.16703658 0.0063805217 0.15664092 -0.5296884 -0.33765703 0.041408192 -0.5546428 0.31523916 -0.0061435373 0.05123367 0.29958028 -0.08403745 -0.13262516 0.55283815 0.23144811 -0.16438764 0.035351627 -0.25091645 -0.013039959 -0.17701244 0.39200655 0.3753821 0.24878678 -0.07128962 0.015967403 0.2036196 0.21985686 0.12079793 0.11236655 0.402691 0.339492 0.071554475 0.33810815 0.0699727 -0.07223263 0.040708255 0.08614212 -0.19729091 -0.041253198 0.8270566 -0.12880032 -0.49738505 -0.036685377 0.068924814 0.14302868 0.25101924 -0.72625583 0.019340396 -0.12765762 -0.44902533 -0.46227884 -0.2959106 -0.50562453 -0.104859576 0.20136021 -0.03720456 -0.46677032 -0.0017477355 -0.35812113 0.40318695 -0.24484524 0.31255773 0.4313335 -0.66946805
59 0.34512725 0.094989374 -0.31307346 0.22864294 0.1927953 0.1837383 0.12961386 -0.016178286 0.15721 -0.20184103 1.1499703 0.17947032 0.39797524 -0.63143116 0.06917192 0.17304714 -0.26446828 -0.38875854 0.058963623 0.19463816 0.24450625 -0.45673972 0.13187565 -0.45661205 0.20031331 -0.14722635 -0.79960924 0.5354618 -0.39395565 0.61543894 -0.16239226 0.42638507 -0.31573358 0.14224173 -0.17164575 -0.25563192 -0.0022783366 0.22880638 -0.25665364 -0.33882025 0.47246167 -0.25947705 -0.2698997 0.28468367 -0.33960488 0.10158431 -0.18073542 -0.119993515 0.061809562 0.19139598 0.07368563 0.22280556 0.5335076 0.04653114 -0.09432358 0.25319734 0.89791095 0.11868337 0.09805541 0.04486331 -0.09867378 -0.278131 0.18525265 0.835838 -0.22748837 -0.028132072 0.15429911 -0.4929415 -0.35564867 -0.01747511 -0.48145986 0.36459088 -0.10522365 0.11541084 0.5069884 -0.057483166 -0.16429806 0.44264656 0.0783648 -0.12354255 0.06911633 -0.34385708 0.027315514 -0.17148323 0.5111826 0.45286998 0.2731016 -0.119629785 0.10053038 0.19657645 0.17924713 0.14772649 0.096448086 0.32449463 0.2847874 0.07723587 0.44950658 0.11278045 -0.07450586 0.128758 0.0524544 -0.253173 -0.033674266 0.7541512 -0.18092728 -0.34469238 0.047269613 0.18992925 0.1080657 0.22572505 -0.855743 -0.0032350463 -0.23132007 -0.3169154 -0.41614422 -0.23606506 -0.49929112 -0.18864411 0.21685357 -0.026858177 -0.48235637 0.10409752 -0.37421912 0.49851802 -0.288324 0.33358517 0.46637234 -0.64550334
60 0.35059515 0.0763356 -0.21417217 0.21369383 0.17454943 0.17495757 0.055261362 0.031329837 0.16652891 -0.089893185 1.0790449 0.1232192 0.5158617 -0.7867652 0.02749532 0.17749602 -0.13839436 -0.34648034 -0.0018244892 0.2199887 0.40658492 -0.49061874 0.16788156 -0.33041698 0.1905784 -0.25272188 -0.77590454 0.652559 -0.23562269 0.5251135 -0.147931 0.38566482 -0.5232857 0.23795995 -0.1506731 -0.2431543 -0.057520837 0.27612355 -0.17639516 -0.26374388 0.41170767 -0.277534 -0.18645455 0.27669147 -0.4265588 0.06374438 -0.12895823 0.018853001 0.12519227 0.20831348 0.037219394 0.14875886 0.47149646 -0.10975567 -0.07769835 0.24187407 0.9417272 0.21616776 0.23382089 0.13941726 0.051702112 -0.25295672 0.12169138 0.8769094 -0.20419481 -0.07692274 6.7738816e-05 -0.5354273 -0.3380074 -0.045626614 -0.67402315 0.22775519 -0.12229246 0.03951376 0.40163472 -0.14213185 0.037578247 0.54188436 0.15057638 -0.035513975 0.08022229 -0.28332496 0.024574775 -0.12801078 0.36972204 0.358118 0.33910012 -0.107246764 0.15365283 0.17068689 0.21784662 0.28116563 0.028895188 0.36216378 0.30421236 0.113055766 0.43482125 0.09417808 -0.08480144 0.23032387 -0.01962014 -0.079181075 -0.021730166 0.75517625 -0.16013247 -0.36315587 0.14589979 0.1702726 0.16348074 0.22617397 -0.8067194 0.049000964 -0.16593024 -0.38694006 -0.52931976 -0.21878302 -0.32168683 -0.07919131 0.2758114 -0.069653444 -0.47550893 0.06514004 -0.22564958 0.57806003 -0.20725085 0.25731242 0.5380534 -0.81110007
61 0.27551502 0.14511783 -0.28672203 0.13457473 0.08075494 0.2575984 -0.007166653 -0.008621969 0.10994905 -0.117547505 1.0826237 0.11313326 0.5645825 -0.8796898 0.14481477 0.026001062 -0.15754601 -0.33596784 -0.11298034 0.33523932 0.33247828 -0.3335571 0.37487537 -0.28289405 0.36358324 -0.19181491 -0.74061036 0.62466276 -0.17902952 0.5284205 -0.14487818 0.21607448 -0.35979506 0.15954077 -0.13320816 -0.39202258 -0.23057796 0.27793077 -0.28766692 -0.36169085 0.2964263 -0.42082405 -0.1334536 0.20376198 -0.41691756 0.15331262 -0.26836383 -0.13555053 0.35562912 0.13316919 0.1336182 0.16175751 0.67160654 -0.056911305 0.13380916 0.27030504 0.8604945 0.41576695 0.2262629 0.078527555 -0.07206858 -0.24202894 0.1757026 0.8529516 -0.15595923 -0.061924163 0.03533128 -0.51298577 -0.3032944 -0.013121818 -0.47118017 0.55713505 -0.19519408 0.09883864 0.46148747 -0.0048152194 -0.1727185 0.66797507 0.20531124 -0.07216641 -0.0745026 -0.11517938 -0.04404337 -0.126643 0.63334394 0.34994712 0.48407707 -0.067623265 0.095388144 0.22959684 0.26033106 0.34870395 0.12476801 0.33546814 0.32778883 0.21398988 0.3353337 0.11469899 0.06390306 0.1320157 0.025390986 -0.1750794 0.024904683 0.8246754 -0.34795654 -0.46883622 0.12268123 0.18619575 0.06974556 0.1176452 -0.8554102 0.12347297 -0.13158807 -0.3999034 -0.3844596 -0.26061592 -0.39896536 -0.028602447 0.3700805 0.066007264 -0.5246853 -0.06679744 -0.43985346 0.35027534 -0.14146891 0.2680287 0.57078075 -0.63449126
62 0.2990369 0.12137272 -0.3471676 0.25779024 0.18399435 0.17984855 0.001089958 0.061131854 0.24265379 -0.13776934 1.0561851 0.25853282 0.5950061 -0.61076635 0.10520449 0.1543533 -0.27158615 -0.33110234 0.016222531 0.12196996 0.4996601 -0.32557198 0.40036196 -0.3463306 0.23706494 -0.124192744 -0.73166555 0.6147369 -0.41191432 0.4998891 -0.13114488 0.28145927 -0.4729573 0.30237573 -0.112703115 -0.28444448 -0.16656566 0.47156525 -0.18698643 -0.18694614 0.29967442 -0.37991464 -0.334221 0.29396856 -0.41076928 0.0021015399 -0.21018492 -0.13464448 0.3410035 0.049801078 0.24061175 0.23076014 0.47148412 -0.08325101 -0.09805915 0.17842673 0.92247415 0.26125285 0.38133153 0.06869525 -0.063595556 -0.17351733 0.25564417 0.79896665 -0.17612463 0.015249747 0.013666824 -0.5189801 -0.506457 -0.092797175 -0.45449853 0.39288852 -0.22170128 0.052250784 0.39946866 -0.0105680255 0.1622335 0.5607525 0.1491101 -0.26707378 0.09854562 -0.102698095 -0.11578056 -0.45375493 0.43591926 0.2925216 0.48581257 -0.1444264 0.20941961 0.26613954 0.25854632 0.18387918 0.053779844 0.35204202 0.33755872 0.21748573 0.52661127 -0.023203397 -0.0070876637 0.16251163 0.0005455197 -0.044980533 0.08796499 0.8771838 -0.2786337 -0.35929543 0.265897 0.20950663 0.17842783 -0.06541054 -0.9430966 0.051951393 -0.011397666 -0.35572326 -0.6011498 -0.33511624 -0.46039906 0.009514582 0.1879261 -0.2685497 -0.4509226 0.1180012 -0.5197031 0.5321125 -0.15745582 0.43112764 0.86005026 -0.60415024
63 0.33080372 0.11132126 -0.20315349 0.13409767 0.15475821 0.2054634 0.13265692 -0.041474838 0.30772406 -0.12115721 1.1738789 0.21462186 0.65935534 -0.67920583 0.20192485 0.09998632 -0.24361633 -0.42117858 0.057729207 0.047799345 0.35430104 -0.45868576 0.24262513 -0.3509199 0.19139157 -0.08722906 -0.97216684 0.67021096 -0.07778648 0.5934834 -0.19251974 0.29743755 -0.33615673 0.17406791 -0.06776751 -0.3319192 -0.17787674 0.21432145 -0.22574042 -0.33159572 0.27277753 -0.10938941 -0.36933386 0.10683605 -0.5480758 0.09769028 -0.23055486 -0.14517237 0.3089183 0.15898839 0.21470426 0.27618805 0.54189044 -0.03955819 -0.030126058 0.31075272 0.8600755 0.28224126 0.2882586 0.018905915 -0.121383145 -0.027449967 0.31434605 0.7086512 -0.23060426 0.14429551 -0.046039894 -0.44457063 -0.51810074 -0.044574652 -0.4225674 0.35449576 -0.15692697 0.036735434 0.4798147 -0.14148623 0.14920703 0.48293546 0.034233402 -0.24492732 0.084739454 0.0034442418 0.15884718 -0.2724528 0.29009548 0.19707738 0.55525464 -0.23870198 0.38774994 0.5029667 0.17648627 0.52108175 -0.16630986 0.27344447 0.27384248 0.15099765 0.6254329 0.12551513 0.13724089 0.11242335 -0.079841524 0.0600939 0.16571733 0.8857698 -0.25150475 -0.27734646 0.2758632 0.05128219 0.068287544 0.06825177 -0.93649805 0.05707175 -0.076899104 -0.39630342 -0.6456611 -0.13346228 -0.44259962 0.07407494 0.29038218 -0.25744686 -0.4269159 0.08671001 -0.3309004 0.38116693 -0.23910221 0.38268948 0.6823746 -0.5646087
64 0.34015548 0.17160618 -0.39535448 0.22382887 0.03899274 0.12531729 0.010621056 -0.21302387 0.36867943 -0.1684511 1.2016774 0.16533823 0.61960346 -0.4301685 0.25887218 0.03824613 -0.44422346 -0.4510466 0.08267524 0.112011254 0.40910107 -0.5401925 0.2362781 -0.38297287 0.12925078 -0.035195258 -0.7560707 0.48423243 -0.17937578 0.53428024 -0.112408064 0.33236423 -0.39184 0.21300898 0.033307686 -0.3937462 -0.24072725 0.32158354 -0.2115546 -0.22634625 0.16702154 -0.1461771 -0.311147 0.16634639 -0.53461397 0.10425528 -0.32805032 -0.07026946 0.41284546 0.16340807 0.19194922 0.21747048 0.5888089 -0.049775716 0.21379648 0.30398938 0.8377041 0.45388663 0.29347146 0.050803024 -0.10571129 -0.04435717 0.35996744 0.693903 -0.29983997 0.15960687 0.056308236 -0.5038527 -0.46726087 0.051671542 -0.33980617 0.39602005 -0.3447425 0.001984614 0.47102097 -0.13391094 0.14402726 0.6170371 0.14861807 -0.316328 -0.05563814 0.07202687 0.11565506 -0.35326856 0.49487484 0.18861318 0.31662777 -0.22464003 0.4950733 0.41563243 0.2620127 0.3323656 -0.14116496 0.29335526 0.37953755 0.35439062 0.46129817 0.07199339 0.09283721 0.09295565 0.090541504 -0.11067142 0.18606278 0.89703566 -0.44300425 -0.2513637 0.13773373 0.055886697 -0.024573177 0.04514392 -0.87932736 -0.04087781 0.022867262 -0.3309156 -0.65675807 -0.07128845 -0.40804088 0.18622291 0.12112542 -0.2483637 -0.3562199 0.17501064 -0.4671359 0.50494426 -0.08158601 0.3744122 0.7521213 -0.5279308
65 0.37392685 0.22757201 -0.5386509 0.38970664 0.06682679 0.18622993 0.08324513 -0.18854623 0.43255943 -0.049613133 1.1302149 0.16181096 0.6897528 -0.5817256 0.16401356 -0.08496647 -0.5479607 -0.4930916 0.06127369 0.20362963 0.36093846 -0.50927883 0.081873246 -0.2941017 -0.071541786 -0.004822203 -0.734176 0.5490288 -0.19633804 0.5478084 -0.18360165 0.377918 -0.31449738 0.20097485 0.035413157 -0.48196405 -0.19570255 0.33230272 -0.20884576 -0.2709043 0.19908606 -0.10083245 -0.24475764 0.07864005 -0.6105278 0.038794514 -0.33259118 -0.025606241 0.39821047 0.24959745 0.21077125 0.23549302 0.77632165 -0.13835111 0.3367673 0.41187984 0.84676135 0.43272915 0.25216365 0.15430218 0.049452282 -0.07889227 0.33621883 0.76929104 -0.2701028 0.14784838 0.18987031 -0.52702457 -0.44568944 0.09769761 -0.435692 0.4314481 -0.3132661 0.046174113 0.5408347 -0.22390658 0.26475534 0.6823078 0.0749552 -0.15370148 -0.16821861 0.09300842 0.24337791 -0.23609433 0.44724923 0.21820726 0.357593 -0.15706336 0.57537043 0.63321733 0.3195923 0.47085407 -0.16687149 0.3852796 0.2401374 0.12363116 0.48128176 0.15546425 0.048978947 0.027166408 -0.042303186 -0.0061044185 0.28541476 1.0344735 -0.52289826 -0.26157132 0.054411165 0.13713655 -0.099304125 -0.069371216 -0.9352547 -0.008472073 -0.16813417 -0.2999498 -0.4895188 -0.064343184 -0.356766 0.36191294 0.33084652 -0.16288345 -0.5208404 0.23346251 -0.39329314 0.48013812 -0.20684782 0.47613788 0.62302667 -0.69095236
66 0.36223114 0.18987498 -0.4615204 0.22487132 -0.051722884 0.20633024 0.06997997 -0.195505 0.472612 0.1357647 0.9237933 0.09424695 0.5209226 -0.4486664 0.19947147 -0.06963983 -0.63391715 -0.45206887 0.04951023 0.10517775 0.14420336 -0.63251644 0.25247502 -0.004040325 -0.04064663 0.05252531 -0.7080479 0.528791 -0.26360664 0.7002441 -0.17568894 0.34505412 -0.16012235 0.043267716 -0.05898212 -0.46100453 -0.32981932 0.2192869 -0.09664191 -0.14763267 0.030981014 -0.081666805 -0.35057518 0.18738192 -0.6255454 0.07161229 -0.38193914 -0.047667243 0.36667293 0.30805016 0.23252118 0.3615395 0.6460281 -0.1115051 0.36088687 0.5411217 0.9729904 0.59556675 0.18331847 -0.045117315 0.15425222 0.12286242 0.4272622 0.569642 -0.33177072 0.24315232 0.08772991 -0.6577195 -0.4250227 0.15354308 -0.35403955 0.38562182 -0.23067847 -0.0749175 0.3681051 -0.31247908 0.19264871 0.61783296 0.13099155 -0.28950667 -0.07629453 0.11178955 0.09558806 -0.43043417 0.58355665 -0.04474707 0.14592014 -0.30446184 0.4304374 0.5940977 0.28821862 0.34746933 0.026660856 0.48198044 0.28354093 0.17972279 0.5136606 0.26739687 -0.054101452 -0.11935009 -0.09832275 -0.089447945 0.38899365 1.1486387 -0.557723 -0.37701705 0.28025508 0.029059902 -0.31341287 -0.15576075 -0.9155736 -0.12208269 -0.07744372 -0.48254558 -0.54062724 -0.022101916 -0.5233476 0.2702555 0.27627018 -0.16585436 -0.4099597 0.3309624 -0.50799227 0.3820653 -0.27496168 0.4456322 0.67445874 -0.7173367
158 0.3958558 0.3291149 -0.618115 0.5605039 0.005133273 0.13831739 0.18295293 -0.18919827 0.4431086 0.24382098 0.93355846 -0.06909697 0.59493464 -0.24508056 0.22147925 0.076389775 -0.55525684 -0.43904942 0.12970471 0.16827565 0.22920878 -0.5599459 0.3217209 0.029194351 -0.13669237 -0.02401478 -0.7111188 0.49117538 -0.1269718 0.9071648 -0.1473154 0.40691468 -0.1697238 0.014601491 0.10007973 -0.5457071 -0.27342752 0.18110195 -0.10136244 -0.2944463 0.1102747 -0.0011209832 -0.35466462 0.12160391 -0.7323755 0.10385506 -0.4677839 -0.036597613 0.33330742 0.20959212 0.26845637 0.31422594 0.7477508 0.057986103 0.31266958 0.49390262 1.0521443 0.500021 0.096262485 -0.0388926 0.27313268 0.09904704 0.40354648 0.4604728 -0.2113255 0.030383622 0.23228401 -0.700536 -0.4361561 0.08457843 -0.21441811 0.37312928 -0.29330578 -0.015734203 0.6019922 -0.2932508 0.24226446 0.44329035 0.07947216 -0.14380805 -0.10968588 0.06481337 0.34517 -0.37469772 0.49692833 0.06881751 0.1010459 -0.23033607 0.5124791 0.44940025 -0.03369872 0.526006 -0.10180751 0.23414499 0.21746038 0.13432337 0.36655304 0.2333502 -0.080647685 0.059052028 -0.13979498 -0.21517587 0.3303158 0.8834591 -0.42992455 -0.16761442 0.1774465 -0.091221556 -0.33696032 -0.1199174 -0.7577878 -0.073251925 -0.1265574 -0.34856752 -0.48644444 0.16131559 -0.17231768 0.3012549 0.3575547 0.017382512 -0.3936303 0.39793158 -0.21186627 0.63486886 -0.22862804 0.43821046 0.5433487 -0.65761375
159 0.37333214 0.32615712 -0.8422513 0.5127746 0.10905066 0.12238284 0.13905224 -0.06797274 0.57583016 0.2674892 0.6983425 -0.042590395 0.5365139 -0.22773309 0.22891472 -0.008616686 -0.64495987 -0.26616415 0.019815233 0.24257928 0.29491833 -0.59487695 0.28573295 0.09895551 -0.20639859 0.016354864 -0.5200898 0.50376016 -0.29236975 0.840205 -0.17031543 0.32187235 -0.25022128 0.027076915 0.09010167 -0.48738423 -0.34123117 0.27101478 0.017671136 -0.09667281 0.12205992 -0.06599658 -0.45237166 0.16985074 -0.56292975 0.18565944 -0.28760576 0.061790574 0.30139914 0.19866173 0.18073347 0.2747788 0.6525305 -0.038750805 0.29572737 0.51334625 1.0532274 0.46837673 0.035782713 -0.04895829 0.3253331 0.13089944 0.36787197 0.46909267 -0.22194463 0.057319254 0.29158267 -0.7017007 -0.29604053 0.19250594 -0.2665354 0.23495819 -0.30057526 -0.12539761 0.35563487 -0.21490377 0.39782187 0.39368156 0.0707522 -0.053796556 -0.060438186 0.03014165 0.2778365 -0.38429436 0.4411414 0.04265153 0.08335179 -0.2637255 0.4818735 0.44589218 0.10857041 0.3900941 0.022828832 0.22657296 0.18820624 0.011905973 0.39501977 0.28299302 -0.14258935 -0.018759072 -0.24912645 -0.12687904 0.35864934 0.9337149 -0.3893594 -0.231313 0.23987313 0.029398033 -0.26161394 -0.22211331 -0.6382841 -0.095774524 -0.13371983 -0.3989981 -0.25669515 0.043956432 -0.13972151 0.2173636 0.33849883 -0.023333147 -0.3674634 0.37953374 -0.18906045 0.5711849 -0.21105985 0.3598036 0.63255244 -0.7406769
160 0.23294084 0.25754786 -0.6565312 0.48619837 0.06071517 0.114878416 0.20596734 -0.0045155357 0.39260915 0.510023 0.80304736 -0.1430564 0.5091642 -0.028029682 0.19028518 0.03313375 -0.51538765 -0.3030901 0.00694345 0.3536585 0.14206967 -0.4492952 0.34992507 0.290349 -0.08493968 0.10103948 -0.70228916 0.43821824 -0.3312313 0.8868288 -0.25553638 0.18159792 -0.21877664 0.01490644 0.0102248825 -0.5916932 -0.2240033 0.100880586 -0.09192743 -0.24328066 0.19071065 -0.0122153275 -0.6448236 0.15713304 -0.5494813 0.06324191 -0.23363669 0.09067919 0.3105913 0.17669064 0.23063043 0.32242602 0.729092 0.18853316 0.13489556 0.43309066 1.0994151 0.51611286 -0.118359655 -0.0975881 0.30889753 0.24844016 0.33177394 0.49010488 -0.09058792 0.008736632 0.26645955 -0.67824686 -0.17294067 0.109757 -0.08848194 0.4406132 -0.35893673 -0.23828566 0.32093617 -0.22462131 0.14525227 0.32736346 0.13644794 -0.11578471 -0.0008449876 0.01786038 0.3260372 -0.40865928 0.38029715 0.15903191 -0.030355748 -0.21372683 0.28063408 0.4399302 -0.00081354135 0.37279436 0.08692823 0.28505716 0.2813271 0.06945153 0.3389605 0.3715909 -0.10485614 -0.10479579 -0.15357488 -0.27656892 0.3034652 0.85797584 -0.4117482 -0.36702955 0.23684584 -0.062395215 -0.3339517 -0.15055878 -0.8131066 -0.18493779 -0.17196372 -0.53036714 -0.14472893 0.1348665 -0.06591664 0.1586569 0.35478166 0.044160333 -0.28521365 0.31374562 -0.1987835 0.47372675 -0.3548227 0.32062945 0.5862661 -0.5765495
161 0.24730314 0.302355 -0.8236066 0.5736192 0.18455456 0.1058047 0.067263894 -0.080763005 0.35831872 0.29216626 0.7657116 -0.22661017 0.49867475 -0.0916542 0.11724052 -0.0477189 -0.71979725 -0.2583758 -0.028021026 0.26012042 0.20232408 -0.59229094 0.31137985 0.20914035 -0.07704679 0.13528176 -0.6746523 0.25608087 -0.39999512 0.85106057 -0.0943169 0.21411757 -0.4438092 0.0504527 0.0006329273 -0.502614 -0.20258097 0.21045034 0.02146833 -0.2247926 0.06833463 -0.11311841 -0.5746281 0.07626919 -0.38358575 -0.0036024242 -0.16548641 0.06728637 0.2876976 0.18474552 0.18954983 0.14531134 0.7553791 0.1839294 0.073673606 0.42602587 1.2204827 0.44405943 0.021167513 -0.10725276 0.34579715 0.34625295 0.3534056 0.44032532 -0.11455943 0.04778649 0.36391604 -0.60720485 -0.10103616 0.19352542 -0.19493434 0.20082957 -0.56645966 -0.026572159 0.430952 -0.16441916 0.3043595 0.21162818 0.056593124 -0.044998355 0.030201284 0.015166277 0.25307015 -0.5123682 0.38537273 0.26426002 -0.12136619 -0.168283 0.32404077 0.34480453 -0.099938266 0.29826692 -0.03126841 -0.027456718 0.076532125 -0.024967091 0.29187718 0.55214965 -0.13773651 0.2086711 -0.21894021 -0.40657258 0.386933 0.6943634 -0.3456157 -0.2834826 0.326931 0.09714797 -0.21290077 -0.15916152 -0.7601713 -0.26872352 -0.13835013 -0.341909 -0.19757648 0.2537194 -0.061993726 0.15035094 0.14396876 -0.0558735 -0.19997185 0.25964046 -0.069911 0.52598894 -0.27028292 0.2064617 0.5251902 -0.5048409
162 0.10853729 0.17810422 -0.6403101 0.4440859 0.14212398 0.068344235 0.10407005 0.12568678 0.24819499 0.48704118 0.66883343 -0.19749303 0.6190093 -0.08888306 0.13027348 -0.08257885 -0.53151524 -0.24134065 -0.15556447 0.37608397 0.17621228 -0.34623772 0.38000455 0.30580455 0.13585444 -0.00817091 -0.78923595 0.40692466 -0.20807791 0.84018254 -0.30016717 0.1696961 -0.33949205 -0.04086068 0.058681566 -0.40304026 -0.21217643 0.27491078 0.0012545642 -0.20539194 0.124526866 -0.04947347 -0.5594124 0.15108335 -0.29938564 -0.027851138 -0.13114713 0.12112448 0.35463843 0.20984781 0.2384521 0.14521395 0.6718043 0.042019844 0.13331047 0.4184527 1.2842151 0.605657 0.06710446 -0.0192285 0.3863294 0.4225759 0.29505366 0.3931744 -0.06836504 0.0013022918 0.19365178 -0.63120973 -0.13710098 0.20759693 -0.17282951 0.30699167 -0.5442259 -0.09666382 0.50425404 -0.1236742 0.10553235 0.335996 0.08585307 0.020122511 0.04368783 -0.061063353 0.3841363 -0.43265522 0.3866817 0.06620135 0.0563519 -0.27964357 0.32190582 0.40150675 0.055727225 0.37481314 0.025339143 0.05767167 0.23938885 0.051038753 0.3750365 0.5441982 -0.15918946 0.1306634 -0.23137496 -0.14811102 0.37326416 0.7340617 -0.31799626 -0.23683076 0.32226896 0.08669282 -0.22137249 -0.31242535 -0.6696958 -0.111025415 -0.12521906 -0.47615808 -0.23169066 0.22304933 0.019302566 0.054572448 0.43914267 -0.07543231 -0.122155845 0.25271255 -0.05464921 0.55174136 -0.3324165 0.24113092 0.57669 -0.6341335
317 0.10133962 0.21894203 -0.7924936 0.4575054 0.1815614 0.05907452 0.14208518 0.113962844 0.22525117 0.34591195 0.594774 -0.2861785 0.55148536 -0.07015371 0.05759177 -0.16203375 -0.59104234 -0.14812618 -0.20102672 0.3339745 0.14571394 -0.23564878 0.36238822 0.42688653 0.25785726 -0.08875799 -0.65982836 0.35211214 -0.42769128 0.7716004 -0.2511385 0.14886321 -0.2843234 0.11442782 -0.035453904 -0.36817375 -0.22063063 0.20413107 -0.015058837 -0.30939624 0.07834309 -0.15540329 -0.4475569 0.15872073 -0.24168962 -0.07063411 -0.10069895 0.13987158 0.47395656 0.17747366 0.18724732 0.16653733 0.78103447 0.080595985 0.13978183 0.43286484 1.2764982 0.6577984 0.016989922 0.07315025 0.39573243 0.4141331 0.294678 0.38160107 -0.05518208 -0.02381277 0.13817453 -0.66896695 -0.14550172 0.22353728 -0.20272966 0.37656522 -0.64071316 -0.07090808 0.46482182 -0.26005337 0.1048855 0.44442707 0.10258316 0.040173233 0.0374413 0.12962927 0.2284284 -0.47237018 0.38194263 0.25054866 0.009833586 -0.19387256 0.20084628 0.46269292 0.13772795 0.17883682 0.05350843 0.031955402 0.14678459 0.012113834 0.2463554 0.63220316 -0.21206997 0.07391312 -0.21557556 -0.17934991 0.4098501 0.6285266 -0.39365438 -0.38180333 0.31243756 0.24028882 -0.209672 -0.25436375 -0.6648692 -0.28865734 -0.09345068 -0.43653387 -0.14245526 0.25642416 0.16594933 0.16672082 0.30413345 -0.025216212 -0.22223637 0.25920817 -0.035679564 0.3605053 -0.32276586 0.18520547 0.6474233 -0.5330264
343 0.19257177 0.1000581 -0.77363497 0.46252188 0.40730873 0.0866437 0.18579273 0.13799222 0.23459494 0.33141872 0.56405914 -0.096154355 0.60234916 0.04355359 0.061025847 -0.13995281 -0.60680306 -0.17459351 -0.123982 0.28305262 0.15316977 -0.26043403 0.27925357 0.30928105 0.18385279 0.09524019 -0.6677895 0.31721938 -0.37947395 0.8226264 -0.31729183 0.09884901 -0.3451587 0.07250632 -0.09171669 -0.36968964 -0.07614533 0.3298023 -0.020197866 -0.2697237 0.1803205 0.0018149029 -0.586039 0.13138989 -0.23226354 -0.12877649 -0.01526837 0.14720789 0.34764743 0.26063815 0.19533712 0.1316619 0.60861593 0.13580719 0.052247483 0.36553776 1.2438313 0.45894548 0.01654332 -0.04235162 0.35259777 0.4020766 0.3243817 0.44452307 -0.15397018 0.08972002 0.19457817 -0.5605056 -0.18068123 0.17176358 -0.12638825 0.3246585 -0.66854197 -0.09522796 0.52499217 -0.14230417 0.11120777 0.47233167 0.11497461 -0.1270923 0.100126 -0.025200352 0.38880295 -0.55064523 0.29387134 0.19498451 -0.043470316 -0.25005072 0.25790802 0.49428323 0.08489867 0.17915758 0.09821109 0.10796254 0.24685861 -0.0870368 0.4346275 0.7164774 -0.17513147 0.081640795 -0.24660333 -0.18755732 0.4201815 0.69742846 -0.39785746 -0.23203243 0.2465119 0.23423241 -0.15257812 -0.34423685 -0.68654555 -0.2262311 -0.072939165 -0.5408643 -0.20916028 0.2982535 0.08499947 0.09575857 0.2325332 -0.20322214 -0.12982368 0.3628614 -0.08138306 0.40170693 -0.36184976 0.16863206 0.6454589 -0.4617001
444 0.09220909 0.037116274 -0.6588921 0.45934123 0.31133592 -0.0061165947 0.28395668 0.09432901 0.12544681 0.17969951 0.51105934 -0.06947509 0.5254365 0.12740415 0.09254782 -0.08675634 -0.6727053 -0.14961892 -0.2489444 0.0822911 0.15444544 -0.24023002 0.2415554 0.26251525 0.33603004 0.08158741 -0.7164292 0.22753714 -0.27004337 0.7047536 -0.39595473 0.28566712 -0.13244894 -0.015335105 -0.07529601 -0.25141457 -0.066282034 0.32186857 -0.035461757 -0.2567456 0.096753664 -0.0007126476 -0.52583355 0.13125078 -0.1971017 -0.14969592 -0.079857096 0.10747081 0.34007862 0.3113108 0.24421777 0.23136322 0.5949408 0.059359156 0.11212796 0.4963793 1.4048656 0.54724073 -0.029807165 0.015590957 0.41451713 0.44786552 0.34532657 0.3434334 -0.17887385 0.20017938 0.010339993 -0.6827824 -0.34986016 0.16749385 -0.17083482 0.36773258 -0.720355 -0.027574068 0.60329473 -0.1419713 -0.002687143 0.4779092 0.19601922 -0.18382396 0.15045138 0.1834812 0.382472 -0.54093426 0.22504467 0.05032315 -0.08833392 -0.32300144 0.36164737 0.5997055 0.06996309 0.07269442 -0.151007 0.0052066883 0.19834381 -0.107506685 0.36893252 0.77328783 -0.18968913 0.06354195 -0.21209577 0.0023181525 0.41640812 0.6583868 -0.20709881 -0.1895074 0.3618336 0.19729275 -0.03435647 -0.32350597 -0.5123864 -0.3535437 0.056055244 -0.5146714 -0.43456307 0.33045033 0.075555764 0.1474605 0.18110728 -0.18728703 -0.12565671 0.33558425 -0.069301106 0.35629797 -0.40276882 0.18751466 0.5162317 -0.3619767
445 0.19699857 0.07353945 -0.71050704 0.3726633 0.352748 0.061219312 0.12273249 0.021418257 0.15378861 0.21109015 0.46579507 -0.09518686 0.454515 0.13427775 0.04526565 -0.19339304 -0.7596132 -0.16198012 -0.10276031 0.1483199 0.15037595 -0.1988405 0.16027294 0.13869412 0.24301124 0.10248219 -0.6686223 0.20401229 -0.23221017 0.82345915 -0.34419206 0.18375994 -0.15695828 -0.09182966 -0.103410795 -0.33968282 0.062430337 0.24242316 -0.033446807 -0.31684345 0.14551805 0.10656708 -0.46622267 0.037222527 -0.13356262 -0.18510608 -0.090106696 0.13680676 0.2529856 0.3720629 0.04391038 0.10357046 0.55867606 0.08468572 0.3405731 0.52738273 1.3805754 0.59778196 -0.0032705192 0.008676739 0.31433016 0.55601037 0.30592695 0.31508794 -0.27581367 0.20257236 0.21613817 -0.6372254 -0.2944197 0.24559018 -0.15358925 0.19748783 -0.63557345 -0.0738606 0.6935982 -0.20363003 -0.14805403 0.54574454 0.22628683 -0.23913461 -0.010318634 0.14957069 0.44922858 -0.47699818 0.34979662 0.036104243 -0.22914797 -0.3052828 0.27965608 0.5906093 0.071280174 0.072240725 0.074236766 0.10745155 0.242159 0.035747837 0.36539 0.81587356 -0.21340114 -0.00497923 -0.14225648 -0.11912659 0.492744 0.64409685 -0.2954614 -0.15233557 0.19031686 0.09503477 -0.24783091 -0.32356927 -0.54821354 -0.21017621 0.083086096 -0.52621764 -0.38753936 0.2963525 0.09772778 0.073956795 0.18810144 -0.17085047 -0.03689491 0.32172263 -0.104932755 0.36516166 -0.35451305 0.11879122 0.47301242 -0.37846196
54 0.30569038 0.015132102 -0.56142366 0.6536031 -0.29550004 0.42404053 -0.35666245 0.20879053 0.058905043 -0.2908245 0.5965972 0.2009649 0.19081597 -0.29876566 0.0038154048 -0.29648992 -0.51764125 -0.019146739 -0.2785752 -0.27996448 0.22095445 0.018486083 -0.5160914 -0.38781726 -0.011181144 -0.35997295 0.30523115 0.25670037 0.108972 0.19346651 0.0069940686 -0.13022521 -0.24216898 0.10861248 0.15938222 -0.020237578 -0.032221563 0.18111809 -0.55838424 0.023638498 0.3683704 -0.48886827 -0.13498129 0.3584332 0.06611291 0.03801091 -0.3202302 -0.3525204 -0.08600462 0.05785973 -0.18778872 0.3331332 0.3862794 -0.15673824 0.3205583 0.37880382 0.45831248 0.46152258 0.22973649 0.41335863 0.20206946 -0.10337529 0.44725257 0.18350312 -0.28808862 -0.13065574 0.08194477 -0.5300099 -0.4154422 -0.13522446 0.16302805 -0.4288974 -0.15064359 0.45839188 0.21207349 0.6357173 0.5719107 0.35442397 -0.86744976 -0.41290334 -0.011797576 -0.1749744 0.2474796 0.13714884 -0.24514513 0.23448263 0.43498138 0.17601629 0.3482597 -0.18547657 -0.13054422 0.14189842 0.28441334 -0.08053845 0.014819082 0.040655144 0.42284298 -0.020605836 0.3242969 0.43996313 0.18512377 -0.24049081 -0.20916238 -0.12680505 0.61053324 -0.4773452 -0.23489444 -0.38911176 0.051676143 -0.2909152 0.026078945 0.12903471 0.12245934 -0.6864996 -0.18052953 -0.23193282 -0.20925999 0.14597313 0.1537486 -0.18478408 -0.29595676 -0.3856201 0.17425591 0.14154077 0.4488211 -0.002167956 -0.050073903 -0.9315106
82 0.34625214 0.20068215 -0.64602244 0.6039553 -0.23582518 0.54952246 -0.25543833 0.38122797 0.11162208 -0.23448196 0.5036702 0.27777198 0.26953366 -0.3771697 -0.11711984 -0.13164826 -0.6216266 -0.16837722 -0.22296467 -0.2886568 0.15021068 -0.03429372 -0.37513614 -0.34728232 0.007867934 -0.34615782 0.27702728 0.19820645 0.24760228 0.273059 0.01616246 -0.125524 -0.17417662 0.15841834 0.17373268 -0.10098486 -0.018106388 0.05870274 -0.47555405 -0.04400866 0.34752744 -0.4016651 -0.20469667 0.39234897 0.084691755 0.1451563 -0.38101095 -0.35251364 -0.03989076 -0.008678528 -0.24860372 0.39252076 0.41770536 -0.24895698 0.4040369 0.30931628 0.62701935 0.695805 0.19928223 0.39108333 0.287599 -0.18808497 0.4881339 0.19837734 -0.33525816 -0.09351024 0.10236058 -0.5609349 -0.3697373 0.01684521 0.06645884 -0.3867454 -0.23922409 0.3964508 0.29046166 0.6112025 0.6532812 0.33302662 -0.8918678 -0.338246 -0.040595006 -0.101841964 0.20064269 0.073820695 -0.105755664 0.3045931 0.5109987 0.14424995 0.4539647 -0.080378965 -0.2596286 0.20913891 0.2107228 -0.0819417 -0.06167868 0.071269035 0.482537 -0.21037215 0.28584304 0.57417643 0.09159767 -0.2269414 -0.17640756 0.060630295 0.5357534 -0.5260416 -0.23581478 -0.3832005 0.03795857 -0.4083607 0.13932134 0.21906327 0.009190281 -0.5561788 -0.11353043 -0.379155 -0.2037214 0.18278493 0.37995517 -0.05872283 -0.31900844 -0.2078608 0.12918681 0.14363736 0.50608134 0.03533405 -0.059167907 -1.212025
128 0.29111227 0.25720125 -0.7206885 0.6341688 -0.20241962 0.40924826 -0.24267678 0.19359925 0.25491464 -0.29594055 0.53965056 0.25714672 0.25829068 -0.33967534 -0.06254132 -0.24586803 -0.5396908 -0.17816944 -0.1430969 -0.4286266 0.094156146 -0.07337866 -0.5806496 -0.356639 -0.14378195 -0.27708697 0.17048234 0.30951077 0.105435915 0.25865936 0.06949884 -0.1106994 -0.30964282 0.11157802 0.24110405 -0.030669192 -0.08471857 0.07223247 -0.4046102 0.12180016 0.4325739 -0.22673075 -0.12470143 0.35848123 0.13043238 0.0602409 -0.30909795 -0.47177622 -0.17176934 0.018936215 -0.07129371 0.34560388 0.20909563 -0.24401033 0.25970775 0.33919606 0.49297252 0.5042702 0.30693492 0.25105384 0.14772731 -0.014916173 0.50119674 -0.013513672 -0.46968564 -0.19110407 -0.05557566 -0.50330174 -0.53041273 -0.21686566 0.087956235 -0.48141602 -0.23092853 0.48511007 0.17197023 0.5761423 0.7716467 0.3039465 -1.1327033 -0.57305896 -0.06707213 -0.19749133 0.29832917 0.07920458 -0.08798753 0.21498978 0.3678647 0.03244829 0.6266612 -0.08899988 -0.26236126 0.24188553 0.3931835 -0.090730615 -0.008582699 0.045846887 0.49410012 -0.22578348 0.2878876 0.51306945 -0.03597739 -0.22190052 -0.024847815 -0.16480012 0.66335016 -0.22881721 -0.14882784 -0.30487722 -0.045020714 -0.3171701 0.053870555 0.13924298 -0.08427464 -0.41382173 -0.17543027 -0.29865864 -0.18296242 0.08676997 0.21749814 -0.233298 -0.30511564 -0.2507755 0.11941031 0.30255425 0.50549203 0.09587257 -0.0063136937 -1.0957388
147 0.318197 0.33958668 -0.77354455 0.5487169 -0.20333356 0.48254928 -0.27891567 0.21881914 0.23519112 -0.2972339 0.47580233 0.19425994 0.2802618 -0.26941988 -0.09983982 -0.22608514 -0.53438854 -0.26076734 -0.20840229 -0.4075282 0.130004 -0.13077208 -0.5259895 -0.3945064 0.08136261 -0.35466516 0.20426756 0.29640666 0.1266604 0.20688045 0.01204835 -0.18270734 -0.31230104 0.06737382 0.35030314 0.024463683 -0.09264959 0.14379308 -0.597561 0.0996602 0.44420126 -0.33025306 -0.22178827 0.46256438 0.0704891 0.054900337 -0.2869831 -0.39232585 -0.055364147 0.014885976 -0.090375625 0.46734712 0.3505393 -0.19641219 0.20470504 0.27442828 0.5765745 0.50623953 0.28979284 0.29917178 0.22363983 -0.013081287 0.5672274 -0.034753922 -0.42813835 -0.062312566 0.062521644 -0.48533952 -0.44448435 -0.15035252 0.09789275 -0.46593884 -0.2825696 0.5415613 0.1576931 0.5562315 0.77461815 0.40476835 -1.0498525 -0.5187617 0.06161145 -0.20825064 0.3531659 0.047574215 -0.0822063 0.2663058 0.49111238 0.138276 0.43146703 -0.09044333 -0.2353542 0.3359254 0.32276717 -0.18614183 0.032341637 0.079715684 0.413528 -0.16227855 0.27572998 0.6582812 0.010549723 -0.13167565 -0.0586199 -0.01372891 0.69576794 -0.35699835 -0.1444919 -0.26210508 0.09785048 -0.36642557 0.06260176 0.095734306 0.06177433 -0.67122036 -0.24614382 -0.18259019 -0.19614488 0.17723836 0.27253798 -0.1374945 -0.2680855 -0.14101073 0.18179412 0.13695468 0.61226285 0.061810456 -0.042252306 -0.9210501
148 0.3797324 0.31213602 -0.81830716 0.46482217 -0.24234872 0.5039439 -0.27460584 0.25411996 0.3580576 -0.1810781 0.5276265 0.15271004 0.21115369 -0.24781941 -0.16306144 -0.44789413 -0.2950812 -0.34477395 -0.08985813 -0.31144238 0.09061341 -0.17736411 -0.61944133 -0.39069033 0.1236555 -0.29217902 0.34435022 0.19872849 0.07789149 0.15446083 0.017464658 -0.18730792 -0.19771071 -0.10741814 0.3493089 0.027476588 -0.06800303 0.050500993 -0.6543018 0.21826808 0.46792123 -0.21531843 -0.2249033 0.575591 0.007314504 0.13015056 -0.40360436 -0.39733717 -0.19912742 -0.010392221 -0.02723593 0.42145324 0.21593864 -0.23106758 0.18864818 0.37851417 0.62134254 0.3471538 0.33644524 0.20057945 0.26842257 0.06154675 0.58909065 -0.18985327 -0.3860614 -0.1341637 0.09551401 -0.43426394 -0.41611817 -0.26461568 0.08859781 -0.45741466 -0.22262125 0.45606074 0.15210757 0.65269583 0.9066594 0.4854502 -1.1300733 -0.45320904 0.03637741 -0.3378277 0.52683514 0.028687514 -0.074636884 0.2106969 0.3745532 0.066858724 0.5043921 -0.08107512 -0.23437902 0.4020831 0.44598463 -0.24791215 0.07371364 0.018975442 0.3564682 -0.055853944 0.20816061 0.59900916 -0.07314181 0.14473556 0.016050046 0.0073767183 0.79039156 -0.13975479 -0.048814274 -0.23658764 0.038724303 -0.29788828 -0.004348895 0.017439947 0.03318495 -0.7122305 -0.22949985 -0.18840016 -0.43443924 0.011430633 0.27605948 -0.16925193 -0.26793978 -0.13977279 0.27144814 0.009915314 0.48846442 -0.0027659049 -0.17444168 -0.87530637
149 0.3319564 0.18345985 -0.8825843 0.38253295 -0.20508392 0.5018924 -0.26540565 0.26021427 0.22236586 -0.17063232 0.6378103 0.16345581 0.30898702 -0.36441255 -0.042860642 -0.3871784 -0.2825366 -0.31384858 -0.1427094 -0.22025988 0.29870832 -0.36956686 -0.41259834 -0.34863245 0.025140664 -0.3267211 0.13593869 0.30678895 0.29445118 -0.00016530577 0.039384965 -0.09374875 -0.2382055 0.1373887 0.31921208 -0.041924037 0.0034080145 0.101406954 -0.50044787 0.2708308 0.44611403 -0.2325349 -0.22522786 0.44348618 -0.064738706 0.21209273 -0.40050137 -0.48503572 -0.19414929 0.08330121 0.13901544 0.37332758 0.19818439 -0.37695652 0.04304164 0.41111737 0.7110253 0.44314456 0.39146173 0.31690076 0.28202555 0.0124229705 0.48431072 -0.09760073 -0.4770774 -0.22587796 -0.02795578 -0.46078575 -0.47373715 -0.13625024 0.024782926 -0.43095535 -0.3348275 0.47630197 0.15105118 0.56933695 0.89013094 0.35507005 -1.113234 -0.38759705 0.19465818 -0.16219893 0.50266373 0.044282313 -0.15682457 0.3944939 0.409023 0.14505397 0.62161374 0.0060106143 -0.253291 0.39077517 0.4236107 -0.3089973 0.120622836 0.12477846 0.3638616 -0.15896177 0.287858 0.59132385 -0.056978285 -0.0034759326 0.0056624813 -0.07975413 0.8131384 -0.2616829 0.037382253 -0.36441502 0.065213725 -0.22714597 -0.00059980433 0.15652014 0.14759369 -0.64027375 -0.25191054 -0.16243477 -0.43484178 0.021433653 0.36234394 -0.18091092 -0.30503938 -0.20164612 0.28128204 0.041115645 0.48764008 -0.077133864 -0.09489027 -1.0684673
150 0.32202294 0.2161778 -0.9680965 0.49 -0.33092377 0.47774392 -0.235834 0.12790884 0.2552839 -0.25329575 0.5432777 0.14876391 0.28608936 -0.16494316 -0.009002626 -0.45128953 -0.25170904 -0.2571156 -0.052811034 -0.21396987 0.515543 -0.3917774 -0.31832814 -0.37460452 0.17257056 -0.43063068 0.26238564 0.17343539 0.1225442 0.11459261 -0.089852706 -0.18015878 -0.28267413 0.15021335 0.34915778 0.016631044 -0.081174396 0.09058289 -0.52185965 0.27674773 0.36730433 -0.07861618 -0.20784937 0.35246855 -0.22592352 0.18351807 -0.36140916 -0.40798867 -0.091236986 0.04333176 -0.0035013475 0.3991496 0.33644715 -0.26970658 0.053554904 0.41618508 0.7196838 0.47876897 0.4607579 0.38296756 0.43991247 0.07906616 0.50448096 -0.028547587 -0.5039826 -0.07335874 0.032154497 -0.42804983 -0.540232 -0.23062165 0.003505248 -0.41091692 -0.3141695 0.58282375 0.08183543 0.51051253 0.8704559 0.45897514 -1.1040571 -0.4916754 0.22265272 -0.07190613 0.47538188 0.027041145 -0.26210475 0.3601702 0.4202204 0.23949535 0.53604066 -0.021556528 -0.07474335 0.47731152 0.37697685 -0.29252052 0.2621336 0.24319606 0.20728879 -0.17407942 0.31149518 0.55059534 -0.027741462 0.09710595 0.032985464 0.060994197 0.690932 -0.32927018 0.06012099 -0.4654278 -0.006500299 -0.2404822 0.035868347 0.037107054 0.115944415 -0.73746437 -0.39185274 -0.093709774 -0.4552275 0.17321117 0.22181448 -0.2750968 -0.33173192 -0.1484181 0.2321247 0.009606661 0.5733318 -0.044258367 -0.121976644 -1.0532503
204 0.23544896 0.18033673 -0.90483826 0.36846983 -0.50063086 0.39663523 -0.33963853 -0.03207301 0.21845622 -0.18571611 0.53145 -0.010531015 0.3205693 -0.012008879 0.1328681 -0.5129294 -0.23456003 -0.22084312 -0.12539108 -0.14039232 0.6336281 -0.26241273 -0.3990222 -0.4451055 0.0409077 -0.33849043 0.11900732 0.11529594 -0.015298216 -0.08581903 -0.20657517 -0.027281016 -0.31297785 0.19160087 0.36858866 -0.027815877 -0.041587036 0.14953575 -0.6645386 0.22755004 0.20836383 -0.22414549 -0.36046845 0.21696433 -0.19201376 0.1998348 -0.398951 -0.52173156 -0.102620885 0.16058044 -0.013931044 0.37819263 0.32553437 -0.2404521 0.29723254 0.54229397 0.6977553 0.6022548 0.3626686 0.46812648 0.4010431 0.15695697 0.44765136 -0.1837801 -0.37920532 -0.16831651 0.1288376 -0.38496557 -0.42862186 -0.13374284 -0.055183064 -0.425063 -0.30256367 0.63754606 0.21455505 0.49857578 0.7682655 0.34124506 -1.04021 -0.407983 0.11801837 -0.27147603 0.48185077 0.099685654 -0.17453752 0.2939536 0.36598554 0.2881387 0.54854405 -0.021507205 -0.15617052 0.42337793 0.31696033 -0.28227493 0.22773954 0.3304762 0.31309432 -0.19732292 0.30645576 0.5158942 0.04974657 0.111697964 0.12088082 -0.045183938 0.73025924 -0.34269327 0.08345646 -0.30783328 0.053365123 -0.08357093 0.07392434 0.09669124 0.22118613 -0.8006304 -0.34651354 -0.19460225 -0.4544469 0.18418238 0.25792 -0.13479583 -0.20139447 -0.20229852 0.19278644 0.09620559 0.63398 0.010528454 -0.101359926 -1.0283645
205 0.30087954 0.14024834 -0.89734423 0.5167219 -0.5475932 0.37366533 -0.44694895 -0.027985359 0.11051869 -0.1718787 0.5086555 -0.115948446 0.31513974 -0.22313964 0.042619176 -0.46029875 -0.2508844 -0.34672052 -0.054654613 -0.03442762 0.59967303 -0.2577802 -0.47152942 -0.32801038 -0.041307423 -0.41584027 0.2729735 0.14176944 0.10064431 0.09785378 -0.23354423 -0.03159396 -0.26473176 0.09256837 0.1953871 -0.1330706 -0.060371265 0.026892096 -0.6988539 0.13390651 0.19175714 -0.22415347 -0.23683786 0.19460812 -0.22312681 0.10623786 -0.6003981 -0.41264972 -0.22086398 0.13739917 -0.011874382 0.29312223 0.47251993 -0.18403564 0.43855768 0.4917347 0.51830304 0.6290281 0.30179203 0.32647735 0.5552029 0.15919045 0.32357278 -0.18115841 -0.2986422 -0.058216624 0.10278335 -0.55489254 -0.5774081 -0.09948717 -0.23196419 -0.35877493 -0.24449606 0.72314274 0.30762815 0.59164405 0.7187073 0.4266153 -1.1765156 -0.29959223 0.06453334 -0.2803343 0.6037198 0.11957242 -0.20306271 0.34310997 0.40356722 0.38307092 0.54755247 -0.10310833 -0.20846707 0.47354823 0.23537894 -0.28436658 0.20509525 0.19988067 0.3216034 -0.09411359 0.31156117 0.55674857 -0.12451363 0.053366177 0.18211591 -0.040383104 0.6805238 -0.27453318 0.084029004 -0.38440284 0.089420795 0.0024127467 0.14046645 0.050419796 0.07537651 -0.76025707 -0.420765 -0.23191902 -0.6775732 0.13095272 0.3241343 -0.19721028 -0.2300408 -0.12535158 0.22359012 0.087203644 0.76319563 -0.12575273 -0.22951914 -0.9003191
224 0.3110013 -0.014205377 -0.89951646 0.48523146 -0.46667624 0.34966007 -0.4079654 -0.019397506 0.14133002 -0.29281372 0.5280915 -0.16355985 0.31509247 -0.15969434 0.046724465 -0.37483782 -0.32972705 -0.24533138 0.0885313 -0.043605115 0.773007 -0.3178625 -0.4481327 -0.5464391 -0.052556153 -0.43070576 0.30169466 -0.057810027 0.05886278 0.07490405 -0.3301384 0.2129858 -0.2877464 0.1865612 0.20193309 -0.0018056438 0.093489826 0.16493201 -0.6702166 0.005058294 0.14653072 -0.25994322 -0.18358682 0.039097104 -0.1729447 0.12871239 -0.51682884 -0.4471252 -0.17504245 0.15594044 -0.0011026015 0.21566086 0.4578563 -0.23897687 0.3781658 0.47638774 0.5749672 0.6140367 0.35460198 0.45523787 0.5077119 0.20397861 0.34838277 0.002804438 -0.26237285 -0.10781505 0.13791093 -0.52163666 -0.5383408 -0.1431767 -0.2646889 -0.37642658 -0.22836417 0.78412354 0.39369172 0.46843135 0.5679688 0.303141 -1.0621418 -0.28471124 0.08129688 -0.22524516 0.50796115 0.1109955 -0.20519193 0.31360963 0.32023028 0.32669547 0.5669104 -0.12886767 -0.09443151 0.26833272 0.27216887 -0.27137527 0.16492245 0.21284798 0.44484982 -0.077729754 0.3185536 0.5408763 -0.008915993 0.02642871 0.12154145 -0.0094317505 0.6461304 -0.2553212 0.13163325 -0.42112556 -0.065097995 -0.104601234 0.028746031 0.028820165 0.24791285 -0.634619 -0.4534263 -0.2653394 -0.5554218 0.076315686 0.28164592 -0.19008055 -0.16867231 -0.16146187 0.21335764 0.06650445 0.7936178 -0.017302047 -0.25438836 -1.0502725
252 0.10529634 -0.15646593 -0.80783564 0.5574911 -0.31841603 0.42222086 -0.412425 0.04762869 -0.018446568 -0.45666254 0.3368126 -0.14711897 0.3174552 -0.13102575 0.048609793 -0.32566276 -0.32440555 -0.2224782 0.067482136 -0.0851467 0.7876757 -0.21086025 -0.38447362 -0.6154351 -0.027706105 -0.3954073 0.24430853 -0.250396 0.1995018 0.08216904 -0.3084837 0.15469447 -0.2815565 0.096603654 0.0840721 -0.059216194 0.1463286 0.10190543 -0.6871496 -0.16242892 0.14109407 -0.28644955 -0.14121093 -0.111177 -0.21760248 0.040365957 -0.59304935 -0.4358197 -0.18898112 0.16913538 -0.061592743 0.23446202 0.36258382 -0.15387431 0.48754326 0.41705105 0.61225694 0.692044 0.2061395 0.5101007 0.6024923 0.16988736 0.4158619 0.03732731 -0.18144375 -0.12228727 0.17864965 -0.47369298 -0.6189676 -0.05417252 -0.21031968 -0.38882512 -0.269537 0.76006114 0.50713325 0.50721747 0.3948265 0.24054863 -1.0034302 -0.16302888 0.043975793 -0.24217294 0.56000715 0.17512758 -0.19708855 0.35130188 0.3001541 0.36872342 0.38467172 -0.116043836 -0.0804636 0.31891906 0.3169748 -0.16366684 0.12080124 0.13950369 0.6127819 -0.21450819 0.3171914 0.53996503 -0.019982764 -0.013721026 0.07400134 -0.070414945 0.6736879 -0.25045535 0.041552268 -0.42546552 -0.02681427 -0.07907935 0.24448968 0.05625149 0.1449122 -0.7377999 -0.47188377 -0.26440024 -0.5664421 0.02160414 0.26712996 -0.15042847 -0.048690014 -0.17874219 0.16617326 -0.051833685 0.7862791 -0.044031795 -0.40142247 -0.992797
274 0.2585644 -0.020215284 -0.73658425 0.51097804 -0.3671541 0.38000798 -0.63669163 -0.1276408 -0.10936829 -0.512063 0.38243076 -0.30788103 0.31855923 -0.17868088 0.07032255 -0.15767328 -0.35268736 -0.0036651625 0.26800582 -0.15630075 0.8250753 -0.14746054 -0.36265153 -0.6197805 -0.041881632 -0.49258238 0.21625564 -0.18336825 0.0906172 0.13000219 -0.29773694 0.08842928 -0.5288517 0.12230118 0.20270337 0.0018413345 0.16618834 0.32162753 -0.67402804 -0.111887634 0.02334828 -0.45927158 -0.10084599 -0.17172591 -0.059209064 -0.004172807 -0.35474104 -0.5678483 -0.15294737 0.215579 0.11912083 0.24426514 0.3940165 -0.21320148 0.4388483 0.4209219 0.71015203 0.59701234 0.21089286 0.50023043 0.42931435 0.16470826 0.46519402 0.105155215 -0.18961577 -0.23984194 0.28684336 -0.4921459 -0.6768248 -0.15155274 -0.2456168 -0.59529644 -0.16708383 0.5987167 0.33608264 0.40048623 0.42253083 0.14406809 -0.8071533 -0.29540873 -0.03855613 -0.17493193 0.54854965 -0.05817343 -0.37367034 0.18458568 0.27113968 0.23441985 0.29054275 0.018819014 0.07110323 0.32085124 0.30813706 -0.087771945 0.21959226 0.17676848 0.59028864 -0.21977293 0.25064358 0.46380916 0.11401351 -0.008754056 0.09588491 -0.14436983 0.70935786 -0.3195445 0.009535818 -0.48221952 -0.09741381 -0.2765148 0.10577092 0.020097125 0.31331897 -0.76372206 -0.5166772 -0.29767317 -0.49745685 0.07788451 -0.014838409 -0.07401341 -0.058131233 -0.18001287 0.059184887 0.062732235 0.64462775 -0.006784175 -0.034236085 -0.82494146
310 0.100496165 -0.091469266 -0.7186316 0.71971005 -0.118932255 0.4289773 -0.5058255 0.008866533 -0.08517059 -0.6125655 0.3515661 -0.18130295 0.3938104 -0.32744202 0.0016616306 -0.12918584 -0.43296692 -0.26336893 0.20589124 -0.23967648 0.65682095 -0.13927619 -0.3088262 -0.5776505 -0.17947926 -0.3252865 0.12611246 -0.27757815 0.24996647 0.3061108 -0.27289236 0.30771518 -0.25487566 0.022226742 -0.03352724 -0.0046849656 0.23631592 0.19189985 -0.58020896 -0.19803755 0.112934716 -0.38915655 -0.03083429 -0.28657204 -0.10449651 0.021960188 -0.55928177 -0.45586348 -0.21835718 0.17303963 0.014719101 0.11457111 0.28888562 -0.24775517 0.48980406 0.33273652 0.48615685 0.61336195 0.1287608 0.44670108 0.5300846 0.2015971 0.42559478 0.0932489 -0.26630595 -0.14680532 0.13497935 -0.46086326 -0.7085427 -0.026100516 -0.2718809 -0.447181 -0.2138272 0.5769435 0.59613496 0.40493447 0.34490263 0.07800872 -0.8977704 -0.16175544 -0.052817494 -0.21176338 0.45732525 0.07694644 -0.18315476 0.23781 0.12794779 0.18112266 0.4290806 -0.058187068 -0.006953494 0.2419897 0.30938795 -0.034805045 0.058499448 0.07571444 0.8003473 -0.16402666 0.21846083 0.4412334 0.0005827937 -0.12973486 0.044230934 -0.12508804 0.55005974 -0.12696245 -0.08277727 -0.32985738 -0.1946098 -0.15988964 0.23533934 0.15452199 0.17072167 -0.56105876 -0.58417726 -0.211166 -0.439363 -0.076172166 0.18906376 -0.017148558 0.03281915 -0.03550466 0.07619494 0.020564519 0.7520325 0.053726654 -0.18757555 -0.9769675
338 0.23834968 -0.06419901 -0.93314105 0.79829705 -0.08157512 0.451929 -0.40407553 -0.1650484 -0.015398419 -0.56519365 0.408203 -0.24056216 0.4285389 -0.35377222 0.07437706 -0.17065936 -0.51490986 -0.19332223 0.33842307 -0.28410733 0.60755605 -0.1276142 -0.35963506 -0.5793888 -0.14894307 -0.37519127 0.08683447 -0.18993285 0.13617066 0.3814993 -0.40871945 0.22599593 -0.31849882 0.01967789 0.17706876 0.026737629 0.20782648 0.25941986 -0.49016213 -0.05598264 0.07989703 -0.2761123 0.03333539 -0.33386278 -0.10693735 -0.0024229889 -0.49761388 -0.38902214 -0.1357391 0.22998154 0.06930682 0.14977258 0.3087543 -0.2130789 0.44260782 0.3416348 0.40009892 0.497514 0.19687277 0.39176175 0.4412529 0.27432406 0.46748668 0.037606236 -0.38168696 -0.14803061 0.048459843 -0.4543735 -0.79550767 -0.12599109 -0.28008237 -0.53993046 -0.3020391 0.52694196 0.49982947 0.28413606 0.3216121 0.025140505 -0.9203522 -0.1684226 -0.15781407 -0.1601171 0.47581077 -0.040566407 -0.19912326 0.13949597 0.054477584 0.0759313 0.4541389 0.08881145 0.18001659 0.35021588 0.34277076 -0.018347137 0.10818097 0.035965096 0.6793594 -0.1388544 0.25347382 0.35335064 -0.118176535 -0.057039108 0.17764011 -0.23137341 0.39586 0.034071922 -0.1510653 -0.29583615 -0.35951784 -0.23448896 0.22213686 0.07931406 0.19373477 -0.58300865 -0.69905895 -0.09446117 -0.2296517 -0.030493053 0.13318568 -0.041424245 0.061052326 0.008395426 0.12887105 0.088945515 0.69230735 0.00499314 -0.04482986 -0.9412423
485 0.20939526 -0.13673912 -0.8434661 0.7841083 -0.011015642 0.44931078 -0.43782416 -0.14686956 -0.22294079 -0.6311548 0.34769943 -0.2057087 0.35519063 -0.2621262 0.118753396 -0.21911874 -0.50282913 -0.20207381 0.3013817 -0.2476184 0.48894358 -0.028465537 -0.45347083 -0.6252077 -0.10732596 -0.39574388 0.09985914 -0.28250822 0.24877255 0.39725563 -0.32209146 0.25380763 -0.17413844 -0.07141226 0.1066349 0.07625874 0.3068358 0.2756952 -0.49157503 -0.1285261 0.084339 -0.34414423 0.012379637 -0.3012096 -0.24614981 -0.011546508 -0.54231113 -0.398625 -0.10395653 0.27796376 0.053875316 0.1601683 0.34726623 -0.14881776 0.43468675 0.3429026 0.35357243 0.47643492 0.13770944 0.40332866 0.46705592 0.13566573 0.46947744 0.040523198 -0.31941843 -0.059324935 0.11260624 -0.46167734 -0.7620234 -0.17419916 -0.10556507 -0.51276153 -0.3086555 0.52348673 0.6114297 0.32113686 0.27759725 0.05776694 -0.8841438 -0.14317767 -0.16466041 -0.14989617 0.51156443 0.039445356 -0.23371679 0.14404976 0.14145394 0.12506898 0.3787614 0.064074546 0.16613162 0.2997288 0.33949658 0.0072232173 0.1408055 -0.017627724 0.82238644 -0.06111094 0.29015273 0.32631448 -0.0177264 -0.0035240455 0.07427785 -0.15897354 0.4616115 -0.01612072 -0.12413969 -0.38578597 -0.273807 -0.22757146 0.24109338 0.04067764 0.11578683 -0.737885 -0.63206923 -0.10022794 -0.30320337 -0.017527828 0.07257509 0.013683777 0.07513289 -0.00034285348 0.14266953 -0.053946074 0.5970215 -0.0763616 -0.18887195 -0.82945883
486 0.29799184 -0.11603566 -0.9629139 0.8493372 0.07866075 0.52908814 -0.4075941 -0.093700476 -0.051675815 -0.54605263 0.41331938 -0.1955973 0.31591052 -0.34964824 0.081065476 -0.3539123 -0.46288538 -0.27954346 0.35448304 -0.20734902 0.40562916 0.07129082 -0.5190051 -0.7043987 0.08998204 -0.4096254 0.24657938 -0.30083892 0.22649907 0.41302708 -0.30098101 0.21921887 -0.066515155 -0.18002038 0.2493053 0.15681273 0.3437494 0.32543755 -0.45437264 -0.06899708 0.15871383 -0.33827597 0.104179 -0.16491863 -0.10876021 0.06560251 -0.520671 -0.2246646 -0.059487734 0.18619815 0.11833747 0.14791821 0.29319426 -0.13318509 0.40749124 0.42080283 0.36664298 0.37009424 0.09765487 0.45365843 0.40902779 0.15304834 0.50024354 0.011280563 -0.23077185 -0.10593877 0.20656286 -0.445729 -0.7765242 -0.1883734 -0.06829377 -0.52087116 -0.3296998 0.53484005 0.6392737 0.4390813 0.32202706 0.15112974 -0.94218606 -0.046573825 -0.22792152 -0.22894534 0.54078275 0.007969879 -0.16363613 0.07726613 0.13334888 0.12956862 0.3584579 0.081662744 0.26752913 0.3203715 0.3929921 -0.033511426 0.050960906 -0.0887611 0.81450766 0.01372701 0.1758474 0.2901383 -0.13250372 0.13041857 0.06957571 -0.17103858 0.39035177 0.074734524 -0.16925244 -0.38871878 -0.28688577 -0.38037813 0.2032951 -0.045919914 0.073408134 -0.68305117 -0.62406844 -0.08417341 -0.34011942 -0.10063551 0.17964113 -0.029201452 0.020035356 -0.04784092 0.21192433 -0.17636439 0.5227519 -0.06753901 -0.26723108 -0.79047066
487 0.28683627 -0.24300303 -0.93324816 0.902497 0.013175878 0.4865642 -0.4155589 -0.12847549 -0.11857628 -0.53056353 0.5992288 -0.15700956 0.35022473 -0.37307543 0.13660143 -0.41074046 -0.48126456 -0.18743241 0.31711173 -0.18071942 0.37544778 0.06468505 -0.44867736 -0.5654547 -0.039656725 -0.48128167 0.16322918 -0.23715152 0.24952877 0.39117482 -0.26770675 0.16078128 -0.06256356 -0.14553006 0.24795997 0.07888501 0.32400644 0.3172409 -0.4363816 0.040269464 0.20921431 -0.38746184 0.17887308 -0.10766435 -0.22048941 0.03720399 -0.57173824 -0.27947855 -0.075829215 0.27372774 0.11430512 -0.024255753 0.32112986 -0.19475588 0.25054592 0.41530848 0.2704394 0.3024776 0.15405132 0.43872285 0.38828284 0.10226046 0.5018297 0.07503484 -0.30336612 -0.15089709 0.1024298 -0.4797872 -0.7584319 -0.19718435 -0.00472706 -0.47545186 -0.31426537 0.4668268 0.5114407 0.35159236 0.30486876 0.11603624 -0.8950038 -0.07112465 -0.1756412 -0.141468 0.47885698 -0.020690568 -0.28620526 0.18830942 0.11429627 0.10376466 0.44900185 0.07710968 0.25148278 0.31915718 0.46212542 -0.067437634 0.10765685 -0.009653384 0.7338735 0.14265263 0.33197013 0.13601169 -0.024248341 0.017830797 0.019898556 -0.2540784 0.4577442 0.07997071 -0.1487534 -0.42634177 -0.35437435 -0.31295136 0.18278843 0.07106746 0.12820555 -0.68154556 -0.63018525 -0.05096705 -0.35953563 -0.1362826 0.08596102 -0.101760045 -0.04334087 -0.2026764 0.21891806 -0.19384007 0.46296412 -0.17139563 -0.14058946 -0.8187928
489 0.26347136 -0.26088163 -0.92171216 0.9431895 -0.025003606 0.42771557 -0.35916182 -0.10852323 -0.16375145 -0.43927988 0.5307864 -0.09792557 0.30020657 -0.28759316 0.19693233 -0.432043 -0.5228075 -0.09962294 0.2434502 -0.06746392 0.44790003 0.08846056 -0.36667186 -0.55052406 -0.064917915 -0.46722788 0.27012667 -0.1921472 0.21716245 0.45662317 -0.3287371 0.19580092 -0.01428962 -0.12667899 0.1919337 0.035311967 0.32609743 0.2891945 -0.4234502 0.039472062 0.23971567 -0.3333295 0.041294426 -0.11801746 -0.28318688 0.0859357 -0.5371741 -0.15114155 -0.020965224 0.3057236 -0.014003202 0.02734458 0.38900563 -0.12873018 0.23527506 0.38997868 0.20289244 0.28928328 0.19303985 0.46207008 0.4405739 0.08993318 0.48535946 0.1399525 -0.2613405 -0.0004538785 0.01544915 -0.5046222 -0.74816036 -0.24179433 -0.015464143 -0.41436657 -0.23329818 0.5085135 0.5422911 0.38182274 0.18308146 0.124879055 -0.8717521 -0.09278925 -0.22711203 -0.076277435 0.3912108 0.07456584 -0.37440684 0.17018892 0.12653 0.1284287 0.41927668 0.026758717 0.3394404 0.31464687 0.33007398 -0.0099724885 0.10954822 0.005888843 0.7330522 0.18410218 0.36892748 0.14835557 0.009349597 0.023120433 -0.076675765 -0.16401784 0.40224838 -0.08567648 -0.18251544 -0.4726921 -0.3211418 -0.31683537 0.16162439 0.050881077 0.056789257 -0.7279552 -0.6320431 0.003381062 -0.30601832 -0.036950972 0.105516806 -0.082816176 -0.02137974 -0.1898727 0.29112127 -0.18051772 0.4769652 -0.16085 -0.08094316 -0.8545666
522 0.3133678 -0.19677278 -0.8884788 0.8428746 -0.11158878 0.43367565 -0.35090804 -0.22927752 -0.14059643 -0.33909827 0.4846968 -0.20029917 0.30732685 -0.19278172 0.32712346 -0.4962036 -0.5243728 -0.0601236 0.23725528 -0.08041647 0.32513845 0.30160403 -0.40801263 -0.5220623 0.005217811 -0.49190682 0.14948659 -0.12757598 0.14405276 0.39254493 -0.39728183 0.15422566 0.02050936 -0.1208682 0.2877231 0.10173918 0.3415923 0.21873972 -0.41519958 0.024421705 0.16882958 -0.35379136 0.110620536 -0.022341898 -0.1916497 0.1696127 -0.49593592 -0.1774019 0.11338667 0.2692505 -0.028637573 0.046337914 0.48400462 -0.052770883 0.36365494 0.5072762 0.2445415 0.38816974 0.073436186 0.5459408 0.4118675 0.062772006 0.3181415 0.005570292 -0.15659025 -0.07895279 0.119092666 -0.45435333 -0.72780454 -0.15372103 0.089746185 -0.49266383 -0.29737613 0.5845742 0.5642066 0.28845507 0.14076306 0.12125728 -0.80323267 -0.06475202 -0.21314976 -0.16530745 0.43324813 0.04907703 -0.22187795 0.15772788 0.23729187 0.2514234 0.40674284 0.012431019 0.26887408 0.34785634 0.28564894 -0.13132757 0.08155792 0.03296911 0.66209996 0.25882936 0.38019094 0.07769607 -0.020445576 0.04200773 0.00796938 -0.20865135 0.3213115 -0.097568676 -0.17988336 -0.4707921 -0.35261673 -0.28933027 0.23511413 0.048813146 0.073047616 -0.7311725 -0.52554834 -0.09592431 -0.23219256 0.09407359 0.1329307 -0.09112315 -0.14396475 -0.2582899 0.23394744 -0.11777614 0.40339747 -0.20369375 -0.16537029 -0.78087234
378 -0.27293575 -0.078664824 -0.14233384 0.5930685 -0.26540154 0.055708468 0.15480855 -0.36932 0.0037546067 0.12647066 0.7377284 -0.6641379 -0.26763454 -0.32542646 -0.49559817 0.4072586 -0.2668241 -0.015497007 -0.3808059 -0.08109239 0.3439071 -0.035427567 0.17202087 -0.6174878 -0.45729247 -0.1796529 0.39837945 0.24627234 -0.28909653 0.12621051 0.2559447 0.1994647 -0.5464477 0.37013024 0.3343735 -0.545739 -0.06261197 -0.35230035 -0.40229926 0.1812643 0.5564306 -0.10180002 -0.098211706 -0.071603544 -0.46999753 -0.36248443 -0.4674913 -0.21022844 0.41883445 0.06993529 0.6878954 -0.14545706 0.4669504 -0.2528877 -0.021386527 0.28141445 0.42700794 0.3593475 -0.072281286 0.24461168 0.19447498 -0.13506241 0.14684303 0.4324616 0.6114318 -0.028943941 -0.46158066 -0.5618538 -0.22176549 0.18336461 -0.15281755 0.18032663 -0.28278643 -0.19172764 -0.0053202864 -0.026953347 0.5032287 0.03264576 -0.7076336 -0.053171884 -0.19354033 -0.21990462 -0.6410073 0.49838054 0.75388324 -0.10904967 -0.1227735 -0.25244877 0.4204754 -0.4584806 0.5331751 -0.34137118 0.21445933 0.17914423 -0.08689494 0.0053587696 0.26330155 0.05304713 -0.034387585 0.14144309 -0.037536763 0.5765728 0.024084944 -0.22292803 0.36276188 0.32920152 0.47324753 -0.13179058 0.029138425 -0.21755692 -0.1944375 -0.5238352 0.08718317 -0.16434087 0.09562731 -0.17562401 -0.08242583 -0.58773917 0.35219175 -0.19552073 -0.17795599 -0.39962518 0.2268528 -0.16395368 0.18849331 0.3312747 0.24008463 -0.45071343
70 -0.20071621 0.11585123 -0.05375662 0.029114043 -0.30857807 -0.11415424 -0.27577445 -0.5518887 -0.28237936 -0.12438761 0.5836428 -0.30367166 -0.21223575 -0.23224483 0.18891746 -0.30431998 0.11526267 -0.10981412 0.070625335 0.0077195717 0.27676925 -0.066633716 -0.06877895 0.11719061 -0.35927603 -0.2864688 -0.17057568 -0.24722323 -0.02543055 0.2851969 0.5223283 -0.53728896 -0.26869673 0.006455614 0.32128718 -0.7207599 -0.005170792 -0.19010982 -0.26278147 -0.30713093 0.3686342 -0.122167885 -0.30587444 0.035876155 -0.8828448 -0.6023514 -0.18558954 -0.11247154 0.23542611 0.44180265 0.8922403 0.15096535 0.39103374 -0.06322454 -0.14992495 0.10339139 0.159199 0.5668461 -0.08295131 -0.07814921 -0.10733427 -0.4569026 0.15364718 0.34954908 0.3482433 -0.013985298 0.032752022 -0.3847625 -0.19341205 -0.06079938 0.10325247 0.4775807 0.035740286 0.07289828 0.03936266 0.3359634 0.20022196 0.4454696 -0.8353621 -0.30289865 0.06820952 0.2840964 0.1685168 0.016382854 0.33465955 0.2545514 0.43956205 0.17010324 0.14909206 0.24548188 0.03542107 -0.055802986 -0.0009257174 -0.13435143 -0.112930454 -0.20041895 0.16661376 -0.05037135 0.26973373 0.060388755 0.17101641 0.13203387 0.27787754 -0.07464933 0.2893348 0.21041957 0.35112435 -0.03687975 0.49159476 0.08559454 -0.3314878 -0.44111097 -0.6230724 -0.07857653 0.12320585 -0.33693808 -0.44473052 -0.100770846 0.34606704 -0.784352 -0.2613442 -0.29560024 -0.061241005 0.12602216 0.09907225 0.064987786 0.008866466 -0.09211577
83 -0.16044201 0.12674528 -0.039250743 -0.0004192267 -0.15206614 -0.05375609 -0.3555998 -0.45867732 -0.26070392 -0.1493073 0.5885722 -0.3047343 -0.16307437 -0.21335064 0.14442685 -0.36205354 0.044091478 -0.13710652 0.034943495 -0.123014025 0.2953714 -0.107084446 -0.05785871 0.27114207 -0.31196296 -0.17226465 -0.17962632 -0.19475254 0.063538715 0.38699064 0.60814923 -0.6284848 -0.27996266 -0.04528499 0.37359184 -0.69832474 -0.018448828 -0.22646835 -0.2544251 -0.36616188 0.38639048 -0.19720711 -0.35330987 0.043157537 -0.9290252 -0.726952 -0.1921474 -0.09293822 0.18851598 0.30433953 0.8720076 0.2502941 0.3577622 -0.14954247 -0.16420756 -0.010198967 0.14184831 0.6641604 -0.1236029 -0.057666916 -0.15921105 -0.5372096 0.14493251 0.29394698 0.31169677 0.003835263 -0.08857156 -0.42930472 -0.17078312 -0.11130814 0.14616841 0.49990118 0.012385213 -0.06665079 0.011839115 0.28373554 0.21100335 0.5666901 -0.86546946 -0.28804314 0.10257998 0.23097049 0.2095028 -0.081355624 0.43362546 0.2389593 0.36981058 0.051217385 0.19322152 0.4119924 0.047056645 -0.08890844 -0.074301586 -0.0675562 -0.0476588 -0.31333038 0.129212 0.00344686 0.2638251 0.09402406 0.16185442 0.10957026 0.20061374 -0.12044221 0.249752 0.14828074 0.24409187 -0.045974355 0.50516605 0.067006856 -0.16414882 -0.54990906 -0.6231937 -0.16767998 0.1640311 -0.34705162 -0.3340519 -0.094514444 0.25977427 -0.8294867 -0.13533443 -0.20892459 -0.081614845 0.15482028 0.03184533 0.15895541 0.08427693 -0.19286373
106 -0.19980004 0.10295518 -0.014106714 -0.03667402 -0.25435895 -0.038641375 -0.2683025 -0.45093146 -0.38872045 -0.12185688 0.6265746 -0.31136683 -0.13628559 -0.30078796 0.105016924 -0.27140093 0.060235493 -0.090866156 0.06322158 -0.14398007 0.28083968 -0.098111086 -0.11487994 0.2528866 -0.21805456 -0.12829861 -0.10326886 -0.2670684 0.006051305 0.3292684 0.642828 -0.6419377 -0.30812052 -0.113145545 0.513741 -0.72047824 0.029509658 -0.24695615 -0.35309878 -0.48930722 0.3980129 -0.2577274 -0.3287064 0.012995106 -0.9041345 -0.7330033 -0.12853958 -0.18942992 0.14857957 0.2842656 0.8463655 0.22535561 0.4258063 -0.15503147 -0.07835736 -0.07613783 0.1498743 0.5631466 -0.18823394 -0.05301034 -0.118049845 -0.62263936 0.10387747 0.30133078 0.32010967 -0.054721598 -0.06965282 -0.4470388 -0.13207346 -0.21723467 0.13334675 0.46565405 -0.0123800235 0.0216985 -0.05508978 0.3569224 0.12674087 0.50055665 -0.86652404 -0.21652667 0.17708051 0.054521643 0.19657743 -0.16944304 0.52478224 0.26856375 0.46490613 0.24729133 0.14839935 0.26029548 0.08956409 -0.06132632 0.04970655 -0.11117468 -0.022165734 -0.2454634 0.18402593 0.02985601 0.2790701 0.228813 0.14980234 0.04503996 0.1528671 -0.15101498 0.3309667 0.19759922 0.32735547 -0.11754611 0.5162924 0.067282215 -0.21852888 -0.5411385 -0.6279593 -0.21231805 0.3750608 -0.36699635 -0.37024212 -0.087308995 0.31124693 -0.79655296 -0.09929639 -0.3158884 -0.15526773 0.13243653 0.11122944 0.10333051 -0.13394098 -0.18171276
116 -0.17736931 0.06196336 0.019585919 0.09061226 -0.32092848 0.01783323 -0.42136732 -0.47348663 -0.3237085 -0.18600513 0.8429525 -0.30343854 -0.08127776 -0.23374657 0.07963309 -0.28616905 0.11185968 -0.20936523 0.038556334 -0.1775419 0.41036105 -0.11178291 -0.1998078 0.1672094 -0.23051901 -0.052595545 -0.24342267 -0.2811854 0.003915515 0.33024535 0.6154028 -0.5767872 -0.33965066 -0.04778146 0.37116826 -0.82349527 0.005434136 -0.033745088 -0.38769725 -0.47884533 0.40318987 -0.26940155 -0.40916488 -0.013586624 -0.874658 -0.7727026 -0.1987748 -0.26563147 0.057385188 0.33783558 0.9025232 0.18120216 0.42634258 -0.048351783 -0.0656373 -0.06957665 0.17596467 0.4678342 -0.08226556 -0.13447945 -0.009469841 -0.62579477 0.16013587 0.37412897 0.17880641 -0.011671815 0.027016 -0.54047 -0.044681568 -0.15014416 0.09234732 0.4095043 -0.0730123 -0.104115486 -0.04267809 0.61317533 0.3286516 0.47228208 -0.7556025 -0.29709038 0.16534412 0.115430124 0.24530897 -0.28574216 0.40558866 0.22311318 0.56594044 0.15393044 0.18081267 0.21200629 -0.13620771 -0.12673458 -0.067326576 -0.18414088 0.045439176 -0.26009715 0.21569107 -0.032025207 0.34029678 0.1877996 0.1702227 -0.023572125 0.14756426 -0.13156208 0.37930956 0.1599498 0.391466 -0.18798718 0.63895524 0.07640933 -0.20240767 -0.54635173 -0.7285815 -0.32118988 0.20896125 -0.5643304 -0.444013 -0.17261921 0.22907102 -0.86083347 0.040384173 -0.42422664 -0.17222387 0.36877224 0.15095168 0.084540345 -0.08723933 -0.2427967
173 -0.1912926 -0.09423309 -0.08564282 0.060646977 -0.39189932 0.066572696 -0.362596 -0.43924564 -0.35523993 -0.16763218 0.8529921 -0.30093545 0.00038694055 -0.25674963 0.013571818 -0.27464622 0.07249037 -0.27748957 0.013038256 0.065440305 0.40319535 -0.2100066 -0.21586098 0.18233423 -0.15717734 0.01505314 -0.12696381 -0.39681086 -0.14982887 0.32904732 0.7131301 -0.553422 -0.23343168 -0.08044713 0.51006573 -0.7969855 -0.07681852 -0.08958988 -0.44681382 -0.5258509 0.3764143 -0.23451354 -0.36850837 -0.025898194 -0.9119043 -0.76506835 -0.15539892 -0.2554196 0.0028228757 0.36478025 0.84153646 0.23311543 0.42677605 -0.19281007 -0.11934873 -0.0711543 0.10186204 0.5505192 -0.113039136 -0.15416583 0.0015911378 -0.6776005 0.08013384 0.3308376 0.2593684 -0.018538143 -0.043961905 -0.5392618 -0.007622885 -0.06089962 0.117797844 0.52406794 -0.19615681 0.05331396 -0.11021043 0.5170547 0.27481803 0.4941653 -0.8917802 -0.04984095 0.13997902 -0.01745016 0.23149319 -0.2846895 0.53798044 0.31570685 0.65771794 0.3391474 0.26647106 0.14733665 -0.03920491 0.016948437 -0.006165892 -0.16050164 -0.028329944 -0.25407776 0.20889689 0.062347323 0.25649872 0.25384456 0.18852118 -0.037357774 0.061542403 -0.12815024 0.33706927 0.080610484 0.3670131 -0.18638901 0.6185534 0.1856095 -0.32190257 -0.5788787 -0.89989126 -0.26271605 0.51027274 -0.5703091 -0.5552533 -0.1275077 0.35676154 -0.8390289 -0.13430814 -0.4164995 -0.19826098 0.2673256 0.17997545 0.0040170066 -0.22828819 -0.4148266
227 -0.21899769 -0.14823152 0.10225177 0.026917819 -0.4128813 -0.040252358 -0.12358668 -0.5017244 -0.48580655 -0.111339144 0.8282115 -0.24078205 0.056071725 -0.13353312 0.09820457 -0.2661454 0.3432671 -0.39450783 0.015277651 -0.014937469 0.42356735 0.054645967 -0.25457215 0.1794822 -0.114919126 -0.07920573 -0.24967065 -0.37707564 -0.21534249 0.28848752 0.74511427 -0.4831427 -0.22675724 0.031391237 0.37632087 -0.8739623 0.044308186 -0.124922454 -0.46008837 -0.6547865 0.5410184 -0.14459665 -0.44231537 0.024032034 -1.0400134 -0.8024172 -0.11647678 -0.20358728 0.1009873 0.3812059 0.8376134 0.3326165 0.41076714 -0.08791629 -0.058553677 -0.020783866 0.27392313 0.54430795 -0.12247954 -0.30014 -0.12149011 -0.7501966 0.06258648 0.39344615 0.23127505 -0.051076196 -0.010994677 -0.5333001 -0.045865834 -0.13982072 0.12425398 0.5358636 -0.23285127 -0.10225702 -0.09392112 0.6324565 0.18198764 0.43563983 -0.8759582 -0.2965407 0.17169912 -0.051101707 0.15020615 -0.28538692 0.56967795 0.2734903 0.5744612 0.27767825 0.20521857 0.18658742 -0.11913241 -0.29050726 0.072574064 -0.17499086 0.038123537 -0.17615598 0.17861201 0.0524487 0.2432057 0.15232404 0.27600703 -0.08251265 0.018167946 -0.19120766 0.31533983 0.066615835 0.34476635 -0.24651939 0.7262956 0.31513423 -0.47632274 -0.63822854 -0.8554387 -0.40922314 0.6073826 -0.5196691 -0.46065757 -0.31665716 0.29545325 -0.68446076 -0.10419411 -0.42628172 -0.32777712 0.26928318 0.2266899 -0.009877098 -0.06486246 -0.43177933
228 -0.24084385 -0.16641827 -0.082078904 0.02757206 -0.31123522 0.06219713 -0.32749924 -0.53934395 -0.31141144 -0.1842169 0.8843321 -0.17548576 0.07003288 -0.30719227 0.060040027 -0.33921555 0.21637689 -0.4086248 0.035585873 0.057656933 0.3987995 -0.12128474 -0.30610284 0.0886693 -0.12642112 -0.05817039 -0.2065287 -0.39830482 -0.19227576 0.33125198 0.6711867 -0.47048312 -0.16817541 -0.029661437 0.5056074 -0.7512248 -0.11957841 -0.17042857 -0.40929142 -0.7197865 0.30191922 -0.20538393 -0.40409738 0.262292 -0.91899025 -0.6297365 -0.24852134 -0.13274616 0.033487238 0.3919899 0.8312649 0.3260738 0.39626145 0.046443097 -0.15438029 0.027532794 0.15482041 0.6401417 -0.120382495 -0.2646244 -0.060558304 -0.7615043 0.1785914 0.49815756 0.12914325 -0.060156427 0.009984439 -0.55073416 -0.13990864 -0.23006457 0.060248945 0.50756216 -0.13787964 -0.08829019 -0.14494675 0.60840446 0.3137427 0.28223428 -0.89548355 -0.15764062 0.35015574 -0.026749529 0.124306366 -0.19923313 0.48930845 0.42290726 0.5971257 0.33484873 0.3535899 0.215318 -0.018080171 -0.16509618 -0.063938744 -0.1402835 -0.029929103 -0.2161082 0.3692668 0.18903308 0.27929404 0.20712197 0.21313217 -0.08322274 -0.0632643 -0.123704255 0.26013234 0.029220598 0.22382237 -0.15460719 0.6495966 0.28942466 -0.53061223 -0.63270944 -0.9215374 -0.2934409 0.5823329 -0.4693893 -0.49843544 -0.42825115 0.17547742 -0.7182653 -0.08436233 -0.47455117 -0.20762596 0.3028977 0.25619477 -0.069375046 -0.04823079 -0.44507864
230 -0.14194994 -0.040020246 -0.05219731 0.050229505 -0.37218094 0.081946984 -0.32481292 -0.44863543 -0.27138805 -0.22242019 0.85957617 -0.11401956 0.18572351 -0.14448395 0.13400096 -0.27656668 0.16383825 -0.5541514 -0.024839094 -0.108126625 0.40682295 -0.1661189 -0.31110913 0.020308625 -0.054011095 -0.07463327 -0.27977374 -0.2935428 -0.043204937 0.24182105 0.7229025 -0.5680357 -0.20398606 0.024800621 0.30426058 -0.76067287 0.024754215 -0.025542216 -0.29453945 -0.7000122 0.44050094 -0.075931646 -0.5539654 0.2858109 -1.0646198 -0.6456075 -0.2228505 -0.41050017 0.015945904 0.31690302 0.7526419 0.24712455 0.48569518 0.030363662 -0.16731405 0.115196 0.25587738 0.6918369 0.004294848 -0.2946397 -0.13089535 -0.72127974 0.23008464 0.38748586 0.05256133 -0.011780705 0.021041151 -0.46106267 -0.109354585 -0.042210963 0.11233885 0.49784577 -0.27061158 -0.090996556 0.033226818 0.72473514 0.43157503 0.2700368 -1.0510393 -0.22540209 0.13356663 -0.016338497 0.11006597 -0.06497141 0.49759847 0.3647898 0.61239165 0.26845142 0.48416507 0.30309188 -0.1408806 -0.20816934 -0.11883005 -0.20193769 0.064407244 -0.12249364 0.46789426 0.07276052 0.4203708 0.19171543 0.2989147 -0.09902269 -0.095483504 -0.10054213 0.058930002 0.02273922 0.2712218 -0.13190734 0.64197993 0.19609593 -0.6284988 -0.4789617 -0.8418738 -0.39645788 0.5450108 -0.5120064 -0.41853893 -0.4171283 0.35091308 -0.74151295 -0.13149494 -0.391537 -0.26906732 0.36258182 0.20179959 0.004813832 -0.0018722691 -0.51267266
333 -0.23860559 -0.23719402 -0.062603086 -0.0066848854 -0.20646922 0.024181014 -0.2799544 -0.5342626 -0.4029766 -0.1977806 0.97351104 -0.055458 0.26426122 -0.1701898 0.1927729 -0.45140994 0.1143509 -0.4183852 0.08826193 -0.06445085 0.3694095 -0.08650469 -0.30603054 -0.010467769 -0.040875953 -0.10172618 -0.19744165 -0.31557226 -0.044401746 0.16095443 0.775885 -0.6255446 -0.2416433 -0.035141055 0.4887731 -0.6840442 0.15435025 -0.13783734 -0.3315663 -0.5733807 0.36993507 -0.18280238 -0.5358774 0.29888064 -1.1004319 -0.5707413 -0.012289313 -0.33040413 0.024238745 0.39816138 0.7150024 0.19056943 0.54612935 0.02994625 -0.38547745 0.06943459 0.45419845 0.690881 -0.07065671 -0.25924766 -0.07141005 -0.55404574 0.23809001 0.51021516 0.13075224 -0.08565653 0.15977468 -0.47396868 -0.2128963 -0.16490464 0.1509267 0.43494183 -0.18280831 -0.13044737 -0.041898236 0.636205 0.42369574 0.15149717 -1.0921899 -0.3073728 0.30921546 0.053301785 -0.03680049 -0.21327573 0.49509254 0.35424256 0.6011105 0.389845 0.25654513 0.27215716 -0.105135046 -0.11625121 0.12584601 -0.17615096 0.06010344 -0.11473176 0.6626187 0.09433151 0.2637247 0.21505755 0.14948156 -0.008214727 -0.08133113 -0.092390835 0.08861528 0.052446716 0.39068773 -0.122595 0.4666597 0.19970062 -0.601138 -0.475766 -0.8444124 -0.32652977 0.60155696 -0.4570425 -0.44877666 -0.6705778 0.42277673 -0.6301504 -0.24803182 -0.35221696 -0.30552435 0.30327654 0.16984037 -0.04792713 -0.01721924 -0.35889775
