5 128
418 -0.0022111484 0.0028664784 0.00027213639 0.002383701 -0.0015010543 0.0017083166 0.0012801402 0.0032540208 -0.0012921033 -0.0010558942 0.0015744622 0.0035890655 0.0011266565 0.002502458 0.0035798165 0.0038580112 -0.0016823998 0.0038083317 -0.000114345734 0.0009772442 0.0021892765 -0.00018376193 0.0036459756 -0.0004111474 -0.0027857537 -0.0026870815 -0.0023031973 0.0004995692 -0.0009112674 0.0032455635 -0.002196083 0.0024008136 0.0036155006 -0.0031849027 0.0038872976 -0.00094526465 -0.00022755831 -0.0015716811 0.0011157477 0.0022334256 0.0004915828 0.0004788276 0.0032425884 -0.0011585267 0.0034813418 -0.00066415634 0.00067990896 -0.0006684499 -0.0005900463 0.0013105285 0.00047612356 0.00014457236 -0.0015876251 -0.0013059558 -0.00084106746 0.0016528064 -0.001444698 0.0025370335 -0.0036578297 0.0038309486 -0.00064390735 0.001833862 0.0025754594 -0.0021337182 0.00038573347 0.0020924192 0.002867656 -0.00014269278 -0.0018228309 -0.0027150935 -0.0010943996 -0.0027312415 -0.0029666787 0.0022990662 -0.0032668156 0.0028152408 -0.0012993066 -0.0002304543 -0.00038694154 0.00014028793 0.003562979 -0.002775926 -0.0006251736 -0.00052911043 -0.0012540395 -0.0013971784 -0.0037013094 -0.0012287943 0.001913692 0.0027197923 9.513023e-05 0.0019045406 0.0024393974 0.003864193 0.0039047236 0.0019584976 0.0009522205 -0.0016943222 0.0036675693 0.0023317423 -0.000570739 -0.0021026037 0.0003508756 0.00026015015 -0.0023221034 0.0038681591 0.0033378652 -0.0010949963 -0.0025347227 0.0014762735 0.0017207966 0.0033612365 0.0009820678 -0.0027179848 0.0021544602 2.075113e-05 0.0032840525 -0.003563073 -0.0028799886 0.0036587939 0.0003128523 0.0015950832 0.0021878376 -0.0012593446 0.003327659 0.0022495242 -0.0032502727 0.0024981005
421 0.0032623846 0.0015442631 0.0032329098 -0.0003587958 -0.0025953935 -2.7598726e-06 -0.0015144283 -0.0033146685 0.0014928852 -0.0010999743 -0.0034807606 0.002570463 -0.002783239 -0.003053725 -0.0024612655 0.0014401289 -0.0019994015 0.0010366507 -0.0008366914 -0.0007872064 -0.0007273016 0.0008782329 0.002900782 -0.0034162987 -0.0034830866 0.0034086192 -0.000229339 -0.0035845903 0.002341939 0.00078559085 0.0027328478 0.0013755164 -0.0007671481 0.0010078325 5.3185096e-05 0.0026994944 0.0005704691 -0.0030121058 -0.0018138844 0.0017397354 0.00075836905 -0.0031845463 -0.0028228888 -0.00284819 -0.0027299304 0.0034440588 0.0023625044 -0.001487864 0.0019265406 -0.0020813788 0.0021752818 0.0009630567 0.00032679073 -0.0033512393 -0.0002806968 0.00044267657 0.0007190343 0.002183102 -0.003735481 -0.001339131 0.0022629923 0.001342443 0.00034749182 0.0030128604 -0.0033470797 -0.00032358378 0.002556139 0.0034037456 8.3447165e-05 0.0033846668 -0.0029553615 0.0038795567 -0.0024543835 -0.0017506641 0.0006500808 8.473355e-05 0.0023268654 -0.000575869 0.0031492135 -0.0015538562 -0.0012264595 0.0037470348 0.0037501792 0.0012996655 0.0013879274 0.0023528703 -0.0016430843 -0.0016800712 -0.0009904663 0.0036268602 -0.0018060334 -0.000892548 -0.00073255564 -0.002868084 0.0024669617 -0.00011144485 -0.00053782284 4.380855e-05 -0.001029394 0.0011079817 -0.0018974748 0.00037661463 -0.0017116494 0.0015626892 0.00029098068 -0.0032978135 -0.00016739708 -0.0036697488 -0.0037210064 0.00047413635 -0.003164205 0.0026364757 -0.0021515286 0.0037613395 -0.0019767217 0.0019553546 0.0036251792 -0.0037701514 0.0013595201 0.0025508148 0.0009861082 0.00073505315 -0.0002008155 -0.00056426233 -0.0015059662 0.0007974844 -0.00333856 0.00048794487
420 -0.0015702528 -0.00057274196 -0.0007257232 -0.0017821738 -0.0027524184 0.0038957768 0.0024128265 -0.0035399306 -0.0031238487 -0.0011474896 0.001129453 -0.0021645795 0.0028302216 0.0025444333 9.622399e-05 -0.0016781592 0.0020106751 7.802654e-05 -0.00017825555 0.0013358876 -0.0008671545 0.00041540482 0.0017541385 0.00080333743 -0.00025170745 -0.0014908946 0.0010131678 -0.0034469173 0.0024147439 0.0033293625 0.00072874303 0.0028465544 -0.0033105472 0.0017572702 -0.0031237716 0.0028556904 0.0020469488 -0.0028846874 0.0036652337 -0.0026570857 -0.0039219605 0.0021034544 0.003380779 -0.002615857 -0.0025755034 0.0002239161 -0.0020985985 -0.0029623318 0.003172409 -0.0030972995 -0.003388977 -0.0019798009 -0.0033148178 0.0034856163 -0.0003107499 0.0030192554 0.00044492376 -0.0024494396 0.003541535 -0.0022026538 -0.0034883989 0.0006354885 0.0006015948 0.0011255662 0.0030747878 -0.0015663202 -0.00077548635 0.002512646 0.0010506957 -0.0011197802 0.0017227557 -0.0014281189 -0.0008072443 -0.0024550343 -0.0033287355 0.0016505892 -0.0007211098 -0.0027980774 0.0015683338 -0.0037902386 -0.0026450374 0.0037758297 -0.00230592 -0.0007973262 0.00212801 0.00081656425 -0.0016454264 0.00197962 -0.0037182497 -0.00282645 -0.0012716874 0.0030130579 0.0011378003 -0.0012810985 -0.0011620953 -0.0012374376 0.0032413066 -0.0020523188 0.00072542235 0.0032175165 0.002121265 -0.0012775966 -0.0019650848 0.003262213 0.0038392644 -0.0024395129 0.002979004 0.0014318369 0.00049833406 0.0016951397 0.0011740851 -0.0003784732 0.003565083 -0.0008645753 -0.0014455884 -0.0014666296 -0.0012079516 0.0011844075 0.0023266894 -0.0015946625 0.002617532 -0.002408444 -0.00096018706 -0.001265323 0.003566318 0.0005504522 -0.00019480672 -0.0034936555
415 0.003229527 -0.0034550368 -0.0038829648 -0.0010621799 -0.003677639 -0.0037413212 0.0037799967 0.00084276136 -0.002974527 0.0021631117 -0.0014395723 0.0013820064 -0.0012563302 -0.00093759765 0.0028305787 -0.0018927152 3.0657844e-05 0.0017051328 -0.001376497 -0.0008739594 0.0011169121 0.0025992708 -0.0034145166 -0.001514253 0.0014970679 0.0031602753 -0.00025562427 0.0020614252 -0.0024034972 0.0021288798 -0.00048113352 -0.003797162 -0.0032742165 -0.002670822 0.0009775261 -0.0027260794 -0.0022201622 0.0027473448 -0.003127073 -0.0022489398 -0.0013543831 0.0011376393 -0.0038249292 -0.0011077034 -0.0010819571 -0.0035925286 -0.003098949 0.0027027053 -0.0033262447 0.0013561879 0.0027901568 -0.00040216008 -0.0017093025 -0.0025048114 0.00017697086 0.0012163748 -0.0022987712 -0.0019828973 0.0020645699 0.0019635246 -0.0035893095 0.00061203906 -0.0031575668 -0.0036045576 0.0034544668 0.0013560085 0.00058734865 -0.00079577114 -0.0033264956 0.0030946983 0.00047637895 0.001379657 -0.0007208572 0.0028277333 0.00037387316 0.00041983902 0.0019275855 0.0034928648 -0.0024230932 0.00018438106 -0.0033323732 -0.0019264075 -0.00024057752 -0.0027902105 0.0028746305 -0.0026692383 0.0006284309 0.0035637056 0.0006847961 0.00081110356 0.0024705308 0.0005891142 0.0021127255 0.0020724263 -0.0011881889 -0.00029315232 0.0029310891 0.0038806023 -0.0018872493 0.0035144356 0.0032164527 0.0030107081 0.0010817703 -1.8497507e-05 -0.0039333976 0.00022240361 -0.003521864 -0.0028135707 0.00075843604 0.00014552218 -0.0011333995 -0.0027659507 -5.8833735e-05 0.0014900423 0.0034240247 -0.0007350545 -0.0024008984 -0.0013311538 -0.00073148723 -0.00015484792 0.0015772947 0.0026327032 0.0028860166 0.0002245171 -0.0028512168 -0.0033045697 -0.0023472449 -0.0038624909
417 -0.0005931553 -0.0038757825 -0.0028464396 0.0020670274 -0.0020601684 0.003034093 -0.002943219 -0.003479705 0.0032981224 0.003316578 0.0013289993 -0.0016111314 -0.0031759203 -0.0030293448 0.0038625107 0.003426648 -0.000212666 0.0013212117 -0.0017226918 0.0026417829 -0.0029673374 -0.0010737827 0.0021617122 0.003849264 -0.0033545883 -0.0038640762 0.0038283847 0.0018103068 0.0031225737 -0.0031601202 0.0013507617 0.0023493902 0.002450291 0.0008100803 0.0024292425 -0.0013644678 -0.0015545595 -0.0014907396 -0.002555635 -0.0027300082 -0.0036778385 0.001786451 0.0017813119 0.00048968586 0.0005133983 0.0027607605 0.0020979296 -0.0036016768 -0.0034261714 -0.001874311 -0.001768965 0.0005369917 -0.00048283793 0.003322017 0.0033034668 -0.0029487703 -0.0017187973 0.0011928162 -0.0020087017 -0.0004815478 3.0059944e-05 -0.0015010828 0.0035864122 -0.0027538526 -0.0011016198 0.0003548383 0.002864282 -0.0004074847 -0.0016772546 0.00077501935 0.002317315 -0.0016181081 0.0039122393 -0.0021318754 -0.0027756665 -0.00077986286 -0.00074214477 0.0027901959 -0.0030406248 0.0023293807 -0.0027896164 0.0038563558 -0.0034871353 -0.0020415646 -1.1197646e-05 -0.0027161157 0.0037796441 0.001481337 0.0037358904 -0.001772753 -0.0036184127 0.0024664092 0.003681568 0.0017654711 -8.306513e-05 0.002276452 -3.4708195e-05 0.0025712205 -0.0027226708 0.0031275365 0.0017929723 0.0012543311 -0.00060713076 0.003704964 2.6756263e-06 -5.809627e-05 -0.002972342 -0.00068321475 -0.001666381 -0.00056353974 0.0022840083 -0.0017877023 0.0020925188 -0.0027934732 -0.00038802892 0.00012224264 0.002017452 -0.0006480683 0.0019925467 -0.0011733795 -0.0030544237 0.003233646 -0.0015180598 0.00328441 -0.0009001838 0.0036875277 0.00010225322 0.0009150097