422 128
3259 -0.0058178324 0.14727558 -0.13741712 -0.056698825 0.0053724605 -0.070936404 -0.049707405 0.059964407 -0.110139176 0.002067398 0.019984515 -0.0384327 -0.08567566 0.0019517019 0.073820315 -0.0746103 -0.006270164 0.07040908 -0.01580258 -0.006680979 -0.0752933 0.0077370433 0.23069608 0.056805357 -0.1681092 -0.036954466 0.041270845 -0.012427772 0.030688915 0.086198404 -0.0054067443 -0.029496426 0.03542981 -0.17223391 0.03647535 -0.019315764 0.03195955 0.049314536 -0.19021398 -0.03341878 0.07893803 0.10153473 -0.08248943 -0.163252 -0.1220835 -0.17153507 0.04416285 -0.058220886 0.032573674 0.13741887 0.062452387 -0.013936356 -0.04975183 -0.012025905 -0.04487422 -0.027954474 0.06570391 -0.031010922 -0.11641729 0.21257119 -0.096467085 0.028147614 0.060308464 0.13671829 0.01845218 0.00801397 0.055704992 -0.07972341 -0.09199578 -0.016931737 0.020359332 0.0039398856 -0.06282148 0.10841555 -0.08498704 0.03595416 -0.09473516 -0.028564343 0.020004496 0.09086306 -0.07189946 0.09459964 -0.054621756 0.050700728 -0.11307323 0.06070562 0.07085722 -0.016446466 0.030970512 0.076854035 -0.037422314 0.017396288 0.080631174 0.005648149 0.10554853 -0.034994714 -0.007871891 -0.028239565 -0.05204458 -0.019734604 -0.133456 0.05672135 0.049035266 0.03394308 0.0381446 -0.039956767 -0.07218542 -0.07757292 -0.08225072 0.11303986 -0.1735149 0.07986635 -0.120911516 -0.05892472 0.02826244 0.064195916 0.12157387 -0.024580918 -0.002403052 -0.017078055 0.13180336 0.0706969 -0.055459104 -0.069580235 -0.0047110696 -0.09669929 0.06449024 -0.020523204
3287 -0.009351364 0.18435255 -0.17164326 -0.06855396 0.0130440295 -0.084347226 -0.059761178 0.07497817 -0.1387464 0.0072737443 0.020571407 -0.054906186 -0.104958095 0.001735132 0.09521853 -0.096841075 -0.009087281 0.091208816 -0.015996786 -0.0075042876 -0.095723435 0.0039391564 0.2899251 0.07709637 -0.21885006 -0.04557112 0.054276224 -0.014998845 0.043469064 0.11301192 -0.0006487861 -0.0354824 0.045941584 -0.21655731 0.050282065 -0.02355733 0.04410874 0.06463517 -0.2364355 -0.044200964 0.09202733 0.12824252 -0.105320506 -0.19800925 -0.1485611 -0.21092291 0.057125278 -0.07725939 0.044538524 0.17683977 0.08437609 -0.01479988 -0.0605533 -0.019469738 -0.051210552 -0.036287483 0.07943247 -0.036439624 -0.14727998 0.26268163 -0.11839951 0.03385714 0.0806345 0.18023548 0.019486485 0.013114264 0.07401878 -0.10264653 -0.11256641 -0.020092754 0.02140207 0.0127678 -0.07648592 0.13509233 -0.10610997 0.042918146 -0.1213622 -0.031049496 0.02824203 0.11411023 -0.086587496 0.12513927 -0.06607263 0.05663401 -0.14416495 0.07746288 0.08660077 -0.026140023 0.03970854 0.09298107 -0.046737317 0.021735266 0.09963486 0.012870747 0.1303852 -0.04060774 -0.0136912735 -0.030044563 -0.060265485 -0.021684453 -0.16951323 0.07342755 0.06339084 0.044061456 0.045742143 -0.051224966 -0.08778472 -0.104438126 -0.10013533 0.13819201 -0.21460234 0.10567203 -0.15107717 -0.06786217 0.033910096 0.081050254 0.15235639 -0.029455563 -0.00049152115 -0.022822384 0.16571121 0.08560988 -0.07027414 -0.082916014 -0.00031616827 -0.12964301 0.0843177 -0.017264236
3312 -0.010851252 0.20802371 -0.19198757 -0.07705614 0.0129235955 -0.094410084 -0.069452725 0.08555148 -0.16227879 0.009497756 0.026578428 -0.06143564 -0.119923115 0.0015536305 0.11090557 -0.105864376 -0.004680239 0.09699254 -0.021224946 -0.004383805 -0.108464405 0.0074476027 0.33666265 0.08836612 -0.24941286 -0.052098986 0.05855652 -0.015731547 0.05216768 0.12639041 -0.0053706625 -0.045436528 0.054025024 -0.24913219 0.057481166 -0.035777155 0.048423253 0.07379 -0.26932445 -0.05691098 0.10780302 0.14118788 -0.12108929 -0.23261948 -0.17416784 -0.24330059 0.070574485 -0.08117667 0.04787461 0.20435429 0.09318051 -0.016952047 -0.06990347 -0.017528802 -0.05809519 -0.040951207 0.09027764 -0.044933103 -0.17030859 0.30155185 -0.13366908 0.03589913 0.087590605 0.20618804 0.025301293 0.015446092 0.0874828 -0.11691987 -0.12591942 -0.028606005 0.027955066 0.006986518 -0.081587985 0.15271705 -0.121716 0.052616704 -0.13628909 -0.040645294 0.030769333 0.13511266 -0.10582635 0.14359935 -0.07562501 0.06971877 -0.16342707 0.09186664 0.10506099 -0.028278662 0.048710544 0.10767118 -0.05628672 0.019424135 0.117306225 0.016051311 0.1531824 -0.04633471 -0.013005422 -0.03764869 -0.069740646 -0.019625941 -0.19521502 0.0856583 0.06864174 0.051338404 0.057146356 -0.0577134 -0.10271008 -0.113506384 -0.11664646 0.16277985 -0.25020173 0.11663913 -0.17230402 -0.08424926 0.04009717 0.09720826 0.1705985 -0.03435033 -0.0064038476 -0.021650309 0.18811524 0.099403486 -0.08266525 -0.09828585 0.0010195317 -0.14539647 0.09781941 -0.02633875
3283 -0.011561824 0.22512023 -0.20325893 -0.086978935 0.013211269 -0.106687814 -0.07881116 0.0883746 -0.16646688 0.009363638 0.02797977 -0.065284334 -0.1280327 -0.002851633 0.1201916 -0.11161466 -0.007864375 0.108320914 -0.024482893 -0.0033853475 -0.115819186 0.010894009 0.35374853 0.08945476 -0.26229978 -0.058068153 0.06630437 -0.015972799 0.05426457 0.13594122 -0.006562471 -0.05061621 0.05749284 -0.25914127 0.05891577 -0.035856266 0.04751469 0.082691506 -0.2908481 -0.055358376 0.118712455 0.1521482 -0.12906955 -0.24083322 -0.17904681 -0.2543796 0.07393375 -0.089428365 0.04921705 0.21700056 0.097884744 -0.018064853 -0.07231206 -0.019815832 -0.06159766 -0.042890135 0.10362931 -0.048690006 -0.17876568 0.32105184 -0.14550014 0.041737556 0.098158255 0.21694346 0.025239881 0.019021817 0.08779515 -0.116366774 -0.13910511 -0.025764182 0.03038099 0.013765758 -0.087080374 0.16669549 -0.12681128 0.049492452 -0.149598 -0.038549736 0.031267613 0.1397979 -0.11384615 0.1501013 -0.081620924 0.075407796 -0.17311937 0.09997788 0.104443 -0.029558925 0.04770383 0.114320844 -0.057235725 0.021964438 0.1277299 0.016192604 0.15927489 -0.044837505 -0.018400805 -0.034185834 -0.078736216 -0.021954434 -0.20420158 0.09149648 0.078026585 0.054957 0.060284633 -0.06626753 -0.10722108 -0.12038464 -0.12898071 0.1753359 -0.26332074 0.12192757 -0.18055767 -0.08440106 0.0400103 0.103231706 0.1822083 -0.03428067 -0.0049849106 -0.021014743 0.20035477 0.11079458 -0.08648865 -0.102842085 -0.0045820363 -0.15573464 0.10068603 -0.022721
3284 -0.0103405155 0.19454598 -0.18227275 -0.0725391 0.008103675 -0.090024345 -0.066355966 0.079443984 -0.15140909 0.005364431 0.02165859 -0.059069917 -0.11593563 -0.0041351705 0.10381414 -0.097700566 -0.011174581 0.0949628 -0.020831533 -0.0066691847 -0.09449103 0.004741547 0.31104046 0.081956275 -0.22994696 -0.046710804 0.058514632 -0.010788871 0.045957293 0.11749253 -0.0064399275 -0.039236948 0.054113355 -0.23087047 0.052995138 -0.027022252 0.041317575 0.06566555 -0.2546625 -0.050837383 0.10457443 0.13507986 -0.115034595 -0.21809985 -0.15826505 -0.22502458 0.062939785 -0.07829172 0.042481028 0.18406488 0.08724711 -0.021386433 -0.065573394 -0.019923516 -0.058301922 -0.034431864 0.09035795 -0.041294053 -0.15861 0.27592528 -0.12581713 0.034481253 0.082656346 0.18698934 0.02742609 0.010761592 0.08109688 -0.10263465 -0.11894065 -0.02611951 0.024576558 0.008232949 -0.078835204 0.14164223 -0.11158163 0.044205785 -0.1272301 -0.037260666 0.023393512 0.12753779 -0.09792087 0.1305767 -0.07240981 0.06354081 -0.1478303 0.089333296 0.097506225 -0.021194676 0.047008358 0.106266335 -0.051927384 0.020995919 0.112350896 0.009539796 0.13918464 -0.044137582 -0.018196037 -0.03177888 -0.06502446 -0.018906586 -0.18380421 0.07849014 0.06652338 0.04951334 0.04900915 -0.06069822 -0.09806135 -0.10671791 -0.11119272 0.15331635 -0.22669706 0.10812446 -0.16100428 -0.07836791 0.03756776 0.08654337 0.16041085 -0.02952276 -0.00599105 -0.025122192 0.17569731 0.09156674 -0.076603845 -0.08740271 -0.006328848 -0.13575114 0.093553245 -0.024506355
3288 -0.0039645 0.15416461 -0.14275788 -0.05784881 0.012458002 -0.07385601 -0.05149151 0.065408535 -0.11979263 0.010130053 0.01297782 -0.040514715 -0.0853322 -0.004003396 0.08044768 -0.07891985 -0.0036125607 0.07188578 -0.016196737 -0.0022666724 -0.07970426 0.004879254 0.24702886 0.064652964 -0.18107751 -0.034554865 0.04246326 -0.0072176913 0.038714778 0.095867224 -0.0028338062 -0.029612683 0.03958 -0.18195985 0.03782354 -0.021676997 0.031959556 0.056865606 -0.19925255 -0.04258506 0.07954468 0.10153507 -0.09230885 -0.1721178 -0.12938988 -0.18170597 0.052489918 -0.06318628 0.03510654 0.14850467 0.07232556 -0.015921915 -0.047514137 -0.013917496 -0.045996893 -0.026085934 0.06685955 -0.030620622 -0.11766367 0.22324663 -0.09525726 0.023837682 0.06695089 0.14884225 0.01717533 0.010621022 0.0589076 -0.078930385 -0.09319509 -0.02181214 0.01633263 0.005817679 -0.06521151 0.115508184 -0.0897871 0.038272593 -0.1037292 -0.029192643 0.022977488 0.09428503 -0.075184956 0.10451919 -0.056737702 0.054460246 -0.12141144 0.06866693 0.07570413 -0.01637294 0.036034428 0.07995824 -0.039219864 0.014745493 0.08782647 0.0067559364 0.11265885 -0.03556183 -0.008119909 -0.024331897 -0.056202095 -0.019202102 -0.14243157 0.05843387 0.054514296 0.041025035 0.043384865 -0.04899494 -0.07631373 -0.08192267 -0.08530364 0.11563171 -0.17839324 0.08749848 -0.12423967 -0.057394087 0.030719856 0.069198325 0.12546873 -0.021551104 -0.0005638807 -0.01879306 0.1389182 0.07568846 -0.060937382 -0.06550835 -0.0007338059 -0.10601671 0.074927896 -0.016564278
3260 -0.008891864 0.20328616 -0.18424048 -0.07904534 0.0125424685 -0.091176756 -0.06991081 0.082111984 -0.1494779 0.012772761 0.026384851 -0.056959324 -0.11220384 0.0015835706 0.10310137 -0.099770896 -0.009048075 0.095588736 -0.01990533 -0.00573139 -0.101218104 0.009285508 0.31756756 0.079555616 -0.23715578 -0.047648344 0.059331067 -0.0141492 0.04777885 0.1196236 -0.004317243 -0.042893358 0.051312305 -0.2329132 0.056939993 -0.026351236 0.044143714 0.07205328 -0.25986058 -0.051213186 0.10393331 0.13963279 -0.11723678 -0.21833932 -0.16136488 -0.23696259 0.06643639 -0.07941811 0.04450709 0.19000635 0.09187598 -0.016273107 -0.06869925 -0.0136889 -0.055065114 -0.04073053 0.09170332 -0.045381438 -0.1571497 0.28835258 -0.12812786 0.033995267 0.08323715 0.1919878 0.021973133 0.0140307555 0.08174464 -0.11207652 -0.12378312 -0.028494569 0.028213916 0.008111333 -0.07856858 0.14974263 -0.11331966 0.04637145 -0.13482714 -0.036688637 0.02902642 0.12541169 -0.099225365 0.1342122 -0.07385421 0.06644188 -0.15642266 0.09121938 0.098415405 -0.02292395 0.045064386 0.10506725 -0.053065628 0.01906778 0.115580626 0.013635408 0.15002103 -0.044457603 -0.015511428 -0.031957217 -0.06799142 -0.019437041 -0.18662924 0.08344291 0.063894145 0.05408596 0.055116963 -0.055331677 -0.09897689 -0.11038615 -0.11111585 0.1547874 -0.238342 0.11151038 -0.16145532 -0.07949285 0.04296524 0.09474007 0.16338046 -0.028702904 -0.00554886 -0.019026991 0.1818419 0.10163118 -0.07804392 -0.0921723 0.00037649588 -0.14247657 0.09228924 -0.025638634
3286 -0.010409742 0.19939183 -0.18442997 -0.076915346 0.00819546 -0.09231416 -0.064230315 0.08449713 -0.15326402 0.008768268 0.019005096 -0.06053548 -0.11654428 -0.0039383844 0.10225043 -0.10551669 -0.0059496854 0.09627947 -0.01804699 -0.005707729 -0.10230248 0.008730644 0.31923726 0.07752022 -0.23279504 -0.04499736 0.05769149 -0.012114751 0.045122437 0.12451708 -0.00087191595 -0.042312566 0.054067336 -0.23851874 0.054582343 -0.029577732 0.045570858 0.07001295 -0.26173532 -0.053460214 0.106262684 0.13759692 -0.1119772 -0.22230218 -0.16718382 -0.23133303 0.066858284 -0.08290359 0.041095503 0.18860294 0.09367602 -0.01907406 -0.06669752 -0.017924007 -0.059784498 -0.04046855 0.092863046 -0.04509681 -0.1571527 0.2846435 -0.12533352 0.031899013 0.0869551 0.19585112 0.020873385 0.01459251 0.078773975 -0.10858795 -0.1263199 -0.023062345 0.025060521 0.0060483557 -0.08160732 0.14975233 -0.114191346 0.047238596 -0.13567919 -0.039115723 0.030392293 0.12536539 -0.094594784 0.13668399 -0.07149407 0.06836937 -0.157843 0.09201453 0.09414439 -0.023398057 0.048125047 0.105980545 -0.051427674 0.025499262 0.11234747 0.010773004 0.14438218 -0.04367454 -0.016783258 -0.034517948 -0.06802237 -0.024720285 -0.18973893 0.077280685 0.06813225 0.05006323 0.05182895 -0.056378 -0.100229554 -0.11251918 -0.10982174 0.15816854 -0.23213065 0.1107058 -0.16499603 -0.07564866 0.04276848 0.090490036 0.1601721 -0.033552647 -0.005846124 -0.023293257 0.18151002 0.09962637 -0.07204527 -0.08824569 0.0001315408 -0.14274833 0.09243126 -0.019600015
3285 -0.010850076 0.18698236 -0.17087243 -0.06638477 0.013841159 -0.08877466 -0.060757123 0.0743709 -0.1438687 0.008645548 0.022195604 -0.05613808 -0.10659473 0.0028872981 0.09375038 -0.096618816 -0.010341416 0.09033613 -0.016178947 -0.007608593 -0.095540024 0.00528227 0.29517302 0.07004852 -0.21912159 -0.04460432 0.052302543 -0.01093616 0.04313282 0.113187574 -0.0024413853 -0.037603766 0.048157092 -0.21569748 0.05150767 -0.024869684 0.040176418 0.06316046 -0.23450187 -0.044021495 0.093663104 0.12466201 -0.10260626 -0.2049317 -0.15018514 -0.21397911 0.06093325 -0.07614246 0.042723577 0.17604205 0.079509966 -0.015006791 -0.06446787 -0.018953677 -0.054417174 -0.03911118 0.08399194 -0.039487854 -0.14548087 0.2629648 -0.11525187 0.031168988 0.07742141 0.18212873 0.020074576 0.015504064 0.07524345 -0.10043046 -0.11026228 -0.022747392 0.021968754 0.0055487733 -0.07803228 0.132931 -0.103372745 0.041259073 -0.12208976 -0.03047893 0.023371585 0.114441864 -0.09423887 0.12498408 -0.06410456 0.06058834 -0.14212 0.08161287 0.09242868 -0.020990178 0.042134978 0.09452103 -0.04832944 0.017001163 0.09983736 0.008448416 0.1328055 -0.037857678 -0.009768529 -0.030478926 -0.06280812 -0.017826341 -0.16873148 0.069100626 0.061176993 0.044296853 0.04409177 -0.051492956 -0.09321841 -0.10162701 -0.10193288 0.14425045 -0.21882431 0.09820601 -0.15184674 -0.07499641 0.03912527 0.086014494 0.15317029 -0.024424875 -0.0021873494 -0.01992803 0.16675353 0.08585577 -0.07207324 -0.082505874 -0.005905724 -0.12616362 0.0842602 -0.022561101
3400 -0.010483055 0.20840542 -0.19384861 -0.07963895 0.009038804 -0.10239449 -0.07259554 0.08939076 -0.16392082 0.009256821 0.026941163 -0.054219354 -0.12493884 0.0017549451 0.11428704 -0.108883455 -0.011901363 0.10073884 -0.015241936 -0.0032574462 -0.10391425 0.012100724 0.33945388 0.08486908 -0.24647959 -0.05149082 0.06192689 -0.014360949 0.047975298 0.12951875 -0.0014940856 -0.044952247 0.056617353 -0.24736412 0.056275878 -0.030720057 0.04507319 0.07717412 -0.27824458 -0.055901 0.10663051 0.14757946 -0.11842864 -0.23373355 -0.17582199 -0.24479139 0.06540907 -0.0917813 0.045937955 0.20433477 0.10039033 -0.018639784 -0.06668791 -0.018050881 -0.05712679 -0.041519053 0.09930962 -0.04101017 -0.16864502 0.30782974 -0.14158319 0.039577093 0.08769388 0.2065333 0.023117784 0.012933167 0.08309194 -0.115343146 -0.13021247 -0.030219033 0.021140771 0.01093162 -0.08968799 0.15522505 -0.122247264 0.05107344 -0.14162013 -0.035115365 0.028319387 0.13438992 -0.10413712 0.13995138 -0.07783148 0.06526017 -0.1630851 0.09481746 0.103905424 -0.029979162 0.04518161 0.11096873 -0.053595636 0.0250437 0.12131954 0.008531621 0.15943895 -0.0506158 -0.017014274 -0.03882835 -0.07535403 -0.020759938 -0.2023719 0.085932955 0.07444659 0.055224087 0.058551505 -0.062438037 -0.10453368 -0.1183576 -0.1195569 0.15994579 -0.24929316 0.119042195 -0.17202836 -0.08501958 0.03780198 0.09482532 0.17381194 -0.03408961 -0.0010843906 -0.023622079 0.19633944 0.10759037 -0.078325644 -0.09578849 -0.0030477596 -0.14815095 0.09669504 -0.02753281
3275 -0.010473344 0.22815762 -0.2164094 -0.078791834 0.017869797 -0.10903423 -0.08362656 0.09439196 -0.17374142 0.012278609 0.025489718 -0.062251024 -0.13590267 -0.0006033571 0.11987584 -0.11527408 -0.009293023 0.112097636 -0.01768799 -0.009740505 -0.11199437 0.0057877875 0.37182167 0.09440393 -0.27480766 -0.05226575 0.07136194 -0.014227124 0.05379551 0.13724606 -0.007876307 -0.04762726 0.06378666 -0.27261922 0.060213156 -0.031793203 0.04768549 0.086052135 -0.29968834 -0.059729137 0.124036826 0.16206658 -0.13502295 -0.25677332 -0.19401956 -0.26713067 0.07768849 -0.09782594 0.05183778 0.22419353 0.105122864 -0.023205724 -0.079047 -0.014948313 -0.06402379 -0.04511363 0.103969626 -0.048424512 -0.1810765 0.3280124 -0.15211412 0.04104765 0.100701824 0.22514187 0.02560462 0.020086827 0.0874312 -0.12066381 -0.14792533 -0.03299404 0.02332803 0.01189604 -0.09912964 0.17343365 -0.13566762 0.061887626 -0.15647633 -0.043646723 0.025275996 0.14266315 -0.116809085 0.15662014 -0.08776927 0.07457243 -0.1757051 0.10584171 0.10652978 -0.03453662 0.054297067 0.12417384 -0.06166679 0.024373282 0.12974049 0.010854509 0.17100534 -0.049876586 -0.022286667 -0.036086 -0.08380667 -0.02340715 -0.21890144 0.08775755 0.07933096 0.0646025 0.06330784 -0.0728935 -0.115780436 -0.12461235 -0.12811755 0.17964263 -0.2679132 0.12580104 -0.18799734 -0.09068942 0.042161375 0.10335838 0.18441579 -0.030343253 -0.004472707 -0.02058857 0.20885815 0.11355488 -0.08524157 -0.107030176 -0.008305168 -0.16209517 0.109578066 -0.030098794
3282 -0.0071081687 0.15884154 -0.14491376 -0.057920106 0.0075032697 -0.07088082 -0.049788877 0.06595833 -0.118603766 0.0057035885 0.017355427 -0.048027694 -0.08622089 0.0024550962 0.08192052 -0.07989534 -0.009100207 0.076328024 -0.011410373 -0.0047666407 -0.07742097 0.0049893945 0.24564207 0.05960826 -0.18287027 -0.03959184 0.048001517 -0.008912001 0.03684509 0.095711045 -0.005750931 -0.03587676 0.038601127 -0.184284 0.04329495 -0.023375154 0.030361425 0.055690568 -0.2035615 -0.036447726 0.083619304 0.10489174 -0.0881998 -0.17660937 -0.1322069 -0.18062766 0.051303294 -0.06336218 0.030284341 0.15027593 0.07017472 -0.015442918 -0.055774804 -0.016090767 -0.04298057 -0.028041681 0.0726799 -0.030942585 -0.1255554 0.22172055 -0.10323132 0.026777022 0.066088475 0.14756593 0.022600401 0.011261311 0.06569999 -0.08408129 -0.0977483 -0.021383332 0.020685831 0.0084751565 -0.06125408 0.116956316 -0.0880874 0.03507112 -0.10312808 -0.026433552 0.024220742 0.09925744 -0.079193115 0.107192285 -0.059274256 0.054225825 -0.1236188 0.07137672 0.07880304 -0.01703327 0.03401813 0.07902254 -0.039365783 0.013916297 0.08628008 0.009485184 0.111005686 -0.034330253 -0.010138767 -0.025081242 -0.055965047 -0.01748743 -0.14644822 0.063600995 0.054110494 0.040091015 0.03772248 -0.046759736 -0.08159549 -0.08643706 -0.08865192 0.123606466 -0.18830816 0.0850829 -0.12806508 -0.06452422 0.031572714 0.07384669 0.1308185 -0.02006412 -0.001791742 -0.014241285 0.1431853 0.07875081 -0.060204256 -0.06694731 -0.005921713 -0.111596346 0.07347809 -0.020483684
3307 -0.0075821066 0.18294568 -0.1660132 -0.07029544 0.010625089 -0.08861836 -0.06226781 0.077971816 -0.13977954 0.005184647 0.016848886 -0.054001078 -0.10841566 -0.0019364556 0.09751217 -0.09410732 -0.009900873 0.0851157 -0.016931264 -0.0065522296 -0.09237113 0.008190418 0.28995067 0.07490117 -0.21534239 -0.044634055 0.051133864 -0.015579801 0.046308555 0.109785974 0.00032961994 -0.039804373 0.045746636 -0.21466649 0.04614486 -0.030311348 0.04248492 0.06261838 -0.2382721 -0.043823246 0.09779193 0.1251805 -0.10349025 -0.2020136 -0.14739722 -0.21213883 0.0606827 -0.07292485 0.036996752 0.1761026 0.08541794 -0.018322885 -0.05592239 -0.01353769 -0.048586465 -0.037203547 0.08522349 -0.037660934 -0.14109795 0.26277432 -0.11791448 0.03460634 0.08083726 0.17618985 0.024490656 0.01011405 0.075730614 -0.10130707 -0.11330793 -0.026568277 0.018851256 0.005675676 -0.07154471 0.13179237 -0.10480271 0.043408718 -0.12051808 -0.034865182 0.027629467 0.11229354 -0.09011867 0.12203495 -0.06259648 0.06043883 -0.14329936 0.07932706 0.083552286 -0.024798952 0.03783312 0.09527509 -0.046425242 0.019046364 0.09850251 0.009730287 0.13001317 -0.0392962 -0.013330184 -0.030975258 -0.06385305 -0.023303183 -0.17239685 0.07000142 0.061640047 0.044441555 0.048718654 -0.04928171 -0.09015238 -0.103943005 -0.104774825 0.14010237 -0.21190767 0.10204699 -0.14469385 -0.067761004 0.033656336 0.08584033 0.151992 -0.027057111 3.0387262e-05 -0.015589668 0.16657852 0.09031342 -0.0728402 -0.08356256 -0.0022408154 -0.12411659 0.0823517 -0.01913663
3330 -0.010677459 0.2057999 -0.18996847 -0.07711927 0.0138548175 -0.094348766 -0.07047039 0.081577495 -0.1591815 0.012770484 0.02144426 -0.060230117 -0.118606955 -0.0037601853 0.10946948 -0.105433226 -0.0066166827 0.10140157 -0.019535169 -0.007823709 -0.10544727 0.009408189 0.32460985 0.07754522 -0.24120325 -0.05344441 0.05857552 -0.0103398 0.047690827 0.12221776 0.0005709282 -0.041448966 0.0548315 -0.23620117 0.05423821 -0.025990093 0.041089404 0.07057704 -0.26631173 -0.053705707 0.10813581 0.1394035 -0.11551338 -0.22236614 -0.16793363 -0.23715153 0.06773269 -0.08367002 0.04742064 0.19408529 0.09526929 -0.021190526 -0.06913486 -0.016266407 -0.059973285 -0.035957593 0.09068495 -0.04513115 -0.15837565 0.29412562 -0.13019425 0.036296625 0.08854149 0.19674733 0.025540842 0.017055329 0.08570652 -0.10874991 -0.12692198 -0.026434664 0.021600295 0.009278409 -0.08308174 0.14910217 -0.12058528 0.050058387 -0.13597976 -0.034611754 0.030172218 0.13085186 -0.10020557 0.13294499 -0.076007165 0.06380373 -0.15920967 0.09344252 0.09798071 -0.028039727 0.045939405 0.10898512 -0.05171047 0.025195936 0.11416546 0.011558724 0.14956868 -0.043672923 -0.012160353 -0.031279255 -0.068739384 -0.021956636 -0.19430113 0.07747261 0.06497133 0.04948157 0.054460835 -0.058519375 -0.10147323 -0.115181014 -0.1170119 0.15828423 -0.2441007 0.116430864 -0.16491471 -0.08334669 0.042576898 0.0966845 0.16591217 -0.03146787 -0.002311441 -0.018022956 0.18564278 0.09764715 -0.07658548 -0.092203885 -0.002950464 -0.14438392 0.097765334 -0.024823878
3306 -0.011149438 0.2330265 -0.2153502 -0.09056864 0.014274001 -0.11307749 -0.075662725 0.09301637 -0.17300366 0.010516791 0.029302577 -0.06864213 -0.1322707 -0.0033733724 0.12015743 -0.119113036 -0.012529069 0.1089581 -0.018254321 -0.008257288 -0.1169464 0.0048418893 0.36676773 0.095764935 -0.2741385 -0.054413687 0.06540539 -0.014813832 0.053082574 0.14403197 -0.001720205 -0.049940716 0.06306612 -0.26638314 0.059776276 -0.033034563 0.048386242 0.08029006 -0.30342776 -0.06023297 0.12111734 0.15709123 -0.13313365 -0.2578167 -0.1858681 -0.26968563 0.07732506 -0.09186443 0.05302373 0.22226034 0.105924726 -0.017589604 -0.0722206 -0.023763992 -0.06954182 -0.04616234 0.10474864 -0.04603247 -0.1877392 0.33507958 -0.14578329 0.043776046 0.0954541 0.22245963 0.030421788 0.011840174 0.09670862 -0.12574708 -0.14526768 -0.02638011 0.028449535 0.011335927 -0.094177045 0.17216675 -0.13765307 0.055039607 -0.15442502 -0.041034233 0.03621013 0.14199328 -0.111852795 0.15723325 -0.08640597 0.080803335 -0.17494631 0.100613914 0.11018139 -0.030629713 0.053634074 0.12091372 -0.059580408 0.0241059 0.12891912 0.011483739 0.16387217 -0.045462217 -0.017603237 -0.036878176 -0.076528445 -0.028891556 -0.21444711 0.09351902 0.079786144 0.06053617 0.056574393 -0.064001665 -0.114693366 -0.12990117 -0.12850219 0.17966889 -0.26878533 0.12461702 -0.18422814 -0.09391523 0.041708592 0.10790703 0.18970445 -0.037876744 -0.0048036217 -0.023718499 0.21245654 0.11409518 -0.0923389 -0.103389435 -0.0024671764 -0.1575608 0.10495907 -0.024847109
3196 -0.0053962907 0.14618054 -0.13242725 -0.055502266 0.005484785 -0.06638882 -0.05187834 0.057866555 -0.111587904 0.011316562 0.015695095 -0.038146634 -0.08857451 0.001892425 0.08261575 -0.08039948 -0.0065466524 0.07085843 -0.014028639 4.111306e-05 -0.07697017 0.004838956 0.23846488 0.06274445 -0.1742295 -0.036983702 0.042227954 -0.009704327 0.038733486 0.088394076 -0.00025670603 -0.0346478 0.041844673 -0.1791232 0.044778585 -0.018277304 0.03616892 0.055273224 -0.1982827 -0.036714185 0.0752018 0.105868764 -0.08951266 -0.1649691 -0.12063373 -0.17704156 0.049933802 -0.06297732 0.03479814 0.14606784 0.066743925 -0.0152394865 -0.046656992 -0.014224423 -0.037879907 -0.029482769 0.0694853 -0.030604491 -0.12014089 0.2159585 -0.09673911 0.024120675 0.0624917 0.14660393 0.01727703 0.009954356 0.06305285 -0.082255214 -0.08879862 -0.01791368 0.017734751 0.007189943 -0.05987691 0.114097185 -0.08557096 0.03502002 -0.103307605 -0.027182862 0.018188568 0.09626022 -0.07060061 0.0997592 -0.0540871 0.048048124 -0.11159675 0.06274574 0.073689364 -0.02103538 0.029780775 0.07820011 -0.035095435 0.021878192 0.07964171 0.0112522915 0.10975011 -0.033690967 -0.014722808 -0.025788471 -0.04857357 -0.016708829 -0.14055474 0.061872493 0.052084845 0.042481747 0.039095286 -0.048243318 -0.07311941 -0.07845814 -0.0879583 0.114029266 -0.17418833 0.080691725 -0.12324776 -0.061058246 0.030925592 0.06552266 0.12331936 -0.017613811 -0.0011570853 -0.015542789 0.13782835 0.07147604 -0.052607376 -0.067119785 -0.00057526975 -0.10433892 0.071294345 -0.021068867
3331 -0.007578331 0.1683762 -0.16305652 -0.063511826 0.012973534 -0.07951245 -0.05891408 0.074699804 -0.1285356 0.008187666 0.022048313 -0.050898597 -0.09776437 0.00063891785 0.08672811 -0.08852353 -0.00981069 0.08287798 -0.017311402 -0.0070538768 -0.08794184 0.0047417395 0.27205622 0.07251955 -0.1978682 -0.045680646 0.04688859 -0.011714758 0.037876233 0.10282326 -0.0044620144 -0.038416754 0.04797532 -0.20332819 0.048782565 -0.026172116 0.040925052 0.058019754 -0.2196556 -0.045026124 0.088104695 0.11744872 -0.096780546 -0.19173573 -0.13970588 -0.19875903 0.052776184 -0.06798782 0.034316376 0.16274768 0.07880009 -0.014480313 -0.06059333 -0.017314922 -0.05126296 -0.030930249 0.07772302 -0.03915485 -0.13898452 0.2458843 -0.11232472 0.03329324 0.07222865 0.16314548 0.01714643 0.009140253 0.06568259 -0.08934283 -0.11053944 -0.019827463 0.021120403 0.0076624886 -0.0687624 0.12516797 -0.099866055 0.03724258 -0.112928525 -0.028792894 0.020131523 0.11018374 -0.08618219 0.11636324 -0.059032757 0.055822622 -0.13188872 0.074676625 0.08094186 -0.024529682 0.04123212 0.08571812 -0.041632686 0.01421079 0.09797066 0.012163772 0.12325974 -0.03334246 -0.01579 -0.0269121 -0.057513144 -0.016950503 -0.16149667 0.06910325 0.05615465 0.041506033 0.041508753 -0.047551297 -0.08736246 -0.09425804 -0.09516159 0.13384303 -0.20496005 0.09664752 -0.14224152 -0.07118068 0.03261666 0.07706123 0.14185661 -0.024587462 -0.0071529006 -0.014626415 0.15774986 0.084801465 -0.062437527 -0.079666406 -0.0035779574 -0.11859271 0.08055433 -0.019562898
3250 -0.01067063 0.15505117 -0.14282835 -0.054069262 0.009314544 -0.07656194 -0.052049614 0.064738624 -0.11578195 0.009474446 0.020362232 -0.04000066 -0.09092818 -0.0038119555 0.0858577 -0.07685224 -0.003999223 0.07855497 -0.013785989 -0.003948277 -0.08024401 0.0051402096 0.2461276 0.06546282 -0.18078594 -0.040222917 0.044834077 -0.009317155 0.03311573 0.0915478 -0.0039866283 -0.034538176 0.04409722 -0.18078285 0.037691027 -0.023509713 0.031109735 0.05717816 -0.20449992 -0.039968137 0.08234829 0.10531402 -0.089024164 -0.17306614 -0.12961638 -0.18017757 0.047539193 -0.065711185 0.03401819 0.1517569 0.06996191 -0.013973624 -0.054961104 -0.009183807 -0.04181375 -0.031388693 0.07097061 -0.035377894 -0.12228035 0.22623222 -0.1043183 0.027848242 0.06726864 0.14873514 0.022239108 0.008268038 0.059528314 -0.084736854 -0.097120486 -0.019175062 0.019470412 0.005387716 -0.06322758 0.11343214 -0.09059939 0.042654734 -0.10633381 -0.029659865 0.01736171 0.10203988 -0.07917225 0.107487984 -0.059282113 0.04826657 -0.1218399 0.06951159 0.07732075 -0.022367999 0.03475397 0.08288377 -0.043542113 0.021175608 0.086494625 0.009568397 0.11935244 -0.03350441 -0.012551771 -0.028058331 -0.057927325 -0.0135483155 -0.1434662 0.058437757 0.054048717 0.038336456 0.043484017 -0.046495456 -0.07505357 -0.086621 -0.08629794 0.12434581 -0.18234174 0.085660286 -0.12998231 -0.06412252 0.026685718 0.06959647 0.12782134 -0.019066947 0.00043243385 -0.017183116 0.140572 0.07986266 -0.05961073 -0.07357253 -0.0053960346 -0.107404724 0.07569647 -0.017575124
3224 -0.0052447375 0.21770616 -0.19852425 -0.07804951 0.015569428 -0.10105887 -0.07437533 0.089510545 -0.16587289 0.008219264 0.024335217 -0.05817985 -0.12833597 -0.0023182812 0.11420098 -0.11193486 -0.011247714 0.107701495 -0.014873801 -0.0063303355 -0.10345437 0.012209351 0.34536785 0.08975614 -0.25431672 -0.047708184 0.06871778 -0.01869454 0.04817322 0.13215521 -0.0038910846 -0.048693184 0.05621079 -0.25012237 0.053574435 -0.025377106 0.048300415 0.08189412 -0.2765204 -0.058775403 0.11526332 0.14567792 -0.122068256 -0.2367644 -0.18120748 -0.25023216 0.071402825 -0.093693495 0.046379898 0.20720056 0.09950691 -0.023901975 -0.070292465 -0.016159045 -0.06235032 -0.038302504 0.09846938 -0.04716107 -0.16428451 0.31304836 -0.1462127 0.034495972 0.092808574 0.212166 0.02647943 0.012550173 0.08711924 -0.111955404 -0.13403544 -0.02752175 0.024301564 0.011188865 -0.09066577 0.15612386 -0.12807487 0.056873355 -0.14588231 -0.039186876 0.023924103 0.13247646 -0.10474822 0.14551972 -0.074987814 0.0678807 -0.16706192 0.10025449 0.103677884 -0.031883392 0.045124434 0.1152569 -0.052007712 0.02896578 0.124763 0.012297435 0.15827243 -0.053633034 -0.02259361 -0.03555948 -0.07409726 -0.026286198 -0.20326188 0.08166577 0.0750727 0.056086723 0.060999237 -0.06623999 -0.10536196 -0.1152878 -0.123637155 0.166797 -0.25440148 0.11593256 -0.17565316 -0.08172453 0.038773127 0.100763544 0.17996156 -0.03019884 -0.0022776627 -0.021196598 0.19969141 0.105921134 -0.08110567 -0.101410165 -0.008101919 -0.14969924 0.10170695 -0.021935027
3199 -0.0034121566 0.17315355 -0.15718524 -0.057473827 0.010037392 -0.08365881 -0.060856957 0.074728996 -0.129249 0.007094913 0.017280271 -0.04494862 -0.102292396 -0.0033970745 0.09262376 -0.09168045 -0.0045480137 0.08568599 -0.013801912 -0.004982264 -0.08860564 0.006418001 0.2728362 0.07139794 -0.20392996 -0.040159024 0.052160766 -0.015623321 0.038002886 0.09975779 -0.0034644988 -0.035781953 0.042936966 -0.20502947 0.0418723 -0.020248989 0.038955968 0.064728156 -0.22328655 -0.04732601 0.09047892 0.120275795 -0.09904901 -0.19046071 -0.1417196 -0.20064409 0.05808298 -0.07467975 0.040048853 0.16162199 0.08197449 -0.014714837 -0.055210933 -0.012732308 -0.05036621 -0.02811591 0.07426044 -0.03782291 -0.13436384 0.24297878 -0.11527928 0.026553608 0.07720116 0.16946417 0.021042181 0.00912201 0.06611352 -0.09040482 -0.1078349 -0.022737995 0.015770474 0.006582672 -0.06814031 0.124499545 -0.0989301 0.046790212 -0.11093854 -0.029735243 0.016669989 0.10697527 -0.08472144 0.11510406 -0.06667011 0.0542912 -0.13261318 0.07742794 0.08345402 -0.026392186 0.03681487 0.09215023 -0.042776242 0.022949275 0.09596438 0.0065976423 0.13001499 -0.04199184 -0.016276484 -0.026778981 -0.06222003 -0.015743038 -0.16261011 0.0703139 0.058918566 0.042681992 0.047450423 -0.05517627 -0.084865585 -0.09676289 -0.098612435 0.1361419 -0.20427372 0.09002937 -0.13495548 -0.06500802 0.035888437 0.07641128 0.13934316 -0.026457798 -0.0038887733 -0.01782824 0.15586105 0.08378404 -0.06224631 -0.076796606 -0.0053517595 -0.12251008 0.081886865 -0.021859132
3377 -0.010679732 0.21720335 -0.20650722 -0.082653984 0.012627294 -0.10179529 -0.07034414 0.09105048 -0.1613448 0.013116681 0.028460225 -0.056880485 -0.12238417 3.9273204e-05 0.11568152 -0.11459873 -0.009271584 0.101290144 -0.020076487 -0.009151871 -0.1083072 0.009831198 0.34521368 0.084965184 -0.2542912 -0.05322646 0.06646955 -0.011531254 0.047480002 0.13177417 -0.003651998 -0.048993647 0.060779214 -0.2503158 0.056956533 -0.03279158 0.047015093 0.07649542 -0.28490207 -0.05749762 0.113685735 0.15073071 -0.11863657 -0.23823012 -0.17589481 -0.24991137 0.071799405 -0.08841928 0.04526835 0.20569766 0.09618485 -0.02147584 -0.076019734 -0.022271765 -0.0582546 -0.041685317 0.099561945 -0.049586844 -0.16958123 0.30958834 -0.14313062 0.034815148 0.08931195 0.2100159 0.023695517 0.015987547 0.08323404 -0.11558423 -0.13915282 -0.028607514 0.0238472 0.011355105 -0.090572596 0.15898472 -0.12579936 0.054192368 -0.1405251 -0.039918825 0.031055003 0.13406788 -0.10648592 0.14280346 -0.075249545 0.06953429 -0.16478038 0.10061679 0.108588636 -0.027088849 0.05043615 0.117027685 -0.055164486 0.020300103 0.11951042 0.014861074 0.15702516 -0.04321207 -0.018826962 -0.035864525 -0.07166646 -0.023447344 -0.20475641 0.08349789 0.07354425 0.054935724 0.057809193 -0.06414634 -0.11119829 -0.11955531 -0.12268744 0.17167524 -0.2531158 0.11618601 -0.17530651 -0.083147675 0.04046147 0.10234503 0.17997149 -0.032100935 -0.0025809032 -0.01976286 0.19714312 0.105761014 -0.08397805 -0.09676428 -0.0055399244 -0.148269 0.09759797 -0.0285528
3174 -0.00644885 0.21612354 -0.20466685 -0.0802886 0.013257847 -0.10452064 -0.08149709 0.08927593 -0.16930519 0.009102611 0.026008883 -0.0583475 -0.12964977 0.002563331 0.12087029 -0.10879116 -0.0035169732 0.11059793 -0.018345753 -0.010018765 -0.1047622 0.012637713 0.3523958 0.08994231 -0.25838575 -0.050630994 0.06396377 -0.013328048 0.051177803 0.12927568 -0.0062602926 -0.049008634 0.057228636 -0.25972736 0.0596112 -0.027337523 0.044430375 0.08283809 -0.2832728 -0.05808165 0.11339136 0.14931287 -0.12588969 -0.2424117 -0.18590797 -0.25664994 0.07544021 -0.09370715 0.05110293 0.21405934 0.103491604 -0.018129434 -0.0756159 -0.020475129 -0.061335966 -0.041412335 0.101905786 -0.049185075 -0.16610703 0.31284535 -0.14411521 0.03777144 0.092916906 0.2146423 0.030465273 0.010745489 0.09047232 -0.11322274 -0.13498712 -0.032154154 0.02381157 0.006442791 -0.08885408 0.16023834 -0.12792836 0.060752586 -0.14856225 -0.042421803 0.023644824 0.13682419 -0.1076844 0.1490044 -0.07681969 0.072431415 -0.16819167 0.09704315 0.10696943 -0.031131318 0.051709816 0.11581997 -0.05261072 0.027884698 0.12250643 0.013698981 0.16136141 -0.04771962 -0.021848194 -0.037625067 -0.07249078 -0.02284487 -0.20513292 0.084184505 0.07556812 0.05730226 0.062266808 -0.06491123 -0.113676175 -0.12382435 -0.12571424 0.16842945 -0.255729 0.12231834 -0.1788907 -0.08383521 0.040014178 0.100147575 0.18143737 -0.033975277 -0.0014587112 -0.01837018 0.19801134 0.11003841 -0.081731595 -0.10014626 -0.0014762473 -0.15315308 0.09817346 -0.026822362
3149 -0.011029368 0.18978885 -0.17143078 -0.06731424 0.014212241 -0.085829474 -0.06753162 0.075028904 -0.1389647 0.0050945464 0.018635001 -0.04720287 -0.10761863 0.0015810267 0.100655526 -0.094989866 -0.007880918 0.09325038 -0.016961576 -0.005388886 -0.089286946 0.00909429 0.30284062 0.079484224 -0.2249017 -0.047080323 0.05538188 -0.016503984 0.04033236 0.113082364 -0.005856924 -0.03737994 0.048872534 -0.22275071 0.047550768 -0.022350717 0.038030613 0.07080663 -0.24697897 -0.049182095 0.09707583 0.13290906 -0.10483445 -0.21111204 -0.15403196 -0.2205241 0.06402261 -0.080402955 0.03759831 0.18152875 0.08812425 -0.016842645 -0.06384566 -0.019352384 -0.05483518 -0.031972006 0.088260904 -0.03887086 -0.14381143 0.2667579 -0.121463016 0.03323605 0.078627646 0.17922236 0.020937042 0.009395731 0.075361975 -0.10269239 -0.114057384 -0.024016768 0.021438064 0.012161953 -0.074342385 0.13994364 -0.1056567 0.047143433 -0.12802988 -0.036275115 0.022246642 0.11562756 -0.09407192 0.12976408 -0.07004499 0.06034514 -0.14584549 0.08202758 0.086761035 -0.028098106 0.04269263 0.09722988 -0.044782616 0.0208709 0.10547032 0.0072622104 0.1423464 -0.04080082 -0.01778769 -0.033193525 -0.06633951 -0.024321156 -0.17428061 0.07200258 0.0639747 0.04990657 0.046916537 -0.05565179 -0.09820453 -0.10332899 -0.10422818 0.14875375 -0.21856478 0.09767135 -0.14907697 -0.07554193 0.033624902 0.0896023 0.15467545 -0.026174024 0.00086233445 -0.016257437 0.17393787 0.09593563 -0.0708562 -0.08189793 -0.005460309 -0.12636968 0.08775134 -0.026285177
3070 -0.007965765 0.15634874 -0.13896446 -0.059270862 0.010568663 -0.06900416 -0.053065512 0.06098295 -0.11772443 0.011402989 0.01213513 -0.045422677 -0.09264176 -0.0005481576 0.08754801 -0.082902305 -0.0018916011 0.08003787 -0.012957557 -0.004084398 -0.07801948 0.006557561 0.24866183 0.062094305 -0.18738833 -0.034328844 0.045477726 -0.0074499194 0.033329472 0.09234705 -0.005461801 -0.031562854 0.04357125 -0.18126252 0.044853438 -0.01844782 0.03164451 0.050885104 -0.20777236 -0.037701517 0.07744487 0.110360436 -0.09618013 -0.17472099 -0.12954617 -0.18625659 0.0527965 -0.059859168 0.031199683 0.1499471 0.07142243 -0.017901696 -0.05063717 -0.017429074 -0.04308791 -0.032313026 0.07186096 -0.03222846 -0.123855494 0.2296239 -0.10439458 0.023799425 0.07199562 0.14801303 0.019511648 0.009554735 0.06343689 -0.08260779 -0.09324277 -0.02193311 0.022801595 0.01140878 -0.05978554 0.11882188 -0.08934387 0.03702449 -0.10776302 -0.024580777 0.018453686 0.10159466 -0.07074029 0.10078845 -0.06030865 0.05122395 -0.121104375 0.07160632 0.07499964 -0.019817667 0.030855054 0.07859462 -0.037708454 0.019993585 0.08914136 0.013622891 0.12080496 -0.039434176 -0.016211387 -0.024476573 -0.058379065 -0.02147442 -0.15045638 0.06274874 0.056113545 0.040329047 0.04188294 -0.04616069 -0.07650525 -0.08855447 -0.086355336 0.12284536 -0.1823147 0.0843535 -0.122185834 -0.05869765 0.03086524 0.068972945 0.13132502 -0.021910306 -0.0043743113 -0.02062867 0.13813278 0.08148875 -0.053920127 -0.06960305 -0.00034137873 -0.10916537 0.070160255 -0.020900678
3300 -0.011027708 0.17683111 -0.16425906 -0.06632147 0.0094060125 -0.08531735 -0.063884795 0.073029704 -0.1362549 0.010188921 0.018351167 -0.04510459 -0.10735951 0.0040903213 0.09884579 -0.09089238 -0.005536317 0.089797184 -0.018586747 -0.005823088 -0.09173898 0.0062625874 0.28567407 0.07194463 -0.2145109 -0.039290786 0.05254461 -0.011270531 0.042955104 0.10603794 -0.0072918218 -0.041487813 0.04845533 -0.21292809 0.04717621 -0.022558797 0.034815073 0.06749088 -0.2350606 -0.04681267 0.09136109 0.12715743 -0.10170517 -0.19918156 -0.15198717 -0.20896482 0.062604405 -0.079117954 0.037705794 0.17475922 0.08356049 -0.013787174 -0.056655265 -0.012170601 -0.052238557 -0.03258329 0.07877882 -0.040903755 -0.14028953 0.25965413 -0.115014076 0.029317906 0.07387294 0.17540143 0.02200162 0.012968287 0.07205207 -0.09356705 -0.110914245 -0.027079858 0.017278027 0.005896431 -0.0772952 0.13238688 -0.10193473 0.046508238 -0.121925205 -0.03419174 0.020308929 0.11207334 -0.08821048 0.12422708 -0.06406848 0.061755233 -0.14115623 0.08087471 0.085665636 -0.02212973 0.0378767 0.09797898 -0.048980847 0.02292987 0.10248835 0.005967338 0.13723521 -0.042539004 -0.016828807 -0.029764906 -0.058079075 -0.0202215 -0.17139666 0.07278854 0.06102098 0.050540797 0.051996343 -0.05835306 -0.09187953 -0.10133105 -0.1055504 0.13658358 -0.21438883 0.097474575 -0.14629006 -0.06970446 0.032461118 0.08222331 0.15080543 -0.027681174 -0.00477349 -0.020812465 0.16354841 0.092443086 -0.06980324 -0.08424567 -0.001800345 -0.12623888 0.08443646 -0.022411887
3329 -0.008674875 0.17258768 -0.16298297 -0.06413123 0.011747046 -0.083962746 -0.05642066 0.069963835 -0.13436978 0.0071557504 0.023679452 -0.053215224 -0.09738796 0.002759219 0.095254116 -0.088444375 -0.009616389 0.08086187 -0.018316166 -0.00512141 -0.08446075 0.0059450394 0.27480912 0.06963612 -0.20223309 -0.042100362 0.04902536 -0.013873415 0.041478775 0.10581003 -0.0025112517 -0.038373157 0.04524789 -0.2036754 0.042581517 -0.029693427 0.039656654 0.062261183 -0.2237122 -0.045180578 0.08957763 0.117336534 -0.098586015 -0.18839231 -0.141606 -0.20417304 0.057630017 -0.06841742 0.03445115 0.16396211 0.0805261 -0.01249783 -0.05886786 -0.012192822 -0.048696395 -0.034287624 0.08040471 -0.03520488 -0.13879338 0.24895532 -0.110103674 0.02944392 0.070119716 0.16985355 0.019646734 0.01081 0.071537405 -0.09634398 -0.1118693 -0.021345602 0.016947525 0.010143615 -0.0720833 0.124863595 -0.10235125 0.038250975 -0.113645725 -0.03372361 0.020642506 0.109310426 -0.08990769 0.11201658 -0.06149495 0.05445554 -0.13362238 0.080903836 0.08507041 -0.023258368 0.040214125 0.09081491 -0.042485274 0.016670156 0.09941151 0.01148079 0.123644695 -0.03500992 -0.015270365 -0.029506216 -0.05880634 -0.0214577 -0.16415453 0.07210965 0.058542565 0.04123425 0.040982082 -0.050309163 -0.086853154 -0.093660265 -0.09772618 0.13362163 -0.20603125 0.098348945 -0.14197806 -0.07158395 0.03131969 0.0761926 0.13868779 -0.02643 -0.006108711 -0.018267168 0.15767343 0.083972454 -0.06892373 -0.07768277 -0.0063433903 -0.11851474 0.0762513 -0.020763252
3354 -0.009875164 0.14042333 -0.13019818 -0.050607372 0.0056234715 -0.06895387 -0.04535643 0.05923405 -0.10142595 0.008359368 0.0149380155 -0.037849907 -0.08227861 0.0023791716 0.072637185 -0.07099729 -0.0045020217 0.065444015 -0.010011488 -0.00412023 -0.07083144 0.006064238 0.21689856 0.05839491 -0.15825015 -0.029828463 0.041681346 -0.005660801 0.029928252 0.08566059 0.00201896 -0.026807837 0.037218407 -0.15803437 0.033573072 -0.020538943 0.030165039 0.04979127 -0.17677425 -0.033483613 0.07017663 0.09195832 -0.074794345 -0.15239847 -0.11026992 -0.1624782 0.04096747 -0.059019778 0.032636058 0.13090819 0.06250126 -0.0164419 -0.04848451 -0.013249311 -0.041684624 -0.029212674 0.06051877 -0.029435962 -0.10520708 0.19977033 -0.08722364 0.024675312 0.057913374 0.12972575 0.015178291 0.009127856 0.055751648 -0.07188556 -0.08668789 -0.018620167 0.02050786 0.009300586 -0.05780173 0.09829446 -0.08047923 0.032939307 -0.093824826 -0.023640674 0.01762708 0.08855573 -0.06925035 0.093854524 -0.05239185 0.048837304 -0.105230264 0.06013607 0.068592906 -0.016466081 0.030034753 0.0693442 -0.032170046 0.018999204 0.07897658 0.0074907984 0.10378023 -0.0306392 -0.011693 -0.024589354 -0.045914125 -0.0148101505 -0.1261637 0.0545113 0.045398038 0.032072753 0.03552916 -0.044274807 -0.067602895 -0.07644407 -0.07690147 0.1057286 -0.16385645 0.075207524 -0.10656836 -0.052832782 0.028613526 0.06376302 0.11358324 -0.02367001 -0.002379697 -0.013127737 0.12158882 0.06807826 -0.05526507 -0.061261095 0.00037168426 -0.091581054 0.06302642 -0.017514424
3353 -0.011190148 0.17720675 -0.1624665 -0.06364415 0.012661859 -0.088040076 -0.059952855 0.07454064 -0.13520333 0.0059550153 0.019335952 -0.04898352 -0.09985251 0.0033357993 0.09789734 -0.08740663 -0.003854783 0.085181266 -0.013622585 -0.00407386 -0.09133371 0.008914506 0.2856037 0.07521833 -0.20798108 -0.04302263 0.052434776 -0.0093635265 0.043952193 0.1037998 -0.00432465 -0.03884158 0.051371858 -0.2052016 0.050461356 -0.026443696 0.035127588 0.06806149 -0.23172137 -0.044635784 0.09687247 0.12138205 -0.09802103 -0.19653599 -0.14656727 -0.2067097 0.05465506 -0.07587384 0.033922564 0.17130572 0.08446465 -0.013734892 -0.05848263 -0.0155224595 -0.054123733 -0.029954422 0.07987409 -0.037219655 -0.13927166 0.2552039 -0.11445398 0.0350662 0.07724924 0.1690074 0.02504203 0.009361241 0.0743697 -0.09148297 -0.113650866 -0.023930227 0.022533413 0.009382561 -0.07628347 0.13329916 -0.10312373 0.045385163 -0.1178436 -0.029250814 0.020596491 0.10924893 -0.092626266 0.11537052 -0.06653148 0.061033294 -0.13978016 0.08264851 0.088746086 -0.01978701 0.042601474 0.09226057 -0.04565058 0.022036871 0.099556446 0.009626749 0.13005938 -0.035658117 -0.016791875 -0.030762617 -0.06267842 -0.022734514 -0.1684936 0.069086395 0.05783616 0.042441048 0.045335554 -0.052374825 -0.08651947 -0.09923663 -0.10233021 0.14059973 -0.21286501 0.096347526 -0.14665315 -0.07427859 0.03080752 0.077345215 0.1462828 -0.02774248 -0.0051971194 -0.017482348 0.16471346 0.085028455 -0.06563862 -0.07702124 -0.00061342237 -0.124062255 0.0804084 -0.019492555
3352 -0.009243445 0.19814304 -0.18849285 -0.073794216 0.007721793 -0.093991235 -0.06513935 0.08701404 -0.15191501 0.012525704 0.022479033 -0.059674703 -0.1160065 0.0015510302 0.10780896 -0.10135438 -0.008820284 0.096408926 -0.0142151 -0.0034544542 -0.10239906 0.007592015 0.32377163 0.08192938 -0.23433973 -0.046998363 0.058477968 -0.011611659 0.04735413 0.12169923 -0.0013828172 -0.046070144 0.055068992 -0.2379922 0.049944587 -0.027405784 0.041159324 0.06918667 -0.2577316 -0.048754442 0.1050009 0.1384551 -0.11015568 -0.21919405 -0.1663698 -0.23682705 0.06436682 -0.07812231 0.043620013 0.189539 0.094542615 -0.020241838 -0.06320043 -0.015666502 -0.05904291 -0.036694057 0.087000884 -0.045303468 -0.15714443 0.29187158 -0.1299485 0.035471287 0.08344267 0.19055386 0.02438062 0.015874216 0.08064727 -0.11088029 -0.12689905 -0.03029879 0.022189079 0.010277518 -0.08032629 0.15073454 -0.1177264 0.048796203 -0.13357241 -0.03303909 0.025780668 0.1295846 -0.102135405 0.134289 -0.07406704 0.06613566 -0.15053314 0.093295015 0.096691445 -0.028492643 0.04446212 0.10566852 -0.04741521 0.024173139 0.10940831 0.010237702 0.14994022 -0.04105606 -0.015321522 -0.036110543 -0.070961274 -0.023287544 -0.1879221 0.07970246 0.065568656 0.05264791 0.054017007 -0.060547087 -0.101204224 -0.109112985 -0.10931524 0.15339383 -0.23881759 0.11107243 -0.1631773 -0.07941698 0.03649898 0.094023354 0.16215476 -0.03194261 -0.006157708 -0.023819312 0.1836451 0.09923539 -0.07321881 -0.08947087 -0.007094163 -0.14232357 0.08923516 -0.020125762
3263 -0.004128848 0.17267855 -0.1639042 -0.06337886 0.009373752 -0.08013476 -0.058117706 0.06686459 -0.13567807 0.011926554 0.018704068 -0.046436444 -0.103428036 -0.00026381158 0.08936129 -0.09117423 -0.002646578 0.08287814 -0.017296508 -0.006443316 -0.08589774 0.008787536 0.27946118 0.06985959 -0.2079932 -0.04135757 0.049275342 -0.014761424 0.039484117 0.10358795 0.0008403155 -0.03958498 0.042206142 -0.2073431 0.049273867 -0.026365286 0.04194056 0.05917859 -0.23001766 -0.040800698 0.09302479 0.12389606 -0.10214531 -0.191929 -0.14272872 -0.20367979 0.05689226 -0.07046958 0.039110772 0.16510668 0.07761705 -0.01582261 -0.054326266 -0.01472068 -0.045914505 -0.03131148 0.07867523 -0.0349773 -0.14193593 0.2471401 -0.114576004 0.032968856 0.07844483 0.1719485 0.022494448 0.013295211 0.06764271 -0.096324734 -0.10581768 -0.020706564 0.024413543 0.012020537 -0.06906414 0.13229759 -0.10444418 0.04335609 -0.117538355 -0.029836439 0.02605495 0.108722456 -0.087059096 0.11720451 -0.06549094 0.060706865 -0.1333363 0.07731046 0.080816746 -0.025313536 0.04104874 0.09390998 -0.0425671 0.02191792 0.09482006 0.009337828 0.12877283 -0.041795265 -0.0096991295 -0.028925622 -0.057899185 -0.017720528 -0.16720665 0.06912067 0.058285102 0.04615775 0.04486059 -0.052470386 -0.08626844 -0.09835401 -0.09585467 0.13748856 -0.2017684 0.100513235 -0.14449115 -0.06519494 0.038838793 0.083351314 0.14072451 -0.028429603 -0.0019440867 -0.015888676 0.15809037 0.082077906 -0.06684099 -0.076671444 -0.005652739 -0.12312784 0.08358649 -0.024069492
3095 -0.0051087593 0.14345567 -0.1328827 -0.050181128 0.008900207 -0.06461633 -0.04900346 0.06174105 -0.10913926 0.010634211 0.011362801 -0.041008532 -0.08034226 -0.0030216204 0.08083089 -0.078803465 -0.007146496 0.0760574 -0.016379545 0.00036242278 -0.07507174 0.0083859805 0.22985512 0.057060387 -0.17360146 -0.03692202 0.044370793 -0.012041063 0.03364501 0.083361275 -0.006364894 -0.03572844 0.04345431 -0.17259659 0.04326363 -0.023768438 0.02843197 0.04854599 -0.19410276 -0.037710484 0.079159915 0.09756485 -0.08624172 -0.15825047 -0.123907164 -0.16643712 0.05006913 -0.058170162 0.033081282 0.14281708 0.065097146 -0.015071954 -0.04743427 -0.012077427 -0.037100922 -0.030289212 0.060793195 -0.028728964 -0.11626218 0.20641333 -0.09219564 0.024143958 0.061838087 0.1398892 0.0141857425 0.011621584 0.05578987 -0.081782095 -0.09036202 -0.018904094 0.018917069 0.008074489 -0.06260007 0.110202774 -0.085868634 0.03937414 -0.09500923 -0.024682803 0.018384548 0.09657993 -0.06719395 0.09902791 -0.05469957 0.05163724 -0.10849063 0.06482454 0.0663007 -0.016380994 0.028900243 0.07816179 -0.03858929 0.019082729 0.08380163 0.010160653 0.11158802 -0.033852506 -0.009365467 -0.021006532 -0.052720416 -0.017293219 -0.13823368 0.05537388 0.052501474 0.03582051 0.040799826 -0.04880992 -0.075263016 -0.07891445 -0.08340432 0.112265795 -0.17105159 0.082411885 -0.11859523 -0.056346286 0.03298968 0.06788092 0.12332487 -0.02184156 0.00050953217 -0.015404675 0.13331304 0.06963604 -0.049808133 -0.06297749 -0.0036008963 -0.10368091 0.07116452 -0.01929377
3170 -0.0064776274 0.15298823 -0.13338438 -0.056000613 0.008860788 -0.06501407 -0.051977735 0.06139943 -0.11015228 0.008753794 0.010818031 -0.041807726 -0.08618696 0.0003466655 0.078528374 -0.078739055 -0.006115201 0.07261971 -0.010272785 -0.0042564655 -0.07830392 0.0044914964 0.24132767 0.062703066 -0.17595933 -0.038777508 0.048546277 -0.012277496 0.033897094 0.08990912 -0.0030782337 -0.03698164 0.039109237 -0.1786229 0.03815756 -0.022074498 0.03159867 0.054189656 -0.19726665 -0.0355298 0.0785088 0.10504391 -0.08694963 -0.16581598 -0.12318747 -0.17906404 0.05074314 -0.06474289 0.030630412 0.14725567 0.067376874 -0.012008569 -0.048387446 -0.013659809 -0.043910928 -0.028904438 0.06725237 -0.033298742 -0.1193561 0.21788058 -0.10108472 0.025794234 0.06800234 0.14662881 0.020842185 0.008191382 0.060901217 -0.08192887 -0.092928626 -0.016983949 0.014988913 0.010350549 -0.05885137 0.111723036 -0.08929839 0.034123283 -0.10234247 -0.028720604 0.015874198 0.09638264 -0.072784886 0.10177315 -0.054067627 0.051455736 -0.11383771 0.06820132 0.06771525 -0.023060268 0.03369472 0.07821891 -0.037742734 0.018534284 0.08499333 0.00852755 0.11523812 -0.038722347 -0.0143634705 -0.025604831 -0.053125825 -0.0181198 -0.14338563 0.05794517 0.053275693 0.039920136 0.03722433 -0.044364404 -0.07527362 -0.083932355 -0.083364464 0.11330821 -0.17680961 0.087825075 -0.12415329 -0.060928468 0.034135036 0.068298504 0.12594052 -0.017422229 -4.8334987e-05 -0.015256751 0.13558894 0.07741663 -0.055204082 -0.06883282 -0.005541674 -0.10239916 0.06996937 -0.020389259
3171 -0.009507194 0.15939432 -0.15042478 -0.057385188 0.010336882 -0.07708295 -0.055744138 0.066119894 -0.12136189 0.009781196 0.015157847 -0.044219777 -0.09434081 -0.0048137093 0.087685995 -0.08287936 -0.0006481898 0.07859945 -0.017697696 -0.005480398 -0.08294335 0.0014036894 0.26288652 0.060308557 -0.19465917 -0.037016872 0.05221272 -0.014527057 0.039085098 0.09601636 -0.0023472635 -0.036235683 0.045987446 -0.19444716 0.04491526 -0.02081171 0.032565266 0.05763005 -0.2163672 -0.03983136 0.08619681 0.11479707 -0.09756301 -0.18097791 -0.13492636 -0.18770628 0.051654544 -0.06717704 0.034074243 0.15630378 0.07407443 -0.019328408 -0.05522538 -0.014279828 -0.045934904 -0.033508565 0.07425394 -0.03195246 -0.13110872 0.23209274 -0.106997155 0.02868658 0.0727747 0.15435895 0.01796144 0.009398478 0.06563843 -0.089561634 -0.101794355 -0.022756223 0.015585751 0.007427738 -0.06401312 0.11933856 -0.094086215 0.04041461 -0.11109778 -0.025485223 0.018184906 0.10486099 -0.073335685 0.105929516 -0.060900435 0.051593047 -0.1257297 0.07306274 0.07549324 -0.0240386 0.03175322 0.08703168 -0.042896643 0.018328872 0.0889643 0.0118811 0.12592249 -0.036722183 -0.010405639 -0.02538431 -0.0577242 -0.020364778 -0.15368408 0.06395329 0.05105658 0.041945074 0.045777503 -0.050975792 -0.08003068 -0.08959413 -0.091275096 0.12272747 -0.1886005 0.09151394 -0.12898816 -0.066428535 0.033818983 0.07607415 0.13186537 -0.0200903 -0.00017061344 -0.017037202 0.14443417 0.080515325 -0.06208376 -0.07032492 -0.0028779933 -0.1092637 0.07950227 -0.020626014
3376 -0.011091141 0.20531929 -0.19716805 -0.07430269 0.013584122 -0.10322402 -0.06987287 0.08236281 -0.15342742 0.010377276 0.027561774 -0.0582846 -0.12134144 0.0026909984 0.10707715 -0.10602392 -0.007519549 0.10000008 -0.01680808 -0.0021954817 -0.10027038 0.009982211 0.33397844 0.083174065 -0.24448012 -0.05048593 0.06363226 -0.01060202 0.050599646 0.12720056 0.00033687628 -0.04412458 0.059819788 -0.24099557 0.053062227 -0.030250378 0.047899008 0.07504262 -0.26816896 -0.04806296 0.11188241 0.1430719 -0.11631297 -0.22891143 -0.17202865 -0.24267061 0.063881606 -0.08299829 0.042739257 0.20266037 0.097616225 -0.018525654 -0.072695866 -0.020278145 -0.056539733 -0.0415089 0.09496291 -0.044011913 -0.16722317 0.29970643 -0.13882391 0.040235046 0.08591383 0.20406584 0.02266497 0.010110776 0.082972325 -0.11079413 -0.12957086 -0.026160445 0.026099153 0.009340465 -0.0823827 0.15446874 -0.124605775 0.052041646 -0.1408852 -0.039767668 0.027311252 0.12921098 -0.10635839 0.13615842 -0.07554928 0.06852973 -0.16314867 0.09560328 0.09817648 -0.023653887 0.04388472 0.109192364 -0.051922545 0.021374566 0.11501338 0.012708887 0.15250118 -0.04353718 -0.013327029 -0.037255034 -0.06974429 -0.0193672 -0.19516139 0.08433956 0.06817723 0.052418932 0.05358767 -0.05927031 -0.10326699 -0.11586919 -0.11749343 0.15730724 -0.24720588 0.11578112 -0.16544092 -0.084637664 0.03919596 0.093152724 0.17052181 -0.02821016 -0.002216099 -0.019618092 0.19269602 0.10151897 -0.08013453 -0.09104662 -0.0009384382 -0.14558825 0.09960205 -0.025750455
3401 -0.008659496 0.20170431 -0.18255383 -0.070093945 0.013870659 -0.09795806 -0.066902995 0.083633214 -0.14741406 0.0049433075 0.025941882 -0.051328804 -0.115265384 0.0005486512 0.10767057 -0.10466999 -0.0050083646 0.09616437 -0.014746216 -0.0017398084 -0.09639712 0.004570044 0.31924003 0.07974387 -0.23448847 -0.04493163 0.057091825 -0.015939565 0.042285535 0.1177881 0.00036727404 -0.043157518 0.05650315 -0.2289665 0.0505662 -0.029708965 0.039676834 0.07336757 -0.25806224 -0.049233764 0.10086213 0.13500215 -0.112476245 -0.21905532 -0.16145045 -0.23142852 0.06642982 -0.07854512 0.041910097 0.1932507 0.09283622 -0.019476438 -0.06760756 -0.014472082 -0.053224828 -0.039215423 0.09251494 -0.040282108 -0.15964785 0.28879005 -0.13213447 0.033680882 0.08549619 0.19137965 0.02019689 0.011218338 0.08197569 -0.109462656 -0.12073325 -0.029022707 0.026079634 0.011617121 -0.0779555 0.14603955 -0.11860536 0.051573906 -0.13345642 -0.037604693 0.029071752 0.12284537 -0.0947264 0.12965967 -0.0732864 0.06788593 -0.15449479 0.092264965 0.092828706 -0.024086723 0.044826064 0.10562606 -0.047766563 0.022324549 0.114051566 0.007385152 0.14811805 -0.04700585 -0.014814143 -0.038139652 -0.065718286 -0.022617303 -0.18853581 0.07577304 0.07098686 0.053955372 0.052282687 -0.056202836 -0.09857025 -0.109708466 -0.10921002 0.1527999 -0.23259664 0.10656818 -0.15647185 -0.07623071 0.034026645 0.08656395 0.15817878 -0.031707644 -0.005020124 -0.019311376 0.18394388 0.09694456 -0.073705405 -0.09329343 -0.005890509 -0.13352019 0.08871938 -0.021364378
3120 -0.0059239455 0.14627726 -0.13870266 -0.05189369 0.008279042 -0.06439405 -0.050599597 0.06280285 -0.11173196 0.008344759 0.014186242 -0.03796316 -0.08251996 0.0027983799 0.077697404 -0.07629221 -0.0021538748 0.07309815 -0.018133253 -0.00064373005 -0.074599035 0.001332764 0.2386287 0.061586305 -0.17902973 -0.0378431 0.04252131 -0.011661438 0.030640338 0.08756996 -0.0026224975 -0.0356538 0.040275678 -0.17356302 0.043952342 -0.022764117 0.032031674 0.050258085 -0.19523783 -0.03842563 0.07535869 0.102714255 -0.08846783 -0.16535269 -0.122698314 -0.17531131 0.050518457 -0.059886944 0.032811143 0.14415199 0.063200034 -0.016587876 -0.044527862 -0.015531988 -0.038329966 -0.029555688 0.06644712 -0.030580802 -0.11669977 0.21424793 -0.09910367 0.024113553 0.066154584 0.14096515 0.02168626 0.011901667 0.062544875 -0.08268251 -0.09423527 -0.02142364 0.017190913 0.011594588 -0.06050512 0.11025117 -0.083544336 0.03522491 -0.10044383 -0.024117857 0.015783539 0.09735035 -0.06735949 0.10103531 -0.055587772 0.051487323 -0.116029024 0.0623289 0.06961368 -0.01759606 0.034242228 0.07582798 -0.033258002 0.015157456 0.078239106 0.006068667 0.10945926 -0.037672166 -0.014265506 -0.023471475 -0.055298842 -0.019953536 -0.13649267 0.060960878 0.050037548 0.035574924 0.0395778 -0.04394272 -0.07841119 -0.08222394 -0.08126508 0.114080116 -0.17661352 0.082946464 -0.120732814 -0.058579303 0.028672298 0.070875585 0.124901995 -0.016972633 0.0014041892 -0.012862678 0.13483453 0.07363639 -0.054621927 -0.06815975 0.0005803203 -0.09923662 0.06557587 -0.021163471
3145 -0.0023731333 0.084287524 -0.08137402 -0.03331217 0.0023922836 -0.03556498 -0.033250913 0.03518463 -0.062416002 0.0014156546 0.0046689734 -0.025365995 -0.046448376 0.0014145602 0.04720133 -0.048098862 -0.00571863 0.04232824 -0.009934542 -0.00049985887 -0.04624527 0.00070250244 0.13638043 0.033382725 -0.10692967 -0.018335491 0.028817425 -0.004729667 0.018619888 0.052415974 0.0005491811 -0.021150934 0.025084639 -0.10138806 0.023426505 -0.015323565 0.021340314 0.02960264 -0.11451808 -0.024005886 0.040906157 0.06220546 -0.05539348 -0.09809196 -0.074824795 -0.09798506 0.023581846 -0.03585058 0.022571495 0.086273596 0.0373084 -0.010240916 -0.026438072 -0.011764047 -0.025223922 -0.019317416 0.035758276 -0.017825743 -0.07172669 0.12727295 -0.05580941 0.015780222 0.03504628 0.08066102 0.010351276 0.009376945 0.03715612 -0.04683967 -0.05233014 -0.009972477 0.008735097 0.007530463 -0.03298244 0.06416078 -0.050173696 0.021936452 -0.0558363 -0.01715971 0.0086674495 0.059792385 -0.03663736 0.05863409 -0.031520486 0.027834168 -0.06806349 0.034237485 0.040289484 -0.010246374 0.0195534 0.04354582 -0.017509088 0.0113946 0.046157032 0.002590966 0.062046632 -0.021674316 -0.0065144254 -0.01655206 -0.027724363 -0.011170835 -0.079960145 0.036100015 0.030354554 0.024194876 0.026074141 -0.031652525 -0.04592569 -0.04687779 -0.05300788 0.06940408 -0.09687951 0.051943444 -0.0662385 -0.033256285 0.018208725 0.041117877 0.071927145 -0.0103787575 0.0030066594 -0.012102616 0.08180702 0.045694254 -0.029510379 -0.040375035 -0.003617238 -0.063246295 0.0405871 -0.012718931
3325 -0.006807515 0.19500771 -0.18180479 -0.06882665 0.01243358 -0.09507103 -0.06554512 0.08222163 -0.1469338 0.010281431 0.026642056 -0.054991648 -0.108534634 0.0013105569 0.10725363 -0.09958631 -0.01092113 0.09585518 -0.015505456 -0.00477314 -0.09293967 0.004882225 0.3098764 0.0747134 -0.22598642 -0.04815959 0.058499992 -0.010252819 0.04069134 0.113342956 -0.0027633477 -0.04429528 0.050068412 -0.23034088 0.053410955 -0.026199045 0.038188975 0.06786964 -0.24787258 -0.050259843 0.09799578 0.13582323 -0.11159075 -0.21600248 -0.15844437 -0.22647467 0.059306107 -0.08411155 0.040480424 0.18738131 0.089283094 -0.01664838 -0.062492333 -0.019173061 -0.05556434 -0.035672028 0.08976686 -0.04553762 -0.14798911 0.2797014 -0.12916212 0.03219192 0.079436444 0.18910693 0.023207912 0.013220296 0.0800547 -0.09903303 -0.11949094 -0.030203795 0.017144594 0.007318531 -0.081144914 0.14034685 -0.11242779 0.048232906 -0.13103437 -0.038212486 0.021715341 0.123011164 -0.0952569 0.13278192 -0.07026428 0.061893973 -0.14460719 0.089158714 0.093212366 -0.026294136 0.04545019 0.10188261 -0.05364458 0.01821913 0.111281484 0.008154296 0.14400214 -0.040843904 -0.015828395 -0.03529794 -0.063031286 -0.021117399 -0.18026596 0.07927462 0.06472167 0.046906557 0.05182299 -0.05863474 -0.1000795 -0.1086147 -0.10595654 0.14740603 -0.23082963 0.107229576 -0.15803732 -0.078565486 0.0358702 0.08416192 0.15711318 -0.029158013 -0.0036115956 -0.022656692 0.17716509 0.095160566 -0.07057406 -0.08877668 -0.00784202 -0.13490456 0.090892024 -0.023303749
2995 -0.0073714866 0.14850058 -0.13921228 -0.05506498 0.0050320197 -0.066782914 -0.05787407 0.06517614 -0.120155856 0.009821865 0.011963081 -0.0445648 -0.08482071 0.0010418793 0.08355134 -0.08303974 -0.0038040443 0.07772599 -0.015162884 -0.0033111575 -0.07621099 0.0062427935 0.24238148 0.06285994 -0.18728185 -0.03435307 0.04514364 -0.01006454 0.035164528 0.0883374 -0.0042325216 -0.034600724 0.040394347 -0.18090877 0.04467545 -0.019684114 0.035293207 0.052915145 -0.20473443 -0.03583937 0.07809662 0.10405041 -0.0901414 -0.17016038 -0.12960763 -0.18276678 0.047525566 -0.0624095 0.037356894 0.1482011 0.07102667 -0.012157125 -0.048803773 -0.0147360815 -0.03927168 -0.030015891 0.067469954 -0.028666237 -0.1250203 0.22602487 -0.09874947 0.025778238 0.06936838 0.14381018 0.020036008 0.013955058 0.059756134 -0.08756941 -0.09462815 -0.017159598 0.015967546 0.011909529 -0.059397798 0.11900064 -0.08962335 0.037403442 -0.10601241 -0.030697672 0.020667078 0.10371652 -0.070289984 0.09951954 -0.060747217 0.048809804 -0.121383816 0.06629651 0.07037412 -0.023539072 0.03632845 0.07774891 -0.040058408 0.01933893 0.08698608 0.009026974 0.11460294 -0.037012916 -0.012929664 -0.022303788 -0.054294176 -0.017763885 -0.14247458 0.064226426 0.053909067 0.045068614 0.04109298 -0.053199537 -0.076750204 -0.08638917 -0.08943604 0.12200659 -0.17729738 0.08291998 -0.12109146 -0.06262697 0.029264467 0.06797112 0.12855648 -0.024421278 -0.0038281833 -0.021693017 0.14204149 0.08093025 -0.054810766 -0.06954981 -0.0002460471 -0.11082915 0.072147414 -0.020816192
3375 -0.0052543995 0.13035588 -0.11790465 -0.049755514 0.011342953 -0.06503502 -0.04369045 0.056711454 -0.10008669 0.007157821 0.013826239 -0.033976637 -0.07855956 0.0025397013 0.072665595 -0.06375043 -0.005328137 0.06613815 -0.0101598585 -0.0046007005 -0.06802551 0.008963484 0.21186356 0.054966923 -0.1504432 -0.034018904 0.03657293 -0.009292433 0.030381337 0.08132303 -0.004858778 -0.030389385 0.036238182 -0.14970207 0.031096667 -0.017638179 0.031065801 0.048423268 -0.16960955 -0.03385669 0.06525458 0.09170394 -0.077741474 -0.1466168 -0.11102859 -0.15164676 0.04328016 -0.0562058 0.029348465 0.1245087 0.06367163 -0.00919101 -0.041365094 -0.009280259 -0.036480553 -0.02162713 0.05875933 -0.025932303 -0.10347535 0.18689708 -0.08784873 0.02275841 0.054189567 0.122768894 0.0128048835 0.00916813 0.0527943 -0.06755515 -0.08282038 -0.01930304 0.014530243 0.009099762 -0.057426084 0.09261011 -0.07856973 0.029424245 -0.08319388 -0.024016304 0.019352565 0.083639815 -0.06631619 0.084811985 -0.04322004 0.043729827 -0.09623797 0.056017727 0.065579705 -0.0176454 0.025728915 0.07274821 -0.036713354 0.015948428 0.074387565 0.008234492 0.09575077 -0.03207722 -0.012767837 -0.020910647 -0.04725978 -0.014052563 -0.124703124 0.05409766 0.04031745 0.037625164 0.032520402 -0.038135443 -0.06803821 -0.068839885 -0.07550933 0.10004621 -0.1570551 0.068756714 -0.10543542 -0.049351875 0.024896445 0.059122812 0.10346373 -0.016222157 -0.0018980431 -0.01149549 0.1181683 0.061534557 -0.05175972 -0.05972418 -0.003722419 -0.08853092 0.056755025 -0.014102312
3350 -0.0034747897 0.12745777 -0.12093118 -0.04346811 0.009675162 -0.061036628 -0.047827702 0.0542253 -0.093796864 0.0026863052 0.015495546 -0.033994578 -0.07733178 0.0006688652 0.068504274 -0.06754719 -0.0071300142 0.058549434 -0.014598269 -0.006934605 -0.062259924 0.0074005295 0.20091823 0.054322492 -0.15027389 -0.026793998 0.04123341 -0.009159856 0.026546448 0.07248033 -6.014348e-05 -0.023627289 0.031856354 -0.15061535 0.03021069 -0.020919437 0.023186775 0.048532363 -0.16621919 -0.030997995 0.06299309 0.08866619 -0.074023925 -0.14332005 -0.10496013 -0.144615 0.04169251 -0.05411223 0.025161223 0.121802434 0.05895175 -0.012575031 -0.04220989 -0.00865806 -0.035042796 -0.023805434 0.054282665 -0.02651715 -0.10218039 0.18511854 -0.08589284 0.025240375 0.055020995 0.120295495 0.017449029 0.010408629 0.052067477 -0.06749698 -0.08015889 -0.02173273 0.017132634 0.0071810693 -0.05156185 0.09354882 -0.07694743 0.032541085 -0.08264684 -0.024498573 0.016606547 0.0791743 -0.0630484 0.08258105 -0.047033515 0.042642266 -0.0967995 0.05368559 0.059935804 -0.015666762 0.031797193 0.067582436 -0.03527272 0.016101249 0.0694615 0.0057140174 0.0926492 -0.029738117 -0.0128330635 -0.02524344 -0.042382985 -0.016267046 -0.11651227 0.050343495 0.04572304 0.033074886 0.037119225 -0.035373468 -0.060801104 -0.07238834 -0.07165936 0.1012281 -0.15342061 0.06887413 -0.105022274 -0.051623285 0.02745778 0.05520259 0.10186731 -0.02136586 0.0007002905 -0.015366849 0.116939634 0.06314553 -0.044410527 -0.05404561 -0.0035745252 -0.089180335 0.059510265 -0.01314496
3045 -0.006646848 0.14894731 -0.14006017 -0.05097398 0.00859453 -0.06711511 -0.050112896 0.06224718 -0.1169788 0.0059241625 0.015542144 -0.038492072 -0.08504467 -0.0041854996 0.077467516 -0.074125715 -0.0056292005 0.07230522 -0.016888969 -0.0010223181 -0.07763129 0.008538701 0.24028179 0.05952912 -0.18247442 -0.034913428 0.04750342 -0.0068327202 0.036167666 0.09317561 -0.004842588 -0.029802779 0.04139018 -0.1736291 0.03951189 -0.016693601 0.034771875 0.05342555 -0.19336134 -0.03508213 0.0772241 0.1038715 -0.092089914 -0.16103822 -0.1264837 -0.17306788 0.050292112 -0.05870626 0.03189727 0.14149837 0.065764405 -0.017343612 -0.051776204 -0.01021678 -0.04345043 -0.026022946 0.06529046 -0.03386283 -0.11858296 0.22005807 -0.101909086 0.026349502 0.065393806 0.14481246 0.020171294 0.013564816 0.06247376 -0.08479559 -0.091879494 -0.024485528 0.02108121 0.008118883 -0.06057465 0.11076924 -0.089516595 0.04041268 -0.10481849 -0.02917074 0.019402085 0.095690206 -0.074376225 0.098577134 -0.053265836 0.046833497 -0.111030035 0.06441565 0.06793585 -0.022364255 0.03150799 0.07632476 -0.036593985 0.014165759 0.0850425 0.0071869977 0.10847843 -0.03594092 -0.010808406 -0.02359585 -0.056545846 -0.018485686 -0.13766295 0.05655577 0.05394744 0.041328456 0.036728714 -0.050936885 -0.07611793 -0.08407205 -0.085709944 0.11259699 -0.17734794 0.084215395 -0.12084647 -0.055202402 0.03426955 0.06594936 0.1254663 -0.023959635 -0.004973712 -0.015672963 0.13370436 0.07808997 -0.053198576 -0.06898191 -0.004098672 -0.105075285 0.070443265 -0.019202828
3020 -0.010387223 0.17121771 -0.15238242 -0.06451984 0.008368851 -0.074180275 -0.064327836 0.067981474 -0.13244514 0.010776155 0.019993583 -0.04855713 -0.0978063 -8.041687e-05 0.09107265 -0.08500273 -0.0057057743 0.088481516 -0.019306198 -0.0035349885 -0.087859966 0.004873863 0.27290666 0.06499524 -0.20254354 -0.037884448 0.05123788 -0.009873423 0.039856147 0.10239207 -0.0061489996 -0.041364666 0.044545047 -0.19824101 0.04701389 -0.024385473 0.036126446 0.062100276 -0.22340935 -0.044547606 0.09023462 0.11818413 -0.103541106 -0.18678896 -0.14460737 -0.2023723 0.05191643 -0.06559209 0.04075998 0.16612774 0.07649877 -0.019852208 -0.05297865 -0.011469197 -0.046026297 -0.036541324 0.077035695 -0.038241044 -0.13677265 0.2467905 -0.1122975 0.028006656 0.075379185 0.16108766 0.018012166 0.01205119 0.06683711 -0.095024146 -0.10508492 -0.021847673 0.018116493 0.010331389 -0.067753986 0.13184446 -0.101514295 0.04138759 -0.11492136 -0.03238257 0.023933282 0.114376724 -0.082024835 0.11620225 -0.05965364 0.052230913 -0.13015419 0.07044569 0.07728621 -0.022511661 0.040756937 0.09200777 -0.039983086 0.024156174 0.09828248 0.0145424185 0.13049793 -0.037649546 -0.01683887 -0.024993682 -0.06274029 -0.021052442 -0.15949959 0.06953073 0.059111524 0.042317815 0.044082146 -0.05139231 -0.08279907 -0.09553749 -0.0965517 0.13142419 -0.19650164 0.0935627 -0.13894063 -0.06565316 0.032875363 0.075611666 0.14169466 -0.02389026 -0.0042598625 -0.02197166 0.15124743 0.0893486 -0.059637997 -0.07574227 -0.0062109185 -0.119090095 0.076022826 -0.021758223
3240 -0.005079473 0.13773309 -0.13016678 -0.05179171 0.005879987 -0.06169406 -0.04661425 0.052767895 -0.10833016 0.0048199883 0.014471066 -0.041759413 -0.07978932 -0.002428442 0.075143166 -0.073964745 -0.008015858 0.070125446 -0.013141714 -0.007528799 -0.07083928 0.008220528 0.21647683 0.05917657 -0.16342603 -0.029206706 0.03762925 -0.013135769 0.03321827 0.08385199 -0.0042989315 -0.029220711 0.03345196 -0.162246 0.04014172 -0.021870824 0.03030658 0.04917804 -0.17675981 -0.031351708 0.068710335 0.094411485 -0.08072184 -0.15474045 -0.11370394 -0.16031732 0.047013536 -0.056672737 0.029332107 0.12838857 0.06135997 -0.014775867 -0.041189373 -0.013376784 -0.038268074 -0.02721429 0.062103182 -0.02895201 -0.10779807 0.19638757 -0.09035799 0.021974945 0.05940886 0.13387553 0.01847353 0.0055682245 0.05769802 -0.07295551 -0.08599227 -0.021579001 0.01870355 0.010961656 -0.055085346 0.10228214 -0.08148616 0.029331693 -0.09228916 -0.02406867 0.020505121 0.0884584 -0.06401417 0.09265016 -0.054529916 0.04551783 -0.10877754 0.060974512 0.063522145 -0.019741844 0.033326447 0.07455813 -0.03189 0.01777143 0.08032889 0.0055049253 0.10419653 -0.02878868 -0.011575326 -0.023020025 -0.04841015 -0.018123439 -0.12810412 0.05588282 0.04437668 0.034220275 0.039014995 -0.039770003 -0.06574159 -0.076060705 -0.07631976 0.10504853 -0.15819734 0.08130508 -0.11244546 -0.05446357 0.0313642 0.0641474 0.110917255 -0.017863682 0.0013369699 -0.012246454 0.12063171 0.06843022 -0.05312412 -0.064855985 0.0017869031 -0.094061956 0.062096063 -0.019842347
3265 -0.006056705 0.12948158 -0.12394268 -0.05066264 0.0063214563 -0.059771046 -0.044672895 0.056052484 -0.10203094 0.0031252792 0.014009459 -0.039479226 -0.07314915 -0.0041766805 0.06625969 -0.06664028 -0.0039481143 0.060174733 -0.014194981 -0.0015256308 -0.06518685 0.0018806311 0.21124437 0.055150107 -0.15396807 -0.035819776 0.037326157 -0.012361797 0.034030642 0.08069025 -0.004641612 -0.025404908 0.03370569 -0.15547293 0.037884608 -0.019145556 0.025632842 0.045478288 -0.17332904 -0.031130675 0.06815412 0.08943109 -0.079262905 -0.14664958 -0.10521457 -0.15074842 0.04346307 -0.05281308 0.025938638 0.12156624 0.05807405 -0.009041054 -0.045952734 -0.015327557 -0.03760219 -0.023299085 0.058574215 -0.023678623 -0.10354492 0.18994063 -0.084653474 0.018630879 0.058182005 0.123820685 0.012217019 0.008059902 0.05063817 -0.07337418 -0.077568874 -0.0150906285 0.018532827 0.007093668 -0.050812475 0.09588347 -0.07774845 0.03304553 -0.08397161 -0.023891395 0.015360552 0.081573024 -0.06611802 0.086446874 -0.046785455 0.046451874 -0.10266062 0.055320878 0.06470525 -0.012948105 0.030843416 0.06758643 -0.030678032 0.012545536 0.07475969 0.008597987 0.093520075 -0.03283915 -0.011942555 -0.02361458 -0.044374146 -0.015887627 -0.122617066 0.05017309 0.046288837 0.033071086 0.032212913 -0.03624697 -0.06849721 -0.070337854 -0.07696602 0.100078546 -0.15206082 0.076081164 -0.10736782 -0.04779681 0.027735084 0.061701946 0.10531704 -0.019669445 -0.00086119596 -0.016770387 0.116180494 0.06309151 -0.04627078 -0.060396384 -0.0050977063 -0.089356616 0.060394585 -0.016051264
3218 -0.00886218 0.18444651 -0.16413711 -0.069602266 0.008832056 -0.08104498 -0.06408099 0.072289295 -0.13740972 0.010448767 0.018008487 -0.04772019 -0.10086258 -0.0009933468 0.09312482 -0.09503049 -0.010114652 0.08676426 -0.019177517 -0.0024058167 -0.0910928 0.003719161 0.2897852 0.07692885 -0.21935235 -0.04560192 0.05377582 -0.009782639 0.041761994 0.109833635 -0.0070047188 -0.040720448 0.045751534 -0.21749721 0.052669443 -0.028164757 0.0433133 0.06366738 -0.23661594 -0.04694137 0.09477648 0.123812035 -0.11035867 -0.19606552 -0.15327151 -0.21416765 0.060044978 -0.074617855 0.040357407 0.17522295 0.07982954 -0.015852671 -0.060473233 -0.018489663 -0.047684927 -0.03166287 0.07973725 -0.035658497 -0.14193943 0.25776866 -0.11441185 0.026293634 0.08202113 0.17604448 0.02111829 0.011570658 0.071004435 -0.09637853 -0.11244594 -0.021937618 0.02407578 0.00955896 -0.077125326 0.13924693 -0.100230075 0.039584644 -0.12175432 -0.032849904 0.020503039 0.11862908 -0.0876268 0.122948736 -0.069488905 0.06334797 -0.14003657 0.07596351 0.08310988 -0.025100289 0.04033647 0.095151246 -0.045066785 0.024329219 0.09765773 0.00848822 0.13665701 -0.045131132 -0.012023315 -0.032545462 -0.064811334 -0.021006672 -0.1696209 0.07034825 0.06305394 0.049422894 0.04508628 -0.057294734 -0.09336281 -0.098689415 -0.102774285 0.13881677 -0.20947401 0.10328019 -0.14541787 -0.07202567 0.037413858 0.08068656 0.15222985 -0.027946278 -0.0035877845 -0.021656023 0.16146937 0.08874838 -0.06811377 -0.079987735 0.0019583674 -0.1283161 0.08217699 -0.020625954
3241 -0.0078162 0.18341027 -0.17218721 -0.06955996 0.014590602 -0.08723473 -0.066646405 0.07694596 -0.14031678 0.010003662 0.015861856 -0.05011844 -0.109094515 -0.0020876445 0.09926265 -0.09649157 -0.008316287 0.092962995 -0.018028101 -0.008116899 -0.095938034 0.005690691 0.29303837 0.07434171 -0.22329427 -0.046150375 0.051493376 -0.014604707 0.043281104 0.116498135 -0.00022795086 -0.036121752 0.050546214 -0.21991323 0.055212244 -0.030319933 0.03893072 0.065053605 -0.24392693 -0.048534494 0.09988011 0.12713315 -0.11112462 -0.20071284 -0.15653007 -0.21310961 0.056787603 -0.07572496 0.041130185 0.1766431 0.080938555 -0.0155396 -0.055827603 -0.013809101 -0.05106309 -0.03537664 0.08302443 -0.03809654 -0.1507851 0.2650447 -0.121453725 0.030605424 0.08310932 0.1830921 0.022158194 0.011992541 0.07650564 -0.1051679 -0.115518644 -0.026938172 0.020643579 0.008490451 -0.07431974 0.14180882 -0.1037474 0.042958874 -0.12538648 -0.034847572 0.028437683 0.12048656 -0.08805343 0.12578331 -0.06816451 0.061992366 -0.14207548 0.07920192 0.091492124 -0.022471717 0.043105233 0.09443986 -0.04950054 0.022762138 0.105161905 0.008640711 0.13511336 -0.037862316 -0.0123864 -0.028904775 -0.06877984 -0.02006922 -0.17307103 0.07711994 0.06562362 0.05243994 0.048386104 -0.05443596 -0.09319817 -0.10003109 -0.105345994 0.14754316 -0.22082342 0.106611475 -0.15433645 -0.0680851 0.039363865 0.08628285 0.15393734 -0.028909296 0.0012438346 -0.023396073 0.16537392 0.09086546 -0.067615874 -0.08833597 0.0020223863 -0.1277923 0.08394981 -0.02151195
3194 -0.0053723413 0.11625824 -0.10968552 -0.04359165 0.005371674 -0.052071154 -0.041468225 0.04932699 -0.090171605 0.005016227 0.011314507 -0.036827195 -0.066516235 0.002563349 0.065499395 -0.064785406 -0.0029342503 0.059672873 -0.0135135045 -0.0030423896 -0.059105277 0.00524568 0.18979207 0.045187045 -0.14356744 -0.028426327 0.032505326 -0.00663214 0.031242365 0.06998498 -0.00037557018 -0.024372118 0.028054299 -0.13989168 0.033866152 -0.01914108 0.027117675 0.04042261 -0.15755785 -0.028770009 0.06442007 0.07846785 -0.07071844 -0.12830393 -0.09700033 -0.1353997 0.041696355 -0.046641678 0.028727744 0.11630901 0.05145939 -0.0124848755 -0.03614049 -0.012071403 -0.03401311 -0.02542739 0.055721983 -0.025940325 -0.09698097 0.16702966 -0.07828487 0.020106483 0.054351825 0.11799135 0.012977397 0.0046349578 0.048913408 -0.06745863 -0.07588294 -0.019394854 0.018076343 0.00634902 -0.047786746 0.08987678 -0.06940135 0.025736487 -0.07596021 -0.023613289 0.018876223 0.078850664 -0.057353985 0.07717938 -0.04575692 0.04208684 -0.09520528 0.048759177 0.05751803 -0.012157815 0.022812119 0.06392419 -0.030531317 0.015014699 0.06654265 0.009587468 0.092239596 -0.028611556 -0.0085506085 -0.02131018 -0.043251213 -0.010915585 -0.11405319 0.049049996 0.040911105 0.028933529 0.02878082 -0.0320776 -0.056776877 -0.06432858 -0.070427366 0.09355834 -0.13816746 0.06814341 -0.09716134 -0.04643356 0.023357593 0.053852554 0.09998198 -0.018238975 0.0012953967 -0.015127998 0.10898636 0.058149192 -0.04244124 -0.05447079 0.00087508233 -0.08176793 0.05915197 -0.013118992
3219 -0.0054907473 0.18400545 -0.16956924 -0.0695762 0.00930871 -0.08502987 -0.061218582 0.07323911 -0.1387972 0.0077893175 0.018918144 -0.05397001 -0.10880995 -0.0020717143 0.09532553 -0.09577577 -0.008343811 0.09298651 -0.016358698 -0.0074788337 -0.09762612 0.008133849 0.29397205 0.07589569 -0.22180559 -0.04727629 0.051219568 -0.012590252 0.042428184 0.11244558 -0.00017868383 -0.042477276 0.047131702 -0.21897678 0.050166745 -0.02676725 0.04235664 0.06775788 -0.24173309 -0.05029597 0.09553522 0.12559484 -0.10924614 -0.20195818 -0.15596692 -0.21231732 0.06175654 -0.07837691 0.043928757 0.17408897 0.08513349 -0.016997142 -0.059995104 -0.013698841 -0.055476807 -0.03730088 0.0798748 -0.034527365 -0.14863351 0.26260433 -0.11878344 0.028674444 0.08401089 0.18174356 0.019532325 0.011863434 0.07569706 -0.09985888 -0.10988457 -0.025926754 0.027244238 0.010299463 -0.074177936 0.136388 -0.10447208 0.041047297 -0.121129215 -0.029575156 0.021084089 0.12217305 -0.088618845 0.12015645 -0.07118805 0.05995964 -0.1449585 0.07589552 0.08681639 -0.027148683 0.04415941 0.096086 -0.048644654 0.02375774 0.10564968 0.013919892 0.13831949 -0.039858807 -0.012607243 -0.028846487 -0.06569656 -0.018495664 -0.17688821 0.07258008 0.061549135 0.048904967 0.04810034 -0.05584112 -0.09618821 -0.10110423 -0.10759806 0.14587723 -0.21711843 0.104001276 -0.15372661 -0.0692362 0.039013457 0.08871714 0.1524163 -0.030763604 -0.003284746 -0.023119273 0.16981149 0.09048548 -0.07127012 -0.08767796 0.00032231005 -0.13044363 0.08905312 -0.019737015
3242 -0.007995906 0.19054264 -0.17180929 -0.0665637 0.011039501 -0.08242851 -0.06654487 0.07337201 -0.14610885 0.011110465 0.014868897 -0.053572457 -0.10587728 -0.0020099194 0.09997869 -0.09577251 -0.0072549223 0.08940952 -0.015110666 -0.0052778246 -0.09193159 0.006772459 0.30089194 0.075500414 -0.22231638 -0.043544788 0.052196346 -0.016631981 0.04488146 0.11556261 -0.0048467987 -0.037169524 0.046968438 -0.22017878 0.04936791 -0.022734208 0.040246945 0.062692806 -0.2449094 -0.046600085 0.10082809 0.12951656 -0.10636269 -0.20485431 -0.15630122 -0.2159787 0.060238685 -0.075183794 0.04418947 0.17947747 0.08333216 -0.014145306 -0.062084924 -0.016658636 -0.04825897 -0.032463487 0.0856968 -0.03507841 -0.15306191 0.27132645 -0.122887306 0.0316377 0.08004698 0.18246453 0.026097998 0.0099653695 0.078928724 -0.105108716 -0.11644811 -0.026665507 0.022606304 0.012750687 -0.07792497 0.14102054 -0.10753969 0.045579337 -0.12623999 -0.0350424 0.024090922 0.117211275 -0.08826542 0.12545097 -0.06647069 0.05957343 -0.14609148 0.0844308 0.08723197 -0.020584557 0.045346934 0.09486786 -0.050825413 0.020653307 0.10287041 0.011913348 0.14322019 -0.045159377 -0.0134581365 -0.03463421 -0.06668511 -0.017480189 -0.17267786 0.070416465 0.063993506 0.048827667 0.049714506 -0.05456413 -0.091883644 -0.104499824 -0.10335203 0.14424798 -0.21529081 0.10533336 -0.15324241 -0.074902534 0.034763265 0.08949002 0.15690166 -0.025022043 -0.005297336 -0.022306127 0.1663252 0.08965472 -0.06611063 -0.08254274 0.0024463104 -0.13146584 0.08688388 -0.024328269
3264 -0.0041751745 0.18103221 -0.1596213 -0.070238106 0.010172395 -0.08020123 -0.059740532 0.068739 -0.13800284 0.011071572 0.01427532 -0.04632911 -0.10170078 -0.0014027167 0.093181014 -0.089389816 -0.0061287084 0.08601027 -0.016354803 -0.007963345 -0.08829054 0.006592564 0.2834866 0.072347105 -0.21490085 -0.04119429 0.050498184 -0.011787583 0.043938387 0.109080195 -0.00041202712 -0.037062075 0.045981284 -0.20651245 0.048624936 -0.02877649 0.04178757 0.0657882 -0.23163943 -0.04757372 0.08841908 0.12369513 -0.10024709 -0.19398414 -0.14915937 -0.20906904 0.058903992 -0.07386395 0.040053178 0.16705868 0.076372355 -0.019598216 -0.053444546 -0.012311069 -0.048362784 -0.03407589 0.08147326 -0.03546756 -0.14255989 0.25523394 -0.113794625 0.026406156 0.07361542 0.17178299 0.022287969 0.012450322 0.07437057 -0.099401474 -0.10583283 -0.024536543 0.026153475 0.0059915604 -0.07207659 0.13135199 -0.10171961 0.038216803 -0.11903085 -0.034509115 0.02687924 0.11383218 -0.08800931 0.11712648 -0.06463868 0.05658616 -0.14022145 0.0781998 0.08266456 -0.020466622 0.041455124 0.09490343 -0.043456085 0.018398883 0.102541275 0.0114569 0.13370323 -0.035907682 -0.011965254 -0.0331513 -0.06190541 -0.02183943 -0.16435912 0.06872726 0.060734402 0.046226963 0.050517567 -0.049954623 -0.091332324 -0.100567766 -0.102504134 0.14092489 -0.20978649 0.101854175 -0.14001955 -0.06989544 0.033206265 0.083240815 0.14586046 -0.026548026 -0.0060632997 -0.023751548 0.15850262 0.08585601 -0.0683758 -0.08150247 -0.0020287114 -0.119991526 0.08273243 -0.01958541
3221 -0.008829083 0.1955264 -0.17403187 -0.074249685 0.014796231 -0.08621532 -0.06804895 0.080872536 -0.14834028 0.011498017 0.0219181 -0.052462682 -0.10890931 0.0003176485 0.10572239 -0.09970011 -0.0057026376 0.0981534 -0.01650934 -0.0024278455 -0.09721191 0.008724203 0.3158768 0.07882306 -0.23581861 -0.04559353 0.05793018 -0.013274618 0.046538718 0.115041636 -0.0052872 -0.0480145 0.053722925 -0.22777376 0.05814668 -0.027877446 0.044613007 0.067812964 -0.2600955 -0.04997898 0.09768415 0.1378943 -0.11623318 -0.21286936 -0.16565819 -0.22775014 0.059925318 -0.0778721 0.04075663 0.1857357 0.08582309 -0.023688823 -0.06529466 -0.018088501 -0.058206145 -0.037739214 0.08455054 -0.042215586 -0.1519346 0.2855595 -0.1289596 0.0320983 0.08569586 0.1865982 0.026280759 0.011345513 0.08030814 -0.10900203 -0.119246244 -0.030372964 0.026140016 0.0102976 -0.08131506 0.14639133 -0.11538807 0.04538033 -0.13208996 -0.0346615 0.026460437 0.13313276 -0.092675425 0.1320342 -0.07385663 0.06632363 -0.15082207 0.086210854 0.09312248 -0.027168691 0.040693708 0.10027144 -0.046910815 0.023719603 0.11258793 0.015488655 0.15042971 -0.04552135 -0.019390691 -0.03534866 -0.06782631 -0.021916298 -0.17885926 0.081224084 0.06749305 0.052968804 0.0488776 -0.06429951 -0.10021945 -0.10694467 -0.11515114 0.14804092 -0.22530758 0.11398617 -0.15920036 -0.07695055 0.043140512 0.09198448 0.16289183 -0.028785432 -0.0030790868 -0.021056473 0.17907394 0.10200265 -0.070344225 -0.08880393 -0.00067182886 -0.1345207 0.08760906 -0.02207926
2970 -0.0033286468 0.10008601 -0.094121456 -0.041051317 0.0077700205 -0.04753409 -0.038308702 0.04636714 -0.080433816 0.0048579415 0.009206745 -0.025339255 -0.063782215 -0.0031140968 0.059479315 -0.056390453 -0.0018471156 0.055898126 -0.009981877 -0.0009057657 -0.053207748 0.0009957731 0.16911818 0.037116278 -0.12227574 -0.020670507 0.03371918 -0.004406314 0.01986492 0.05862409 -0.0023608527 -0.020407954 0.02373036 -0.121438526 0.03236681 -0.012128326 0.023487689 0.038472205 -0.13819763 -0.023252284 0.054799624 0.07109394 -0.06415092 -0.11820474 -0.08771346 -0.1234047 0.035764232 -0.04368848 0.025166687 0.096807 0.04826671 -0.011351005 -0.03088526 -0.011475743 -0.028126145 -0.02152169 0.048162214 -0.02255189 -0.08168735 0.15290178 -0.06967526 0.020327589 0.047966864 0.09645341 0.009666249 0.006646824 0.040938444 -0.05796353 -0.06594841 -0.011102312 0.015239757 0.005732859 -0.04231421 0.07991129 -0.056719113 0.031076657 -0.0728485 -0.0147016365 0.01544821 0.070179 -0.045937765 0.069735825 -0.034928948 0.036316223 -0.0771512 0.046562582 0.04554162 -0.017549373 0.025138926 0.05316181 -0.026782805 0.011595432 0.060965654 0.0042647887 0.08015802 -0.025682122 -0.006327134 -0.017484318 -0.034439206 -0.01319283 -0.09739725 0.04146447 0.032514796 0.030946182 0.027942045 -0.030889044 -0.053871263 -0.054437526 -0.061592445 0.08441728 -0.12359994 0.05806438 -0.081176534 -0.038574643 0.025017306 0.04420065 0.08941726 -0.011390438 0.0012877833 -0.011774012 0.09719239 0.053680807 -0.0352891 -0.048314344 -0.0021034796 -0.069610134 0.051087745 -0.012354628
3217 -0.004158755 0.18378736 -0.16399632 -0.06724383 0.008101174 -0.08322575 -0.06228004 0.07618084 -0.13779831 0.00979364 0.020796208 -0.05305926 -0.10536774 -0.0018371916 0.09858844 -0.09004702 -0.0044172313 0.09224634 -0.020566938 -0.00482488 -0.09279325 0.006450398 0.2900781 0.06949709 -0.21639821 -0.041937195 0.051952183 -0.01049658 0.043912515 0.10706641 -0.0064873076 -0.036944013 0.04490338 -0.2134493 0.05113328 -0.022806918 0.04264155 0.06510328 -0.23561904 -0.047584753 0.09745519 0.12687045 -0.10610396 -0.19968532 -0.14883557 -0.21207646 0.055297308 -0.07821145 0.040465005 0.17673343 0.08213786 -0.01380364 -0.05876446 -0.017021673 -0.050518837 -0.03678556 0.07813415 -0.03534717 -0.14192483 0.25889727 -0.11558458 0.03334864 0.0756642 0.17891918 0.02219165 0.0099389 0.07767825 -0.09938332 -0.10940399 -0.019881027 0.021219648 0.00942754 -0.07484014 0.13793086 -0.10325354 0.041791577 -0.12513493 -0.03511242 0.026819516 0.12024417 -0.084333085 0.12159225 -0.06368697 0.05705671 -0.14180912 0.077173755 0.08955055 -0.020332614 0.042491566 0.09396972 -0.045018487 0.024030073 0.102361925 0.009268643 0.13659707 -0.037110474 -0.013547586 -0.03194797 -0.05956602 -0.019326955 -0.1741125 0.07375102 0.0642813 0.047183737 0.04979341 -0.056660265 -0.09508707 -0.10010813 -0.105748825 0.13788302 -0.21292147 0.10462254 -0.14447129 -0.069569 0.03638869 0.079931356 0.14522795 -0.0278747 -0.0016893035 -0.018833764 0.16056436 0.088427156 -0.065777056 -0.07881854 -0.0029310745 -0.123364024 0.08217348 -0.020262446
2945 -0.007947313 0.08284034 -0.08494958 -0.032379143 0.0074979304 -0.041756053 -0.033939734 0.03875698 -0.06815217 0.0030455263 0.011747299 -0.022536611 -0.047449283 -0.002785785 0.048773136 -0.041298788 0.0013622507 0.040562294 -0.007583111 0.0018130149 -0.043694086 0.0015711321 0.14123075 0.030950475 -0.100876704 -0.022699814 0.025424527 -0.0063952655 0.020913554 0.055076666 -0.0019742574 -0.023005698 0.02713703 -0.09995338 0.02627561 -0.00817684 0.019841652 0.028565446 -0.11652648 -0.02428236 0.044768896 0.06271298 -0.05475747 -0.0942127 -0.074291654 -0.10113394 0.02939433 -0.033006106 0.017503921 0.08095226 0.039204277 -0.011651488 -0.033016697 -0.0043657455 -0.025056614 -0.015466708 0.041738614 -0.02130072 -0.06592027 0.12730047 -0.06136755 0.018332418 0.03790314 0.08424106 0.013056407 0.007598747 0.031150583 -0.049783476 -0.057870194 -0.010362044 0.0114378305 0.007557851 -0.035782367 0.06634682 -0.05013426 0.020748425 -0.06256012 -0.012985998 0.009038166 0.057151362 -0.043551452 0.054489736 -0.03301813 0.030697986 -0.06643016 0.03489001 0.038837966 -0.008111152 0.018064685 0.048039768 -0.021971535 0.007226526 0.047033682 0.0095014805 0.06260504 -0.023183798 -0.009744493 -0.017093144 -0.03258735 -0.009778635 -0.08504975 0.030694533 0.030950023 0.023861583 0.02328818 -0.028894229 -0.04179939 -0.050216038 -0.053179834 0.06639543 -0.10606558 0.044716384 -0.07232581 -0.03116151 0.019068161 0.04008053 0.07172393 -0.009538819 -0.0047125844 -0.009340097 0.07861392 0.045206055 -0.033376 -0.038666334 -0.0026931902 -0.057236996 0.04292122 -0.0140652545
3150 -0.011501677 0.20198607 -0.1934366 -0.07488197 0.014562431 -0.09620808 -0.07469812 0.089227684 -0.1557291 0.009502541 0.02035487 -0.05899935 -0.121894434 0.002380889 0.114682436 -0.10484196 -0.0083471695 0.101343125 -0.019385073 -0.0056212186 -0.104751125 0.01187993 0.32515055 0.07961078 -0.24598198 -0.049682986 0.060236365 -0.016984193 0.044914562 0.12521148 -0.0066783074 -0.04020488 0.05790961 -0.2431633 0.05409275 -0.030264968 0.041985027 0.07224488 -0.2674426 -0.055073503 0.10998009 0.13736978 -0.119604 -0.22853541 -0.17340294 -0.23991354 0.07102738 -0.08676147 0.043234266 0.19920996 0.09782698 -0.015316824 -0.06683778 -0.018467687 -0.05985126 -0.041541982 0.09475272 -0.0474556 -0.15483148 0.29604152 -0.1327253 0.033232037 0.09219239 0.19771717 0.020350391 0.011852061 0.08111219 -0.107732244 -0.12843207 -0.027644902 0.023599258 0.009354405 -0.08932036 0.15161313 -0.11936689 0.056235608 -0.13492669 -0.037531607 0.022839518 0.12922849 -0.09759836 0.14105389 -0.072970174 0.06426507 -0.15957661 0.089602605 0.10128678 -0.030405063 0.049458303 0.11077379 -0.052573983 0.025296612 0.11661258 0.010759566 0.15088205 -0.05063203 -0.022516005 -0.032480158 -0.067336515 -0.022280188 -0.1892327 0.078923136 0.0677099 0.05368977 0.05234599 -0.06324467 -0.10226419 -0.110992745 -0.11826931 0.16152968 -0.2377928 0.10846025 -0.16360618 -0.07880803 0.03830546 0.095712304 0.16907491 -0.0294128 -0.002302012 -0.0209619 0.190373 0.104485504 -0.0786072 -0.09093818 -0.0014037219 -0.13768382 0.09465736 -0.026348684
3314 -0.009285482 0.18642233 -0.17153253 -0.07129059 0.012319606 -0.088160865 -0.06200647 0.08013358 -0.14123829 0.010281773 0.018454188 -0.05438251 -0.10881787 0.002615163 0.10294877 -0.092762806 -0.008213922 0.087943174 -0.015049571 -0.0046269754 -0.09227031 0.008863683 0.29513443 0.07105236 -0.21933599 -0.043846436 0.056037948 -0.010779416 0.043226004 0.112981744 -0.00012365571 -0.03853526 0.052762114 -0.22086181 0.047992 -0.025759168 0.038317278 0.06435545 -0.24489446 -0.046024095 0.09784478 0.12637612 -0.10815109 -0.20164536 -0.15375341 -0.2124614 0.058501814 -0.071603216 0.03812505 0.17483157 0.083848335 -0.01494419 -0.0608759 -0.015536738 -0.055082075 -0.03753237 0.07911207 -0.041711435 -0.14734352 0.26846156 -0.117801465 0.029931331 0.0805339 0.1818178 0.018346269 0.012437694 0.07539164 -0.10159531 -0.11770823 -0.027239328 0.021187695 0.010583527 -0.07716454 0.13597868 -0.109598845 0.042281486 -0.12713565 -0.03597816 0.027231373 0.12313178 -0.08791224 0.12635395 -0.06649452 0.059191 -0.13941802 0.08292684 0.08547851 -0.023158513 0.044859238 0.09811711 -0.04890261 0.022769293 0.10346481 0.013520461 0.13879178 -0.041404314 -0.011352258 -0.029972445 -0.061347175 -0.021680303 -0.17208378 0.068618186 0.060602404 0.044982657 0.046618022 -0.05546565 -0.09235854 -0.103686474 -0.100426994 0.14080372 -0.21226783 0.10689298 -0.15244876 -0.07335732 0.038945485 0.08328604 0.14988093 -0.02845917 -0.0015582856 -0.017622314 0.16964109 0.090317704 -0.07198164 -0.08471912 -0.0016596415 -0.12497089 0.08898334 -0.017482925
3151 -0.009948152 0.23462826 -0.21208005 -0.08284345 0.016622135 -0.11251054 -0.08327228 0.09295472 -0.17489888 0.0092910975 0.025801416 -0.063250646 -0.13241352 0.00078698306 0.12243997 -0.11745182 -0.010989651 0.116463274 -0.019456802 -0.010090724 -0.11486959 0.012198853 0.370883 0.09451324 -0.2783084 -0.057754356 0.071578376 -0.017703947 0.04880246 0.13799252 -0.0025008884 -0.048569996 0.06330259 -0.27638152 0.06003616 -0.030177398 0.047525786 0.08807704 -0.30292708 -0.060518354 0.1170446 0.15491882 -0.12961358 -0.25941423 -0.19640896 -0.27319625 0.077135675 -0.100002065 0.04854042 0.22428127 0.109916896 -0.021024648 -0.07493324 -0.016712204 -0.06636087 -0.040083494 0.10352398 -0.04777774 -0.17855404 0.331788 -0.15577884 0.041556854 0.09821063 0.22807156 0.028845774 0.013718024 0.089273915 -0.11835819 -0.14815627 -0.03094214 0.030678228 0.008690024 -0.09839958 0.16855551 -0.13247268 0.061744895 -0.15304706 -0.04100916 0.03066659 0.14468819 -0.11530914 0.15677443 -0.08085376 0.07416828 -0.1789277 0.10523645 0.11101308 -0.03189499 0.05062352 0.12092555 -0.057040296 0.025179662 0.12973326 0.012925305 0.17380522 -0.055495355 -0.025939412 -0.043438304 -0.07736157 -0.02607595 -0.21757416 0.085928336 0.07806381 0.062628016 0.058588546 -0.06907973 -0.11807831 -0.1281742 -0.13133682 0.18068907 -0.2679458 0.12248661 -0.19135676 -0.09362849 0.04077489 0.109406345 0.1904629 -0.03555017 -0.0032512848 -0.024768518 0.21174377 0.112420715 -0.08818009 -0.10614547 -0.00204552 -0.15872006 0.108114816 -0.026553832
3126 -0.010689865 0.21183507 -0.19626068 -0.07893966 0.017790295 -0.101021126 -0.076083034 0.09018305 -0.16196589 0.006767025 0.025820866 -0.054052435 -0.1259892 -0.00077097415 0.11332338 -0.10594337 -0.009220282 0.105440624 -0.02045887 -0.009998524 -0.10571965 0.0059446995 0.33546358 0.08573518 -0.25128248 -0.04921917 0.06595061 -0.01869505 0.04728186 0.12684861 -0.0072212634 -0.04584555 0.05392942 -0.248787 0.058584645 -0.026453998 0.045230936 0.077578776 -0.27035108 -0.053644955 0.11020352 0.144382 -0.1226381 -0.23349017 -0.17533351 -0.24183908 0.07222555 -0.08734458 0.048551656 0.20082746 0.099092476 -0.018592985 -0.06815383 -0.018864105 -0.059904654 -0.043635875 0.09432648 -0.0417824 -0.15953213 0.30063033 -0.1384605 0.031951763 0.092611946 0.20702283 0.022822056 0.010880951 0.0799543 -0.11348573 -0.13374195 -0.028722115 0.028541652 0.009577897 -0.08918067 0.15240255 -0.11869894 0.05482469 -0.14321327 -0.039157696 0.02246529 0.1310453 -0.10221195 0.14428061 -0.07483293 0.06637169 -0.15801325 0.09079589 0.09539684 -0.02990524 0.04709631 0.11045093 -0.049756102 0.027467148 0.1156257 0.009951478 0.15785399 -0.046352047 -0.021644764 -0.034601487 -0.073733404 -0.02352118 -0.19646063 0.08031327 0.07434847 0.05569158 0.05346133 -0.06206653 -0.10965085 -0.11653794 -0.11631693 0.15929262 -0.24927469 0.11354598 -0.16942248 -0.08566832 0.038361028 0.094459355 0.17412476 -0.03346464 -0.0051282067 -0.021076929 0.18740273 0.10290345 -0.0772469 -0.09742848 -0.0012718169 -0.14526339 0.097368225 -0.023197735
3225 -0.0042904043 0.14188857 -0.13316067 -0.046801686 0.0096778665 -0.06810696 -0.05066403 0.05650153 -0.109580286 0.0069510033 0.017598612 -0.033616852 -0.07825039 -0.0015064774 0.07311909 -0.07307741 -0.0013377684 0.07105375 -0.013960207 -0.0036005196 -0.07052747 0.008586209 0.22724988 0.05806507 -0.1706118 -0.033136677 0.045061845 -0.005763556 0.030002913 0.08815705 -0.0043268995 -0.03038498 0.040117323 -0.16380617 0.03333736 -0.019581247 0.028693106 0.053752434 -0.18338788 -0.036413655 0.07227633 0.09694974 -0.07793302 -0.15999846 -0.119548246 -0.16433659 0.04344121 -0.06041903 0.034204993 0.13593246 0.06836128 -0.016037647 -0.049736314 -0.008149638 -0.041067325 -0.024821525 0.06650779 -0.030347815 -0.108790286 0.2036555 -0.08955968 0.027229507 0.0644994 0.13347414 0.0151923625 0.012911199 0.05661072 -0.07208528 -0.09028157 -0.018777661 0.01750679 0.007947072 -0.056421712 0.10691222 -0.08394611 0.03914585 -0.09186567 -0.02974464 0.013899837 0.0856584 -0.07060095 0.09405769 -0.05223309 0.044156894 -0.10483239 0.06221687 0.064707436 -0.022917362 0.035248753 0.07595806 -0.03933268 0.01852507 0.07858989 0.004851754 0.10874386 -0.031792346 -0.01589896 -0.025004094 -0.051361833 -0.013326162 -0.13662997 0.05779714 0.045657273 0.034016695 0.040875327 -0.047064047 -0.07232106 -0.08118718 -0.07804608 0.11358896 -0.16905554 0.074132204 -0.11815692 -0.05426808 0.024320034 0.064968325 0.113957405 -0.01672661 -0.0039685206 -0.012101578 0.13090086 0.07197443 -0.049048837 -0.06555082 -0.006133833 -0.1003134 0.06818227 -0.017723046
3127 -0.007891042 0.22133774 -0.20238101 -0.08036936 0.012878937 -0.105879895 -0.080946945 0.09039288 -0.1669238 0.011575267 0.027529642 -0.056717206 -0.122695535 -0.0011827438 0.12076715 -0.11445534 -0.0033097519 0.10411669 -0.016992196 -0.008957502 -0.10825969 0.0125486255 0.35112894 0.08673868 -0.26035085 -0.053525537 0.06974843 -0.018582763 0.046970394 0.1306738 -0.0015225426 -0.04708863 0.060201745 -0.25630707 0.06052295 -0.025567476 0.045875084 0.07979878 -0.28599995 -0.051291183 0.11103368 0.1495159 -0.12664065 -0.24198388 -0.17826796 -0.2507697 0.07478415 -0.09227739 0.049168434 0.21225639 0.10263767 -0.020868883 -0.070868805 -0.021214077 -0.05847249 -0.04281092 0.10106914 -0.051050413 -0.16782787 0.31055787 -0.14244649 0.034219958 0.09129501 0.20876646 0.028312733 0.0112417685 0.083441444 -0.110602304 -0.13691348 -0.029918395 0.022114938 0.0070588407 -0.0931825 0.16207795 -0.124848306 0.06040968 -0.1467946 -0.040151555 0.02685053 0.13455488 -0.11019598 0.14252022 -0.07524185 0.067149855 -0.16611362 0.09816647 0.099669315 -0.033347994 0.047162868 0.118562795 -0.0582061 0.026383353 0.12513325 0.010490704 0.16331564 -0.05406452 -0.024573365 -0.036464922 -0.075068735 -0.02049354 -0.2054428 0.08125581 0.07608942 0.06014763 0.057077378 -0.06962063 -0.10675644 -0.119619235 -0.119634084 0.17047432 -0.25681305 0.114446595 -0.17799576 -0.088394396 0.040042214 0.10227762 0.17821282 -0.034201674 -0.003786544 -0.020640954 0.19678396 0.11003095 -0.0831999 -0.09713918 -0.006685684 -0.14817086 0.09963472 -0.026759824
3195 -0.003756033 0.18796293 -0.17471829 -0.06942145 0.012320184 -0.09103424 -0.07066798 0.07439803 -0.14603256 0.011329326 0.016751738 -0.057274114 -0.1098179 -0.0015322319 0.10135313 -0.099172786 -0.008709998 0.098322645 -0.015572005 -0.006456962 -0.099899024 0.009863222 0.30644146 0.07749333 -0.22520554 -0.042270474 0.059718877 -0.010743189 0.04366739 0.11468093 -0.0004842651 -0.038233843 0.05280883 -0.22279188 0.051642086 -0.024578352 0.04167437 0.06849666 -0.24944803 -0.04564999 0.09989875 0.1333724 -0.11557706 -0.21180089 -0.15592416 -0.2257069 0.06248059 -0.07480105 0.039861105 0.18395767 0.08436252 -0.017097551 -0.058149837 -0.014810686 -0.05414563 -0.039945386 0.08458939 -0.04175034 -0.15510662 0.27885687 -0.1269054 0.028595509 0.08176088 0.18835391 0.027378356 0.01440611 0.0775269 -0.10733263 -0.121195324 -0.02610527 0.02420177 0.006169143 -0.07727069 0.14666803 -0.10743044 0.04372667 -0.12859948 -0.035799738 0.026111608 0.12903902 -0.09372498 0.1295822 -0.071409605 0.060363546 -0.15082951 0.079123706 0.08963905 -0.021969352 0.04621601 0.10006816 -0.046533998 0.022595797 0.10779257 0.011009255 0.14679328 -0.041218475 -0.011866032 -0.03136251 -0.064576 -0.02437132 -0.18129045 0.07904369 0.063380435 0.050462168 0.04939432 -0.056793947 -0.09344506 -0.10834936 -0.11298723 0.14738446 -0.22358443 0.10874984 -0.1553847 -0.07304772 0.04151818 0.088862866 0.15551573 -0.0309139 0.00146176 -0.019368364 0.17567047 0.09775693 -0.06806442 -0.09019928 -0.0038741475 -0.12885581 0.091320746 -0.026563747
3313 -0.009197537 0.20591164 -0.18193853 -0.07789225 0.01038196 -0.09121923 -0.074446484 0.08203679 -0.15291458 0.0077888775 0.018372644 -0.053026035 -0.11308776 0.0012172837 0.1084144 -0.10639743 -0.007242463 0.09510764 -0.019474795 -0.005322377 -0.10302444 0.0032990412 0.32533363 0.08028475 -0.24247342 -0.05299925 0.063495405 -0.0102107255 0.051607735 0.1255341 -0.00071821426 -0.042161748 0.05065192 -0.2393506 0.056572415 -0.024689225 0.0477909 0.06978591 -0.25915423 -0.05496043 0.10604859 0.13700984 -0.11989479 -0.22567149 -0.16311492 -0.23580627 0.06336934 -0.07846278 0.048132554 0.1906799 0.09301538 -0.015820146 -0.06287849 -0.019551253 -0.055401385 -0.03805297 0.091585286 -0.042689517 -0.16267453 0.2915881 -0.13155416 0.03760318 0.08830794 0.19688676 0.02561923 0.011601888 0.079862446 -0.107239716 -0.121393144 -0.023446314 0.024929788 0.009491221 -0.08612196 0.15127091 -0.11660326 0.05256067 -0.13457349 -0.03973174 0.030730024 0.13351686 -0.09895608 0.14008217 -0.07409224 0.0650609 -0.1551478 0.09168862 0.09530655 -0.03023012 0.044498608 0.10745529 -0.05037349 0.018724829 0.10947803 0.008846796 0.14820863 -0.044731822 -0.010765818 -0.031907845 -0.07059143 -0.023691552 -0.1849422 0.081482 0.06344198 0.049180035 0.05372127 -0.06420072 -0.103400484 -0.11487383 -0.11230069 0.15482576 -0.23697628 0.11132036 -0.15855333 -0.080319874 0.039279435 0.093626276 0.15938255 -0.029754132 1.9973755e-05 -0.021307828 0.18137823 0.098781005 -0.071560875 -0.088711746 -0.0058286856 -0.13895555 0.09550768 -0.0217301
3246 -0.0027642457 0.103203066 -0.091851875 -0.035885062 0.008495689 -0.048855614 -0.037926972 0.044454686 -0.07733732 0.006152584 0.007288124 -0.030770542 -0.05677644 -0.0023093338 0.05589746 -0.054583475 0.0009319076 0.05487884 -0.0077052303 0.0024495535 -0.052438024 0.007081952 0.1618591 0.04168573 -0.12095931 -0.022306513 0.027855987 -0.004490866 0.024832118 0.05794808 0.0009831841 -0.026860327 0.03104146 -0.12365186 0.028661314 -0.013754797 0.021410752 0.035978943 -0.1396721 -0.029381564 0.052281376 0.07433954 -0.060580872 -0.115463324 -0.0842987 -0.1232449 0.03348998 -0.04532445 0.026081907 0.10018024 0.04969935 -0.008387519 -0.030599853 -0.006709994 -0.028541248 -0.021890368 0.04537493 -0.021398686 -0.08198479 0.14959571 -0.06716561 0.019557623 0.04963907 0.0999061 0.011160404 0.009706958 0.045080733 -0.05901211 -0.06051529 -0.013806552 0.0140959965 0.0044857254 -0.03924163 0.08017801 -0.06211043 0.026856989 -0.070021026 -0.019661536 0.014734116 0.06900699 -0.047765154 0.06839821 -0.036634702 0.037015654 -0.08366399 0.04841194 0.04656825 -0.010993379 0.021313123 0.05502044 -0.022814546 0.017022913 0.05927739 0.0073757577 0.08142841 -0.025796788 -0.01153054 -0.016792621 -0.039337333 -0.009744128 -0.10049934 0.040524844 0.03223689 0.031793576 0.026347952 -0.032033265 -0.052236892 -0.055744547 -0.058926675 0.079714 -0.12532492 0.06222862 -0.0870832 -0.0360973 0.02264488 0.051649053 0.0830228 -0.015093441 -0.0004770343 -0.009363268 0.097859405 0.04991337 -0.03350897 -0.045445777 0.0009170745 -0.07590643 0.048801463 -0.009734304
3271 -0.0030769894 0.10669003 -0.09068128 -0.037405416 0.0028040386 -0.04775587 -0.040926326 0.041579742 -0.08175769 0.008499355 0.008064667 -0.0298955 -0.062739365 -0.001354729 0.060539022 -0.05125916 -0.0019946368 0.048015583 -0.009462254 -0.0009596923 -0.0505281 7.349836e-05 0.16336536 0.04398008 -0.12361677 -0.02699517 0.03353004 -0.003778621 0.022334512 0.064401925 -0.0024372258 -0.020377634 0.02743797 -0.12396472 0.03213387 -0.01577262 0.023239734 0.034285706 -0.13413195 -0.02339907 0.049757607 0.069457754 -0.06414566 -0.110597394 -0.08709058 -0.11938842 0.03518376 -0.045383595 0.024061624 0.103162475 0.043809082 -0.007937058 -0.036595393 -0.012074459 -0.026271852 -0.023453686 0.047921672 -0.024015317 -0.084198505 0.14729647 -0.069696076 0.013975791 0.049823303 0.10366917 0.010404927 0.006432674 0.039738525 -0.05492117 -0.06522221 -0.0109279305 0.014992896 0.0016449367 -0.040232714 0.0780511 -0.05779129 0.02475452 -0.073482394 -0.018622898 0.012361392 0.06725855 -0.04946953 0.073462784 -0.04055004 0.030957751 -0.08235278 0.042712126 0.044286575 -0.017620973 0.022179099 0.05404656 -0.023876399 0.015409612 0.05494418 0.010417994 0.0766928 -0.022884782 -0.006327077 -0.017929386 -0.04083206 -0.00796116 -0.09773738 0.045507923 0.037930038 0.027366467 0.029892635 -0.035172157 -0.056545947 -0.056683123 -0.06304657 0.08297312 -0.12146267 0.060423877 -0.08640851 -0.03655438 0.021621391 0.0484937 0.085527614 -0.013777658 -0.003667027 -0.011282815 0.097602844 0.050627433 -0.03900359 -0.048041105 0.0017585981 -0.07058527 0.046942785 -0.010906187
