1015 128
719 -0.24744649 -0.08802957 0.21816732 0.038522385 0.4285636 0.13398485 0.2459211 -0.22714621 -0.1180234 -0.105232425 0.18919355 -0.27474204 0.10672095 0.22840886 0.18416458 0.027697984 -0.0112115415 0.41516927 -0.16222295 -0.0041412907 0.15506291 -0.22165057 -0.35267034 -0.3331342 -0.059560828 0.113805555 -0.032648295 -0.0019003166 -0.23597215 0.12101776 0.08550029 -0.23289597 -0.13414982 0.22042462 0.06704233 0.05877064 0.098129764 0.05689673 -0.1257025 -0.13726237 -0.039620318 -0.06867762 -0.064222135 0.19269529 -0.16081575 0.013646734 -0.09267706 0.006666355 -0.01564822 0.16042233 -0.1549367 -0.060343757 -0.50903314 -0.15517654 0.264856 -0.012362906 0.14882834 -0.019260237 0.11569702 -0.33127195 -0.21682711 0.124762505 -0.14121728 -0.19290881 0.039326876 0.11584019 -0.11446894 0.050466772 -0.42204496 0.11911874 -0.105008356 -0.0022772728 0.2915442 0.11321342 -0.24391972 0.2678196 0.3204152 -0.0847275 0.0045123217 -0.03738123 0.067285344 0.43854368 0.39944652 -0.022362262 -0.05859393 -0.22514372 -0.40006927 -0.35155615 0.43171734 -0.40550765 -0.10327426 -0.28144976 0.20076811 0.19575717 0.18404202 0.1205716 0.10334256 0.29884177 0.06439765 0.21626593 0.2199085 0.117277876 -0.6020135 0.1291076 0.2607485 0.1757377 0.07698483 -0.055107836 0.19551526 0.1860998 0.30356053 -0.065842815 -0.073051125 0.14506477 0.22281364 -0.09065173 -0.19874933 0.11592674 0.3309109 -0.11934771 -0.004708357 0.4459901 0.15837866 -0.09824102 0.0054740426 0.36159334 -0.12075243 -0.08909218
754 -0.058982152 0.012869962 0.1395973 0.10470639 0.12435789 -0.15145159 0.17609306 -0.35670835 -0.15574485 -0.39706084 -0.0401721 -0.09808507 0.01813359 0.45247105 0.23024574 -0.04397734 0.110639095 0.26814482 0.011212039 -0.22853495 -0.018120307 -0.1302621 -0.10318231 0.06455354 0.21311504 0.124478295 0.09841925 0.19414417 -0.27443874 0.320617 0.051977567 -0.21163447 -0.28761512 -0.011704512 0.11815927 0.14984868 0.08261256 0.021123389 0.021122871 -0.35930946 -0.097774774 -0.15702905 0.11825167 0.56491125 0.07707318 0.19790818 0.233226 -0.07340225 0.15376696 0.111610584 -0.15346767 -0.13834903 -0.21080667 -0.13950337 -0.050595902 0.044364065 0.16290374 -0.34352654 -0.24527405 -0.082949355 -0.16155069 -0.031769313 -0.121071436 0.03593482 -0.20627488 0.059499145 -0.059311982 0.2346345 -0.19285868 0.06271008 0.015331105 -0.05783714 0.16636772 -0.10739381 -0.10436285 0.007522428 -0.17910156 -0.08267089 -0.0314395 -0.18440424 0.03683908 0.22332372 0.20529997 0.05262685 -0.03597508 -0.016426722 -0.25159004 -0.63706833 0.36687124 -0.4568997 0.17096795 -0.064652 0.24807069 0.23558849 0.2514126 0.14130622 0.103014715 0.3247506 -0.2535203 0.6218991 0.100886114 0.05104707 -0.513163 0.31176952 0.07063086 -0.052091893 0.06534883 -0.1257641 -0.21493423 -0.07391782 0.41774097 0.0031334744 0.05340886 0.27060652 0.050552644 0.0412222 -0.09749523 -0.020138796 0.40066546 -0.28257298 -0.07164814 0.13854808 -0.10363177 -0.10447344 0.074151434 0.15203342 -0.056708023 0.098101854
717 -0.10033307 -0.311711 -0.02671913 -0.13961223 0.021792447 -0.08121592 -0.13370092 -0.3715501 0.262888 -0.46969685 0.022341935 -0.12513699 0.006319673 0.003272874 0.16143136 -0.5762479 0.32033595 0.25068864 -0.43064764 0.17435321 0.031043792 -0.29455432 0.17358163 -0.13681957 -0.038344696 -0.045515824 0.13804673 0.16094281 -0.422695 -0.1932093 0.1531463 0.35807687 0.021390835 0.1881032 0.22027278 0.17835914 -0.120600715 -0.027157912 -0.2601699 0.18751591 0.036165036 -0.19903749 0.21014313 0.43037504 0.03775984 0.08558427 0.17665803 -0.08146977 0.13759686 0.16763231 0.23599662 0.025666913 -0.4296654 0.33847028 0.30357066 0.04110346 0.2756901 -0.31389555 -0.041516345 0.14434798 -0.18007706 0.37957644 0.05381281 -0.4003558 0.06639712 -0.3196394 -0.11334722 0.02025128 -0.4600751 0.46378678 -0.37168655 -0.17469232 0.054977193 -0.12166531 -0.46005762 -0.25343966 0.13610798 0.2587198 0.19237691 -0.15388821 -0.047161467 0.29556718 0.38089892 -0.26133257 0.4028192 -0.051597815 -0.3046162 -0.19964379 0.13132167 0.06877578 0.27580822 -0.4007462 0.13167793 0.036547247 0.13204364 0.2679176 -0.16803339 0.27791592 -0.10545504 0.21244106 -0.048647553 0.30257016 -0.16541149 0.27008545 0.28798428 0.45051482 0.29119936 -0.15069067 0.015658386 0.1753282 0.37793338 -0.24011837 -0.16802225 0.4330588 0.090551175 0.08328432 -0.07578278 -0.29012576 0.22515611 -0.41992745 0.03428336 0.14386536 0.032899693 -0.06557484 0.07337256 -0.10651947 -0.0042752163 0.46560332
649 0.27215335 0.2501079 0.29161087 -0.39119014 0.33044016 0.28307173 0.16842505 -0.15712315 0.100317545 -0.4432992 0.2145353 0.11392955 -0.21495536 0.08279301 -0.27681905 0.030568678 0.2512641 -0.077804536 0.03332407 -0.2040735 0.0043017506 -0.034975063 -0.22454879 0.14597166 -0.053923693 0.20724776 -0.35731125 0.19175623 -0.55836916 0.011328369 -0.27003887 0.3182147 -0.022547241 0.1357353 0.11040891 -0.012334478 -0.111378565 -0.068591185 -0.038495895 -0.6621799 -0.00264787 -0.086542 -0.29882717 -0.072477214 -0.21489114 0.18066289 -0.026581356 0.021222478 0.06807824 0.23091619 -0.19628648 0.0913313 -0.15451515 0.1988442 0.45974958 -0.0012675453 0.34768948 -0.08656428 -0.23686232 -0.15464067 -0.2790806 -0.24815707 -0.21763276 -0.23227811 0.18689258 0.038966447 0.03306678 0.056278802 -0.6110987 0.160048 0.20905037 0.08767534 0.22018652 -0.0028079483 -0.045068868 -0.052176055 -0.0870522 -0.466633 0.055498302 0.08354484 -0.14954254 -0.024443552 0.030030707 -0.23390909 0.1508842 -0.1116404 -0.17321706 -0.44587174 0.092060514 -0.165986 -0.3708663 -0.38524508 0.04125773 0.16700196 0.13668609 0.03125084 0.22631598 -0.16755761 -0.03081512 0.5782595 0.111573994 0.23944797 -0.35484582 0.011532837 -0.11560199 0.27575734 -0.39642704 -0.11977962 -0.047948148 0.0175084 0.076296076 -0.07239962 0.1710213 -0.024465859 0.17469458 0.06815776 -0.1909234 -0.04439093 0.42548323 -0.14425635 0.04661385 0.13663827 0.2032696 -0.07083614 -0.17755891 0.30381638 -0.1314482 -0.20696643
788 0.16032144 0.27043447 -0.21299967 -0.007744895 0.11467115 -0.061172165 -0.40249532 -0.063177995 0.09376492 -0.47263107 -0.0085121 -0.06843934 0.22316125 0.3514932 0.3191885 -0.081374645 -0.0043638344 -0.06701638 -0.16802555 0.12850578 -0.11969539 -0.10167477 -0.019801546 0.20223603 0.44238427 0.3881329 0.21642897 0.033916723 -0.60025287 0.102798015 0.06758626 -0.23678996 -0.11039478 -0.22404529 0.2243542 0.123287894 -0.019830318 -0.31640765 0.07921313 -0.44918695 -0.056616746 0.16187552 0.08719543 0.13287878 -0.02496643 -0.18513136 0.25083593 -0.10899915 0.15463483 0.17121312 0.33524358 -0.11423083 -0.8981778 0.008607076 -0.23837815 0.1901918 0.1508977 -0.51930016 -0.23003192 -0.2593985 0.27926514 -0.18911716 -0.15903822 0.21873523 -0.051047653 0.4909646 0.16046627 0.19914274 -0.12383627 0.45142436 0.14475283 -0.17648011 -0.21748406 -0.35607874 -0.2050595 -0.25167146 -0.23683645 -0.07274113 -0.0996223 -0.31377965 0.20297682 0.5627445 0.43734622 -0.25572172 0.24503955 -0.04138982 -0.54575944 -0.22695781 0.17390084 -0.28185126 0.3668266 -0.22001767 0.1517887 0.04410471 0.38923657 -0.122748695 -0.12803213 0.022726612 -0.48325875 0.33705735 -0.07109137 -0.11162924 -0.62639976 0.16660511 0.315172 0.011309537 0.21074529 0.09007294 -0.16812757 0.06136412 0.30426082 -0.07301621 -0.14545639 -0.25035462 0.5011908 -0.0879642 -0.10685649 0.01414819 0.15590966 -0.18108438 0.33602795 0.16675362 -0.007375848 0.21592659 -0.096166976 -0.1767988 0.026831334 -0.08358423
646 -0.060277633 -0.501722 0.16896221 -0.09578978 0.028729202 -0.1988941 0.021463944 -0.40444946 0.32902554 -0.8389798 -0.35171694 0.004486089 0.007129887 -0.13572992 0.23746859 -0.21643397 0.21792184 0.15134741 -0.20905057 -0.035939258 0.26956096 -0.19937666 -0.014570961 -0.4699164 0.02746364 0.1674497 0.0104212025 -0.21576917 -0.16120577 -0.33881748 0.07363602 0.25313047 -0.2680433 -0.018352391 0.36800024 0.15087579 -0.13211693 0.056645136 0.12930492 0.39287147 0.22399023 0.053875968 -0.06984235 0.44711775 0.3568182 -0.1645336 0.054518398 0.101127304 -0.31919032 0.14091167 0.30299094 0.12309582 -0.4670319 0.08182433 0.1570121 -0.11020032 0.1507899 -0.25770432 -0.4241804 0.37897977 0.020639943 -0.025853163 0.09313889 -0.7023945 0.066515155 -0.18047492 -0.21844818 0.19777532 -0.54471564 0.32010376 -0.053329367 -0.08126649 -0.026459401 0.1884131 -0.47114125 0.0719276 0.33922786 0.112920694 0.12679978 -0.07229584 0.21472597 0.04442929 0.37430334 -0.07690384 0.19103794 -0.12565815 -0.32052273 -0.49332944 0.060793888 -0.23820983 0.1218813 -0.5496913 0.13868763 -0.03213992 -0.20884116 -0.081155814 0.048006594 -0.0040762858 -0.13129286 0.1687974 0.23542161 0.33609706 -0.16619125 0.09963118 0.20137748 0.49927384 0.20840687 -0.053072896 0.2982875 0.17126137 0.3989875 -0.24796186 -0.1646346 -0.067599736 0.33355874 -0.034927912 0.07972154 0.020669583 0.045535814 -0.3384288 0.17659117 -0.018957634 -0.106977314 -0.120027535 0.11086662 0.16664082 0.32727596 0.19346416
718 -0.25280085 -0.15000196 0.074484825 0.3567801 0.023146188 0.07605268 -0.09211909 -0.20746681 0.13459201 -0.39920118 -0.08848967 -0.08076352 -0.05705527 0.04496188 0.29195777 -0.29299718 -0.08120909 0.46224713 -0.21636888 -0.05842841 -0.0121270325 -0.46034306 -0.17614491 -0.26091933 0.03607199 -0.15356319 -0.16119917 -0.13419877 -0.2628685 0.00887784 0.06281521 0.08959373 -0.0029202828 0.103260115 0.5552353 0.13998109 0.37069583 -0.16401896 -0.08434354 -0.0036675564 0.073541164 0.1292681 0.17649992 0.42826605 0.29467988 0.2998057 -0.06737677 0.21035357 0.057183318 0.05693488 0.25000837 0.11638159 -0.33230585 0.34449863 0.34671313 -0.14221282 0.54765874 -0.24889052 -0.17163388 0.09992261 -0.4994572 0.13923723 -0.30402 -0.3730376 0.08759734 0.035663053 -0.2635137 0.18599506 -0.37797573 0.193385 0.019772304 -0.033664487 0.066823974 -0.0013329625 0.01561129 0.08108964 0.19945256 -0.0017578095 0.22194311 -0.014175455 0.12968238 0.26659074 0.16393317 -0.29346743 0.24130048 0.07006998 -0.28740525 -0.45432797 0.14016211 -0.13405412 0.24563804 -0.20587152 0.22318503 0.0006819384 -0.029723648 -0.027787091 0.10137654 0.09018049 -0.098231725 0.26082456 0.14295499 -0.04197398 -0.22102942 0.22803614 0.2795389 0.013722605 0.20638596 0.056041945 0.09993425 -0.15338042 0.44836488 -0.2675415 -0.075713165 -0.088342145 0.11506337 -0.066522576 0.10007238 -0.093828745 0.50919133 -0.2938471 0.30173057 0.34533677 0.1119061 0.0017331286 0.118912496 0.2512469 -0.19413462 0.41937912
789 -0.16250773 0.08130865 -0.2920798 0.09255903 0.17819338 -0.1878942 -0.18593068 -0.25990054 0.023996642 -0.39722213 0.09041597 -0.043914977 0.26741844 0.26026106 0.12005408 -0.03262854 0.09915301 0.072848745 -0.046293717 -0.116180114 -0.059727136 -0.25917053 -0.11349898 0.15032862 0.042626444 0.1885495 0.072517596 -0.055969127 -0.46963868 0.38261205 0.17955138 -0.26508343 -0.10078615 -0.43928105 0.21779525 0.07655537 0.13571768 -0.31079778 0.08785831 -0.3146227 0.021157568 -0.09480325 0.07402123 0.25755885 -0.19897404 0.13801388 0.3304553 -0.20059268 0.021308156 -0.004713052 -0.17520358 -0.22767723 -0.67327577 -0.1696296 -0.06372316 0.3702178 -0.15252697 -0.29338092 -0.15080562 0.14377657 0.03443189 0.05013838 -0.11150695 0.045313526 0.04315944 0.33154902 0.40875748 0.1487422 -0.12995815 0.6041605 0.2802978 -0.10049463 -0.30234167 -0.33077598 -0.24980192 -0.05155429 -0.4093524 0.17858104 -0.18431492 -0.2847199 0.3936529 0.4385233 0.23060022 0.00086457015 -0.10028209 0.012713614 -0.3913842 -0.26806757 0.24533695 -0.3253033 -0.06211204 -0.14650716 0.48974738 0.3761594 0.24006954 0.26282722 0.21163496 0.16326879 -0.37013495 0.40716496 0.022681866 0.115846574 -0.5837291 0.15929016 -0.10012969 0.13079146 0.30522567 0.08256561 -0.33385214 -0.041820753 0.3395977 -0.09964544 -0.03921686 0.12138746 0.20440078 -0.15719193 -0.12212137 0.11825261 0.25373667 -0.24451527 0.35740277 0.18775904 -0.102406144 0.061776116 -0.08881061 -0.15674616 0.3046584 -0.2066744
681 0.10267871 -0.5331265 -0.018246058 -0.2124485 -0.023529882 -0.21850884 -0.030756917 -0.054225933 0.32376203 -0.7869735 -0.19921388 -0.03962631 0.11434507 0.0703209 0.15678343 -0.6981637 -0.032270636 0.25015348 -0.28275827 -0.1603311 -0.20752533 -0.38574553 0.036396295 -0.2782303 -0.078749694 -0.11322462 0.23911206 -0.24395724 -0.36625832 -0.35300377 0.16121508 0.16563845 0.30653465 0.10651539 0.11445183 -0.07921486 0.20527157 -0.025030866 0.023673091 0.076665886 0.23004939 0.15542005 0.0981012 0.32827815 0.483635 -0.204404 0.10023059 -0.11701101 -0.11214603 -0.05057951 0.04968925 0.06774478 -0.47745875 0.19597088 -0.07808358 -0.03825967 0.083860375 -0.34244278 -0.021442942 0.21369393 0.10125823 0.12644808 -0.018073928 -0.3976459 0.1450229 -0.37425938 -0.32203013 0.1365055 -0.45860526 0.04264076 0.022551132 0.14885378 0.038623434 -0.03368433 -0.24348174 0.17802887 -0.0054788115 0.07356531 -0.05465486 -0.1665341 -0.019133205 0.24675512 0.30845812 -0.1493605 0.43010804 -0.040128198 -0.29118374 -0.6315495 0.08454346 -0.04150156 0.24425904 -0.5526265 0.24571571 0.28067482 -0.5933541 0.072531864 0.13120706 0.15764603 -0.3885174 0.01709958 -0.0011808904 0.15540649 -0.100437954 0.41813844 0.27673462 0.33965132 0.46436378 0.013933605 0.17133714 -0.057868745 0.60971224 -0.10415975 -0.1719501 0.22444725 0.52852976 0.07549111 -0.17543514 -0.12997934 -0.019148389 -0.11540435 0.3316292 0.048332952 0.20412146 -0.33652028 -0.087027 0.4500833 0.14044721 0.2348776
433 0.2732165 -0.08653553 -0.0276886 0.103863046 0.30227786 -0.11785178 0.20041248 0.021774437 -0.117194265 -0.050486065 -0.3177704 -0.077666625 0.050558805 -0.040239375 0.16306259 0.01746153 0.100004576 0.026435193 -0.17830375 -0.0049222037 -0.16204001 0.13238718 0.16838242 0.0029073833 -0.03870825 0.25650376 -0.06865204 -0.15848848 -0.012595855 0.00035337635 -0.28656313 0.13032797 -0.11737898 -0.20287484 0.09743357 -0.2497235 0.040150627 0.018736737 0.27994797 0.0021714715 0.021260658 0.11913709 0.17735541 -0.2106652 0.054192953 -0.13794297 -0.010929408 -0.17459497 -0.23114131 0.23983097 -0.20147595 -0.24385089 -0.128384 0.38846636 0.25356975 -0.047768828 0.051108535 0.06403535 0.11612086 -0.0187831 0.1149817 -0.123545736 0.05427245 -0.20190802 0.072379485 -0.48002642 -0.31552193 0.19444823 -0.42440102 0.33132017 0.07927382 -0.31662345 -0.040908035 -0.015500191 -0.08125555 0.18569024 0.30701306 -0.12034873 -0.04173923 -0.3779676 -0.15257634 0.254565 0.010041286 0.01951708 0.56018513 0.31553555 0.08627682 0.09389569 0.20806444 0.35102808 -0.11799879 -0.26423496 -0.10067972 0.0018582315 -0.19912337 -0.12360307 -0.13137402 -0.051357795 0.10876058 0.09345435 -0.038073137 -0.2597761 -0.16764934 -0.085078925 -0.011850924 -0.12731458 0.16951387 -0.18745548 0.09176627 0.1675264 0.12689248 0.12554024 0.14387898 -0.488204 0.020775018 0.08688069 0.101194 -0.20321845 -0.09608758 -0.12962791 0.10747856 0.16807382 0.31904086 -0.10453656 0.18244612 0.105785824 -0.008949561 -0.2294197
720 -0.19032592 -0.066517465 -0.038307056 -0.017291056 0.29985553 -0.1915757 0.094011895 -0.46923265 -0.03320982 -0.66424453 -0.032367196 -0.301057 0.09356828 0.5845647 0.30515218 -0.026786296 0.36697263 0.34764543 -0.047271334 0.18362534 0.12121093 -0.27901176 -0.2891275 -0.31827772 0.0029024275 0.08629282 -0.0010730071 0.07477131 -0.37207127 0.18433213 0.21395677 -0.081640586 -0.025368435 -0.022364566 -0.17418061 -0.030187491 0.0035608802 -0.20007706 -0.20786479 -0.059540994 -0.04035409 -0.25352734 0.20283908 0.29321575 -0.18725263 0.7180528 0.06053229 0.13104679 -0.13511603 0.033978604 -0.26594743 0.14451998 -0.35291064 -0.05443028 0.28197417 0.035713226 0.2172027 -0.045283806 -0.04880443 -0.023855682 -0.052538633 0.22707985 -0.4683463 -0.16013086 -0.14435577 0.24482517 -0.30581138 -0.023946315 -0.12022204 0.08866905 0.06865285 -0.07611916 0.25098604 0.24426325 -0.17271285 0.22514999 -0.056977253 0.059014805 -0.1444484 0.1540955 -0.029041927 0.5697914 -0.048305742 -0.124382086 0.07328543 0.29425764 -0.424856 -0.583086 0.3231711 -0.039685532 -0.11148299 -0.42591333 0.35792494 0.030081471 0.31672043 -0.104040205 -0.15896514 0.22586119 -0.03544446 0.3911911 0.002569768 0.011830527 -0.6239602 0.03969153 -0.07644026 0.28301314 0.095253035 0.13450035 0.00046421867 -0.17157292 -0.12216657 -0.18973286 0.1824581 0.4023575 0.23587191 -0.25558257 -0.035640374 0.11353266 0.40847072 -0.2542501 -0.17150767 0.31280044 0.31025404 0.06278146 0.054906726 0.4375609 0.11553072 -0.030186923
724 0.14443952 0.4072307 0.34572312 0.12818985 0.120858006 -0.27125177 -0.5775266 -0.13992675 0.11889204 -0.182106 0.07746115 -0.020632619 0.35188237 0.17773548 0.2362224 0.2549618 0.31147888 0.22390774 0.4648076 -0.033844236 -0.00011726699 -0.032274198 -0.0632574 -0.18176259 -0.031808 -0.4362473 0.21535714 -0.07691265 -0.24808843 0.2932481 -0.15012892 0.007195948 -0.16671753 -0.2935426 0.044062253 -0.052298 -0.17584777 -0.12254274 0.00596187 -0.22030011 -0.029019916 0.29343972 0.16489924 -0.22217338 -0.13243173 -0.03786584 0.18683504 -0.58786297 -0.10831778 0.23220578 0.018435845 0.15361865 -0.34513438 0.018042294 -0.039121848 0.096768856 0.18702492 0.14173378 -0.21694458 0.029306393 0.096076354 0.19495381 -0.09425583 -0.20559618 -0.33956003 -0.123085044 0.12465645 0.19490546 -0.30478737 0.4537198 0.012060135 0.09083327 -0.05427723 0.19340524 0.031094743 0.0067859525 0.08485879 0.09601699 -0.42061844 0.081744425 -0.22206523 0.59304684 -0.07698353 0.34461713 0.17501846 0.42866078 0.033937935 0.15316777 -0.093557075 0.103622 -0.25885728 -0.18588312 -0.21645738 -0.051961977 0.045410477 -0.12640876 0.39673913 -0.08046266 -0.13757478 0.16978732 -0.56455314 0.0027159965 -0.2504599 0.08418678 0.18091266 0.10777437 0.36623108 0.03355184 -0.25928637 -0.3151091 -0.07085759 0.020677732 0.32407477 0.11915004 -0.2374152 -0.22721402 0.15386985 -0.045995113 0.088202216 0.054081894 0.42436317 -0.23830412 0.12542585 -0.42599583 0.036726337 0.10672756 -0.081898764 -0.42260733
544 0.33588755 0.15366247 -0.08154079 -0.30167755 0.4149928 0.40464267 0.5148889 -0.09152032 -0.013213559 -0.60161537 0.23206742 -0.16735868 -0.1748593 -0.076751545 -0.0638054 0.5012854 -0.011443132 0.063589014 -0.2811948 -0.22599435 0.11741919 0.14606471 -0.41607952 0.3194123 0.056036692 0.29343075 -0.043623794 0.10085276 -0.23257715 0.1819629 -0.011725294 -0.07055143 -0.18418111 -0.046223074 0.2569995 -0.14524576 -0.16309308 -0.22825903 -0.2195222 -0.6031228 -0.40785366 -0.23882882 -0.16000874 0.3972596 0.24276532 0.1281672 -0.47819728 -0.14119238 0.20784391 0.10079885 -0.5459928 0.21274553 -0.077313915 0.2201808 0.31583253 -0.026313087 0.3312362 -0.08250786 -0.15751311 0.11322517 -0.20364064 -0.12258174 -0.030812634 -0.39307505 0.22347294 0.015965674 -0.34435576 0.20760427 -0.31141955 0.3462948 0.21435295 0.26159507 0.26547158 0.10833351 -0.073559135 0.11155523 0.100551106 -0.04264662 -0.04587354 -0.2617664 -0.23616448 -0.14313705 0.13410473 0.056669198 -0.12423409 0.011568557 -0.24910244 -0.14998104 0.3056489 -0.12840128 -0.45593694 -0.14295107 -0.07576947 -0.0230413 -0.1395628 0.2160707 0.011859806 0.119543076 -0.16812447 0.118399695 0.09853854 -0.21815825 -0.27570388 0.12190031 0.2700507 0.20569602 -0.14223903 -0.084215425 0.092336215 -0.17526312 -0.057690866 -2.549298e-05 0.24579877 0.02053421 0.3490453 0.36491305 -0.23106155 -0.016327245 0.1633877 -0.097844884 0.044206478 0.02017624 0.45425308 -0.06780484 -0.39537477 -0.21099372 -0.30058482 -0.34300187
645 -0.0015118939 -0.03086849 0.071385324 -0.0437947 -0.032851677 -0.3790002 -0.014793384 -0.3011629 0.26443318 -0.5094998 -0.56285226 -0.18547665 0.13979325 0.09705348 0.20353144 0.26446846 0.4459073 0.0063410965 -0.5345483 -0.44008794 -0.21049745 -0.37412512 -0.22080506 -0.29372153 -0.1866461 -0.0035363194 0.11872127 -0.19132516 0.13748716 -0.32200652 0.12999767 0.035494853 -0.019372458 0.1927283 0.2195342 -0.013807193 0.15868449 0.107694 0.3311546 -0.05667283 0.22998267 0.18875356 0.17123097 0.46274525 0.33088812 -0.47507596 0.032263964 -0.17748879 -0.13848764 0.1590202 0.14390744 0.23020263 -0.28781515 0.19028781 -0.060913417 -0.2844561 0.40488243 -0.087592706 0.008174297 0.16125832 -0.10394191 0.25336844 -0.15315796 -0.33710206 0.16485389 -0.2187732 0.1295004 -0.21656299 -0.16551758 0.14711764 0.053701602 -0.2659794 -0.3151639 -0.011878864 -0.29839048 0.0787703 0.2898501 -0.1548987 -0.071690276 -0.09552431 -0.18016243 0.04726686 0.12819651 -0.31624165 0.2878391 -0.16099952 -0.47950524 -0.49954724 0.33022586 -0.09581105 -0.1073685 -0.5374942 0.13538228 0.22987449 -0.13577676 -0.11097128 0.16451122 0.04660609 -0.045982692 0.06179225 0.033098504 0.12786487 -0.3982409 0.13231353 0.11430357 0.21172248 0.5695055 -0.32334623 0.113668494 0.3073886 0.11764827 -0.23633268 -0.34006524 0.30728453 0.055881657 0.12277449 -0.089849174 0.11679519 0.064083286 -0.25099882 0.55453795 -0.0021746086 -0.025201125 -0.13107632 0.2237763 0.20101392 0.056100607 0.22467032
642 0.25876006 -0.35962355 -0.12693861 0.16423108 -0.27982718 -0.2929535 0.10227842 -0.1323657 -0.07274138 -0.31425774 -0.62795967 -0.1831939 -0.021839561 0.24763834 0.12610163 0.08982411 0.5469177 0.15726179 -0.3683464 -0.1549864 -0.16391478 -0.2327473 -0.14856231 -0.22232303 -0.19531463 -0.25194514 -0.029148778 -0.30947116 -0.04287274 -0.11506091 -0.19666687 0.09811254 0.20323667 0.1754306 0.17438495 -0.12344902 0.10267229 -0.05764199 0.30412903 -0.16417053 0.39075556 0.036151487 0.12894747 0.1483488 0.07059505 -0.51302654 -0.004922068 -0.34925467 -0.1172211 0.06028218 0.40956834 0.08095291 -0.41719916 -0.12771891 0.53252286 -0.28768197 0.35665154 0.07396934 0.016843421 -0.31040895 0.26991597 0.20315185 0.0041473093 -0.3817167 -0.07099022 -0.18145262 0.08600328 -0.21209669 -0.4422556 0.30182904 0.2718683 -0.3376942 -0.04008546 -0.26707822 -0.10243571 0.03975927 0.081101894 -0.13296878 -0.15749417 -0.20232616 -0.0821465 0.32647935 -0.03526629 -0.22115299 0.36209023 0.16458525 -0.188225 -0.18709718 0.1265434 -0.08873442 0.13557687 -0.36832854 0.033491854 0.18864514 -0.26248842 -0.08646745 -0.07023495 -0.17319866 -0.030718533 0.19838977 0.12374646 -0.06274093 -0.14331688 0.30697843 -0.26166627 -0.08131229 -0.035612985 0.16056842 0.15685885 0.15727612 0.19385435 0.12956591 -0.3279484 -0.025998019 -0.06185197 0.25943673 0.06430923 0.22274996 0.2145646 -0.23885219 -0.089214444 -0.12341157 0.0037219166 -0.2651261 0.37194562 0.20193245 0.28574654 -0.07975896
684 0.047081873 0.17481486 0.21146204 -0.23941058 0.47100547 0.2115169 0.31100073 -0.18358597 -0.20865186 -0.38132122 0.059635926 -0.3752149 -0.35097963 -0.04710009 -0.031385407 0.22986045 0.047125038 0.10030054 -0.27556986 -0.048222285 -0.06395995 -0.03275057 -0.40455776 0.14274436 0.24924985 0.11348438 -0.18838948 0.102826424 -0.08824053 0.08688504 -0.034986723 0.4678276 0.14290103 -0.012489786 0.21931727 -0.08531198 0.10122647 -0.13559149 0.15761188 -0.626685 0.0062269364 -0.24369445 -0.049183197 0.40557218 -0.10187749 0.4810071 -0.037410717 -0.01238609 0.18109293 0.23806757 -0.22977293 0.18165758 -0.24794208 0.08935622 0.27009118 0.0065472946 0.111655444 -0.20328094 -0.023343088 0.1121124 -0.2686631 -0.07971376 -0.050784297 -0.08965538 -0.14180897 0.4197799 -0.1013611 0.077654906 -0.40695426 0.055861298 0.37406537 0.033273675 0.32552913 0.27507767 0.060333963 0.0599574 0.05146185 -0.06692133 0.03607375 -0.08606932 -0.024380079 0.08099903 0.30618542 0.029315095 0.265336 0.037904825 -0.13645338 -0.22325237 0.36891901 -0.14701936 -0.3998726 -0.32998583 0.111300826 0.25253522 0.06814048 0.21451724 0.25424618 0.07608104 0.006602429 0.47433463 0.15275487 0.077176124 -0.63706106 0.13135935 0.112473674 0.024812963 -0.10156682 -0.21774814 0.3922679 0.0410866 0.10347488 -0.123058125 0.31647715 0.027167585 0.02116809 0.16637741 -0.1323313 0.25798497 0.20365296 -0.15950823 -0.16165431 0.08202671 -0.08697794 0.010587113 -0.10906525 0.2260845 -0.18642354 -0.14054951
468 0.38043115 -0.13436326 0.11591438 -0.030116081 0.057737544 -0.18618995 0.090919055 0.18489742 -0.17823605 -0.11704881 -0.3929844 -0.22232115 -0.060927775 -0.17973122 0.3206577 -0.046597023 0.26679698 -0.018687962 -0.123626284 0.011174883 -0.23341718 -0.105936214 0.05330864 -0.01647104 0.034112237 0.1358975 0.10682191 -0.19472098 0.14978382 -0.041475017 -0.18657291 0.061751563 -0.03506872 -0.013644824 0.40819535 -0.253732 0.083881326 0.00038762428 0.38864022 0.08015652 0.063925765 -0.028885318 0.1661084 -0.2008053 0.13753459 -0.24346025 -0.10378519 -0.21861579 -0.08822525 0.19533785 -0.15936966 -0.15915532 -0.23996262 0.44009492 0.22488695 0.119231336 -0.041488346 0.20307441 0.27070463 -0.041260425 -0.07163711 -0.2523861 0.0470644 -0.3664394 0.16357237 -0.42013207 -0.35148948 -0.14255661 -0.33679014 0.27899897 0.2933871 -0.16312464 0.11469489 -0.16940548 -0.0364078 -0.10232342 0.12184962 0.11695653 0.050358772 -0.4431402 0.042270623 0.38569367 0.25353935 0.14569665 0.2664005 0.27815166 0.16898695 -0.1065559 0.1334131 0.30303314 -0.3049255 -0.34738266 -0.2161923 -0.062055927 -0.21096234 -0.12721953 -0.086994864 -0.1647777 -0.2598587 0.09088784 0.04382497 -0.15447234 -0.118527204 -0.19385955 -0.11670693 0.13139065 0.12834741 -0.18809019 -0.07872185 0.018094296 0.18662032 -0.047321953 0.08087128 -0.35229465 -0.25074032 0.07107899 0.0067150835 -0.31239846 -0.34959865 -0.2998301 -0.12058391 -0.058079604 0.39664817 -0.024832005 0.27653927 0.122817606 -0.1321867 -0.3568601
614 0.052708227 0.3521826 0.22388619 -0.26757953 0.13389842 0.41355702 0.40771076 -0.3661486 -0.0642783 -0.46926838 0.12542531 -0.20696807 -0.4325486 0.12243276 -0.2284485 0.56109643 0.07143132 -0.077126555 -0.05313344 -0.15685101 0.19785461 0.1723418 -0.3918607 0.051572137 0.21856472 0.26405376 -0.009152999 0.11205907 -0.48597988 0.05705998 -0.036529105 0.35504135 -0.027335929 0.109027706 0.227942 -0.34648994 -0.27012214 -0.19306163 -0.06937034 -0.57413846 0.015624684 -0.029675685 -0.15696676 0.24275184 -0.097982675 0.2972282 -0.16204731 -0.05873524 0.1529442 0.121932976 -0.00082289934 0.04717131 -0.21315493 0.11427163 0.41756743 -0.19572806 -0.06591973 -0.23548532 -0.24007615 0.16255362 -0.15485524 -0.009282845 0.13380067 -0.45299274 0.30985177 0.18915147 -0.007129777 0.011272804 -0.4343346 0.24382228 0.03820694 -0.016580852 0.59992933 0.011512739 -0.21213256 0.3611922 0.1486993 -0.10460074 0.10622421 -0.09934716 -0.11269207 -0.13672476 -0.04068068 -0.03007676 0.33117262 -0.12796532 -0.283391 -0.20195495 0.22317189 -0.12977071 -0.36864153 -0.28948328 0.26090074 0.29569852 -0.05675419 -0.025560439 0.18568936 -0.14653085 0.09288412 0.4649478 0.31597254 -0.2165252 -0.25751424 0.13199998 -0.024859188 0.1941142 -0.23732464 -0.14858295 0.026106825 0.0929789 0.118508756 -0.11708202 0.12071879 -0.25073814 0.12880746 0.29194796 -0.24235749 0.009450666 0.13807757 0.043775663 -0.06220204 0.17827031 0.07747561 -0.070033364 -0.30965936 0.24356309 -0.3941217 -0.21635742
405 0.040717054 0.3175281 0.070275515 0.22868739 0.20047703 0.2546925 0.22818728 -0.07134951 -0.3215681 -0.5432345 -0.14825141 0.23245241 0.0011049319 0.019575046 0.45187947 0.22094218 0.009627514 -0.15782732 -0.030670924 -0.098697715 -0.07589185 0.13679191 -0.16369146 0.078617424 -0.10257607 -0.15388773 -0.17066398 -0.09926212 -0.2557082 0.18572871 -0.2940334 0.11827513 0.16075301 -0.23747791 0.39678407 -0.1630585 -0.0770561 -0.26205748 0.3070564 -0.24136938 -0.13298637 0.30660352 0.029300518 -0.048824884 -0.17432746 -0.13392538 -0.3523696 -0.124665424 0.026003497 0.30304897 -0.32074365 -0.12155988 -0.028285662 0.4741989 0.27796263 0.039175667 -0.24447161 0.017720478 0.14257047 0.0059942515 0.0020243041 0.10731981 -0.007875807 -0.06825747 0.14764434 -0.11629855 -0.25268325 0.088952094 -0.1033559 0.14510551 0.21432436 -0.16564049 -0.010591662 -0.1242416 -0.074599095 0.19564009 0.12472194 0.25575295 -0.16344652 -0.017630974 -0.47071978 0.291895 0.1828796 0.08493632 0.5474402 0.11732573 0.17952421 -0.13216338 -0.15292083 0.09290528 -0.15917689 -0.039197855 -0.05575884 0.028192611 0.107381836 0.019474769 0.161648 -0.24383157 0.17629285 -0.14483693 -0.015827287 -0.26671517 -0.090673365 -0.26351658 -0.10973611 -0.2196108 0.18041773 -0.010717584 -0.24874173 -0.08659146 0.20107253 0.23346949 0.5062391 -0.1376706 -0.14753105 -0.040107746 -0.075420134 -0.1020878 0.21585968 0.20437165 0.220574 0.18993513 0.04973421 -0.21026565 -0.1705554 0.26932424 -0.20682247 -0.10194598
443 0.09652644 0.010426602 -0.012954938 0.2471992 0.39827526 0.16800235 0.17030129 -0.039201967 -0.26085663 -0.32623923 0.23668878 -0.017499572 0.15781717 0.010585961 0.087116644 0.3850332 0.275346 0.06126218 0.19793388 -0.21286468 0.07246721 0.0051646247 -0.05992053 -0.2537437 -0.13419089 -0.104798056 -0.04657197 0.13879123 -0.1458727 0.591059 -0.303582 0.3166535 -0.0482969 -0.12467259 0.10888837 -0.12613453 -0.14378262 -0.30021438 0.024170268 0.11539046 -0.4832439 0.01161644 -0.15384382 -0.38064605 -0.13834368 -0.24993786 -0.19908994 -0.102696575 0.04301844 -0.054513045 -0.14604071 -0.20420767 0.07203613 0.13398784 0.23628984 0.13067725 0.123296246 0.0734752 -0.39888918 0.3719563 0.11524583 0.19244768 -0.12886135 -0.1122178 -0.31594652 -0.22896089 -0.29754955 0.021103283 -0.25940037 0.031538676 -0.006199264 0.10758938 -0.3282971 -0.15349261 -0.40291056 -0.04494931 -0.08284468 0.32727337 -0.34548652 0.012048084 -0.116858594 0.19947062 -0.06643918 -0.09744984 0.14097235 0.32579163 -0.0066238893 -0.0011876181 0.08452578 0.099598184 -0.35761443 -0.15448469 -0.18302664 0.19917536 0.19417723 0.30347672 0.12405708 -0.23560272 -0.031267896 0.03624877 -0.0720183 -0.30730045 -0.2802145 -0.40082237 -0.07962605 0.02994967 0.15131322 0.1738497 -0.25741863 0.13642207 0.2160814 0.12487214 0.4112247 -0.26659295 -0.11585547 0.2416704 -0.15629943 -0.3526352 -0.22375177 -0.009790758 0.001596547 0.09269688 0.21108805 0.009497628 0.0019394449 0.4074307 0.028042091 -0.21760404
716 -0.045211423 -0.39923823 0.5387411 0.08809531 -0.3600176 -0.34928507 0.31127155 -0.0582976 0.21487494 -0.8107669 -0.31423298 0.04330472 0.346541 0.17594491 0.13705745 -0.27559176 0.26046035 0.1906756 0.012290426 -0.038237143 0.08686197 -0.15220119 -0.04762084 -0.17299494 0.271419 -0.39136326 0.07771879 0.0583278 -0.5259855 -0.33843553 0.28905833 0.15637672 0.21623586 0.37372535 0.1848158 0.11644126 0.20956361 0.09659157 0.24786438 0.35389635 0.42129955 0.18825436 0.25193387 0.6332495 0.4670352 -0.05039488 0.22417875 0.07785245 -0.60861045 0.008649011 -0.04454002 0.21621984 -0.63181716 0.2745793 0.11648162 0.118290015 0.009309031 -0.018658938 0.06625024 0.31045717 -0.08006347 -0.10828596 -0.18389891 -0.45274448 0.2054851 -0.19311349 -0.23600763 0.2236802 -0.5778136 0.18462732 -0.11070802 0.16636764 -0.269066 -0.14150661 -0.37822646 0.10137108 0.42329824 -0.06901251 0.29904577 -0.109927066 -0.045018233 0.39010784 0.56827396 -0.59005976 0.37963647 -0.05096015 0.049341153 -0.3605652 0.029677799 0.0047675804 0.31001744 -0.5955545 0.27105498 -0.10990577 -0.39151925 -0.2463462 -0.22754738 0.19441931 -0.27996805 0.08916831 0.08136207 0.081484035 -0.22625348 0.22698313 0.266331 0.26646405 0.25587654 -0.07439843 -0.34852713 0.2794966 0.23294379 -0.17346177 -0.20489196 0.175556 0.49271148 0.09660297 -0.018625107 0.16907029 0.2611455 -0.44177002 0.14932008 0.17540684 0.15691938 -0.25190002 0.3176134 0.08561887 0.07502769 0.55979204
545 0.09227698 0.14361177 0.13917848 -0.1849866 0.28190362 0.3158955 0.2197646 -0.20697403 -0.3104322 -0.56376994 0.3562056 -0.32498586 -0.028131375 0.3086949 -0.05278982 0.54082155 0.115783386 0.144741 0.09200021 -0.42635882 0.26636976 -0.020917168 -0.34248206 0.05207166 0.21055606 -0.053596903 -0.09576994 0.14104097 -0.41997465 0.49072582 -0.018748818 0.16834678 -0.15874961 -0.08074066 0.08823453 -0.13625138 0.03315195 -0.38964024 0.07673989 -0.5243289 -0.2190543 -0.038011324 0.07144782 0.053860676 0.14339407 0.53514934 -0.11370693 0.08661254 0.094430596 0.37083194 -0.23747994 0.19076678 -0.043859933 0.2200196 0.20891032 0.013776238 0.29101202 0.27089956 -0.15472509 -0.034741677 -0.50113624 -0.19397373 0.03274618 -0.17624077 0.031583108 0.1579505 -0.058169153 0.044168107 -0.40736488 0.3137427 -0.021434667 0.30548277 0.18082635 0.16350922 0.052780308 0.03824586 0.18137875 0.27771547 0.26022634 -0.23106697 -0.39165533 0.0068426584 0.06397049 -0.36904085 0.0067077987 -0.18104392 0.16210367 0.03664378 0.38792822 -0.052139778 -0.6559383 -0.05045402 0.17832115 0.11343376 0.22898781 0.1666354 -0.08908954 0.083035864 -0.1540699 0.31093067 0.16335642 -0.3273517 -0.23463428 0.16140085 0.13147056 0.10004941 -0.11775659 -0.24463354 0.0788323 0.26784185 -0.12730646 -0.117710024 0.22578475 -0.12727381 0.4195831 0.16953053 -0.28288755 -0.10045412 0.060541637 -0.20563984 -0.017804302 0.15418169 0.51922363 0.045844086 -0.17672233 0.011156308 -0.22647871 -0.24436519
406 0.10614282 0.25305614 -0.02731225 0.32888645 0.15604475 0.28035736 0.32377246 -0.11511411 -0.4696772 -0.2765797 0.052779082 -0.060240973 -0.15815407 -0.00818576 0.114403896 0.35756746 0.069082774 -0.15065542 0.14278758 -0.1904149 -0.02832433 -0.0075489557 -0.13853431 -0.017451582 -0.16217025 -0.1949829 -0.15719448 -0.23368311 -0.34732133 0.23218846 -0.16792496 0.30006105 -0.0494327 -0.112425715 0.38112092 0.13083586 -0.2141459 -0.29585758 0.17240871 0.17817609 -0.04809311 0.08409754 -0.16220054 -0.17065828 0.009133105 -0.23942418 -0.06412221 -0.1802578 -0.16977102 0.12109126 -0.48728538 -0.1229251 -0.20523722 0.26124272 0.33649814 0.11954896 -0.18442175 0.2780502 -0.27954125 0.03924007 0.017239876 0.05492236 -0.023774646 -0.118880376 -0.3615013 -0.15291196 -0.2648247 -0.013499365 0.051899265 0.35655245 0.3340777 -0.094815485 -0.1959908 -0.16876487 -0.024517024 -0.031798314 0.21124531 0.29387677 -0.27923977 0.029350352 -0.14761125 0.28620893 0.17064326 -0.013410364 0.5954029 0.20390862 -0.14516532 -0.099752516 0.10848658 0.07535735 -0.24566013 -0.08879749 -0.216962 -0.114920944 0.0013713341 0.01312151 0.16154578 -0.3878591 0.103626266 -0.063211486 0.14440115 -0.16392699 -0.08394337 -0.14322704 -0.09633852 -0.13687254 0.14015432 -0.021211034 -0.41252857 -0.2829543 0.23872417 0.122153305 0.39477745 -0.22360748 -0.0976199 -0.13244414 -0.17898586 0.15420052 0.1120428 0.25653893 0.07512453 0.13952248 0.023237502 -0.17122716 -0.08543648 0.33636647 -0.18510392 -0.3341214
503 0.31639755 -0.035473373 0.006154319 -0.0336421 0.12615485 -0.08134203 0.21970999 0.15405786 0.08333201 -0.27081293 -0.4734806 -0.04843013 -0.029699834 0.059236743 0.11188832 0.033026323 0.23648566 0.11781558 -0.000826112 0.022624187 0.004634184 -0.039370313 0.045692015 -0.24404287 -0.0716502 -0.009242531 0.09879253 -0.015323951 -0.1284111 -0.036091823 0.015052292 0.1632836 -0.12615094 -0.19123824 0.34664428 -0.11764357 0.22322747 0.04116788 0.17547172 -0.015196606 0.34870973 0.09054426 0.15154882 -0.2778182 0.20199884 -0.26809877 -0.102629684 -0.18439418 -0.060840577 0.04561209 -0.07282614 -0.2113131 -0.37707078 0.45768097 0.31365362 -0.22767659 0.16439484 0.18433751 0.051926143 0.26289764 0.15057799 -0.002178075 0.096326455 -0.5343436 0.038268935 -0.4104367 -0.5278569 -0.14222932 -0.34765455 0.17908908 0.15151057 -0.37359 0.028763723 -0.00594989 -0.12193148 0.1923007 0.03087165 -0.1540428 0.10845826 -0.35142654 -0.2027058 0.0077634207 -0.08823204 0.021427058 0.44483963 0.20362356 0.18111229 0.14049552 0.11012165 0.6837124 -0.29765356 -0.17307185 -0.124562085 0.1013897 -0.13275658 -0.08922181 -0.25666317 0.116073154 -0.012691117 0.21102545 0.031134168 -0.23520371 -0.17649089 0.009607936 -0.17896847 0.116790205 0.08684946 -0.07409137 -0.043796558 0.07230819 0.0014879308 0.032804735 0.010477737 -0.34502292 -0.027389595 -0.101210624 -0.009992248 0.03627676 -0.20900202 -0.24219535 -0.14797394 0.07793468 0.2525622 -0.011739199 0.10571719 -0.12603779 0.2190654 -0.15885676
753 -0.04280445 -0.12366387 0.20724776 0.13564767 0.21092828 -0.15135354 -0.12603971 -0.11740433 -0.03161396 -0.4673367 0.051437862 -0.038186803 0.15569283 0.112802155 -0.032492787 -0.21245702 0.02094012 0.330527 -0.047786824 0.10941427 -0.064835496 -0.06021498 -0.29090416 -0.09363915 0.33366987 -0.14598829 -0.040425107 0.0048896857 -0.22452694 0.110456645 0.3017357 -0.26471257 0.035687134 -0.104753576 0.56819123 0.119394764 0.12073295 0.26017973 0.08760716 -0.3031933 -0.06871839 -0.3692407 0.072054476 0.28680778 0.09501944 -0.27937523 0.1131381 -0.113884546 0.18895413 -0.025971808 0.2224313 -0.13238083 -0.41208354 0.07957973 -0.07259353 -0.0076813246 0.25446066 -0.4195199 -0.15527822 0.083613686 -0.16363642 0.10774417 -0.20666952 0.021467187 0.029472776 0.30222672 0.09278403 0.22725761 -0.4043043 0.26888642 -0.0634207 -0.28887618 0.24545777 -0.22534531 -0.35424617 -0.037664652 -0.38213837 -0.12362956 -0.09775993 0.023901895 0.38778666 0.23200391 0.4432747 0.28382573 0.16692029 -0.027379215 -0.44957617 -0.35906374 0.2559311 -0.3361664 0.12052016 -0.35130718 0.32543594 -0.13457656 0.14588818 0.13395531 0.08164014 0.15183315 -0.06785542 0.40118226 0.16363192 0.17100675 -0.4174476 0.04763705 0.038990688 0.09314961 0.47734135 -0.06743639 -0.36496305 -0.08310847 0.4374971 -0.30550867 -0.3767786 0.25604603 0.3385559 0.065745436 -0.16475666 -0.039931715 0.2846373 -0.19648445 0.040317878 0.32656538 0.15701857 0.012247282 0.19322501 -0.08948507 -0.04041057 -0.0065067247
537 0.11621853 -0.30435586 -0.100880645 0.1400426 -0.18343318 -0.222866 0.14360392 0.34662738 -0.39019775 -0.20863688 -0.33234248 -0.12782998 -0.13582726 -0.120056935 0.17365848 -0.08618585 0.31712168 0.08699786 -0.19155541 -0.18946859 -0.10012539 -0.18857539 0.29634055 -0.21817882 -0.049365085 -0.19198214 0.17092621 -0.11938338 -0.10977722 -0.015780825 -0.14308669 0.228634 -0.20534167 -0.08197311 0.044482358 -0.135032 0.0742466 0.04996665 0.23998715 0.12516828 0.12939888 0.5027711 0.27323824 -0.16112213 0.12046772 -0.45022145 -0.10541581 -0.29264385 -0.09466146 0.261355 -0.16173016 0.01925884 -0.26968166 0.145227 0.08905826 -0.22794959 0.27464908 0.3327492 0.30629477 0.36537904 0.2223237 -0.079088315 0.34472966 -0.51262647 -0.13258696 -0.09661207 -0.2334239 -0.16078791 -0.1222986 0.32681984 0.3880188 -0.3185573 -0.23472178 -0.18800631 -0.011133652 0.088906705 0.17098486 -0.10993392 -0.19717972 -0.48970836 0.009713083 0.17572907 -0.12304642 -0.19779795 0.31924495 0.11155531 -0.26687193 -0.06311688 -0.032166906 -0.019283595 -0.21206501 0.032355655 -0.2508158 -0.018146453 -0.00329724 0.08295805 -0.029474558 -0.18225208 0.071886964 0.15863866 0.09183218 -0.24935576 -0.33325908 0.3007167 -0.06854304 0.26105517 0.030862503 -0.19392432 -0.17411233 0.4852506 0.1245869 0.009211692 -0.25634858 -0.107285775 0.22516981 0.10511702 0.036307953 -0.11244246 -0.05302681 0.07739887 0.10818572 0.21444829 0.18090828 -0.117303215 0.14576037 -0.031518318 0.17225228 -0.06596656
478 -0.037939936 0.17847046 0.08533648 0.13436276 0.28465533 -0.041235752 0.09488755 0.08599015 -0.23786275 -0.46847218 0.2527228 -0.014247028 0.021029305 0.051272485 0.3646541 0.4092744 -0.023272311 0.24074747 0.07081016 -0.36784178 0.046988294 -0.13632976 0.03221103 -0.26431385 0.019255014 -0.02007208 -0.19233187 0.056988508 -0.34642658 0.46920615 -0.4234973 0.122185595 -0.21793357 -0.063138284 0.15105976 -0.024585282 -0.07928313 -0.075848915 0.076320425 -0.14716873 -0.26206547 -0.23837328 0.16237926 -0.5919584 -0.2743749 0.032793604 0.060854826 0.11807673 -0.07737648 -0.112817205 0.08435521 -0.04812133 0.13346305 -0.044429287 0.24375777 -0.016202977 0.061955925 0.11403202 -0.42102093 0.05666297 -0.06464253 -0.079495564 -0.11991724 -0.21809211 -0.32405812 -0.4025141 -0.34456348 0.25951374 -0.0022086548 0.07361331 0.22719416 -0.18731888 -0.27489743 -0.18548769 -0.27453896 -0.10247196 -0.025551194 0.16463888 -0.19016202 -0.051385503 -0.2366813 0.25139776 -0.16287683 0.0010374323 0.27265206 0.3302303 0.14741258 -0.07625488 0.20611443 -0.021716164 -0.2243326 0.029734291 -0.37270537 0.040358327 0.28403822 0.15177228 -0.1462874 -0.35977522 -0.21646832 -0.049225733 0.2738421 -0.30785254 0.04572036 -0.31493995 0.3164324 0.03312967 0.41851014 0.17854051 -0.28897783 -0.13187455 0.0827769 0.113147765 0.5297672 -0.24548022 -0.3033552 0.31241554 0.012632171 -0.20994323 -0.13527833 -0.023449624 0.1890631 -0.08905454 0.08868677 -0.21470696 0.033215366 0.24465933 -0.06794534 -0.18197373
576 0.06862513 -0.2609675 -0.27350673 -0.07773797 -0.13886794 -0.1835689 -0.024306865 -0.27865148 0.41939172 -0.28794757 0.1805132 0.038423415 -0.046968486 -0.08753096 -0.07808665 -0.15176266 0.3984765 0.00086796784 -0.33785534 -0.2871669 0.0062719714 -0.23901384 -0.02485254 0.053023744 0.30813637 0.12622283 0.020613791 0.079259224 -0.37691328 0.073380776 0.030117804 0.52357394 -0.09792284 0.11243247 0.10910226 0.25449908 -0.2445979 0.06780064 0.027595943 -0.18186763 0.09752368 -0.08122552 -0.034617748 0.06453495 0.094789036 -0.059425566 0.245202 -0.04956653 0.02334593 0.06331751 0.1694743 -0.016139554 -0.5006208 0.2570016 0.029316926 -0.16188747 0.34672618 0.022025518 -0.06993013 0.29918763 -0.14817551 0.072722085 -0.056789678 -0.3345814 0.29354563 0.034197006 -0.5083321 -0.04390946 -0.46853507 0.25591996 -0.114884675 0.19901608 0.12595719 0.39477253 -0.13212188 0.054836307 0.47543553 0.21210746 0.5208555 -0.69832927 0.035482127 -0.18595855 0.5603384 0.23177451 0.27955025 -0.3763209 -0.2404043 -0.35276902 0.35964692 0.053392384 -0.27909675 -0.21819097 -0.2127055 0.42171168 -0.26976392 0.05077088 -0.16328949 -0.056957573 -0.032426823 0.082755186 0.27567616 0.21368738 -0.44237733 0.21128595 -0.17650336 0.1663678 0.08127407 -0.26032832 -0.31382203 -0.30464906 0.061544403 -0.16489363 -0.2423345 0.036996376 0.044448007 0.1424467 0.21155523 0.10742687 0.15355003 -0.030511172 0.4111727 -0.1524393 0.29516634 -0.15902928 -0.061228357 0.361238 0.46940407 0.2616341
723 0.13953438 0.46686655 0.024717268 0.0421897 0.16939725 -0.4937167 -0.52582663 -0.18071158 0.025441492 -0.35015473 0.060948316 -0.1118162 0.036843438 0.24024972 0.24320976 0.07714726 0.31629944 0.23383929 0.41702715 0.13520567 -0.053165607 0.1785022 -0.033318903 -0.34986705 -0.01793183 -0.2909799 0.15849473 0.16547228 -0.3953152 0.09940606 0.09486447 -0.10191975 -0.20152755 -0.05073548 -0.010291145 -0.18186983 0.026866715 -0.16294397 -0.037110195 -0.2011253 -0.016678771 0.2686029 0.07321105 -0.054590542 -0.21799906 0.19311604 0.05633547 -0.5570848 0.13952062 -0.036755383 0.04637535 0.22660099 -0.23207632 -0.18137737 -0.016564483 0.035572164 0.09279911 0.3265674 -0.33610436 0.17225805 0.002897898 0.33029902 -0.20782311 -0.32557762 -0.17005083 -0.21109259 0.018994514 0.33840108 -0.5052296 0.45502824 -0.0019954243 0.118573174 -0.06937871 0.04272539 0.009952364 0.23544405 0.08471551 0.1448427 -0.61926377 0.29388657 -0.23350087 0.55095917 -0.16905034 0.43699783 0.26829746 0.44538838 0.040331915 0.05483136 -0.115354836 -0.15597196 -0.30667233 -0.24265963 -0.22338752 0.045269065 0.16480513 -0.22559296 0.32301384 -0.105895594 -0.0045615947 -0.07639941 -0.552966 -0.09152731 -0.29685906 0.19490698 0.23879349 0.16612014 0.17812397 0.0068953563 -0.22646032 -0.17430098 -0.087132365 -0.15379858 0.28516558 -0.064042725 -0.281626 -0.064505495 0.33511 0.1561262 0.23571448 -0.057490055 0.35247555 -0.2082984 0.08993204 -0.3123703 -0.038846746 -0.05927054 -0.31926808 -0.26472747
643 0.08094841 -0.76969904 -0.26342982 0.25112784 -0.19543424 -0.18085867 0.35150155 -0.07946917 0.17988223 -0.58785415 -0.8360629 -0.3904771 0.27226952 -0.03152868 0.46431348 0.15277296 0.3766706 0.18130884 -0.04777624 -0.16955349 0.12284206 -0.121936105 -0.143677 0.09623771 -0.20012765 -0.24995281 -0.1914719 -0.12236115 -0.20968516 -0.23646313 0.09952881 -0.040235035 0.24168186 0.2613462 0.042515125 -0.026288843 -0.124723755 -0.09528478 0.40960985 -0.024491021 0.2547119 0.14007697 0.26989806 0.31493774 0.07466643 -0.45411813 0.06600779 -0.17423733 -0.17976214 0.29187316 0.15663394 0.21621811 -0.5186412 0.066057384 0.18945672 -0.25888503 0.6602689 -0.07119337 0.082260944 -0.059264075 -0.044093482 0.39023522 0.05235155 -0.3155746 0.06315678 -0.2618076 -0.14718214 -0.22299401 -0.25782207 0.4052982 0.013513714 -0.05887796 -0.105352685 -0.25382563 -0.105557546 -0.15893602 0.17543954 -0.10290338 -0.16457792 -0.14052597 0.018192288 0.18260899 0.05099938 -0.23419574 0.012487305 0.055117678 -0.075614415 -0.22625078 0.33102706 -0.15884425 -0.09474536 -0.13143067 0.29521686 0.34523922 -0.28408718 0.02102927 0.014353163 -0.16323516 -0.13097475 0.24093597 -0.19164345 0.106381334 -0.31753105 0.36423674 -0.08679271 0.117649145 0.25458393 -0.018198492 0.35609776 0.15010583 0.36231673 0.1718061 -0.13133541 -0.20478237 -0.02217561 0.35494757 -0.17047456 0.2838449 -0.10832734 -0.07231864 0.22528361 -0.005045286 -0.09938878 -0.24684778 0.41290185 0.03879673 0.14359076 0.09148522
404 0.07486908 0.07110409 0.17742582 0.3114855 0.016449394 -0.02409869 0.19303997 -0.120685436 -0.23962319 -0.15337585 0.023916727 0.10989781 0.187386 -0.4122067 0.18094172 0.47295943 -0.10799184 -0.3490096 -0.08107466 -0.18745331 -0.15072027 0.21407132 0.23223394 0.07817104 0.1143431 0.18991016 -0.08837755 -0.21660681 -0.14070845 0.27564764 -0.3370815 0.21156794 -0.09137745 -0.10156505 0.401216 -0.108732894 0.17124848 -0.3256176 0.25647485 -0.15874942 0.04309615 0.035244916 -0.10675005 0.053302582 -0.03372313 -0.044548612 -0.16431838 -0.094255224 0.10369184 -0.0140952 -0.20325127 -0.117410414 -0.021287516 0.42196333 0.61079913 -0.20306061 -0.116315216 0.14557813 -0.015719553 0.08549326 0.09394544 -0.0038114486 -0.030729344 -0.2179233 -0.35150522 -0.31485504 -0.33709076 0.14912198 -0.16024378 0.4431683 0.055704787 -0.17386584 -0.26322564 -0.02035429 -0.20459743 -0.10691534 0.23205346 0.28566256 -0.121653005 -0.28334522 -0.2745634 0.22707283 -0.11534197 -0.0773067 0.4905319 0.1486568 0.32174826 -0.124393225 -0.22695437 -0.17269687 -0.49599537 0.17292204 -0.10297856 0.07870579 0.13269413 -0.117101274 0.012249281 -0.14583606 0.16052662 0.10159607 -0.010438127 0.0076156533 -0.11354884 -0.033665814 -0.16425338 0.0762323 0.10709811 -0.22019972 -0.1279557 0.005364205 0.3953306 0.15751769 0.33080032 -0.043434516 -0.40249744 -0.015905775 -0.04712294 -0.031365253 0.15906788 0.111305125 0.24216148 0.18598112 0.19883989 -0.30514938 0.17116702 0.12638189 -0.011895273 -0.23967582
579 0.43436044 0.3473097 0.10368792 -0.28731975 0.4609994 0.3198695 0.24100947 -0.45957488 0.0005665454 -0.5675897 0.057984278 -0.18987107 -0.42620227 0.09088708 -0.32570496 0.6695052 0.007003934 0.06278752 -0.04030572 -0.14587548 0.0049900557 0.15483789 -0.5126233 0.3406901 0.18537788 0.16681029 -0.29929924 0.065295674 -0.21037926 0.23078683 -0.19851135 0.24313284 0.16486298 0.049035553 0.3326551 -0.28852394 -0.19453135 -0.15847251 0.10881007 -0.8695205 -0.042066388 0.15447737 -0.263337 -0.03083547 -0.008055473 0.22867699 -0.2547765 -0.0025264376 0.12341576 0.2938121 -0.19360836 0.09796762 -0.20144811 -0.18914694 0.21195851 0.2037167 0.12637618 -0.08820978 -0.13396749 -0.16678788 -0.17317444 -0.22579853 -0.16642249 -0.08225245 0.044069033 -0.030584669 -0.24129085 -0.0529643 -0.4425293 0.18613252 -0.0041801943 0.05715547 0.4467424 0.1739232 -0.029883401 0.19474114 0.031349838 0.17683361 0.4567122 -0.23265582 -0.36650953 -0.13922474 -0.077572644 -0.1049025 0.23835476 -0.06371348 -0.18942757 -0.079296306 0.50875247 -0.08604781 -0.6312326 -0.34195164 0.17144942 0.2842859 0.019857049 0.28335473 0.1827018 0.26948306 0.07080705 0.3360461 0.29626283 -0.09559997 -0.027377168 0.3734745 0.018353814 0.14584374 -0.19856611 -0.29546952 0.32147655 -0.33309945 0.21868667 0.1585437 0.24238837 -0.041446228 0.32437393 0.37168348 -0.21717533 0.19217178 0.25705352 -0.05973759 0.23809665 0.27265427 -0.031245904 -0.18389554 -0.13429005 0.07695913 -0.23785304 -0.5573855
611 -0.14029282 -0.16313094 -0.05013949 0.19897611 0.07059118 -0.15989931 -0.010854736 -0.31010044 0.28905788 -0.56318575 0.017795417 0.10366883 -0.19684598 -0.20393686 -0.31495455 -0.17381556 0.47738117 0.11987597 -0.14111301 -0.028457474 -0.38019654 -0.23992397 -0.031397857 0.19674154 0.16189475 0.13643013 0.09117361 0.049057525 -0.3201666 -0.07512589 0.05416517 0.44121417 -0.21455017 -0.13008882 -0.17208391 0.15737472 -0.3586004 0.10298874 0.16011113 -0.29939348 0.2007606 -0.14853331 0.010628153 0.093051665 0.101078115 -0.22511984 -0.087343305 -0.14339721 0.08523979 0.0064767106 0.003840197 0.20096599 -0.7894674 0.43580365 -0.3235602 0.056735165 0.28753084 -0.25116676 -0.061889924 0.1983042 -0.20243727 0.17970096 -0.29147232 -0.395331 0.33495247 -0.04506911 -0.58729774 0.17333688 -0.440842 0.10138683 -0.25929067 0.043441836 0.16109401 0.07166004 -0.25745827 0.1565923 0.0022125416 -0.017478893 0.5537116 -0.48000216 0.0062714186 0.23866506 0.077703536 0.12791048 0.38258326 0.037433095 -0.28996465 -0.26827717 0.21687283 0.16467348 0.123037085 -0.22293198 -0.06766458 0.35032558 -0.35094738 0.045255657 0.122725256 0.027399285 0.09610629 0.054472603 0.42396522 0.07377092 -0.40163058 0.43329415 -0.21149313 0.24075526 0.060766503 -0.1924084 -0.4214919 0.0825007 -0.14366864 -0.14070348 -0.3960602 -0.2875487 0.100925684 0.37101403 0.08914062 -0.27840343 0.26911578 -0.22695287 0.5082136 -0.24829659 0.13028303 -0.043865807 -0.23124139 0.17737514 -0.011523527 0.05244963
402 0.20119582 -0.14284208 -0.028962197 0.10403693 0.08691294 -0.13330665 0.26983348 0.23333952 -0.07430226 -0.15620351 0.12200548 0.002585244 0.15686826 -0.21696994 0.24296126 0.10171418 -0.1264087 -0.013944897 -0.19099002 -0.2702334 -0.25195 0.25182956 0.071567945 -0.09830611 0.28498393 0.02868436 0.12639369 -0.055708226 0.031203862 0.1233116 -0.09195425 0.18527919 -0.016033659 -0.21655416 0.24479024 -0.1751259 0.21604264 -0.20746939 0.39346087 -0.03369249 -0.057321876 0.031228667 -0.0021080659 -0.25929162 -0.28597364 -0.210378 -0.088850796 -0.30804372 0.09522698 0.056399208 -0.11302364 -0.16868113 0.0022949467 0.5445111 0.4633619 -0.27517483 -0.079420224 0.14490259 0.037336145 0.24322014 0.31577834 -0.23862669 -0.088951565 -0.2041675 -0.11001118 -0.43434787 -0.3762214 -0.15570906 -0.13774794 0.49164873 0.31705004 -0.29404974 0.0031207348 0.19402908 -0.04334553 -0.13528372 0.14317074 0.17706215 -0.4849872 -0.22557433 -0.35730302 0.117548056 -0.13437699 0.0015722611 0.5025321 -0.016658455 0.46542206 -0.20610444 -0.01633962 -0.10488146 -0.3646818 -0.22999847 -0.13389473 0.19516194 -0.10573724 0.19688752 -0.14184104 -0.09161063 0.123899505 -0.086280264 -0.17653409 -0.13645281 -0.15066305 -0.20658034 0.107294776 0.11191957 0.11917376 -0.020607732 -0.14542861 -0.12503068 0.23500328 0.14383192 0.110469595 -0.042707484 0.07600448 -0.07689289 -0.04469389 -0.2730151 -0.03152652 0.17905116 -0.049075443 0.034718744 0.32085714 -0.41514978 0.018917369 0.53983873 -0.26820138 -0.2160214
369 0.121232666 0.3168343 0.11688498 0.19452262 0.3265755 -0.050802376 0.38919184 0.1567634 -0.25179067 -0.17920692 -0.07981477 0.04522436 -0.07395281 0.007832271 0.56589997 0.27676928 -0.13447241 -0.19833761 0.019622544 -0.11188621 -0.026022827 0.2798353 0.10523143 0.05874829 0.022181826 -0.19140774 0.08788995 -0.0075982264 -0.22553916 0.3081194 -0.3351639 0.33255664 0.022175549 0.14236848 0.039922897 -0.15554813 0.074592814 -0.296731 0.2983868 -0.083437696 -0.20693536 0.24577373 0.046247426 -0.03610425 0.02250918 -0.31994465 0.13803151 -0.27161622 -0.1840437 0.058072727 -0.42355162 -0.17331262 -0.013709839 0.47475594 0.6074124 -0.08719454 -0.10379267 0.121552035 -0.042583287 0.2709186 0.20832705 -0.21707757 -0.089082606 -0.12067247 -0.23185828 -0.41801164 -0.2573092 -0.092205554 -0.14199322 0.3933077 0.12454967 -0.2241642 -0.22741523 0.027220955 -0.10654844 -0.052458543 0.32858124 0.09885921 -0.19821979 -0.19416557 -0.33343396 0.15945046 0.23004083 0.124720365 0.38653892 -0.13692787 0.33272028 -0.024017902 -0.14279121 -0.06583888 -0.14236607 -0.04788199 0.06468164 0.08274537 -0.073072635 0.021352408 -0.02499491 -0.13094315 0.04675196 -0.05103426 -0.0031797374 -0.010235044 0.11161653 -0.3640513 -0.17674972 0.13692908 0.13793118 0.015686302 -0.4528423 -0.112734765 0.16374384 0.23340073 0.46388957 0.012323629 -0.0657922 0.0029677604 0.22365887 0.07903921 0.057624325 0.08308445 0.030209705 0.23127864 0.40871778 -0.16293791 -0.046999793 0.18780668 -0.051143523 -0.27452055
755 -0.21523172 -0.12404164 0.08283654 -0.11863024 0.055320393 -0.42989898 -0.07353358 -0.30661973 -0.296611 -0.5202566 0.04154062 -0.15054363 -0.020641461 0.45737463 0.26684576 -0.10003959 -0.018780971 0.28192765 -0.17945969 -0.021270618 -0.1610187 -0.16706753 -0.3017326 -0.1928343 -0.20376968 0.06286252 -0.033747975 0.30442682 -0.10570676 0.22277813 0.007591009 -0.16495138 -0.04115222 0.021106284 -0.23750152 0.094461985 0.15986742 -0.44540733 0.096868515 -0.076406494 -0.045024898 0.16582489 -0.30943003 0.24346463 -0.10392242 0.41772085 -0.02723339 0.13639522 -0.20480263 0.23830858 -0.13070846 0.2056485 -0.40628356 0.06953007 -0.028255222 0.4145825 -0.08157506 -0.19036284 0.121145315 -0.048515026 -0.26766706 0.01046884 -0.3831936 -0.11555 0.19528063 -0.07675263 0.0711699 0.25544602 0.016289214 0.30482918 -0.025796438 0.22831231 0.11395487 0.071015626 -0.13552134 0.31305102 -0.06616878 -0.098398976 -0.36800474 -0.21584378 -0.24511899 0.26484913 0.27619544 -0.00037343198 0.027316382 0.2684238 -0.52387303 -0.21977402 0.5191497 -0.3772031 0.16677448 -0.18515415 0.12906025 0.32292128 0.27049917 0.5054818 0.104545176 0.10165625 -0.15697941 0.7363559 -0.11324768 -0.014910052 -0.78371215 0.007860656 0.077744156 0.29871333 0.10321154 0.22803454 0.03882555 -0.21538952 0.19613142 -0.07457231 -0.042988632 0.2998626 -0.081464306 -0.14991868 -0.28005007 0.14126147 0.41933617 -0.24953543 -0.2818636 0.22488476 0.19427583 -0.10041465 0.18873098 0.15555565 0.24987607 -0.03462469
368 -0.02210623 0.16636294 -0.016189257 0.12960614 0.01117782 -0.04593829 0.29177886 0.16243453 -0.19695722 0.01811214 0.008818632 0.05641265 -0.05255708 -0.29089645 0.32363924 0.3964577 -0.15548378 -0.0029513296 -0.22207786 -0.019317329 -0.15621296 0.46996203 0.0043797162 -0.18254304 0.08575703 0.0009807599 -0.12007362 -0.058404185 -0.35680956 0.17340533 -0.3955487 0.09672679 -0.13560812 -0.17701119 0.2607313 0.032904852 -0.054186452 -0.020007335 0.33598688 -0.08481881 0.022379562 0.40790877 -0.07939733 -0.16830322 -0.26757407 -0.3431287 -0.31709194 -0.19493982 0.08151574 0.112945534 -0.33547527 -0.09313027 -0.062470175 0.42204407 0.49563366 -0.28954905 -0.14002778 0.046917055 0.04999436 0.11672723 0.22834474 0.037672 -0.024573706 -0.2009299 -0.2614715 -0.3531073 -0.17165965 -0.09892181 -0.40699282 0.6975702 0.11432597 -0.49573663 -0.06226333 -0.013394965 -0.4017017 0.055913292 0.3400173 0.27661946 -0.17408758 -0.1859345 -0.31075206 0.2275119 0.071371205 -0.15842496 0.17801346 -0.03581692 0.13993458 -0.10294347 -0.11243421 -0.005842829 -0.31638122 -0.11336256 -0.22677597 -0.17464891 0.13155484 0.068522535 -0.007377017 -0.19953391 -0.0067495136 0.06568409 0.082022145 -0.122869805 0.24880475 -0.36082852 -0.043385487 0.19700721 0.28740102 0.011332589 -0.03112692 -0.025029799 0.093339056 0.13800107 0.28191993 -0.15308595 -0.014012943 -0.25628302 -0.13868937 -0.24744043 0.09100642 0.055988986 0.059962492 -0.017295642 0.24325839 -0.24974398 0.1934022 0.31400007 -0.0061993375 -0.30185735
442 0.14874497 0.06273122 0.08429671 0.20624305 0.28391704 0.17637569 0.4928542 -2.8221642e-05 -0.10901712 -0.17983308 0.008790803 -0.051435165 0.2030365 0.023973912 0.111582704 0.32111368 0.08688428 -0.058313794 -0.030148972 -0.37101254 0.07136846 -0.14683704 0.05790214 -0.06752622 -0.0809956 -0.20932876 -0.13719246 -0.04094156 -0.27417356 0.29813606 -0.29899698 0.2122854 -0.084823035 -0.1976393 0.21854813 -0.24076699 -0.065860875 -0.24731173 -0.0077702943 0.23080775 -0.18983333 -0.07361792 0.011141069 -0.4768224 -0.35039493 -0.26608193 -0.05909246 -0.16181618 -0.15769638 0.23171346 -0.14456572 -0.20558313 -0.23487711 0.23789693 0.31177568 -0.049639672 -0.086880825 0.15818176 -0.24125515 -0.035226807 -0.057276666 0.05027789 0.2505901 -0.14409319 -0.32468176 -0.08494839 -0.27808088 0.1255792 -0.1903929 0.29335672 0.090833604 -0.015053531 -0.0685248 -0.0016440763 -0.016331833 -0.15131783 -0.0417569 0.32230672 -0.35729456 0.24029365 -0.3077747 0.29437372 0.12327794 -0.020105371 0.25919086 0.26712263 -0.12351901 -0.12100904 0.27744517 0.2168139 -0.14630258 -0.2389619 -0.17227669 0.009155603 0.26827207 0.22809082 -0.17916657 -0.22082227 0.15769722 -0.13712354 0.14508103 -0.36174715 -0.09215524 -0.33371198 -0.03064917 0.1702251 0.22709776 0.091854826 -0.40831304 -0.016386215 0.11759504 0.030585237 0.6008008 -0.0025584614 -0.12888561 -0.08268361 0.119712114 -0.12848309 0.05103714 0.22960767 0.17272243 -0.05428662 0.15975979 -0.28410256 0.09766585 -0.13917339 -0.20677143 -0.40882862
721 -0.11580435 0.09994562 -0.24028076 0.078829326 0.31966633 -0.28709522 -0.1693296 -0.5698772 -0.3910755 -0.8664241 0.35066867 -0.24015553 0.22163302 0.5268992 0.05339511 -0.31354624 0.27982205 0.13286129 -0.15907842 0.2549448 0.17223097 -0.08231777 -0.26536006 -0.14670925 -0.06530301 -0.09358846 -0.21461242 -0.14124484 -0.29892147 0.20019042 -0.12317806 0.11907718 -0.08987458 0.15574405 -0.20285538 0.51123196 -0.028285908 -0.03185774 -0.09579104 -0.11855656 -0.08780473 -0.034895465 0.001148986 0.25214258 -0.68970275 0.0902381 0.024692286 -0.18050188 -0.4135048 0.095215 -0.0030238451 0.40410313 -0.20146799 -0.30179742 -0.09543653 0.14860433 0.117915735 0.2916502 0.037355386 0.24920309 -0.15190966 0.15469979 -0.31754658 -0.420698 -0.13224395 -0.18141872 -0.03219015 0.31778342 0.09702302 -0.07947965 0.11183383 0.25992665 -0.028626772 -0.2219872 -0.2852139 0.16725153 0.057485674 -0.015308633 -0.36542773 -0.18527089 0.24544723 0.84096235 -0.0024626232 -0.01800691 0.2668983 0.21100785 -0.115931794 -0.20686837 0.26080266 -0.20275849 -0.23725292 -0.12305868 0.17468117 0.16004227 0.4173045 -0.18066366 0.054519933 0.15056588 0.17978784 0.6020852 -0.32183132 -0.29623964 -0.409136 0.07724953 -0.077210665 0.21771702 0.02304326 0.081998035 0.09143671 -0.20397763 0.082632944 -0.37243074 0.028536567 0.27600127 0.13389255 -0.09537623 0.27667782 0.2857245 0.63655025 -0.14364755 -0.15136088 0.089974314 0.58596295 -0.18504387 0.03155124 -0.015861547 0.08734729 0.053338163
644 -0.46846998 -0.26312062 -0.08791266 0.15236901 0.1431453 -0.23989682 -0.050496265 -0.036012724 0.37056968 -0.82825357 -0.22993244 -0.477268 0.19856401 0.25607902 -0.0010925719 -0.094952844 0.55061096 0.14973328 -0.76074535 0.048158377 0.24605906 -0.3216071 0.08533395 -0.242399 0.25992587 -0.29371208 -0.11182489 0.12898332 -0.06408744 -0.08950605 0.19395249 0.4096518 0.053983983 0.12777673 0.46667 -0.009902901 0.11727624 0.2923408 0.39748448 0.13311608 0.15358445 0.1446689 0.14866999 0.72526944 0.17562163 -0.2800815 -0.014992807 -0.21602085 -0.10260845 -0.08957253 -0.015913779 -0.1534563 -0.6360059 -0.030219357 -0.4066361 0.052771203 0.67041594 0.047726206 -0.3365569 -0.2833855 -0.2501552 0.10609345 -0.12005578 -0.5846772 -0.16120192 -0.19908889 -0.13510805 -0.06093771 -0.2970038 0.5027086 0.052786604 -0.2395102 -0.058690526 -0.08041533 -0.3225432 0.47799397 0.33872846 -0.012299906 0.1658533 0.41023302 0.1518636 -0.048379544 0.06676676 -0.21875237 0.1384848 0.051175278 -0.36521435 -0.45521033 0.25296104 0.008986482 0.46053594 -0.34749335 0.10812003 0.42042097 -0.23249426 -0.03936271 0.12802711 -0.024089992 -0.43377247 0.68103725 0.5026064 0.35242444 0.021047488 0.07515174 0.241738 0.25933763 0.2506114 0.086164005 -0.18756211 -0.13727263 0.23496315 -0.09483746 -0.09937417 0.02016062 0.46091807 0.19500113 -0.11793958 -0.06605988 0.3642521 0.2339079 0.4234624 -0.18121131 -0.04307656 0.015240212 0.09044195 -0.010381635 0.25820768 0.32413313
685 -0.008080177 0.10632077 -0.17015073 0.18038186 0.26788518 -0.21547319 -0.06518573 -0.55004746 -0.09785404 -0.57652795 0.40725234 -0.3049506 0.056822598 0.35311309 -0.30887017 -0.21777906 0.14978276 0.2461182 -0.488455 0.058907945 -0.008467271 -0.10339436 -0.2121793 -0.4759191 0.081946746 0.013023046 -0.12883171 0.11212757 -0.60243595 0.27524698 0.055822495 0.14152884 -0.30522656 -0.18775989 -0.26230618 0.11128819 -0.24564476 -0.15345824 -0.002885676 -0.27554038 0.044081364 -0.17933014 0.15905768 0.24552982 0.10015252 0.35039312 0.002577458 -0.010579851 -0.31656456 0.009907119 -0.1916234 0.29359207 -0.32629284 0.386482 0.07816578 0.04638638 -0.06263648 -0.14115475 0.06175447 -0.380051 -0.26200408 -0.047966637 -0.22488913 -0.18990885 0.121841036 0.22554971 -0.17309976 0.16172178 -0.2091645 0.32967016 -0.16859317 -0.068448864 -0.10348186 0.07778261 0.30105495 0.026605355 -0.048934598 -0.11829865 0.009231402 0.2502443 0.0067798286 0.43935665 -0.030945225 0.04601123 -0.08726019 0.100630604 -0.40734658 -0.54765534 0.121180065 -0.34700263 -0.024774877 -0.40222353 0.23221397 0.48740423 0.01113884 -0.03261299 0.0001782503 0.05380298 0.0065677124 0.44377604 0.05179715 0.061635453 -0.5026886 0.13672023 0.15574366 0.21180345 -0.064633854 0.025962757 0.06561621 0.08769506 -0.034685556 -0.06418219 0.15395685 -0.015231784 0.10042211 -0.084038936 0.053801913 0.14391348 0.31782782 0.04297423 -0.17402104 -0.020464873 0.40335408 -0.34107432 -0.11629624 0.387346 0.07893654 -0.22979163
823 0.17574506 0.18733752 -0.12693514 0.09719202 0.2495801 -0.15337409 -0.5220744 -0.17703512 0.13525632 -0.22922932 -0.04263152 -0.21567646 0.37495863 0.3179303 0.32475412 -0.11583114 0.026047798 0.16290899 0.041114964 0.066143885 -0.3111727 -0.15784287 -0.09582147 0.050644256 0.2800573 0.11002309 0.016398845 0.044467457 -0.6198458 -0.04785847 0.39111006 -0.23011696 -0.020629916 -0.015460661 0.36795014 0.12903236 -0.04687838 -0.2836908 -0.12335298 -0.45302972 -0.10976477 0.056733087 0.23575734 0.24983017 0.0094523 -0.3753073 0.16839603 -0.21676633 0.25511736 0.12234088 0.30632958 -0.31886455 -0.8885449 0.18635736 -0.21010278 0.4083607 -0.19613393 -0.32968292 -0.23064463 -0.061423652 0.13607271 -0.0938298 -0.2565265 -0.051852696 -0.07094918 0.56740975 0.0878892 0.029593874 -0.17120583 0.3896993 0.060542118 -0.12660556 -0.09505758 -0.21215984 -0.15868671 -0.2650268 -0.1685001 0.0430009 -0.15723838 -0.3343137 0.10165335 0.34246188 0.3816023 -0.4089344 0.2328424 0.070966154 -0.6860771 -0.4982598 0.036792114 -0.38484934 0.31781498 -0.055832118 0.30247617 0.2152822 0.21474169 -0.1522927 -0.017125316 0.18429154 -0.48139012 0.14773197 -0.2674476 -0.27170062 -0.68722343 0.1443536 -0.02601442 0.0046310127 0.062593654 -0.161305 -0.18419951 0.011282704 0.5142181 -0.2383336 0.045179565 -0.37110612 0.70160687 0.056497823 -0.12524024 0.35791522 0.032290865 -0.31969166 0.21841007 0.13330938 -0.016465567 0.25470278 -0.0793359 -0.19611524 0.1535484 0.1188701
752 -0.10206999 -0.031609926 -0.14564131 -0.30246818 0.13895983 -0.15951544 -0.25454003 -0.010984972 0.26866105 -0.61686087 -0.3049333 -0.017961191 0.11661842 0.22194713 0.7151606 -0.6271481 0.1255377 0.12078836 -0.26822776 -0.01814756 -0.07939097 -0.14110053 -0.113725126 -0.087486036 -0.23378047 -0.06040606 0.2826484 0.13062494 -0.5473935 0.23338225 0.3507197 0.20035174 -0.14303766 -0.16681173 0.6482487 0.2842642 -0.1375067 0.37904245 -0.013288266 0.10126397 0.27068767 -0.14522347 0.023404747 0.3786672 0.21518217 -0.13319524 0.19814713 -0.028330114 -0.21436563 0.18453147 0.22345652 -0.27642688 -0.68352777 -0.02255774 -0.01831164 0.4232848 0.06723669 -0.1660762 0.14689313 0.062398273 -0.2797801 -0.037662126 -0.5151418 -0.17477216 0.091352224 -0.14280377 -0.0072595254 0.3312209 -0.47354898 0.06621291 -0.084251404 -0.19369084 -0.078249134 -0.392649 -0.22422105 0.13417035 -0.32295492 0.104796246 0.056245662 -0.09458378 0.4023665 -0.06825287 0.50339955 -0.107088365 0.27811855 -0.09029654 -0.5286845 -0.16720569 0.23338535 -0.23328893 0.214388 -0.19876558 0.21863411 0.13559598 0.08921292 0.096334666 -0.09648331 0.0041101896 -0.23750286 0.15708742 -0.49154088 -0.15852217 -0.16125247 -0.10333357 -0.008781117 -0.3746612 0.47733042 0.18039005 -0.094546884 -0.10088823 0.18205181 -0.5753834 -0.16373296 -0.079321 0.68351203 0.09627252 0.1463795 -0.4129943 0.398808 -0.31825516 0.34115028 0.2349597 -0.28553495 -0.24164574 -0.46265745 -0.0053907596 0.13140872 0.27448538
434 0.31313512 0.05328305 0.39028922 -0.12615782 0.13208383 0.15212706 0.3188456 0.030705323 -0.27419898 -0.052888438 -0.15089968 0.0118391 -0.13819265 -0.23205492 0.34238306 0.1224977 0.27554327 -0.2381696 0.021651836 -0.34448135 -0.41735515 0.06783298 0.2056344 -0.23996812 -0.019100778 0.034307215 -0.04664377 0.10715039 -0.20575595 0.050239824 -0.021029564 -0.019350028 -0.008730695 -0.1180319 0.22840548 -0.051609524 0.1218922 -0.15959011 0.07834774 0.18740739 0.023931231 0.3598052 -0.04268074 -0.43175784 -0.03556046 -0.48306566 -0.08400312 -0.1683677 -0.053549454 0.18848264 -0.06265785 -0.26906785 -0.116398424 0.41845143 0.19266061 -0.33667645 0.10796018 0.22898516 0.24030948 0.30751806 -0.09120778 -0.31441373 -0.081635 -0.1448846 -0.12819692 -0.5095735 -0.36430308 0.096056096 -0.16931188 0.49841446 -0.08446336 -0.33473605 -0.12839569 -0.20856507 -0.10203215 -0.0124629745 0.41827273 -0.0040461216 -0.25394002 -0.420238 -0.27536717 0.28210035 0.17766608 0.10422591 0.40088928 0.3536796 0.27033857 -0.3459254 0.059291072 0.40119317 -0.06552768 -0.11594776 -0.15047483 0.12832767 0.04954056 -0.28298765 -0.29509315 -0.04445511 -0.1429386 0.039237212 -0.10769704 -0.24644603 0.17799966 0.09307861 0.04847027 0.10443944 0.03670419 -0.060416013 -0.118614644 0.04852675 0.4037462 0.13111483 0.19482589 -0.2450501 -0.05951531 0.0029720902 -0.05654287 -0.20937496 -0.027760101 -0.07498106 -0.10906887 -0.10456204 0.21769094 -0.30771968 -0.059614543 0.08044539 0.058886837 -0.013912254
401 0.21797305 0.1272494 -0.22090997 0.11069377 0.09434767 0.21020705 0.14579692 0.09398081 -0.3052054 -0.28317693 -0.12273878 0.037714865 -0.15082054 -0.31246442 0.33299202 0.14898716 0.09585532 -0.018663036 -0.18201049 -0.05116389 0.02756263 0.0150938565 0.34582356 -0.13066474 -0.09701908 0.10644731 0.24254948 0.15633117 -0.13663952 0.12888531 -0.32440206 0.24769703 -0.18593502 -0.18989247 0.30456543 -0.29024643 -0.063933365 -0.21564835 0.12377249 0.38588688 -0.1259425 0.046366792 0.09862786 -0.15686475 0.09444997 -0.1536848 -0.06334999 -0.22110148 0.17340317 0.12515785 0.060615957 -0.29913765 0.013551365 0.4984686 0.32383063 -0.1510948 0.06141814 0.158893 0.091744915 0.46572173 0.17651339 -0.108125634 0.106577724 -0.43001407 -0.17837709 -0.6818786 -0.3048228 -0.2736382 -0.1818933 0.59188354 0.19283658 -0.32889318 0.13214798 -0.11626904 -0.20701115 -0.2621309 0.054945797 0.071947336 -0.42770445 -0.47384354 -0.2860412 0.28963426 0.0062413504 0.079157345 0.20811222 0.05591164 0.33480084 -0.44146264 0.113608055 0.46289286 -0.15053558 -0.13938782 -0.054133333 -0.09255162 0.01988317 -0.19575703 -0.08512927 -0.30838576 0.029478354 0.38100404 -0.21834491 -0.1116421 0.15823302 0.14293344 -0.10135827 -0.25464007 -0.08716128 0.17790325 0.021383459 0.11603014 0.18425792 0.29379508 0.035555895 -0.22118396 -0.089058846 -0.2563317 0.096363924 -0.095380016 0.12975237 -0.0018517057 0.24461147 -0.22796808 0.30704874 -0.19078092 0.15929647 0.30917397 -0.24049522 -0.33044514
407 0.023901472 0.12359213 0.24298131 0.28775153 0.047082316 0.11219759 0.21911389 0.29321533 -0.37077478 -0.3819366 0.15861596 -0.097960755 0.13076998 -0.14495102 0.011099992 0.3822512 0.11131886 0.05452138 0.2252343 -0.15542261 0.041880034 0.116848856 -0.19842626 -0.06475208 0.027445065 -0.106917284 -0.01916039 0.010865122 -0.22083254 0.16964406 -0.2574254 0.25238192 -0.09311147 -0.37450644 0.1771976 -0.29625785 -0.23711766 -0.33372903 0.2831871 0.071298 -0.32177657 0.027337305 0.020675039 -0.43984792 0.07660159 -0.1535672 -0.20151506 -0.18395051 -0.104025744 -0.034741513 -0.15961781 -0.051985357 -0.14990905 0.105524555 0.1860198 0.31689817 0.062299058 0.005730293 -0.16987294 0.092548065 0.18143578 0.088418245 0.2175775 -0.14805949 -0.5117972 -0.21963933 -0.15618728 0.06658808 -0.025871204 0.22060265 0.18166842 -0.037594423 -0.18601477 -0.04846103 -0.31850135 -0.063929975 0.20632416 0.036057692 -0.0017424859 -0.1574861 -0.60274935 0.34515017 0.5959932 -0.15827051 0.7124068 0.16585055 0.052287363 -0.10585053 0.23824045 -0.15657519 -0.1733047 -0.43239853 -0.053587597 -0.06655669 0.43534607 -0.1284004 -0.10882021 -0.14513014 0.23941162 0.039641824 -0.0683567 -0.26425058 -0.057663757 -0.2603987 -0.062713146 -0.06777946 0.15894212 0.08288424 -0.3466846 -0.042240936 -0.019833336 0.11551012 0.34684443 -0.17901988 -0.28564966 0.10707398 0.06133419 0.029932184 -0.08014425 0.15253247 -0.07835005 0.0061371485 -0.027636278 -0.32664403 0.07145407 0.19831355 -0.3313606 -0.21075492
502 0.3191599 0.016068932 -0.1017867 -0.009604513 0.041863713 -0.3169932 0.108250916 0.20552582 -0.38641906 -0.36744064 -0.47262338 -0.07417917 -0.010410126 -0.11343907 0.061768774 0.06310353 0.37914106 0.13171336 -0.17373836 -0.21315016 -0.21613398 0.01695252 0.26717913 -0.3313157 -0.04121746 0.042724404 0.07417773 0.024840117 -0.12993033 0.097804606 -0.059622053 0.018284315 -0.14696746 0.031204429 0.25199205 -0.02158311 0.31374574 -0.029281562 0.35904703 0.34814298 0.14633852 0.44969937 0.23902735 -0.13118656 0.1589738 -0.19261213 0.08430884 -0.093779996 -0.13736528 0.24313194 -0.17298171 -0.3166749 -0.40016392 0.18421087 0.14527276 -0.09743988 0.16174376 0.20439138 0.24613248 0.0442795 0.16609064 0.10568013 0.073231146 -0.5827214 0.16935529 -0.1755549 -0.436752 -0.047322016 -0.20878696 0.4181413 0.16961914 -0.3964092 0.111713976 0.032104045 -0.048956376 0.0048069237 0.061505314 0.03163264 -0.00051348336 -0.3632416 -0.37163273 -0.08785944 -0.068182416 0.050243646 0.18121384 0.1924088 -0.0081307115 -0.009264511 0.20520741 0.2165112 -0.29523495 -0.03477643 -0.2668688 0.16213454 -0.06987769 0.10927336 -0.15257631 0.118213855 0.15748022 0.021538068 -0.046645343 -0.041345827 -0.05466967 -0.11150483 -0.062273134 -0.113044016 -0.04181669 -0.23294087 -0.14507723 0.04635949 0.17913334 0.35116386 -0.19661182 -0.16560566 0.119568415 0.1852425 0.20887132 0.0039852937 -0.1220103 -0.10803553 -0.123299405 0.01816023 0.1257487 -0.13014042 0.2658268 0.22476242 0.33273414 -0.3092044
514 0.054349273 0.42424974 -0.029928694 0.029674245 0.08895877 0.026868923 0.008886279 -0.31024417 -0.051180843 -0.23514223 0.29494357 0.08183587 0.21422979 0.20928362 0.01605641 0.42492127 0.07992413 0.10424122 -0.079474725 -0.27564207 0.3240884 0.010057189 -0.21425892 -0.11596445 -0.3388276 -0.22694494 0.1558505 0.29714563 0.025447847 0.36515322 -0.26187924 -0.011851068 -0.12388062 -0.32360733 0.4996918 -0.07381532 -0.21808262 0.026301673 0.23373027 0.04169657 -0.15602158 -0.057853583 -0.13708189 -0.48116413 -0.18036969 -0.22746843 0.008616232 -0.11191862 -0.025142808 0.10435041 -0.06492975 0.017627966 -0.03839533 0.12849617 0.124082215 -0.022646748 0.10496988 0.17994708 -0.41315296 0.12507996 0.057828147 0.2862231 0.11035118 0.054357998 -0.2778005 -0.49770993 -0.19914688 0.031328224 0.079132296 0.26649728 0.24308048 -0.0972969 -0.0840962 -0.07408613 -0.3051486 -0.16758585 -0.15347615 0.24943595 -0.20065308 0.050650988 -0.071827196 0.15699193 0.094832525 -0.040667497 0.6548005 0.309255 0.17966 -0.19468173 0.16185814 -0.25021866 -0.0109702805 0.06040948 -0.39160925 -0.037158854 0.23816915 -0.08554532 -0.12960196 -0.118878745 -0.01582113 0.24452917 -0.2956686 -0.30904073 -0.32731023 -0.42771575 -0.0661564 0.26022083 0.30278504 0.19178966 -0.19759634 -0.3187742 -0.045674235 0.10983822 0.2718175 -0.21212552 -0.35268456 0.17217034 -0.18572819 0.0028971166 -0.0570327 0.008140091 0.1593469 0.08369109 0.24455802 -0.39148128 -0.12822291 -0.011315377 0.20618002 -0.2525197
573 0.2571052 -0.037910704 0.24232766 -0.0830488 -0.43639526 -0.13519096 0.19028758 0.25691637 0.037058286 -0.5001467 -0.023209317 -0.10158371 0.12223427 -0.010518718 -0.0010670166 -0.035321683 0.47528097 0.25306293 -0.4032118 -0.30058247 -0.13062231 -0.26287103 0.24069169 -0.23769656 -0.10518348 0.08775107 -0.12075511 -0.20340087 -0.18022032 0.19623761 -0.3668229 0.085981816 -0.10199768 -0.31890646 0.53630126 -0.10478899 0.009866958 0.14777163 0.13776612 -0.16005574 -0.024792781 0.5360101 -0.17091146 0.45015404 0.42940465 -0.39431798 -0.092509724 -0.3656661 -0.13119984 -0.17592455 0.15815642 -0.115302436 -0.3404984 0.11682793 -0.061123785 -0.19260056 0.44395876 0.27383837 -0.0022313094 0.22798392 0.28578162 -0.089942254 -0.22881311 -0.6689957 0.023142885 0.17842634 -0.32408682 -0.22628611 -0.3826407 0.36678272 -0.009944714 -0.27530995 -0.1470251 -0.024947576 -0.13819888 0.22900666 0.1500838 -0.059835717 0.1845866 -0.30102408 0.28762656 -0.07605924 -0.4679403 -0.32019833 -0.040502965 0.24473524 -0.4317876 -0.027030958 0.24434356 -0.16906416 0.14692652 -0.16062225 -0.02440864 0.50428116 -0.17265798 0.115567595 -0.0021537808 -0.124746375 -0.21884306 0.1918261 0.020712111 0.10994433 -0.40316713 0.40192053 -0.14321665 0.47554076 0.110156186 -0.030948488 -0.34216568 -0.08859367 0.0074781002 0.006938439 -0.3671198 -0.17757672 0.21424672 0.09184636 -0.0974668 -0.16239642 -0.17379996 -0.043986186 0.254352 -0.034561373 -0.054796062 0.1793745 0.19237232 -0.13704687 0.040660173 0.19586812
572 0.08094067 -0.4465266 -0.12964128 0.3316058 -0.16888052 -0.14888914 0.22679214 0.11654722 -0.10389259 -0.27998012 -0.48628375 -0.107664034 0.3174464 0.1709848 0.20120603 0.30076173 0.50657 0.16644117 -0.054087456 0.029950643 -0.15532988 -0.20888883 0.043218922 -0.34099114 0.022666562 -0.07652568 0.10636425 -0.2856273 -0.14861834 -0.33730763 -0.32091942 -0.0039484366 0.054608323 -0.022602992 0.054659355 -0.34279972 0.14183778 -0.043224707 0.3672298 -0.038493387 0.12617971 0.075862266 0.24348277 -0.02686796 0.1397514 -0.6668041 -0.2161375 -0.29050708 0.053296275 0.22640422 -0.15862614 -0.1010603 -0.1046058 -0.15070775 0.45905444 -0.11891311 0.009072631 0.25470832 0.31656596 0.03829301 0.0136275245 0.0072108367 0.23966575 -0.49082583 -0.045234367 -0.28813377 -0.19573766 -0.26322287 -0.25538868 0.38893065 0.43087524 -0.26295775 -0.09691876 0.057960484 0.060650136 0.04982704 0.13184841 -0.0057124454 -0.06536678 -0.5471363 -0.19452438 0.2307047 -0.23549539 0.0038070094 0.40555128 0.023962138 -0.16280629 -0.10218531 0.28032374 0.015855571 0.041782815 -0.09591691 -0.23682629 -0.15224779 0.059784535 0.03928459 -0.37673107 -0.20286562 0.15889294 0.17938563 -0.11833348 -0.14634092 -0.14924864 0.08413662 -0.21453206 -0.022696216 0.16736802 -0.16140932 -0.0037636168 0.288486 0.47317225 0.12090797 -0.09567695 0.050443083 0.21005592 0.34011042 0.11494697 -0.10110551 0.026114421 0.03387371 0.053097878 -0.044471223 0.10342735 -0.08384087 0.1889193 -0.09499917 0.16055363 -0.09009172
403 0.1265346 0.2263207 -0.041111182 0.18894948 0.0934852 0.09479339 0.3108691 0.43311232 -0.16408819 -0.03623745 -0.04586687 0.0049982327 0.000256955 -0.33124036 0.17406043 0.45750713 -0.0648054 -0.24161065 -0.036265176 -0.062452797 -0.26670992 0.11183009 0.09503768 -0.13534032 0.13832039 0.087872796 0.091725335 -0.38884327 -0.17110172 0.22197755 -0.30435163 0.08542284 -0.028704336 -0.110045575 0.32749555 -0.06575061 0.18142287 0.028964976 0.10349216 -0.22941582 -0.047247905 0.04447107 0.12122016 -0.008650531 -0.083396696 -0.37782043 -0.009476937 -0.1172945 0.090797275 0.042347867 -0.17630324 -0.20024227 -0.080180176 0.5284452 0.31946397 -0.09892869 0.043690618 0.44387057 0.036713935 0.11119939 0.03807399 0.1277502 -0.04786957 -0.2910837 0.021980466 -0.682439 -0.071131095 -0.12335977 -0.18447888 0.37187853 -0.07688135 -0.33174175 -0.26569745 0.027050385 -0.044133805 0.015489566 0.31444216 0.18251199 -0.18719445 -0.26130518 -0.423295 0.15050298 0.041425705 0.032883797 0.55944806 -0.013943854 0.2880267 -0.31906143 0.11520598 -0.030536702 -0.18136017 -0.09949803 -0.12119263 0.14810832 0.21960965 0.057129428 -0.04035803 -0.1469921 -0.21449642 0.035254233 -0.220901 -0.12576547 0.016818197 -0.24405241 -0.24025029 0.15453637 0.13882671 -0.11662258 -0.30706438 0.122496605 0.17778407 0.065513626 0.3957503 -0.20427458 0.028034195 -0.09733893 0.044315405 -0.03579795 -0.34250993 0.2730542 0.2025007 0.03314123 0.24509704 -0.23023292 0.011844838 0.30674428 -0.006079956 -0.1996183
505 0.22636029 -0.078249246 0.104879804 0.14158703 0.37621838 0.06592787 0.35164472 0.07196067 0.22776963 -0.43325186 -0.010941959 -0.30053428 -0.042138822 -0.1786206 0.061769318 -0.20994559 0.21210694 0.11464037 -0.32366768 -0.36270958 -0.288233 0.09464061 0.02046112 0.3278518 0.116505206 0.09541953 0.1476615 -0.123131946 -0.32828858 -0.17322055 -0.11182696 0.043851007 -0.1832218 -0.052996546 0.18241996 0.111011304 -0.018340623 0.23751591 -0.0056683333 -0.16282 0.38740855 -0.19730401 0.22676525 0.05729208 0.45056027 0.15417737 -0.35103503 -0.09972928 -0.095657825 0.14853455 0.17590053 0.12523751 -0.10010855 0.48812371 0.25410944 0.022000445 0.030030439 0.23489688 0.10003759 0.1384323 -0.22437653 -0.058069825 -0.063002266 -0.5252522 0.3031054 -0.10761128 -0.5258046 0.20057842 -0.32439905 0.37562215 -0.057821553 -0.10973548 0.2049005 -0.090175964 -0.75789785 0.2017642 0.1368828 0.10224729 0.41053906 -0.056895036 -0.04980552 -0.27851525 0.21348456 0.34904724 0.46551642 0.28728172 0.05799771 -0.06848963 0.56909424 0.13334462 -0.30105615 0.046381403 -0.25694153 0.05091169 -0.09209548 0.23181833 0.099228665 -0.001554121 0.019932043 0.19168672 -0.1914781 -0.014694702 -0.2882411 0.48896492 -0.003608143 0.33260164 -0.26631343 -0.08867246 -0.41412103 0.06144599 -0.112543754 -0.11270279 -0.19226365 -0.38518614 0.13156939 -0.30704364 0.28473696 0.14722875 -0.020864336 -0.26177123 0.60608566 -0.06839299 0.33819786 -0.010709484 -0.05239935 -0.08549385 0.12766151 0.23497559
790 -0.64622825 -0.024844244 -0.18846433 0.15309669 0.25362465 -0.2676816 -0.16876419 -0.05169688 -0.2261354 -0.5370711 0.36310005 0.075129025 0.58418 0.43184006 0.21233752 -0.009503597 -0.1511475 0.31136417 -0.01857579 -0.018306088 0.11161411 -0.34002668 -0.036564287 0.061236024 -0.027669901 0.21922617 0.43620303 0.10442585 -0.21402368 -0.17933571 0.08088919 -0.08087454 0.1508282 -0.32202944 0.023969006 0.099740066 0.50003636 -0.22001031 0.25914195 -0.277349 -0.11184024 0.046605248 0.22905155 0.11671318 -0.17136577 0.06550795 -0.035748776 -0.1440676 -0.20045811 -0.12965487 0.06792986 0.025285894 -0.49710932 -0.19100672 0.2169262 0.2879509 -0.18163241 -0.06487301 -0.01639097 0.16763814 0.07571217 0.09215285 -0.3774081 0.037884884 0.16186008 -0.10274467 0.26874638 0.28625786 -0.16783094 0.5117899 0.10818031 -0.14779976 -0.31342703 -0.14752801 -0.35982335 0.2051795 -0.64852613 0.07535704 0.039296754 -0.48326945 0.23893255 0.28523475 0.09386971 -0.008785818 -0.054987106 -0.093859635 -0.37152803 -0.2488035 0.18943605 -0.23356819 0.10108653 -0.30918998 0.5264942 0.31260037 0.31453428 0.47329685 -0.0150069995 0.34300694 -0.5280463 0.57000524 -0.023262132 -0.12950389 -0.5547742 0.13004914 -0.068258315 0.1318652 0.40433028 0.2110231 -0.38088143 -0.1728777 -0.11701177 -0.38842773 0.24797565 -0.030808372 -0.18178949 0.027680626 -0.05458922 0.18340288 0.46704707 -0.43631887 0.09082434 -0.3753999 0.04479134 -0.21945082 -0.2544283 -0.0647054 0.4444607 -0.26059175
650 0.06379221 0.19886114 0.017585458 -0.40844998 0.5901601 -0.0013661943 0.19226156 -0.5337105 0.05978814 -0.5320109 0.58193374 0.10651167 0.15096754 0.48641306 -0.09192852 -0.3319264 0.15489711 0.24367772 -0.11453077 0.04368409 -0.06279535 -0.4314522 -0.060264908 -0.123389125 0.58718306 0.20061032 -0.3482237 0.10424199 -0.4464468 0.040028803 0.0062116287 0.113877 -0.089295544 0.12806112 -0.16129881 0.008320433 -0.3389998 -0.42962235 0.09393368 -0.26445597 0.14110447 -0.043781668 0.20461315 0.10781691 -0.01754295 0.1482204 -0.28597507 -0.0945318 -0.1443264 -0.16822423 0.05707164 0.29183894 -0.18468058 0.570835 0.065218896 0.08958224 0.26958683 -0.05750504 -0.37343827 -0.105039485 -0.36738497 0.11277584 -0.43955106 -0.38473243 -0.20575953 0.0077638472 -0.0041126707 0.09786034 0.113178104 0.3381628 -0.13504992 -0.12593646 0.051888067 0.025430962 -0.13536447 0.05903223 -0.053945247 -0.12156252 -0.24001949 0.20776094 0.21976523 -0.045926698 0.10047721 -0.21903162 -0.054657295 0.071823 -0.01399729 -0.12150209 0.24994004 -0.065277375 -0.11964117 -0.23915163 0.23274699 0.5140566 0.29010916 0.13176414 -0.106939115 -0.026811428 -0.05011648 0.44783306 0.030941742 -0.056083295 -0.3088581 -0.000949615 0.18245098 0.1216207 -0.2056829 0.10023648 0.011188468 -0.08721698 -0.031177802 -0.37936434 0.09393187 -0.17638662 0.29191312 -0.0016870595 0.3127442 0.36343566 0.38887563 -0.0028155004 0.1331 0.051085927 0.44283357 -0.507976 -0.060004193 0.5226965 -0.013989325 -0.25764722
399 0.41816008 -0.0043147793 -0.14365517 0.12634805 0.10816427 0.13899171 0.23245987 0.10276696 -0.41729343 -0.112574905 -0.3307969 -0.1055541 -0.14939137 -0.14724009 0.27813217 0.19085765 0.13304164 -0.108564176 0.10731393 -0.0783004 -0.30261254 0.24638188 0.029297251 -0.16045327 0.50563246 -0.009230892 0.09363029 -0.099116474 -0.004640925 0.3093282 -0.2754629 0.03724569 -0.15866268 -0.19713563 0.17311363 -0.17580315 -0.05032677 -0.1726708 0.28537846 0.25869483 0.05001831 0.09305012 0.039900433 -0.14681041 0.13255428 -0.3027907 -0.15761477 -0.06351571 0.039197836 0.18264921 -0.07153876 -0.3692372 0.028876198 0.54342854 0.24340084 -0.16396856 0.3564837 0.036236037 0.14981471 0.038113967 0.032676473 -0.17407921 0.011121555 -0.177891 -0.20732768 -0.5523632 -0.21369736 -0.02041739 -0.1353901 0.6318558 0.11437085 -0.24957904 -0.015170043 -0.08378422 -0.29426315 0.009278562 0.21556063 0.03922467 -0.4387418 -0.2908088 -0.20592928 0.31017837 0.16618408 0.35560375 0.4462162 0.42045462 0.41921774 -0.010406915 -0.255048 0.289789 0.038320813 -0.23373449 -0.042029437 -0.06100617 0.021115387 -0.110327214 -0.028274857 -0.307294 0.15445472 0.16345927 0.2516624 -0.20127276 0.014724185 0.0430713 0.021605778 0.18603244 0.20437208 -0.19834381 -0.38569114 -0.0008489395 0.33549064 0.07985718 0.14597286 -0.22424906 0.10805189 -0.22976719 0.14558847 -0.27753174 -0.0983118 0.010212766 -0.03244793 -0.054644935 0.3972068 -0.24743283 0.08503619 -0.00688179 0.13741927 0.0550886
575 0.13034725 -0.23408014 0.18112895 0.011863524 0.24878065 -0.18393834 0.110310696 0.016170386 0.3717286 -0.55875933 0.09198571 0.027721846 0.36672497 -0.15334778 0.09732328 -0.03104068 0.5631936 0.25168002 -0.26059565 -0.12024474 -0.3452218 -0.23859295 0.33088952 0.07190798 0.17379788 -0.11843832 0.063757055 -0.013056215 -0.19198045 -0.12128622 -0.022065956 0.5785381 -0.30495775 0.028631762 0.050678395 0.17301634 -0.12299368 0.16507356 0.14667492 -0.22743995 0.21257709 0.3221903 -0.41602126 0.09826596 0.41580784 -0.27442592 -0.2989526 0.1439164 -0.114913374 -0.07892273 -0.14063646 -0.08095173 -0.4601646 0.33090967 -0.34348556 -0.09940095 0.40548593 0.027637608 0.19553444 0.23799333 -0.0035620106 0.27721402 -0.31565508 -0.431922 0.0675392 -0.01679406 -0.44414282 0.090337254 -0.35727918 0.2931927 -0.019695206 -0.18454948 -0.17180553 -0.0181952 -0.34243295 0.065070026 0.12606072 0.32256916 -0.20900367 -0.2619467 0.25301012 -0.15367432 0.12694034 0.0033763181 0.14153363 -0.0058746687 -0.28438476 -0.33809578 0.31487757 0.33264393 0.013255645 -0.2636304 0.07104538 0.40818056 -0.542829 -0.328802 -0.117089115 -0.105523154 -0.24 0.4562148 0.12115532 0.5711575 -0.6815447 0.07894389 -0.23345059 0.32616255 0.061561655 -0.19316222 -0.09686675 0.039620973 -0.31041968 -0.36294818 -0.49156776 -0.19621886 0.27130204 0.1745926 0.20414333 -0.08608779 0.11124674 -0.112703726 0.4090081 -0.43765017 0.10118749 -0.21341598 0.4184503 0.016847862 0.15595794 0.22743253
510 0.52282035 0.40759832 0.27110994 -0.0847766 0.5779594 0.7274776 0.30588818 -0.3173516 -0.33643675 -0.3554264 0.25878385 -0.17662978 -0.22539656 0.029250609 -0.20602202 0.54381835 0.17307128 0.026414955 -0.07944154 0.06191853 0.051309045 0.31774747 -0.4177826 0.19113919 0.05815709 -0.11191808 -0.2675387 0.17888838 -0.37505516 0.16812134 -0.122611605 0.56152225 0.30825752 0.15601392 0.38674268 -0.31742856 0.19722523 -0.082363725 -0.076317914 -0.42230025 -0.121790096 -0.0045537474 0.031468537 -0.21285674 0.049154855 0.11476435 -0.46682248 0.097883925 0.12770243 0.022798734 -0.20116787 -0.027583469 -0.26241216 0.11963401 0.31589654 -0.18368414 -0.028417941 0.02935761 -0.3498205 0.078746215 0.16509777 -0.045667574 0.23129015 -0.30372125 0.19461325 -0.31940848 -0.1037431 0.13523462 -0.058866795 0.0734077 0.33133575 0.39024714 0.10319229 -0.14597456 0.11903095 0.006234712 0.18075737 0.08138891 0.14186803 -0.22901222 -0.40171024 0.16899094 0.19740482 -0.10289939 0.22830893 -0.20937745 -0.17767338 -0.18037733 0.2367381 -0.14637119 -0.42669007 -0.23233956 -0.025728166 0.2858441 0.028766187 0.567914 0.48351395 -0.06322595 -0.037749037 0.1615263 0.37469402 -0.62591386 -0.18641528 -0.08882285 0.018828094 0.15323567 0.12535055 -0.41205317 0.14892988 0.11416675 0.20940363 -0.034457047 0.0814541 0.28756082 -0.07702277 0.032869447 -0.21920341 0.121608704 0.3333927 -0.34551576 0.022899857 0.07926635 0.084976785 -0.26117572 -0.039698232 -0.004141603 -0.08054057 -0.3075084
538 0.35904974 -0.017254386 -0.062477708 -0.051438127 -0.23731856 -0.13451734 0.2498441 0.4976435 0.15633677 -0.7635117 -0.16657482 -0.16300598 0.011866166 -0.09666525 0.2332772 0.21134949 0.43744928 0.22652984 -0.20877664 -0.24489938 -0.14276361 -0.22718363 0.35342032 -0.11439017 0.0030705074 0.2761882 -0.04377953 -0.0067253495 -0.18298917 0.08978882 -0.18605153 0.26215893 -0.05855184 -0.43042713 0.3058641 -0.10692913 0.11687915 0.32034725 0.17119291 -0.31752202 -0.020835087 0.37871724 -0.053317737 0.041224755 0.4733522 -0.32638925 -0.35217398 -0.33657876 -0.06095097 -0.101618074 0.1376686 0.02413651 -0.4402254 0.25407782 -0.08125286 -0.21579354 0.38189337 0.64041305 -0.10099757 -0.047597602 0.05509642 0.042956997 0.11634903 -0.6355643 -0.08487334 0.14732356 -0.1647461 -0.09598424 -0.50743884 0.14863722 -0.19790477 -0.14524582 -0.094521664 -0.16115727 -0.025541946 0.2114631 0.052842673 -0.0098610995 0.150104 -0.28619274 0.19783401 0.0016719236 -0.18519355 0.13220394 -0.06526843 0.30011258 -0.11561421 0.011821511 0.17234902 -0.22521958 0.23476511 0.027259627 -0.066325456 0.27745804 -0.23785385 0.09245917 -0.1617814 -0.07452975 0.02795056 0.10241345 -0.24599689 0.026662724 -0.13390782 0.14627557 0.17345199 0.70613676 0.12264209 -0.2720224 -0.31647462 -0.16730152 -0.010153925 0.08212523 -0.4945115 -0.19751805 0.20881706 -0.061518814 0.17099364 -0.16032761 -0.040395983 0.024609335 -0.0055183717 -0.079771124 0.19904971 0.102807865 0.1447215 -0.026987953 0.053605918 0.15785179
610 -0.020046974 -0.2076924 0.17542183 0.025994869 0.14549689 0.036732513 0.2086601 0.2166239 0.3491487 -0.6704132 0.054918066 0.18356338 -0.012984328 -0.06732464 0.1405708 -0.24299048 0.29261532 0.2760766 -0.38458762 -0.25246474 -0.24186014 -0.56134063 0.03914449 -0.010339043 0.22090764 -0.09176773 -0.018830365 0.0064639174 -0.43954635 0.03113865 0.009054581 0.15512376 -0.025924668 0.068470106 0.015533231 0.20208272 0.0013843217 0.24607418 0.19817504 -0.26079378 0.20255029 0.48045748 -0.2086194 0.13210021 -0.02248714 -0.2957227 0.11563924 0.17090549 0.0317426 0.4743503 -0.16951232 0.052212942 -0.52822673 0.4490657 -0.19949979 -0.23816048 0.18577556 0.055348184 0.09102979 0.13971393 0.16430537 0.05337831 -0.13726452 -0.53255934 -0.01374498 -0.07529266 -0.24748625 0.07603318 -0.43381983 0.27342352 0.2467645 -0.21699096 -0.10045542 0.044145264 -0.38750106 -0.004593794 0.27926996 0.30526224 -0.084018804 -0.3144398 0.16246173 -0.24547829 -0.11155384 -0.07729092 0.17099318 -0.09036211 -0.1499659 -0.31565925 0.2792042 0.07416165 0.12095874 -0.31407648 0.12852916 0.37366188 -0.40369284 -0.26133242 0.18673821 -0.076739416 -0.021678302 0.083162315 0.36819133 0.24148886 -0.39916724 0.27567518 -0.031041207 -0.04591179 -0.01960395 -0.26583558 0.11529583 0.26515576 0.07515408 -0.31959987 -0.34215257 -0.3681912 -0.039304774 0.0964099 -0.029187988 -0.05276134 -0.11535689 0.17952539 0.3098446 -0.4014592 0.19700204 -0.22605309 0.5774932 -0.3288153 0.25736406 0.3280455
400 0.266 0.083806194 -0.08753861 0.17427823 0.1941401 0.09250818 -0.016198337 0.35672617 -0.2614635 -0.14851177 -0.23252802 -0.04230371 0.031934634 -0.55578864 0.13702327 0.17708561 0.08166011 -0.081888355 0.18248533 -0.035431817 -0.34880367 0.103442565 0.2529925 -0.26254147 0.09852275 -0.09585304 -0.22407192 0.07087895 -0.16358715 0.24584922 -0.20322531 0.14492789 0.07774197 -0.22332971 0.24571137 0.0029888041 -0.22535601 -0.1812596 0.19289145 0.26435193 0.00950669 0.06384116 0.10983738 -0.44910154 -0.04964312 0.028525123 -0.0036035404 -0.16545151 0.026414353 0.20638902 0.0604304 -0.22719787 -0.24087967 0.5031352 0.46053135 -0.4099097 0.16679657 0.3088101 0.11879477 0.2709847 0.037597228 -0.12356009 -0.03865066 -0.31964526 -0.05493735 -0.42519188 -0.097158805 -0.03416744 -0.20689031 0.53614473 0.27015507 -0.33539551 -0.23473828 -0.2021062 -0.2148906 -0.034313545 0.13459921 0.17498666 -0.34273714 -0.45181292 -0.11913872 0.36701807 0.14528947 0.44491985 0.4550498 0.23471408 0.33056933 -0.10023228 0.13268724 0.25845352 -0.23383474 -0.18604805 -0.17856926 -0.15156214 0.0052379086 -0.18563394 -0.0959306 -0.1821317 0.24558544 -0.13939255 -0.06779266 0.096598364 0.10125635 -0.30006447 -0.28178656 0.12998208 0.23243748 0.053696945 -0.0025524148 0.16432749 0.45898062 0.090006545 0.20419048 0.07182603 0.28958264 0.11145204 -0.08267256 -0.011053658 0.04369147 -0.023189507 0.05056135 0.24178001 0.50637054 -0.20630755 0.21040684 0.055076554 -0.07232547 -0.18540452
607 0.34672087 -0.5748474 -0.0790745 0.4528907 0.06993575 -0.22781414 0.119191445 0.06272413 -0.09657343 -0.21323621 -0.6485708 -0.22736089 0.07082803 0.3495712 0.15087481 0.20790574 0.45289245 -0.017047537 -0.19851972 -0.08621398 -0.28369194 -0.1674015 -0.05900868 -0.5225245 -0.22154899 0.053931385 0.19673616 -0.29817164 -0.065968 -0.078633174 -0.22315015 -0.04155808 0.0099251475 -0.0463233 -0.09946259 -0.1310489 0.23355867 -0.18736514 0.40753716 0.040852696 0.23675936 0.055071846 0.3582159 0.03253649 0.13913831 -0.42165348 0.0045907972 -0.20326993 0.019048132 0.23729157 -0.04192315 0.06456942 -0.045617096 -0.11335256 0.48710427 -0.026988678 0.013157354 0.14307041 0.34066674 -0.097620524 0.17253023 0.05955203 0.15456378 -0.4270047 -0.094306596 -0.2853088 -0.24939626 -0.37997523 -0.43467906 0.4257558 0.5142556 -0.36366558 0.102803014 -0.15136391 0.07944094 -0.007462412 0.053405695 -0.118129894 0.13256162 -0.5156057 -0.25868934 0.15193436 0.036632553 -0.02292021 0.33808577 0.1376945 -0.03965608 -0.061771356 0.27860627 0.015516107 -0.040628444 -0.09988297 -0.18248455 -0.06086203 0.12232484 -0.1913413 -0.42853317 -0.41545796 0.23755193 0.31783628 -0.22923942 -0.20056956 -0.20175673 0.10465725 -0.36511296 -0.09090969 0.22984347 -0.12087921 0.060210295 -0.0038016618 0.3748691 0.24668492 -0.09058348 0.09976271 0.25787643 0.1230859 -0.039268147 0.1204997 0.1278833 0.04823798 0.10194832 -0.13527684 0.13817258 -0.26981464 0.37393612 -0.13438834 0.13392384 -0.11560323
612 -0.063696735 -0.22573349 0.27850685 -0.13194217 0.04562137 -0.17804408 -0.12651485 -0.28744748 0.070909835 -0.70150596 0.20278318 0.37395188 -0.04657665 -0.10631111 -0.10923747 -0.0830308 0.20729822 0.21450171 -0.16373031 -0.11310563 0.050269604 -0.11733721 -0.391051 0.07546767 -0.06099423 0.39044997 0.088658504 -0.33501524 -0.71964324 -0.12143337 0.0020480445 0.3058713 -0.12154104 0.23329361 0.2808266 -0.13544007 0.24136676 0.02545425 0.07343773 -0.18600926 -0.06698745 -0.28414932 -0.008235302 0.10613883 -0.012316931 -0.17896336 0.23661283 0.23141094 0.12176466 -0.5087394 0.29310063 0.016687283 -0.5279351 0.62393194 0.010903016 -0.054110914 0.24107435 0.17584607 0.033637285 0.46689004 -0.34228188 0.111798465 -0.17266645 -0.17798531 -0.11316112 -0.17265765 -0.17907119 0.2786122 -0.61744356 0.5832818 -0.09497348 0.1880756 0.380103 0.08989985 -0.19236684 -0.038264226 0.18936916 -0.20515889 0.24172781 -0.17137244 -0.3316927 0.07886822 0.17522947 0.1326811 -0.020181822 -0.033706266 -0.12216369 -0.28682202 -0.1274762 0.16911587 -0.14416032 -0.18781358 -0.30675572 0.6281325 -0.29933512 -0.07025966 -0.11087898 -0.0686057 -0.42135695 0.31094232 0.47876713 0.5224822 -0.27165666 0.38727656 0.040596284 0.20891306 -0.022417145 -0.060999714 -0.001688971 -0.15406194 0.14133717 -0.3100226 -0.27304727 0.045466803 0.24642456 0.13038105 0.24295726 -0.0030646971 0.62335926 -0.077968284 0.35309502 0.45702595 0.07912024 -0.28155938 0.40915942 0.35786206 -0.11604466 0.3486194
326 0.028812107 -0.07383463 -0.06496185 0.13379736 0.108782224 -0.14311323 0.28898436 -0.015445635 0.09265576 0.06507801 -0.30822417 -0.21791163 0.026662765 -0.14499918 -0.07276288 -0.081407875 0.16233794 -0.053191163 -0.16533662 -0.030692834 0.020612793 0.34731528 0.17099112 0.43168655 -0.33766398 0.23381254 0.051945593 0.12328418 -0.25410277 0.2555507 -0.28775898 0.4407182 -0.49475744 -0.15570335 0.2604099 -0.37242845 -0.09018169 -0.01432599 0.26541027 -0.08000784 0.21384951 0.054194197 0.42470554 0.023903837 0.0629771 0.09334522 -0.0061758743 -0.22504343 -0.059370488 -0.17743896 -0.034358356 -0.039911147 -0.31212133 0.19400479 0.3304869 -0.1894746 0.061538696 0.03248716 0.15146422 -0.016808102 0.06646646 -0.44824144 0.012731414 -0.1785304 0.3949006 -0.31312427 -0.30555195 0.10864887 -0.087158754 0.2507902 0.112654015 -0.13244708 0.37156758 -0.059936985 -0.15605168 0.62003493 0.35269016 0.12718214 0.11002822 -0.062321708 -0.10061382 0.19131793 0.027519805 0.05985857 0.49313894 0.24919483 -0.18604635 0.058309857 0.19056648 0.072980866 -0.2491033 -0.4106804 0.047690332 -0.17352568 -0.14965 0.0685913 -0.10466401 -0.18992935 -0.35668284 -0.16440395 -0.3050064 -0.09493838 -0.20944284 0.12772448 0.043927316 -0.2944844 0.23553953 -0.41350546 0.21301392 0.10645811 0.69148874 0.37701243 0.015007665 -0.42145738 0.22707328 -0.028017243 0.36016944 -0.18440904 -0.186339 -0.40547106 0.09776408 -0.3273703 0.5663183 -0.38551825 0.2293401 -0.07774321 0.010957519 0.24402885
504 0.43443704 -0.107902005 0.024877636 0.08059829 0.14945064 -0.24290738 0.2585252 0.008414843 0.14214236 -0.2703454 -0.24621019 -0.18915741 0.050040416 -0.063392796 0.027107013 -0.028850706 0.3544579 0.08317075 -0.113029905 -0.2342058 -0.3567508 0.0660848 0.049404968 0.25777087 -0.036124412 0.015142484 0.30878353 -0.015544484 -0.42073065 -0.07744959 0.2216396 0.25309664 -0.2469288 0.14754061 0.09479966 -0.35832772 -0.062197145 0.38664716 0.19019054 -0.16376685 0.18547423 0.069336034 -0.22791377 -0.09523317 0.48454908 -0.1286891 -0.04478668 -0.19904682 -0.054527406 0.061157864 0.046006806 0.03130257 0.029318942 0.38950947 0.09299602 -0.11563983 0.17931053 0.18448752 0.00070961646 0.18643056 -0.337676 -0.22461809 0.025639173 -0.71142894 0.19860607 -0.2753644 -0.13403632 -0.08066189 -0.59453857 0.2554584 -0.38048977 -0.16623035 -0.15603007 -0.11637662 -0.5281383 0.2630606 -0.045164645 0.093242645 0.31408587 -0.3814254 -0.3094247 0.011755546 -0.15477955 0.42207012 0.31773412 0.39769688 0.02706978 0.094753034 0.7438179 0.23669952 -0.27875674 -0.15638998 -0.3814067 -0.15050568 -0.1823877 0.2525511 0.084601015 -0.14994471 0.10755126 0.36590278 -0.0297163 -0.298058 -0.3177764 0.090359025 0.20849404 0.4489304 -0.47806057 0.029334627 0.14689401 0.006433704 -0.08151208 -0.11153499 -0.11388796 -0.392212 -0.08888531 -0.28719234 0.19274722 -0.048938274 -0.13013518 -0.34604204 0.2811018 0.10362855 0.41672152 0.09842667 -0.17514129 -0.03318354 0.02615743 0.16309015
432 0.25818306 -0.022247253 0.05613625 -0.024687273 0.2090499 -0.19322066 -0.095166415 -0.28189224 0.2292029 -0.056822874 -0.36517417 -0.11284139 -0.110702455 -0.3982563 0.22873458 -0.014199651 0.24329764 0.20594594 -0.012299543 -0.114794225 -0.14062114 0.16378571 0.12757236 0.23472565 -0.037949663 0.29105622 -0.1339932 -0.049300525 -0.26379853 -0.016536862 -0.116933286 -0.09287536 -0.18096969 -0.27683517 0.49168345 -0.21841116 0.1532127 0.0010865038 0.18056588 -0.08667464 0.2613057 0.09980702 0.16084193 -0.21595809 0.21797101 -0.20878136 0.21898739 -0.18837541 -0.39874014 0.24761678 -0.24362884 0.036829215 0.036590498 0.39620745 0.02759947 -0.17385401 -0.27530628 -0.05510024 0.017723126 -0.23874848 -0.0630277 0.016661005 0.17970031 -0.4569535 0.11173004 -0.33024922 -0.33434063 -0.08309044 0.0074979304 0.33514884 -0.020309227 -0.23923135 0.21611272 -0.2887153 -0.13519433 0.37706956 0.36483613 -0.2151813 0.36367902 -0.10742486 -0.12432336 -0.05269319 -0.0012467152 -0.048612207 0.33663073 0.5617242 0.14020497 0.015597402 0.33169112 0.2243004 -0.2228807 -0.38139105 0.20391227 0.039962705 -0.2137531 0.18983293 -0.047253706 -0.09046965 -0.23336683 0.25154287 -0.23793875 0.042248722 -0.38836178 -0.21868144 -0.012975245 -0.07061369 0.1159485 -0.11374466 0.0029604046 0.29760695 0.25105864 0.005117645 -0.28903168 -0.5077873 0.16261974 0.060675994 0.24298021 0.14337222 -0.10952952 -0.32038543 0.27232137 -0.15905042 0.87491447 -0.3708911 0.2053362 0.07126842 0.093177244 0.008237484
506 0.353622 0.09921793 -0.08423195 -0.11152643 0.23198889 -0.22234848 0.03721758 -0.27603734 0.34100083 -0.3490333 0.16003303 -0.0622396 -0.23797311 0.14985183 0.33946162 -0.09700937 0.4175826 -0.29111966 -0.14038858 -0.17836408 -0.16954672 -0.23556656 -0.2544892 0.14117137 -0.05878204 0.18511733 0.079781674 -0.20696115 -0.3045852 -0.07228484 -0.07802716 0.18549474 -0.053304397 -0.14687628 -0.023368463 -0.1025012 0.04366582 0.47020224 0.010812791 -0.38685754 0.0150994 -0.2961717 0.16667189 0.05426935 0.21451487 0.14048703 -0.20212737 -0.25411615 0.2773581 0.20429489 0.17347991 0.2269144 -0.27051258 0.517653 0.47442743 -0.07206284 -0.06053905 0.31507903 -0.14569888 0.40240672 -0.35407442 -0.3969732 -0.03042482 -0.40336192 0.45511124 0.13278677 -0.5435311 0.27880144 -0.1453215 0.5570729 -0.33863983 -0.38281396 -0.07171595 0.18758667 -0.8923267 0.13863002 0.55026054 0.23661901 0.13774303 0.066463865 -0.29782337 -0.117064275 0.2778848 0.20720941 0.37764663 0.045568272 -0.10517053 -0.31216955 0.7101591 0.04505555 -0.107498266 0.15882812 -0.28629464 -0.11234619 -0.32279712 0.3958414 0.27845833 -0.2723543 -0.041655306 0.24181227 0.2570247 0.05440861 -0.2781695 0.1559093 -0.22648448 -0.114355125 -0.056903858 -0.17639066 -0.119724944 -0.14267714 -0.12718576 0.11996709 -0.23896724 0.07135962 0.52833694 -0.20462167 0.15913986 0.023231829 -0.31133097 -0.69276196 0.396648 -0.2311367 0.4314025 0.020136165 -0.20229785 -0.12314384 -0.07881857 0.071503915
549 0.0012931159 0.41221076 0.042079337 -0.21677512 -0.077550955 -0.1844733 0.086028986 0.12564927 -0.26798046 -0.2631918 0.2672731 -0.02743355 0.46449304 0.27334312 0.17516911 0.39255992 0.015560788 0.22981235 -0.24419263 -0.09013826 0.46344143 -0.35401553 0.047216713 -0.27618912 -0.14716962 -0.11965177 -0.03539491 0.046685643 -0.047067672 0.19315477 -0.41485614 -0.026818195 -0.24769634 -0.087790795 0.3978935 -0.09773565 -0.14942127 0.1992989 0.10795737 -0.026206149 -0.22545032 -0.1343981 0.053794887 -0.40710527 -0.24706508 -0.021532882 -0.015338915 -0.44956818 0.10376814 0.14690755 -0.091958 0.12299739 -0.045215946 0.000631571 0.092021696 0.026255568 0.06935286 0.20540337 -0.33543763 -0.098709516 0.26637518 0.054161083 0.078813426 0.12435534 -0.4348951 -0.42645425 -0.1741139 -0.012398611 -0.15862168 0.27540073 0.1761604 -0.00819337 -0.13562499 -0.12070322 -0.23015754 -0.38189033 -0.021769833 0.18517569 -0.04679867 0.20011064 -0.0012104708 0.097340845 0.0062868786 0.18437026 0.7386036 0.37769595 0.15579952 -0.11443405 -0.015487741 -0.04387061 -0.19240582 -0.2510423 -0.46963257 0.116795026 0.6266972 0.069108956 0.066735566 0.0011115477 0.013190016 -0.042986743 -0.46428588 -0.06512158 0.0135685885 -0.32293484 -0.18367349 0.38265792 0.006573569 0.17148957 -0.36542922 -0.15100096 0.20548046 -0.019414717 0.29851058 -0.35799316 -0.27418193 0.1621221 -0.33966956 0.09158735 0.056105725 -0.14201178 0.24510841 0.013073106 0.08445252 -0.20975944 -0.09365807 0.08927839 0.33719194 -0.16724429
