691 128
2020 -0.09480922 -0.17427169 -0.089440934 -0.1389344 0.022718174 -0.25238594 0.1493148 0.03885006 0.024999324 -0.024034483 0.06016673 -0.31642064 -0.26695994 -0.14407559 -0.042283956 0.25390142 -0.16224825 0.40023097 -0.4008777 0.2295251 -0.08568051 0.015148956 -0.101830386 -0.2089274 -0.21342158 0.16532335 -0.14553846 -0.11179483 -0.19978453 -0.134688 -0.3211032 0.03913943 -0.16552415 0.12022495 -0.060332566 0.29381952 0.04942137 -0.08696556 0.059559423 0.09423948 0.021459373 -0.44850165 -0.11470087 -0.100627765 0.15563758 0.24085306 0.0034997517 -0.061261 0.03549268 0.13577148 0.077042826 0.047038637 -0.2207361 0.046021644 0.31127307 -0.1666136 -0.22030896 -0.037341174 -0.11105777 -0.017798 0.15357202 0.041470397 0.14258221 -0.46466485 -0.05109044 -0.11528989 -0.2978216 0.06205359 -0.05827381 -0.017635928 0.035274908 -0.36229128 -0.027603224 0.023432253 -0.3553935 -0.027383763 0.25631067 -0.014985457 0.06440023 -0.032578498 0.016049992 0.13951918 0.051154323 -0.37762815 0.2118224 0.14295648 -0.25727195 -0.06277582 0.04345255 0.19020078 0.110518 0.23689154 0.22225583 -0.47038016 0.13801566 -0.17558147 0.0069151833 -0.115557164 -0.00023752358 -0.03048409 -0.07596637 0.06190592 0.19612314 0.27787143 -0.23525915 0.038844906 -0.12662147 0.027242284 0.048978534 -0.026318131 0.14863019 -0.31423166 0.21748653 -0.16152887 0.017276447 -0.16716646 0.49359545 -0.3611932 0.09353922 -0.029647494 0.1242431 0.08349335 0.09535937 -0.016126521 0.064543016 -0.3497017 -0.08873257 0.2765692
2123 -0.20004708 -0.08594445 -0.17449674 -0.15385768 0.16063204 -0.2579665 0.12288716 -0.11238295 -0.07690053 0.15324144 0.12122939 -0.3676346 -0.60619694 -0.16961196 -0.049235184 0.32634655 -0.23016731 0.38078168 -0.40745255 0.23750034 -0.25350204 0.006590806 -0.16571961 -0.36642867 -0.32918352 0.29395092 0.044869944 -0.12695964 -0.18604933 -0.09216975 -0.45130837 0.08653669 -0.11191974 0.394903 -0.18052149 0.36695823 0.22853713 -0.17121574 -0.0293337 0.15489455 0.014077835 -0.48393494 -0.098780416 -0.20935428 0.088079736 0.40448138 0.07392527 -0.19115306 0.045497384 0.34085426 0.17800964 0.20921724 -0.17890042 0.05292091 0.38580775 -0.15460154 -0.42391255 0.048691656 -0.10219859 0.12111911 0.20995496 -0.059584696 0.13360646 -0.45772198 -0.0844286 -0.09338239 -0.20603727 -0.14209303 -0.27079526 0.017040217 -0.061445106 -0.32948282 0.048158124 0.120064415 -0.45832828 0.10584699 0.17257237 0.17057775 -0.067037344 0.005686292 0.08074823 0.055167686 0.21991211 -0.555325 0.2601215 0.058971204 -0.34620968 -0.050326284 0.1886831 0.19320652 0.1741172 0.15991841 0.28175393 -0.5093151 -0.02320511 -0.17904812 -0.19164106 -0.16459869 0.23309834 0.014080655 0.067834266 -0.0027337414 0.24576117 0.40956566 -0.32860214 0.12805268 -0.06583025 0.05704628 -0.022393052 0.02943586 0.23084004 -0.36710355 0.20839266 -0.1420895 -0.047279615 -0.19483033 0.5407282 -0.49268204 0.30405706 0.014606168 0.10688264 0.10689093 0.0846534 -0.053742774 0.13640532 -0.3390997 -0.011906063 0.23777093
2021 -0.051623423 -0.20281981 -0.11251777 -0.11721339 0.019259041 -0.28946432 0.13770075 0.055008292 0.018647948 -0.06744699 0.014825417 -0.32276103 -0.22278267 -0.097704194 -0.007316761 0.1958008 -0.11791144 0.4083447 -0.40426698 0.20658779 -0.03518948 0.020276343 -0.0862843 -0.16586882 -0.20613565 0.1761004 -0.19379239 -0.112403676 -0.2256031 -0.16012414 -0.28415206 0.040086586 -0.1497892 0.043160778 -0.07289354 0.25161758 0.0050397124 -0.048971478 0.09605629 0.06829814 -0.03210315 -0.47349018 -0.13811645 -0.07124822 0.18211804 0.20046492 0.0011992616 -0.055725098 0.013772678 0.15597753 0.046415105 0.049132545 -0.21389659 0.07153159 0.28778124 -0.15753613 -0.21447417 -0.07646051 -0.14534031 -0.021810161 0.11217352 0.0569843 0.11247553 -0.4673336 -0.046561718 -0.092341125 -0.28874633 0.10870668 -0.029086675 -0.016100222 0.08365568 -0.38464278 -0.025653519 0.01996894 -0.33257076 -0.042285554 0.24505346 -0.030923892 0.09328348 -0.018737836 0.010750688 0.19126022 0.032312486 -0.30987325 0.1516014 0.13390136 -0.2633274 -0.044611722 0.018833775 0.18028274 0.097092256 0.23364812 0.2259835 -0.46051106 0.20012437 -0.181061 -0.005754887 -0.10916181 -0.054216005 -0.02769727 -0.1111358 0.053783383 0.19988114 0.2668944 -0.20805041 0.013622418 -0.13424733 -0.003805561 0.09667539 -0.04005822 0.12314575 -0.33397698 0.20755582 -0.14219648 -0.002772699 -0.13861905 0.48474082 -0.2980039 0.1100962 0.0009141293 0.19030935 0.04342252 0.09513653 -0.016487507 0.07013231 -0.35318404 -0.115207165 0.27426413
1908 0.0029464222 -0.18024343 -0.103130735 -0.015465843 0.0473765 -0.27297616 0.028727306 0.06140163 0.040298976 -0.09898123 -0.14122288 -0.23603404 -0.0998312 0.06627124 0.04826587 0.0164882 0.062458087 0.22123776 -0.24452884 0.11795459 0.06817532 0.059581365 -0.007079548 -0.03298863 -0.12131645 0.16998509 -0.1470746 -0.049162053 -0.18473954 -0.19853073 -0.07784562 0.03430812 -0.04669966 -0.13631302 -0.06693699 0.040102538 -0.07767081 -0.004760622 0.12143277 -0.0003725518 -0.23240966 -0.31843752 -0.1484208 -0.025931006 0.11872654 0.02108621 0.08667716 -0.060428947 0.014467926 0.1944795 -0.02659906 -8.4705185e-05 -0.10374715 0.14523746 0.098503396 -0.05447834 -0.102078944 -0.17267181 -0.12866552 0.032586996 -0.023927776 0.023652434 -0.020079968 -0.18220632 -0.054675367 0.03742145 -0.09328742 0.11389459 0.024280645 0.058804516 0.14456823 -0.24726804 -0.012357783 0.04090342 -0.12376832 -0.03729793 0.10687029 -0.078485064 0.14442216 0.018666252 -0.041220523 0.25282174 0.041539807 -0.011876 -0.049144067 0.08992091 -0.16176638 0.008017192 -0.034145728 0.051778015 0.027300196 0.124491714 0.15602162 -0.26470912 0.2453195 -0.104847915 -0.0273181 -0.036645573 -0.13957374 -0.026007742 -0.12224259 -0.034708504 0.13792849 0.15149753 -0.03137663 -0.04974501 -0.095249414 -0.101709135 0.1463644 -0.0041784123 0.04607403 -0.22769803 0.09885144 -0.013522837 -0.048320096 -0.007733332 0.25923777 -0.011545656 0.11321254 0.038084812 0.20315829 -0.06335306 0.06797908 -0.030606134 0.015485553 -0.20180637 -0.15813148 0.10159828
2022 -0.024997005 -0.24271856 -0.14296013 -0.116227016 0.023530172 -0.33063442 0.13273486 0.058241658 0.016852101 -0.102801725 -0.03245454 -0.33824927 -0.20936675 -0.070631936 0.014649939 0.16557144 -0.09448225 0.42236385 -0.4331002 0.20847611 -0.009199151 0.025253283 -0.07653769 -0.15355854 -0.20957676 0.19984378 -0.22728403 -0.11834458 -0.26310974 -0.1972206 -0.26592743 0.037610922 -0.14835668 -0.010338865 -0.09351616 0.23134261 -0.03793907 -0.025714515 0.12269125 0.061967004 -0.08288217 -0.51585054 -0.1631893 -0.06116223 0.19157168 0.18024291 0.017112935 -0.06712892 0.01211418 0.197384 0.027204787 0.05660048 -0.22963133 0.100263156 0.2865358 -0.15541114 -0.22094837 -0.12923047 -0.17790012 -0.014925641 0.10170995 0.065559916 0.08130648 -0.48520833 -0.05717347 -0.07159656 -0.28805473 0.14344072 -0.009120088 -0.011970254 0.12920626 -0.41297147 -0.016148977 0.035944536 -0.32899874 -0.046673115 0.23401873 -0.04826982 0.13160111 -0.007018333 0.0078057353 0.24983212 0.030775234 -0.28395197 0.109037615 0.14419691 -0.29486665 -0.036166444 0.010080652 0.18506473 0.098630704 0.23691794 0.2480784 -0.48004815 0.2563211 -0.19058008 -0.023197355 -0.11281144 -0.09237213 -0.02123546 -0.13255478 0.043233395 0.22444095 0.2898086 -0.19944566 -0.011982507 -0.14895971 -0.038894664 0.12795976 -0.047663007 0.121439196 -0.36774492 0.20941718 -0.14445966 -0.025704311 -0.13448054 0.48884636 -0.25914067 0.12584822 0.01674924 0.22965914 0.035494164 0.09710565 -0.03212921 0.07434487 -0.37169617 -0.14280179 0.2741859
2054 -0.10559164 -0.15303549 -0.12558989 -0.13973586 0.070483126 -0.27092624 0.13145895 -0.0030764593 -0.019827673 0.01961625 0.0514399 -0.34254593 -0.36416838 -0.12212494 -0.024356544 0.25646308 -0.16405137 0.39319918 -0.40041336 0.21711732 -0.11741669 0.020818979 -0.11818041 -0.22668612 -0.24854195 0.2204451 -0.09773501 -0.11552487 -0.20892672 -0.12591206 -0.32928252 0.061064452 -0.13571072 0.17752545 -0.10896168 0.29575044 0.09315115 -0.09660403 0.043209583 0.10324286 -0.021187687 -0.46466005 -0.12635495 -0.1169717 0.15461689 0.27492908 0.030959005 -0.11274365 0.030218374 0.21649028 0.09463074 0.09955316 -0.20693928 0.067137964 0.32306266 -0.16230495 -0.29853728 -0.018432176 -0.124457106 0.026911886 0.14669272 0.009813361 0.12264065 -0.45357147 -0.054272167 -0.09169127 -0.25481063 0.016482743 -0.12199066 0.0067919684 0.017569652 -0.34605718 0.0036287503 0.05646794 -0.37809783 0.012574403 0.22026785 0.042274278 0.025025945 -0.017402096 0.044733576 0.13381985 0.099527486 -0.38639417 0.19755484 0.109832175 -0.28221565 -0.052799065 0.07083243 0.17662324 0.13036329 0.20172161 0.23992749 -0.4693849 0.11170096 -0.18011673 -0.06691943 -0.12928808 0.051985413 -0.013995193 -0.041279126 0.032984793 0.20909269 0.30707955 -0.24158631 0.060088117 -0.10214179 0.02908564 0.049386054 -0.014484499 0.15814483 -0.33771402 0.20840743 -0.13796833 -0.011305653 -0.16172455 0.5043162 -0.37384298 0.17954563 0.0018571139 0.16135916 0.062029455 0.08980683 -0.021253262 0.08770778 -0.34345213 -0.07404194 0.25893572
2015 -0.0012383192 -0.17875554 -0.08663991 -0.02831261 0.057179168 -0.2566676 0.044256873 0.052996054 0.05622176 -0.082752466 -0.10572844 -0.2241271 -0.1089249 0.012724688 0.011979615 0.03651519 0.010953066 0.22622998 -0.2511825 0.13326275 0.031965237 0.04520418 -0.019683897 -0.061157554 -0.119540684 0.15081708 -0.13935165 -0.054454606 -0.17675444 -0.17537995 -0.12549645 0.0387633 -0.06787149 -0.07527912 -0.064932756 0.07322107 -0.06360585 0.0048306477 0.1220701 0.02833463 -0.15892005 -0.30846903 -0.115397304 -0.031925015 0.09435124 0.060399033 0.0517676 -0.03560625 0.033356305 0.17655265 -0.016469194 0.00973261 -0.11690174 0.12369197 0.1284869 -0.06189012 -0.09304554 -0.1575326 -0.10528978 0.030660957 0.008819189 0.03271186 -0.014189628 -0.22874136 -0.06801231 0.011911603 -0.12683977 0.10760039 0.01961343 0.036433406 0.12734897 -0.25573897 -0.014440746 0.032926477 -0.15855047 -0.038735624 0.11845878 -0.04402386 0.12495127 0.011610473 -0.025049457 0.21610901 0.038680665 -0.09016709 -0.005609878 0.08001174 -0.17680824 -0.009226385 -0.006368392 0.08459361 0.051986944 0.14415616 0.16825762 -0.27417034 0.19966589 -0.09075917 -0.020130375 -0.045731056 -0.09645151 -0.012241047 -0.10567342 -0.0066425377 0.13546927 0.16709961 -0.07735265 -0.046906576 -0.11237464 -0.08253093 0.13184938 -0.016050985 0.050819684 -0.21379514 0.09363808 -0.05067462 -0.047350198 -0.033057526 0.25594652 -0.058324438 0.08989722 0.02530488 0.1462511 -0.010051456 0.058433603 -0.05049046 0.015456798 -0.19415042 -0.15195319 0.11465237
2014 0.011371527 -0.18261555 -0.093214944 -0.025134822 0.050097946 -0.25964722 0.048344612 0.06410676 0.059442606 -0.09600045 -0.11427341 -0.22925639 -0.09025397 0.0261972 0.02431594 0.038062092 0.021880563 0.22503603 -0.25097284 0.1340156 0.04304975 0.05173168 -0.018289251 -0.051093094 -0.114744924 0.15164916 -0.14911658 -0.05916732 -0.17840035 -0.18483889 -0.10741507 0.032575853 -0.068736434 -0.091662504 -0.06347467 0.06610999 -0.068941124 0.009483282 0.12018793 0.024662085 -0.1615128 -0.31296584 -0.11204395 -0.0203178 0.09779625 0.051016483 0.05084362 -0.029884445 0.030880734 0.16238853 -0.02700253 0.0004361733 -0.11281893 0.12632675 0.118368365 -0.06399458 -0.086208165 -0.16362329 -0.10638382 0.027108645 -0.00045950158 0.031873472 -0.011692664 -0.22192863 -0.062893644 0.007725069 -0.12452115 0.12162751 0.023611644 0.034234207 0.13006191 -0.2527189 -0.012629132 0.03333526 -0.14607683 -0.046289675 0.12384531 -0.062685326 0.13330819 0.008390584 -0.026966967 0.22992387 0.04015713 -0.079078436 -0.020841539 0.094429314 -0.17322315 -0.011366065 -0.0182277 0.07856422 0.051508054 0.15219155 0.16732627 -0.2768184 0.21817315 -0.08866465 -0.0046935915 -0.04972122 -0.116820805 -0.015334672 -0.12255035 -0.009959287 0.13047169 0.16136736 -0.07008262 -0.050882544 -0.11357188 -0.090131074 0.12725946 -0.013505639 0.054004263 -0.21699296 0.09453628 -0.047620956 -0.044999007 -0.02956762 0.26155835 -0.051963422 0.08157069 0.029304031 0.15337995 -0.012757048 0.06310604 -0.04019236 0.011929662 -0.19278227 -0.15946873 0.12045674
1977 0.0050487686 -0.1930772 -0.119495444 -0.013081241 0.059819102 -0.2853084 0.03312595 0.05167432 0.035809565 -0.098032124 -0.1528751 -0.2500407 -0.11409987 0.066549644 0.04375745 0.013040764 0.062323786 0.23420957 -0.26798677 0.12750347 0.060781207 0.07210753 -0.012271308 -0.043022227 -0.13241245 0.19224963 -0.15229559 -0.0512803 -0.2092157 -0.2122817 -0.08251581 0.033896226 -0.049757045 -0.13738476 -0.07952714 0.049276017 -0.084304824 -0.004963828 0.1410181 0.0042825425 -0.24374971 -0.35529673 -0.14278324 -0.024598435 0.11359082 0.038472895 0.088638574 -0.06691368 0.017720299 0.2242697 -0.02854409 0.012082428 -0.11276846 0.15467274 0.10875078 -0.063677154 -0.1191281 -0.18651767 -0.14197503 0.033552747 -0.012844646 0.02586617 -0.031499192 -0.20472829 -0.06174792 0.042223413 -0.10815488 0.12384489 0.010785778 0.056319635 0.1548976 -0.27968222 -0.0057043983 0.043932073 -0.13807158 -0.031556536 0.11794666 -0.07897598 0.14983058 0.020260207 -0.030871548 0.27369213 0.053273674 -0.030010011 -0.059697755 0.08314438 -0.17804436 -2.4654059e-05 -0.02504058 0.051194016 0.033850882 0.13595048 0.18301576 -0.28482446 0.26363248 -0.10533315 -0.036877584 -0.055937707 -0.14456469 -0.021146374 -0.13894935 -0.041658845 0.1517911 0.16640598 -0.052869447 -0.050779656 -0.11129628 -0.11215133 0.1493011 -0.009676075 0.054443456 -0.249083 0.108423665 -0.017686527 -0.065342896 -0.012298511 0.27893993 -0.026150681 0.13839181 0.04586336 0.20679674 -0.050063968 0.068377815 -0.042032093 0.02039563 -0.19751395 -0.16617498 0.10831443
1922 0.035242252 -0.22612157 -0.069032125 -0.1326695 -0.0875187 -0.25128427 0.1472744 0.10514183 -0.026170466 -0.13575952 0.010179171 -0.3042865 -0.06744716 -0.023702048 0.08233155 0.14308402 -0.078642145 0.4294759 -0.3640709 0.13861583 0.051871896 0.02276666 -0.04270503 0.007868009 -0.12271743 0.13582122 -0.2596446 -0.11258076 -0.22224993 -0.12801036 -0.15241547 0.036006067 -0.15667485 -0.11707819 -0.04061156 0.24754791 -0.08786598 0.020774037 0.13333912 -0.00825546 -0.028032213 -0.40358528 -0.15856417 0.0035286888 0.2588916 0.10445312 -0.04448134 -0.015507884 -0.05309002 0.03476245 0.0003088698 0.017114084 -0.21928339 0.056975167 0.267089 -0.16578463 -0.19944228 -0.073994294 -0.19046228 -0.12639047 0.046332635 0.12201089 0.1079599 -0.47502235 0.05762639 -0.09202672 -0.2837648 0.21568136 0.040197022 -0.026724514 0.13334131 -0.33319294 -0.021583125 -0.03729393 -0.26759312 -0.095391266 0.20499471 -0.13816307 0.08610413 -0.0470481 0.0133512225 0.23225431 -0.089260146 -0.14604919 0.117824726 0.19731535 -0.22179818 -0.043613903 -0.074863985 0.17892872 0.0720447 0.21139735 0.14578274 -0.37348816 0.2779599 -0.18311022 0.060537662 -0.116050035 -0.21621668 -0.010785066 -0.1383513 0.10436412 0.14167511 0.18017296 -0.12799454 0.028994054 -0.11584547 0.013083173 0.12052101 -0.09278475 0.04485951 -0.30727124 0.16821684 -0.09587545 -0.0045221765 -0.10936512 0.49416727 -0.20033588 0.041386705 0.019885017 0.28533578 -0.03484068 0.085320525 0.014964934 0.0443552 -0.34142345 -0.11714928 0.30244866
2122 -0.12683955 -0.13929255 -0.13684599 -0.12608741 0.094932675 -0.2661434 0.122581005 -0.030973405 -0.019343106 0.043641552 0.062455464 -0.33673924 -0.40752006 -0.124611825 -0.030452723 0.24832089 -0.15955046 0.37732312 -0.388989 0.21039324 -0.13955095 0.014409868 -0.119821124 -0.25473052 -0.26026258 0.23783164 -0.056198787 -0.114297844 -0.19626437 -0.12542756 -0.34335837 0.06409498 -0.11926073 0.21591063 -0.1272029 0.29029903 0.11682732 -0.11419492 0.03171549 0.106309995 -0.028938096 -0.45586097 -0.111385 -0.1428662 0.12783138 0.28668028 0.04035198 -0.12406006 0.036596116 0.24697027 0.11267248 0.115481354 -0.19030917 0.06270458 0.31752944 -0.15288144 -0.3111289 -0.017771196 -0.11892135 0.050877307 0.15609695 -0.011036827 0.112471275 -0.4278621 -0.06895877 -0.08723529 -0.23003642 -0.015957901 -0.14769334 0.006121936 0.009087399 -0.34133872 0.015583613 0.07118766 -0.3812466 0.030059889 0.19404796 0.06980796 0.015916564 -0.0075634546 0.044132546 0.12896118 0.1375314 -0.40854862 0.19379783 0.09706644 -0.2911607 -0.05067214 0.09955328 0.1712572 0.13801764 0.18293117 0.24405947 -0.46216354 0.08796205 -0.1760716 -0.0969232 -0.13239978 0.089276165 -0.0016503758 -0.017201597 0.01968127 0.21976869 0.32834044 -0.24636512 0.06781454 -0.08541787 0.023394827 0.039305948 0.008367552 0.17195462 -0.3278832 0.20051385 -0.12457982 -0.03075561 -0.15786234 0.48957857 -0.37649772 0.21352814 0.0041861557 0.13455951 0.06941061 0.088569924 -0.028973226 0.09500143 -0.32766488 -0.06041182 0.23153137
2019 0.0022379966 -0.25352356 -0.17342563 -0.06986362 0.07202338 -0.35373917 0.07562755 0.055943117 0.02718254 -0.119153135 -0.12097471 -0.313793 -0.18927537 -0.0011226522 0.028846165 0.055426676 -0.014347773 0.35367417 -0.38503793 0.17761612 0.034211006 0.03142583 -0.04488733 -0.12532872 -0.19111866 0.21398316 -0.2255282 -0.10048641 -0.2594775 -0.24084769 -0.20495881 0.03691338 -0.0973967 -0.0750106 -0.13015193 0.12827805 -0.07994685 0.0065319054 0.14936334 0.027507085 -0.18284017 -0.48490968 -0.17242825 -0.05186146 0.16368946 0.11669907 0.056710083 -0.076197416 0.011450175 0.2649403 -0.005862819 0.05776998 -0.1835468 0.15008028 0.20478652 -0.109314255 -0.18497705 -0.20128044 -0.18687135 0.03321646 0.03478962 0.040671825 0.0026773955 -0.39238927 -0.07664841 -0.0077258097 -0.21288046 0.15086885 0.013386361 0.016412275 0.18650255 -0.39625415 -0.0064460686 0.060909655 -0.26410544 -0.03196046 0.16822301 -0.038928192 0.1605692 0.022898346 -0.0019691058 0.30317196 0.04249626 -0.17224243 0.007014815 0.095570534 -0.28626177 0.0027883356 0.010315476 0.13585165 0.069755666 0.20033784 0.25751707 -0.4186499 0.2918758 -0.16644798 -0.061133437 -0.08894754 -0.11510056 -0.016181288 -0.15009543 -0.0058552544 0.22398587 0.26699722 -0.14507948 -0.04847446 -0.14442706 -0.110683516 0.17411862 -0.04044127 0.08827793 -0.35044637 0.15372668 -0.1080076 -0.06642576 -0.078814894 0.39203477 -0.123512335 0.15756774 0.051572435 0.24398002 -0.00088709506 0.097012125 -0.050640997 0.06662369 -0.3107634 -0.18299887 0.19631384
1921 0.027861837 -0.25132918 -0.10208677 -0.12209024 -0.045608997 -0.30055544 0.13919128 0.09258218 -0.02031009 -0.13127708 -0.029482784 -0.33535245 -0.107063785 -0.01188321 0.07722111 0.1398235 -0.06480211 0.43896163 -0.39852405 0.15506853 0.049798194 0.031420674 -0.04629299 -0.022851184 -0.14545804 0.17267987 -0.264728 -0.11449523 -0.24396682 -0.17010391 -0.17115833 0.04914536 -0.15057322 -0.11595088 -0.07142262 0.23200364 -0.088132165 0.01167934 0.14241059 0.004230706 -0.08006228 -0.45821464 -0.1786059 -0.009892778 0.26055896 0.11592422 -0.020860266 -0.04419264 -0.04770217 0.10414408 0.0008649194 0.026408372 -0.22984776 0.08536432 0.2733339 -0.16206385 -0.22278285 -0.1165934 -0.20643091 -0.09341297 0.04935516 0.107401684 0.08591138 -0.4839147 0.024557376 -0.07546291 -0.27581343 0.21693368 0.03228747 -0.008394684 0.15344524 -0.375946 -0.012871841 -0.01127209 -0.28912127 -0.08350174 0.20550251 -0.12273368 0.10640843 -0.030844985 0.016081447 0.27519822 -0.05751176 -0.16259441 0.09803005 0.18651511 -0.24985898 -0.035160776 -0.061231293 0.17837173 0.08124497 0.21938385 0.17859124 -0.40732086 0.30846322 -0.20110548 0.027931446 -0.11505744 -0.20281024 -0.00843508 -0.14753938 0.08375278 0.17020132 0.21997724 -0.1417452 0.014864284 -0.13362552 -0.017475534 0.14635195 -0.082529485 0.05679042 -0.3405731 0.17467062 -0.098418966 -0.027487475 -0.107038446 0.5060489 -0.19720398 0.08559999 0.03401078 0.31056726 -0.03902918 0.098794065 -0.0017250587 0.047960274 -0.35990417 -0.14086194 0.29165784
2353 0.091809615 -0.20830873 -0.36066794 -0.045019597 0.14728777 -0.286925 -0.04687456 -0.11094041 -0.21288821 -0.026161928 -0.21182689 -0.22104022 -0.28074396 0.119899586 0.18754776 -0.12958165 0.09655375 0.18254414 -0.21906807 0.016875723 -0.011122893 0.0054252967 -0.001708262 -0.091492616 -0.18785878 0.26226455 -0.16638757 -0.036031596 -0.2489506 -0.136835 -0.0956413 0.08656499 0.0033987437 -0.051806048 -0.27188036 0.04758057 -0.08572028 0.10813178 0.16807535 0.039108634 -0.18922499 -0.4229357 -0.22509909 0.010974654 0.1312464 0.10661137 0.056731105 -0.15942869 -0.06959861 0.3990325 -0.077216946 0.28650722 -0.12106066 0.1978608 0.1306587 -0.034832366 -0.33915335 -0.1577317 -0.23388614 0.1580605 -0.08810896 -0.020617858 -0.15325706 -0.35373807 0.0030331723 0.08988191 -0.004890616 0.045457844 -0.097832724 -0.048336025 0.15878351 -0.26100415 0.15938024 0.1656027 -0.18922216 0.112820484 -0.028473772 0.13616131 0.029799592 0.13220322 0.074632205 0.22385854 0.030040862 -0.057347834 -0.16871408 -0.089524746 -0.4173289 0.12380153 0.16776375 0.043123018 0.019949686 0.015025876 0.2513434 -0.26482573 0.27438945 -0.08095622 -0.35987547 -0.15132254 0.013624094 0.038416278 -0.061616037 -0.05089435 0.27731028 0.27653596 -0.113917805 -0.00711676 -0.06720318 -0.21356249 0.18080395 -0.094760425 0.05799427 -0.38459998 0.034207366 -0.047424283 -0.20237504 -0.017662013 0.17825174 0.024395958 0.32899004 0.1792491 0.40106612 -0.08042571 0.104966536 -0.062549375 0.13879842 -0.20465738 -0.07436398 0.08572858
2088 -0.11663422 -0.14638278 -0.15217237 -0.1323688 0.09690788 -0.2789816 0.119762324 -0.026090542 -0.031873412 0.04132903 0.053521745 -0.34875363 -0.42411342 -0.11391581 -0.02235778 0.24959597 -0.16236657 0.38907003 -0.40735728 0.21857354 -0.14066502 0.020824423 -0.12344308 -0.25159273 -0.26244983 0.25018153 -0.066654004 -0.1156038 -0.21785304 -0.1358948 -0.340971 0.069386065 -0.11742081 0.2057997 -0.1341464 0.3000942 0.10759992 -0.11243763 0.042772897 0.10530173 -0.038689982 -0.48543534 -0.12545937 -0.13323842 0.14074583 0.29221103 0.046410795 -0.14069068 0.030246576 0.26439595 0.10728238 0.1293733 -0.19507036 0.07539546 0.33346575 -0.1510461 -0.33385774 -0.02466224 -0.1294234 0.053316664 0.14657277 -0.0047642495 0.1103778 -0.44626543 -0.063738465 -0.07843046 -0.23353598 -0.007119221 -0.1482486 0.009456729 0.024291815 -0.35055444 0.018092392 0.07581447 -0.39191005 0.039323892 0.19650573 0.07057199 0.019087583 -0.009585738 0.050622866 0.1407063 0.13561425 -0.41094238 0.1894481 0.100160465 -0.31280822 -0.04261204 0.09977014 0.18000406 0.13844569 0.19111712 0.2512871 -0.47948742 0.10212657 -0.18539284 -0.10686303 -0.14512214 0.0853723 -0.0016384355 -0.022174405 0.015605986 0.2324968 0.33551326 -0.25543407 0.067390054 -0.0885902 0.020751178 0.046089765 -0.0015725204 0.17151569 -0.35377672 0.20526916 -0.13487293 -0.034215804 -0.15608087 0.51031256 -0.37715554 0.2270758 0.02162953 0.1701545 0.055621244 0.09129684 -0.03052618 0.102450386 -0.34255272 -0.067674525 0.24201615
1954 0.0062443744 -0.2281557 -0.12447278 -0.12397158 -0.010391535 -0.29431787 0.12245738 0.055788558 -0.03070368 -0.0985056 -0.023744885 -0.33665484 -0.17367652 -0.016264718 0.06613523 0.14255597 -0.065580025 0.41517565 -0.38546506 0.15750326 0.012913465 0.031683218 -0.059171543 -0.06640286 -0.17203721 0.19360334 -0.22204168 -0.103947416 -0.2406205 -0.15948018 -0.20092179 0.050917488 -0.13363929 -0.04676797 -0.09373262 0.23654895 -0.05162772 -0.0069136415 0.1236045 0.021634147 -0.08158578 -0.45567372 -0.16949491 -0.032347888 0.23177345 0.14526086 -0.00034157006 -0.064666584 -0.02850785 0.14737745 0.011679156 0.061075334 -0.2150377 0.087096706 0.27344242 -0.15046227 -0.24748796 -0.096587345 -0.1910459 -0.049037993 0.062169723 0.076822445 0.076259084 -0.46213213 0.011793299 -0.06282799 -0.24956805 0.16088368 -0.00938532 -0.0077697607 0.13079797 -0.36229026 0.00063801836 0.019622121 -0.29467782 -0.053489145 0.19518234 -0.06881873 0.08438411 -0.021436792 0.028882192 0.24251258 -0.015928816 -0.19558147 0.09656685 0.15037248 -0.27158168 -0.025097301 -0.015857182 0.1670256 0.09020557 0.20336273 0.19372532 -0.41474018 0.26879236 -0.18752342 -0.014928266 -0.12546636 -0.14240874 -0.001853646 -0.11570938 0.063554585 0.18593742 0.2357673 -0.15744098 0.018560553 -0.11588717 -0.02416849 0.13414772 -0.0712214 0.080278024 -0.34687898 0.17326571 -0.097838946 -0.04120861 -0.10632555 0.49260506 -0.21895488 0.123064466 0.03689714 0.29184222 -0.027403725 0.09433514 -0.009323164 0.066370144 -0.34234253 -0.12017019 0.27210423
1975 0.0051635946 -0.18479055 -0.11254388 -0.012793957 0.05861543 -0.2834688 0.042300854 0.057287496 0.045619696 -0.09807464 -0.14000389 -0.24254525 -0.096960895 0.066773124 0.041956566 0.02124589 0.051053863 0.23722863 -0.25864798 0.13088733 0.060219847 0.07683129 -0.016271437 -0.041834455 -0.13075231 0.18483141 -0.15299544 -0.056517597 -0.20778964 -0.20575696 -0.07619483 0.022382004 -0.05677089 -0.13928364 -0.06704417 0.046804663 -0.08610796 -0.009384641 0.13598327 0.0019495094 -0.23985714 -0.34952238 -0.13645287 -0.023868985 0.12156311 0.03287846 0.08555972 -0.059173748 0.019216761 0.20862876 -0.026314244 0.0015534973 -0.11190645 0.14458522 0.10927053 -0.07165155 -0.10714463 -0.18234496 -0.13596298 0.022393955 -0.0071704015 0.03566225 -0.027771225 -0.20299235 -0.059274606 0.034319174 -0.11325144 0.12705007 0.015012592 0.053653978 0.14564162 -0.27384976 -0.015652336 0.033502024 -0.1341458 -0.03896864 0.12211709 -0.09174498 0.15687393 0.014521827 -0.036639255 0.26884028 0.048336275 -0.030343408 -0.05265401 0.0931795 -0.1705235 -0.0094242385 -0.038643435 0.052303255 0.038133606 0.14136077 0.17711128 -0.28616908 0.25725323 -0.10431614 -0.021581978 -0.056651488 -0.14773951 -0.016872263 -0.13746232 -0.029699659 0.14824226 0.15530676 -0.05442455 -0.05486092 -0.10648068 -0.10618615 0.1430594 -0.013358109 0.053150095 -0.23730883 0.107333384 -0.022958273 -0.05270927 -0.009957998 0.27550936 -0.03139581 0.12514204 0.037404582 0.20529637 -0.051907323 0.06724123 -0.039849915 0.023900809 -0.19611306 -0.16916606 0.10456246
1915 0.029576704 -0.20045494 -0.083609186 -0.037667543 0.031759158 -0.26058072 0.03834573 0.0817538 0.060285147 -0.101638466 -0.108688764 -0.19779421 -0.07293809 0.035835933 0.021498036 0.020017687 0.040082898 0.23431787 -0.2435512 0.11374871 0.063488476 0.028098833 -0.0027193357 -0.020198619 -0.092297174 0.13752232 -0.16976619 -0.060085867 -0.1623436 -0.17066729 -0.09836094 0.043686707 -0.05879594 -0.1143069 -0.047398254 0.048828535 -0.08605986 0.021961348 0.119919784 -0.008779817 -0.16754504 -0.2878903 -0.12909487 -0.0154850315 0.13811015 0.025650062 0.03994974 -0.031108683 0.013222999 0.14261565 -0.018556619 -0.02681508 -0.11456322 0.118529126 0.12235054 -0.042200387 -0.09854643 -0.15429509 -0.11609952 0.012512769 -0.017443828 0.048111014 -0.004971741 -0.21112444 -0.060509395 0.0034405007 -0.11506203 0.13093284 0.05089478 0.035917133 0.14736356 -0.25315183 -0.018347261 0.034048997 -0.14003766 -0.059166655 0.11629451 -0.063239396 0.13167016 0.010927596 -0.02614541 0.23195982 0.0137107605 -0.03766857 -0.0073705553 0.08616927 -0.14905217 0.0028315817 -0.032480016 0.07503109 0.040478516 0.13405651 0.13895932 -0.24223877 0.22138532 -0.115419485 0.0016217165 -0.0261943 -0.13787861 -0.021736873 -0.118724495 -0.009031877 0.09811066 0.14564873 -0.04257776 -0.042629547 -0.10837496 -0.072556496 0.1536929 -0.016035048 0.029483942 -0.19788007 0.066874415 -0.04425591 -0.035364304 -0.01667221 0.25432348 -0.028695485 0.0718446 0.037451968 0.19211084 -0.05765507 0.06301145 -0.035896644 0.0128316805 -0.19769661 -0.15413302 0.116159014
2075 0.029834555 -0.17203587 -0.11573713 -0.013843372 0.06609637 -0.2613104 0.034764975 0.04598337 0.024400355 -0.10072185 -0.14274539 -0.20974183 -0.09692961 0.072353 0.051914975 0.009504239 0.059550785 0.2199702 -0.24955003 0.102680035 0.07014566 0.052995734 -0.015475386 -0.030646745 -0.107191846 0.17604728 -0.16696675 -0.040477242 -0.21342619 -0.1871722 -0.036989957 0.027194364 -0.031804714 -0.1188819 -0.082601346 0.031436857 -0.1014038 0.0011351593 0.13057879 -0.019220239 -0.22523478 -0.35120422 -0.11964406 -0.013621174 0.12878264 0.027883215 0.065761 -0.054595634 0.020411495 0.203388 -0.009028728 0.018847436 -0.10249317 0.13197736 0.12789539 -0.06777239 -0.12237318 -0.1907358 -0.15233377 0.0057195467 0.00046886428 0.03261133 -0.03737915 -0.19204195 -0.059842534 0.018932113 -0.10484639 0.14419329 0.010302588 0.045517012 0.15667732 -0.27942756 -0.00793245 0.040636986 -0.13258493 -0.01857558 0.10284445 -0.07535648 0.13667727 0.008242656 -0.0032968258 0.2586294 0.042905685 -0.017636985 -0.044241168 0.07653542 -0.17414568 -0.014033187 -0.045281176 0.05374344 0.04797 0.12474297 0.17326097 -0.24599268 0.24981166 -0.12269053 -0.049601626 -0.067498386 -0.13359107 0.01568365 -0.12770838 -0.036906786 0.16624422 0.12909363 -0.07093585 -0.05192965 -0.09711111 -0.09660894 0.15373276 -0.024588034 0.034299985 -0.22690263 0.08870138 -0.018209698 -0.060155988 -0.00071500964 0.27574727 -0.020504542 0.14320287 0.05030056 0.22377701 -0.06364012 0.047150895 -0.031570673 0.03256758 -0.1847166 -0.14350355 0.10239459
1948 0.016950311 -0.18377309 -0.08038714 -0.035537884 0.037248358 -0.24253352 0.038887892 0.0597451 0.044335604 -0.09295574 -0.09545004 -0.20446572 -0.08459831 0.024459543 0.022816459 0.034117352 0.01924523 0.22162905 -0.22841829 0.10877915 0.045840815 0.024502944 -0.01107819 -0.035970576 -0.10247269 0.14082874 -0.14976539 -0.06040736 -0.15250526 -0.16408877 -0.111548156 0.039328337 -0.062481824 -0.09129382 -0.057705525 0.065569654 -0.06267195 0.01213793 0.111788474 0.00917241 -0.14628793 -0.28030413 -0.11571834 -0.021441165 0.118738726 0.04039194 0.04561891 -0.03181327 0.012775452 0.14389011 -0.015016824 -0.008515072 -0.11579452 0.1130966 0.12578079 -0.053702563 -0.101711445 -0.13589785 -0.114835955 0.016645325 -0.0030134292 0.034964804 0.0022936305 -0.21492435 -0.052867882 0.0076009296 -0.11119645 0.10903227 0.029042007 0.030642403 0.12766904 -0.23828645 -0.008710027 0.03322962 -0.14197397 -0.046365164 0.108543575 -0.0509861 0.11125051 0.012840101 -0.01972518 0.20395827 0.02349446 -0.056690495 -0.0044286624 0.073363446 -0.15602078 0.0040616496 -0.018308612 0.07298677 0.039385494 0.12303688 0.1369405 -0.2450415 0.20065984 -0.10244296 -0.007987962 -0.031934623 -0.10971013 -0.02224444 -0.103464514 -0.004928745 0.106558196 0.14835809 -0.052661713 -0.035576344 -0.100176096 -0.0691262 0.13178173 -0.01855187 0.03696902 -0.20643823 0.080472246 -0.047606893 -0.03252095 -0.026445275 0.24940962 -0.04009862 0.07134678 0.029257169 0.17813249 -0.03584049 0.060620178 -0.038462576 0.014172224 -0.18712197 -0.1344718 0.117013
2262 -0.09070025 -0.13972928 -0.28964683 -0.09954334 0.21196485 -0.31658897 0.031329956 -0.15722921 -0.18402064 0.1033144 -0.040140983 -0.3461266 -0.5711891 -0.014220377 0.07256219 0.12387054 -0.07599339 0.30853248 -0.34355316 0.1285393 -0.17932457 0.0011795361 -0.109226346 -0.29177827 -0.3189833 0.3465196 0.005801607 -0.10215479 -0.22579962 -0.1428251 -0.33153558 0.10533361 -0.030046735 0.25008562 -0.29260978 0.22581117 0.118843585 -0.06731802 0.04292517 0.08577491 -0.13386953 -0.47880378 -0.15167911 -0.15867619 0.09013332 0.29291955 0.12410378 -0.23323838 -0.018573802 0.4744182 0.0975768 0.30393833 -0.13153411 0.13779335 0.2984411 -0.08521326 -0.4681412 -0.06391541 -0.20180385 0.18119602 0.09642931 -0.06830241 -0.025052197 -0.41350394 -0.06983307 0.028444858 -0.06879802 -0.1157869 -0.25655514 0.01970232 0.053732317 -0.3041162 0.11794797 0.17792112 -0.3577262 0.16968486 0.022443922 0.18691625 -0.04713552 0.08746383 0.10050963 0.154599 0.19730829 -0.36739132 0.04987809 -0.016980344 -0.41426492 0.054476295 0.212472 0.12042613 0.12016443 0.06787583 0.29422325 -0.41896495 0.08057761 -0.1622978 -0.3452889 -0.165627 0.15667827 0.04045352 0.03377859 -0.07554981 0.2764516 0.40506354 -0.25536978 0.08387232 -0.058814198 -0.09085068 0.06257024 -0.021307964 0.17420155 -0.43690634 0.11726711 -0.07835203 -0.16564363 -0.10181748 0.41057292 -0.251705 0.39193195 0.12358879 0.25631243 0.021820575 0.09375547 -0.09192476 0.15883084 -0.27637345 -0.04002458 0.14549607
2089 -0.11253238 -0.14963979 -0.14131655 -0.13565494 0.08310775 -0.27305803 0.12122573 -0.027217815 -0.035849936 0.036315434 0.051742587 -0.34677732 -0.40833542 -0.113171555 -0.012852241 0.24888065 -0.15762576 0.39467758 -0.40506166 0.21069084 -0.13899097 0.024134248 -0.11860956 -0.24371524 -0.2610964 0.24148662 -0.07857827 -0.10942977 -0.21076058 -0.12996654 -0.33814546 0.0648764 -0.12362516 0.19940627 -0.13434781 0.30461964 0.10551962 -0.10299504 0.046533775 0.10004166 -0.032323293 -0.4808301 -0.12420342 -0.13114846 0.14884864 0.2900462 0.038857378 -0.13297549 0.0217279 0.24701615 0.09915215 0.12634434 -0.19955954 0.075739466 0.32927153 -0.15958107 -0.32809836 -0.02174755 -0.13721271 0.04282438 0.1496671 0.006185271 0.10817986 -0.45183644 -0.0587685 -0.08593884 -0.23538435 -0.008667616 -0.13999906 0.0040106764 0.022066494 -0.35504842 0.02157105 0.06971019 -0.38584027 0.031700425 0.19961004 0.060208403 0.01328793 -0.0070606368 0.052701034 0.13762152 0.1239456 -0.3996973 0.19623579 0.10179343 -0.30603358 -0.04160785 0.09084718 0.17531353 0.13516156 0.19291742 0.24575679 -0.4760588 0.10418684 -0.18642181 -0.09639346 -0.13807996 0.071576945 -0.0016644789 -0.020720955 0.025520416 0.22772036 0.33253896 -0.25401646 0.07241624 -0.091144346 0.02061638 0.047003724 -0.0053906864 0.16721654 -0.3469627 0.20556419 -0.12757786 -0.028851751 -0.1561592 0.5160304 -0.3740478 0.21438931 0.020558977 0.17234409 0.054203395 0.0899917 -0.032716606 0.09993546 -0.3392678 -0.06981221 0.2520659
2017 -0.005025645 -0.22285032 -0.13273585 -0.05596791 0.0596166 -0.3130763 0.068577334 0.06256592 0.05374969 -0.112845406 -0.10619727 -0.27822214 -0.1522954 -0.0087571135 0.0154907005 0.060420528 -0.011985767 0.30602837 -0.34102392 0.1663413 0.026136158 0.03332578 -0.04135222 -0.1111923 -0.15865445 0.18552051 -0.19750695 -0.07933278 -0.22970562 -0.21621455 -0.18316332 0.0288448 -0.09863147 -0.06736981 -0.09828855 0.1111653 -0.07125463 0.0065839062 0.13848107 0.033936672 -0.16416222 -0.4131198 -0.13772634 -0.04474415 0.13224742 0.09866075 0.056475002 -0.049958047 0.022313818 0.22012733 -0.011951826 0.028396096 -0.1613008 0.1378579 0.18214937 -0.0992874 -0.13918798 -0.18428072 -0.15236887 0.027752616 0.037383605 0.037474725 0.0070855957 -0.33458984 -0.08111479 -0.010193337 -0.19681084 0.13313746 0.020785002 0.015501818 0.16276658 -0.3461423 -0.011715661 0.05036123 -0.22726265 -0.039047036 0.16191253 -0.04174303 0.15358433 0.014577169 -0.016095871 0.2651407 0.043979887 -0.15558816 0.0076875733 0.09735848 -0.24059622 -0.008535321 0.002858311 0.12489093 0.06647039 0.19060153 0.22459035 -0.37378672 0.257087 -0.1358783 -0.025812987 -0.07122734 -0.107505545 -0.017325895 -0.13869679 -0.00068529946 0.19052765 0.23155713 -0.12369204 -0.04940643 -0.134992 -0.09048496 0.14884035 -0.02700651 0.07655969 -0.29590544 0.13521235 -0.09843079 -0.04497829 -0.07029905 0.35016096 -0.111580804 0.11573803 0.029407242 0.18881993 0.00888557 0.08078864 -0.05009875 0.045001388 -0.2670825 -0.1686733 0.17359228
2016 0.00027787685 -0.18580134 -0.089830086 -0.040024076 0.050775353 -0.26343945 0.064942665 0.0715522 0.07042332 -0.10029353 -0.092538334 -0.23058593 -0.09644432 -0.008975428 0.0008620096 0.052901 -0.00028761703 0.24721453 -0.27342677 0.15450357 0.039582 0.038287044 -0.03361469 -0.08326609 -0.12479315 0.1473853 -0.16151395 -0.0661497 -0.18390058 -0.1892204 -0.14260557 0.02953438 -0.08447708 -0.078774594 -0.061910745 0.0829399 -0.063733175 0.0021751085 0.122935906 0.037810676 -0.13587098 -0.33438185 -0.11233534 -0.030662265 0.10439159 0.072776526 0.05114253 -0.03188729 0.03789074 0.1647359 -0.02066302 -0.0027114614 -0.1363265 0.12166434 0.14012823 -0.07888514 -0.08179911 -0.1609435 -0.10998821 0.017179146 0.0225506 0.04130195 0.0036320025 -0.2515567 -0.06388597 -0.0008400306 -0.16160189 0.12344277 0.030373175 0.022058163 0.13289188 -0.2753372 -0.024175033 0.026186159 -0.16952217 -0.046624 0.14203861 -0.05903242 0.14263912 0.0045074737 -0.031752538 0.2230554 0.036556367 -0.11366513 0.003668378 0.09342591 -0.18063179 -0.02053089 -0.012270588 0.10150422 0.046877537 0.16840637 0.17991638 -0.3071474 0.21590135 -0.09884863 -0.0011819308 -0.050734144 -0.10633158 -0.026200794 -0.12369096 -0.0005578067 0.14770354 0.17916046 -0.088342704 -0.0511774 -0.121918105 -0.07978388 0.12609181 -0.018894676 0.06100843 -0.2261237 0.11025953 -0.079153635 -0.0343182 -0.052898083 0.28039306 -0.08729598 0.071545124 0.008649599 0.13343735 0.00893028 0.06853286 -0.0427298 0.01905307 -0.21106037 -0.15672311 0.14316738
1976 0.004326218 -0.19787928 -0.109057926 -0.0063514276 0.049236115 -0.29176202 0.045593962 0.072401404 0.056354962 -0.10927686 -0.15190932 -0.25242063 -0.08931074 0.064836085 0.036852162 0.020446124 0.06326664 0.24192227 -0.2693769 0.13726275 0.06913566 0.07761538 -0.013346764 -0.038978513 -0.12131062 0.17681631 -0.1654171 -0.054634776 -0.20868641 -0.2197962 -0.07577042 0.030186359 -0.06118737 -0.15659323 -0.060156062 0.04513493 -0.090570115 -0.00695089 0.14245148 -0.0006331577 -0.24622191 -0.35548663 -0.13843296 -0.018590234 0.11988333 0.02390522 0.089841396 -0.050822075 0.028947793 0.19690406 -0.029694345 -0.0052675274 -0.110000506 0.1555404 0.10556352 -0.06955538 -0.096960224 -0.19512223 -0.13365054 0.023032049 -0.012655864 0.043749947 -0.020892883 -0.20110896 -0.061880063 0.039037477 -0.12134486 0.13598864 0.02414587 0.057326555 0.15570223 -0.28683305 -0.020469096 0.024883837 -0.12922448 -0.042478215 0.13199826 -0.099313624 0.16214666 0.009191254 -0.043740753 0.27835545 0.04319025 -0.016742654 -0.053369302 0.10230912 -0.16775931 -0.0065175393 -0.049202938 0.062078916 0.031973038 0.15441434 0.17419319 -0.28997663 0.27584586 -0.10463307 -0.009338739 -0.04679984 -0.1644797 -0.02436574 -0.14821632 -0.029424502 0.15189779 0.1558514 -0.043478336 -0.057429526 -0.113307044 -0.11373514 0.14722039 -0.01337417 0.049760897 -0.24127866 0.10880673 -0.021165736 -0.052442268 -0.007631008 0.28116843 -0.015869323 0.114332706 0.040909026 0.19988582 -0.043848693 0.06419228 -0.03817261 0.010214458 -0.20203058 -0.18268102 0.11198538
1947 0.016754888 -0.18172687 -0.091517456 -0.035356108 0.042149566 -0.24594115 0.03762971 0.05203547 0.031764656 -0.08690123 -0.11402136 -0.1988045 -0.09412779 0.042174987 0.03440641 0.019231318 0.029097749 0.21195407 -0.21973062 0.10707316 0.0500222 0.027851185 -0.004961143 -0.0313559 -0.098434426 0.14817202 -0.14352216 -0.05842408 -0.15965407 -0.15883422 -0.09767964 0.039515126 -0.04762154 -0.09719041 -0.061872985 0.054454327 -0.07030023 0.012569492 0.113910004 -0.0022913965 -0.16360871 -0.27906156 -0.12225008 -0.025400093 0.11570938 0.037663456 0.052773952 -0.037200723 0.009247777 0.1638039 -0.017064853 0.007480678 -0.10291207 0.12002441 0.11770828 -0.04962594 -0.11110989 -0.14467585 -0.11688358 0.026719121 -0.018041566 0.030147422 -0.011018923 -0.20306286 -0.054131053 0.020661537 -0.09452999 0.10560574 0.022944028 0.038620565 0.13483055 -0.23348103 -0.0076265386 0.042789944 -0.13351507 -0.034012716 0.0946185 -0.048514545 0.11009823 0.021538867 -0.015524705 0.21241468 0.022959152 -0.04803335 -0.022476248 0.07093507 -0.1532494 0.010878667 -0.011989927 0.063142665 0.03249061 0.110002786 0.13993247 -0.23663306 0.19888085 -0.099902116 -0.023337837 -0.031765383 -0.115471 -0.019518973 -0.1058342 -0.015928078 0.114524186 0.14533776 -0.049478117 -0.039408717 -0.09379248 -0.080174 0.14341249 -0.016167907 0.030499637 -0.20420726 0.07044725 -0.03223728 -0.043820113 -0.020977808 0.23820953 -0.029164337 0.0859697 0.04135327 0.18551628 -0.046814963 0.06108374 -0.040958893 0.01912563 -0.18707539 -0.14174935 0.10259373
1981 0.01518277 -0.18745394 -0.101422936 -0.03883704 0.041942272 -0.25555235 0.048286583 0.054997485 0.037201364 -0.08802101 -0.10879099 -0.21731575 -0.10264622 0.021410339 0.029814644 0.027470844 0.019953072 0.23375215 -0.2517673 0.123816326 0.038254924 0.03466045 -0.016145667 -0.04942157 -0.10849905 0.14796838 -0.15801162 -0.059112888 -0.17029773 -0.17331123 -0.11848878 0.037858404 -0.071172155 -0.08749387 -0.07494124 0.07184513 -0.068179324 0.016549597 0.11710221 0.0121195065 -0.15324186 -0.31020725 -0.12208048 -0.022320535 0.11760632 0.053308863 0.04600579 -0.03737075 0.0126716215 0.16206935 -0.019936945 0.009879864 -0.11461573 0.11897218 0.12671241 -0.06133417 -0.10725875 -0.15148155 -0.12006229 0.024925012 -0.0043393285 0.035999242 -0.010810944 -0.23481698 -0.054252356 0.012520619 -0.11889232 0.116366304 0.027130391 0.02992982 0.13325685 -0.25653622 -0.0054702354 0.04333108 -0.1527187 -0.04052469 0.10899191 -0.049081605 0.12154175 0.018689848 -0.016030489 0.22070862 0.026021568 -0.075337306 -0.012995845 0.079243034 -0.18042013 5.672715e-05 -0.011104763 0.08633882 0.04217937 0.13693085 0.15784934 -0.2696186 0.21508588 -0.105394796 -0.020140853 -0.04696639 -0.110836186 -0.015117118 -0.11339656 -0.0054879216 0.13253398 0.16915831 -0.06512122 -0.04441639 -0.10340132 -0.08467535 0.13420188 -0.026373565 0.044659406 -0.22277544 0.08357253 -0.05316176 -0.048647366 -0.03224755 0.263592 -0.053545393 0.088259935 0.032284193 0.17342053 -0.021538192 0.060682658 -0.040391494 0.026110139 -0.20467584 -0.14374654 0.1252634
2296 -0.04944724 -0.1337067 -0.28383878 -0.07251842 0.19974226 -0.2917153 0.016898653 -0.1591562 -0.19687405 0.079880856 -0.06267585 -0.29912135 -0.49477533 0.019293468 0.10066565 0.06429217 -0.034793615 0.25190187 -0.2824705 0.08439621 -0.13497114 -0.0064905537 -0.07857859 -0.2340009 -0.28477648 0.3126678 -0.004548658 -0.08676325 -0.20616089 -0.13455945 -0.2680629 0.098306276 -0.00807429 0.18575744 -0.28786302 0.18280369 0.08361903 -0.03244742 0.056899518 0.06266932 -0.13989495 -0.4205308 -0.14787176 -0.122180745 0.081249245 0.23699935 0.1206923 -0.21078606 -0.031632952 0.44687834 0.06083308 0.3032294 -0.10153831 0.1412317 0.24822696 -0.066457644 -0.43429232 -0.07737652 -0.19931982 0.17289297 0.06579428 -0.054857355 -0.059679322 -0.36622506 -0.04760629 0.05400082 -0.029490005 -0.10236255 -0.23002373 0.015345717 0.0722598 -0.25859895 0.12243622 0.16540448 -0.29126576 0.16883974 -0.027829817 0.17341207 -0.04338599 0.1027614 0.098951556 0.14888978 0.15744169 -0.2839739 0.00078057556 -0.041417163 -0.39422798 0.068812184 0.20088826 0.09460551 0.09939394 0.033873223 0.26359612 -0.3390838 0.09674475 -0.13519593 -0.34620047 -0.14450648 0.12000649 0.04375638 0.029552095 -0.081989124 0.24712458 0.35203287 -0.21347924 0.06970972 -0.04619778 -0.10638724 0.071125835 -0.037957426 0.13845745 -0.4049896 0.0709338 -0.057343084 -0.17513978 -0.077040166 0.3265921 -0.17722675 0.36036026 0.13876516 0.27245232 0.00088662806 0.08871761 -0.091925785 0.15697931 -0.23489198 -0.038137857 0.1079466
1880 0.032556772 -0.20005345 -0.09744656 -0.031206518 0.03599295 -0.26012388 0.02747681 0.06714281 0.030903189 -0.099023186 -0.116884306 -0.19156964 -0.08076601 0.05307266 0.032128356 0.005351636 0.042333536 0.22148627 -0.22702625 0.10461708 0.06838367 0.020456694 -0.006740102 -0.014807001 -0.092147395 0.14518279 -0.15985252 -0.069668196 -0.15814756 -0.16349693 -0.09458292 0.042650964 -0.049581792 -0.11400344 -0.060185537 0.042621117 -0.09395552 0.033710923 0.12591493 -0.017709592 -0.17546585 -0.2849061 -0.13006634 -0.01583074 0.1350805 0.025912795 0.04592218 -0.04619678 0.0010115732 0.1605668 -0.025327189 -0.010524985 -0.114597596 0.11987551 0.12021537 -0.03149603 -0.11373068 -0.15016764 -0.12772164 0.014667174 -0.015462985 0.03747026 -0.02195365 -0.21169122 -0.056378666 0.017583957 -0.09672459 0.12014602 0.037646096 0.03733443 0.14805236 -0.246323 -0.010576409 0.0463177 -0.14274868 -0.04947187 0.095977984 -0.05253813 0.12257607 0.02914914 -0.014296798 0.23104529 0.019278646 -0.022102872 -0.025282985 0.07457566 -0.15704632 0.016946735 -0.02668399 0.069887884 0.03655135 0.11093551 0.13610446 -0.22902861 0.21525437 -0.10984505 -0.014669199 -0.028668502 -0.12865083 -0.015466841 -0.107250534 -0.013680114 0.100221395 0.15002762 -0.038921863 -0.035552274 -0.10255455 -0.08381771 0.15978134 -0.020996092 0.022986757 -0.20356202 0.06030316 -0.031250894 -0.04431474 -0.0038035652 0.23886701 -0.014948709 0.09382366 0.04657658 0.20587467 -0.0635544 0.06112935 -0.0393205 0.016225673 -0.19651785 -0.14426447 0.10988281
2008 0.009208256 -0.18760349 -0.11450109 -0.010882512 0.05257523 -0.29051748 0.03843131 0.05630492 0.04553259 -0.102516755 -0.14617307 -0.24268156 -0.09347446 0.07458435 0.04903139 0.018110612 0.06176705 0.24144693 -0.26873365 0.12394359 0.071415335 0.074156046 -0.021324404 -0.034588348 -0.12597999 0.18975724 -0.1707864 -0.05172766 -0.21932378 -0.2104427 -0.056536235 0.020692907 -0.055096198 -0.1466398 -0.07413061 0.048398748 -0.09560389 -0.013975445 0.14315924 -0.012617851 -0.25269264 -0.36210474 -0.12684162 -0.016312217 0.13024485 0.030948114 0.07832194 -0.053794272 0.024093185 0.21026205 -0.017466385 -0.004930799 -0.115639456 0.13801415 0.11925656 -0.069054656 -0.1114603 -0.19104631 -0.1403895 0.0044734157 -0.00214923 0.04000088 -0.022544336 -0.19682173 -0.06428251 0.03197862 -0.11716865 0.14323731 0.015936192 0.059465457 0.15570836 -0.29031307 -0.019754695 0.03366942 -0.13764536 -0.041488357 0.12721118 -0.092708 0.16267473 0.00020126946 -0.033674736 0.2790584 0.041290376 -0.02098579 -0.049170412 0.09889015 -0.1680442 -0.021445103 -0.048334755 0.05374769 0.041259486 0.14505668 0.18008573 -0.27649796 0.27108783 -0.112064786 -0.017769372 -0.058769044 -0.1602286 -0.0065945564 -0.140616 -0.03558078 0.16055961 0.1390493 -0.054921623 -0.054055884 -0.109985985 -0.100890785 0.1518119 -0.020497018 0.052165903 -0.2395326 0.109121226 -0.023037197 -0.057626326 -0.0072897193 0.2874631 -0.021727845 0.1381164 0.04556445 0.21296185 -0.056804072 0.06386572 -0.034390237 0.018966878 -0.19500706 -0.1696429 0.115397595
2297 -0.056821447 -0.14220752 -0.25181857 -0.077834554 0.17839062 -0.2873482 0.02682339 -0.1247787 -0.16249298 0.06049542 -0.053840995 -0.30113715 -0.4596263 0.004237169 0.07948218 0.074362405 -0.04354318 0.25853485 -0.29291433 0.098138966 -0.12490494 0.0014914647 -0.08392723 -0.2223095 -0.26270413 0.29375166 -0.01940535 -0.089044064 -0.20500323 -0.14047588 -0.2608312 0.08493107 -0.024512198 0.16853693 -0.25708896 0.17558008 0.077499695 -0.039881486 0.06235699 0.059895728 -0.138834 -0.4156792 -0.13500792 -0.122044235 0.08159505 0.22592606 0.112837665 -0.19690834 -0.016893413 0.41349185 0.064084224 0.26465657 -0.10841578 0.13404469 0.23908243 -0.075403765 -0.39514077 -0.08002261 -0.18568508 0.14950076 0.070043735 -0.052901663 -0.04468492 -0.3511776 -0.04820506 0.04181505 -0.048339237 -0.07892992 -0.20322974 0.022023702 0.073830426 -0.27600223 0.10263241 0.14912963 -0.28835428 0.1402839 0.001203429 0.14525673 -0.020876702 0.08379122 0.08273703 0.15598808 0.14874499 -0.27892032 0.016751561 -0.0118679805 -0.36238608 0.059826553 0.16956338 0.1051878 0.09801833 0.054295763 0.25542232 -0.34453166 0.10481763 -0.14020826 -0.29861975 -0.1371556 0.098398656 0.030672248 0.011787036 -0.067459725 0.24439637 0.33718726 -0.20651509 0.060774226 -0.056768753 -0.10082044 0.07806545 -0.025217142 0.1302788 -0.37782514 0.08348324 -0.05870984 -0.15409192 -0.07307599 0.34489164 -0.17552254 0.33687 0.1206718 0.24823837 0.0009291604 0.08213003 -0.08819973 0.13591665 -0.23410301 -0.047448076 0.11903265
1946 0.011222136 -0.15705836 -0.09751577 -0.033081893 0.042975936 -0.21855967 0.03699836 0.040512335 0.01708234 -0.08009526 -0.102890424 -0.19388726 -0.10661929 0.033336665 0.038395617 0.019705307 0.027229415 0.19219673 -0.21203697 0.094020575 0.034958612 0.036755197 -0.017652009 -0.033210274 -0.09989667 0.14349918 -0.12509573 -0.04623188 -0.15139575 -0.14373168 -0.093631014 0.03896257 -0.041720495 -0.078439526 -0.07257283 0.061067164 -0.05844634 0.002917019 0.10050113 0.0021051604 -0.15475528 -0.2729741 -0.113326 -0.027103169 0.10330043 0.047259793 0.045463532 -0.05162476 0.0023532752 0.15772344 -0.018727789 0.023974359 -0.09982718 0.1098684 0.107296556 -0.056751415 -0.11317803 -0.12668864 -0.11357107 0.027488137 -0.015486951 0.025928533 -0.013403576 -0.1910676 -0.04779976 0.01593739 -0.090890676 0.0894086 0.01200859 0.033298954 0.12365927 -0.21190654 -0.0001705598 0.040669836 -0.12896067 -0.022632757 0.081389196 -0.031211328 0.091954194 0.015847232 -0.011161195 0.19062877 0.025798392 -0.04832127 -0.018582352 0.06002291 -0.152208 0.008643488 -0.0067770043 0.060237546 0.033876244 0.10460641 0.14119746 -0.2259812 0.1851286 -0.09457435 -0.0356637 -0.04617533 -0.090571806 -0.00800391 -0.0914374 -0.016543819 0.11672363 0.14128357 -0.047394834 -0.032128293 -0.080616795 -0.07592017 0.12529758 -0.01329673 0.040437486 -0.2027768 0.080691345 -0.031900413 -0.049991027 -0.026862875 0.23032129 -0.033788938 0.09974963 0.039442927 0.1743538 -0.03360411 0.053511802 -0.033269122 0.023289649 -0.17379771 -0.121720076 0.09403803
1987 -0.024589274 -0.209325 -0.09536059 -0.13314798 -0.025910936 -0.27505 0.1395745 0.06870131 -0.00667871 -0.079649135 0.013908207 -0.32144353 -0.1752738 -0.06368249 0.02785539 0.19669172 -0.1125344 0.41675082 -0.39275783 0.18425228 -0.012649156 0.026543932 -0.071323365 -0.09461883 -0.17288187 0.17032951 -0.20929517 -0.11326149 -0.22358763 -0.14716642 -0.22912124 0.042801183 -0.15804853 -0.0069884746 -0.059611224 0.25874335 -0.018619768 -0.03767783 0.10457637 0.04721949 -0.027829181 -0.44759876 -0.14833301 -0.050908115 0.22060847 0.17708775 -0.016838849 -0.04834339 -0.014132642 0.10673877 0.034273174 0.03692573 -0.2241908 0.06384733 0.2929596 -0.16348757 -0.22543809 -0.064542115 -0.16219662 -0.06569433 0.095130615 0.08297462 0.11510141 -0.4763093 0.0019952294 -0.095136434 -0.28572088 0.14738335 -0.009175182 -0.01292232 0.09624271 -0.36022088 -0.015004285 0.0053552985 -0.31925687 -0.062896214 0.23570614 -0.06973796 0.075255506 -0.035211876 0.021188267 0.20122105 -0.014268134 -0.25345945 0.14891846 0.1668258 -0.25010425 -0.048392646 -0.016318012 0.18418947 0.09468279 0.22629029 0.19419545 -0.43323946 0.22511293 -0.18852149 0.018174076 -0.11521164 -0.112037264 -0.015410748 -0.10790488 0.07116623 0.17691173 0.23551945 -0.17607783 0.02811389 -0.123180375 0.01278552 0.10204158 -0.05943035 0.09859479 -0.32597837 0.19740127 -0.12347307 0.0012869786 -0.13584347 0.5043151 -0.27587658 0.08790072 0.007828076 0.2362494 0.0074915346 0.09063814 -0.004263368 0.053747486 -0.34887 -0.10564508 0.28796077
2263 -0.09873279 -0.12710135 -0.2616732 -0.0978414 0.19840805 -0.29918808 0.035946228 -0.14355014 -0.1602003 0.0978561 -0.022283427 -0.3332377 -0.54816127 -0.024364067 0.053638075 0.13235976 -0.08410342 0.29697642 -0.32913733 0.13218783 -0.17076263 0.00880053 -0.107182205 -0.27565753 -0.29995847 0.32212925 0.01681887 -0.094560616 -0.21158768 -0.12916763 -0.31910184 0.09789181 -0.030625362 0.25118506 -0.26241902 0.22403994 0.120721355 -0.07940315 0.03698543 0.08758925 -0.11901768 -0.4460679 -0.13770787 -0.1521422 0.08106904 0.28832406 0.11828504 -0.22003354 -0.008906413 0.4424447 0.10242357 0.2828229 -0.1224623 0.1293792 0.28453586 -0.08453439 -0.44050762 -0.055804268 -0.17878492 0.17143255 0.09782425 -0.06849284 -0.01574808 -0.3851775 -0.06171171 0.024920518 -0.07067935 -0.118226014 -0.24481891 0.025482507 0.04005719 -0.28652444 0.104274414 0.16392908 -0.34157008 0.14933781 0.022361865 0.17388023 -0.048113402 0.07199708 0.095857814 0.13605386 0.19657129 -0.36080316 0.064477146 -0.0144990375 -0.3800519 0.03756786 0.19619566 0.12031382 0.1245449 0.06872023 0.27691478 -0.3960723 0.06778887 -0.15609805 -0.30944583 -0.15072636 0.14775138 0.034691025 0.037263967 -0.07160541 0.25840315 0.3791506 -0.23927087 0.08236092 -0.049582962 -0.067187585 0.051809113 -0.008197867 0.16538921 -0.40249863 0.11554751 -0.068344615 -0.15008762 -0.10510683 0.39923236 -0.26019993 0.3697831 0.1107685 0.22879657 0.022559613 0.084774874 -0.0864938 0.15104496 -0.2655775 -0.037594028 0.14018363
2082 0.014140241 -0.15161923 -0.09664022 -0.033944376 0.051521726 -0.23485516 0.04131354 0.04156639 0.025265468 -0.08198662 -0.09655966 -0.20935863 -0.10455733 0.03248715 0.032654595 0.025277708 0.022724953 0.20020385 -0.2270992 0.09833378 0.040779542 0.030265408 -0.032784004 -0.040869724 -0.10284109 0.15589723 -0.13745552 -0.052900158 -0.17259672 -0.16068275 -0.082182705 0.03758204 -0.05237717 -0.066106334 -0.08602316 0.06865509 -0.0614758 0.0037117065 0.10908477 0.011035681 -0.1493782 -0.2890603 -0.10723764 -0.02268972 0.100300275 0.05249878 0.04523975 -0.04983983 0.019796155 0.16833127 -0.01887353 0.0266819 -0.10677995 0.10846563 0.110554315 -0.0628507 -0.11470148 -0.14705327 -0.11374594 0.033496115 -0.009537959 0.023063818 -0.029813541 -0.21269265 -0.04043425 0.016197136 -0.105578415 0.106107414 0.014124126 0.030984 0.1315247 -0.2333203 0.0076492256 0.036389455 -0.15269025 -0.022399645 0.082214154 -0.02929371 0.09584134 0.0005870721 -0.013048904 0.20960619 0.03691424 -0.070295356 -0.01654883 0.07618371 -0.18189795 -0.01201093 -0.011515932 0.07363772 0.05376572 0.12258498 0.15384898 -0.23284404 0.20592204 -0.0901675 -0.038050447 -0.056782987 -0.08797709 0.004761595 -0.09453494 -0.004162108 0.12518352 0.15347393 -0.06957779 -0.041617494 -0.07996461 -0.07507594 0.12912524 -0.013945269 0.043069392 -0.20299387 0.0887679 -0.04664488 -0.053229526 -0.035153348 0.24584408 -0.055067353 0.11199229 0.031643294 0.1619073 -0.033395886 0.050109345 -0.033057343 0.03070929 -0.16914485 -0.14199235 0.11542403
2055 -0.10265317 -0.15371403 -0.09554525 -0.14043264 0.031494644 -0.24068423 0.14008372 0.01608319 0.006732045 0.0010295138 0.07453045 -0.3186782 -0.30782148 -0.13153516 -0.025507307 0.26487318 -0.164581 0.3937032 -0.38819996 0.21522921 -0.09890403 0.019539079 -0.107077196 -0.20560074 -0.21763696 0.18723837 -0.11207967 -0.11434074 -0.18973252 -0.11544558 -0.3155245 0.054132853 -0.14446115 0.1500589 -0.07102951 0.30138955 0.07773836 -0.09828738 0.044374328 0.09444496 0.01375389 -0.44472924 -0.11501638 -0.10954387 0.16046076 0.25854543 0.0050367285 -0.08349718 0.0240936 0.15634668 0.090455845 0.067634284 -0.20245779 0.04580933 0.3181885 -0.16509958 -0.25337654 -0.011946819 -0.11157691 -0.013606528 0.15120953 0.03586181 0.14386137 -0.44277593 -0.042396236 -0.10762383 -0.27079165 0.03952719 -0.08496937 -0.00695642 0.01597407 -0.33943966 -0.013885767 0.035095725 -0.36031777 -0.013066601 0.2376165 0.00409061 0.035302877 -0.03102953 0.034696992 0.12962697 0.06789772 -0.37688452 0.21847637 0.12911496 -0.25408995 -0.066192895 0.04534801 0.18523313 0.12192672 0.21165636 0.21563871 -0.4541865 0.11828692 -0.17992403 -0.022795843 -0.12062077 0.024205877 -0.016213471 -0.0516955 0.05209257 0.19340597 0.27667546 -0.23121949 0.060376786 -0.102565885 0.045954943 0.04063321 -0.018301751 0.14889401 -0.3042885 0.21184032 -0.14186963 0.012466602 -0.16217905 0.5026242 -0.3676169 0.12898952 -0.010060693 0.14196143 0.064808875 0.08937675 -0.013509445 0.07650327 -0.3405322 -0.06756151 0.26456928
2018 -0.0027686027 -0.23108494 -0.14887977 -0.06263986 0.06697154 -0.32331687 0.072082825 0.05418 0.039712694 -0.10695225 -0.09857542 -0.28308642 -0.17473316 -0.013857605 0.014054912 0.063648075 -0.017804833 0.3166744 -0.34505704 0.17079215 0.022003446 0.03420906 -0.04696508 -0.12821722 -0.17335995 0.1933181 -0.19501422 -0.08439845 -0.23547547 -0.22059171 -0.20088252 0.033322733 -0.09655713 -0.051865723 -0.11033762 0.119258165 -0.06129489 -0.002414838 0.13749373 0.035120957 -0.1580555 -0.43143556 -0.14617594 -0.051703524 0.13956493 0.11345578 0.057321653 -0.06445794 0.018262735 0.23504238 -0.0031374546 0.050950933 -0.16763057 0.1392401 0.18801695 -0.101615004 -0.15852097 -0.17725608 -0.16380394 0.030167788 0.044595342 0.03741833 0.012356329 -0.35303214 -0.081268884 -0.0027676474 -0.19792102 0.12674496 0.010986494 0.01320455 0.15983495 -0.3532914 -0.008763847 0.058375727 -0.23854887 -0.030223057 0.16316402 -0.028920801 0.14855348 0.022605643 -0.0065132203 0.2600471 0.050064128 -0.17354813 0.013159149 0.08707807 -0.25122142 -0.0019649137 0.011867372 0.12231891 0.06747669 0.1898682 0.23324051 -0.3832417 0.24907537 -0.15172614 -0.049867228 -0.08259491 -0.09772745 -0.016343335 -0.13619809 -0.0067586387 0.20105211 0.24050662 -0.13303387 -0.050061204 -0.13040943 -0.0994574 0.14743344 -0.033746503 0.08958837 -0.31563237 0.14368099 -0.09604794 -0.054914746 -0.07730784 0.35550597 -0.12731701 0.13548572 0.041704636 0.20171228 0.007584772 0.08448682 -0.050978187 0.053903013 -0.28364667 -0.16661532 0.17796709
1909 0.0113609545 -0.17160001 -0.108822085 -0.027669916 0.04037584 -0.2477401 0.028480545 0.050043233 0.028403377 -0.09738051 -0.123889595 -0.22153945 -0.09583568 0.056662615 0.046556335 0.0109865 0.042928632 0.216013 -0.23411116 0.100122005 0.05833681 0.04996724 -0.0072588315 -0.03139568 -0.109752685 0.1566883 -0.14369287 -0.047530994 -0.17554705 -0.18240671 -0.08120924 0.037611008 -0.04121485 -0.116372585 -0.0697897 0.047046978 -0.069943406 0.008755387 0.11458305 -0.0036904556 -0.20029274 -0.29895517 -0.13447818 -0.024575625 0.11545054 0.030392544 0.06747344 -0.055242125 0.0053631337 0.18374024 -0.024783235 0.015550365 -0.103781424 0.12511791 0.10144673 -0.05430327 -0.10976404 -0.1530664 -0.12667423 0.028447064 -0.017825162 0.02733817 -0.017984474 -0.19514118 -0.0474306 0.031480305 -0.09318703 0.10706699 0.021637807 0.046990756 0.14310867 -0.2409333 -0.003242437 0.037284058 -0.13011628 -0.030040832 0.091734216 -0.05794915 0.12417532 0.019712402 -0.025071898 0.22953086 0.03100765 -0.02271304 -0.043113895 0.08018345 -0.15592198 0.016138146 -0.021718036 0.055843968 0.033061206 0.119721785 0.14747863 -0.24479142 0.22543064 -0.10337289 -0.029140202 -0.041210093 -0.123385355 -0.02477182 -0.11102315 -0.021867406 0.12736684 0.14831728 -0.034861036 -0.041720625 -0.086842485 -0.09482239 0.14276236 -0.013819128 0.040514447 -0.21656147 0.088499665 -0.02346941 -0.056882314 -0.013843644 0.24627338 -0.022014571 0.11182344 0.044472627 0.20305845 -0.05144092 0.060186125 -0.03539605 0.020131895 -0.1905334 -0.14302716 0.10516655
2158 -0.14284244 -0.1181839 -0.19988053 -0.12781309 0.15744613 -0.28620726 0.08857705 -0.10256862 -0.09341231 0.10313062 0.039230067 -0.34997347 -0.5445997 -0.10006277 -0.007886635 0.23019719 -0.15495189 0.35512704 -0.3837808 0.19324046 -0.19639538 0.013509079 -0.1369044 -0.3051622 -0.3029413 0.30053392 0.006471403 -0.11062752 -0.20760007 -0.12022196 -0.3820326 0.08698142 -0.0848096 0.28677893 -0.20762466 0.294334 0.15955733 -0.12201208 0.010348705 0.11658582 -0.056805577 -0.47990763 -0.12014376 -0.17344722 0.09482643 0.3311915 0.09108803 -0.19162415 0.024215229 0.36653632 0.13421625 0.21059805 -0.16761097 0.09159666 0.33471993 -0.13359122 -0.41208476 -0.012962907 -0.13728642 0.12316578 0.15187345 -0.04482719 0.06800306 -0.4209883 -0.07619547 -0.04288987 -0.16388091 -0.099862345 -0.23337592 0.023136735 -0.0003706955 -0.32598892 0.063389644 0.12732416 -0.40132168 0.10466088 0.120357215 0.15195908 -0.02741816 0.027401319 0.08144906 0.115106896 0.19500643 -0.44684836 0.1674371 0.044071104 -0.35335422 -0.016771646 0.17065829 0.15727851 0.14734536 0.13637508 0.27724952 -0.46128464 0.043389387 -0.17018166 -0.21168539 -0.15922184 0.1653479 0.022526693 0.032717105 -0.031950496 0.2562749 0.38625276 -0.276946 0.098288216 -0.066317335 -0.00073384464 0.026795082 0.00652895 0.19180015 -0.37897283 0.17698196 -0.10869348 -0.08273439 -0.14518178 0.47483304 -0.3709258 0.30837873 0.04928918 0.16327262 0.065917164 0.08580591 -0.06337912 0.13708027 -0.3172391 -0.034795232 0.19880359
1985 -0.047026664 -0.17122163 -0.08810421 -0.08418945 0.03642776 -0.2451399 0.094098486 0.044337314 0.03963248 -0.045463033 -0.015816677 -0.26498377 -0.19744827 -0.06255826 -0.022550128 0.16116387 -0.08281328 0.30617705 -0.31284302 0.17852625 -0.02471367 0.020134533 -0.062223703 -0.13054726 -0.16711652 0.1606004 -0.14116965 -0.07930854 -0.17638046 -0.14556956 -0.22107238 0.038625766 -0.10819411 0.035548735 -0.05333889 0.1870214 0.0037953907 -0.04836101 0.08109394 0.054878414 -0.06670679 -0.3708302 -0.11906161 -0.06981967 0.14584172 0.15017499 0.02776672 -0.046330355 0.026522018 0.13984819 0.034782477 0.01949987 -0.15760544 0.07310155 0.22405297 -0.10990598 -0.16339076 -0.0727385 -0.104667686 0.002906566 0.07587114 0.036666363 0.08516784 -0.33825228 -0.061587755 -0.055163264 -0.20314357 0.07899041 -0.011947294 0.015918555 0.065613195 -0.30206215 -0.013032774 0.034196675 -0.25223568 -0.032830484 0.1845164 -0.023544883 0.0726843 -0.012880865 0.0003581124 0.16238149 0.04340288 -0.22956236 0.11557303 0.10632035 -0.19713446 -0.03248456 0.014818998 0.12857893 0.07982575 0.17684737 0.18553242 -0.35853472 0.15369678 -0.14728992 -0.004153029 -0.070650026 -0.037319142 -0.030852992 -0.08462065 0.025304863 0.1506655 0.21748854 -0.14900845 0.006959202 -0.10156091 -0.0037514463 0.092374876 -0.015627349 0.08967418 -0.26296896 0.15509596 -0.105388775 -0.0077854265 -0.10105907 0.38055822 -0.21705015 0.09148724 -0.0006829256 0.14881495 0.016829394 0.074648716 -0.019607423 0.03930662 -0.27344754 -0.11636633 0.19457188
1980 0.007967648 -0.17933826 -0.103690445 -0.037048064 0.049949553 -0.2508345 0.04704259 0.044221744 0.027677447 -0.08301769 -0.10059051 -0.21823202 -0.12746035 0.021560408 0.03081931 0.030141361 0.010424781 0.2259728 -0.2456138 0.12134101 0.025614128 0.032031804 -0.023767557 -0.056954727 -0.119784474 0.15933543 -0.14519297 -0.058411125 -0.17408693 -0.16776577 -0.12547481 0.03912758 -0.062246185 -0.07050805 -0.082533345 0.07958747 -0.05897319 0.0031121094 0.11089468 0.012621453 -0.1555311 -0.31135 -0.11810279 -0.027101329 0.1099828 0.06284464 0.053645678 -0.046989825 0.013416029 0.18440923 -0.013262795 0.023199676 -0.11595286 0.11548142 0.12908636 -0.059287995 -0.121412665 -0.14121537 -0.11841845 0.031732507 0.006126119 0.030082544 -0.0083745 -0.23942173 -0.053495448 0.010597362 -0.114336535 0.09734533 0.011535196 0.03149198 0.13032605 -0.2510406 -0.0022161864 0.04462662 -0.1625914 -0.022202821 0.1068776 -0.033343684 0.10542952 0.021484535 -0.005575449 0.20834403 0.040290922 -0.087521255 -0.00938031 0.07288594 -0.18492314 0.0052693146 0.0004045624 0.07765332 0.043747954 0.1254467 0.16095358 -0.26639125 0.19920173 -0.103589326 -0.03656727 -0.05067914 -0.09573497 -0.007889345 -0.10239027 -0.00926776 0.13746905 0.1671492 -0.07351463 -0.031943202 -0.09875998 -0.077809975 0.13268058 -0.024835685 0.04821364 -0.23104413 0.08553927 -0.047464866 -0.0514118 -0.032938063 0.2653217 -0.0625483 0.10748693 0.03878503 0.17583695 -0.021458717 0.06126838 -0.04592475 0.028743148 -0.19528285 -0.13689095 0.12160102
1973 0.012190842 -0.15634882 -0.1095386 -0.024242522 0.051154383 -0.23245305 0.03518822 0.034629855 0.011682535 -0.07582625 -0.10600812 -0.20461151 -0.10984769 0.04447803 0.041394643 0.014903873 0.026920859 0.20666558 -0.22048868 0.09848539 0.03957643 0.03943598 -0.018919239 -0.031491056 -0.112762466 0.1566026 -0.13663468 -0.05076666 -0.16691293 -0.1563253 -0.078677766 0.03339535 -0.042339467 -0.08567588 -0.07670648 0.049043052 -0.060588494 0.0036787908 0.103685014 0.0007328777 -0.18321373 -0.29813412 -0.1181285 -0.01647298 0.11582272 0.03935829 0.053800914 -0.05350991 0.008083757 0.18699385 -0.011081903 0.02935371 -0.096438386 0.1086421 0.10662337 -0.05641189 -0.11828161 -0.14803505 -0.1274067 0.02556705 -0.0009778943 0.022567663 -0.022289276 -0.1945041 -0.04104151 0.023928521 -0.089001104 0.10662576 0.0052104117 0.035657875 0.12606522 -0.23499542 0.0027975088 0.03887155 -0.13005453 -0.022853266 0.08945003 -0.044714864 0.10850279 0.0151362205 -0.01345963 0.22067507 0.039256997 -0.03569602 -0.032406945 0.060800526 -0.16435124 0.010434913 -0.021671612 0.05939427 0.039280795 0.10605457 0.147698 -0.23281713 0.21334183 -0.10419559 -0.040699642 -0.05713572 -0.102064155 -0.00060357526 -0.10725953 -0.024018485 0.13299674 0.14289625 -0.05053649 -0.036777154 -0.07901555 -0.0801924 0.120101295 -0.022212584 0.044520497 -0.21775566 0.08443656 -0.028566519 -0.048232153 -0.019958762 0.24314392 -0.036634978 0.11998839 0.043978658 0.18234178 -0.037855744 0.05568343 -0.03185762 0.03673856 -0.18080722 -0.13047141 0.10005808
1982 0.01090174 -0.18460618 -0.09024426 -0.03841537 0.041849203 -0.25252602 0.05194761 0.056008745 0.048577003 -0.09083749 -0.10275152 -0.21770072 -0.100857615 0.017105721 0.023294965 0.04050084 0.0151355155 0.23196793 -0.25219467 0.12776823 0.04163424 0.03849226 -0.018161453 -0.055499844 -0.113236785 0.14945135 -0.15461786 -0.05654776 -0.1754139 -0.17250149 -0.12000406 0.035446204 -0.07485601 -0.0793177 -0.06433106 0.07055387 -0.06582893 0.008913211 0.11965154 0.018112525 -0.15006384 -0.3029374 -0.11807127 -0.02460636 0.11113542 0.051700633 0.049648896 -0.032033667 0.019427396 0.15936853 -0.019055672 0.003253739 -0.11980863 0.11104254 0.13211875 -0.067520656 -0.10325023 -0.1481246 -0.1091766 0.018560128 0.0033189792 0.03709774 0.00025998108 -0.23324221 -0.06106386 0.004205328 -0.12460834 0.11381034 0.028955193 0.030834565 0.13125741 -0.25365725 -0.013947148 0.038271915 -0.15654935 -0.040642545 0.11661237 -0.05153977 0.116827674 0.015142389 -0.018893374 0.2141586 0.028358886 -0.082654804 0.001454346 0.08719802 -0.1674642 -0.0049322336 -0.011082246 0.086256884 0.047474686 0.14404526 0.15581113 -0.2653008 0.2097793 -0.10356249 -0.008260221 -0.045891795 -0.11073863 -0.012375011 -0.11498105 -0.0015496984 0.13150565 0.16568711 -0.06931558 -0.045735653 -0.10277922 -0.07360334 0.13308042 -0.022982845 0.04477913 -0.21769065 0.087448224 -0.055498067 -0.036120407 -0.038299184 0.2648646 -0.062831536 0.083391614 0.025414512 0.16060886 -0.02423005 0.06387921 -0.041839432 0.017493626 -0.19567892 -0.14725803 0.1265402
2228 -0.09929725 -0.12910987 -0.26867414 -0.102343746 0.2084694 -0.31212243 0.04546324 -0.1539069 -0.1708995 0.105528876 -0.015121471 -0.34587377 -0.5762951 -0.036188364 0.060981724 0.14482453 -0.09581884 0.3101945 -0.35197082 0.13995573 -0.185098 0.006060955 -0.11334249 -0.2960754 -0.32212386 0.3366863 0.014462315 -0.10402531 -0.22385468 -0.14024952 -0.34920287 0.101903625 -0.03837735 0.26914534 -0.28029892 0.24991713 0.13314573 -0.082528606 0.034694366 0.092950314 -0.112427644 -0.47141483 -0.14568748 -0.1591082 0.08729219 0.3055045 0.12235268 -0.2337041 -0.0063374327 0.45272622 0.104935415 0.2928584 -0.13526492 0.13444418 0.3068178 -0.091963544 -0.46919632 -0.04856537 -0.18585388 0.17350611 0.108614475 -0.06277033 -0.008616693 -0.4115571 -0.06699725 0.014262566 -0.078871265 -0.12295548 -0.25692144 0.02107107 0.038946703 -0.3028994 0.1056023 0.17044656 -0.3678438 0.16258483 0.03554547 0.18670246 -0.046248272 0.07842139 0.09697155 0.13651855 0.20198065 -0.38925695 0.074893 -0.012672142 -0.4058141 0.039575845 0.20443751 0.13423687 0.13064833 0.0806634 0.29060555 -0.42557055 0.06550528 -0.1655803 -0.31833005 -0.16484764 0.16277826 0.042159572 0.03423333 -0.06400111 0.2689593 0.40293798 -0.2637544 0.09066085 -0.05316371 -0.06556395 0.057716105 -0.010526368 0.18237145 -0.42153114 0.12477969 -0.08547077 -0.14930499 -0.11399953 0.4251182 -0.28252834 0.37926072 0.10627714 0.24242981 0.029857155 0.097137034 -0.09010698 0.16324548 -0.28307885 -0.03601913 0.15728456
2352 0.075824805 -0.1966866 -0.36262172 -0.04530663 0.1549832 -0.27554405 -0.039476976 -0.119741194 -0.21475086 -0.00985043 -0.18987489 -0.2116826 -0.30471462 0.111661814 0.1843005 -0.11958238 0.07922048 0.1781959 -0.21531805 0.017845498 -0.026728902 0.0011990102 -0.0062087094 -0.1113325 -0.18951255 0.2575807 -0.14192082 -0.04213646 -0.23843999 -0.11989478 -0.109671675 0.08859091 0.006472559 -0.025904043 -0.27555963 0.057383083 -0.06693903 0.10003604 0.15000658 0.04378089 -0.16649029 -0.41468853 -0.21508995 -0.007260591 0.11954723 0.13030939 0.057043675 -0.16088341 -0.07595088 0.3984173 -0.06279566 0.3054759 -0.11072591 0.19153288 0.13776769 -0.031182908 -0.35209996 -0.13668963 -0.233133 0.16473651 -0.07512963 -0.026957564 -0.1519185 -0.34931964 0.0007302577 0.07796238 0.0007971494 0.018164694 -0.117137544 -0.054122325 0.14041397 -0.25911817 0.15904768 0.16639438 -0.18925634 0.12755099 -0.03529221 0.15242457 0.016149392 0.13668019 0.0838286 0.20659171 0.042166933 -0.07571301 -0.1559838 -0.09257203 -0.41389498 0.12166593 0.18488067 0.047817856 0.019061176 -6.72983e-05 0.2535071 -0.2619211 0.25334215 -0.0796468 -0.36841097 -0.15518455 0.03120189 0.04542985 -0.049633253 -0.04562769 0.28203127 0.28729984 -0.12745917 0.0033962552 -0.05375467 -0.20631334 0.16146201 -0.09155781 0.060146816 -0.37695542 0.037173897 -0.041948665 -0.19840847 -0.022724396 0.1811074 0.004453462 0.33427367 0.1783765 0.39353287 -0.067628086 0.09933276 -0.06475863 0.1475995 -0.20311253 -0.05626614 0.07828008
1779 0.01790349 -0.16836682 -0.10232063 -0.034297228 0.03442572 -0.23833093 0.048124485 0.03836468 0.009644163 -0.08291906 -0.08726442 -0.19628271 -0.11603246 0.036940057 0.031072326 0.016583445 0.009501915 0.2228905 -0.23225679 0.094959855 0.049507968 0.022697484 -0.024296805 -0.02975744 -0.10350312 0.14537667 -0.13334385 -0.064773805 -0.15673429 -0.14944609 -0.09207584 0.040792618 -0.035946984 -0.068388104 -0.068694904 0.057396214 -0.06404736 0.011162525 0.101984896 -0.012011556 -0.16502722 -0.2907252 -0.11891006 -0.02260595 0.1216857 0.043167826 0.04156202 -0.059494443 -0.0016131225 0.16390507 -0.0041364315 0.018779222 -0.10633588 0.09471198 0.12562783 -0.04453834 -0.12486872 -0.1198393 -0.13037053 0.005274371 0.004548723 0.03198767 -0.012966905 -0.2154282 -0.040756434 0.011654424 -0.09364258 0.0995945 0.010434069 0.03757093 0.12938358 -0.23231643 -0.006829714 0.04680364 -0.15141156 -0.03145133 0.087759785 -0.03743259 0.107814446 0.024117474 0.0013458268 0.2154309 0.03626581 -0.056466676 -0.008826894 0.06403797 -0.15396735 0.0002691009 -0.024915613 0.08036633 0.039120417 0.10901753 0.14469141 -0.22359025 0.20316814 -0.11790547 -0.030480716 -0.054960985 -0.093669064 0.00823667 -0.095241606 -0.009469288 0.116087206 0.15913759 -0.06419274 -0.026393099 -0.08327307 -0.063910544 0.13653125 -0.017626889 0.03519164 -0.20559058 0.09087199 -0.042223874 -0.045465115 -0.02104468 0.25483236 -0.033075016 0.11673369 0.05635633 0.19682644 -0.03272872 0.05413605 -0.02841533 0.040858332 -0.19982082 -0.12211157 0.104680926
1847 0.023418203 -0.18406273 -0.10482955 -0.045465663 0.036250576 -0.2554366 0.04053469 0.047693364 0.011836626 -0.08405208 -0.09866453 -0.19975749 -0.1131025 0.032221057 0.038797647 0.011733999 0.01658027 0.23393485 -0.23717907 0.10143315 0.05713114 0.015994567 -0.021828601 -0.036592554 -0.10407691 0.15525001 -0.14540152 -0.074154176 -0.1626232 -0.14986983 -0.10043719 0.041056514 -0.050119895 -0.08685336 -0.07202629 0.05658922 -0.07826453 0.023330772 0.11156331 -0.0075659025 -0.16282147 -0.29574758 -0.12846723 -0.0246351 0.12979011 0.045465276 0.03811233 -0.05717538 -0.0020362972 0.17342806 -0.004597027 0.009947451 -0.117692664 0.10270995 0.13826187 -0.043916594 -0.13449834 -0.13148926 -0.1338094 0.007469 0.0042212876 0.040360756 -0.010893976 -0.23272566 -0.04705765 0.011657959 -0.09765807 0.108721845 0.017381473 0.03322018 0.14167808 -0.24944133 -0.008297645 0.054091386 -0.1655276 -0.033378497 0.093630604 -0.03918772 0.10871697 0.027615562 -0.007016731 0.21798608 0.034269013 -0.047665548 -0.014355875 0.06961014 -0.16029091 0.0020366332 -0.017074864 0.07946272 0.042400617 0.107219994 0.15044509 -0.23244181 0.20654477 -0.11796803 -0.026676994 -0.05702161 -0.101046056 0.0042640246 -0.0960308 -0.010429627 0.113612786 0.17242126 -0.06684755 -0.024065148 -0.0944914 -0.07609236 0.14545155 -0.022255162 0.03662823 -0.21966688 0.07644484 -0.047172148 -0.041262675 -0.027787684 0.2586238 -0.03482853 0.12310163 0.05546352 0.21070626 -0.047914993 0.06449435 -0.037535656 0.037475027 -0.2111805 -0.12849513 0.11662804
2355 0.10101735 -0.20395242 -0.4281053 -0.041407462 0.19583422 -0.29633543 -0.06281295 -0.1767876 -0.29392597 0.015613973 -0.22017914 -0.22084291 -0.3690844 0.13412742 0.22558591 -0.1549382 0.10801599 0.15861931 -0.2060134 -0.016227998 -0.04572478 -0.009252453 -0.0014818199 -0.1322155 -0.21483289 0.29855978 -0.13100982 -0.039586775 -0.26161078 -0.11977024 -0.117018364 0.10038746 0.025225181 0.0015406562 -0.34131473 0.055059694 -0.05704321 0.124022484 0.17021355 0.055958256 -0.18111582 -0.43281552 -0.23709528 0.0009033255 0.11786079 0.14591418 0.07376653 -0.19996214 -0.09721813 0.47723162 -0.07616028 0.39151108 -0.11008634 0.21434595 0.13135642 -0.019513592 -0.41327244 -0.13749835 -0.26476118 0.21057855 -0.08181378 -0.045981124 -0.19198065 -0.3818064 0.014173804 0.114785306 0.043361597 -0.02204199 -0.15842877 -0.062336188 0.14280735 -0.25271 0.20412451 0.20113973 -0.19337739 0.18238518 -0.0836238 0.19799547 -0.012030298 0.16838641 0.10474534 0.204773 0.054941345 -0.08735677 -0.19950335 -0.14254756 -0.48755655 0.15445922 0.24446723 0.035582174 0.013985612 -0.032883983 0.27523255 -0.25742716 0.2551851 -0.069366604 -0.4725848 -0.17462781 0.0710301 0.05285498 -0.029336974 -0.067189656 0.31700724 0.3247596 -0.1402214 0.009738421 -0.051118623 -0.25119877 0.16670227 -0.11134686 0.06955423 -0.43029886 0.015530218 -0.037287753 -0.24052462 -0.009855612 0.14837652 0.032142587 0.40192616 0.21258458 0.4459521 -0.075536735 0.114450976 -0.08651803 0.17760593 -0.1860134 -0.03565303 0.059046503
2354 0.084659174 -0.19779442 -0.4006792 -0.05101957 0.17885749 -0.29205248 -0.059911773 -0.16023852 -0.2673423 0.0062846714 -0.20804688 -0.22420797 -0.3600459 0.12463858 0.20430997 -0.13751349 0.087497845 0.17486204 -0.220333 0.005407486 -0.043945707 -0.008666258 -0.009618647 -0.12971821 -0.21178858 0.29381856 -0.13379532 -0.04174946 -0.25336903 -0.13486919 -0.11988603 0.094101846 0.017528282 -0.007294769 -0.319524 0.06347715 -0.050965756 0.11058054 0.16302778 0.052309997 -0.18439835 -0.4388338 -0.23028156 -0.0064927083 0.11375106 0.14371905 0.080958985 -0.19616856 -0.083073854 0.4591716 -0.068075 0.36064893 -0.112477146 0.20573235 0.13892347 -0.023683585 -0.40085796 -0.14249252 -0.25111938 0.18879229 -0.07972815 -0.039859634 -0.17680243 -0.36967477 0.0024870667 0.10344903 0.029413197 -0.0085434625 -0.1519298 -0.056433555 0.15011506 -0.25460482 0.19062087 0.19249623 -0.20426808 0.16639656 -0.06278313 0.18425271 -0.0051742205 0.16191576 0.10387486 0.20642784 0.05063918 -0.0896301 -0.17776679 -0.12106085 -0.45890656 0.1488101 0.2219606 0.041078065 0.024365235 -0.0115576815 0.27473903 -0.2673217 0.25143892 -0.0796097 -0.43903357 -0.17361738 0.06031503 0.0496848 -0.0369142 -0.07131197 0.3078426 0.3172369 -0.134413 0.0072377576 -0.054917447 -0.23400559 0.16865528 -0.10609728 0.07422186 -0.41980097 0.01968697 -0.041525684 -0.22462659 -0.0138088595 0.1708016 0.017053816 0.38456893 0.2014785 0.42691752 -0.06887727 0.106837064 -0.08454539 0.16668275 -0.1975966 -0.048533216 0.07455164
2159 -0.09908498 -0.15229714 -0.22514471 -0.10789321 0.15436982 -0.31368077 0.07510413 -0.082252085 -0.09104014 0.05587988 -0.01127373 -0.35010287 -0.486431 -0.045454446 0.024183111 0.16911174 -0.102857776 0.35107002 -0.37941188 0.17796186 -0.1425036 0.015568047 -0.1058991 -0.2502347 -0.2898013 0.3081 -0.04136007 -0.10540217 -0.2309845 -0.15078193 -0.3285648 0.08780077 -0.07584232 0.19912148 -0.21074021 0.24563324 0.09604056 -0.08444321 0.050887752 0.08063046 -0.119957395 -0.48999146 -0.14530991 -0.14182581 0.1202293 0.27821139 0.09460106 -0.1872607 0.0100164 0.37613937 0.096743055 0.20646355 -0.16388577 0.118396915 0.30390993 -0.11624078 -0.3861334 -0.073001556 -0.16863911 0.12166904 0.112525724 -0.027969277 0.03156235 -0.41746166 -0.07589925 -0.016549114 -0.14633745 -0.045564756 -0.18732652 0.03172537 0.057938702 -0.3419167 0.063473165 0.12532103 -0.37086508 0.08880993 0.10358981 0.11833733 0.0075974986 0.03933165 0.071301915 0.17577982 0.16442032 -0.36312032 0.10502841 0.04398505 -0.35159653 0.0056663826 0.14032519 0.14232567 0.1251702 0.12866116 0.27706027 -0.44146293 0.11453298 -0.17667468 -0.21147603 -0.14627452 0.099374354 0.019737681 -0.014363318 -0.032039188 0.25562748 0.36558557 -0.23768178 0.06832578 -0.08097626 -0.04181771 0.07985442 -0.0065715495 0.16829918 -0.38792858 0.15238471 -0.093750365 -0.09994829 -0.122519895 0.4658702 -0.28978765 0.30821615 0.072967105 0.22231588 0.031751405 0.09007983 -0.06947659 0.12141895 -0.3141509 -0.07147386 0.18693008
2194 -0.110390685 -0.15728347 -0.2546156 -0.11372577 0.18228304 -0.33635518 0.07340459 -0.10914245 -0.114266045 0.07157994 -0.017241605 -0.37535262 -0.54494584 -0.049286824 0.033775166 0.17415807 -0.102006674 0.36710313 -0.39463025 0.17952433 -0.16240436 0.016021455 -0.11500138 -0.28993687 -0.321223 0.3320332 -0.030927896 -0.118005544 -0.2458989 -0.16695213 -0.35869753 0.09238302 -0.069172926 0.23360036 -0.24374737 0.25688797 0.11243498 -0.09158617 0.049607683 0.09470457 -0.13059275 -0.5229536 -0.15588503 -0.1626621 0.115021795 0.3049688 0.11069419 -0.21349913 0.008113894 0.4319982 0.10836074 0.24184605 -0.16289121 0.13358498 0.32681274 -0.11448524 -0.43657196 -0.0741007 -0.18405537 0.1444719 0.12099682 -0.047377802 0.018656822 -0.43828833 -0.08016636 -0.008040363 -0.13991387 -0.07103722 -0.22143508 0.024641663 0.055741303 -0.3603358 0.07790334 0.1453428 -0.39028847 0.11395689 0.09363549 0.13997915 -0.0029279534 0.056905575 0.079777345 0.17722465 0.19312869 -0.38937616 0.09664696 0.033980194 -0.38772446 0.012761655 0.16490088 0.15348002 0.13722429 0.13156414 0.30630508 -0.46973482 0.1174584 -0.1839255 -0.26136956 -0.16571969 0.121729426 0.033622302 0.0005532983 -0.04867329 0.28303653 0.40275934 -0.26585472 0.07772126 -0.07623321 -0.06028042 0.076389946 -0.009576321 0.18593125 -0.42664126 0.15873568 -0.095798485 -0.12985867 -0.12696299 0.4805705 -0.30395362 0.35773182 0.09401874 0.24181354 0.032883424 0.10202409 -0.08193057 0.14862898 -0.3270136 -0.07272383 0.19208986
2229 -0.109054856 -0.13422604 -0.25042492 -0.10760954 0.18932255 -0.31028053 0.054574624 -0.13095857 -0.13773109 0.0879612 -0.0110518485 -0.35561904 -0.5503294 -0.047820233 0.04566025 0.15656717 -0.10424361 0.33049956 -0.3634981 0.1533675 -0.17514862 0.011545001 -0.116380274 -0.28669906 -0.3078022 0.32842442 -0.0008797799 -0.10950292 -0.22309333 -0.14135382 -0.34546873 0.09272495 -0.05672238 0.24934587 -0.25340503 0.24752922 0.12736045 -0.08973184 0.03904263 0.09507546 -0.111454345 -0.48292893 -0.13891217 -0.1640046 0.09399785 0.29825193 0.10709218 -0.21571487 -0.0020036534 0.4261467 0.10957837 0.25974628 -0.1497537 0.12494976 0.30881235 -0.10691278 -0.43601793 -0.056424513 -0.17984135 0.15308188 0.11570469 -0.058483526 0.006116425 -0.41724986 -0.07169564 0.0031138111 -0.10472584 -0.09909578 -0.22972889 0.027999101 0.046922684 -0.32547623 0.09463581 0.15777428 -0.37269992 0.13538589 0.063386135 0.1624458 -0.03070348 0.05984521 0.08275132 0.14953488 0.1957825 -0.3858522 0.0956029 0.015492312 -0.38012624 0.02947815 0.18729602 0.14293805 0.12894626 0.10088312 0.28370973 -0.44062984 0.078935795 -0.16668092 -0.28309897 -0.1617034 0.1416785 0.035609774 0.026110101 -0.060242634 0.26759472 0.3890097 -0.2588705 0.08289451 -0.065160275 -0.052970875 0.064477056 -0.0119300345 0.1750177 -0.41233173 0.13869645 -0.091935225 -0.12673967 -0.11640621 0.44630277 -0.2908261 0.3606079 0.09142345 0.22810428 0.030422507 0.09720091 -0.08095407 0.14443126 -0.29531494 -0.054996632 0.17093593
2359 0.053887952 -0.21267955 -0.36975414 -0.059513673 0.19483173 -0.346262 -0.022247957 -0.14513503 -0.22887205 0.008223455 -0.18380746 -0.28618652 -0.41211978 0.10239014 0.17700481 -0.06849442 0.05440224 0.23791958 -0.2847933 0.04870757 -0.064955376 0.0021612989 -0.029423108 -0.16750401 -0.2607249 0.3205423 -0.12577683 -0.06866163 -0.27199307 -0.17643924 -0.18265307 0.1041445 0.0065513486 0.03817808 -0.31799334 0.100778274 -0.028095303 0.058778983 0.15015063 0.056953385 -0.21070835 -0.4829184 -0.20856893 -0.046576973 0.12494952 0.17037737 0.107876755 -0.20751177 -0.057150483 0.48496214 -0.023095604 0.33649474 -0.11827166 0.20282736 0.19393514 -0.05519456 -0.4178163 -0.15220599 -0.26441276 0.18450356 -0.027600188 -0.031134866 -0.14500241 -0.40054193 -0.026791105 0.097611785 -0.013838 -0.014760615 -0.16580783 -0.010164736 0.15934145 -0.30923197 0.1496236 0.18439646 -0.25083578 0.16001101 -0.033946022 0.15442598 0.0062788487 0.14240836 0.090601936 0.23119679 0.095636286 -0.16061936 -0.12542836 -0.079483114 -0.4617587 0.121864386 0.19580057 0.079848014 0.05339327 0.026311118 0.291845 -0.33313063 0.24030185 -0.12209037 -0.39818856 -0.16150753 0.042593136 0.038324296 -0.040376633 -0.079738736 0.30743775 0.34891912 -0.16663301 0.015177232 -0.07201189 -0.20957208 0.16433348 -0.09432047 0.096519455 -0.45926762 0.058131345 -0.056357425 -0.2172217 -0.039261773 0.2649923 -0.04833109 0.3772909 0.18242629 0.40075603 -0.05841868 0.109162 -0.095432594 0.16242209 -0.24198927 -0.074897885 0.09877574
2358 0.056995943 -0.19786672 -0.37874162 -0.056243964 0.19224319 -0.3150481 -0.037027463 -0.15443505 -0.25186488 0.018320465 -0.1771469 -0.25815552 -0.39869058 0.103284545 0.18717453 -0.0858725 0.066951044 0.20666903 -0.25233945 0.03329377 -0.06858918 -0.0045555257 -0.024801567 -0.16293994 -0.2395382 0.3037269 -0.1141405 -0.058877133 -0.25124577 -0.15094484 -0.16681162 0.10239409 0.009966089 0.040663235 -0.3152768 0.09506379 -0.031014627 0.07427322 0.15045512 0.05412304 -0.1822995 -0.44677383 -0.20742737 -0.036295995 0.11289531 0.16063724 0.09084682 -0.19956936 -0.06818906 0.47193873 -0.0339713 0.35238087 -0.1164178 0.2009621 0.17957108 -0.036377206 -0.41115493 -0.14133075 -0.256862 0.18858404 -0.030399192 -0.037586153 -0.15342231 -0.38626722 -0.008749591 0.09769177 0.012819984 -0.02687775 -0.16548467 -0.0304158 0.1459429 -0.27354696 0.16569158 0.1877118 -0.2271343 0.1665425 -0.05588589 0.16510034 -0.007324472 0.14425866 0.10064229 0.21090946 0.07671118 -0.14878874 -0.13864487 -0.098183095 -0.45787635 0.12992865 0.21746449 0.06651097 0.04020449 0.004626706 0.27513146 -0.30528274 0.2276198 -0.103977196 -0.4145854 -0.16279884 0.05780456 0.045506127 -0.030301472 -0.07793281 0.30406842 0.33912373 -0.16542855 0.015662014 -0.066034816 -0.21438204 0.15023087 -0.09282256 0.082896255 -0.43964243 0.04074191 -0.049293317 -0.2169019 -0.031810977 0.22389579 -0.03434246 0.37365827 0.18781625 0.4031349 -0.053667963 0.108878344 -0.09287142 0.16122282 -0.22018829 -0.056606628 0.0888095
2013 0.0063137757 -0.16507348 -0.10632745 -0.031236207 0.055937245 -0.242105 0.03997118 0.03770822 0.021382667 -0.06795296 -0.09701445 -0.21281226 -0.11959596 0.024725838 0.02674257 0.03214672 0.015469016 0.21521029 -0.23676234 0.10656643 0.022202082 0.039934404 -0.02522907 -0.056344092 -0.11884874 0.15186672 -0.13217379 -0.052236136 -0.16672084 -0.16306497 -0.11202558 0.03290842 -0.059040304 -0.057228193 -0.07994318 0.072183564 -0.050231483 -0.00028033246 0.110354595 0.017960675 -0.15275823 -0.29651695 -0.110891804 -0.02542886 0.09485008 0.06331734 0.054329976 -0.054038938 0.01884404 0.1814925 -0.016692135 0.027049335 -0.103032246 0.11171405 0.11746048 -0.06340139 -0.11862791 -0.1367509 -0.10990577 0.034322765 0.001191379 0.024220878 -0.012406195 -0.22261314 -0.053586956 0.015957395 -0.10823453 0.09369323 -0.0024620425 0.028682265 0.12124001 -0.23948394 0.002427775 0.03717262 -0.14945765 -0.02123298 0.09290406 -0.03299164 0.10548821 0.0121955555 -0.0062286686 0.20564269 0.040512424 -0.08479048 -0.0106875105 0.06845005 -0.17448568 -0.000989553 0.0018126963 0.07548946 0.042573035 0.12388704 0.15329005 -0.24718024 0.19036274 -0.09774869 -0.04063795 -0.057354853 -0.08500507 -0.0042744093 -0.09593237 -0.017481443 0.13246498 0.15745473 -0.07051866 -0.034526505 -0.0928647 -0.08063835 0.11693031 -0.020437753 0.051770724 -0.21601856 0.08833577 -0.04209935 -0.054745767 -0.034392554 0.25327408 -0.059845366 0.10910776 0.041452415 0.15901549 -0.015387043 0.057787854 -0.044260424 0.02574548 -0.17809938 -0.13073708 0.109080255
1914 0.024190247 -0.18833265 -0.093850434 -0.035700876 0.04158614 -0.24246308 0.033477955 0.05444228 0.031118872 -0.08536418 -0.11115681 -0.19070038 -0.09322922 0.04339714 0.03864391 0.012890038 0.040258706 0.21066763 -0.22085437 0.10355684 0.05358695 0.024397418 -0.003379612 -0.027209906 -0.10200709 0.14626141 -0.14963745 -0.05724081 -0.1557128 -0.15344147 -0.09660819 0.049237266 -0.04965559 -0.09086304 -0.071803145 0.0525342 -0.07784326 0.022961596 0.116540365 -0.0012474859 -0.16373107 -0.27253735 -0.12969783 -0.01730646 0.1224804 0.032232694 0.048047397 -0.04303487 0.0021990798 0.16449058 -0.017579755 0.0014516194 -0.10822352 0.11214447 0.11775781 -0.033714905 -0.12026381 -0.13859951 -0.12070022 0.025273226 -0.016018013 0.03696886 -0.022959279 -0.20356639 -0.056401704 0.016419662 -0.09047295 0.10706498 0.02244348 0.02983893 0.13098282 -0.23493215 -0.0040637474 0.049178522 -0.13781807 -0.040501453 0.09232267 -0.039337035 0.11196978 0.028562723 -0.017196605 0.20897503 0.020397708 -0.04754895 -0.016816625 0.06534239 -0.16251245 0.015201001 -0.010904257 0.06896279 0.037386205 0.11037015 0.13603553 -0.22673132 0.19817911 -0.10723011 -0.029103305 -0.03619782 -0.11075602 -0.0143552 -0.09582754 -0.013021982 0.10472699 0.15440553 -0.05080783 -0.03852486 -0.099820726 -0.08046968 0.14387119 -0.021833241 0.027857913 -0.20374691 0.058364823 -0.036291733 -0.047860254 -0.008986806 0.23229454 -0.023873942 0.08895914 0.048128456 0.1921378 -0.051723212 0.0611036 -0.04500254 0.02179759 -0.18044105 -0.1293836 0.10363816
2084 0.003248299 -0.18063463 -0.12804845 -0.053748924 0.073262975 -0.28220758 0.04624008 0.03623015 0.01751212 -0.07320143 -0.10067082 -0.2494792 -0.16587012 0.02261236 0.025517628 0.032774482 0.0027313665 0.2506936 -0.27654114 0.119660385 0.024466785 0.026433086 -0.04831997 -0.07708547 -0.14696182 0.18712491 -0.15124735 -0.06939544 -0.20202127 -0.18025555 -0.13246717 0.05221673 -0.061678033 -0.045757797 -0.1075753 0.093899876 -0.052665405 -0.0005327825 0.10992871 0.02772002 -0.15779668 -0.35486227 -0.1348499 -0.041922115 0.12111617 0.09312446 0.047549814 -0.06548802 0.023660377 0.21474616 -0.008970368 0.051983956 -0.1329315 0.12732679 0.15473667 -0.07536217 -0.15538247 -0.15035065 -0.13428704 0.041285638 0.0073687015 0.017920924 -0.022527581 -0.27497372 -0.05200214 0.011451862 -0.13212034 0.103754245 -0.0027869549 0.025277065 0.1422348 -0.27697656 0.014525961 0.050593853 -0.19712079 -0.01624826 0.10193509 -0.011172826 0.10886106 0.011286363 -0.0062828474 0.23777631 0.057619486 -0.114238 0.00015808783 0.07403117 -0.22735077 -0.005183947 0.009227075 0.09611495 0.06286647 0.14114001 0.19172907 -0.29490012 0.2271952 -0.11609815 -0.062310327 -0.07843918 -0.07302243 -0.0048789373 -0.096618354 -0.0027521437 0.16956095 0.20317122 -0.09651051 -0.034917634 -0.090442926 -0.08216495 0.13440356 -0.013358126 0.06153518 -0.24982154 0.116561666 -0.0684704 -0.060269143 -0.051986914 0.2995411 -0.091299266 0.14418702 0.044789404 0.19329984 -0.029359842 0.06859162 -0.03576625 0.039400272 -0.2161928 -0.15123978 0.14044411
1855 0.047917068 -0.20410278 -0.104246214 -0.09558267 -0.034613654 -0.26415876 0.10515823 0.068625905 -0.02352642 -0.1261735 -0.047509715 -0.2841336 -0.088416934 0.0203048 0.08697536 0.07100949 -0.021168843 0.3566872 -0.31492928 0.11171575 0.070529625 0.022377657 -0.034326065 0.016735656 -0.11351224 0.15860674 -0.21288233 -0.08927402 -0.21542554 -0.14543357 -0.110363506 0.034277752 -0.10310966 -0.124661356 -0.06993201 0.17176151 -0.094178766 0.030414112 0.12920359 -0.022583297 -0.10945057 -0.36605355 -0.15878357 0.0015098808 0.20803168 0.07513627 -0.0053734668 -0.042507827 -0.046283826 0.10530832 -0.01257206 0.038736913 -0.17531095 0.083829425 0.200363 -0.12274075 -0.18687938 -0.11282109 -0.18027717 -0.068416364 0.013633853 0.08850637 0.048945807 -0.37054977 0.02900694 -0.036073163 -0.19335438 0.1929697 0.03703563 -0.002439882 0.14999995 -0.294019 -0.0006701201 -0.0050044768 -0.22036569 -0.06768183 0.13336916 -0.102266625 0.093474165 -0.02290353 0.009442647 0.2513985 -0.054544263 -0.08205171 0.039814238 0.15059043 -0.20693636 -0.017099831 -0.063012265 0.12528841 0.054694198 0.16919933 0.14383915 -0.3126496 0.28048 -0.15490285 0.01376643 -0.10133965 -0.19776487 0.0072129252 -0.124103956 0.06340516 0.14529945 0.17715271 -0.08242535 0.0062994566 -0.10211509 -0.035018705 0.13100109 -0.068532445 0.0432419 -0.28568134 0.12979461 -0.052568626 -0.044950925 -0.0639062 0.41372865 -0.11058633 0.08697418 0.051882662 0.2818214 -0.05160889 0.071090974 -0.005079426 0.045171 -0.28381044 -0.13187963 0.22153942
2040 0.019231193 -0.17314695 -0.1158072 -0.01962478 0.064726524 -0.2557507 0.033201635 0.03341452 0.021383842 -0.09071971 -0.12873663 -0.21485354 -0.10612182 0.07145138 0.053491697 0.011031944 0.045112755 0.21905552 -0.24879351 0.1007165 0.06296904 0.052879855 -0.012435185 -0.030376818 -0.11041162 0.1812881 -0.15891552 -0.04177473 -0.20822845 -0.1809716 -0.04583457 0.025231674 -0.032608718 -0.10999079 -0.087908715 0.036803458 -0.09389046 -0.006875827 0.1202055 -0.01351497 -0.22239569 -0.34687293 -0.12469507 -0.016250739 0.12654693 0.033545755 0.061772853 -0.05313747 0.017077701 0.20782234 -0.0025345734 0.028557086 -0.1110652 0.123677865 0.12630065 -0.05986367 -0.13349475 -0.18171443 -0.15078032 0.008302687 0.003977779 0.021739144 -0.03645175 -0.19267637 -0.05968727 0.020891061 -0.09754853 0.12903342 0.004413387 0.04573742 0.14579934 -0.2759459 -0.011481925 0.0403291 -0.14185826 -0.019599762 0.099186234 -0.06662048 0.13272661 0.0012027895 -0.0028093841 0.25288895 0.04086796 -0.032988433 -0.0442065 0.07554566 -0.1828513 -0.014823423 -0.036927704 0.06170616 0.045398917 0.11841709 0.16527154 -0.2522643 0.24394521 -0.122350745 -0.051471874 -0.075213015 -0.12394983 0.009376159 -0.12055291 -0.0352146 0.16079648 0.13768612 -0.06703757 -0.039055914 -0.086651795 -0.09895017 0.14736061 -0.025946688 0.044891715 -0.22352818 0.08865796 -0.020900212 -0.064276814 -0.013503116 0.27349877 -0.029864162 0.15014723 0.04903402 0.21894489 -0.06434956 0.04636622 -0.03662948 0.036395714 -0.18955086 -0.1367313 0.102288
1838 0.018098202 -0.17171668 -0.11913158 -0.041822866 0.043072827 -0.26151776 0.028302627 0.042155325 0.0069921566 -0.082407154 -0.11742549 -0.20859218 -0.12052008 0.04671344 0.05180501 0.0012185822 0.025626138 0.22549938 -0.24379782 0.10010819 0.04263936 0.024663912 -0.009607221 -0.03334978 -0.118056856 0.1676809 -0.14906666 -0.06772954 -0.17286068 -0.17130627 -0.090433195 0.042645678 -0.03772872 -0.08581222 -0.07942863 0.06320815 -0.07166906 0.014999734 0.11301945 -0.011626437 -0.18120733 -0.31424308 -0.13254118 -0.009894143 0.12841895 0.044495344 0.045562256 -0.069964506 0.0029439144 0.2010344 -0.0152247725 0.038913447 -0.105978794 0.11883156 0.123005524 -0.049076412 -0.13863893 -0.15157989 -0.1413363 0.0315372 -0.02015291 0.017540688 -0.027594903 -0.2194508 -0.046335936 0.015299771 -0.09201867 0.1093845 0.02444753 0.036260232 0.15096088 -0.24939807 0.0040389826 0.047214217 -0.15538548 -0.024236547 0.08022444 -0.02131532 0.114884 0.025624322 -0.0053557516 0.22664556 0.032815456 -0.042962003 -0.03314939 0.069383174 -0.16926393 0.022078633 -0.015559137 0.06532369 0.037057787 0.11475293 0.15440376 -0.24493597 0.21765043 -0.12317836 -0.05792424 -0.05481895 -0.10330457 -0.009248245 -0.096187994 -0.025713747 0.14326194 0.1618271 -0.047500793 -0.036985375 -0.08786764 -0.08697178 0.15249212 -0.024027033 0.038974505 -0.23658474 0.08139371 -0.03733162 -0.06204518 -0.021649783 0.25616127 -0.028587185 0.13317572 0.05512848 0.20852414 -0.050897114 0.06798326 -0.04080427 0.04578484 -0.21091431 -0.13038035 0.11172828
2073 0.026820388 -0.16255984 -0.12349405 -0.02905713 0.05697465 -0.24313155 0.028259773 0.03132242 0.009563458 -0.08950192 -0.11890284 -0.20725225 -0.11768411 0.05466624 0.05075616 0.014810032 0.041098114 0.21468124 -0.24609339 0.09681107 0.051612392 0.0381618 -0.013615193 -0.03302772 -0.10799186 0.16889328 -0.15439492 -0.043257345 -0.20117706 -0.16648027 -0.059420068 0.033053428 -0.031315647 -0.08811813 -0.084904596 0.04211904 -0.084722556 -0.0021889391 0.11010784 -0.009531499 -0.20107512 -0.32952723 -0.11986421 -0.016647765 0.12885883 0.04434694 0.049261205 -0.05280092 0.014082373 0.20081677 0.0013718593 0.038608156 -0.110806465 0.11101 0.13682833 -0.06417041 -0.14384194 -0.16451922 -0.1476123 0.008837381 0.0064722784 0.027983593 -0.032000497 -0.20401435 -0.04980779 0.01931992 -0.0991035 0.1264579 -0.000960033 0.033967823 0.14721163 -0.26559693 -0.0046344725 0.043516103 -0.1464474 -0.00923056 0.08969775 -0.05764562 0.118611775 0.007808442 0.0024390519 0.2369993 0.039746724 -0.038930446 -0.030124545 0.06492353 -0.18139127 -0.009427351 -0.027105594 0.06659231 0.043057185 0.11743567 0.15952437 -0.24436803 0.2250166 -0.12838204 -0.053424504 -0.07721087 -0.11406185 0.014737171 -0.112051345 -0.032659452 0.16171281 0.14395428 -0.07509122 -0.031201944 -0.08456322 -0.08635716 0.13848364 -0.030940725 0.04090047 -0.22330724 0.0839834 -0.030632956 -0.05728188 -0.011437208 0.2722323 -0.035098314 0.14993484 0.0565628 0.21534403 -0.061940078 0.048599664 -0.038276747 0.038928494 -0.19062728 -0.12615508 0.10386328
1913 0.023249255 -0.17220612 -0.088478565 -0.038299166 0.027955385 -0.23027809 0.03098061 0.05471 0.032420155 -0.087197594 -0.10493039 -0.18526445 -0.08169499 0.037177414 0.02981607 0.012085421 0.0319763 0.20648454 -0.2154359 0.101435736 0.048583556 0.023939138 -0.008180088 -0.016977372 -0.09330101 0.13135222 -0.14166102 -0.05773967 -0.15022242 -0.14795783 -0.093292035 0.037822843 -0.049347118 -0.0937884 -0.059779067 0.056630444 -0.07022438 0.020389471 0.10943209 -0.0062696827 -0.15206435 -0.26903716 -0.114727944 -0.018583767 0.11644348 0.031224499 0.044381607 -0.035222318 0.009136682 0.1472957 -0.019434044 -0.0009918856 -0.10127084 0.10609082 0.113705605 -0.040864196 -0.1060306 -0.1363653 -0.11143964 0.013421054 -0.019396342 0.03455242 -0.01361732 -0.20076078 -0.053092748 0.014705487 -0.09381545 0.10360761 0.028053107 0.034595776 0.12824717 -0.21965222 -0.0040363455 0.040321946 -0.1294844 -0.044517137 0.09103567 -0.04490314 0.10503434 0.021593506 -0.013368433 0.20241559 0.01604677 -0.04331036 -0.014102497 0.0730855 -0.14808749 0.010947912 -0.016292134 0.06676858 0.02938309 0.106044546 0.1348577 -0.22006594 0.19447714 -0.09648597 -0.015882306 -0.029392814 -0.1151751 -0.0144931 -0.10361878 -0.008092202 0.0992395 0.13843757 -0.044720925 -0.038880363 -0.095486 -0.073874064 0.1369115 -0.019189268 0.03373469 -0.19451591 0.06531943 -0.035280745 -0.044648148 -0.015350536 0.23102207 -0.030902663 0.079646505 0.03633512 0.18189703 -0.04408798 0.05372799 -0.037539255 0.013491744 -0.18074945 -0.12904802 0.10378303
1955 0.00063496496 -0.2251745 -0.0694838 -0.14392601 -0.07602278 -0.27077073 0.164174 0.10265284 -0.012142721 -0.12042046 0.027893936 -0.33528653 -0.11231077 -0.061230626 0.055571575 0.19799916 -0.11197864 0.46498945 -0.40831363 0.17131746 0.024521884 0.023612842 -0.06030554 -0.035956837 -0.1550967 0.14678453 -0.2526912 -0.12074112 -0.23170376 -0.13585792 -0.20393057 0.043681387 -0.17733386 -0.067453966 -0.041330595 0.2862289 -0.052293263 -0.011507681 0.117230706 0.020585207 -0.016489629 -0.45314172 -0.16554154 -0.021518903 0.26351658 0.15254968 -0.043388184 -0.029218726 -0.04285454 0.047035858 0.017611379 0.015918259 -0.23877726 0.05108777 0.29817414 -0.18993373 -0.21421187 -0.061776698 -0.17797406 -0.12302689 0.08109379 0.11953137 0.13239941 -0.5144171 0.040394872 -0.11152252 -0.31733707 0.20168407 0.02095282 -0.017723087 0.113777965 -0.37060136 -0.03186445 -0.028996317 -0.31382442 -0.09803393 0.24679953 -0.1295366 0.07879769 -0.05298724 0.01928671 0.22973007 -0.07042356 -0.21488343 0.16137713 0.20325805 -0.2329024 -0.060684074 -0.06391481 0.20090553 0.09550862 0.24002294 0.16487974 -0.43343845 0.26765615 -0.19706051 0.069530144 -0.12043836 -0.18164238 -0.01821888 -0.13578795 0.1101504 0.15748855 0.21404359 -0.16545841 0.031034682 -0.12437262 0.027955998 0.10771856 -0.08569009 0.07356257 -0.3287243 0.20201057 -0.12041561 0.0046102856 -0.13999009 0.5442629 -0.27207822 0.043460783 0.01083588 0.27173558 -0.013193152 0.093558885 0.015177945 0.051738035 -0.37096125 -0.11225787 0.32531273
1984 -0.025067566 -0.18128182 -0.099362575 -0.07205359 0.036510944 -0.26219133 0.083122514 0.050887838 0.031631343 -0.072633676 -0.043643158 -0.2545589 -0.16085954 -0.030738661 0.0007084985 0.11221294 -0.046059743 0.293471 -0.3008415 0.15480064 0.0033147181 0.024035838 -0.053582195 -0.09782943 -0.14701885 0.15584224 -0.1549087 -0.07741154 -0.18815233 -0.15952061 -0.18617418 0.036097128 -0.10133231 -0.01619086 -0.06260763 0.14645274 -0.02726272 -0.019622419 0.09592553 0.03293751 -0.09708902 -0.35695267 -0.11808866 -0.052913908 0.14265013 0.1179254 0.033263937 -0.04528395 0.021811934 0.15219493 0.017970935 0.014588766 -0.15206218 0.0951637 0.19426824 -0.100629 -0.1528976 -0.10535534 -0.118789904 0.0003055425 0.05087235 0.039233044 0.05399977 -0.32106465 -0.05294735 -0.035514265 -0.18480648 0.102976635 0.008327929 0.01510721 0.09734257 -0.29217958 -0.012807169 0.038531058 -0.22363624 -0.03848058 0.16564369 -0.034661826 0.0917842 -0.000674029 0.0030303958 0.1914461 0.032415725 -0.1727904 0.07589521 0.09590325 -0.19914293 -0.02100102 -0.0016944477 0.120634876 0.066841014 0.17286742 0.17540105 -0.33991134 0.18974432 -0.14475836 -0.008110703 -0.064563416 -0.070874035 -0.022517998 -0.104110375 0.0140264565 0.15043241 0.20016532 -0.12115481 -0.014351631 -0.10530677 -0.030233063 0.11285127 -0.021346627 0.07049329 -0.26094455 0.13026392 -0.08892723 -0.015765734 -0.07612149 0.35647088 -0.16666068 0.09156412 0.012167719 0.17545255 -0.00043287268 0.077053666 -0.026741428 0.036453485 -0.25813666 -0.13053966 0.1766076
1910 0.010104399 -0.15985458 -0.10198104 -0.030915245 0.049636584 -0.2289014 0.033596635 0.037926648 0.008807532 -0.07735097 -0.1059781 -0.20457436 -0.11836494 0.03831472 0.038490172 0.018506713 0.025472732 0.20395401 -0.22102804 0.09615146 0.029315174 0.037774384 -0.0118273 -0.038930316 -0.11252397 0.15150633 -0.12452943 -0.0493633 -0.15751503 -0.15165132 -0.09733166 0.034225877 -0.048247848 -0.078167185 -0.077585384 0.0637236 -0.04966907 0.002133949 0.104585074 0.008606116 -0.15994497 -0.2843763 -0.12041423 -0.03164064 0.11131441 0.04873663 0.056704197 -0.05611906 0.0034444341 0.17777084 -0.01563585 0.02826597 -0.10403161 0.11308198 0.11346614 -0.057268504 -0.12728783 -0.1332972 -0.116762355 0.03141163 -0.009171361 0.020996409 -0.015674416 -0.20657751 -0.045047574 0.021290451 -0.09129132 0.08975072 0.009682662 0.037936352 0.12548228 -0.22430456 0.0050340234 0.04238126 -0.13907583 -0.024703145 0.087444685 -0.03059795 0.09899499 0.022044877 -0.0067529506 0.19736858 0.032895982 -0.057357173 -0.025530152 0.06808871 -0.16548863 0.015122677 -0.002058063 0.059461243 0.036426418 0.109874785 0.14829922 -0.23585215 0.19218785 -0.09802031 -0.045344554 -0.04261323 -0.08891701 -0.016869383 -0.08910469 -0.020486727 0.12746868 0.15501718 -0.057998113 -0.025267957 -0.08347803 -0.0737672 0.121086225 -0.015694806 0.04243679 -0.21206419 0.08530565 -0.02826167 -0.050569825 -0.024934834 0.24209999 -0.040181965 0.11330345 0.045372028 0.1872147 -0.042712256 0.057916507 -0.038313877 0.02645673 -0.18644942 -0.12595819 0.10220818
