25 128
3560 -0.0022983907 -0.0015995261 0.0019742283 -0.0032151255 2.2194723e-05 -0.0030330415 0.00013018327 0.0020310103 -0.0013673423 0.0029319506 -0.003732936 0.0008426844 0.003337299 -0.0026032124 0.0026108664 0.0019511363 -0.0028799549 0.0034287223 -0.0035478664 0.001688778 0.00075839 0.0034674797 0.0037688764 -0.0026031854 -0.00016091012 -0.00091905566 -0.00069275935 -0.003322877 -0.0018970135 -0.0005325418 -0.0016737031 0.0013460078 0.0012835666 0.0013782725 -0.0008887086 0.0018575115 0.0018339474 0.00033205375 -0.00010360295 -0.00077107706 -0.0008337621 0.00064525835 -0.00033751293 -0.0015791648 0.0038749352 -0.0027887442 0.002189243 0.0033880663 0.00027628802 0.0014836085 0.00014971418 0.0023295418 -5.374148e-05 0.0031899316 0.002607138 -0.002117148 -0.0027079412 -0.0014783358 -0.00050076476 0.0024430857 -0.0038090132 0.002223728 0.0014004653 -0.0032958325 0.0021392675 -0.0009505112 -0.0030483578 -0.0020358132 0.0036563892 0.0005628207 0.00015650314 0.0016402313 0.0027669186 0.00046215838 0.003281595 0.00029968313 -0.00017423992 0.00037666553 -0.0013218219 -0.0029548686 0.0021387872 -0.0016104188 -0.0015358665 -0.0017471084 -0.00094456866 -0.0016265865 -0.002451794 -0.0011206073 -0.001031238 0.0006956699 0.0024012693 -0.0017245527 -0.0034285563 0.0026109887 0.0024510962 0.0028335478 0.0036029029 -0.0011460456 0.00012402145 -0.0038525306 0.00068244425 -0.00042513953 0.0021479875 0.00077807624 0.0006993816 0.0013283718 0.003723591 0.00055023923 -0.002089622 0.00053031655 -0.0030605043 -0.0023426495 -0.00015986683 0.0018803941 -0.003455685 0.0020281393 0.0031836506 -0.0028876949 -0.0027530112 0.0006660047 -0.0020462924 -0.0020451902 -0.0011724408 -0.0010854604 0.0034662392 -0.0029082529 0.0006664896 0.003128176
3561 -0.0035322064 -0.0014276508 0.0031385808 -0.0007212841 -0.0018240978 0.0015824984 0.003051965 0.0038440113 0.00046334375 0.0025001848 -0.00025482656 -0.002671041 0.001785932 0.0014182327 0.00035676672 0.0036801125 -0.0023294715 -0.00035438364 0.002421541 0.0017553682 -9.498431e-05 0.0014822227 -0.00010800466 0.0038864522 0.0021203172 -0.0030489145 0.0016686214 0.0016975526 -0.003160799 -0.0033632927 -0.002708537 0.0037763712 -0.0035405213 0.0026889553 0.0033203382 0.0011528214 0.003450386 -0.00022075999 -0.0007189594 0.0037932436 -0.00313047 0.001783792 0.0029953427 -0.00040894386 -0.0016742463 0.0030570554 0.0023131804 -0.0012263231 -0.0036960335 0.0010940076 -0.0025871638 0.002901425 -0.00194592 -0.001340509 0.0016120832 -0.00051647663 -0.0025122603 0.0020603223 -0.0032617485 -0.0034361223 0.001843566 -0.0025505316 -0.00045805128 -0.0022651807 -0.002021774 -0.0011495391 0.0025346596 0.0021777805 -0.003270662 -0.0010359177 0.0018318349 -0.0033794858 0.003722515 -8.409717e-05 -0.0030662722 0.0006401998 0.0024619922 0.003100829 0.00084817427 0.0033059213 -0.0020263582 0.0021132263 -0.002795679 -0.0025659339 -0.0037247872 -0.00051564013 0.0020369233 -0.00036014823 0.0027092176 0.0013428549 -0.0009400198 -0.0037729854 -0.0014289914 -0.0015905602 0.0013344596 -0.00063611555 0.0029960796 -0.0022259373 0.0027798568 -0.0015905806 -0.0016186289 0.0033791002 0.00073638617 -0.0011530881 -0.00316253 -0.0016976099 0.0036097306 -0.0003814304 -0.0029252253 0.0024560834 -0.0018696403 0.0038509604 -0.0034189108 -0.0006114022 0.0017835781 -0.0018791829 -0.002143429 -0.0012822528 0.000890009 -0.0035233975 0.0004394067 0.0005313865 -0.0014579529 0.00062469457 0.002926126 5.181941e-05 -0.0027027966 -0.0024488186
3565 0.001248249 -0.0025505912 0.0019345805 0.0024722617 -0.002003108 -0.001419792 0.002348476 0.000114369424 0.0010528944 0.0008257926 0.00071197265 -0.00015784128 -0.0033027683 0.0008222483 0.00056998467 -0.0035179162 0.0028626898 0.002903046 0.000573413 -0.003621995 -0.003181266 0.001519387 -0.0015182439 0.0015513784 0.003298608 0.0018344095 -0.00063692476 0.00036263102 -0.0003675185 0.0026350566 -0.00023859083 0.0010535279 0.0011856286 0.003271459 0.00017744637 0.0024058837 -0.00048604017 0.0023209527 -0.0018550204 6.6076034e-05 -0.0007416228 0.0027801222 -0.0035770559 -0.00048845896 0.0036999928 -0.00064420723 -0.00015703792 -0.0017574157 0.0003972762 0.00014700212 0.00032194008 0.0004629372 -0.00076066353 -0.0036346414 -0.00010537149 0.0029895352 -0.002611643 -0.00038341462 0.00024802095 -0.0028441893 -0.0032784725 0.0020020904 0.0027490768 0.0021652167 0.0019929826 -0.0013960158 -0.001686076 -0.0029712887 -0.0036619562 -0.0025427842 0.0029658377 0.0027764533 0.003862889 -6.45805e-05 -0.0026006338 0.00016411362 -0.0030115405 -0.0023228948 0.000986202 -0.002234651 -0.0010539214 -0.0019294024 0.0016594088 4.9554506e-05 -0.0018728977 0.00030721413 0.0005324119 -0.001866116 0.0015846486 0.0018338488 -0.0011734908 -0.001621587 -0.00085756986 -0.0034365186 0.0014464274 0.00034812608 -0.00085288176 -0.0035543782 0.0030907237 -0.00089342153 0.0018819092 -0.00073734263 0.0020858378 0.00097429694 -0.0019670182 0.0020627484 -0.0029354396 0.0010095952 0.0036537175 0.002097667 0.0031996462 0.0035657093 -0.0034188605 -0.001969163 0.00023533206 0.0033246162 0.0014361643 -0.0013037823 -0.0006445823 0.0005327065 -0.0012062398 0.0008242264 0.0016931781 0.0037623518 -0.0003847004 0.00062725926 -0.00077558594 -0.0010309464
3563 -0.0024264304 -0.0010302144 -0.0022271196 -0.0010470106 -0.0022328843 -0.003121252 0.0011384044 -0.00043635088 0.0033337984 0.0018015571 -0.0015726982 -0.002104493 0.0006062519 -0.0037229592 -0.002073744 0.0025547394 -0.00023199069 0.002088389 -0.0007574731 -0.0021094086 -0.000913117 0.00050863123 -0.0038321086 0.0003029843 -0.0015658278 -0.0021255289 0.0024893382 -0.0033406115 0.0021987262 -0.0011687599 -0.0017694604 0.00064802833 0.0032373832 0.0019878917 -0.0035707648 0.001217945 9.721481e-05 -0.002470347 -0.0025938442 0.0022907243 0.0028678512 -0.0013285433 0.0033629797 -0.0007600748 0.0038092576 0.0021530304 0.0024297389 0.0007403677 -0.0030351335 0.001798085 -0.0026459112 0.0033792392 -0.00093484716 0.002693194 -0.0014704905 -0.0017625327 0.0013381601 0.002787187 -0.002159431 -0.0035254697 -0.0028395858 -0.0017324976 -0.0023707845 0.0034007956 -0.00040860818 0.0034663903 -0.0027135853 0.0013841649 -0.0017307897 -0.00087894616 0.0037510695 0.0018345895 -0.00040439435 0.0032311466 -1.9129327e-05 -0.0016057708 -0.00011263239 -0.0034482784 0.0016174045 -0.0035000797 0.0015828329 0.00073638215 -0.003368166 -0.0006994783 0.0011349589 -0.0018778703 -0.00062862976 -0.0029547543 -0.00025237753 0.0009861881 0.00020100856 0.0022219545 -0.0030164865 0.0010175267 0.0005042773 -0.001341053 -0.0038812102 0.00021409888 -0.001581463 0.002433713 0.0016379115 0.0017538879 -0.00049357535 -0.0015277353 0.003340345 0.00045371178 0.0016382934 0.0015911297 -7.212445e-05 0.0030141736 -0.0031538536 0.0014545294 0.0022047285 -0.0030218812 -0.0039389418 0.0021394615 0.0005457607 0.0037394306 0.0020494673 -0.00255262 0.0008923345 -0.0018655348 0.0004029348 -0.0018940779 0.0015018883 -0.0031866739 0.0007560206 -0.00082624954
3562 0.00084906706 -0.0031351831 0.0018436142 0.0014150013 0.0022743386 -0.0015972675 -0.0002423178 0.003496519 0.0037505126 -0.0038161913 -0.0035235984 -0.00055069284 -0.00074828794 0.00025403895 -0.001068544 -0.0037994 0.0005033487 0.000108292814 -0.0030524896 -0.0011204121 -0.0029955227 -0.0006735695 -0.0013256493 0.0027454956 -0.0029607953 0.00198868 0.0007727933 0.001335412 0.00010190121 0.0031773765 -0.00015500274 0.0008405034 -0.0018122692 -0.0009041422 -0.0006402672 -0.0018477702 -0.0010000612 0.0010573424 0.002370688 -0.0024530264 0.0036252518 -0.00066235824 -0.0019937635 0.002052633 -0.0035182072 0.003799681 -0.0014374157 -0.003497871 0.0023433173 0.0036490874 -0.00086346664 0.0013226275 -0.0029551515 0.00013326913 -0.0004272693 -0.0019445652 6.695189e-05 0.00013423953 -0.0016054038 -0.00038370478 0.0026466001 -0.00017132747 0.00069250714 0.0035125993 0.0013606885 0.003467377 0.00066254183 -0.0018132746 -0.0005837715 0.0030143862 0.0037226612 -0.002877133 -0.002264446 -0.0013714641 0.001108786 0.002362481 0.0026108068 -0.0008563841 0.0030363 0.002817278 0.0013449788 -0.0006947413 0.003013976 -0.0013022103 -0.00021291725 0.0014296997 0.0007015697 -0.0013165686 -0.002782464 0.0039148484 -0.00052636914 -0.002888804 0.0016446743 0.00014861836 -0.0037469096 -0.0014089409 0.00012294836 -0.0028281717 -0.0036828867 -0.0020586792 0.0038881837 -0.0028837642 0.0008223728 0.002512783 0.0009426052 0.0003894267 -0.00043535602 0.0011473924 0.0020101243 0.0007064438 -0.00043599794 -0.0024371294 -0.002984135 -0.0023490235 0.001112675 -0.0034043235 0.0019229912 -0.0016599899 -0.0033433312 -0.00010638236 -0.0022716455 -0.002171775 0.0023546685 0.0015947432 0.0027822459 -0.0008221024 -0.0023091983 0.0038293067
3559 -1.0561286e-05 -0.0011046011 0.0038192077 0.0028205002 -0.0029680307 -0.0023423664 -0.0034731727 -0.0026845187 0.0005794521 0.0030347682 0.0023076492 0.001257901 -0.00015474879 0.0038993617 -0.0025992324 0.0032299326 0.0035860888 0.0028329405 0.003269622 0.0013996402 1.3516918e-05 0.0012006952 0.0018690634 0.0004716746 -0.0009694257 -0.00011622203 -0.00343378 0.003096982 -0.0016209253 -0.00012390023 -0.0019078869 0.00062980154 -0.0019779573 0.0016125226 -4.4056083e-05 -0.0038434642 -0.0026375414 0.002387395 0.0038094362 -0.0012358887 -0.0009925022 -0.0019914906 0.0035372826 -0.0014191262 -0.003752862 -0.0036757183 -0.0032901287 -0.0022259587 -0.0010183143 0.0012274901 0.0025858253 0.0035105573 -0.00029973735 0.0018665924 -0.0036007399 -6.675299e-06 -0.0014155871 0.0015045981 0.0017707804 -0.0001211068 0.00018868661 0.002182992 -0.003051754 -0.00044289744 0.00097613735 -0.0025660358 -0.0008770144 3.4486293e-05 -0.003433345 0.0023599307 -0.003745875 -0.0036122608 0.00065423857 0.003253772 0.00025918017 -0.002328392 -0.0035792538 0.0028887256 -0.003234857 0.00013051192 -0.00076836866 -0.00357862 0.00014989181 0.0031770875 -0.0001248917 0.0014061682 -0.0029732932 -0.003529751 -0.0017151961 0.0022069928 0.0016699436 0.00083923864 0.003845146 0.002389841 0.0003736537 -0.00028807143 0.0019682816 -0.0036830374 0.001519741 6.470141e-05 0.0020146784 -0.0009757831 -0.0020015594 0.0030006552 0.001259404 0.002037807 -0.00060906156 0.0033850186 0.0036481651 0.0026823075 -0.0023523336 0.0027794533 0.0026479636 -0.0032442925 0.0014426323 -0.0028657867 -0.001597162 0.0034055244 -0.0017500306 0.0013263107 -0.002153944 -0.0028684903 0.0022249862 -0.0020651822 -0.000951651 -0.00034627863 0.0016162755 0.0012062388
3557 -0.0018062547 0.0015461677 0.0033361148 -0.0002528219 -0.0010772422 0.0024568788 -0.00096324756 -0.0013363175 0.0033200544 0.0008149824 0.002144607 -0.0015341139 -0.002837758 -0.0010326395 0.002876562 0.0008497498 -0.0034089352 0.0032868658 0.0015604412 -0.0031435497 -0.00073441723 -0.00224412 -0.0027895628 0.0011783591 0.00369036 -0.0036357334 0.0009707858 -0.0003128907 0.0020723206 -0.003758149 -0.0013658109 0.0006703292 0.00066717993 0.0037872796 -0.00047850423 -0.0020253023 0.00016605308 -0.00136316 0.0006533048 0.0009814407 -0.0013296596 0.00011532069 -0.0009966728 -0.0012585073 -0.0011823914 -0.0016472117 -0.0032280642 -0.0013029067 0.0013712365 -7.42368e-05 -0.0025047217 -0.0016457305 0.00048005834 -0.0036144943 -0.001502193 -0.00090821023 -0.003077266 -0.0025298751 0.00082662754 -0.00084897806 -0.0010046181 -0.002135928 0.0027963822 0.0036548444 0.00046402222 0.003904133 -0.0011391253 0.003099422 -0.00010396805 0.0018331788 0.002376827 -0.0022121104 -0.0011145562 -0.0037224563 0.0013138974 0.00092330895 0.0034864375 -0.0019588203 0.0010052256 -0.00038109068 0.002766024 -0.0038834673 -0.00056929735 -0.0021849296 -0.0021129241 0.0019394961 -0.0021247107 -0.00015096796 -0.002015859 -0.003337987 0.0007933196 -0.002982472 -0.0021881938 -0.0021616565 -0.002610386 0.0011718288 0.0010316791 -0.0010452985 0.0018522093 -0.0038528936 -0.0029160595 0.0036748846 0.0037229594 0.0001790527 0.0034129003 0.0023715165 -0.0025382447 -0.0035683922 -0.00045201808 0.0038978274 0.0036737507 0.0015984364 0.00053449423 0.00031070723 -0.0015872965 0.0014671811 -0.0010112576 0.0026372864 0.003289142 0.0020139678 0.0012725489 -0.00053275283 -0.002196743 -0.0036677925 -0.0013973902 -0.0014903245 -0.0023377012 -0.002587053
3558 -0.00096460845 -0.0017772876 0.0027686704 0.0010325303 -0.0013552766 0.0034833255 0.0001459534 -0.0012825223 -0.0010634443 0.0018464243 0.0021428315 -0.0035291119 0.0031353338 -0.0007667451 -0.0022151622 -0.0005108418 -0.00047268512 -0.0017955685 0.0028159898 -0.0031434896 -0.0012839058 0.00030602296 0.0013486732 -0.00016801871 0.00244259 0.001182147 -0.00073140406 0.00043640615 0.0009851643 -0.0018880222 0.0011963007 0.00017512689 0.0027147385 0.00061189855 -0.0032044665 -0.0018797814 -0.0024236878 -0.0034912499 0.0013119899 -0.0036748948 -0.0020887756 -0.0026442478 -0.0034930778 -0.00024708753 0.0020973634 0.0027306643 0.0007432263 0.0023515422 -0.003303337 0.0008649292 0.0013264557 -0.001113096 -0.00092101796 -0.00065192615 0.0035904136 -0.0017915918 0.003522548 -0.0010347223 0.0015722676 -0.0009774116 0.00032531994 -0.0012441009 -0.00037667848 -0.002033216 -0.0023502342 -0.0022280216 0.002544869 -0.00220693 0.0022430331 -0.00027942884 -0.0002782525 -0.0022973788 -0.00037127652 0.0028982386 -0.0036260076 3.571342e-05 0.00072300964 0.0034579483 -0.0037508 0.003060726 0.0014862836 0.0012911935 0.00030027417 -0.003628749 -0.0020677943 -0.002119313 0.0019540386 -0.000116381234 -0.002370389 -0.00043987564 0.0035656781 0.00092912867 -0.0031660884 -0.003023723 -0.00079252734 0.002859264 0.0014314773 0.0020823455 0.00047315727 -0.0010129395 0.0002307497 -0.0022836765 -0.00061428535 -0.0013910143 -0.0025411213 0.0038449415 -0.0016062525 -0.0004478417 0.0024211546 0.00036968384 0.0013194969 -0.0015287244 0.0017155011 4.5329976e-05 -0.0016435145 -0.00023806164 -0.0016639904 -0.0007068231 0.0010406901 0.00082819216 -0.0018918322 -0.0025024195 -0.0033232467 -0.0002737951 -0.001316431 0.002968 0.0024949892 -0.00019262698
3564 0.0011635716 0.0013046041 0.002130668 0.0020836354 -0.0027600015 0.0002100231 0.0008303594 0.00071259413 -0.0035984595 -0.0027196358 0.0028513065 -0.0014893952 -0.0011613064 0.00049483706 0.00038023965 -0.0016103062 0.0005689622 -0.0028040372 -0.0019372085 -0.00045650697 0.00019031992 -0.00042406569 -0.00041467862 0.001831817 0.0027006925 0.00092840916 0.0035083045 0.002424692 -0.00017934802 0.0032719686 0.00030493079 0.0025944274 0.003255984 -0.0005219433 0.0010944955 -0.0017714179 -0.00028863575 -0.0021520716 0.0033886048 0.00315314 -0.00058219134 -0.0007748497 0.0023802642 0.0023291644 0.00060419826 -0.0037753813 0.0014740245 0.0012093511 -0.0029515238 0.0027543216 -0.0019218202 0.00063441816 0.0008819669 0.002033119 -0.0023647065 0.00010671131 -0.00032352374 -0.00077864836 -2.5009223e-05 -0.0006176435 0.00184608 0.00018883102 0.00040419088 -0.0017498515 0.0019038898 -0.0018992028 0.000837345 -0.0023943917 0.0006969051 0.0018796202 -0.0034210617 0.0006541927 -0.0038190216 0.003294237 0.0028723762 -0.002275953 0.0014518816 6.1196097e-06 0.000685244 -0.003088943 0.0014225035 -0.002543825 -0.0027725478 -0.0012327067 -0.0038103731 0.0026614345 0.0013889731 0.0030280391 -0.0007484469 0.00393547 -0.0025824727 9.101618e-05 -0.0016031802 0.0016051738 0.0030387791 -0.001152655 -0.0018217722 -0.0027766293 -0.0021617059 0.0013883319 0.002009895 0.0038836722 0.0036707958 -0.0017000152 -0.00062587403 0.00363886 -0.0035192473 0.0017011377 0.0029315646 0.0001555449 -0.0011215038 -0.0024010066 -0.0018687287 0.0011117029 -0.0038204426 0.00266879 -0.0022267574 -0.00020336856 -0.00078999234 0.0032040225 -0.003001947 0.0017624043 0.0016482472 0.003236341 -0.0036237836 0.0037552388 -0.0009643194 0.0037711565
3553 0.00088747963 0.0028378603 -0.0019746583 0.001653808 0.0024490354 0.0028875577 -0.0029989274 0.0018512461 0.00358361 0.00090321247 0.0015103357 0.0021484976 -0.0036306288 0.0005068546 -0.0017502792 0.0039079045 -0.0012746288 -0.0034703917 0.0037838612 0.0022625732 0.0017947417 -0.0011002399 0.0027651717 -0.0030953921 -0.0038175243 0.0008793757 0.0016515405 -0.002690673 0.00024462512 0.00025532243 0.0016538872 0.00011867429 0.0024820974 -0.0031479192 0.0023616615 -0.0006817286 0.0012547295 0.0014813057 -0.002704472 0.0035876774 0.0022941097 -0.002438615 -0.0027199998 0.00080544554 0.0010021996 0.0021460215 0.00012817862 0.00080453616 -0.0035937042 -0.0031650583 0.0007933619 -0.0028906427 0.0017221015 -0.0020956344 0.0028880357 0.0020617899 -0.0023912673 0.0025949567 -0.0031907512 -0.0009680831 -0.0025052102 0.0005237093 0.00029862652 -0.0017155723 0.0001844158 0.002287078 -0.0038959205 0.0028970898 0.00077384897 -0.0036067788 7.946588e-06 -0.0025478948 7.633266e-05 0.0007784975 -0.0018855536 0.0027589325 0.0030737873 -0.0023131655 0.00050452363 0.003697292 0.003377462 -0.0035105494 -0.00066287647 0.00053111825 0.0017858476 -0.0007448302 0.00038708147 -0.0018525023 0.0023729089 -0.0035029792 -0.0012326696 0.002332641 0.001349263 -0.0020102512 -0.0007796716 0.0023879786 -0.00076301483 -7.392362e-05 0.0023154358 0.001852801 -0.0017081008 -0.0037316547 -0.002890584 0.0038061729 0.0025482406 0.001629638 0.00086214655 0.0027306892 0.00052246184 -0.0005965192 0.0037016503 0.0035084563 0.002491988 0.00084239355 -0.0002310227 -0.0036886919 0.0018448674 0.002938888 -0.002466409 0.0016436039 -0.0016267848 0.0025631464 -0.0028378281 0.00011098162 0.00016571638 0.0026521354 -0.0013397535 -0.001793353
3552 0.003320003 -0.002054786 -0.0021942798 -0.0036929878 -0.0010202052 0.0029152217 -0.00080983766 0.0007798345 0.00027559508 0.00024193637 0.0010421153 -0.0004968193 -0.00038675164 0.0023415592 0.001324059 0.00029904363 0.00016211042 0.0038896352 0.0024221807 0.0007777627 0.00194085 -0.00035134115 -0.002650673 -0.0018558679 0.00090199045 -0.0033353248 -0.0035619258 0.0010579398 -0.0012828667 0.0012556297 -0.0034041188 -0.0019179295 0.0009573076 -5.518663e-06 -0.001350947 -0.0031677387 -0.0010679021 -0.00012702911 0.0032206138 -0.0005647387 -0.003418757 -0.0022705533 0.0023632254 1.3724369e-05 -0.003548146 -0.0019739298 -0.003809739 -0.0022014182 -0.0026663432 -0.0013091436 -0.0012400999 0.0023408337 0.0016365896 0.0037286598 0.0014794857 -0.0027560561 -0.0019408356 -0.0026608426 -0.0031677578 0.0031647205 -0.00030451696 -0.0034174887 -0.0009383093 -0.0031592206 0.0019986774 0.0024327475 -0.0008178733 0.0027762244 0.002165279 -0.0011774384 -0.0030569811 -0.0029471787 -0.0028412286 -0.0033438657 0.0009708562 -0.0037428986 0.002206044 -0.0029087372 0.002876898 -0.0029288589 0.0036510988 0.003793582 0.002615589 0.0022926934 0.0005949665 0.0034258706 -0.0015752119 -0.001300775 -0.0002761965 -0.0004253855 -0.0006070128 -0.0020662183 0.002009138 0.0014622725 0.0035358202 -0.0028043578 0.00285664 -0.002183814 0.001744409 -0.0019049026 0.00037710497 -0.0015523634 -0.003550157 0.0031379752 0.002083222 -0.00014191575 -0.002103973 -0.0024649438 -0.00013108047 -0.0024575412 -0.0031103576 -0.0013032185 -0.002078787 -0.0026251916 0.0030978653 0.00033458488 -0.00048474586 -0.00052048336 0.0038835194 0.0011129943 0.0018815935 0.00071898574 -0.00042023268 -0.0006173228 -0.003260054 -4.2088446e-05 -0.0028214296 0.003757703
3551 -0.0012337903 3.3901204e-05 -0.0022153598 0.0036897927 0.0005204878 0.0024495353 0.002425876 -0.0015405949 0.001842389 0.00044363728 0.0010511327 -0.0017461244 0.002916363 0.0007615335 0.00061440544 -0.0011637334 -0.0020156726 -0.0034133305 0.0014819494 0.0038084176 0.00013945269 0.0019303686 0.002898376 0.0036300467 -0.0014077716 -0.003456296 -0.001776746 -0.0009785151 -0.0011298481 0.0026177266 -0.0006322558 -0.0013439106 0.0015837189 0.0025921345 -0.00096448546 0.0024551786 0.00012699928 0.002590555 -0.0015579681 -0.0031630052 0.0011180731 -0.0010018408 -0.0034040965 0.0021251934 -0.00079707045 -0.0027345275 -0.00088934344 -0.002664912 0.0028213316 -0.003361911 0.0021637552 0.0016314907 0.0010931809 -0.0025902535 0.00019576953 -0.0019269071 0.0018071466 -0.00073507644 0.0018908952 0.00077530975 -0.0001270165 0.00032674312 -0.0009459465 -0.0036955953 -0.0029815512 -0.0005673972 -0.00045414566 0.002539164 0.0014777642 0.003484705 -0.0022327628 -0.00051420263 0.001234394 0.0026139307 -0.003842661 0.0033467591 -0.0038815115 -0.0028572234 -0.002938666 -0.0023295996 -0.0020288692 0.0007696204 -0.0016789567 0.0031400716 -0.0035225318 0.0025526357 -0.00073748664 0.0035781448 -0.0011445438 0.00050542434 -8.747362e-05 -0.00011586274 0.0014970542 0.003210661 -0.0004249921 -0.002810054 0.0034910766 -0.0028513083 0.003168903 -0.002258337 0.0031772205 0.0038979142 0.0024550525 0.0035371531 -4.0571795e-05 0.0028554734 1.0370036e-05 -0.0027344315 -0.0004586493 -0.0017512826 0.0014291488 -0.00072808535 0.0025557 0.0014801435 -0.0006708862 1.6242926e-05 0.000781457 0.003005761 0.0030672082 0.00090877566 0.0035896737 0.003492702 0.0029659944 0.001360408 0.003883255 0.0013274462 0.0029638335 0.00069522223
3556 0.001571123 0.0014825518 -0.0017440051 0.0037434918 -0.0022184325 -0.000523688 -0.002106985 -0.0009124536 0.0009185109 0.00084760727 0.0034810635 -0.0033041833 -0.0032186888 -0.0035586008 -0.00011521591 0.0009862748 -0.0012544583 0.0033304298 -0.0034046143 0.0013325711 0.0017013303 -0.0019060516 0.001060231 0.0037298636 0.0033153924 -0.00079122046 -0.0012551047 -0.0037222002 -0.00047817235 0.0029467288 -0.0017869801 -0.0017343031 0.00086982216 0.00046913378 -0.003472236 -0.0034353002 0.0021331836 0.0006443984 -0.0022264046 -0.00011936932 -0.00031737925 0.0020964886 0.0023111028 0.0030642957 -0.0006035552 -0.0010862941 0.0017491423 0.003126658 -0.00040731908 -0.001218634 0.0014659314 -0.00080476224 -0.002955623 0.0023061591 0.00015838462 -0.0009746119 -0.002653207 0.0036314663 0.0007375903 -0.0021075616 -0.0012899849 -0.0010021932 -0.0022178108 0.0031763343 -3.2146712e-05 0.0025063823 0.0026971104 -0.0036766639 -0.001462342 -0.0029289157 0.0026147524 0.0029556055 0.0024465565 0.002552275 0.002594129 -0.0019613341 -0.0006032365 -0.00010761081 -0.0037417705 -0.0038561004 0.0014728907 0.0033162655 -0.002264025 -0.003007811 -0.0018100331 0.0021515836 0.0039057664 0.0033093996 0.001976165 -0.0015794092 -0.00015838056 -0.0015013366 -0.0022118373 -0.00067752384 -0.0005551152 0.0021480077 -0.001881226 -0.00033436422 -0.0032368207 -0.0025528255 -0.002131716 -0.00067221036 0.003166187 0.0008623082 -0.0006442354 -0.0019106383 0.0019647859 -0.003449635 -0.00049217074 -0.0011094138 -0.0023132605 0.00018863451 0.0037407633 -0.0036788227 0.00084466 -0.0009583388 -0.0028798885 0.0016613059 0.0029428166 8.7824475e-05 0.0017003614 -0.0030549066 -5.269587e-05 0.0018299241 0.0002172929 0.0021910998 0.0010550942 0.001569248
3566 0.00213762 -0.002863032 0.002243219 -0.00063627615 0.00028886506 0.00381903 -0.0034436441 -0.002522946 0.0015532774 0.0008002823 -0.00062047853 -0.0012803806 0.0019312581 -0.00016179246 -0.0008854388 0.0014786333 -0.0018359523 -0.00263037 -0.0021242555 0.0032121737 -0.003854824 -0.0038560345 -0.002689577 -0.003870611 -0.0033505377 -0.0021932754 0.0006963797 0.0010900482 -0.0012458812 0.0027912457 -0.00195517 0.0006468265 0.0031359545 0.0027302364 0.0031346772 0.00045949945 -0.0036833875 0.000939264 0.00019612552 0.0010735855 -0.0018608442 0.0022584125 -0.00031954938 -0.0028263445 -0.0022670643 0.00028222715 0.0028094642 0.0013011692 0.0011440379 -0.0033380499 0.0019482635 0.0019172007 -0.0033486485 0.00024424188 -0.0017979415 0.0006161644 0.00025932037 0.0025058805 -0.0028197344 0.0019600622 -0.0030490805 -0.0026352073 -0.0038629244 -0.0030203518 -0.003240091 0.0029460746 -0.002245772 0.0012795096 0.0019360044 0.0014670294 0.002288451 0.0017938865 0.0036449365 -0.003870954 0.0035455888 -0.0031384476 0.0026256442 -0.0034205269 0.0010025613 0.0030729806 0.0029180006 0.0003268358 -0.0010057725 0.00023864926 0.00287414 -0.00078773167 -0.0010742366 -0.002769392 0.0028420014 -0.003871526 -0.0025366985 -0.0028510597 0.00057832315 -0.0013655213 -0.001714809 -0.0012809762 0.001914973 -0.0018025525 0.000984335 -0.0018237117 -2.1218035e-05 -0.0025574819 -0.0030442912 0.0035511325 0.0005162122 -0.0005427391 -0.00065773283 -1.6703541e-06 0.0028186606 0.0025198513 -0.0029570307 -7.722765e-06 -0.0019287684 -0.0024233267 -0.00062850746 -0.0036430098 -0.0020149224 -0.0015813708 -0.0010831158 -0.00027571237 -2.1882906e-05 -0.0028425853 0.00034650808 -0.001124847 0.003726835 -0.003266085 0.0038486333 -0.0030537662
3568 -0.00083234475 -0.0011989839 0.002234539 -0.0029809766 0.0036120291 0.001100024 0.0031460256 0.0023398916 -0.003250142 -0.0006731523 -0.002105117 0.00030114336 -9.570746e-05 0.0018559267 -0.00307971 -0.0009608309 0.00321981 0.0015235589 0.0011060567 -0.002465709 0.0006532511 0.0011783926 -0.003775987 0.003626875 0.0017317542 0.0033636326 0.0027384544 0.0023952192 0.0022629078 0.0013834087 -0.0022314128 0.0016000961 0.0030005563 0.0018986561 0.0015910423 -0.0011604326 0.0013704384 0.0021598362 0.00091042055 0.0011051777 0.0035038386 -0.0007459414 -0.0024453113 0.0029126278 -0.0017733761 0.00065695465 -0.0016830362 0.0006969975 0.001991508 -0.0008792562 -0.0015967074 0.0036787873 -0.0036807035 -0.003523416 -0.0009609133 0.002825846 -0.00064162974 0.002344709 0.0029396445 0.0031001884 -0.00065846695 0.0024039997 -0.003011076 0.00017145096 -0.0012239825 -0.0031832606 0.0010638793 2.5426868e-06 0.0028438447 -0.0031083492 0.0008949698 -0.0002822661 0.0024183406 -0.0036175943 0.0015309128 0.0038837257 -0.0020485662 0.002638308 0.002030144 -0.0034433547 0.0025067895 -0.0026818218 0.0023884969 0.00032086062 -0.002640419 1.3145645e-05 -0.0012911499 0.0018620674 0.0028042647 0.0026156895 -0.0010937607 0.0038000217 0.0022161047 0.0011029425 0.0032328933 -0.0036469088 0.0028615985 -0.0021589086 -0.0024368449 -0.0030859031 -0.00037737354 -0.0020133702 -0.00035079877 -0.0013123866 0.0038759704 -0.0037940938 -0.0034494116 -0.0012520467 -0.00024857227 0.0003875078 0.0012327486 0.0020090463 0.0023611034 -0.00080257177 -0.002931366 0.0039015722 0.0026178632 0.0037095086 0.002215169 0.0012406416 0.0017889566 -0.002980069 0.00035052488 0.0016466345 0.0038846196 0.003725201 0.0014371647 -0.0028187912
3550 0.00025592797 0.0031607063 -0.002462901 0.0017640742 0.00031767122 -0.0016211482 -0.0017418419 -0.0028247237 0.00014175988 -0.0022298724 0.00072172645 0.0028630989 0.0010248042 -0.0023216903 0.003828288 -0.0005157888 0.0006155005 0.0039072246 0.0037079426 -0.00026551727 0.0033928193 0.0008236308 0.0034551907 0.0022934938 -0.0026221047 0.0021833112 0.0016842613 -0.0021978684 -0.0008000752 -0.0001582119 0.0023198663 -0.0018537936 0.0031753194 0.0026691142 0.00021688838 -0.00071508135 -0.0028677576 -0.0015328486 0.00018745796 0.0014220574 0.002291385 0.0026751738 0.003146993 0.0011897886 -0.0029543473 0.0016461771 -0.0014702978 0.00084332644 0.0036892546 -0.0013306508 0.0017452434 0.0007871357 -0.0031240026 -0.0011117784 0.00035545748 -0.0017618551 -0.002928393 0.00015812625 0.0037550426 -0.002703864 -0.0024683967 -0.003532813 0.002418771 0.002040988 0.003699349 0.0016480683 0.0009845432 -0.0027311 -0.003168924 -0.0030469717 0.000678517 -0.003764774 0.0026167654 -0.0011483369 -0.0016016172 0.001290588 0.0017606206 0.0016021393 -0.00339721 0.0032444308 -0.0004367555 -0.0022534104 0.0026400595 0.0034565458 0.0010091038 0.0012014112 -0.00041816707 0.0016399747 0.00088730303 -0.0009653222 -0.0014361526 -0.0037095416 0.0025554525 -0.003031861 -0.0020996456 0.0036254304 -0.0037138953 -0.0003240936 0.002258116 -0.0033830379 0.0012640028 -0.0023329598 -0.0021305226 0.0001454945 -0.0016608635 0.00299491 -0.0022458693 -0.003370488 0.001233558 -0.0021045986 -0.00011573715 -0.0005833748 0.00038190337 -0.00013262148 0.0006386081 -0.0011734957 -0.0038681605 -0.003152297 0.0023810947 -0.0024147222 -0.0013606364 -0.0028188098 -0.0026805745 0.0024934828 0.0020583589 0.0011941412 -0.0023088427 -0.002988554
3554 0.0028814978 -0.0011048114 -0.0005581503 0.00052117644 0.00075345894 -0.0013581607 0.0012290002 0.00065830245 0.002095632 0.0030832011 0.0017310922 -0.0009919994 -0.0014904962 0.0021085697 -0.0023533774 -0.00044507725 0.00178679 -0.003231388 -0.0008710764 -0.0028486683 0.00188009 -0.0027948099 -0.0015782886 0.0031996504 -0.0023259558 -0.0002188684 -0.0037647528 -0.0004470965 -0.0013910227 0.0015673112 -0.0028028197 -0.0010013889 0.0013976455 -0.001833706 0.00018993164 -0.0022551888 -0.0014010274 0.003363964 -0.0036762995 0.00094694446 -0.00022304957 0.0012740759 -0.0020041373 0.0016049341 -2.80278e-05 -0.0018180133 -0.0020096179 0.0033100753 -0.0006347384 -0.00314517 0.0037228877 -0.00065567036 -0.0014467144 0.0023285027 0.0013302091 -0.002920763 -0.001654361 0.0029402806 -0.0027742086 0.0002782601 -0.0019909272 0.002234188 -0.0031474272 -0.00086029415 0.002445916 -0.002688558 0.0009530958 -0.0034641318 0.00026646495 -0.0034272536 -0.0035207118 -0.00026807998 0.0008696945 -0.001490467 -0.0037130818 0.0011359233 -0.0022431961 -0.0006088697 0.0013486325 -6.357993e-05 0.0018982878 0.0006396417 -0.003184578 0.0014107808 -0.00030508003 -0.0032274886 -0.0008811403 -0.0011117711 -0.0010480417 0.0023154402 0.0031925263 0.00046414963 -0.0023556415 0.0011079491 -0.0026788171 0.00026776348 -0.0034319637 0.0024364418 -0.0007992612 0.0030319851 0.0033173058 0.0036338894 -0.003775995 0.0014940337 -0.0007406445 0.0036581003 0.00014680195 -0.002697428 0.0036537189 -0.00043735144 -0.0027664807 -0.0010020863 0.0017870783 -0.0026234144 0.001976378 0.00246583 0.0021986954 0.0020645643 -0.0029250376 0.002067572 0.0027521488 -0.0032223787 -0.0019893202 -0.0030339814 0.0024292567 -0.0038451771 0.001480525 0.0013206264
3549 0.0010098197 0.0029946277 -0.0034263665 0.00034288355 0.0014906762 -0.0035236734 -0.0032871661 0.003149251 0.00041726392 -0.00037109648 0.0027599493 -0.0023906704 0.0014462867 -0.0021916062 0.0011882194 0.002023093 -0.0019931109 -0.0031929524 -0.00072078087 0.003096905 -0.0012936946 0.001325146 -1.3171513e-05 -0.003154566 0.00092238 -0.00050186884 0.0018103245 0.0011360402 0.0020591195 -0.003547053 0.003606928 0.002112241 0.00075944274 -0.0027670003 0.00049434014 0.002796243 -0.0006363327 0.0019109384 0.003436303 -0.002938186 -0.0029635986 0.0026123177 0.0016386188 -0.0023224086 0.0030150067 0.0029252705 -0.0021698007 -0.0012970247 0.0036082694 -2.4095862e-05 -0.0009757682 0.0038430863 -0.0026640939 -0.0034576524 -0.002755483 0.0011188816 -0.00041719456 -0.003050475 -0.0011875288 0.0011829586 -0.0023801846 -0.0038659542 -0.0011004342 0.0008758879 0.0013421666 -0.00087653194 -0.0011812168 0.0026434248 0.0007837544 -0.0034602839 0.0028700323 0.0032115558 -0.0035159988 0.0026012056 0.001844583 -0.0033513738 -0.0017084209 -0.0002704255 -0.00049125904 -0.0018695586 1.456845e-06 -0.00141373 -0.0014684981 0.0020723764 0.003027635 0.0024850538 -0.0029885096 0.00324414 0.00055242184 0.002724505 0.0022400923 0.00065331656 0.001633954 -0.00030585178 0.0037183254 -0.001993108 0.001628006 0.0029066587 0.0013302916 0.0021753411 0.00046366907 -0.002749858 -0.0020530866 0.0003335145 -0.0009871699 -0.0011862718 -0.003558517 0.0013312158 0.0028976158 0.0013378293 0.00045413806 -0.0011970798 -0.0007337882 -0.003890482 -0.00070980424 0.0022480753 0.0012268084 -0.0021730168 0.0009361773 0.0011108285 0.0028308209 -0.001091173 0.0014265715 0.00067240465 0.0024059948 -0.0036018214 0.00038507907 -0.00058207614
3548 0.00086318806 0.00026117155 0.0034832982 0.00014777142 0.0027640178 0.0029862402 0.0024594346 0.003571789 0.0012565703 -0.0010117319 -0.0032219344 -0.0030278505 0.0026294056 0.0022420513 0.002534313 0.002840296 -0.002751807 -0.0015070509 0.0033897704 0.001947974 0.002755468 -0.003486048 0.0024838804 -0.00084686384 0.00083607895 0.0032401863 0.0015580578 -0.0018848183 -0.0015411637 -0.0010642419 0.003055411 -0.001384867 0.00080772623 0.00037820783 0.0026204945 0.0008572103 -0.0008795799 0.0008056761 0.000104642444 0.0021987187 6.354072e-05 0.0013289541 0.0017007417 -0.00028853724 -0.0017757078 1.9645942e-05 0.00075322983 -0.0005397324 0.0024635321 -0.00313315 -0.0019251774 0.0014376842 -0.0033011553 -0.0019628236 0.0025390196 0.0015039371 -0.002727489 0.0005775636 -0.0027510186 -0.0021937261 0.0002895025 -0.0006966234 -0.0020832075 -0.0009205314 0.00062522537 -0.0021021527 -0.00039092355 -7.9988175e-05 0.0033491056 -0.0022674652 -0.00201496 -0.0017856897 -0.0031841255 -0.0017732286 -0.003768565 -0.0007444968 -0.003729964 -0.0023845918 -0.003431494 0.00078472676 0.0021425695 0.0033894407 0.0005650712 -0.0025961045 0.0030987358 -0.0021004595 0.00018196281 0.0032157006 -0.0021691136 0.0015020987 0.0024536774 -0.0028154887 -0.00024354526 0.00080480543 0.0024182056 0.0030709854 0.000646859 -0.00029529395 -0.003369417 -0.0006947224 -0.0025946007 0.0015619841 -3.4473444e-05 0.0035811437 -0.0013286606 0.0016308671 0.0020805045 -0.0032106084 -0.003221572 0.00035167017 -0.00087103446 0.0012818272 -0.003443549 -0.00080799125 0.003691386 0.0034447445 0.0007245831 -0.0031276916 -0.00073513546 0.002013396 0.00028596452 0.0005689023 0.0018617406 0.00017042714 0.0019540726 -0.0025685574 0.001653795 0.0037256016
3567 0.0003778806 -0.0039199577 -0.0006251875 -8.215386e-05 -0.0032038288 -0.0018567214 0.0022256472 -0.00087501976 -0.0019658506 -0.0033034964 -0.00036545785 0.0002593209 -0.0013890911 -0.0020289759 -0.0013069444 0.0027723326 -0.00079834124 0.0025021806 -0.0036373585 -0.0021325077 -0.0017511373 -0.0023606021 0.0007242281 -0.00046553454 0.0018787181 -0.003894401 0.0029210106 0.0036432603 0.0026314973 -0.0007365614 0.0016235537 -0.0018600599 -0.002329248 -0.0030744334 -0.002053248 0.003291916 -0.0023843346 -0.0019189169 0.002652511 -0.0004892256 -2.5213405e-06 0.0014964482 -0.0033318854 0.0031178084 -0.0008127715 -0.0027787092 -0.003431214 0.0035209502 0.0019834752 -0.0035298476 0.0014554182 -0.0034207194 0.0033965078 0.0007556868 0.0014669241 -0.0014265314 0.000976584 -0.0022994475 0.002237608 0.001745093 -0.0034061118 0.0020909226 -0.0022853045 -0.0025697292 0.0037576447 0.0005603438 8.681696e-05 0.002120713 0.0016560946 0.0003282443 -0.001102659 -0.002158651 0.0035452433 0.0005977118 -0.0016938733 0.0028438861 -0.0021165835 -0.0029227724 -0.0032379953 0.001887546 0.0027235849 -0.00017268228 0.001725557 0.0012143624 -0.0028033624 -0.00019018372 -0.0037377835 -0.002273447 -0.0024102181 -0.0011205397 0.001176353 0.0020540184 0.0020767457 0.002170858 9.039224e-05 0.0029056969 -0.0038519495 0.001826965 0.002227615 -0.0011720096 -0.003505632 -0.00040930914 -0.003519099 -0.0002807216 -0.0016647424 -0.0013751436 -0.0024486089 0.0031587952 0.0038452 -0.0010116328 -0.0011535091 -0.0027493231 -0.00315105 -0.0005528133 0.0004867237 0.003572777 -0.0017491622 0.0035496189 -0.003313491 -0.0024843963 -0.001335738 -0.00391677 0.00024678244 0.0027021717 -0.0020311282 0.0025326675 -0.0032754096 -0.0024132829
3555 -0.0013709588 0.0025605354 0.0017140143 0.0026159396 0.003159849 0.0024943228 0.0036317045 0.0032294858 -0.0023594315 -0.0021381616 -2.4991636e-05 0.002432885 -0.0019285815 0.002749209 -0.0031494205 0.0003437275 0.0036718363 0.0036940388 0.0011685938 0.00095639523 0.0029658044 -0.0005379444 -0.0031417347 0.0008315119 -0.003492823 -0.003580964 0.0023100374 -0.00038008307 0.0011813318 -0.001144508 -0.000654505 -0.0007573608 -0.0003844019 0.0018560633 0.0030441515 -0.0038965694 -0.0038264357 -0.0009371263 0.0019351324 0.0004104034 -0.0033770863 0.0026359519 0.0035615019 -0.0036560718 0.0032978447 -0.0033831017 0.00017203484 0.0010064242 -0.003808084 -0.002577979 -0.00153545 -0.003686205 0.0025890414 -0.00052961573 0.0013426779 -0.00018932474 0.0021588698 0.0020312166 -0.00067610375 -0.0008017341 -0.0017843407 -0.0017864407 -0.003910204 0.0016459896 0.0005468421 -0.0003197525 0.0025948875 -0.0013638845 -0.0036638493 0.0012616265 0.0017400531 -0.0027735902 -0.0030506046 0.002832687 0.0024978984 -0.0021045995 0.0032662954 0.0023261236 0.0029423016 0.0031336094 0.0034201934 -0.0008867423 0.0020581419 0.001961658 0.0017001833 -0.0017658299 -0.0007338732 -0.0028350851 -0.00082323333 -0.0014368244 -0.00033970285 0.002418604 -0.0011919945 -0.0025361 0.0020669068 -0.00030749344 0.0006923817 -0.0023364942 -0.001885055 0.0005788798 0.0034442649 -0.0016455613 -0.0018436685 -0.00086277444 -0.0016030361 -0.0004882197 -5.5192882e-05 0.0016316451 -0.0008421232 -0.00045725066 0.00090702943 -0.0027502382 0.0005450837 2.141367e-05 0.0019867406 -0.002543642 -0.0035819588 0.00037984928 -0.0009542094 -0.0033348417 -3.813621e-05 -0.000854519 -0.0016893408 -0.0025364936 0.0003986419 -0.0018410598 -0.00081293826 -0.002037716
3571 -0.00032537797 -0.0006755865 -0.00015989323 -0.0035665552 0.0022164774 0.0026545913 -0.001985619 0.0026007944 0.0005551473 -0.0031240566 -0.003634895 0.003180262 -0.0035382188 0.0038317665 0.0037166076 0.003111199 0.0029774155 0.0019421355 0.0007557855 0.0027893689 0.0006532427 0.0021881785 -0.0034573819 -0.0017432172 -0.00087061425 0.0037663393 0.0018484022 -0.0038741406 -0.0025075465 -0.0028714973 -0.00020607386 -0.0036334079 0.0038043167 -0.003017636 -0.0035858443 -0.0020610779 0.0036349036 0.001637733 0.0028826033 -0.00062701985 0.0020420796 0.00019574852 -0.0026720662 -0.0014898662 0.000356493 -0.0026203445 0.0011451428 -0.003186914 0.0035593917 -0.0025704917 -0.00043471123 -0.00054964056 -0.0020953338 0.0003379105 0.00019716943 0.0024931133 -0.002495816 0.00025949397 -0.001460784 -0.002103956 -0.0037202612 -0.0032816713 0.0025941834 -0.0029841494 -0.0032447546 0.0013150956 -0.0026480434 0.0014878744 -0.0034009146 5.6717858e-05 0.0037531035 0.0020384337 0.0021013923 0.0018224231 -0.003349469 -0.0035897465 -0.0028930272 -0.0022991754 0.0009993719 -0.0031262666 0.0018543876 -0.0016721789 -0.0021451258 -0.0008744129 -0.0004128383 0.0006134528 0.0031969547 0.003117734 -0.0011477164 0.002038364 0.0022492667 0.0009710837 -0.00045375898 -0.00082370295 -0.0002527851 0.0020303463 0.0011632501 -0.003123777 -0.0033719253 -0.0032698717 -0.0022056003 0.0025258644 -0.003040117 0.0034629328 -0.00033061934 -0.0009812444 -0.0024581398 -0.00029791566 0.0032256753 -0.0026975907 -0.0030991416 -0.0023565686 -0.0031287868 -0.0007127432 0.0020165346 -0.002430112 -0.0020686502 -0.001965031 -0.0037285022 -0.00088280166 -0.001507758 -0.0032767584 -0.0014440834 -0.0010536255 9.678291e-05 0.0024795483 0.0014074505 0.000620537
3570 0.0036796883 -0.0021578064 -0.0028948786 0.0010523372 -0.00024075623 -0.0002794853 -0.0006051276 -0.0020779283 -0.0020349878 -0.0027195225 0.00012561186 -0.0029535333 -0.0032318763 0.0029021474 0.0005008167 0.0028161434 -0.000379471 -0.00076189666 -0.00041174496 -0.0005616761 0.002601584 -0.0016540794 -0.0013419181 0.00043913504 0.0022327022 0.003146516 0.0022341725 0.00056989945 -0.00019545377 -0.001759173 -0.0034327595 -0.0035283614 0.0015570038 -0.0004019528 0.000112334594 0.0034774516 0.0018389354 -0.0005942462 -0.000107346306 0.0025958037 -0.0038703827 -0.0020551004 -0.0015651301 0.0014696863 -0.0016920157 3.440297e-05 0.0038707738 0.0024347268 0.0009990766 0.0021162294 -0.00015121716 0.0028664642 0.001419681 -0.000118556374 0.0013517344 0.0017344562 -0.0020509516 0.0035029962 0.00023529542 -0.0009625042 -0.001924713 0.0036451793 -0.0026733996 -0.0027706858 -0.0031013142 0.0015987218 -0.0028166964 -0.00079541747 -0.0015166708 -0.0033462397 0.0003605264 -0.0026917635 -0.0013851883 0.0013634207 -3.3996974e-05 0.00044809407 -0.0021901936 0.002377589 -0.0037233473 0.0022702054 -0.0006723217 -0.0019342739 0.0029925292 0.000707833 0.0020757231 -0.00255974 0.0009569792 -0.0039058772 -0.002219336 0.0013903634 0.0033975746 -0.00078454165 -0.001936887 0.0033484923 0.0021460925 -0.0018614542 0.003191311 -0.003804467 0.002947175 0.0011214878 -0.00066903187 0.0022021432 0.0035918555 -0.001323882 -0.0024891254 0.002130172 -0.002251757 0.00015550926 0.0018219063 0.0030390369 0.0031183932 -0.0011130999 0.0034247395 0.0037188192 0.0012699018 0.0027443352 0.0026341826 0.0024532613 0.002354358 0.00013498354 0.0019307355 -0.001855295 -0.0020915987 0.0023768756 -0.0014337935 0.0003087651 -0.0032196103 -0.0013884526
3572 -0.001340731 0.002601773 0.0026184167 -0.0014773362 -0.0020736847 0.0034526763 0.0032963401 -0.00085347873 -0.00015436552 -0.0010140666 -0.0038777941 -2.803489e-05 0.00027889584 0.0017827422 0.0017153186 0.0035412125 -0.0011073522 0.002353285 -0.0002242128 -0.002446768 0.0011580955 -0.000113917886 0.0016983274 -0.00097270467 -0.0025341758 0.0022921334 0.001187703 -0.00012272218 -0.00011988172 -0.0030511545 -0.0016808913 -0.0005738378 -0.0035670144 -0.0016564163 0.0032573766 0.00041552115 -0.00155779 -0.0016637514 0.003302307 0.00028356066 -0.001639413 0.0027070018 -0.0014718655 -0.0014069373 -2.9733834e-05 0.00366637 0.0029023478 -0.003744566 -0.0023723023 0.0024823793 0.0012408876 -0.0015618922 -0.0038556785 -0.0026412334 -0.0008525683 0.0013411498 -0.0003807774 -0.00079567585 -6.720561e-05 -0.00031813473 0.0017301078 0.0030902368 0.0011012194 0.0035415345 0.00049584394 0.0031379352 -0.0030311574 -0.0026255692 -0.0024297398 -0.00093292474 -0.0010565111 -0.0014722007 -0.0022470418 -0.000388616 0.0028701387 -0.0035970674 0.0018173275 -0.0022276298 -0.000645599 0.0029336996 -0.0026769256 0.0029396175 0.0024139246 0.0031256124 -0.0018494085 -0.0032098282 -0.0032704833 6.358775e-05 0.0038985142 -0.0007584554 0.0012897027 -0.0002725366 0.00039388216 -0.0017537875 -0.00031113013 0.0034826235 -0.0012663858 0.00251635 0.0008312429 0.0009236522 -0.0038427152 0.001125436 0.0010288926 -0.0015119435 -0.00086244877 0.0009497399 0.0010272351 -0.00075169007 -0.00050906185 -0.0013074573 0.0035751855 0.0004740468 -0.0019676771 0.0013279082 0.0011211552 0.00209217 -0.001596015 0.003643684 0.0023176917 0.0036874502 -0.00021875769 -0.00021246726 0.0022333132 0.0028829847 0.0022180884 -0.00063328637 -0.0014694844 0.001785397
3569 0.0003706062 0.0005085004 -0.001270657 -0.0034104038 0.0031095669 0.0019759552 -0.0018517532 -0.0018490005 0.0004677185 -0.0031651647 -0.0031374067 -0.0013987676 -0.0010945121 -0.0026640831 -0.0013105909 0.0018849093 0.002034899 0.00038209537 0.003838626 -0.001212088 -0.0028909517 -0.002808659 0.0006731959 6.653153e-05 0.0035989757 0.0020881414 -0.003579724 0.0010500068 0.001080727 -0.0036148578 -0.0009139586 -0.0038561472 0.0032516816 -0.0020201423 0.00027648293 0.002154641 -0.0006508425 -0.0020408274 0.0011021355 -0.0018287363 -0.0020813409 0.0024629023 0.0035523418 -5.528923e-05 0.0016404231 0.0032364128 -0.0009745319 0.002151802 -0.0038904587 -0.002737847 -0.0033778027 -0.0014112119 0.000436915 0.001990794 0.0035073126 -0.0014008834 0.0011620879 0.001503872 -0.001986105 -0.0020015687 -0.0009497711 -0.0011001963 0.0030060445 0.0023548065 0.0028945822 -0.0003481778 0.0023217818 0.0010485166 0.0019922468 -0.0011274371 0.00022930045 -0.0016690143 -0.00075565156 -0.0008652862 -0.0020056027 -0.0008906218 0.0010364695 0.00054718694 0.0038496437 -0.0035712593 0.0037898894 -0.0028612672 0.00018956949 -0.0007456797 0.002729679 -0.0008258191 -0.0038980863 0.0012903013 -0.0036676761 0.00011775071 -0.0007635518 -0.0017470805 -0.00029221826 -0.0023134341 -0.002351727 0.0032867475 -0.002446201 0.0037331635 -0.0030915376 -0.0006400593 -0.0003030328 -0.0018566187 -3.030505e-05 -0.0021735798 -0.0019790235 0.0016831593 0.0021217759 -0.0026476837 -0.0022808101 -0.0002999111 -0.0026991644 -0.0010618666 0.0026939088 0.00074464746 0.0013123803 0.00052853243 -0.00176309 -0.0002539696 -0.0028645392 -0.0021567245 -0.002483754 -0.0022155931 0.0031982644 0.0037259758 -0.0032643971 -0.0034402155 -0.0026113996 -0.002734925
