422 128
3259 0.028472567 0.090106934 0.0833736 -0.09819806 -0.046605002 -0.061525572 -0.047458313 0.087046415 -0.10418204 0.07551095 0.02861975 0.03463794 0.015396404 0.01693647 0.07738791 0.07892635 0.021441072 0.061700612 0.02188563 -0.02788582 -0.038305886 0.06862043 -0.059242804 0.0746916 0.013687676 -0.09333267 -9.2615664e-05 0.07010408 0.17230885 0.034057118 0.0018739841 -0.11682984 -0.098304495 -0.048654247 -0.20076804 -0.051328536 0.11672955 -0.09129721 -0.09043143 -0.05203608 0.12403274 -0.1019577 0.05909755 0.053545497 0.008799425 -0.07799485 -0.091982685 0.088991 0.0056988206 0.14075266 -0.015161984 -0.013750923 -0.053256433 0.033394367 0.055315644 0.048126377 0.08985954 -0.04296844 0.014529973 -0.09399305 -0.07406745 -0.03393042 -0.008126278 -0.17217264 0.08466331 0.030258724 -0.0983292 0.007942244 0.027635379 -0.19627172 -0.09098487 0.036825333 0.008372155 0.007840396 0.12585628 0.03592079 0.028317245 0.043923043 -0.0062918477 -0.14164156 0.0021486357 -0.014088343 -0.05049932 -0.1241928 -0.014091197 0.023177873 -0.10393445 0.03488642 -0.03298853 -0.021092668 -0.061771188 0.033961378 -0.025288017 0.041744974 0.11234374 -0.042289227 0.07878158 0.014054999 -0.06820486 0.008258198 0.06736749 0.10186554 0.003946369 -0.024107717 -0.071090244 -0.009520597 -0.021596929 -0.18004715 0.11845866 -0.13851045 0.010569088 0.05906165 -0.06290686 0.11232259 -0.08811439 -0.13467726 -0.081907004 -0.06718548 0.09352351 0.101649225 0.010499594 -0.086140186 0.055496532 0.08369817 -0.1415609 -0.016827047 -0.04309819 0.016590465
3287 0.04105387 0.11083376 0.107237205 -0.124253415 -0.056338135 -0.073795356 -0.062952384 0.106948614 -0.13909884 0.09751528 0.027766123 0.049053278 0.020412851 0.023298899 0.10357641 0.0950495 0.035357147 0.07879292 0.028679477 -0.038972374 -0.04584376 0.082150064 -0.07163637 0.087588035 0.018121086 -0.11346222 0.0019332338 0.08634871 0.2220487 0.039134014 -0.0027420914 -0.14824344 -0.12642065 -0.05619355 -0.2553229 -0.06489029 0.15090874 -0.11567957 -0.1154809 -0.06726085 0.16253658 -0.13120711 0.07728782 0.064443536 0.0153758405 -0.09902016 -0.1164981 0.11293491 0.0086227795 0.17664564 -0.011985007 -0.021750892 -0.0678203 0.043004986 0.063780755 0.06276526 0.11292824 -0.052505307 0.016542044 -0.115898505 -0.0947117 -0.043668527 -0.009068287 -0.21796036 0.11083571 0.042806633 -0.12527305 0.007196512 0.03368098 -0.25891587 -0.11375283 0.039466824 0.014565512 0.01186181 0.16010562 0.047945186 0.038075708 0.05303588 -0.0061219647 -0.18130732 0.0011330738 -0.026306735 -0.06914472 -0.15918131 -0.017674735 0.035811167 -0.12631547 0.04791722 -0.038406182 -0.01960893 -0.07366091 0.03676506 -0.03398906 0.050946847 0.14214341 -0.052873135 0.095560074 0.014987958 -0.08480752 0.015677994 0.083824664 0.1314252 0.0066794404 -0.031302337 -0.091233216 -0.0143103935 -0.022777531 -0.23454957 0.14928281 -0.17800665 0.012357999 0.07070681 -0.079624444 0.14239627 -0.11394188 -0.17066917 -0.10333039 -0.09032205 0.112380445 0.12852558 0.012852328 -0.10137188 0.071673274 0.10415567 -0.178286 -0.026224425 -0.05648244 0.023530653
3312 0.04218118 0.1271361 0.124788314 -0.14495194 -0.06721699 -0.08217149 -0.06829481 0.126563 -0.15556572 0.10561742 0.039033525 0.058976553 0.028329631 0.022712888 0.11614989 0.11185658 0.0342431 0.09525029 0.03895109 -0.044168595 -0.054722466 0.10000776 -0.08831826 0.10569527 0.019528 -0.13671985 -1.9019299e-05 0.10449973 0.2556574 0.04938588 0.001411024 -0.17569083 -0.14324266 -0.06776726 -0.2968258 -0.082190126 0.16958371 -0.13575488 -0.13388248 -0.07247277 0.19075234 -0.15253909 0.08903687 0.0800585 0.019525696 -0.12382107 -0.13858451 0.13305987 0.01494498 0.20600794 -0.019233746 -0.023989182 -0.08095873 0.04721688 0.075233564 0.06851048 0.13177665 -0.060507722 0.021024227 -0.13825665 -0.111822344 -0.047577035 -0.017566532 -0.25102514 0.13073486 0.048249137 -0.1442901 0.009713773 0.034488223 -0.2956428 -0.12662596 0.049208064 0.015576058 0.011167405 0.18874137 0.05198193 0.05004063 0.06596494 -0.0036394794 -0.20399906 0.0042244554 -0.027655397 -0.077213675 -0.183188 -0.01914096 0.03966421 -0.15029441 0.051579524 -0.044559903 -0.024564384 -0.084926285 0.047523785 -0.036266863 0.055251524 0.16741715 -0.057511862 0.11126922 0.014470776 -0.09845937 0.012275567 0.100761294 0.15294282 0.0085298065 -0.031502888 -0.108573094 -0.019582547 -0.033854365 -0.26628938 0.17501505 -0.2018613 0.019100487 0.08036186 -0.0969133 0.1676185 -0.1360735 -0.19814603 -0.11483439 -0.099568695 0.13012938 0.14928396 0.017411372 -0.12189145 0.08309357 0.12527049 -0.20882876 -0.029651701 -0.0650492 0.02800801
3283 0.048361007 0.1381597 0.13928007 -0.14884889 -0.07178686 -0.089887485 -0.07135273 0.13190672 -0.16906896 0.114899874 0.03718967 0.059578422 0.023141064 0.031457074 0.1254971 0.11758531 0.038287397 0.09841343 0.04065065 -0.049798686 -0.06180121 0.1023503 -0.088183135 0.11296829 0.024134142 -0.14384109 -2.3273002e-05 0.11208063 0.27521083 0.050589602 -0.001167355 -0.18537645 -0.15566659 -0.073626995 -0.3127885 -0.08313593 0.18039438 -0.14366712 -0.14185835 -0.076378785 0.19281323 -0.1644892 0.09466132 0.08455474 0.019680213 -0.12559488 -0.15079433 0.13992213 0.011006476 0.21782872 -0.019618686 -0.028116852 -0.08588551 0.05253192 0.08650021 0.073345 0.13520932 -0.05803903 0.025197083 -0.14853178 -0.1174644 -0.04901964 -0.012416762 -0.26630667 0.13691999 0.047974307 -0.15152922 0.009575037 0.039459344 -0.31444862 -0.13665774 0.05450407 0.017445305 0.01861472 0.20125976 0.059123415 0.05257855 0.069205195 -0.010453144 -0.22190545 0.0023865318 -0.02838908 -0.08460453 -0.19231951 -0.023192335 0.03569631 -0.15613765 0.05285486 -0.045012403 -0.03013302 -0.08747003 0.05009824 -0.040063057 0.06374758 0.17557277 -0.057070926 0.11788687 0.018199096 -0.10511259 0.014079744 0.10931101 0.16206343 0.010817152 -0.03804506 -0.11228125 -0.016800987 -0.034023143 -0.28770936 0.18224534 -0.21359739 0.015973026 0.08981761 -0.09815621 0.18045738 -0.13721205 -0.20859472 -0.12542267 -0.110187925 0.1433163 0.15368147 0.020088611 -0.13090754 0.08756152 0.13124712 -0.22503899 -0.025276361 -0.0735336 0.027314082
3284 0.039942075 0.11744424 0.1156721 -0.13355839 -0.062359538 -0.074234046 -0.061386928 0.113028556 -0.14684108 0.103209905 0.034863744 0.04901402 0.021159912 0.027533026 0.1064288 0.10775405 0.03535241 0.08440267 0.033685833 -0.041699518 -0.050283227 0.08744083 -0.08096155 0.098108396 0.019848112 -0.122154325 -0.0029356598 0.09870204 0.2346549 0.040486746 0.00011787419 -0.15973869 -0.13526313 -0.06881029 -0.2737526 -0.07059603 0.16117851 -0.12249744 -0.12581739 -0.06632004 0.17146707 -0.13970345 0.07816293 0.06757047 0.013668841 -0.10997504 -0.12947667 0.121641204 0.008225367 0.18629105 -0.012295065 -0.022848079 -0.0713542 0.040144816 0.07612547 0.06720665 0.11715566 -0.053855743 0.016779888 -0.12698662 -0.1071968 -0.04175443 -0.016032984 -0.23039846 0.12057827 0.04002717 -0.12678173 0.00812401 0.035603244 -0.2708422 -0.119909905 0.045632847 0.013087355 0.015561084 0.17308143 0.0510649 0.04536696 0.05909079 -0.0032920064 -0.19084056 0.0076685706 -0.024892556 -0.06959235 -0.17081463 -0.022810327 0.033145934 -0.13623102 0.05012591 -0.03553006 -0.022517802 -0.08120808 0.040608134 -0.03571585 0.051132098 0.14965515 -0.05064142 0.10099013 0.015737884 -0.08593547 0.00986883 0.089460224 0.13652952 0.013126154 -0.034270678 -0.09944817 -0.018758902 -0.02499891 -0.24766754 0.1651835 -0.18494886 0.016763061 0.07394947 -0.08769681 0.15460312 -0.12459858 -0.17996098 -0.10443352 -0.09104665 0.120136775 0.1355428 0.019675277 -0.11245687 0.08166479 0.11369249 -0.19288658 -0.027282568 -0.061500426 0.022198766
3288 0.03333384 0.09412652 0.09358993 -0.0981111 -0.048231155 -0.058550663 -0.046378274 0.09129829 -0.11871791 0.08009464 0.022544947 0.04293878 0.01906495 0.01936346 0.0831938 0.078883424 0.030316055 0.064301066 0.023615547 -0.03100461 -0.043921158 0.07137567 -0.061001524 0.077344775 0.018037213 -0.09457141 0.00015780282 0.07672965 0.186217 0.036951102 -0.0042149806 -0.12188396 -0.10361306 -0.051955212 -0.21621321 -0.058096763 0.1221933 -0.09595092 -0.09815519 -0.050908983 0.13338323 -0.11435686 0.067387015 0.055392798 0.012701805 -0.0894035 -0.10359112 0.08995456 0.01223468 0.14965634 -0.009437272 -0.015747456 -0.05721626 0.029654132 0.056482118 0.053209733 0.08987814 -0.0409531 0.013102598 -0.10170303 -0.08185783 -0.03149111 -0.009377153 -0.18429098 0.09630208 0.031509943 -0.099212535 0.0072096316 0.023103954 -0.21551822 -0.09325732 0.034557406 0.007701183 0.009142979 0.13806373 0.037206803 0.033906136 0.05017504 -0.0072757746 -0.153177 0.002244714 -0.016912235 -0.05382473 -0.13373506 -0.019982696 0.02838864 -0.10759991 0.040937953 -0.03327294 -0.015014254 -0.05906376 0.031724807 -0.028826226 0.040238306 0.12011317 -0.044719324 0.07596167 0.009149156 -0.06555284 0.011958269 0.07535809 0.10723007 0.0064827437 -0.024714716 -0.07916325 -0.014784107 -0.025487248 -0.19653577 0.12372087 -0.14531049 0.013349362 0.05742727 -0.07079538 0.1213553 -0.093857616 -0.13929693 -0.08699615 -0.07486446 0.09886418 0.10998783 0.010610045 -0.085069746 0.063419394 0.09065001 -0.15200762 -0.018648872 -0.047884718 0.019551357
3260 0.039146114 0.12405522 0.121533506 -0.1332578 -0.066123284 -0.08443819 -0.06353713 0.12062137 -0.15092039 0.10474324 0.037900355 0.053970546 0.026330877 0.021500323 0.11564375 0.111403264 0.03201655 0.09098502 0.032062363 -0.04805707 -0.055057935 0.09304452 -0.08592647 0.10149291 0.01893085 -0.12689549 -0.0031254657 0.09909389 0.24294655 0.04283864 -0.0011086592 -0.16900231 -0.13527592 -0.06502578 -0.27663445 -0.07437489 0.16738161 -0.1250909 -0.12536438 -0.07431895 0.17690365 -0.14812024 0.08264616 0.07239759 0.017715164 -0.11418939 -0.13074164 0.12073017 0.0068220748 0.19681215 -0.016965257 -0.02555355 -0.07650512 0.046046045 0.07751357 0.06826422 0.12365176 -0.05282531 0.019446293 -0.13567178 -0.10746445 -0.04929517 -0.01716981 -0.23824681 0.1215342 0.048305545 -0.13157931 0.012097231 0.02945895 -0.28264794 -0.122243084 0.043993294 0.015713163 0.014285043 0.18197271 0.046879176 0.047688827 0.058606185 -0.0030662909 -0.19571532 0.004993128 -0.021985812 -0.074107155 -0.17995894 -0.02083393 0.034471605 -0.14612776 0.05410517 -0.041899808 -0.022390818 -0.079761095 0.047780886 -0.037849993 0.054897387 0.16131032 -0.057903755 0.10848314 0.015655546 -0.08891804 0.015853804 0.09532925 0.1472573 0.012014982 -0.031953882 -0.1047441 -0.018609349 -0.03257922 -0.25582364 0.16626921 -0.19348139 0.013005031 0.08067577 -0.08903764 0.15677807 -0.12926641 -0.18281554 -0.11488503 -0.101046056 0.12425024 0.1454702 0.014891937 -0.118828125 0.082581274 0.117758565 -0.2014894 -0.027522529 -0.06710214 0.023235487
3286 0.043344542 0.11908842 0.12419124 -0.136906 -0.060954943 -0.07767685 -0.06881804 0.122038916 -0.15362425 0.10324036 0.034784943 0.050284404 0.022324951 0.020723473 0.11383693 0.108041346 0.036524 0.08619804 0.03593816 -0.046856645 -0.056791577 0.095183074 -0.08103371 0.103471905 0.02210204 -0.12480494 0.0016110255 0.10032442 0.24182893 0.041743357 0.00082221325 -0.16241221 -0.13649371 -0.06354331 -0.28321832 -0.07798397 0.16320501 -0.12889828 -0.12925051 -0.07068942 0.17991252 -0.14891252 0.08323306 0.072339945 0.015450991 -0.114751086 -0.13235183 0.12247631 0.009013917 0.19413535 -0.016576504 -0.024220081 -0.07310294 0.04617404 0.0738567 0.0670901 0.12144544 -0.053907618 0.016860783 -0.12844914 -0.11218659 -0.042745683 -0.014612745 -0.23658393 0.12140357 0.044437617 -0.13578132 0.013574035 0.036150347 -0.28598976 -0.12011843 0.048354067 0.011725457 0.013050169 0.18166779 0.049763605 0.048685487 0.061824385 -0.007677699 -0.19634588 0.002158892 -0.023495162 -0.072622776 -0.17409994 -0.022773052 0.038123284 -0.14639927 0.050862893 -0.04045469 -0.02476012 -0.08094579 0.044652645 -0.034991197 0.057232715 0.15621899 -0.051901672 0.10234597 0.018514454 -0.08795446 0.0160233 0.09859884 0.1450991 0.008845645 -0.03022329 -0.101607755 -0.020978313 -0.02605452 -0.2563057 0.1657396 -0.19367254 0.016086737 0.08135359 -0.08747962 0.15951417 -0.12323068 -0.18518497 -0.108363695 -0.09419021 0.12679988 0.14003125 0.020426707 -0.11309225 0.08043259 0.11518126 -0.20256037 -0.025683545 -0.061283257 0.026435124
3285 0.035016753 0.10878696 0.106349565 -0.12562671 -0.0548276 -0.07199427 -0.059808582 0.10827801 -0.13571388 0.09312454 0.035572957 0.04837558 0.018567799 0.019833865 0.10176034 0.0948928 0.03627127 0.07830096 0.029272016 -0.04005366 -0.050893392 0.08651857 -0.078169316 0.09475522 0.02128517 -0.114727065 -0.00036601923 0.08934268 0.22556509 0.040284988 -0.0009759545 -0.14742866 -0.12270151 -0.062667504 -0.25409153 -0.06682481 0.14782125 -0.1120654 -0.117548674 -0.06792508 0.16377744 -0.13389717 0.072235726 0.06187878 0.015908431 -0.10576347 -0.11702189 0.11296008 0.012558389 0.17742194 -0.009902825 -0.022594843 -0.065439105 0.044294722 0.06864993 0.05576449 0.10672671 -0.04973739 0.014863543 -0.121305704 -0.098365076 -0.04461798 -0.01681434 -0.21889582 0.111426026 0.03936416 -0.12176153 0.010020062 0.029130757 -0.25513488 -0.10862673 0.04078847 0.011900408 0.011353778 0.16472346 0.04492014 0.041264255 0.05610644 -0.008761879 -0.17647903 0.008137708 -0.019255413 -0.06886551 -0.15804112 -0.020839337 0.030105416 -0.13247141 0.044157535 -0.034089155 -0.02142522 -0.07526438 0.03893079 -0.033950754 0.04767491 0.13983321 -0.049620267 0.09514082 0.014223761 -0.07891436 0.013536109 0.086675614 0.12756585 0.008603509 -0.028562702 -0.09052871 -0.014934778 -0.026989505 -0.23041958 0.15362014 -0.17330903 0.01883553 0.068518095 -0.0840596 0.14664233 -0.116767906 -0.16833419 -0.10325393 -0.089846775 0.1114758 0.13018122 0.020074679 -0.104057096 0.071308315 0.1095178 -0.18295111 -0.019638523 -0.055182297 0.021180764
3400 0.047069136 0.13053739 0.12612729 -0.14187494 -0.06530652 -0.08759691 -0.06795206 0.12469768 -0.15721154 0.1097968 0.037467577 0.05018419 0.027465535 0.023749994 0.11992251 0.11130427 0.031414352 0.09331109 0.040079564 -0.042769205 -0.056689054 0.096619554 -0.08658392 0.101668306 0.01790474 -0.13348444 0.00046333432 0.102030896 0.26144102 0.04953516 -0.0044966596 -0.17575662 -0.14600092 -0.06679901 -0.2919319 -0.0743556 0.16930288 -0.12951228 -0.13799113 -0.07215301 0.18349682 -0.15202501 0.08626709 0.07616034 0.014252649 -0.1210454 -0.14271875 0.13003765 0.011126779 0.20551486 -0.011848228 -0.026093343 -0.077654935 0.04591556 0.08264271 0.06895767 0.13104992 -0.055269416 0.019324793 -0.14363696 -0.11615456 -0.047011264 -0.013722183 -0.25340888 0.13051634 0.04268733 -0.1396525 0.008594309 0.036263805 -0.29649106 -0.12612054 0.05330084 0.015219891 0.015050548 0.18875511 0.055443205 0.044688743 0.06267095 -0.006480827 -0.20653349 0.005773748 -0.026964014 -0.079294056 -0.18780293 -0.026187291 0.031564485 -0.15270388 0.052513063 -0.048463576 -0.023744969 -0.08981226 0.044756357 -0.03720301 0.05654529 0.16542217 -0.057916436 0.114586316 0.0172726 -0.09444085 0.012043646 0.10232926 0.1501402 0.012055433 -0.03875388 -0.11158538 -0.017621825 -0.034709502 -0.2705607 0.17709816 -0.19987346 0.01647413 0.083415985 -0.09434798 0.1635059 -0.13478518 -0.19962355 -0.11095053 -0.10286851 0.13243292 0.15142722 0.017449742 -0.12527175 0.08582235 0.12566356 -0.20790108 -0.023286896 -0.07169727 0.029102378
3275 0.047611285 0.13416535 0.14069757 -0.15491141 -0.06867177 -0.093192674 -0.071828276 0.12953456 -0.17142694 0.11973586 0.040980883 0.053765427 0.026245182 0.032339796 0.12709656 0.120003924 0.03442624 0.101367354 0.03843705 -0.04742285 -0.058033686 0.104863144 -0.09205922 0.11542032 0.021983491 -0.14286792 0.00012924336 0.11356331 0.28613463 0.05118267 -0.00052350195 -0.1873662 -0.15430549 -0.07378538 -0.3219149 -0.08757951 0.18230191 -0.14474937 -0.14440745 -0.080177195 0.19897586 -0.16138871 0.09479536 0.08278807 0.013834312 -0.12819299 -0.15164357 0.14547427 0.01411104 0.22978628 -0.020670053 -0.025213378 -0.09208359 0.045784663 0.09200536 0.071202904 0.13667692 -0.06371001 0.027752293 -0.15291254 -0.12722014 -0.053947706 -0.012993413 -0.2740428 0.14349392 0.049680635 -0.15325563 0.015637688 0.039567247 -0.31538805 -0.14477369 0.05491524 0.01236442 0.012614645 0.20692307 0.060339298 0.04524697 0.06840998 -0.0029169659 -0.22403075 0.0049234293 -0.028440194 -0.084648736 -0.200123 -0.027871046 0.038030278 -0.16397715 0.056631006 -0.052533608 -0.032487538 -0.09463215 0.04922369 -0.03483482 0.06829065 0.17549625 -0.0663868 0.116542675 0.011428622 -0.09939626 0.010917419 0.11037594 0.16295472 0.0153707415 -0.040842544 -0.12265082 -0.016988007 -0.031036435 -0.28740832 0.19326955 -0.22128673 0.017090594 0.08729857 -0.10414041 0.18194096 -0.14477085 -0.21652934 -0.12559275 -0.10579535 0.14472598 0.16053559 0.02224378 -0.13150305 0.09529402 0.1383456 -0.22818506 -0.029308727 -0.07765186 0.031882115
3282 0.029499622 0.0922037 0.092019044 -0.10831817 -0.0514587 -0.060032867 -0.053973973 0.08840075 -0.11576454 0.08020177 0.030856071 0.03614382 0.015975492 0.01629604 0.08603857 0.0867536 0.02751762 0.06868018 0.026069349 -0.032754105 -0.04079689 0.07348203 -0.06285592 0.08162188 0.012924403 -0.09584491 -0.0021791593 0.07420124 0.18822235 0.038239602 -0.00031257735 -0.13129456 -0.10541918 -0.056031905 -0.21422157 -0.05888028 0.12771453 -0.10241172 -0.10232367 -0.053287014 0.13591653 -0.11432184 0.06616283 0.0608471 0.009254699 -0.08987399 -0.1009357 0.09245077 0.010497774 0.14895837 -0.012820099 -0.01679874 -0.059056733 0.034164697 0.06146616 0.04712233 0.094927214 -0.043689724 0.01348323 -0.10510838 -0.08297769 -0.03511091 -0.012124214 -0.1833156 0.09435505 0.032808006 -0.103698954 0.010981018 0.024854563 -0.21941568 -0.09498044 0.039087653 0.0066766352 0.008135097 0.13581394 0.035415187 0.035351604 0.043889586 -0.0043005343 -0.15319863 0.0031243255 -0.019503113 -0.05529674 -0.13347389 -0.012859817 0.030628119 -0.11415879 0.03607999 -0.029330935 -0.022048617 -0.06125855 0.03398249 -0.02590498 0.04181214 0.12160658 -0.042449825 0.0862449 0.012386286 -0.06875591 0.0078119175 0.07648016 0.10708607 0.010875091 -0.022669954 -0.0834625 -0.01314289 -0.022960085 -0.20177457 0.13170707 -0.14799276 0.016537257 0.061060093 -0.07160666 0.12637535 -0.10129575 -0.14703599 -0.08812087 -0.070363306 0.09773935 0.111005284 0.012347241 -0.0867183 0.06277467 0.09628577 -0.15178254 -0.02197703 -0.051127832 0.016399326
3307 0.036240567 0.108601116 0.11324441 -0.12532052 -0.056022637 -0.07639605 -0.060541842 0.107216544 -0.13514602 0.09000595 0.034358088 0.049194477 0.021408634 0.018781394 0.10411093 0.09987906 0.029748429 0.07582101 0.033406887 -0.043492932 -0.049381495 0.07865256 -0.0716306 0.09390058 0.017269162 -0.11542018 0.00053016 0.087247185 0.21824242 0.04227992 0.0004917034 -0.14798608 -0.12600203 -0.055741023 -0.25032422 -0.068446115 0.1458142 -0.11573622 -0.11675358 -0.061444104 0.15506037 -0.13162525 0.07600678 0.065955445 0.01463857 -0.10036854 -0.12121217 0.10926782 0.009044104 0.17742676 -0.011529125 -0.021187088 -0.06488052 0.039939582 0.06620612 0.060405117 0.1078618 -0.050288945 0.02033938 -0.11983635 -0.09724444 -0.04273594 -0.011989287 -0.21436742 0.110927425 0.041571587 -0.11879166 0.012571624 0.03471827 -0.25294852 -0.11284916 0.04003545 0.013807037 0.01538451 0.16134861 0.04633225 0.044179942 0.051694535 -0.0039351764 -0.17331365 0.002643937 -0.019635813 -0.069339134 -0.16134901 -0.016837759 0.031256575 -0.12858821 0.048475575 -0.033623993 -0.025351956 -0.07168547 0.03864048 -0.027771233 0.051560096 0.13704795 -0.048567716 0.0925924 0.011455051 -0.08418846 0.015669068 0.08092498 0.13244775 0.0091542145 -0.025839655 -0.09308027 -0.015031508 -0.024957199 -0.23121102 0.15386692 -0.17276901 0.013215564 0.06783619 -0.07797899 0.14606722 -0.114555955 -0.17010403 -0.0967733 -0.087816246 0.11114228 0.1300774 0.015426236 -0.10624044 0.07058246 0.10904639 -0.17964612 -0.023878502 -0.058822133 0.02562051
3330 0.044122133 0.12500761 0.12288076 -0.13543576 -0.061839808 -0.08311268 -0.06707844 0.11993968 -0.15557306 0.10598716 0.039064653 0.05167127 0.025843738 0.022536334 0.117179506 0.110970326 0.03936702 0.085695684 0.03428678 -0.04481034 -0.058682825 0.08999019 -0.08483799 0.10506791 0.023958156 -0.1312652 0.0011306127 0.10207079 0.25055665 0.04590904 -0.002850757 -0.16857615 -0.14197941 -0.07080239 -0.28415146 -0.07794403 0.16786459 -0.12976383 -0.12937982 -0.07109098 0.18223852 -0.14531523 0.08826355 0.07364664 0.011292952 -0.11579462 -0.13234214 0.12398076 0.01103325 0.20117393 -0.01300488 -0.024571717 -0.074962795 0.04546766 0.07752627 0.063293554 0.12141616 -0.058092676 0.023796972 -0.13725461 -0.10603522 -0.044089545 -0.010183615 -0.24214439 0.12163952 0.04812682 -0.13907354 0.015707951 0.03555604 -0.28593454 -0.12761228 0.050714936 0.012662214 0.010420376 0.18118961 0.049259674 0.044021808 0.06485854 -0.010669592 -0.19910125 0.00748526 -0.025322089 -0.07973835 -0.1821154 -0.023467101 0.03635198 -0.14610405 0.047654357 -0.039608624 -0.029267335 -0.08125785 0.04411471 -0.03361855 0.060722727 0.16085161 -0.055197507 0.10859398 0.018784678 -0.09148736 0.010419256 0.09411893 0.1458205 0.009979339 -0.031616237 -0.106928565 -0.017804079 -0.03155202 -0.2624763 0.1684353 -0.19709963 0.013480855 0.07816551 -0.09083295 0.16455603 -0.12943198 -0.18653594 -0.111310765 -0.094827 0.12522098 0.1451718 0.017151574 -0.116115525 0.08329373 0.1195985 -0.2042283 -0.027577175 -0.06165532 0.029626118
3306 0.051716033 0.14051096 0.14348227 -0.16141897 -0.07490129 -0.09727596 -0.07469437 0.13923907 -0.17533852 0.118868396 0.041083146 0.0597484 0.027780991 0.024201458 0.1276897 0.1282488 0.04451504 0.098169476 0.03965615 -0.051311847 -0.059485365 0.10208121 -0.09554801 0.11347916 0.024421435 -0.15173233 0.0013545933 0.11065217 0.28603673 0.055163465 0.0026828684 -0.19560118 -0.164645 -0.07436151 -0.3270481 -0.08807959 0.19254881 -0.15194039 -0.14836231 -0.08551308 0.2039639 -0.17146881 0.095819436 0.084292166 0.020459032 -0.13542157 -0.15105647 0.14679348 0.014129497 0.22413336 -0.01963005 -0.026720902 -0.0865018 0.04961046 0.08540649 0.0779951 0.14425044 -0.06574041 0.026784305 -0.15037368 -0.12684569 -0.05281861 -0.018918134 -0.2741051 0.14577903 0.055864856 -0.15291274 0.011852791 0.043474432 -0.32641298 -0.14224471 0.056405462 0.012318124 0.01956934 0.20581815 0.055808675 0.055139348 0.0684298 -0.006174607 -0.22606568 0.0062599108 -0.026631888 -0.08442478 -0.20131153 -0.027205925 0.042958178 -0.16549115 0.054934315 -0.042836666 -0.030335324 -0.09802181 0.0514965 -0.03879042 0.06398077 0.18279302 -0.060084876 0.12706988 0.020564508 -0.10964284 0.012710541 0.108414546 0.16880935 0.013330171 -0.03724157 -0.12118694 -0.023327298 -0.036932018 -0.29783136 0.19726919 -0.2238734 0.021618033 0.0895537 -0.10522617 0.18861067 -0.14324267 -0.21572225 -0.13089448 -0.11238501 0.14975943 0.16328113 0.0160308 -0.13585496 0.095604725 0.13888529 -0.23320551 -0.026080435 -0.07504169 0.032632582
3196 0.026103651 0.08342747 0.08658514 -0.09172917 -0.04168033 -0.060748704 -0.04497549 0.08636605 -0.11258509 0.07026915 0.0214137 0.033527914 0.013915439 0.022292154 0.083488055 0.077861965 0.024636818 0.061321177 0.023082409 -0.030741623 -0.04244367 0.0699075 -0.060113817 0.0685306 0.016896337 -0.09206878 0.00078906247 0.068669565 0.1793123 0.027624348 -0.0063243266 -0.12058058 -0.10168472 -0.051125064 -0.20582157 -0.058107205 0.11705836 -0.091405146 -0.08824046 -0.054640647 0.13401593 -0.10385256 0.062178668 0.055345856 0.008508238 -0.08096843 -0.09295444 0.09092889 0.013366233 0.14212851 -0.011713428 -0.019100718 -0.05050533 0.032998465 0.05471845 0.046821356 0.09205295 -0.044586282 0.016922493 -0.09895594 -0.07833768 -0.030063264 -0.007868782 -0.16937488 0.08529382 0.032141056 -0.09406142 0.01257964 0.023528412 -0.20172204 -0.08582273 0.034219958 0.006333646 0.0061555984 0.1330395 0.03893967 0.030499522 0.049946412 -0.0074707954 -0.14267302 0.0020594755 -0.018973237 -0.0535558 -0.1243026 -0.016629457 0.028342968 -0.10519608 0.038090203 -0.03309552 -0.017940238 -0.06350397 0.034186635 -0.025208367 0.041251983 0.11687665 -0.035786908 0.075519614 0.008267298 -0.06754496 0.012186127 0.067437895 0.099461436 0.0048180674 -0.024716066 -0.07750166 -0.01351901 -0.02460232 -0.18433695 0.12299383 -0.1405648 0.01175991 0.052968998 -0.060413394 0.112856776 -0.09099615 -0.12991853 -0.08342844 -0.07249314 0.09345259 0.10516041 0.013669562 -0.07983151 0.061841667 0.08279185 -0.14607224 -0.020544743 -0.047134183 0.019071726
3331 0.037293818 0.0999489 0.10533946 -0.11679111 -0.052516926 -0.06961495 -0.05939438 0.104359865 -0.1287127 0.08640691 0.03286001 0.042260263 0.0192925 0.02299244 0.09859651 0.093581304 0.031761207 0.077377245 0.028043143 -0.038897075 -0.04817291 0.08002594 -0.0700173 0.08526769 0.0191756 -0.108059056 -0.002494801 0.082255825 0.20776638 0.035653308 -0.0041323504 -0.14273007 -0.11946884 -0.05430758 -0.23369136 -0.064674124 0.14262004 -0.107675016 -0.111875124 -0.06373876 0.15092297 -0.1243767 0.07051182 0.0635369 0.0125258155 -0.096589446 -0.111795865 0.10263898 0.004862196 0.16637625 -0.015485676 -0.019662667 -0.0629719 0.040067643 0.06079435 0.054215856 0.10427145 -0.047603924 0.020378383 -0.11128212 -0.09227533 -0.041998565 -0.012899462 -0.2039541 0.10342666 0.033958584 -0.11777822 0.01103925 0.030688865 -0.2400348 -0.1051289 0.03876274 0.0087487325 0.013147927 0.15268269 0.042686414 0.038357105 0.054248396 -0.004758095 -0.17048876 0.0016643325 -0.022252837 -0.06358378 -0.14867073 -0.022133455 0.032460727 -0.12518464 0.04547921 -0.03887535 -0.018775798 -0.06834159 0.034499332 -0.032503054 0.047803324 0.13120976 -0.047345296 0.08826105 0.014609316 -0.07496466 0.010533919 0.07959204 0.12159352 0.009485516 -0.02439692 -0.090352766 -0.014718226 -0.022624427 -0.21802911 0.14062025 -0.16233113 0.017455535 0.06952186 -0.078478225 0.13409403 -0.10412514 -0.16161023 -0.09146443 -0.08245736 0.10595 0.12179661 0.014453696 -0.097599514 0.06795374 0.101964615 -0.16785583 -0.01855677 -0.054298334 0.016925622
3250 0.032367177 0.08812225 0.09061234 -0.10402827 -0.05063744 -0.062309198 -0.045212943 0.087637044 -0.115329646 0.075443745 0.028344925 0.03570699 0.019336209 0.019423015 0.0803146 0.07991606 0.020240352 0.06921464 0.024029525 -0.03509355 -0.03906802 0.06807142 -0.063681394 0.073397584 0.016714659 -0.098459356 -0.0051334766 0.07146332 0.18524995 0.032774195 -0.006035352 -0.12686458 -0.10532846 -0.048801575 -0.21391578 -0.055190757 0.12527671 -0.09674644 -0.09689393 -0.052492473 0.13182777 -0.10841034 0.06463621 0.05676601 0.010120719 -0.086470455 -0.10260331 0.095295586 0.005236122 0.15270244 -0.014278874 -0.020551035 -0.061759684 0.029246049 0.06024172 0.05041588 0.09413871 -0.04257929 0.017327037 -0.09916126 -0.083696656 -0.036295135 -0.005514297 -0.18196894 0.09328814 0.028331984 -0.09943628 0.009567097 0.023566188 -0.2113909 -0.09701731 0.035422914 0.008979597 0.0066474895 0.13917951 0.03930078 0.029523494 0.050688103 -0.0033880738 -0.1486312 0.00768189 -0.016091492 -0.05778839 -0.13377863 -0.015765792 0.026415177 -0.10794932 0.0404391 -0.030083727 -0.017059058 -0.060838178 0.034944303 -0.024342962 0.04372208 0.117907435 -0.04520289 0.08221361 0.008943042 -0.069145985 0.011215038 0.07654254 0.10845076 0.008699747 -0.027020134 -0.0760807 -0.011830317 -0.026531981 -0.19094472 0.12669526 -0.14467537 0.012348419 0.055362985 -0.06900199 0.12244117 -0.0960176 -0.14525549 -0.08008123 -0.07344326 0.09375066 0.10688712 0.011688261 -0.08574742 0.0645552 0.08936707 -0.15371943 -0.019056894 -0.050186533 0.015554259
3224 0.042395685 0.12759814 0.13047473 -0.14053719 -0.063884936 -0.084799975 -0.067772076 0.12696567 -0.16487814 0.10950586 0.041537832 0.05553368 0.025322221 0.030920556 0.11901614 0.11061376 0.030780595 0.09744239 0.041383453 -0.049131144 -0.056676377 0.09920625 -0.08496833 0.10906779 0.02283216 -0.13529488 -0.002141155 0.10582259 0.26689082 0.0492134 -0.0008544122 -0.17315799 -0.14547765 -0.06866287 -0.3012202 -0.079836525 0.17380273 -0.13432647 -0.1379483 -0.07591184 0.18880883 -0.15848997 0.09116355 0.08341842 0.010108894 -0.11832521 -0.1436878 0.13726294 0.014519431 0.21097557 -0.013798527 -0.026460124 -0.08495162 0.04793018 0.08547461 0.06784754 0.131771 -0.06324708 0.022738155 -0.14059952 -0.117809 -0.04511293 -0.00978392 -0.25643513 0.13126165 0.045881465 -0.14821388 0.015989918 0.039699875 -0.29813263 -0.13407183 0.05224935 0.014038527 0.011941523 0.19857134 0.05608035 0.04828025 0.06906673 -0.005097021 -0.21508078 0.009934805 -0.025582291 -0.07917062 -0.1886198 -0.02287127 0.032616254 -0.15024768 0.053933427 -0.050676547 -0.028861612 -0.08787109 0.046824183 -0.03650817 0.06242431 0.16293421 -0.059907027 0.1142758 0.0129918605 -0.0928552 0.014417326 0.105254345 0.1492987 0.017146336 -0.03552183 -0.115464695 -0.0154497335 -0.036294088 -0.27032822 0.18129797 -0.2080516 0.013927915 0.08485581 -0.098901674 0.16984646 -0.13898805 -0.20505053 -0.11411672 -0.09881752 0.13628168 0.15140921 0.018298317 -0.12625816 0.08759999 0.1304399 -0.21905957 -0.023999725 -0.07002945 0.030021716
3199 0.038157012 0.10096041 0.1060869 -0.11064117 -0.050266318 -0.07104679 -0.054798204 0.1011836 -0.12673809 0.0852586 0.027956473 0.04494764 0.021000445 0.0242668 0.0909147 0.091590464 0.024515245 0.07677414 0.03059357 -0.035439838 -0.043543138 0.07702184 -0.06895855 0.08601766 0.014240482 -0.10348444 -0.0053796023 0.08110479 0.20805086 0.034728914 -0.00691276 -0.14063363 -0.11782999 -0.059266135 -0.23923382 -0.06605169 0.13952063 -0.10616268 -0.1061914 -0.058632895 0.1501934 -0.119746745 0.06800725 0.06484862 0.009085365 -0.096899964 -0.116566285 0.10393607 0.015055426 0.16769078 -0.010537105 -0.02150588 -0.06637899 0.035364375 0.06437236 0.050993558 0.105036825 -0.04740258 0.021523833 -0.11094478 -0.0949294 -0.040744282 -0.006702968 -0.20753172 0.10283612 0.03455102 -0.11383989 0.008956117 0.025946926 -0.23684122 -0.1061896 0.0390692 0.007406788 0.011236471 0.1524784 0.04137477 0.03460257 0.049396902 -0.0026006354 -0.16402891 0.008773946 -0.0180613 -0.06800226 -0.15125366 -0.021113588 0.028471258 -0.122357085 0.04418569 -0.0396079 -0.023625977 -0.0726921 0.03657357 -0.027825238 0.04871987 0.13070217 -0.044847425 0.08931941 0.0073909713 -0.07677026 0.01393423 0.083701834 0.121162 0.009284958 -0.027865786 -0.08595855 -0.010707063 -0.025342235 -0.2180336 0.14011295 -0.16148324 0.01767087 0.063621 -0.074373595 0.1349254 -0.10316857 -0.15956241 -0.09425065 -0.08354484 0.10914004 0.119869545 0.014082667 -0.102106355 0.06613882 0.10177177 -0.16989982 -0.019767208 -0.054387428 0.022685783
3377 0.04766519 0.13245624 0.12961915 -0.14808866 -0.06739411 -0.086574964 -0.07035279 0.13124159 -0.15865366 0.1074368 0.04401456 0.05049094 0.022397278 0.02350353 0.11891041 0.11527699 0.03348632 0.09539921 0.040783342 -0.04943473 -0.056574333 0.096809514 -0.08825774 0.111627504 0.023146812 -0.13559261 0.0017966098 0.10652296 0.26888525 0.04813188 -0.0026804588 -0.17979237 -0.14535104 -0.076180995 -0.300337 -0.081336305 0.17971866 -0.1364372 -0.13893637 -0.079143286 0.19328612 -0.15979353 0.088956244 0.08127859 0.0175282 -0.123814866 -0.13864256 0.13435173 0.008454125 0.21426557 -0.015307939 -0.021744406 -0.086755246 0.046291642 0.080671266 0.068799384 0.1279111 -0.059373546 0.020500338 -0.14347863 -0.11784954 -0.05014327 -0.01534459 -0.2599265 0.13143934 0.0497338 -0.14732084 0.014578485 0.03596937 -0.2968173 -0.13667604 0.04739358 0.0165499 0.014239548 0.19436222 0.056750406 0.05080881 0.06904565 -0.00709289 -0.21524987 0.0073927618 -0.026630385 -0.084909365 -0.18553892 -0.020979786 0.03358005 -0.15677276 0.05695864 -0.045487363 -0.031766605 -0.08932817 0.048921008 -0.033085905 0.05702633 0.16720767 -0.0636147 0.118152745 0.013625882 -0.09636292 0.010750784 0.09919172 0.1547063 0.014082853 -0.03376294 -0.11068879 -0.017351713 -0.03531021 -0.2761427 0.17711154 -0.20392038 0.02135862 0.08367714 -0.0981924 0.17006195 -0.13549854 -0.2041937 -0.119338095 -0.102373324 0.13733119 0.15325996 0.016067944 -0.12731108 0.08457943 0.13198574 -0.22006859 -0.028638197 -0.07125374 0.026756609
3174 0.04496328 0.12836194 0.13714157 -0.14431524 -0.06962145 -0.08271706 -0.07133361 0.12635072 -0.16787292 0.108368166 0.042918988 0.057927057 0.023280073 0.028189905 0.1248867 0.11305101 0.03902905 0.09693226 0.035047043 -0.04568767 -0.062208917 0.10028527 -0.08808504 0.10559924 0.023544526 -0.13573875 -0.0017539066 0.1062532 0.2718894 0.051373668 -0.00053509214 -0.17947988 -0.14392884 -0.071671255 -0.30298406 -0.077790625 0.17734657 -0.13861103 -0.14039545 -0.07459258 0.19071005 -0.15662126 0.093560785 0.081730016 0.011537689 -0.12247399 -0.14307447 0.13462177 0.011004272 0.2154526 -0.012112233 -0.027521322 -0.08071228 0.048896708 0.086234264 0.06709844 0.13137522 -0.06319963 0.025179252 -0.14795199 -0.11838501 -0.052351475 -0.008678183 -0.25753096 0.13471045 0.043571886 -0.14937285 0.01244794 0.035559826 -0.30551338 -0.13191694 0.050538056 0.010465458 0.017405402 0.20139004 0.05640317 0.048214544 0.06610247 -0.0039646495 -0.21740979 0.0054660337 -0.02188446 -0.08385024 -0.1935496 -0.022644093 0.03762382 -0.1578458 0.060217872 -0.051769193 -0.025333965 -0.09058823 0.046274103 -0.032974306 0.062253475 0.17015545 -0.061383482 0.11048928 0.015858969 -0.09634612 0.013778085 0.105315715 0.14884445 0.014575821 -0.037805334 -0.11311466 -0.014699148 -0.035729907 -0.2728914 0.18587175 -0.20828192 0.014452116 0.081399664 -0.09787836 0.17638184 -0.1371679 -0.20487872 -0.11537743 -0.10393565 0.1373818 0.14978363 0.022667626 -0.1296713 0.08754222 0.13240531 -0.2135589 -0.028274909 -0.07091471 0.026792055
3149 0.03789145 0.10972052 0.11739855 -0.12506582 -0.056677148 -0.071893804 -0.056504432 0.10793822 -0.14221351 0.09513583 0.0369411 0.04329727 0.022424456 0.022406435 0.103637055 0.101436876 0.0263999 0.07904547 0.03320024 -0.03779844 -0.051868625 0.07968938 -0.07023519 0.092395335 0.01862105 -0.114869505 -0.0038557495 0.0920082 0.22716518 0.04015236 -0.0014299456 -0.15495802 -0.12391898 -0.059595816 -0.2558678 -0.06509098 0.14657164 -0.11877369 -0.11760216 -0.06475561 0.16171552 -0.13051702 0.07921599 0.06968837 0.01423479 -0.10351048 -0.1253423 0.1105592 0.012177118 0.18163082 -0.012639827 -0.017920192 -0.073741 0.03955743 0.06981997 0.056554336 0.1124565 -0.051684305 0.017777555 -0.123805754 -0.10326137 -0.044561666 -0.00985152 -0.22290795 0.11262947 0.03539183 -0.12445747 0.00748649 0.02826891 -0.2585455 -0.11261074 0.046430886 0.013843329 0.012633844 0.17068319 0.047982767 0.03965821 0.058674373 -0.0077046542 -0.18341365 0.005784114 -0.017502032 -0.06644249 -0.16253392 -0.02083579 0.027385918 -0.1291142 0.04737402 -0.040578984 -0.026140641 -0.0790439 0.035194155 -0.032357205 0.05403913 0.14165045 -0.053999092 0.099521354 0.015738973 -0.07916576 0.010402836 0.08822084 0.12581006 0.013836623 -0.03132173 -0.09349634 -0.012142669 -0.026177233 -0.23067278 0.1513076 -0.17355536 0.012411378 0.07080947 -0.078537725 0.14457065 -0.117018886 -0.17549655 -0.09958077 -0.08737609 0.119953126 0.1303871 0.019080263 -0.10875262 0.07619437 0.11464083 -0.18608034 -0.018751897 -0.05785276 0.019817
3070 0.028035821 0.08967275 0.09022224 -0.101247765 -0.047477264 -0.058273472 -0.052523788 0.08442274 -0.11919599 0.08130322 0.028231213 0.04026718 0.021314684 0.024247626 0.085842244 0.083155215 0.02474748 0.0714148 0.023264645 -0.03354481 -0.039259374 0.07522039 -0.062234372 0.07444743 0.015587039 -0.09108451 0.00078868447 0.077726014 0.1926356 0.03574291 -0.0039799027 -0.12284295 -0.1027031 -0.052153513 -0.22047827 -0.056626044 0.1199315 -0.09605857 -0.09686607 -0.05409812 0.13694665 -0.10637645 0.06519581 0.058420077 0.0062565217 -0.082737446 -0.09925426 0.09262832 0.008790321 0.15421627 -0.01615667 -0.016537279 -0.05462005 0.03688429 0.053184174 0.05187173 0.09351718 -0.040068217 0.016259331 -0.10510417 -0.079860285 -0.036378365 -0.00610923 -0.18434761 0.095401816 0.033353213 -0.10455336 0.010452094 0.022834413 -0.21416803 -0.095916934 0.035572797 0.008351052 0.010229012 0.14053 0.041388445 0.0359087 0.052519917 -0.006926413 -0.14954486 0.009234242 -0.017820742 -0.06377337 -0.13138613 -0.016977627 0.027615631 -0.1090331 0.040364496 -0.032964956 -0.016649224 -0.06337939 0.03579206 -0.024044668 0.046533305 0.12095413 -0.04457036 0.078479186 0.012072007 -0.067408584 0.015151335 0.071775384 0.109576024 0.007162207 -0.025932893 -0.0786482 -0.011196294 -0.024525948 -0.19200908 0.12752683 -0.15175465 0.013665982 0.055606574 -0.07048274 0.12193093 -0.09695282 -0.13826905 -0.08310125 -0.076871134 0.09655466 0.11052766 0.010084933 -0.09167537 0.06682283 0.09088001 -0.15222763 -0.016335404 -0.044249315 0.020070026
3300 0.03945024 0.10934765 0.11075517 -0.11927021 -0.051451165 -0.07305782 -0.055683143 0.10540726 -0.13050231 0.087408766 0.03418726 0.042182025 0.020194136 0.023138208 0.1003303 0.09426675 0.02985558 0.081321 0.027990295 -0.040706076 -0.049619522 0.08408568 -0.07467518 0.09111647 0.0149720805 -0.11053591 -0.00276611 0.082591526 0.2235257 0.040102325 0.00039414922 -0.14388965 -0.12067247 -0.06050431 -0.24917108 -0.064370036 0.14535478 -0.110798396 -0.1129593 -0.0598803 0.15606862 -0.12794267 0.07642775 0.063932724 0.010115915 -0.10125107 -0.11689898 0.11221073 0.013241827 0.17794283 -0.013606074 -0.017565852 -0.06727488 0.035095282 0.06700497 0.057916876 0.1087837 -0.049312826 0.02180507 -0.11866954 -0.09737242 -0.040944993 -0.008658973 -0.21224803 0.107751116 0.039378274 -0.118701816 0.01190351 0.03196428 -0.2433807 -0.11050976 0.043668427 0.010348906 0.010694361 0.16516234 0.048115246 0.035406522 0.054847706 -0.0060125994 -0.17485248 0.0058290856 -0.022854181 -0.06935377 -0.15916353 -0.015703436 0.027915293 -0.12327493 0.04393069 -0.039813086 -0.023657484 -0.07188744 0.03921734 -0.028217306 0.047555324 0.13570416 -0.045540545 0.09101695 0.010572144 -0.08101185 0.0076586637 0.08602937 0.12568392 0.0069144787 -0.0340105 -0.093023844 -0.012353474 -0.02737406 -0.22796237 0.1473724 -0.1731577 0.011397456 0.070165396 -0.07749538 0.14084402 -0.10983854 -0.16639726 -0.09370574 -0.08435591 0.11277466 0.123379305 0.020580316 -0.10536814 0.07442102 0.10419236 -0.17688702 -0.016446669 -0.05753543 0.02076327
3329 0.039931417 0.10374373 0.1079429 -0.11768271 -0.054751556 -0.07101431 -0.056785647 0.104118004 -0.12608963 0.08804481 0.028572418 0.041308716 0.022331174 0.017038163 0.09169158 0.095571004 0.032835443 0.07257304 0.032192226 -0.036920223 -0.04860015 0.07652807 -0.07178694 0.08402156 0.020823846 -0.11174279 -0.0010391688 0.08665809 0.21261267 0.04037798 0.0014465564 -0.14287181 -0.11743822 -0.06000817 -0.23616388 -0.059892822 0.13693424 -0.106245965 -0.112177 -0.06301602 0.14830032 -0.12356197 0.0702382 0.06297692 0.009149226 -0.09718563 -0.11593795 0.10834154 0.008494285 0.16489308 -0.015895013 -0.020126248 -0.06755617 0.03498517 0.06204706 0.053857084 0.102755636 -0.04680949 0.017337425 -0.11375371 -0.09633282 -0.03665184 -0.012983414 -0.20519717 0.10295578 0.04133432 -0.114281856 0.009340463 0.025766766 -0.23929718 -0.107153855 0.043801546 0.009462027 0.012317539 0.15271801 0.04451039 0.03784864 0.050338108 -0.008624603 -0.16944225 0.0009018687 -0.018165207 -0.06479042 -0.14573695 -0.015215034 0.02810053 -0.12126239 0.039068155 -0.03510678 -0.021934642 -0.070041776 0.036488798 -0.027900537 0.045932353 0.13576317 -0.049846232 0.09326795 0.011713064 -0.08135926 0.009353672 0.08022556 0.1188379 0.01268097 -0.02673046 -0.08844015 -0.013737012 -0.02836294 -0.22021756 0.14270812 -0.16043113 0.016155796 0.063587345 -0.077091 0.13850147 -0.10414316 -0.16130112 -0.08955203 -0.07841267 0.111091316 0.11736291 0.015014244 -0.09857465 0.06621473 0.10044282 -0.17196752 -0.018508872 -0.057438288 0.020274391
3354 0.030323472 0.08116537 0.08411032 -0.093405 -0.045977965 -0.055149157 -0.044054855 0.07893311 -0.09740623 0.070434935 0.025962327 0.034586817 0.016076824 0.012826872 0.07831875 0.07242188 0.026526345 0.055459138 0.025292415 -0.027399827 -0.034516543 0.057698 -0.053548794 0.066750176 0.013771672 -0.08076307 -6.860249e-05 0.06322771 0.16616882 0.02925083 0.001742834 -0.10896656 -0.0956495 -0.046698235 -0.18320465 -0.052932464 0.111614935 -0.0852952 -0.083094284 -0.045118544 0.117496215 -0.10001108 0.059520908 0.046387296 0.009755016 -0.07861106 -0.086529054 0.08068567 0.005917392 0.1301805 -0.00681859 -0.018511973 -0.051066678 0.028132806 0.052683234 0.041865095 0.08165157 -0.040147327 0.01249862 -0.08869514 -0.069710836 -0.03318117 -0.0060915495 -0.16194434 0.081711575 0.028918091 -0.08866233 0.004745608 0.024345957 -0.18865907 -0.08438305 0.028259655 0.0067058117 0.008408802 0.1174295 0.03673974 0.02693693 0.042353764 -0.0023468114 -0.13084842 0.00017895392 -0.015255811 -0.04814437 -0.11834026 -0.015341007 0.022733105 -0.09804534 0.03067382 -0.023921166 -0.013445216 -0.056380667 0.030287184 -0.025092881 0.035762895 0.101461545 -0.03678436 0.07093466 0.0103655 -0.061056323 0.012376421 0.05972003 0.09897772 0.004110865 -0.017852906 -0.06668268 -0.0150215095 -0.018916437 -0.1740284 0.11541719 -0.12697926 0.014485985 0.05086293 -0.059624344 0.10816371 -0.08210121 -0.12635732 -0.072618246 -0.06035847 0.087784655 0.09669631 0.010216404 -0.08046091 0.056494836 0.07870349 -0.13517924 -0.012404462 -0.04088311 0.01697335
3353 0.03654643 0.10825367 0.109276146 -0.120986305 -0.05384656 -0.073085465 -0.05522799 0.10759933 -0.13473684 0.090557314 0.032479916 0.040618986 0.02121447 0.020400897 0.09756606 0.09270753 0.03308214 0.07628668 0.033798184 -0.040095724 -0.049961418 0.07884299 -0.07537018 0.08482033 0.021820083 -0.11232271 -0.0026722513 0.08344459 0.21203953 0.04222944 -0.0046550557 -0.14744787 -0.12401308 -0.055647895 -0.24326876 -0.06731631 0.14355464 -0.1129754 -0.11410063 -0.0659488 0.1556365 -0.12549458 0.07051881 0.065660015 0.014416546 -0.10156326 -0.11848097 0.10638979 0.0061938004 0.17329971 -0.014456512 -0.023582337 -0.069023445 0.03901997 0.06975102 0.059042495 0.10629884 -0.04877377 0.017016191 -0.11871591 -0.09598355 -0.041185766 -0.00847545 -0.21302123 0.10699309 0.036211003 -0.11450242 0.006275756 0.03233112 -0.24148214 -0.1073037 0.039619908 0.007976488 0.015324613 0.16033818 0.039960984 0.037081596 0.05195522 -0.0069819423 -0.17358749 0.0023440118 -0.022876557 -0.06430556 -0.1498764 -0.015074461 0.0323009 -0.12324593 0.040835064 -0.033684306 -0.02150943 -0.07336836 0.03461249 -0.029013894 0.04935862 0.1357196 -0.045907095 0.096568465 0.009767962 -0.080611244 0.0113755325 0.08113165 0.1237918 0.009486512 -0.028398193 -0.09527507 -0.011428415 -0.026979694 -0.2267126 0.14490792 -0.17123386 0.013031883 0.063638724 -0.07730166 0.14251037 -0.113211036 -0.16648047 -0.09232707 -0.08095037 0.1106215 0.11947873 0.011913513 -0.10044513 0.07450633 0.10394358 -0.17957588 -0.018069634 -0.059258666 0.021271355
3352 0.045501664 0.12022894 0.12536146 -0.13380365 -0.06537937 -0.08234589 -0.06374861 0.117821775 -0.14699166 0.10017641 0.038548738 0.04926922 0.026860295 0.022597684 0.113584526 0.10936023 0.03384246 0.08590551 0.033973325 -0.042553976 -0.052035846 0.088499494 -0.0856253 0.09682659 0.016575692 -0.12454301 -0.0035817118 0.09560924 0.24820368 0.048012976 -0.00075560936 -0.16855372 -0.14006042 -0.06630114 -0.27633464 -0.070743956 0.16431485 -0.12891576 -0.1253988 -0.07313118 0.1746664 -0.14399074 0.080435246 0.07282683 0.01589311 -0.11576444 -0.13296486 0.12364721 0.0088854525 0.19768518 -0.015480424 -0.0205601 -0.07677945 0.042105917 0.07810363 0.060903594 0.1242187 -0.05284435 0.024466185 -0.12956879 -0.10492524 -0.041860625 -0.015574185 -0.24323224 0.120915115 0.043095794 -0.1306776 0.0106027 0.03466543 -0.27565113 -0.12127489 0.045497984 0.01334411 0.013119961 0.17672043 0.04890329 0.042520225 0.06047815 -0.0058388268 -0.19971837 0.007164933 -0.023018569 -0.07621925 -0.17530367 -0.019874964 0.030429495 -0.14430165 0.049149517 -0.04508884 -0.028071862 -0.083219275 0.04428981 -0.03222219 0.060305994 0.1530704 -0.055536482 0.10312349 0.013319514 -0.09158191 0.01685352 0.09697129 0.14559685 0.013010847 -0.03460698 -0.10641419 -0.017262533 -0.029871885 -0.25806606 0.16880149 -0.19541368 0.015049733 0.08076026 -0.08766964 0.15524657 -0.124316394 -0.18989396 -0.111986704 -0.09117976 0.12755089 0.14143401 0.01638643 -0.11405517 0.07820282 0.120782204 -0.20224051 -0.020231575 -0.06678197 0.028535686
3263 0.037197363 0.104038134 0.10268754 -0.11197147 -0.05621611 -0.07093398 -0.058659274 0.10400583 -0.1321602 0.09261771 0.02590586 0.04285553 0.02356573 0.019061923 0.09876808 0.08983989 0.03354007 0.073768355 0.032870363 -0.034720134 -0.049459547 0.0805885 -0.0677624 0.08611937 0.014037678 -0.108352214 -0.001370879 0.083712906 0.21436557 0.037893932 0.0006015727 -0.1417081 -0.11706937 -0.061591603 -0.24244699 -0.066905074 0.14336717 -0.11145086 -0.113109276 -0.06491605 0.15587173 -0.12547825 0.07010704 0.061843384 0.008829899 -0.09546422 -0.117007524 0.10489987 0.006199089 0.17179838 -0.012110766 -0.021683183 -0.061807018 0.035818294 0.06536316 0.059562646 0.10904301 -0.046610355 0.016972752 -0.11371882 -0.09571436 -0.0393053 -0.014203265 -0.2049055 0.10612358 0.042451978 -0.11803293 0.011889671 0.027804304 -0.24487153 -0.10760628 0.040438768 0.013035656 0.008035644 0.15613648 0.043403696 0.039653957 0.050312206 -0.004724213 -0.16691937 0.0023012876 -0.019340111 -0.06355692 -0.15445028 -0.022147812 0.033592302 -0.12223769 0.047570556 -0.0319161 -0.019704452 -0.071730845 0.03355527 -0.03042762 0.04836664 0.13639706 -0.045824204 0.09144312 0.012634827 -0.080847844 0.014536437 0.084456585 0.12235176 0.0048864777 -0.029406413 -0.08851388 -0.013172206 -0.023981255 -0.22280551 0.14644672 -0.16950178 0.014268441 0.071321644 -0.074340776 0.13769877 -0.11197819 -0.16183662 -0.097914614 -0.08683891 0.111805566 0.12651496 0.017685642 -0.10304172 0.07439799 0.09966232 -0.16979146 -0.023738375 -0.053260934 0.020509427
3095 0.03140554 0.081212066 0.08395112 -0.091671236 -0.04381055 -0.057546094 -0.0478623 0.07998642 -0.11126486 0.07172136 0.022350132 0.03930787 0.020772876 0.022441516 0.07897801 0.08020682 0.022292653 0.06088777 0.023495845 -0.029517476 -0.036137994 0.068964005 -0.05428832 0.070354566 0.012933499 -0.088470936 -0.005546122 0.07230474 0.1748337 0.02898747 -0.006353689 -0.116789736 -0.0969311 -0.04786568 -0.19791113 -0.053572644 0.115287095 -0.08508392 -0.089696854 -0.053174205 0.12476992 -0.100308776 0.05913372 0.049129438 0.005619019 -0.07725969 -0.09611261 0.088573836 0.012053543 0.14171918 -0.014692517 -0.01318687 -0.052768398 0.03333373 0.05381026 0.048602827 0.086046726 -0.042342123 0.020912154 -0.097762875 -0.07555069 -0.034406703 -0.012035694 -0.16937254 0.08663232 0.034197867 -0.092806555 0.012503287 0.026686687 -0.20190044 -0.08724176 0.030383497 0.0045580594 0.009515589 0.1289944 0.040651202 0.030142289 0.04316323 -0.0033210893 -0.1410317 0.006093899 -0.014013683 -0.054577652 -0.12745246 -0.016392589 0.024967594 -0.102652475 0.03389707 -0.026769415 -0.01939131 -0.06292891 0.028463714 -0.022457195 0.04194932 0.1168186 -0.03967892 0.077263296 0.007098348 -0.06690863 0.011943483 0.07213612 0.09707119 0.00758511 -0.023352474 -0.06940822 -0.0097689135 -0.021766301 -0.18169785 0.1200014 -0.13506429 0.014611158 0.051413067 -0.06605376 0.11068807 -0.09093117 -0.12696214 -0.07529975 -0.06882708 0.09098629 0.105738044 0.0130492365 -0.085012875 0.06076212 0.08219271 -0.1425131 -0.01433399 -0.040458784 0.02170467
3170 0.02595323 0.08531009 0.09120013 -0.09529634 -0.04951172 -0.06042831 -0.04763387 0.08169922 -0.108212054 0.07740771 0.023204451 0.03953302 0.015808452 0.022551265 0.083007924 0.08142392 0.023544986 0.06960234 0.022437695 -0.032560386 -0.038166482 0.06801054 -0.05733255 0.07299823 0.012260818 -0.08746132 -0.005375795 0.07091429 0.18423493 0.03263994 -0.004687842 -0.1215865 -0.10249307 -0.051394824 -0.20488858 -0.055659607 0.11944866 -0.086255915 -0.09073876 -0.056951724 0.13026358 -0.10236376 0.06481833 0.055117153 0.008976278 -0.083380744 -0.09958807 0.08802312 0.008663348 0.14845142 -0.009288485 -0.016308216 -0.052078772 0.031928718 0.055447966 0.046762776 0.08735217 -0.03848921 0.016411068 -0.097930215 -0.076228514 -0.03209317 -0.010824564 -0.17773212 0.0918412 0.028683541 -0.1015031 0.006244287 0.023478858 -0.2018816 -0.08924658 0.034944367 0.0057155336 0.010559112 0.13229257 0.0368324 0.03358633 0.045438956 -0.002077235 -0.14515623 0.007898899 -0.014622139 -0.053336713 -0.12667789 -0.019732788 0.024761764 -0.1068425 0.04047181 -0.028640864 -0.015695812 -0.06362176 0.030234601 -0.02431584 0.045477662 0.11678918 -0.03963828 0.07909759 0.011829015 -0.066926084 0.007824927 0.06681073 0.10528582 0.008201754 -0.027457997 -0.07808241 -0.013107739 -0.020848515 -0.18811299 0.12228209 -0.14127286 0.015115044 0.053688694 -0.06435101 0.11764891 -0.09004457 -0.13574079 -0.077019945 -0.07211232 0.09349641 0.10526586 0.013996188 -0.08076219 0.06359228 0.088856906 -0.14462169 -0.0209757 -0.04911962 0.020937646
3171 0.03288201 0.09460232 0.10144049 -0.10937472 -0.05445405 -0.06174003 -0.0538972 0.09033566 -0.1211319 0.08168568 0.025052179 0.03772012 0.019552048 0.02550981 0.08996177 0.08632355 0.0292814 0.07637123 0.024247259 -0.03499547 -0.043223616 0.078317955 -0.066524625 0.081382334 0.015500619 -0.101303235 -0.005394628 0.07568448 0.20282453 0.035343867 -0.0020425017 -0.12900566 -0.11322425 -0.052772526 -0.22496767 -0.06489801 0.12938504 -0.09791034 -0.105889104 -0.05587802 0.14916153 -0.1184769 0.06681985 0.056061573 0.0049435394 -0.084886424 -0.10714177 0.09670384 0.013455104 0.1577139 -0.011901944 -0.021950198 -0.05928989 0.0327887 0.05795706 0.053862873 0.09606112 -0.046195928 0.01760929 -0.10589077 -0.085877374 -0.038722914 -0.010786946 -0.19270152 0.09814043 0.036623232 -0.1105947 0.012387285 0.023049984 -0.226861 -0.097916104 0.03533734 0.00631061 0.011335068 0.14701456 0.040173855 0.03312549 0.051906582 -0.008063094 -0.15807205 0.00375857 -0.022737872 -0.0584753 -0.14279544 -0.01766 0.0336798 -0.1120543 0.039616134 -0.034272257 -0.022412185 -0.06531027 0.034447644 -0.026390292 0.05147651 0.12505187 -0.04698479 0.0833529 0.0071584433 -0.07399191 0.015115556 0.07868753 0.115326315 0.004906109 -0.024899485 -0.079400696 -0.015447961 -0.022191336 -0.20665745 0.13055618 -0.15560831 0.017084923 0.059424672 -0.07286229 0.13206336 -0.10171758 -0.15056537 -0.088310406 -0.08122017 0.10269157 0.11874541 0.016199395 -0.093514316 0.07050446 0.0960673 -0.16101614 -0.015633777 -0.05032683 0.023283629
3376 0.04277501 0.12585339 0.12514782 -0.14065474 -0.0684778 -0.083401635 -0.065658644 0.12616076 -0.15619078 0.10679306 0.041707348 0.054666404 0.021201335 0.028878476 0.11823571 0.109889455 0.0379114 0.091625676 0.036288317 -0.04761215 -0.05763281 0.0918931 -0.08521958 0.105925195 0.021028366 -0.13401295 -0.0019281735 0.10032053 0.25319836 0.047067437 -0.003957002 -0.1684933 -0.14523531 -0.06703514 -0.28821334 -0.074350454 0.1690677 -0.13308692 -0.13186294 -0.07541575 0.18390214 -0.15218668 0.08460551 0.074566625 0.014236022 -0.113712616 -0.1330109 0.12909512 0.011013901 0.20029886 -0.017373301 -0.021598587 -0.07961661 0.047146335 0.07796775 0.067850925 0.12193155 -0.058551837 0.022952395 -0.13735053 -0.114606164 -0.04786422 -0.016830869 -0.25138727 0.12280592 0.048019383 -0.13883254 0.011283797 0.03232824 -0.28789297 -0.12705795 0.049107697 0.0153277535 0.017697576 0.18504108 0.050840586 0.04797228 0.06409723 -0.0066037816 -0.20395681 0.0067636697 -0.021254098 -0.079205096 -0.17860341 -0.019370643 0.03459395 -0.14573753 0.050858926 -0.040253915 -0.026982974 -0.08748517 0.045392137 -0.035331402 0.060272176 0.1595222 -0.05981306 0.10631665 0.01731793 -0.09515994 0.014780462 0.09947872 0.14897665 0.016012987 -0.031472556 -0.11097905 -0.016871788 -0.033183873 -0.26589635 0.17177781 -0.20314817 0.021359554 0.07834703 -0.095208086 0.16805057 -0.13163362 -0.1969005 -0.11269526 -0.10102659 0.13300052 0.14449672 0.016795188 -0.11806149 0.085348345 0.12599781 -0.20967105 -0.027075937 -0.06581055 0.022033444
3401 0.045572866 0.11904855 0.11774105 -0.12957168 -0.06303475 -0.079598956 -0.059345994 0.116834745 -0.1506473 0.10261392 0.035809 0.045285165 0.024115276 0.027598167 0.11229002 0.10728065 0.036143463 0.08676452 0.037182987 -0.044816308 -0.05031924 0.086883016 -0.08032956 0.10219756 0.019363414 -0.12789072 -0.0054970887 0.094524756 0.24417812 0.04287087 0.001490062 -0.16162892 -0.13696851 -0.06427359 -0.2709198 -0.07182149 0.15569505 -0.124327615 -0.126151 -0.07040018 0.17149824 -0.14267926 0.0828115 0.072650075 0.011468 -0.10755029 -0.13234423 0.122130275 0.009178959 0.1937451 -0.019187734 -0.022111269 -0.072653264 0.043865632 0.07601722 0.062155385 0.117398776 -0.054492004 0.021325793 -0.13048267 -0.10541057 -0.041694317 -0.010611739 -0.23224927 0.12141461 0.045026816 -0.1314582 0.012197308 0.035876606 -0.27235007 -0.12052287 0.048748545 0.014292513 0.01600705 0.18020485 0.046356894 0.044484954 0.056857046 -0.0049106493 -0.19738084 0.005332294 -0.019242268 -0.078498684 -0.17262898 -0.024044534 0.034399204 -0.14211874 0.047209807 -0.039434414 -0.028449895 -0.08273953 0.0426335 -0.0322039 0.052692696 0.15519568 -0.052734263 0.10511143 0.012429625 -0.09119653 0.0118358135 0.09502064 0.13851555 0.015126437 -0.029573165 -0.10520197 -0.01695311 -0.031638164 -0.25021872 0.16461042 -0.19246978 0.014881318 0.0753679 -0.090188056 0.1575696 -0.12149147 -0.18185304 -0.10470546 -0.08874944 0.12449672 0.13973185 0.016349519 -0.115228824 0.083051346 0.12017987 -0.19889951 -0.02195916 -0.062446464 0.026916811
3120 0.02969938 0.0851408 0.08787433 -0.095114216 -0.04240456 -0.0590011 -0.04889145 0.07835072 -0.10963617 0.07257625 0.02172341 0.03475547 0.013477579 0.01929656 0.082437396 0.08088008 0.02076277 0.06574539 0.027725853 -0.032077666 -0.040616423 0.06493279 -0.058188714 0.07109857 0.01082742 -0.087204516 -0.00539001 0.07078162 0.1763995 0.028490264 -0.0066467146 -0.120432414 -0.10058818 -0.05253398 -0.20368405 -0.05871587 0.11629324 -0.08635979 -0.091345966 -0.054520313 0.13115418 -0.10303571 0.058545824 0.055617183 0.0035910239 -0.08318924 -0.09785921 0.08901597 0.011183831 0.14566095 -0.009413424 -0.019074278 -0.052939314 0.031064337 0.057490066 0.049552128 0.08886767 -0.040022615 0.014998145 -0.09784705 -0.07166601 -0.030744795 -0.008448118 -0.17301261 0.08457638 0.02981753 -0.09552448 0.009209026 0.023770967 -0.20575233 -0.08926309 0.03681372 0.0069779763 0.0093777925 0.13206686 0.041843038 0.028504139 0.049500555 -0.004191791 -0.1385442 0.0071704565 -0.015611166 -0.058800377 -0.12410556 -0.01270977 0.023575809 -0.10403741 0.036123328 -0.031554118 -0.017201815 -0.06457168 0.032190766 -0.028046742 0.044855062 0.11903401 -0.03841485 0.07219647 0.009502241 -0.065491356 0.012930535 0.073528074 0.10384469 0.010252628 -0.028282909 -0.07444413 -0.015889306 -0.018090127 -0.18222564 0.11674742 -0.13656825 0.015789973 0.053285122 -0.06190794 0.11733526 -0.087644435 -0.13373104 -0.07988146 -0.06980914 0.09016081 0.10200171 0.013234591 -0.080113426 0.05891271 0.08594025 -0.14382477 -0.018532805 -0.04453966 0.015225206
3145 0.018627834 0.05224096 0.049180783 -0.049800646 -0.021963494 -0.03591005 -0.024922175 0.04548832 -0.06646579 0.038387883 0.012173863 0.02158526 0.0067418623 0.009224868 0.043262612 0.04623631 0.012804261 0.036402 0.010635162 -0.014232881 -0.018790653 0.04142877 -0.03198071 0.03715507 0.009552116 -0.048473727 -0.0036740194 0.038484942 0.100659944 0.014164911 -0.005886245 -0.06493065 -0.055909686 -0.03132583 -0.119790524 -0.03408726 0.067725845 -0.050440416 -0.048775677 -0.031508148 0.07627233 -0.057907447 0.03646341 0.027807433 0.003458168 -0.047737427 -0.051331546 0.053399187 0.010446012 0.079973914 -0.0066414117 -0.009497102 -0.03164708 0.0202615 0.03162831 0.030612154 0.0509372 -0.024305843 0.013658844 -0.05276119 -0.044731796 -0.022178806 -0.00551438 -0.09584191 0.053113133 0.015602215 -0.05636279 0.0066124555 0.01718097 -0.11627123 -0.049131155 0.020122565 0.0045238454 0.004460116 0.07496151 0.025285803 0.019646972 0.02989322 0.00029886665 -0.084366046 -0.00043613728 -0.008414137 -0.035696633 -0.07035811 -0.010448693 0.015721858 -0.05615601 0.020884547 -0.0144327255 -0.009389875 -0.037258767 0.01996117 -0.013295347 0.0273391 0.06538747 -0.025622161 0.043268517 0.0019734518 -0.03391847 0.0031122863 0.044257365 0.061813403 0.0010515271 -0.010475222 -0.041727725 -0.0056835813 -0.01236512 -0.104233116 0.06511515 -0.08122479 0.0033232586 0.028936323 -0.037357885 0.06783917 -0.054688286 -0.07264502 -0.0475636 -0.041784115 0.05479896 0.05680695 0.0046469946 -0.05069693 0.03357781 0.050839785 -0.08558405 -0.008842475 -0.028715087 0.014289412
3325 0.03817588 0.112526275 0.12156351 -0.1281545 -0.05675915 -0.0795791 -0.060702935 0.111728504 -0.14075251 0.09570457 0.03559795 0.0432576 0.023312682 0.027951906 0.10610322 0.104889594 0.030235384 0.08428982 0.032526214 -0.03854173 -0.04893067 0.08410289 -0.07969904 0.09489343 0.018687163 -0.117929645 -0.0045782565 0.0943135 0.233101 0.046056997 -0.005674519 -0.15567559 -0.1273799 -0.066565745 -0.26964888 -0.07047331 0.15342161 -0.12241729 -0.123786874 -0.06555505 0.16711445 -0.13440892 0.07952707 0.07334093 0.014701099 -0.10803976 -0.12440608 0.1205797 0.012555767 0.18914999 -0.017456241 -0.025740612 -0.0734656 0.04113689 0.07715374 0.06118916 0.11687826 -0.053635623 0.017545015 -0.12499978 -0.10612189 -0.040635746 -0.0127445785 -0.2320987 0.11313553 0.03870981 -0.13151874 0.006717572 0.035336774 -0.26780435 -0.11725443 0.04188231 0.012078309 0.01720215 0.17561822 0.045765657 0.037973493 0.05955547 -0.0037027334 -0.19060606 0.0040628025 -0.017346216 -0.07395539 -0.17047538 -0.020525279 0.030109758 -0.13639128 0.045473054 -0.04050141 -0.024628777 -0.07831435 0.03711059 -0.028979965 0.05291414 0.14630459 -0.04998478 0.103535734 0.013635677 -0.0817406 0.01169771 0.09305583 0.13188654 0.008391828 -0.03591144 -0.09669519 -0.01590659 -0.031162078 -0.24087162 0.15678225 -0.18496634 0.01613104 0.07145117 -0.08890176 0.15014906 -0.11801952 -0.17810161 -0.10264951 -0.092600085 0.119696416 0.12983298 0.021797938 -0.11114337 0.078238 0.11353857 -0.19256653 -0.0200901 -0.06510245 0.021410767
2995 0.030910302 0.09008948 0.08785468 -0.09972109 -0.043078244 -0.060016293 -0.052423097 0.08571236 -0.11037599 0.07902497 0.024102181 0.036471568 0.020658059 0.019947937 0.07808134 0.083165154 0.022278475 0.06603942 0.024238879 -0.03625783 -0.043521278 0.07246917 -0.057442077 0.07613561 0.015498793 -0.093140855 -0.0023471315 0.070538804 0.18546581 0.034739498 -0.0040216367 -0.11992747 -0.10291744 -0.05502101 -0.21301165 -0.05819561 0.121638045 -0.09020178 -0.09726648 -0.0556772 0.13855326 -0.10461344 0.06710017 0.056133483 0.0055196416 -0.08430604 -0.101541676 0.09129304 0.010844751 0.15002882 -0.014308708 -0.015544228 -0.057788517 0.028096106 0.05545171 0.051355727 0.08764365 -0.038857494 0.0209749 -0.09627184 -0.07805736 -0.032884073 -0.006595703 -0.1774791 0.09005201 0.03264951 -0.10392654 0.0109982835 0.020339478 -0.21355087 -0.0914564 0.037265457 0.0036464883 0.010476253 0.13480563 0.042935744 0.03369021 0.05048186 -0.0023457771 -0.1506622 0.0049536987 -0.02181576 -0.0605998 -0.12761912 -0.01640662 0.029872054 -0.107014775 0.04193327 -0.028734157 -0.02244675 -0.06661971 0.03146125 -0.026625343 0.044438947 0.11522348 -0.04052216 0.080364086 0.010332345 -0.07030579 0.0073664486 0.0732038 0.1050605 0.008680922 -0.022525843 -0.07925182 -0.01094208 -0.022289801 -0.19104955 0.12656257 -0.14875072 0.013386651 0.06016685 -0.06412242 0.118306935 -0.090823196 -0.1396383 -0.08211588 -0.075802825 0.09471803 0.10857889 0.013994932 -0.08458324 0.06587714 0.09200756 -0.14787662 -0.019455558 -0.044934127 0.019847678
3375 0.029705428 0.07261565 0.079990976 -0.08404141 -0.036571905 -0.051486332 -0.038934655 0.074994236 -0.096723914 0.06787985 0.021773554 0.035622757 0.016213156 0.013033276 0.06784566 0.07035788 0.023371862 0.058247384 0.019547464 -0.03041888 -0.03469778 0.057622705 -0.049298286 0.0655871 0.014687873 -0.08424357 -0.0028417248 0.060748532 0.15478644 0.029911632 -0.002332414 -0.106818214 -0.08457914 -0.045457855 -0.17556506 -0.042903196 0.10424377 -0.08380057 -0.07800323 -0.0467093 0.114131786 -0.094614595 0.050366253 0.046011392 0.004600466 -0.073647276 -0.08445926 0.08216379 0.0070956512 0.12382603 -0.012379827 -0.0150366 -0.049751103 0.030541861 0.050694633 0.037073027 0.07866046 -0.03475864 0.013452645 -0.0876648 -0.07112848 -0.024912195 -0.011301346 -0.15012698 0.08079544 0.027000712 -0.08178434 0.010994758 0.017999865 -0.1759139 -0.08041196 0.031875785 0.007936872 0.0052478667 0.11545644 0.030475719 0.031548325 0.041671716 -0.004388647 -0.12229895 0.0070289006 -0.014012532 -0.049374774 -0.11433431 -0.015525827 0.021227194 -0.0876172 0.032489467 -0.029309439 -0.016479045 -0.054441385 0.027883256 -0.021657906 0.036379106 0.09791823 -0.035404246 0.069033206 0.011889914 -0.054722812 0.0049443035 0.057422873 0.09226838 0.0056869453 -0.018587932 -0.063202605 -0.0072181677 -0.02299132 -0.15825316 0.10664881 -0.12319116 0.011666775 0.04557956 -0.057121508 0.101742044 -0.07616937 -0.12292902 -0.06854733 -0.05899723 0.07982716 0.08625182 0.013057586 -0.07376606 0.054213163 0.07218779 -0.12397738 -0.012815626 -0.044320352 0.014078296
3350 0.025012705 0.076338604 0.07489092 -0.0846759 -0.041736525 -0.051124036 -0.037288476 0.07390066 -0.09084377 0.06259583 0.024402415 0.029888134 0.014013603 0.018068794 0.06399783 0.06392837 0.018183362 0.056304697 0.019133633 -0.030185012 -0.02957017 0.051380116 -0.051735237 0.06261203 0.010532596 -0.07517038 0.0011585335 0.0598289 0.14978239 0.028407125 0.0019410285 -0.102671325 -0.082738444 -0.044126656 -0.17025605 -0.041957594 0.094578885 -0.07950267 -0.07713245 -0.04049122 0.10716994 -0.084808625 0.04742029 0.042699873 0.010525731 -0.06992513 -0.07752272 0.074221134 0.00564743 0.11805408 -0.0071828207 -0.013448427 -0.04602608 0.02514163 0.048540734 0.03895882 0.07198771 -0.035279363 0.013454706 -0.07985219 -0.06776975 -0.024282498 -0.007819612 -0.1451397 0.07089134 0.024470251 -0.08462789 0.004520325 0.023646137 -0.16913068 -0.0754061 0.03109358 0.010233125 0.010110034 0.108600885 0.031200534 0.025059331 0.04094961 -0.0035935785 -0.12062552 0.004413263 -0.011511424 -0.045326732 -0.10909985 -0.011729441 0.02003665 -0.08926595 0.029603636 -0.026083391 -0.0129804285 -0.04749965 0.022437716 -0.021970218 0.037950393 0.091810614 -0.031461928 0.0658003 0.006353635 -0.052852295 0.007584719 0.05768136 0.0890749 0.007969032 -0.023977706 -0.06537972 -0.007839611 -0.017698295 -0.15487336 0.10161589 -0.116382696 0.008673259 0.048604913 -0.055260193 0.09473989 -0.074667126 -0.11733665 -0.066247314 -0.05702243 0.07584493 0.08456613 0.009997401 -0.07349819 0.04683791 0.07477777 -0.12167697 -0.014251272 -0.03635669 0.013052823
3045 0.026173666 0.08714746 0.084413186 -0.09634383 -0.0420057 -0.05405339 -0.049626283 0.08446655 -0.11173769 0.076972246 0.021107445 0.032737322 0.019388232 0.020757202 0.0763905 0.08116415 0.021042803 0.065961264 0.025061263 -0.02992353 -0.043852393 0.06725497 -0.060878336 0.06779506 0.014476164 -0.08635183 0.0005727742 0.07319311 0.17805178 0.026645934 -0.0039114626 -0.114396006 -0.097813316 -0.051822826 -0.20386797 -0.054091994 0.11154955 -0.08873797 -0.08848683 -0.05459918 0.13173588 -0.101571046 0.06276619 0.056467947 0.008721335 -0.08185655 -0.09625233 0.09137931 0.015149318 0.14373235 -0.015703486 -0.016862845 -0.052471146 0.027928725 0.05335536 0.050938454 0.0907623 -0.03948493 0.017494295 -0.099142164 -0.07244249 -0.031105008 -0.0074443207 -0.17532173 0.09211029 0.030349348 -0.10140192 0.012512349 0.024950314 -0.20745564 -0.09069872 0.038621623 0.003416295 0.009525118 0.1343492 0.037478924 0.028869558 0.048121687 -0.0027845171 -0.14099538 0.0072951014 -0.016831411 -0.056631148 -0.12660891 -0.019259673 0.02305185 -0.10587079 0.03395848 -0.028192844 -0.021911256 -0.06145588 0.030772705 -0.022683362 0.04206695 0.118313625 -0.038304314 0.07603942 0.0064603654 -0.06306603 0.0087399455 0.07103719 0.10165487 0.003404591 -0.028398577 -0.07844843 -0.014878115 -0.017157152 -0.18459024 0.11981438 -0.14256428 0.013065276 0.056517005 -0.060839165 0.11728323 -0.091859825 -0.13524288 -0.07850814 -0.07070375 0.0918092 0.10739575 0.0099384785 -0.08637134 0.06167252 0.086885735 -0.14272746 -0.015376017 -0.04535333 0.018718224
3020 0.030406173 0.10166658 0.10516461 -0.106784955 -0.052648365 -0.06810039 -0.05300713 0.09572759 -0.12732916 0.08651947 0.0288685 0.03739571 0.019501459 0.020976271 0.09162485 0.09180639 0.03040936 0.07865184 0.0239819 -0.033074345 -0.049450316 0.08002551 -0.064404316 0.08494541 0.013561717 -0.09860592 0.00026500938 0.08301198 0.20373031 0.038590856 -0.0070409356 -0.13105349 -0.11350116 -0.060242422 -0.2363342 -0.06736459 0.13247429 -0.10352203 -0.106547244 -0.06440178 0.1538886 -0.11669284 0.06936079 0.061539263 0.00587496 -0.0933412 -0.10867202 0.107123986 0.016147083 0.16855101 -0.014133934 -0.016033635 -0.06336596 0.037541058 0.061904904 0.05213166 0.0992879 -0.0466813 0.01757657 -0.11179991 -0.08483321 -0.04167994 -0.009197997 -0.19875123 0.102505215 0.03963919 -0.113100074 0.010214405 0.029883107 -0.2376281 -0.104244515 0.042522013 0.008749023 0.011049569 0.1508799 0.04574491 0.03351958 0.054857295 -0.002707583 -0.16488346 0.0082779415 -0.016813353 -0.062010605 -0.1491342 -0.021176202 0.032468695 -0.12091694 0.046883028 -0.03695758 -0.021190772 -0.07433893 0.03793073 -0.026931105 0.04766591 0.13615108 -0.045012753 0.08737258 0.011736096 -0.0719788 0.0079791285 0.08045137 0.1197219 0.009417113 -0.024674023 -0.08549332 -0.017108502 -0.02447012 -0.2140902 0.13733806 -0.16043146 0.012293012 0.0660936 -0.07106497 0.13282447 -0.10226078 -0.15255766 -0.093045436 -0.08113284 0.10200828 0.11953105 0.016819008 -0.09974159 0.072167456 0.097552486 -0.16771749 -0.021376684 -0.054376118 0.025911344
3240 0.031764578 0.08448362 0.07988977 -0.088578396 -0.038758874 -0.051794667 -0.03959662 0.07946837 -0.100417785 0.071676746 0.020447314 0.034926783 0.016558377 0.016979871 0.07467044 0.06855018 0.027032398 0.05802578 0.021239134 -0.03184917 -0.039252076 0.06243875 -0.053998023 0.06341109 0.016824642 -0.088204555 -0.0021390985 0.064413704 0.1660788 0.029026516 0.0018498953 -0.11287757 -0.09339736 -0.043028638 -0.18821366 -0.054029763 0.113455266 -0.08355501 -0.08789285 -0.045804456 0.12337877 -0.09574348 0.055851992 0.051660836 0.011141891 -0.079617955 -0.08650031 0.085967265 0.005738013 0.13231163 -0.008963769 -0.018644335 -0.0473256 0.033094343 0.04693887 0.046987128 0.08365909 -0.03396363 0.013404606 -0.09296073 -0.07383832 -0.02829 -0.010279875 -0.15987976 0.081782736 0.027021525 -0.08948556 0.007386861 0.02046689 -0.18898077 -0.080295496 0.034845356 0.011616114 0.008966703 0.120443806 0.0367201 0.028691089 0.0389661 -0.001630885 -0.12982948 0.0018701507 -0.018197553 -0.047698908 -0.116323374 -0.017107353 0.024585208 -0.09598454 0.034333885 -0.028094012 -0.0185061 -0.05702937 0.031729713 -0.025979504 0.04060423 0.11038602 -0.034185883 0.067909785 0.01317147 -0.06139013 0.009299988 0.062637426 0.09286906 0.0037495203 -0.023236891 -0.07052671 -0.01250532 -0.016869236 -0.17420463 0.11282079 -0.13011783 0.007586391 0.05599174 -0.055521123 0.11036142 -0.08435836 -0.12761305 -0.07327317 -0.06898104 0.08435988 0.09585172 0.009260005 -0.073785216 0.05770811 0.08199058 -0.13193168 -0.019942984 -0.04079002 0.020549193
3265 0.028159328 0.078464516 0.076492995 -0.08394522 -0.040813994 -0.05191336 -0.04476531 0.07299124 -0.098923795 0.06936657 0.025165502 0.03243202 0.019372053 0.016359122 0.07141463 0.068970405 0.01986401 0.053550966 0.023722073 -0.030331802 -0.035299424 0.061134577 -0.054012865 0.06430595 0.015525805 -0.08096765 0.0013428632 0.06516357 0.15599576 0.02763041 -0.000446174 -0.107068956 -0.088179305 -0.04243453 -0.17757507 -0.04490838 0.10141291 -0.0766005 -0.08240016 -0.0463507 0.110293105 -0.09348333 0.057734415 0.049262714 0.012079983 -0.075875916 -0.087007724 0.07696944 0.0062484643 0.12151648 -0.007913731 -0.017607227 -0.05133998 0.026449889 0.05024756 0.042525407 0.08086122 -0.032449313 0.013207096 -0.08610406 -0.07151523 -0.030508615 -0.009305746 -0.15291914 0.07790885 0.03136633 -0.088322215 0.010924551 0.023719303 -0.18365707 -0.077693485 0.027199766 0.008703863 0.0050634057 0.11308387 0.031647738 0.028466782 0.040521435 -0.0024982977 -0.12813161 0.0044978866 -0.016998611 -0.04806847 -0.11371709 -0.015194918 0.023353515 -0.09299973 0.035881717 -0.02788822 -0.017536953 -0.053184643 0.03145309 -0.022276074 0.03562307 0.10216094 -0.035875235 0.06986268 0.012762144 -0.05852737 0.007988872 0.057968788 0.09015156 0.006101682 -0.022673236 -0.067230485 -0.0110423155 -0.015334786 -0.15908994 0.106224015 -0.11938401 0.011805787 0.053762976 -0.05701643 0.09992316 -0.08026782 -0.11815364 -0.07395189 -0.0614815 0.08254768 0.088758804 0.013701392 -0.07265758 0.055387825 0.07471287 -0.12674466 -0.01715069 -0.042108778 0.014936347
3218 0.034276728 0.10982679 0.10943397 -0.118366085 -0.053669788 -0.068480834 -0.05668331 0.103774324 -0.13940176 0.08848988 0.028945459 0.049820885 0.022298373 0.020573545 0.1016921 0.0957599 0.034151617 0.077138625 0.031216843 -0.04276673 -0.046872288 0.082401596 -0.071345635 0.09187991 0.013482586 -0.11073156 -0.0053856266 0.08908718 0.21559626 0.035681885 -0.0046699243 -0.14923424 -0.12541398 -0.05636617 -0.25038275 -0.06460101 0.14731382 -0.10722567 -0.11732108 -0.060029086 0.1619622 -0.12915525 0.08003854 0.06417315 0.013607718 -0.10269676 -0.120196335 0.10738607 0.010467702 0.17637987 -0.010468466 -0.025924506 -0.0699959 0.039400358 0.06334892 0.062044844 0.11079994 -0.047085002 0.019016255 -0.11834448 -0.09289077 -0.042153656 -0.011026766 -0.20890392 0.10686992 0.041173637 -0.11953883 0.011580497 0.029115122 -0.2566467 -0.11113298 0.04491911 0.008181524 0.010005609 0.15788265 0.046665862 0.037676472 0.06039937 -0.005120081 -0.1779302 0.006508338 -0.025825154 -0.07099937 -0.16061366 -0.019566966 0.029968383 -0.12333546 0.046102956 -0.039378524 -0.023636254 -0.071345806 0.038486075 -0.035845157 0.055072393 0.14719625 -0.048583493 0.08900332 0.011318507 -0.07866094 0.009416465 0.08891621 0.1269645 0.0083797155 -0.0313735 -0.08793062 -0.018824646 -0.024138886 -0.2312675 0.1510041 -0.1744662 0.010175041 0.06945423 -0.08241855 0.142318 -0.113472074 -0.16201186 -0.10000886 -0.08971086 0.11607323 0.1300425 0.020244805 -0.104136646 0.072790936 0.10861392 -0.17614426 -0.024703447 -0.05149048 0.022563338
3241 0.039733805 0.11192771 0.11447633 -0.117914885 -0.060914166 -0.0743237 -0.061966397 0.11002248 -0.14240845 0.0953042 0.029256595 0.04520063 0.020743884 0.02535599 0.09970328 0.09855429 0.03310462 0.083722495 0.029812172 -0.037520166 -0.050728515 0.08587154 -0.07539225 0.091190316 0.01680217 -0.1175506 -0.0017774627 0.09205427 0.22891131 0.036856655 -0.00079455244 -0.1467933 -0.12967503 -0.064979725 -0.25591552 -0.06927145 0.14806433 -0.11555013 -0.113702096 -0.06225335 0.16066803 -0.13272952 0.078526065 0.06548094 0.011895111 -0.10175378 -0.12234618 0.11075458 0.011895593 0.17919734 -0.010308932 -0.025823068 -0.06764404 0.03753074 0.06417137 0.060106743 0.11533844 -0.04994815 0.017693672 -0.11964405 -0.09834751 -0.043120395 -0.014998813 -0.21730018 0.11112617 0.04382196 -0.12638514 0.011189027 0.031279784 -0.2614503 -0.11439277 0.04329876 0.013552645 0.0070672226 0.1668149 0.043729093 0.044731867 0.0586623 -0.0016318095 -0.17786837 0.0040060286 -0.026497027 -0.0723142 -0.16392453 -0.01739141 0.031901862 -0.13295592 0.044415135 -0.035682045 -0.022069572 -0.07342455 0.043485496 -0.03367042 0.05519721 0.14516035 -0.04906126 0.0931747 0.01659071 -0.08355811 0.010976862 0.09146824 0.12775153 0.0058533875 -0.025851592 -0.09520758 -0.02031547 -0.026450567 -0.23660684 0.15052271 -0.18124701 0.01816143 0.071837604 -0.07901126 0.14760055 -0.11752926 -0.16882718 -0.100740686 -0.09461436 0.12006391 0.1317506 0.019578459 -0.10661144 0.07275658 0.10844279 -0.18416375 -0.02486724 -0.055442102 0.01963277
3194 0.027488783 0.07045467 0.06650579 -0.07025829 -0.035276264 -0.045346722 -0.03839687 0.06902832 -0.08892297 0.062190786 0.014949484 0.030376371 0.016112408 0.014800926 0.06585127 0.061286513 0.018957946 0.052818414 0.022894518 -0.028104497 -0.032267403 0.053403415 -0.04417893 0.052666575 0.010480849 -0.06981071 -0.00384719 0.05453324 0.13908759 0.027940864 -2.6533307e-05 -0.09608854 -0.07715909 -0.0375327 -0.16191809 -0.040854733 0.09369523 -0.07378919 -0.06974879 -0.04125591 0.10147243 -0.08416962 0.04528043 0.043541677 0.010820985 -0.06179845 -0.07846575 0.07239628 0.006613054 0.11330501 -0.00831134 -0.01573917 -0.04220011 0.029152395 0.044946298 0.042056937 0.07153404 -0.03212386 0.014099616 -0.07185823 -0.056735694 -0.026682323 -0.006921828 -0.13281235 0.072336726 0.026374334 -0.07974171 0.007248507 0.015937917 -0.1644796 -0.072578296 0.023628902 0.0077405698 0.0068196547 0.10063986 0.028400898 0.028868057 0.03670391 -0.0058189505 -0.10779939 0.0058113956 -0.010649343 -0.046203546 -0.10323776 -0.011549902 0.024927795 -0.07886002 0.033263087 -0.020894598 -0.017101685 -0.050150655 0.022144008 -0.020037323 0.029214745 0.08924594 -0.03231673 0.05656556 0.0069399877 -0.05219858 0.008476015 0.058442097 0.08277082 0.0023635598 -0.019088356 -0.058943093 -0.012085932 -0.015932621 -0.14810884 0.09174384 -0.11262209 0.007864962 0.043003112 -0.05176913 0.08862659 -0.074040435 -0.10555463 -0.06340361 -0.05915743 0.07106292 0.08218921 0.011089587 -0.06392998 0.049095776 0.06748863 -0.11101378 -0.015681645 -0.03453722 0.014067054
3219 0.03626804 0.10854494 0.10917526 -0.120384686 -0.053927783 -0.07570342 -0.056765817 0.10945298 -0.14110145 0.094581716 0.02832487 0.0463973 0.025936183 0.026563436 0.10658785 0.09646168 0.033558186 0.083757125 0.035915647 -0.03911009 -0.05172823 0.08155984 -0.07799619 0.09112183 0.014855819 -0.11906952 -0.0043463144 0.0886529 0.22220074 0.03662474 -0.00484964 -0.15126678 -0.12341022 -0.057975534 -0.25909927 -0.06577788 0.15279035 -0.11484189 -0.11889597 -0.0644646 0.16177267 -0.13672698 0.07582928 0.06493921 0.013812705 -0.10417962 -0.1214096 0.112659745 0.008846321 0.17837137 -0.010586221 -0.026858132 -0.06795598 0.041656256 0.06923967 0.059236053 0.11181783 -0.050956648 0.015668161 -0.12250472 -0.10037787 -0.041560434 -0.010455328 -0.21982317 0.11585336 0.044810757 -0.122762576 0.011225219 0.030912407 -0.26386428 -0.11131137 0.040211275 0.014481563 0.009098875 0.16313915 0.048386745 0.040993106 0.0604701 -0.008031237 -0.17586094 0.008118056 -0.025235167 -0.06814845 -0.16091017 -0.02180118 0.03058266 -0.12696116 0.045154773 -0.03596892 -0.024808796 -0.0773734 0.0383483 -0.03181041 0.05006532 0.14761016 -0.050436247 0.09801446 0.014224329 -0.08669113 0.016438676 0.09157878 0.1283441 0.010554745 -0.028560562 -0.09650776 -0.01311677 -0.025851356 -0.23433076 0.15353802 -0.18063961 0.018237906 0.07482371 -0.077763915 0.14785829 -0.12056179 -0.17238133 -0.102001086 -0.08678998 0.11674806 0.13184148 0.0154654635 -0.1067267 0.07948443 0.11130002 -0.17882383 -0.025195833 -0.056547593 0.026855154
3242 0.038671196 0.11042382 0.11609144 -0.11914681 -0.058550704 -0.07146098 -0.05734968 0.107299335 -0.14279322 0.09407791 0.032776482 0.050803807 0.019152198 0.025121912 0.10276283 0.10247118 0.029320482 0.08485719 0.030768532 -0.043493923 -0.048415102 0.08597409 -0.07671812 0.09292895 0.020540917 -0.119299956 -0.004053279 0.09437492 0.22931457 0.041692633 -0.0061319633 -0.14888504 -0.12471627 -0.06381518 -0.26096836 -0.07422921 0.1509265 -0.112032466 -0.1172842 -0.0655653 0.16957502 -0.13327396 0.07902925 0.070680045 0.014523469 -0.10782667 -0.12349436 0.116936125 0.013736006 0.1853324 -0.0102980975 -0.023737997 -0.06594782 0.044534676 0.06851927 0.06359536 0.114822656 -0.052115835 0.01785928 -0.12177284 -0.10076977 -0.04257439 -0.0134725 -0.21856557 0.116070464 0.043673016 -0.12702064 0.009614449 0.03127006 -0.26374716 -0.11285379 0.041410375 0.007538128 0.01236639 0.16631219 0.049844995 0.042494833 0.061592694 -0.008796058 -0.18341766 0.0052208696 -0.020054631 -0.0688665 -0.16542903 -0.024489496 0.0364583 -0.12944162 0.051810283 -0.03647466 -0.024857584 -0.07999493 0.04367425 -0.035593852 0.053081527 0.14904639 -0.04928528 0.097417235 0.01407659 -0.08775526 0.017081756 0.088679045 0.13326745 0.009478829 -0.033178568 -0.09187273 -0.015460719 -0.023875328 -0.2376189 0.1571608 -0.17931864 0.014215825 0.07173105 -0.08280986 0.1469595 -0.12217295 -0.17045608 -0.10152068 -0.09279389 0.121547565 0.1326034 0.021325028 -0.106036976 0.07869882 0.10859954 -0.18792497 -0.020017153 -0.058647715 0.01977187
3264 0.03592182 0.100997195 0.1042116 -0.119776875 -0.055680756 -0.06838904 -0.059572134 0.10414357 -0.12907031 0.09049803 0.032270633 0.047588143 0.023329595 0.018407939 0.09882759 0.09158208 0.033329442 0.07355241 0.03249634 -0.040879626 -0.043798372 0.08274565 -0.07115055 0.08810219 0.020037781 -0.113498054 -0.0054242588 0.083965935 0.21089506 0.034330595 8.645196e-05 -0.14170945 -0.11767761 -0.05918444 -0.24454623 -0.06452366 0.1448649 -0.108911894 -0.11517176 -0.059674494 0.15286136 -0.12747721 0.07307334 0.059091594 0.013151535 -0.09614305 -0.11852626 0.105977744 0.009189953 0.16691947 -0.011159234 -0.02484848 -0.06703925 0.04358748 0.062028464 0.059652608 0.110655256 -0.052936044 0.014356841 -0.11506716 -0.09635887 -0.04368789 -0.015280369 -0.20867388 0.10773354 0.035708927 -0.116563536 0.01401813 0.032571636 -0.24950314 -0.107017614 0.04054473 0.013871049 0.010583432 0.15696605 0.04820603 0.039385527 0.051132035 -0.004480266 -0.17161292 0.007106948 -0.025099253 -0.06658417 -0.15669672 -0.016628694 0.03393206 -0.11991088 0.049084317 -0.033138495 -0.017418701 -0.070785955 0.036098853 -0.02907863 0.04574323 0.14250334 -0.045367572 0.08809849 0.0152996015 -0.08312339 0.010565714 0.08598716 0.11973024 0.006657425 -0.024650296 -0.09333414 -0.015429056 -0.028304484 -0.22359474 0.14278044 -0.17354523 0.014693529 0.07117444 -0.07634424 0.13936952 -0.1140778 -0.16408014 -0.09514213 -0.08314397 0.11510395 0.12040325 0.015646797 -0.09988908 0.070198916 0.10488686 -0.169722 -0.025607407 -0.05524287 0.020987134
3221 0.040588878 0.115297906 0.12274677 -0.12666123 -0.061468977 -0.07400853 -0.060183156 0.10920399 -0.14972347 0.09609063 0.029266063 0.04900272 0.021588879 0.030975234 0.11080478 0.101584814 0.030234853 0.086830884 0.029988324 -0.046319064 -0.054745886 0.08939427 -0.07969277 0.097288154 0.017656019 -0.12279141 -0.0029792394 0.09356703 0.24003965 0.03676344 -0.0054796855 -0.15877762 -0.13141079 -0.06927396 -0.2769482 -0.07558624 0.15783222 -0.1211492 -0.12009899 -0.07204649 0.17870389 -0.13953708 0.08608518 0.07283187 0.0066248975 -0.10404757 -0.12675329 0.119890265 0.013704495 0.18940178 -0.016095456 -0.022165725 -0.072889306 0.040407434 0.07217847 0.065055445 0.115516536 -0.058920883 0.020530796 -0.13144304 -0.10328163 -0.046919987 -0.011661611 -0.23190007 0.120688334 0.040684387 -0.13259597 0.011993723 0.0358262 -0.27629858 -0.1226832 0.043249976 0.009639859 0.011203478 0.17214051 0.05387638 0.04115047 0.06308792 -0.007697491 -0.1918836 0.0079948725 -0.027332362 -0.07886832 -0.17017189 -0.019959366 0.032852534 -0.13596751 0.04701125 -0.04394112 -0.023560837 -0.08165863 0.03816051 -0.035153963 0.05996854 0.15595266 -0.05142827 0.10445224 0.013592194 -0.08690696 0.01636636 0.093196906 0.13641265 0.0067817145 -0.032877322 -0.10362393 -0.013714846 -0.024709975 -0.2460248 0.16255824 -0.19369762 0.011967309 0.079848215 -0.08684445 0.15321396 -0.1261227 -0.17977604 -0.10667925 -0.09192661 0.11986339 0.1408015 0.01778713 -0.1088165 0.08231457 0.1119011 -0.19376925 -0.022130292 -0.059440304 0.028619105
2970 0.017134763 0.05805962 0.06155855 -0.06694499 -0.027904699 -0.0346938 -0.03594921 0.058130305 -0.079252124 0.04743616 0.015990254 0.024500573 0.009073929 0.01446303 0.051286887 0.053250484 0.017817467 0.04409536 0.018184314 -0.020157477 -0.027953357 0.048763197 -0.041786302 0.04788907 0.0082108285 -0.06175218 -0.002307098 0.047055252 0.121929325 0.021063594 -0.006734605 -0.075870536 -0.065655835 -0.03006897 -0.14023642 -0.038407635 0.07703551 -0.055708956 -0.06574988 -0.040100224 0.08930302 -0.07134177 0.04380192 0.03337203 0.0013909804 -0.050063815 -0.06643868 0.05749502 0.011741325 0.1028139 -0.012713775 -0.011759232 -0.04019879 0.02414825 0.03823718 0.0314914 0.061908443 -0.03022887 0.011585534 -0.063848644 -0.054307196 -0.01977766 -0.007275697 -0.119394936 0.05957976 0.021989824 -0.06812274 0.009994634 0.019547272 -0.14142583 -0.060748495 0.020305388 0.0053742696 0.009702274 0.09206122 0.028118942 0.0195016 0.02743873 -0.0034821145 -0.0999505 0.00232497 -0.011297179 -0.040781558 -0.084895924 -0.009030024 0.01907164 -0.067980066 0.02692343 -0.023110367 -0.013401185 -0.041793983 0.023300415 -0.016214259 0.02839384 0.07554633 -0.026489723 0.047543466 0.00823898 -0.04633033 0.0074790367 0.047090948 0.07202912 0.0020346201 -0.017871965 -0.05333631 -0.009070099 -0.010352936 -0.12698536 0.078634195 -0.0939918 0.008884064 0.039091147 -0.044873007 0.07611351 -0.05993993 -0.0925444 -0.052018877 -0.0488796 0.059385385 0.071855955 0.007818541 -0.058671545 0.041254684 0.06193964 -0.09781663 -0.007252264 -0.028150354 0.013496997
3217 0.039569784 0.10941459 0.1075103 -0.116961874 -0.05302943 -0.07425758 -0.055807043 0.10233533 -0.13361947 0.09549477 0.031421527 0.049998898 0.019819787 0.021194123 0.100660264 0.09341494 0.032013714 0.0803017 0.029008003 -0.040463123 -0.051171217 0.084969364 -0.07526207 0.091931455 0.01747685 -0.1153483 -0.0043044784 0.09164813 0.22281668 0.041866932 -0.0065912097 -0.14487754 -0.12147038 -0.06125502 -0.25415373 -0.06944011 0.14911248 -0.11225147 -0.11435039 -0.06751683 0.15903261 -0.13438837 0.07789306 0.06459438 0.011226395 -0.10007037 -0.12324478 0.10927868 0.012673786 0.17806603 -0.011328969 -0.026148323 -0.06447315 0.04390695 0.069412306 0.058973044 0.10711346 -0.052496504 0.018146362 -0.11879292 -0.09389645 -0.04164306 -0.014787735 -0.21583739 0.10985948 0.042715948 -0.12192975 0.007772862 0.027949512 -0.25748873 -0.11073264 0.043917544 0.014090697 0.012840322 0.16567911 0.046141453 0.042774662 0.059668798 -0.007332987 -0.17536527 0.009106892 -0.018959684 -0.066048205 -0.15673533 -0.020620102 0.035960026 -0.12515692 0.048333954 -0.034763195 -0.020688592 -0.078538135 0.037179913 -0.031957068 0.053610623 0.14636236 -0.04785929 0.09187309 0.011481972 -0.07839627 0.011222227 0.08691123 0.12911813 0.00502948 -0.0262207 -0.092696555 -0.019695753 -0.027777229 -0.2333459 0.15398312 -0.17745048 0.011773714 0.07252519 -0.08070551 0.14535405 -0.11313679 -0.16453262 -0.10037138 -0.08564159 0.117636375 0.12828624 0.019662557 -0.107001305 0.0727118 0.106153585 -0.17629519 -0.026481114 -0.05263594 0.022389762
2945 0.018794224 0.053202763 0.053931646 -0.057888713 -0.030488536 -0.03605148 -0.031672318 0.048082188 -0.06053259 0.046031736 0.01467993 0.01790462 0.010910808 0.0088284975 0.04873523 0.042029314 0.01754032 0.041397087 0.012447433 -0.020897461 -0.022246316 0.042409215 -0.032528106 0.03914337 0.006949863 -0.04766379 -0.005217686 0.041917525 0.10681545 0.021438146 -0.0017457835 -0.068852775 -0.055674907 -0.026903205 -0.116987064 -0.03500999 0.06793945 -0.05315099 -0.052681867 -0.02907043 0.07750586 -0.059244677 0.03245421 0.030443775 0.0005069735 -0.04417937 -0.05927083 0.053986453 0.0036456338 0.085787855 -0.008483081 -0.013132953 -0.029899608 0.020997256 0.032827374 0.028837543 0.047184195 -0.025636915 0.013164834 -0.05687863 -0.04472997 -0.019879185 -0.0035068316 -0.09824221 0.050109442 0.014853757 -0.058603637 0.0024922837 0.010224219 -0.12083641 -0.051328477 0.021118494 0.0020832585 0.004444803 0.07575514 0.020853152 0.014181456 0.031197658 -0.000974883 -0.08066006 0.0052300002 -0.013125327 -0.03550038 -0.07644313 -0.0120597165 0.012674795 -0.058014598 0.023462592 -0.01933993 -0.009897018 -0.037905768 0.01849493 -0.012976518 0.023265615 0.070397414 -0.020095998 0.04170332 0.0068772975 -0.03923211 0.005954602 0.04142924 0.060113307 0.0028524757 -0.017545946 -0.0414111 -0.003776969 -0.015143724 -0.10832807 0.066183105 -0.079150125 0.0086110635 0.030350456 -0.039481923 0.06493529 -0.053587228 -0.074747965 -0.04778649 -0.040756885 0.05420403 0.0646305 0.011607301 -0.04884708 0.033563636 0.049857717 -0.08656986 -0.013236601 -0.030091664 0.008893619
3150 0.041456748 0.123916514 0.12639156 -0.13290904 -0.0665824 -0.08499788 -0.06536147 0.11788926 -0.15664585 0.10021398 0.03687337 0.04823494 0.02309794 0.02517282 0.11171993 0.10578134 0.03697662 0.08861655 0.036625255 -0.04671293 -0.05923336 0.092472404 -0.085164964 0.09837384 0.015980344 -0.13055158 0.0009279405 0.10087404 0.25737193 0.048876718 -0.0008426732 -0.17002954 -0.13549681 -0.07033451 -0.28954166 -0.07331951 0.16359371 -0.12765189 -0.12777118 -0.07680787 0.17867574 -0.15087207 0.08637054 0.07744585 0.014457093 -0.109296046 -0.13740428 0.12445028 0.013101786 0.19837211 -0.017669417 -0.026852919 -0.08257432 0.04795292 0.081105106 0.06560533 0.12525111 -0.05714638 0.026704025 -0.13404052 -0.107594654 -0.04941217 -0.0073000873 -0.24343233 0.1259189 0.040472813 -0.13615996 0.015257497 0.035240363 -0.28539777 -0.12669975 0.045554206 0.011342016 0.014585042 0.1825057 0.053504243 0.04849389 0.06307904 -0.003830078 -0.19839634 0.0069406377 -0.021150729 -0.075445965 -0.18227908 -0.019855117 0.0380683 -0.14155912 0.051498096 -0.04897281 -0.023314254 -0.08460221 0.03946397 -0.035277843 0.057714723 0.15797658 -0.05323242 0.108759746 0.01580879 -0.08959863 0.014523591 0.09600988 0.14558235 0.014319877 -0.03459158 -0.10314204 -0.01277277 -0.030549461 -0.254442 0.16839972 -0.19621478 0.020193793 0.07826571 -0.08919985 0.15996426 -0.1293425 -0.1888828 -0.110682204 -0.092368476 0.12599522 0.14687811 0.023133617 -0.12118824 0.084561735 0.1218933 -0.20586225 -0.025859462 -0.07013212 0.029373802
3314 0.040605426 0.1104262 0.1095436 -0.12007397 -0.057127997 -0.075083815 -0.059609134 0.10580391 -0.13726442 0.095006645 0.030396093 0.046956725 0.019458832 0.022919813 0.09989942 0.09723886 0.031745527 0.07941778 0.028130403 -0.043698628 -0.048943937 0.08661476 -0.07128538 0.091364264 0.019352809 -0.11148745 -0.0033809317 0.08570036 0.22013657 0.03893185 -0.0020663666 -0.15449685 -0.12869191 -0.06139699 -0.25674242 -0.072191745 0.14736323 -0.11279354 -0.11598051 -0.068740994 0.16701294 -0.1323811 0.07915782 0.06275157 0.012547049 -0.09989585 -0.12310692 0.10824761 0.011218695 0.17857264 -0.012171087 -0.022771137 -0.073514745 0.040308382 0.070330046 0.055913538 0.11176325 -0.05408828 0.018557891 -0.12170787 -0.09757464 -0.038168997 -0.008015855 -0.21951517 0.11273903 0.039276674 -0.12532166 0.01445846 0.028670194 -0.2591841 -0.1095883 0.039989773 0.010648644 0.01132146 0.15952942 0.04483254 0.0393782 0.052338354 -0.008449231 -0.18201268 0.0012101248 -0.024657443 -0.07047275 -0.16499682 -0.023251707 0.031901617 -0.13111562 0.049183633 -0.038855076 -0.019582428 -0.072338805 0.041276686 -0.03392672 0.052487005 0.1467006 -0.050011054 0.097067215 0.011059838 -0.078409284 0.015005351 0.08323725 0.13086069 0.01292215 -0.028195195 -0.094317205 -0.018269155 -0.029163832 -0.2331615 0.15354724 -0.17942156 0.0146022905 0.072736025 -0.07939947 0.14495543 -0.115739726 -0.17139915 -0.103807025 -0.090890475 0.1124917 0.12875228 0.014918721 -0.10775104 0.07946455 0.10886713 -0.17731571 -0.02249382 -0.05442696 0.023637496
3151 0.050005596 0.14185277 0.14567232 -0.15112478 -0.069249764 -0.09483703 -0.07038537 0.13523233 -0.17311496 0.11445253 0.041326083 0.05762762 0.028916167 0.02889913 0.12923622 0.12611084 0.03943221 0.102388725 0.04437195 -0.05090875 -0.06323301 0.104991354 -0.095992565 0.114052154 0.025940236 -0.14311288 -0.0022722604 0.10887871 0.2933876 0.051746733 -0.006950116 -0.19605955 -0.15970959 -0.077789634 -0.3259416 -0.087761015 0.18398753 -0.1478777 -0.1467264 -0.08404303 0.20734663 -0.17257752 0.09606675 0.08575556 0.010219001 -0.13172734 -0.15576768 0.14677067 0.012348621 0.23283508 -0.013503978 -0.027597396 -0.0919556 0.052801564 0.09162922 0.07035432 0.13959922 -0.069257505 0.024298355 -0.15155217 -0.12127218 -0.05680716 -0.011582026 -0.2761716 0.14284298 0.04573895 -0.15508285 0.010092391 0.037446097 -0.32112828 -0.14724381 0.05746202 0.013207478 0.01758129 0.21522209 0.058071468 0.052516006 0.06818254 -0.00639207 -0.23226443 0.0052673835 -0.023499677 -0.087102704 -0.20842539 -0.028005855 0.037971694 -0.16516949 0.058578927 -0.05631037 -0.029789152 -0.09313671 0.050706055 -0.0400746 0.069702454 0.17746943 -0.06718425 0.120052956 0.01307291 -0.10524525 0.011895325 0.11491887 0.16019078 0.015279684 -0.041116286 -0.12101939 -0.020658633 -0.03553028 -0.29780567 0.19658779 -0.2225314 0.017998423 0.08515927 -0.1054238 0.18086582 -0.14543231 -0.2207604 -0.12584205 -0.109493576 0.15132609 0.16291633 0.025007136 -0.13275902 0.09490787 0.14081748 -0.23334843 -0.02597288 -0.07930548 0.02928914
3126 0.042937677 0.12305507 0.12875369 -0.13616937 -0.06771663 -0.078872524 -0.06243096 0.11791914 -0.16100961 0.106915526 0.040966865 0.055560082 0.028757006 0.028395185 0.11184451 0.11151409 0.031659514 0.093371995 0.038800053 -0.045342755 -0.05600236 0.09245364 -0.08626636 0.10461962 0.018243592 -0.13426991 0.0018274136 0.102995634 0.26186833 0.042942118 -0.0046325442 -0.16954917 -0.13671777 -0.07029996 -0.29670736 -0.07387598 0.1711016 -0.13219127 -0.13346377 -0.0753054 0.18786076 -0.15304893 0.089577764 0.07732339 0.007722919 -0.117162235 -0.13799313 0.13194355 0.017160656 0.20507984 -0.012044954 -0.022457007 -0.07931544 0.0493486 0.08455775 0.06538739 0.1278694 -0.05582838 0.025578605 -0.14023654 -0.10937774 -0.0509811 -0.010828042 -0.2535595 0.12725285 0.041519124 -0.14228374 0.008838442 0.0369734 -0.29079205 -0.12665239 0.052915312 0.01288116 0.01861858 0.1902709 0.053430445 0.046182822 0.063646235 -0.0039063385 -0.20580555 0.0030576817 -0.02293317 -0.081765436 -0.1796232 -0.025624312 0.039270803 -0.14385685 0.057540286 -0.049518738 -0.024280373 -0.08717214 0.043506563 -0.035812892 0.063075885 0.16578576 -0.05682259 0.11070411 0.017110875 -0.091594584 0.015411621 0.101513214 0.14619218 0.008884561 -0.03697464 -0.10837118 -0.016599005 -0.028543245 -0.26498708 0.17500198 -0.19919914 0.020162942 0.07639046 -0.09033561 0.16956466 -0.12940514 -0.19261356 -0.110173896 -0.097069904 0.13164116 0.1467187 0.017427696 -0.12100168 0.084359 0.12853424 -0.20571668 -0.025867466 -0.07083771 0.030883264
3225 0.027556345 0.085189186 0.08941816 -0.09120273 -0.040562402 -0.052163515 -0.041700315 0.08127248 -0.107738584 0.068253964 0.024309697 0.031474426 0.018349081 0.016122874 0.078367166 0.0757724 0.02060002 0.0625226 0.023157855 -0.027847564 -0.035623655 0.058034964 -0.05318968 0.068017796 0.016051048 -0.0900553 0.0001157368 0.06252965 0.17233469 0.030215088 0.0005729128 -0.11530406 -0.09171556 -0.042818055 -0.19188218 -0.048542574 0.109829634 -0.08948594 -0.09117568 -0.05066521 0.11754408 -0.09749241 0.05690679 0.050160207 0.00560389 -0.07373381 -0.090437256 0.086477995 0.011245921 0.13297352 -0.011615199 -0.017081873 -0.051512178 0.031825107 0.05191968 0.040326506 0.08432122 -0.041580714 0.017167801 -0.09478538 -0.072880656 -0.031476617 -0.009878274 -0.16149998 0.082003996 0.03231357 -0.09651243 0.0077168103 0.026569352 -0.1886432 -0.08793193 0.02906298 0.0078741135 0.006450655 0.12629817 0.033580877 0.028588891 0.04097601 -0.005148966 -0.13323684 0.0038927863 -0.011556378 -0.056180555 -0.119718716 -0.019013688 0.022148374 -0.10155968 0.03715178 -0.029266465 -0.020951182 -0.058261544 0.02806402 -0.024874398 0.038528096 0.10449577 -0.036440484 0.067568064 0.008329544 -0.063295595 0.009147861 0.06307721 0.09842921 0.009540163 -0.024002787 -0.074843235 -0.009966605 -0.020510683 -0.17113666 0.11206624 -0.1302813 0.009857787 0.055266976 -0.05944414 0.10852059 -0.09039858 -0.13248262 -0.07654472 -0.06297681 0.089408405 0.09458533 0.012801822 -0.08309373 0.053243052 0.08630132 -0.14022374 -0.012432228 -0.04841918 0.013259898
3127 0.045762602 0.1301234 0.13740763 -0.14395349 -0.06984248 -0.088750124 -0.07223593 0.126102 -0.16512707 0.11047032 0.037840895 0.05275243 0.026424814 0.02795839 0.11722564 0.11432078 0.036385197 0.10029008 0.04024171 -0.046358254 -0.061760705 0.09736087 -0.08652181 0.11019266 0.02164323 -0.13586533 0.0014171093 0.10484996 0.2746823 0.04614841 -0.0033346314 -0.17747448 -0.14477514 -0.07073504 -0.30275372 -0.0836504 0.17478299 -0.13755238 -0.14154547 -0.08134243 0.19053274 -0.15961206 0.08888861 0.07844484 0.009168032 -0.118630506 -0.14401697 0.1322343 0.014641736 0.21689586 -0.013195922 -0.024839079 -0.08641376 0.048551362 0.08579732 0.06514085 0.12870395 -0.06366932 0.02815744 -0.14827614 -0.11762026 -0.048159868 -0.010846932 -0.26154646 0.13129899 0.043075137 -0.14543694 0.0148516 0.03419824 -0.304958 -0.136644 0.050462283 0.015469941 0.019568287 0.19884723 0.056363877 0.047572803 0.066397294 -0.0075011323 -0.21292858 0.008607053 -0.020658217 -0.07944717 -0.18962282 -0.020230195 0.039933894 -0.15179008 0.059122425 -0.052221734 -0.025339099 -0.09388991 0.046384525 -0.03511024 0.059490003 0.1677864 -0.06325727 0.111791775 0.017917246 -0.09431121 0.017207718 0.10400215 0.15347968 0.015170913 -0.03481174 -0.11440097 -0.013685118 -0.03189886 -0.27728087 0.18515043 -0.2112306 0.018671295 0.08256544 -0.09638559 0.16891158 -0.13717155 -0.20738357 -0.119935505 -0.10567892 0.13830967 0.15538006 0.022539606 -0.12631531 0.086075254 0.12929972 -0.21894811 -0.021277813 -0.07283555 0.03052711
3195 0.037993133 0.115314975 0.11765992 -0.12495933 -0.06274194 -0.07331391 -0.06494816 0.113381356 -0.14666124 0.09433592 0.032505766 0.04817577 0.024633177 0.0221005 0.10621406 0.10097636 0.028844196 0.080716565 0.028923381 -0.038926564 -0.050336838 0.08886256 -0.08044668 0.09636731 0.014659541 -0.12062207 -0.0035265244 0.096040726 0.23455313 0.039708488 -0.0023759915 -0.15528254 -0.13170838 -0.0658246 -0.26898837 -0.074040875 0.15127698 -0.11841071 -0.12160745 -0.07000974 0.1731348 -0.14049536 0.08425129 0.0704568 0.011360738 -0.10674137 -0.122385785 0.11405348 0.0144175785 0.18349631 -0.012290845 -0.023342777 -0.07263338 0.041983873 0.06633913 0.06454156 0.11834392 -0.05123906 0.018193481 -0.12267371 -0.10101784 -0.043547265 -0.016201295 -0.22300954 0.1180337 0.04283966 -0.12939826 0.008481913 0.030331872 -0.26618147 -0.1149299 0.041261576 0.009091451 0.013628165 0.17461272 0.04955435 0.040850345 0.059914447 -0.0018845338 -0.18149461 0.008107145 -0.0272678 -0.07011344 -0.16295417 -0.021340342 0.031917185 -0.13607669 0.051539935 -0.041036032 -0.02605471 -0.08224107 0.04483785 -0.034150627 0.053246643 0.15489042 -0.051073868 0.10085703 0.010320856 -0.08419049 0.014850266 0.090276666 0.13352829 0.009096676 -0.030593852 -0.09515218 -0.020538472 -0.030511115 -0.2456678 0.161363 -0.18908599 0.015746476 0.07081048 -0.083437964 0.15218028 -0.124978356 -0.17661904 -0.10757723 -0.09648704 0.12235589 0.13746758 0.01717053 -0.10582846 0.0779694 0.11077289 -0.18642327 -0.022009024 -0.061766 0.022333857
3313 0.041428495 0.11747726 0.11999051 -0.13310876 -0.06697379 -0.08407347 -0.06984848 0.11750653 -0.15548468 0.099696696 0.032537393 0.049426753 0.024753986 0.025115095 0.11249729 0.10652594 0.033527385 0.08694569 0.03557027 -0.0474711 -0.05305211 0.09423333 -0.083140865 0.104413435 0.024419773 -0.12611392 -0.0031317389 0.096937016 0.24679631 0.040816933 -0.002857465 -0.16836776 -0.13385518 -0.06685286 -0.28134438 -0.07630126 0.16544145 -0.12300817 -0.1270672 -0.07318057 0.18264325 -0.14480604 0.087664984 0.071640745 0.012693214 -0.11380126 -0.1356316 0.12033508 0.014955941 0.20209 -0.01646029 -0.024368936 -0.07902979 0.045145087 0.078680895 0.06332231 0.11870292 -0.059333995 0.021684902 -0.13331224 -0.10685416 -0.04275223 -0.017394302 -0.24548644 0.12507491 0.042618494 -0.13493483 0.0138541 0.0355276 -0.28563404 -0.12030846 0.048764303 0.017150946 0.015254871 0.17989095 0.053677473 0.044597644 0.062703274 -0.0035704386 -0.19642709 0.0026584878 -0.021636393 -0.07172956 -0.1793494 -0.025104463 0.04077291 -0.14650519 0.053428505 -0.04130133 -0.025611835 -0.08079598 0.041911393 -0.03480323 0.059728265 0.16216078 -0.056636438 0.1048727 0.01687927 -0.09021011 0.011731709 0.09315588 0.14105855 0.0069677792 -0.030832399 -0.10559673 -0.021191217 -0.028990172 -0.25487897 0.17196319 -0.19329885 0.01269818 0.07755456 -0.09293769 0.16046268 -0.12773803 -0.18563429 -0.114258625 -0.09750322 0.1298184 0.13814212 0.020294728 -0.12172986 0.0822041 0.12239329 -0.20162271 -0.021274257 -0.06797038 0.026586961
3246 0.023142964 0.05988655 0.057074938 -0.065985374 -0.03411431 -0.037350494 -0.029229566 0.055365395 -0.075712174 0.051772002 0.014244281 0.025479196 0.013972518 0.011679905 0.05659469 0.05037793 0.01748094 0.044560347 0.017219368 -0.020314803 -0.023191573 0.045682143 -0.043162674 0.04850282 0.0065306136 -0.05858065 -0.00074811367 0.04850319 0.12201339 0.019613063 -0.0025368887 -0.08200924 -0.06538438 -0.031004962 -0.13933575 -0.03706777 0.07607813 -0.058888607 -0.062810466 -0.037575528 0.091561 -0.07213617 0.043295547 0.036485627 0.00378175 -0.054596264 -0.06534264 0.056921925 0.006029225 0.09987803 -0.008302121 -0.013334843 -0.037965655 0.022802662 0.040136565 0.036137037 0.05747481 -0.0303698 0.010001985 -0.06654738 -0.048922457 -0.024803013 -0.006203211 -0.11782205 0.062675744 0.025702203 -0.068056345 0.006264401 0.01267985 -0.1396231 -0.06385989 0.026837666 0.007517916 0.0035001126 0.0897758 0.025563525 0.025262233 0.032770433 -0.002452541 -0.09410982 0.0037466295 -0.011020429 -0.03880588 -0.0859968 -0.007873207 0.018586798 -0.06985074 0.027361896 -0.022323176 -0.0113626905 -0.0411094 0.021295197 -0.01577737 0.027697576 0.08088603 -0.023992633 0.054452077 0.008267101 -0.04078671 0.01045965 0.048494477 0.06781268 0.0055641076 -0.01543509 -0.0541982 -0.007729948 -0.012612537 -0.122942984 0.08486037 -0.09799712 0.0065418147 0.039687254 -0.044267494 0.08244862 -0.06063941 -0.091804974 -0.05146772 -0.050376635 0.06540349 0.06848296 0.010572749 -0.056553014 0.040839862 0.05662925 -0.09762215 -0.013337166 -0.031445306 0.01116305
3271 0.018924557 0.05598237 0.06158234 -0.060003538 -0.028807543 -0.03409804 -0.03238756 0.054665625 -0.07202568 0.048283577 0.012544244 0.025816554 0.008743185 0.01474556 0.05623084 0.051403113 0.017906893 0.044073418 0.020390086 -0.019743951 -0.027371977 0.047689337 -0.04291435 0.04321099 0.011220911 -0.056085255 -0.00082489214 0.04961631 0.11879801 0.018784553 0.00012599138 -0.07411187 -0.06890098 -0.03170726 -0.13945389 -0.03784634 0.07722451 -0.05929706 -0.060111664 -0.03606385 0.089091994 -0.07114091 0.0382571 0.03522951 0.008231343 -0.056314215 -0.06626073 0.060298655 0.0070870556 0.09324567 -0.009480912 -0.0141235795 -0.033873335 0.024464179 0.03134797 0.028676037 0.055668168 -0.03215661 0.015034154 -0.061380036 -0.04721609 -0.020604305 -0.0072105657 -0.11871028 0.05902573 0.020561095 -0.06829531 0.0033271045 0.014609656 -0.13597149 -0.062033985 0.023177993 0.0064476873 0.0066211876 0.089889005 0.03012553 0.02213147 0.033128045 0.00033428057 -0.09177915 0.002763756 -0.013795011 -0.041012608 -0.084106326 -0.008147997 0.01966617 -0.06675384 0.02192114 -0.018041406 -0.012586956 -0.03957245 0.018194605 -0.017997982 0.029541902 0.074409135 -0.028722754 0.04729224 0.007916309 -0.044956695 0.0106420545 0.044056147 0.06939465 0.0064477967 -0.018533751 -0.051258124 -0.009974929 -0.016618859 -0.12438137 0.07961159 -0.096676335 0.008180301 0.037091605 -0.03932341 0.07781615 -0.063664675 -0.0869374 -0.050837822 -0.051151194 0.058797516 0.06701124 0.006400205 -0.055160064 0.038757153 0.05503651 -0.09129423 -0.012556875 -0.0251933 0.00936507
