656 128
682 -0.25860903 0.08586672 -0.090009816 0.2426912 -0.2670362 -0.13131711 -0.23550913 0.055482272 0.108072914 0.21985438 0.059684485 -0.33459613 -0.40523553 -0.16995561 -0.4124457 0.04368242 0.07049736 0.12922294 0.0007738139 -0.17770138 0.20353073 0.34963062 -0.34241953 0.3207965 -0.50125015 -0.07003432 0.21102536 0.027761998 0.5447129 -0.107918195 0.26727998 -0.08282769 0.16447408 -0.16262735 0.00047108988 -0.088797145 -0.54781926 -0.07313579 -0.117939346 -0.32528132 -0.5246131 -0.348571 -0.42627302 0.07988885 0.3140459 0.209726 0.15695442 0.005120603 -0.2973457 0.29874584 0.3344356 0.14691453 0.32461253 0.21070893 0.26971942 -0.368561 -0.030790873 0.18766645 0.064157896 -0.018681385 -0.16337147 0.21833688 0.041354112 -0.036384955 -0.19327882 0.29296055 0.0730658 -0.11818052 -0.4490077 -0.07754156 0.33489108 -0.28509682 -0.25174522 -0.17465687 -0.2123826 0.08755991 -0.21337318 -0.3780242 0.1348825 0.05144559 -0.03480781 0.3337952 0.18590811 -0.12049983 -0.25591663 0.19310623 -0.030474965 -0.13962024 0.10870676 0.3214195 -0.39196858 0.008298823 0.16262212 -0.5195658 -0.07817524 -0.13912344 -0.3869913 0.53979546 -0.6535452 -0.114253506 -0.4143701 0.426634 0.13437957 -0.062377717 -0.35792738 -0.013618267 -0.25789997 -0.062671065 -0.09306881 -0.0061112293 0.096391514 -0.100821555 -0.26880845 0.071687125 -0.0050489735 -0.41272944 -0.33366364 -0.06586281 -0.022990461 0.0144674545 0.039555643 -0.3470262 -0.2866754 -0.122594014 0.010109185 0.20020856 -0.13334948 0.23008168
716 -0.17306069 0.2478682 -0.23741473 0.084440164 -0.37248588 -0.3353601 -0.21670112 0.21138336 0.015419563 0.15793078 -0.010268639 -0.40852585 -0.23528317 -0.058790542 -0.42632356 -0.0106316935 0.3733279 -0.17088474 -0.053646095 -0.25522694 0.4108243 0.016191145 -0.3439861 0.22994721 -0.0992376 -0.13625959 0.29524407 -0.008751113 0.47218648 -0.20868224 0.4884172 -0.041160375 0.2298869 -0.23872124 -0.032212637 -0.08288438 -0.50640315 0.048966557 -0.1404855 -0.13223463 -0.50776666 -0.5062191 -0.3065515 0.16042787 0.51747453 0.1433388 0.32236367 0.34859225 -0.10358852 0.12902837 0.12040727 -0.0844072 0.13557826 0.32916817 0.40710503 -0.25148323 -0.068722256 -0.020220203 0.20910738 -0.14599721 -0.09965452 0.19116215 -0.012015851 -0.013012351 0.10968237 0.23025595 0.16725095 0.09335672 -0.5955989 0.03320527 0.46076426 -0.20447947 -0.23555791 -0.21712607 -0.13766278 -0.20296805 -0.018040648 -0.23849706 -0.038720656 -0.024007082 -0.0811471 0.079728924 -0.17214708 0.0642476 -0.48982686 -0.067509316 0.010192189 -0.17153236 0.28055006 0.5186024 -0.09581008 0.26099747 0.10313423 -0.25343382 0.035444878 -0.26076812 -0.1548834 0.43750352 -0.6668378 -0.065078944 -0.36168858 0.19673224 0.358483 0.24880758 -0.41808796 0.07555679 -0.22916229 -0.24532309 -0.018150447 0.202159 0.06122532 -0.22563958 -0.13765389 -0.059608456 0.16236942 -0.28010052 -0.23988226 0.050005935 -0.18476395 -0.011892908 0.23022002 -0.07027926 -0.3870107 0.06501327 -0.0941384 0.43033203 -0.13220882 0.240014
680 0.40602484 0.46701327 0.13075957 0.2371988 -0.15220387 -0.04780806 -0.29503563 -0.6289954 0.007642395 0.37424433 -0.47649634 -0.5586236 -0.17598686 -0.15270448 -0.33306563 -0.30724993 0.58450085 0.19655363 0.3007016 -0.49340594 0.088802114 0.5943726 -0.22796316 0.18971992 -0.25409907 0.15552725 0.40127712 -0.19855012 0.52134424 0.029626891 -0.045014 0.33063665 0.18576765 0.06987369 -0.019033574 -0.14353208 -0.20025064 0.03680425 -0.20647487 -0.3824823 0.11021035 -0.19854142 0.20058493 0.30440822 0.5318263 0.2711455 0.1348072 0.044309925 0.054417845 -0.099534325 0.036085553 0.17553246 0.10271965 0.03488633 0.06748142 0.13166957 -0.46877742 -0.050670233 -0.043361362 0.008016177 0.0051203556 -0.037861712 -0.051609125 -0.60991114 -0.46969935 0.36717522 0.2181584 -0.32980114 -0.25354394 0.09505439 0.34424314 -0.124726236 -0.043636236 -0.064400814 -0.1445821 0.081340574 -0.32765782 0.23839319 0.077534385 0.15168123 0.22125189 0.18492429 -0.11685691 0.11835476 -0.14391686 0.0614711 -0.19619617 -0.087138325 -0.406073 0.38308388 0.028514089 0.1141756 -0.17018856 -0.28338224 -0.4431926 -0.25935137 0.05808055 0.24415027 -0.019907396 -0.12316429 -0.3086075 0.43413895 0.47717404 -0.04533084 0.0046377378 0.029059071 -0.07170787 0.21204723 0.265074 0.16933315 -0.14824326 0.10958324 -0.23485841 -0.005211871 0.106601216 0.014489985 -0.6426689 -0.098324455 0.12948716 0.054888852 -0.09203788 0.039061107 -0.43742087 -0.02576416 0.07280885 0.6439589 0.12703173 0.05832073
717 -0.09023412 -0.15624352 -0.18672854 0.07145288 -0.16459255 -0.2740223 -0.2637718 -0.01656325 -0.077586606 0.1723244 -0.34575176 -0.056439664 0.07339898 -0.02498301 -0.34435955 0.04622416 0.29249132 0.0054830057 0.12342753 -0.39465505 0.03696207 -0.26689887 -0.50308055 0.15755789 -0.09513176 -0.1313664 0.40999463 0.046062738 0.34160212 -0.016774075 0.18421902 0.15516858 0.3234316 -0.58417577 0.095975526 0.089590296 -0.7340479 -0.09405127 -0.31400266 -0.28863034 -0.5795448 -0.41336304 -0.5148918 0.21613497 0.3544762 0.07068541 0.33629185 0.047857556 -0.5811711 0.15013684 0.13769336 0.46425298 0.18214737 0.35240543 0.12935247 -0.162527 -0.1328591 0.16856691 -0.014559257 -0.121130176 -0.03770706 0.32486585 -0.15658057 0.3351275 -0.029659597 0.06266844 0.044071466 -0.11647192 -0.6026817 -0.2108227 0.66555876 -0.36838874 -0.28433898 -0.16163777 -0.41562712 -0.20276919 -0.04910342 -0.30664414 0.07810971 0.01085503 -0.04238356 0.30238333 0.0073197735 0.19974248 -0.19886295 -0.2142022 -0.16529188 -0.12349708 0.18276568 0.3776892 -0.13604847 0.10816656 0.1855525 -0.28469542 -0.12311178 -0.2778522 0.0021676423 0.3343475 -0.56601495 -0.0047637047 -0.4907095 0.43808252 0.29378566 -0.045424864 -0.36685684 0.041884292 -0.077444986 0.08368869 -0.065042734 0.029169245 0.18155582 0.036505084 -0.27668136 -0.30542964 0.211785 -0.39139628 -0.18110901 0.05465675 -0.012553279 -0.03616495 0.17148866 -0.3115337 -0.3386256 -0.073250175 -0.010272309 0.44001445 -0.19140665 0.37348273
679 0.40328816 0.32990712 0.16350475 0.13179764 -0.19533595 -0.15711573 -0.18835421 -0.6722829 0.08586958 0.29016873 -0.41123497 -0.3394064 -0.0098919105 0.3235407 0.27331117 -0.23015626 0.250072 -0.17178977 0.59787726 -0.12608281 0.07318466 0.313416 -0.39092496 0.3214766 -0.24848461 0.64615744 0.46628737 0.29997396 0.35716674 0.17112033 0.09094796 0.22907552 0.1790737 -0.116179325 0.06839912 -0.26549843 -0.12931125 0.13475426 -0.1259397 0.124682166 0.049508933 -0.011962891 -0.33732593 0.1544183 0.23693448 0.01757433 0.26847348 0.087918155 0.07352946 -0.030369565 0.0032264006 0.65379584 0.17275642 0.016137078 0.23213121 -0.055598572 0.003127923 0.01276859 -0.14574248 -0.016112072 -0.1268809 -0.238138 -0.19459786 -0.421377 -0.43394178 0.1750422 0.567649 -0.20454268 -0.38803372 -0.03936762 0.35541055 -0.02697467 -0.010518362 0.16583087 -0.3272183 -0.11258474 -0.13684341 0.0043595615 0.116239876 0.14503627 0.40891597 0.17103162 0.23422192 -0.19376335 -0.1472147 0.02101487 0.087032236 -0.1696285 -0.042910922 0.058238648 0.017029438 -0.118266165 -0.19006447 0.07911047 -0.37419245 -0.2279613 0.12742597 0.13721953 0.3663133 -0.12729745 -0.22380774 0.3411501 0.596301 0.08558461 -0.24624035 -0.18625763 0.19254613 0.20274922 0.22922944 -0.023463562 -0.114633515 -0.06595619 -0.47005013 -0.21015447 -0.48673224 -0.18117918 -0.86033905 -0.3919657 -0.1624885 -0.05336043 0.22248004 0.04827731 -0.59535635 0.0498933 0.42828986 0.64317167 0.12695566 0.18435584
645 0.2706584 0.5040584 0.36540306 0.15878312 -0.11401673 0.1838477 -0.5143196 -0.56063867 -0.04117474 0.48583153 -0.589902 -0.5815428 -0.2248152 -0.38359413 -0.28730014 -0.23188931 0.4908742 -0.0012331859 0.3932904 -0.09652831 -0.061727505 0.64054745 -0.3212068 0.0866425 0.03443943 0.5630252 0.3282914 -0.13816327 0.16342784 0.2573456 0.13550071 0.49974886 -0.45733014 0.062826246 0.04087815 0.1256426 -0.73452246 0.0995951 -0.45233303 0.07057662 0.14533098 -0.23594895 -0.14076808 0.098241724 0.34041113 -0.06100352 0.36378297 -0.057054542 -0.04463521 -0.4411564 -0.22637519 0.1571763 -0.13794544 0.15974943 0.04418288 -0.2302173 -0.27846116 0.0815147 -0.15521699 -0.21243557 0.15531324 -0.0611929 0.019573338 -0.46901444 -0.35019192 0.20979264 0.44438758 0.1564401 -0.11266925 0.34800866 0.40597582 0.030174103 0.21543701 0.12032126 0.009441394 0.12002955 -0.45186433 0.46333927 0.08496093 0.12990592 0.23274778 0.22725493 0.21058676 0.013049151 -0.07413282 -0.043003015 0.07067006 -0.38711733 -0.23823558 0.7212861 -0.29718223 0.35087556 -0.1569947 -0.428336 -0.19936398 -0.16712862 -0.023971992 0.11229104 0.2638932 -0.0322904 -0.16485208 0.20448737 0.44501665 0.2589172 -0.20221248 -0.2585567 -0.08576887 0.33023992 0.057165768 0.06400487 -0.061034456 0.22553332 -0.25857115 -0.36689717 -0.120693095 0.03338182 -0.32888472 -0.35062954 -0.1037631 0.042753164 0.245559 0.28345594 -0.21123329 -0.3722303 0.23839328 0.28864574 0.33337033 0.315618
683 -0.10245235 0.030025383 -0.07450209 -0.19752596 -0.24799684 -0.12111259 -0.22127277 0.2286793 -0.023642544 0.39165768 -0.08759839 -0.51168 -0.11889387 -0.050511863 -0.36760554 0.018156974 0.16131261 0.020954775 0.06124478 -0.3673075 0.21476677 0.068435594 -0.25105327 0.13093686 -0.47009012 -0.27988526 0.3925042 0.002914495 0.5064287 -0.032090236 0.14131065 0.017160665 0.52711946 -0.3785252 -0.26803914 0.12036009 -0.4419948 -0.11889408 -0.017742395 -0.26458055 -0.63725597 -0.253415 -0.4634544 -0.0132697 0.4432494 0.08778785 0.19771531 0.39082345 -0.58173394 0.22578861 -0.14442152 0.0951747 0.4968794 0.13805829 0.2883253 -0.18212424 0.050127152 0.028976856 -0.16145414 -0.2283099 -0.10809213 0.025235163 -0.06562399 0.3310549 0.022289941 0.060882002 0.3080723 -0.10191741 -0.45904204 -0.001951575 0.37328795 -0.3240938 -0.52306336 -0.10800865 -0.17928483 -0.24504511 0.16295655 -0.45615533 0.08786786 0.29024452 -0.008821611 0.059580076 0.0049849227 -0.061466403 -0.36747944 -0.1996725 -0.094634265 0.145214 0.031510923 0.34573957 -0.4839329 0.013436037 0.06335193 -0.18609633 0.030977676 -0.29408273 -0.2695605 0.3674598 -0.39168113 0.080651335 -0.21716577 0.42155454 0.30562478 -0.05569555 -0.27494198 0.17763823 -0.46490958 0.23196512 -0.026334787 -0.17619237 0.12486389 -0.205018 -0.20795156 -0.15163696 0.1538598 -0.19711205 -0.26082623 0.10386981 -0.041377977 -0.06893995 0.20924306 -0.017105605 -0.065212086 -0.06682876 -0.040487494 0.09184453 0.13036925 0.35320777
642 0.34147385 0.22165932 0.1513389 0.1389926 0.16124256 0.32788965 0.13762732 -0.12517463 -0.17113231 0.64663416 -0.2748834 -0.79288906 -0.27456182 -0.029965267 0.10772292 -0.3074925 0.45979956 0.0013242561 0.38460243 -0.83484745 -0.0025918891 -0.08015863 -0.4208504 -0.28744793 -0.38245174 0.21781467 0.38523456 -0.17694251 0.05581301 -0.29404223 -0.24943063 0.45696062 -0.030067496 -0.36685443 -0.08374527 -0.18155362 -0.4174824 -0.11571353 -0.58044595 0.04789943 -0.17073381 0.39635202 -0.11554796 -0.26141655 0.003279253 -0.10766937 0.07951027 -0.058299616 0.18673638 0.30802363 -0.13168705 0.14936213 0.13960648 0.32978824 -0.005465743 -0.26971248 -0.15379322 0.12825225 0.11945221 -0.05860389 -0.25873193 -0.4934082 -0.2885609 -0.16284968 -0.36449814 0.17410812 0.77465343 0.4531455 -0.16621712 0.49074343 -0.16448322 -0.3541013 -0.11581518 -0.13884203 -0.05072041 -0.53965276 0.6963593 0.1323729 -0.04852577 0.26130125 0.42889884 0.42186686 0.18484351 0.124060676 -0.10654662 0.09903921 -0.061909378 -0.2817826 -0.39916545 -0.1494926 -0.20953496 0.16627115 -0.2625386 0.15616988 -0.28232595 -0.2596859 0.3822383 0.16478318 -0.6289705 0.13153641 -0.15323365 0.56179255 -0.43168917 0.25756654 0.19634718 0.064333275 -0.340498 0.010204422 0.08777738 0.43818352 -0.02109632 0.09941315 -0.45174238 -0.13020173 0.03740057 -0.20231734 -0.43132868 -0.17736225 0.59231937 0.6076229 0.075528726 0.19584404 -0.5670126 -0.3257271 0.12185421 0.25728738 0.26565936 0.59633017
786 -0.36696404 0.111468785 0.07386897 0.4515057 -0.20758201 -0.28200686 -0.12633792 0.14412619 -0.08346392 0.13943303 -0.23754178 -0.42615712 0.1585198 -0.101416156 -1.4003505 -0.08296425 0.21354692 -0.31185305 0.111205466 -0.3769291 0.11901067 -0.010721742 -0.06381439 -0.12414107 -0.18902831 -0.18319584 0.23619165 0.054432917 0.078025855 0.100537345 0.17902088 -0.13775901 0.29923552 -0.3449466 0.099727616 -0.14902139 -0.42528751 -0.072579525 -0.08556228 -0.21261093 -0.39449483 -0.5327755 -0.056346327 0.2444554 0.3681305 -0.11361994 0.25414178 0.18689314 -0.032680187 0.4236785 -0.010901931 0.23200451 0.5363853 -0.14694606 0.067913204 -0.21294415 0.25791976 0.23569527 0.0687463 0.1576165 0.0019298824 0.20737123 0.019152261 0.13502625 -0.11451875 0.04615109 0.31744415 -0.27628666 -0.29148975 -0.03704098 0.3280184 -0.16030787 -0.18394352 -0.2620495 -0.20634508 0.009720242 0.25569275 -0.41029674 -0.068196855 0.014952169 0.15114316 -0.108175986 -0.080215134 0.106799565 -0.34756947 0.15655832 -0.19171454 -0.2670351 0.0107284095 0.31504738 0.059433647 0.4899689 0.24147163 -0.48789802 -0.075209185 -0.023756763 0.05007201 0.2718045 -0.23500434 0.02526169 -0.34256864 0.3389095 0.03829325 0.053059697 0.016996583 0.098015785 0.16352808 0.39499345 -0.1417205 0.31423146 0.025992773 -0.21550663 -0.27558205 0.08381255 0.014891906 -0.385085 -0.2428933 -0.033093683 -0.14672308 0.28500897 0.30505666 -0.20591299 -0.16956441 -0.024588808 0.054521836 0.05436553 0.10586795 0.4556941
612 0.011161807 0.21921451 -0.00883192 0.13482814 -0.055523954 -0.017932264 -0.23837079 0.09057845 -0.085177794 0.2504828 -0.49001735 -0.5953068 0.16938017 -0.45410278 -0.62964046 0.042278748 0.46953785 0.12448621 -0.056654114 0.11177186 -0.10785313 -0.004383481 -0.6500639 0.16800615 -0.41216356 -0.025832066 0.26311064 -0.35272047 0.32381672 0.36270073 -0.03834912 -0.07206447 -0.024238631 0.3996361 0.06406226 -0.043654487 0.33392906 -0.20502235 -0.08258096 -0.095218845 -0.043021213 -0.19420487 0.1500729 -0.23755206 0.95113313 -0.44632998 0.1646182 -0.36674803 -0.21744953 -0.39711618 -0.1038819 0.28540117 -0.38788944 0.09081977 0.24167088 0.17380847 -0.13693863 -0.047109216 -0.2399499 0.17720021 -0.052780475 -0.067469485 -0.060651474 -0.9560532 -0.66712683 0.39239043 -0.07316322 -0.44578934 -0.15668534 0.021939827 0.18451197 -0.1968234 0.078050725 -0.21550374 0.012728125 -0.0934845 -0.48210377 -0.14230518 -0.14962481 0.4324251 0.22013772 0.19353397 0.33924913 -0.084554665 -0.26726282 0.06759119 0.05421346 -0.2411203 0.12911917 0.37443522 -0.15574215 0.015558937 -0.14327767 0.1062333 -0.2370728 -0.25507453 0.38187563 0.4178735 0.07156573 0.14363746 0.15621364 -0.3033477 0.084902495 -0.1264722 -0.025843482 0.04788939 0.07497833 0.34885648 0.2676234 -0.07545445 0.21221206 -0.06682659 -0.056245226 -0.3252469 0.058616526 -0.039823297 -0.3176594 0.069411166 -0.08540741 0.0024318714 0.07145286 0.056279425 -0.2896702 0.11044385 0.16378777 0.013302184 -0.101271406 0.48464486
714 0.5380001 0.46352893 0.14706905 0.26937464 0.13325341 0.19316147 -0.3843331 -0.63762605 0.051083844 0.3132533 -0.6031795 -0.45003164 0.17049803 0.40520227 -0.61537457 0.10276967 0.71422654 -0.0597989 0.3099175 -0.27615687 0.106636696 0.43521562 -0.42082158 0.27871606 0.09891107 0.20873341 0.1149751 -0.28834498 0.32096618 0.13208266 -0.13589858 0.109137446 0.25195822 0.31791872 0.20374583 -0.30514756 -0.05332718 0.019477079 -0.025110276 -0.015170032 -0.43642497 -0.35062438 -0.316206 -0.06343802 0.9342203 -0.19469434 0.29542282 0.013247021 -0.3053976 0.1929729 -0.118149236 0.41912714 0.24630651 0.120985515 0.37132737 0.10541837 0.09942287 0.13324904 -0.29085025 -0.34128648 -0.061300457 0.05797388 -0.11497474 -0.772407 -0.22287454 -0.15304159 0.4136787 0.031418446 -0.21616092 -0.26494375 0.27293223 0.0676087 0.10263311 0.105256446 -0.19301766 0.16339915 -0.53667337 0.0588548 0.0072824014 0.06829745 0.051509924 0.23017533 0.0014172511 -0.3508791 -0.43652198 0.12812477 -0.19043013 0.13875869 0.03732476 0.087029144 -0.25041753 -0.05864517 -0.31423083 -0.08296066 -0.56978333 -0.34760273 0.111362405 0.03694992 -0.20736499 -0.016522303 -0.39994496 -0.01889895 0.3170949 0.16564797 -0.30054346 -0.26786456 0.013566676 0.1684673 0.40176466 -0.09337189 0.058812186 -0.03883442 -0.004535481 -0.15627436 -0.27195427 -0.32309678 -0.34412992 -0.15250771 0.241087 0.3184265 -0.02906429 0.14842984 -0.48469707 -0.09515272 0.13584512 0.8263089 0.38141528 0.5683275
577 -0.410083 0.32431567 0.4443038 0.020494087 -0.34616005 -0.26502466 -0.4361317 -0.10928333 0.27336097 0.03155261 -0.41432625 -0.32064763 0.0086856065 -0.19000863 -0.3710406 -0.33955112 0.41110075 -0.17447461 0.1812947 0.06023198 -0.08180781 0.027930995 -0.5327715 0.13734938 -0.16931032 0.1912988 0.41599986 -0.5467704 0.16795264 0.5483795 -0.49319288 0.06423902 0.00768588 0.49170694 0.2178984 -0.17595819 -0.13566 0.42064005 -0.2335975 0.21944152 -0.08094652 0.22217557 0.16430649 0.039222687 0.775015 -0.28529206 -0.1716446 -0.31186038 -0.13513507 -0.34881446 -0.07088944 0.27151456 -0.057449717 -0.0075636627 0.56769687 0.38339075 0.0815799 0.08302082 -0.27998424 -0.162457 -0.12769069 -0.09941111 -0.104676425 -0.4803103 -0.24112421 0.3447956 0.25080597 -0.05994881 0.042514224 -0.093895316 0.3874996 -0.25354505 -0.047172222 -0.42110363 -0.20321366 -0.15131442 0.3666566 -0.100578144 0.1786227 0.55151975 0.4317873 0.17211266 -0.0643464 0.38702598 0.090713054 0.163961 0.11112817 -0.40011802 -0.55271775 0.34814575 -0.3721985 0.16190742 -0.19325268 -0.2739984 -0.061816063 -0.07211643 0.41374844 0.31615466 -0.13398251 0.12592103 -0.32681447 -0.07427265 0.11646403 0.106959574 -0.09698668 0.06409869 -0.40637553 0.70649254 -0.048527505 0.121671334 0.04504221 0.036321055 -0.14341459 -0.8405815 0.28945723 0.20982172 0.018488491 0.056292877 -0.13924344 0.14480667 0.15533035 -0.24880306 -0.173979 -0.22970708 -0.08567023 0.16024183 -0.056923512 0.36569476
615 -0.44436368 0.068605386 0.062191714 0.20689932 0.002939858 -0.12720887 -0.18924204 -0.36222824 -0.3376747 0.06586412 0.1277679 -0.4614125 0.16858532 -0.03492158 -0.6156455 0.009339801 0.36663613 0.025003769 -0.09161482 0.19833145 0.44622818 0.07891408 -0.06986304 0.4333681 -0.19740483 -0.12980004 0.29080576 -0.24722636 0.65235907 0.08282726 0.2836438 0.40647784 0.091372594 -0.34367406 -0.07581646 0.22202453 -0.72252584 0.031753767 0.1369574 -0.6641711 -0.024615115 -0.17893937 -0.15400594 -0.03042919 0.3452395 -0.065558955 0.25700077 -0.025460616 -0.33840975 -0.071818285 -0.32335368 0.10325185 0.124676615 -0.10776775 0.014249279 -0.1510422 0.32291636 0.2693231 -0.27155584 -0.01622296 -0.1313328 -0.081335925 0.063539825 0.48672965 -0.078741856 0.4185015 -0.05238593 -0.14958158 -0.4497398 0.11598406 0.19082823 -0.3099711 -0.7021611 -0.20191015 -0.4549325 0.23235296 0.3735765 -0.20751095 0.4421307 0.3645777 0.40348324 0.14249058 -0.37149018 0.06062252 -0.1912631 -0.008374044 0.010314482 -0.102141455 -0.45340866 0.06287324 -0.32380915 0.29767957 0.19602303 -0.25381535 -0.115674645 -0.1906665 0.22348374 0.39663494 -0.10955711 0.012145705 -0.36020577 0.37193522 0.29884982 -0.022608783 -0.05177708 0.36123064 -0.21429875 0.36936063 -0.24248934 0.13638839 0.4234681 -0.11204733 -0.19606069 0.09309579 0.20777664 -0.3151285 -0.38126796 0.17165643 -0.24618521 -0.0928114 0.78081644 -0.4364723 -0.46656492 -0.04517197 -0.2844148 0.008245716 -0.113436684 0.5393861
608 0.438381 0.016315617 0.43431002 -0.061031826 -0.35558867 -0.19075352 -0.9731852 -0.7325611 0.1190654 0.4428712 -0.5084311 -0.41801032 -0.43952873 0.08478074 -0.18111633 0.21752807 0.40047047 0.26873776 0.38325003 -0.38382968 -0.01533669 0.24192227 -0.38355178 0.09361692 -0.53844696 0.24693733 0.45647776 -0.39223826 0.23278052 0.064468116 0.07890374 0.021171266 -0.45399436 0.031295486 0.15949005 0.19977254 -0.2839804 0.03901228 -0.5918825 0.5066374 -0.110179536 0.08848499 0.19417307 -0.27901578 -0.18606614 0.22027569 0.21014744 0.03130144 -0.113481455 0.009303166 -0.041591022 0.120994255 0.033148058 0.117158696 0.17062433 0.1553996 -0.6658664 0.6181325 0.45869535 -0.15440433 -0.1782571 -0.01613095 -0.109386735 -0.43120342 -0.37487665 -0.008460415 0.65626484 0.16524556 0.027085226 0.19505085 -0.12169749 -0.36366165 0.021121735 -0.054447547 -0.106282614 -0.19578911 0.048713546 0.037468378 0.22279698 0.22623488 0.25867313 0.5540529 -0.11939808 0.14763412 0.012321494 -0.017402777 -0.13824339 -0.6224636 -0.17795031 -0.05201023 0.14403921 0.032592017 -0.3019934 -0.011654922 -0.083939284 -0.43683654 0.45822138 0.49670368 -0.8712323 0.042105064 -0.36515498 0.062327616 -0.08956473 0.2947041 -0.17465617 0.19655603 -0.3786268 0.16791244 0.00096269685 0.1405636 0.053922188 0.13378854 -0.52164805 -0.3707 0.24233001 0.123156644 -0.2905818 -0.13671057 -0.07746955 0.35763174 0.109253936 0.21276805 -0.017288193 -0.09771964 0.08935804 0.09972399 0.14672835 0.7699257
646 0.35598692 0.46073142 0.26655355 0.57529896 -0.424605 -0.027884504 -0.48294467 -0.30334336 0.08817235 0.47718477 -0.4763869 -0.46715412 0.2708016 -0.44610417 -0.459874 0.08100626 0.5488248 0.056585085 0.26259604 -0.14537533 0.09792138 0.22415088 -0.38417342 0.14342305 0.039869253 0.38146582 0.17311671 -0.11981883 0.15105787 0.05358107 0.2879859 0.14472418 -0.2315205 0.13539292 0.09218512 0.0015260383 -0.07227646 -0.2685886 -0.034020476 -0.024605686 -0.15324149 -0.34779042 0.018799685 0.033514112 0.69438034 -0.13626204 0.3992544 -0.048864774 0.00031850344 -0.21706314 -0.08980898 0.05342824 -0.34541377 0.19460315 0.19481325 0.044940088 -0.14148162 0.24237193 0.020579573 -0.35475305 0.20703198 0.1838342 0.094991125 -0.600109 -0.3841334 0.19858158 0.35028377 -0.20680743 -0.14098339 0.17916319 0.34991178 -0.019420462 0.259747 -0.4407807 -0.16858274 0.13272391 -0.437378 -0.08916985 0.13095129 0.19856 0.31681937 0.18306315 0.1244617 0.16210541 -0.26187354 0.2882327 0.16523635 -0.10726371 -0.15557332 0.45914537 0.21649653 -0.053237986 -0.43827403 -0.1589562 -0.29235792 -0.178494 -0.085984655 0.14276908 0.16465732 -0.05385724 -0.36938614 0.08988139 0.31994247 -0.10443183 -0.096154 -0.18407445 -0.25982887 0.39638615 -0.120167695 -0.10645058 0.101007655 -0.28016353 -0.6224381 -0.41595763 0.34069696 -0.07961352 -0.1822466 -0.14948466 -0.38948274 0.15908386 0.15346743 -0.029824277 -0.2777427 0.08340693 0.14731173 0.51534307 -0.100698635 0.46678442
538 0.14643936 0.26602072 0.22343546 0.2395551 -0.12312796 -0.09728929 -0.611576 -0.43791786 0.45844 -0.14488716 -0.49554187 -0.286831 0.286032 -0.06468595 -0.29816762 -0.2656781 0.21277975 0.082589 -0.16817021 -0.25450468 0.60473275 0.33151627 -0.29638776 0.43432638 -0.56935704 0.5382859 -0.05023628 -0.53415906 -0.09975548 0.09320718 0.3478112 0.06578569 0.073542036 0.19460636 -0.16812989 0.4174118 -0.46457317 -0.094156824 0.04374507 0.019744257 0.003753779 -0.14357404 0.17996082 0.053033926 0.14123762 -0.51522726 0.10188456 -0.590014 -0.33276713 -0.13638951 0.7949137 0.097892754 -0.39096078 -0.06323386 0.15446512 0.60717666 -0.43686306 0.2962746 0.3541413 -0.3904589 -0.118277155 -0.0355399 -0.27523786 -0.4738557 -0.0884694 -0.1392643 0.5598391 0.22817467 -0.2819841 -0.15826696 0.14835113 -0.40499493 0.31222308 -0.025931185 -0.12867464 -0.19277176 0.16385832 -0.26236725 -0.0043753157 0.16226842 0.46097383 0.38661823 -0.07447839 -0.119018815 -0.106136955 0.3026151 -0.2832499 0.12437176 -0.020161498 -0.12430011 0.27935094 0.0014029307 -0.077441365 0.17105004 -0.08612075 -0.0983512 0.0657908 0.108704396 -0.5396498 0.107352935 -0.35430214 0.102139324 0.013139054 -0.15062818 0.25684562 0.072883 -0.57104284 0.18198688 0.15282252 -0.57118696 -0.43440512 0.16810612 -0.30088276 -0.36918285 0.35584438 0.18197596 -0.6513772 -0.17154032 0.8666967 -0.20472296 0.2411947 -0.3622848 -0.018451445 0.023808816 -0.17706126 -0.32309502 -0.45251286 0.58922404
745 0.66971695 0.45367047 0.17561942 0.4347192 0.010793086 -0.3223043 -0.34738743 -0.18551506 -0.05860767 0.11165018 0.33284512 -0.0852857 -0.074588045 0.31214845 -0.63135976 0.031987526 0.06693784 -0.22957106 0.24994364 -0.16654031 -0.38684127 0.2625165 -0.31177974 -0.005750274 0.030842314 -0.06426819 0.05130947 -0.2232988 0.36900443 -0.2686295 0.022145884 -0.1366255 -0.06911822 -0.19554377 0.64424545 0.2579534 -0.43883455 0.058338046 -0.36242405 0.017401146 -0.37346682 -0.036214612 -0.48650435 -0.16998428 0.7657667 0.0007623915 0.37841713 0.24003056 -0.10644232 0.023540197 0.18904479 -0.013768775 0.2515798 0.32184568 0.39716497 0.20458917 -0.15303646 0.10741232 0.20427258 -0.18978195 0.37945586 -0.490924 -1.0050788 -0.35112274 -0.43267205 0.20100355 0.15861441 0.68295735 0.026309691 -0.08605709 0.32725888 -0.3929026 -0.00052132853 0.035113428 -0.20300092 0.21853137 0.3544271 -0.3118763 0.45537785 0.18375283 0.2585089 -0.030010443 0.23558843 -0.098664045 -0.09778982 -0.20612226 -0.11697404 -0.10401378 -0.058270626 -0.1419982 -0.2038864 -0.058408882 0.19436191 0.15958768 0.06926962 -0.12502956 0.026439931 -0.12547632 0.027869057 -0.2462656 -0.45979962 0.356329 0.066348694 -0.3297698 0.19387597 0.5994157 -0.9486444 0.23885435 0.35319567 0.11122905 -0.3914889 -0.14224032 -0.27866668 -0.2379208 -0.30121878 -0.012523572 -0.6038371 -0.21054672 0.5080171 0.13893569 -0.16484879 0.15095574 -0.1951657 0.1728613 0.38190135 0.048323464 -0.25004563 0.011514613
643 0.561099 -0.3072502 -0.070059754 -0.11306005 -0.19308709 0.26528108 -0.10824073 -0.06506741 0.015840087 0.3978806 -0.07389439 -0.8544681 0.33149526 0.15155193 0.113820545 -0.17418072 0.4828378 0.04964805 0.3993733 -0.5913018 -0.16050948 0.39332366 -0.33206007 0.0032218534 -0.2800539 0.29556593 0.06699675 -0.20208624 0.32434648 -0.43026277 -0.47483844 0.25735295 -0.01878213 -0.19215922 0.017395843 -0.18439996 -0.509139 -0.23867223 -0.3755485 0.12467086 -0.3996543 0.3526338 0.11334593 -0.30216387 -0.13572082 0.44140825 -0.031997852 0.15249649 0.1914551 -0.10250292 0.05354335 0.19946052 0.4081494 0.29392907 0.2154916 -0.34705752 -0.4228802 0.23172155 0.40997767 -0.14928105 -0.035509653 -0.3396036 -0.39024198 -0.10662776 -0.28308895 0.14118272 0.7315366 0.22145492 0.116236754 0.562353 0.45891762 -0.08722355 -0.06325014 -0.30083978 -0.25086454 -0.27630866 0.37406537 0.2017255 -0.1053706 0.20757172 0.17740728 0.70417976 -0.14005736 0.10231594 -0.1952994 -0.056765642 -0.22518189 -0.3157002 -0.07825592 0.3603453 -0.41310853 -0.16134296 -0.025692225 -0.29850692 -0.036595993 -0.1868164 0.008534972 0.49709478 -0.7819072 0.02946199 -0.29086494 0.37106785 -0.009626967 0.4286318 -0.3626692 0.17157474 0.0723416 0.5365728 -0.18641488 0.041127346 -0.23927158 -0.10201746 -0.33789337 -0.14754878 -0.109980986 -0.26976386 -0.8261333 -0.57334155 0.17375131 0.8166922 0.24262363 0.28154248 -0.522719 -0.40324688 0.14345786 0.40749568 0.32430264 0.6335472
715 0.19283424 0.5192778 0.0034953163 -0.07661337 0.15108699 0.00793704 -0.42708254 -0.3735112 0.17863032 0.3500326 0.096866205 -0.8114859 -0.13034582 -0.1791012 -0.77312124 0.06284332 0.51037884 -0.07129603 0.1024796 -0.59798384 0.24488348 0.31218815 -0.8418002 0.22972324 -0.3197365 -0.037394345 0.3785776 -0.33797196 0.34247026 0.1805253 -0.081392415 0.22698078 0.09734282 -0.57016665 -0.09306731 0.025708089 -0.44000354 -0.017908927 -0.2705998 -0.36927778 -0.2983587 -0.24704985 -0.18967652 -0.04650505 0.20583409 -0.025142154 0.22535972 0.23099314 -0.024078602 0.07364299 -0.12639184 0.64326113 0.18172656 0.17527322 0.3277843 0.11841865 -0.14080343 -0.41636533 -0.22681977 -0.23105417 0.11501493 -0.0018674004 -0.010212772 -0.2774686 -0.51257616 -0.06653646 -0.02053018 -0.2856414 -0.1800426 -0.20637405 0.5465517 -0.31681722 0.09504661 -0.06315317 -0.18965125 -0.060327873 -0.1059194 0.20404623 -0.063819654 0.14001307 0.31114203 0.41401297 -0.08237378 0.1424693 -0.32869846 0.15238218 -0.115474835 -0.29895672 0.324243 0.4586703 -0.030435842 0.14982697 -0.11132552 -0.46482685 -0.063966244 -0.24166484 -0.39273083 0.03661453 -0.86046696 -0.18631104 -0.6385933 0.2571691 0.41621304 -0.30986893 -0.20773971 -0.47470048 -0.07805119 -0.37890813 0.08068475 0.113441266 -0.13539623 -0.07308808 0.010281553 -0.16482158 -0.43055138 0.0008112401 -0.12448183 0.25643706 -0.047853883 0.078279726 0.11270743 0.07511316 -0.4521804 -0.118916474 0.50874346 0.43279526 -0.30938905 0.25705907
576 -0.3547715 0.2894816 0.11987186 0.32154384 -0.40659553 -0.101127215 -0.72058696 -0.0755394 0.20057985 -0.07842211 -0.29806662 -0.42221284 0.10570653 0.046615522 0.036685135 -0.20335619 0.49713463 0.24073154 -0.17292103 -0.1969874 -0.058627192 0.14807042 -0.4008384 0.09727611 -0.4050357 0.051060684 0.006736321 -0.77199185 -0.2074608 0.39995393 -0.10784281 0.12040193 -0.38333523 0.17190433 0.16911805 0.13974315 -0.021217188 -0.27176386 -0.30086952 -0.10918199 -0.22871065 -0.0036056684 0.40886274 -0.34385777 0.20932011 -0.30619657 0.1015405 -0.030722596 -0.28539053 -0.18455544 0.2819771 0.07068825 0.2281766 -0.19824508 0.31918493 -0.0639252 -0.34453854 0.120987475 0.3109533 0.08322355 -0.2975075 -0.01464914 -0.08199077 -0.57781255 -0.40680295 0.38096467 -0.10102829 -0.17558789 -0.1906847 0.046120603 -0.19677994 -0.061255954 0.034490034 -0.037170008 -0.35374403 0.16611533 0.21722932 -0.4272867 -0.008373903 0.27222595 0.23781094 -0.31853366 -0.013594385 0.25441658 0.25748992 0.13931602 -0.121856794 -0.6165597 -0.20972522 0.27448696 0.11233792 0.10645473 0.017104711 -0.36099303 -0.1453097 0.28022316 0.16234492 0.43897313 0.08215661 -0.12757182 0.22861092 -0.18614165 0.21026419 0.12787475 -0.24370669 0.32256505 0.038577463 0.7787397 0.2602149 0.37427276 -0.08933044 -0.20222402 -0.16736166 -0.23802996 0.12041714 0.14390156 -0.25055605 -0.17013499 0.24698624 0.19065638 0.34590504 -0.06365969 -0.33051756 -0.13927673 0.24505945 0.23413381 -0.15424052 0.7774303
748 0.31398395 0.66634417 -0.15283574 0.64543825 -0.38579053 -0.2888312 -0.4841376 -0.23301777 0.061043005 0.23113078 -0.14785835 -0.8236946 -0.33416533 0.05939332 -0.19948588 -0.094609365 0.014167294 -0.20266145 0.08645615 -0.061907142 -0.118900366 0.42708513 -0.021066789 0.22001491 0.21070397 0.3113121 -0.15925668 -0.22991465 0.34722087 0.24435245 -0.27809548 0.19329375 0.21870205 -0.10174058 0.31365496 0.24873702 -0.01880316 0.27394053 -0.3405169 -0.04648872 -0.12866612 -0.5536419 -0.33046848 0.06401914 0.811006 0.025198592 0.12863311 -0.009263689 0.009234599 -0.13000378 -0.40242186 0.571689 0.22826761 0.13944761 0.5467098 0.04241406 0.08634758 -0.40208498 0.25151908 0.06819944 0.087570734 0.08607584 -0.17408705 -0.58393013 -0.09808535 0.09160118 0.031216752 0.033055656 -0.659308 -0.17677805 0.31603512 -0.034312647 -0.074653454 -0.13134952 -0.30374113 0.28707182 -0.084200814 0.10026873 0.17075305 -0.0031284096 0.49056187 0.360208 0.15413605 -0.037750226 -0.5189792 -0.13598108 -0.21476036 0.23903516 0.18054071 -0.011578405 0.07220704 -0.31203827 -0.2974182 0.23318696 -0.61657137 -0.3441869 0.4415401 0.12772042 0.024140734 -0.10176483 -0.5190639 0.3736247 0.35170394 0.017383235 -0.054052602 -0.075697385 -0.17573015 0.18129733 0.33200866 -0.26637182 0.37201232 0.034611322 -0.28325757 -0.23008855 -0.38689977 -0.1621293 -0.4810398 0.034096137 -0.14677215 0.029557139 -0.12991567 -0.028897027 -0.15420553 0.111661665 0.34726527 0.6640265 0.016042238 0.35396045
581 -0.2763921 0.007688811 -0.044559054 0.31042948 -0.06700851 -0.2740141 -0.049587782 -0.04186568 -0.20548302 -0.032331195 0.14379925 -0.06861795 0.08717125 0.19458207 -0.5605323 0.070904635 0.22210552 0.025485871 -0.014187705 -0.29995263 0.22219656 -0.027123172 -0.045540836 0.31299606 -0.17701931 -0.09793325 -0.08787396 -0.12491464 0.6712907 0.04000716 0.27331376 0.14793198 0.15874863 -0.09467477 -0.037354007 0.12429894 -0.4759785 -0.24444282 -0.27135032 -0.44065586 -0.24931222 -0.177739 -0.3239265 -0.124628454 0.8977999 -0.39843953 0.5827515 -0.18307787 -0.28001484 0.15477729 0.08241581 0.22852235 0.52696574 -0.21139781 -0.13386096 -0.33547047 0.12823567 0.41338295 -0.09821589 -0.07895884 -0.03647348 -0.26694778 -0.15038168 0.18747456 -0.16404414 0.16113444 0.27826837 -0.72165865 -0.14193825 0.30354148 0.15275359 -0.21948673 -0.48279786 -0.01682645 -0.09507076 0.22850782 0.33797845 -0.42713964 0.31160858 0.054008164 -0.075328946 0.26659092 -0.29500464 0.059562385 -0.12352747 0.119243845 -0.2943894 -0.05456118 0.16237444 0.12867929 -0.21547675 0.12695967 0.1006649 -0.05648193 -0.063872434 -0.11427924 0.011817139 0.5508355 0.00044577042 0.02577489 -0.14032272 0.35084358 0.3646348 0.14325418 0.09615534 0.25973535 -0.30070895 0.19778562 -0.066917874 0.22127031 0.37020373 -0.38180366 -0.24964462 0.08568691 0.1988433 -0.3495676 -0.24371132 -0.06662037 -0.2811103 0.22683525 0.5912271 -0.28795028 -0.61541677 0.034850456 -0.2973286 0.083905526 0.09091205 0.19591203
578 -0.23949946 0.30317682 0.22836001 0.23560315 -0.35819814 -0.77981156 -0.46747154 0.0730545 -0.24036404 0.12495732 -0.34091052 -0.47659165 -0.21411188 -0.32565078 -0.577642 -0.34907377 0.60389596 0.36095446 -0.02024894 0.21364896 -0.3209368 0.13949434 0.0037152166 0.123777464 0.21522918 0.13892335 0.36255264 -0.36542055 0.0027609773 0.19323349 0.03670903 0.15519178 -0.5003433 0.22538887 -0.6125136 -0.062976554 -0.32151064 0.46594876 -0.01661197 -0.06871449 0.055464473 0.09096723 -0.25359005 -0.13046199 0.5095846 -0.1786856 -0.08330136 -0.025881909 -0.1011667 -0.30173224 0.009927591 0.17955077 -0.06550086 0.049248938 0.33766615 0.22412997 -0.20624931 0.4243054 0.2101413 -0.22025737 -0.04000716 0.53145695 -0.13412955 0.025318787 -0.0029187892 0.21454631 -0.040012397 -0.52388537 -0.2999689 0.077516146 0.21885514 -0.52846014 -0.11054146 -0.41950592 0.031930093 0.45757276 -0.060156148 -0.018555563 -0.11245623 0.05250336 0.47936746 0.09600387 0.32267094 0.29480135 -0.15635842 0.018650562 -0.117503375 -0.21110542 -0.17953755 -0.028277228 -0.2523112 0.4111568 -0.29025352 0.061051413 -0.22044332 -0.18489848 0.43586913 0.6946546 -0.3523339 0.17571513 -0.26996654 0.02439944 0.37899104 -0.14291096 0.26029348 -0.07262451 -0.43325818 0.33605272 0.13304947 0.008956147 0.17426433 -0.08854837 -0.4133147 -0.53748155 0.23259987 0.2723819 -0.227799 -0.19463919 0.021505224 -0.12618679 0.12033776 -0.37354353 -0.29910526 -0.4298451 -0.19079359 -0.07632119 -0.20920591 0.49433336
611 -0.18468553 0.59834814 0.49529558 0.27744645 0.10162991 -0.020924164 -0.5487257 -0.12792951 0.2913824 0.019731088 -0.89872193 -0.377555 0.21983214 -0.032820687 -0.08620724 0.07805437 0.41521803 -0.24664411 0.17589583 -0.08241815 -0.026809394 0.17575926 -0.78549486 0.3644266 -0.46714348 0.22024563 0.4063648 -0.32652214 0.061663374 0.2983299 0.038708515 -0.025397047 -0.052204464 0.36798143 -0.1467596 -0.27816534 0.04652023 -0.019021193 0.16279218 -0.118206784 -0.060755778 -0.5826999 0.2666574 -0.07756843 0.8233663 -0.2189307 0.39608133 -0.43964386 -0.44755268 -0.26280007 -0.40313694 0.31953162 -0.026500218 -0.04890332 0.28571698 0.0010583007 -0.2301048 0.3494623 0.078489706 0.3551712 -0.2223535 0.2102746 -0.039618842 -0.6891142 -0.44444987 0.35426828 -0.018034417 -0.16809767 -0.10043796 -0.1901168 0.6603574 -0.17098586 0.063386686 -0.28658286 -0.29899427 0.11375975 -0.3304097 -0.21859215 0.016320202 0.43825945 0.21197952 -0.14532143 0.0646653 0.039610304 -0.27861866 0.41328424 0.12192768 0.03238018 0.083069906 0.37259817 -0.11797744 -0.05570371 -0.42848462 -0.1746155 -0.19072586 -0.1985651 -0.0017512519 0.33058292 -0.057319187 -0.34467426 0.029210793 -0.20141004 0.23066129 -0.0070232586 -0.20190743 -0.083482474 0.22719763 0.29905438 0.06825906 0.19692385 0.06638925 0.01854366 -0.29521322 -0.23591891 0.12057188 0.13188846 -0.054072075 -0.27878803 0.12821478 -0.03760078 0.14847288 0.017316509 -0.09260069 -0.0416422 0.2364918 0.16294812 -0.35491574 0.5578993
575 -0.54939204 0.36996636 0.32212964 0.13175172 -0.34071496 0.069625504 -0.73801035 -0.5654001 0.43042094 -0.19294757 -0.29182783 -0.54412884 0.44588163 -0.34993362 0.14491424 -0.022391656 0.5262633 0.24623355 0.09367998 -0.46778956 -0.27614138 0.2190725 -0.5250424 0.51073015 -0.37709627 -0.029184926 0.42139432 -0.62479556 0.09115902 0.29937854 0.31535402 -0.19453193 -0.22505032 0.5166011 0.43339851 -0.07775231 0.06385107 -0.3146727 -0.14289528 -0.011263446 -0.08283088 -0.061806258 0.29645357 -0.29465193 -0.035079855 -0.142847 0.10724625 0.005814125 -0.44360626 -0.06750481 -0.04290042 -0.066727735 0.22941823 -0.036916412 0.26179424 -0.037778962 -0.5639616 0.27956206 0.13389483 -0.36671793 -0.35740873 -0.08600453 0.18676448 -0.7402587 -0.05938792 0.13505246 0.08882172 0.08552479 -0.07457552 0.16871211 0.147991 -0.27540484 -0.06661477 0.15249164 -0.8929049 -0.14554083 0.1497974 -0.14415449 -0.036559522 0.6180921 0.16928808 0.1503965 -0.11577932 -0.21674229 0.047413338 0.27470413 0.3509765 -0.17916197 0.21405275 -0.089707024 0.06720187 0.22683837 -0.26414573 -0.5005732 -0.06308387 0.26913068 0.51354796 0.08033908 -0.051204465 -0.004457954 0.004217398 -0.050315518 0.040083323 0.26048964 -0.21931612 0.118381396 -0.24348363 0.5352065 0.20706879 0.17077516 -0.2443671 0.039087325 -0.27110088 -0.020576762 -0.06407817 0.054276798 0.08842401 0.08297025 0.31334007 0.089590676 0.3464114 -0.1943268 -0.23635742 -0.050066058 0.12060285 -0.2729908 -0.1410547 0.6086972
547 -0.20820583 -0.11423096 0.09863279 0.4629619 0.17251714 -0.33850047 0.21516389 -0.034794435 -0.0076854303 -0.03580336 -0.3704268 -0.09240971 0.17857528 0.08884835 -0.7311191 0.107905865 0.218791 -0.12559116 -0.044827126 -0.28993058 0.19797285 -0.044254538 -0.24302672 0.40144956 -0.28087464 0.41395256 -0.11227129 0.04155158 0.4316016 0.102388345 0.6590689 0.2675824 0.15957253 0.15589671 -0.080658376 0.220862 -0.44985026 0.0738554 -0.20850718 -0.12222852 -0.14632024 -0.03486938 -0.44852692 -0.11457874 0.6866475 -0.23003106 0.39407098 -0.5134803 -0.11662059 -0.02120197 0.050112106 0.34924117 0.4147689 -0.34524873 0.3248701 -0.3469445 0.33989918 0.11936833 0.28426138 0.28446934 -0.0418854 0.05173636 -0.572328 -0.070036106 -0.28113106 0.30941436 -0.26220483 -0.21110699 -0.051561255 0.2125543 0.031309653 -0.011914628 -0.33967373 -0.07314837 0.14567329 0.4728961 0.5266008 -0.10396048 0.08843506 0.11437683 0.3282621 0.17622064 -0.21055286 0.1633634 -0.018428158 0.2868767 0.12271422 -0.10200364 0.23714796 0.120670356 -0.32051423 0.48838863 0.38610715 -0.06365328 -0.2864655 -0.32125086 -0.014630112 0.46975145 0.112150766 -0.10061122 0.1754584 0.2616683 0.40079772 0.05730029 0.17818646 0.18855467 0.06743244 0.46623144 -0.10237966 -0.1518279 0.10527035 -0.56885207 -0.37378728 -0.037981898 -0.100079134 -0.27134106 -0.4643065 0.077879064 -0.08615903 -0.0014676048 0.3024503 -0.28499 -0.5640082 0.14020316 -0.4337136 0.02775052 0.3275878 0.07092582
676 0.20200804 0.06476116 0.40837738 0.30118787 0.25055462 0.09055771 -0.14504214 -0.39698216 -0.09358121 0.19724797 -0.0008996185 -0.13366856 -0.13008146 0.30741888 -0.1429267 -0.28264183 0.4244353 -0.24663243 0.23274659 -0.5334538 -0.16959393 -0.5144135 -0.47720185 0.4057811 -0.77090204 0.078740634 0.2753643 0.06712477 0.43355185 0.2750649 0.16537157 0.26252684 0.15294033 -0.29984957 0.71037555 -0.6651641 -0.49501666 -0.021310685 -0.8298156 0.20257145 -0.32949024 -0.30793595 0.4805174 -0.20302814 0.09870906 0.13775139 0.36408982 -0.018532425 0.37608096 -0.034112286 -0.47394845 0.3320588 0.4144821 -0.052478336 0.4866602 0.39706114 -0.35632047 0.18282953 0.29547745 0.26450303 0.08474548 -0.25437945 -0.27093887 -0.43218526 -0.49986848 -0.08714987 0.74618685 0.15467499 -0.3860382 0.32174802 -0.08562039 -0.030903466 0.085253395 0.060741015 -0.5140158 -0.16122553 0.6920051 0.051924363 -0.18916628 -0.26903304 0.24058986 0.5272494 0.5791749 -0.45925176 -0.296176 0.24892467 -0.38139412 0.15790533 -0.09172967 -0.17741144 -0.4900606 0.32524398 -0.24068025 0.00010555837 -0.7072923 -0.272832 0.32844597 -0.35142663 -0.31818333 -0.092759095 -0.44009462 0.061007217 -0.27383038 0.23199514 -0.038635883 -0.027791124 -0.22253068 -0.08412321 0.45043465 -0.13171707 -0.15865114 0.1531622 -0.261329 0.23668411 -0.18915041 -0.029803779 -0.75479656 -0.37094364 0.37612757 0.6101657 0.37005028 0.6061743 -0.5864751 -0.090357095 -0.32775813 -0.1134225 -0.06183489 0.5071587
609 0.38637233 0.3122014 -0.007314115 0.40717217 -0.22646832 -0.26222152 -0.8174835 -0.33124968 -0.10669292 0.56179965 -0.5234044 -0.4391211 -0.10927336 0.14414462 0.12075588 0.2800521 0.005729308 0.27779025 0.47826406 -0.3751357 -0.15567924 0.052261177 -0.57979727 0.29493365 -0.5356412 0.4895033 0.19261353 -0.8880972 0.3299207 -0.031254984 -0.2774649 -0.013709345 -0.5359439 0.032740306 0.21660967 0.33183378 -0.17989157 0.026984908 -0.119189344 -0.044358 0.035981294 0.25601462 0.02713574 -0.052063767 -0.26600227 0.31104547 0.028253902 -0.09135283 -0.23173872 -0.35343385 0.290886 0.15301953 -0.10261594 0.06987547 -0.079038724 -0.09361236 -0.54632115 0.39682353 0.14791891 -0.48569235 -0.22425796 -0.23936456 -0.22880442 -0.59059894 -0.25701773 0.42119607 0.46757638 0.33633974 -0.29105234 -0.0833478 0.40382266 -0.28755617 0.14181834 0.041250564 -0.42063823 0.06711648 0.48934233 0.004009942 0.30192128 0.5110447 0.026765607 0.61447746 -0.16570608 0.1828652 -0.03602398 -0.057454787 0.08862516 -0.67311335 -0.1297282 0.044018447 -0.33390167 -0.13458385 -0.04688918 -0.04109716 -0.14905977 -0.24707498 0.6045107 0.14100966 -0.38634676 -0.030636435 0.034705754 0.21118873 0.106265545 0.40432322 -0.64689314 0.16885138 -0.41567394 0.24444039 0.06900345 0.16504124 -0.09817464 0.16957219 -0.30985028 -0.15330411 0.5013392 0.3204596 -0.79053867 -0.32306334 0.04013139 0.03645175 0.20229347 0.11258247 -0.51583445 -0.0059461943 -0.0011651859 0.121557355 0.17348656 0.5615291
539 0.15296943 0.567468 0.054637417 0.08927631 -0.19748059 -0.14899941 -0.74220914 -0.41228864 0.25022295 -0.24446931 -0.12859169 -0.21063592 -0.029082105 -0.41240072 -0.19200902 -0.25523078 0.89924437 -0.12948869 0.0018959505 -0.15699589 -0.07072235 -0.043177366 -0.4099909 0.41334003 -0.30835918 0.48468485 0.36715034 -0.58990747 -0.0136583755 -0.054002427 0.0629225 -0.3437687 0.0050649475 0.14015095 -0.071743324 -0.10622684 -0.48531416 -0.29137245 -0.3350581 0.3173288 -0.20411456 0.2834545 0.35421458 0.06306052 0.28184983 -0.20986596 0.27696776 -0.44101655 -0.21860942 -0.15933363 0.49916434 0.17188282 -0.13504453 -0.13978021 0.15574928 0.35672706 -0.24646886 0.17817466 0.17855415 -0.4302583 -0.117059365 -0.038787108 -0.2650583 -0.3104817 -0.040195864 0.0007981196 0.45505807 -0.26340452 -0.30881596 0.20019856 0.437027 -0.4245214 0.29310226 -0.11553937 -0.2036999 -0.22402805 0.15750623 0.04180433 0.17426871 0.25980332 0.53326446 0.15390514 -0.09216547 0.031943195 -0.32697544 0.35496002 0.003820027 -0.16403596 -0.18304966 -0.18547927 -0.004261682 0.016735304 0.123490505 0.036769945 -0.5226519 -0.23047298 0.232262 0.17254014 -0.712732 -0.0059300484 -0.20189834 -0.04387287 0.009536406 0.30677396 0.3562345 0.043021075 -0.35830367 0.29071283 -0.056377206 -0.034589324 -0.32367295 0.03415896 -0.26392397 -0.321001 0.37806684 0.41326553 -0.55018085 -0.20222491 0.4776107 0.06396759 0.33892065 -0.05111489 -0.18883237 0.08843332 -0.5029759 -0.32322866 -0.3617948 0.47233063
648 -0.0048860433 0.30689827 0.09447149 0.015195019 -0.43271327 -0.14418124 -0.40537256 0.16032377 -0.04970312 -0.2593113 0.1291051 -0.22902244 0.052410133 -0.03672474 -0.9218532 0.44793504 0.08382409 -0.00014202668 -0.12111264 -0.6267887 0.14408715 0.07916453 -0.4948079 0.25650045 -0.3347734 -0.25649306 -0.02417066 -0.05904853 0.53123766 0.017969608 0.48551092 -0.07988949 0.0065573235 0.17878313 0.13477398 0.10839021 -0.53188777 -0.21774624 -0.1419812 -0.26972654 -0.50164205 -0.2241355 -0.19854055 -0.021108415 0.3097664 0.111720875 0.06623999 -0.3092584 -0.08366289 -0.12693204 -0.030182427 -0.1965839 0.246991 0.025510099 0.25580862 0.12511292 0.141619 -0.08981668 0.061424185 0.092097335 0.12695257 -0.0387349 0.29262292 0.10616197 -0.19237177 0.43675146 0.17300624 -0.17773056 -0.52925795 -0.15590963 0.4971595 -0.49035233 -0.3177625 -0.19003242 -0.13462067 0.16023523 0.20054764 -0.057854038 0.2771254 0.17411625 -0.32268986 0.22942285 0.008460388 0.071523674 -0.26726204 0.112983026 -0.4166025 0.07683479 -0.008572609 0.12936252 -0.21800332 0.30384815 0.2825737 -0.29850712 -0.23009576 -0.29204637 -0.0012167814 0.62377995 -0.24372077 -0.034666564 -0.40878347 0.2960113 0.043535177 0.015199853 0.08617427 0.20093386 -0.044388067 0.0511903 -0.2072775 0.1390967 0.38056234 0.028256418 -0.40075746 -0.043049973 0.011052023 -0.29160836 -0.3338857 -0.22348614 0.23813277 -0.22426635 0.19027855 -0.29768252 -0.30719826 -0.07660604 0.022931574 0.39540052 -0.11843976 0.47787526
710 0.63578945 0.4536673 0.3184195 0.33220074 0.077253155 -0.4480881 0.097681835 -0.30349675 0.08835971 0.12532565 0.052611783 -0.10614736 -0.08493729 0.3630891 -0.81320375 -0.11710488 0.19072798 -0.44440368 0.2889296 -0.1565282 -0.097913265 0.36022052 -0.22018452 0.09182786 0.022391854 0.010135916 -0.048330866 -0.15540937 0.16987717 -0.09281333 0.19532253 -0.07417464 -0.03167395 -0.7389621 0.5122238 0.025111984 -0.4387535 0.21700679 -0.69498867 -0.016965207 -0.07262266 0.07381918 -0.2941558 -0.15427129 0.645766 0.124740385 0.6240451 -0.25626254 -0.094094485 -0.13175616 0.24332398 0.20876376 -0.0790212 -0.01681001 0.04736114 0.19868755 -0.5609849 0.084030636 0.12351245 -0.13888778 0.3478868 -0.37408087 -0.14218538 -0.28354713 -0.26736027 -0.15618531 0.37998107 0.75483704 0.108720236 -0.34861165 0.2623272 0.008936402 0.061659362 0.22124119 -0.3151269 -0.34163418 0.34639746 -0.2665 0.43730816 -0.022595773 0.1732316 0.2767124 0.37463763 -0.1322575 -0.36705416 -0.011636843 -0.057454415 -0.011369712 -0.22708255 -0.12134553 -0.15001938 0.20048131 0.29758218 0.20185934 0.006492096 -0.17347643 0.02778021 -0.05502092 -0.20518713 -0.06363685 -0.3118891 0.29961058 -0.30168337 -0.099388294 0.15239248 0.31300992 -0.7520735 -0.06548112 0.09617344 -0.124836214 0.16583072 0.0898977 -0.1469295 -0.27928233 -0.033039134 0.17336248 -0.6389116 -0.44625196 -0.020167716 0.35745326 -0.031174857 0.106155954 -0.18551886 0.3834067 0.29437798 -0.03655066 -0.752083 -0.098029256
782 0.34436733 0.81634396 -0.011986688 0.115470864 0.077265196 -0.139959 -0.37997296 0.0034242698 0.123284645 0.28442195 0.1312895 -0.4280623 0.22641766 -0.25286922 -0.7928958 -0.0289666 -0.16069193 -0.3714453 -0.054627262 0.12565102 0.14719266 0.22866017 0.10054043 0.31548324 -0.08530124 0.44695514 0.13694412 -0.17932405 0.5270115 0.3762146 -0.187122 0.059153277 0.38593757 -0.15745762 0.34183878 0.15312487 -0.09050912 0.051996574 -0.26644608 0.09804804 -0.3456504 -0.5777734 -0.26062357 0.27189332 0.8887864 0.2292273 0.08578537 0.05446203 -0.004667844 0.11852934 -0.0919363 0.48551372 0.10963222 0.29759952 0.39928702 0.15493609 -0.17714265 -0.11595706 0.032475177 0.0008906345 -0.12967917 -0.25286123 -0.2412751 -0.18040182 -0.4600562 -0.0704601 0.11551287 -0.025384512 -0.23569378 -0.20725156 0.18858798 -0.29939085 -0.014831167 0.013334178 -0.08144349 0.55041546 -0.046482023 -0.23540662 -0.052432574 0.021761328 0.20645717 -0.045932487 0.3567659 0.0898729 -0.25034052 -0.049822424 0.043917492 -0.13947628 0.089850016 0.22675608 0.19393685 -0.087011546 -0.23767142 0.34783164 -0.7361669 -0.069385715 0.10466405 0.086695 0.10386204 -0.1692928 -0.4446107 0.11274123 -0.05695222 0.058152284 -0.11483474 0.09553066 -0.15263417 -0.31808594 0.6447756 -0.21067952 -0.031728245 0.024545351 0.37628555 -0.16895609 -0.8884507 -0.069872044 -0.5762745 -0.005795346 0.24966553 0.4644191 -0.19821198 0.161343 -0.34181827 0.018690474 0.6233912 0.48201415 -0.046251666 0.03617162
783 0.2855062 0.6346198 -0.4048101 0.02045188 -0.117469154 -0.51059514 -0.32217428 -0.28332633 0.066782005 0.21047145 -0.050297026 -0.7302625 0.15898034 -0.09284525 -0.8216111 0.22542232 -0.054549854 0.16452195 0.10652386 -0.28886318 0.16337587 0.37215155 0.035616335 0.07597956 -0.09626227 0.20076145 -0.3400644 -0.14798768 0.4759387 0.050966583 -0.057655614 0.4256957 0.12125742 -0.34042475 0.5393083 0.48007032 -0.10943763 0.1308682 -0.27258414 -0.11788357 -0.34963343 -0.2518034 -0.5073477 0.23985295 0.43879855 0.46591175 0.34462112 -0.07110223 -0.24422885 -0.019571027 -0.2208764 0.6702657 0.62717706 0.24491723 0.41506347 0.076560006 -0.07779549 -0.16593042 0.18742867 0.07325399 0.03164052 0.1288386 -0.14113356 -0.5163938 -0.28651163 -0.36859995 -0.052265212 -0.009152438 -0.11314571 0.12759179 0.36601493 -0.5646388 -0.19526704 -0.2811118 -0.16304804 0.3746647 -0.034794558 -0.017490136 0.36478546 0.20070262 0.19257519 -0.031637996 0.2159389 0.27957505 -0.2606689 -0.34575477 0.08832882 -0.3620879 0.478959 0.24644788 -0.10536343 0.16806291 0.028224181 0.0056248144 -0.48508015 -0.28647518 0.26068646 0.106043056 -0.28321293 -0.33780873 -0.5801992 0.6120204 0.5166791 0.089249656 -0.28924423 0.31848654 -0.38832852 -0.33019775 0.70578986 0.08867609 -0.17639033 -0.02305949 0.23915975 -0.16322765 -0.57545465 0.27987185 -0.25369203 0.09284688 -0.3093885 -0.11021903 -0.2603966 0.22266348 -0.40317965 0.04032247 0.40358338 0.4019219 0.21622692 -0.40932813
988 -0.48940408 -0.3791963 0.07070371 0.27591994 -0.21999821 -0.19824198 0.032436013 0.5469667 0.205529 0.044162277 -0.07628013 -0.30066854 0.4631213 -0.032792196 -0.89469117 -0.08714842 -0.03703117 0.069737904 0.8220336 -0.33372954 0.15099777 0.019941568 -0.031913117 -0.144178 -0.03879677 -0.02230617 -0.06777637 0.09431022 0.030377707 0.57718474 0.68224543 0.18980524 0.2803229 -0.13555345 0.26737517 -0.11829242 -0.5303182 -0.22371201 0.13015714 -0.099439435 -0.31831822 -0.35813758 0.08449406 0.4831792 0.27229998 -0.15801123 0.4026641 0.31520703 -0.1703753 0.27081206 0.2079501 0.0070765754 0.1759773 -0.36478156 -0.043083012 -0.27500588 0.5987903 0.009790135 -0.012350792 0.34259564 0.45957187 0.6405986 -0.3701178 -0.16474915 -0.07564223 0.081423536 0.14663151 0.16207403 -0.5472825 0.37015665 0.26259595 -0.19911037 -0.1606588 -0.52342093 -0.42447656 -0.19862936 0.14150643 -0.22249685 0.06186738 0.19902387 -0.050049134 0.20687552 0.12134047 0.009612581 0.09426192 0.38017347 0.19242437 -0.3379693 -0.11109585 0.02034771 -0.16106574 -0.02478678 0.3014196 -0.3026442 0.28807935 -0.09955747 -0.28006268 0.026257167 -0.52906984 -0.21686205 -0.42426857 0.12143856 0.033366345 -0.046303138 -0.11414725 -0.16077518 0.019081961 -0.027857404 -0.24203746 0.29291627 0.2230896 -0.24181339 -0.08544977 0.15298733 -0.42011282 -0.27321556 0.09030785 -0.17065935 0.11955955 0.11336874 -0.046279628 -0.027848234 -0.04727823 0.11917045 0.1106182 -0.03453469 0.069344886 0.22223829
543 -0.07348436 0.48440054 0.3177236 0.40402028 -0.2928732 -0.14091805 -0.10762727 -0.05575917 0.104389004 -0.018549819 -0.17617078 0.09419645 0.011053627 -0.26522923 -0.055755883 -0.06201417 0.30198917 -0.21600632 0.22256438 -0.030420037 0.17918839 0.08098137 -0.4305588 0.39765328 -0.35470724 0.037523884 -0.18316679 -0.5229107 -0.10743388 0.48618895 -0.14830542 0.20037729 -0.26760417 0.030999156 -0.3278149 0.086325005 0.0017220088 0.32093284 -0.53601885 0.0439924 0.06924973 -0.13286625 0.11275708 0.3402787 0.5713648 -0.45274734 0.5217658 -0.46103248 0.032140512 0.00024097145 -0.22401841 0.38565797 0.19048107 0.07119359 0.18327044 0.16368823 -0.26057628 0.18125421 0.22461826 -0.15016627 0.27013814 -0.04126672 -0.25693318 -0.6986522 -0.11983453 -0.37161133 0.10638081 -0.4990916 -0.19904307 0.46864173 0.27944672 0.2344396 0.27836344 -0.41599864 0.07338259 -0.114230625 0.0053206203 0.3259471 -0.24280378 -0.06226427 0.17398566 -0.19489026 -0.20461175 -0.015651701 -0.37297153 0.13639985 -0.30454636 -0.607098 -0.56995225 0.18156384 0.16581611 0.40855312 -0.020041956 -0.22718512 -0.36012566 -0.342068 0.4210639 0.1529754 -0.4811472 0.007288426 -0.4831199 0.21590741 0.16355684 -0.0767162 -0.26433128 -0.01234018 -0.46091542 0.72072977 0.07439825 -0.57534176 -0.25293073 -0.014400638 -0.65883225 -0.5272228 -0.11288169 0.09628647 -0.70755386 -0.6090342 0.020808289 0.57334554 -0.081472024 -0.44308898 -0.105352186 -0.08089096 0.17233373 -0.54488623 -0.094745055 1.0311278
747 0.6810619 0.8360807 0.16569489 0.70957714 -0.31616804 -0.28900066 -0.39677405 -0.26688138 0.042050615 -0.056978617 -0.066506684 -0.6037333 -0.3218732 0.068879224 -0.25633863 0.17594117 -0.039973274 -0.25073627 0.021656258 0.111842856 -0.09122335 0.51898915 -0.34221968 0.116226114 0.26531103 0.17744766 -0.20633534 -0.09083372 0.17877637 -0.12627529 0.018477611 0.12430036 0.040651098 0.08282082 0.49602768 0.028282212 0.005541397 -0.060066544 -0.5235486 -0.10509264 0.12603152 -0.593839 -0.38190386 0.595317 0.889058 0.08448161 0.18891895 0.19022928 -0.097790346 -0.06455129 0.37212285 0.5573531 0.2952701 0.23519239 0.5903115 -0.008415473 0.008243761 -0.04448447 -0.1307507 -0.15239485 0.42285472 -0.0016070055 -0.5030397 -0.5937877 -0.3251829 -0.053065516 0.6013254 0.10726986 -0.4693338 0.04409067 0.28882748 0.15210468 0.0043519284 -0.31732446 0.09166172 0.23041953 -0.1989973 -0.11614384 0.39777857 -0.11970351 0.77826947 -0.0649243 0.3632225 -0.03456593 -0.35077527 -0.1274924 -0.16293733 0.22879976 0.17967947 0.046656143 -0.050548937 0.12241032 -0.20054443 0.53711 -0.09130677 -0.26079854 0.15760076 0.05406373 0.120490715 -0.14103174 -0.5662653 0.34432447 -0.11900214 -0.24637647 -0.29929724 0.10120924 -0.38695565 0.104291245 0.5297773 -0.19381057 -0.15371984 0.1333214 -0.019006297 -0.3305915 -0.17888895 0.06819637 -0.43168688 -0.07779378 0.111503325 0.31408152 0.23507789 0.08516497 -0.39199623 -0.19153816 0.20084083 0.53700787 0.054273926 0.39741716
616 -0.46573615 0.30107796 0.057263143 0.012824718 0.10206327 -0.53385764 -0.48430997 0.11301451 -0.2969908 0.077088706 -0.083555385 -0.71051496 -0.026101708 0.31982312 -0.26101878 -0.04488798 0.46221977 -0.099918544 -0.07296777 0.07766019 0.43146122 0.043081827 -0.12856953 0.108611204 -0.23599291 -0.2623083 0.25402302 -0.38310635 0.72520775 0.07674495 0.40892485 0.44096512 0.26893437 -0.47975433 0.042600937 0.10808597 -0.5413312 -0.034412928 0.07659357 -0.33256328 -0.061082765 -0.042022526 -0.14723097 -0.09827643 0.323269 0.08612358 0.343422 -0.17384481 -0.26570848 -0.14619672 -0.09338371 -0.04087045 0.32803756 -0.14569288 0.058579087 0.10999387 0.4039631 0.45220694 -0.13248365 0.0073526725 -0.10780244 -0.3428761 0.116621114 0.446268 -0.1859093 0.2239484 0.09189094 -0.32347557 -0.2841708 -0.14687157 0.0651046 -0.14626569 -0.8905109 -0.12211779 -0.27407706 0.17731057 0.15605275 -0.19772881 0.5092669 0.33619022 0.15576951 0.33712703 -0.051899944 0.45869967 -0.3984395 0.16428876 -0.020255417 0.026232937 -0.38187423 -0.116809055 -0.056783926 0.2998029 0.18257499 -0.4488492 -0.18343064 -0.14773107 0.19044778 0.32198364 -0.19362964 0.040357012 -0.26457188 0.58521414 0.15018988 -0.30256018 0.1774096 0.39130682 -0.122835726 0.26330775 -0.44847223 0.101441525 0.3935222 -0.24261478 0.06060736 -0.10201808 0.2095021 -0.36093897 -0.20298053 0.19531105 -0.053384542 0.14090854 0.6676242 -0.4956572 -0.44341135 -0.20973413 -0.2234864 -0.10597168 0.06402899 0.5894459
751 -0.21319534 0.27085748 -0.12592609 0.18771128 -0.13050735 -0.21660237 0.102577396 0.05852788 -0.1828028 -0.14210075 -0.12599869 -0.001717709 0.03754313 -0.19266249 -1.2731189 -0.0064340653 0.19005457 -0.30537322 0.1130535 -0.3215768 0.015832886 -0.16302405 -0.32070833 -0.009718597 -0.41120616 -0.38861284 0.24895798 -0.16028756 0.48438403 0.22887959 -0.007738562 -0.010694653 0.20735063 -0.07086935 0.23189196 0.07575391 -0.41271737 0.1442193 -0.011741433 -0.34320295 -0.47539613 -0.3628716 -0.092142574 0.42492005 0.43462002 0.021241039 0.14846885 0.16631669 -0.10466476 0.10017266 0.1921492 0.3007571 0.3421641 -0.062052403 0.19599058 -0.4035798 0.358884 0.32184732 0.22807877 0.37262774 -0.054280903 0.051784616 -0.033302184 -0.07674972 -0.17886284 0.17789917 0.19366933 -0.18370147 -0.47011477 0.040518984 0.1485195 -0.042002384 -0.29260144 -0.4152372 -0.051566508 0.19880939 0.17708714 -0.2739345 0.14612676 0.3529611 0.10706921 0.061299086 -0.18582244 0.09849091 -0.5262331 0.13209982 0.07978947 -0.31902203 0.11510351 0.24171324 -0.014920593 0.7551938 0.36761528 -0.26723388 0.09982295 -0.3765548 0.07553055 0.3772055 -0.46779156 -0.103895 -0.21767654 0.58315957 0.10610796 -0.1168302 0.07867054 -0.12538332 -0.108980015 0.24338977 -0.3357648 0.29617587 0.12674583 -0.42346323 -0.16173577 0.03584925 -0.05643934 -0.23367126 -0.16031976 0.29155448 -0.059693158 0.08420566 0.497154 -0.084193 -0.4104955 0.034516294 -0.08439838 0.08915253 0.33857948 0.44518343
713 0.3159169 0.5934699 0.030071773 0.47658876 0.10217582 0.3523013 -0.2829555 -0.71669585 0.1890962 0.022318713 -0.5837165 -0.45282903 -0.1481798 0.0030617854 -0.5479128 0.033122465 0.18723385 -0.1492295 0.7965278 -0.44758382 0.29074454 0.36519158 -0.27577272 0.13566147 -0.07933759 0.28026068 0.07378636 -0.075706944 0.5331313 -0.13257366 -0.30721483 0.2886399 0.059501972 0.01921299 -0.11482354 -0.4346511 0.14673711 -0.18112111 -0.28530598 0.32884204 -0.406326 -0.06398706 -0.32758272 -0.02222381 0.7026271 0.017544776 0.5531752 0.17734419 -0.22643633 -0.26509032 -0.3244772 0.44243658 0.38359112 -0.18238609 0.39267883 -0.02308291 -0.11690429 -0.004404896 -0.22832876 -0.023078257 0.21766555 -0.26990375 -0.28348887 -0.88017845 -0.4048566 0.1301119 0.28502136 -0.32159123 -0.5063861 0.08849648 0.5148129 0.35540786 0.16246866 -0.22351122 -0.17391434 0.4781897 -0.13351569 -0.16916649 0.20349213 0.35788405 0.46675906 0.2974908 0.24231732 -0.21828632 -0.3845769 -0.23825638 0.21063438 0.08156718 0.0064137196 -0.14940229 -0.23657048 0.04194223 -0.4207665 0.19115536 -0.39478227 -0.21275578 0.04408163 -0.06952287 -0.009632083 0.16745913 -0.5960308 0.4572911 0.2289074 -0.14273962 0.009790684 -0.089932084 0.20854908 0.55375665 0.41332144 -0.4335793 0.26626232 0.22597869 -0.017772311 -0.32537994 -0.23070616 -0.33433804 -0.38801286 -0.038181692 0.4866259 0.32658735 0.33247232 0.41982797 -0.73377717 0.06449694 0.07300343 0.541431 -0.04734104 0.17047104
574 -0.3597081 0.49168807 0.24385796 0.061045986 -0.55818254 -0.2650778 -0.6892294 -0.30765998 0.43449575 0.32129812 -0.42568755 -0.4262965 0.062208503 0.010607397 -0.1900012 0.36058086 0.71822274 0.11189455 0.024518218 -0.031826675 -0.25449228 0.18987298 -0.6660814 0.31539887 -0.66151834 0.10512864 0.28675553 -0.47860113 -0.03650875 -0.039138082 0.14513035 -0.3338686 -0.32745746 0.0999405 0.31763062 -0.006679965 -0.06190269 -0.023476264 -0.26381385 -0.10947725 -0.059185047 0.27393037 0.4035398 -0.4510051 -0.2767961 0.08414094 0.15446936 0.063401796 -0.4107065 0.18488926 0.036764257 -0.0887771 -0.24187815 -0.18642683 0.29663637 -0.085610375 -0.27237767 0.3719079 0.42703807 -0.14523213 -0.32239917 -0.13164896 -0.07248881 -0.5636187 -0.40287897 -0.08447375 0.20858407 -0.1622262 -0.098567806 -0.06553734 -0.1909913 -0.052437644 0.2406452 0.012962805 -0.11849915 -0.29791155 0.19562487 0.039776605 -0.08028529 0.74436766 -0.1190895 0.2770999 0.10746855 -0.21890785 -0.2448494 0.5977546 -0.02867268 -0.42399782 -0.047254838 0.030724881 -0.12814456 0.060989134 -0.25403702 -0.01719876 -0.25687286 -0.1424997 0.32281703 0.08180924 -0.36297968 0.12626353 -0.22361468 0.2307352 0.1536539 0.3116486 0.17128062 -0.059909087 -0.121046744 0.42681566 -0.18554212 0.288923 0.23138155 -0.24837546 -0.39034575 -0.3131826 0.11695667 0.49406818 -0.14620614 -0.030973626 0.47139663 0.31390917 0.16267611 0.07161657 -0.09568861 -0.08732407 0.06094191 -0.5729407 -0.12106974 0.65153307
856 -0.30315745 0.12469475 0.430422 0.5075154 -0.09488883 -0.4567187 -0.020321408 0.23806947 -0.061351478 0.19293617 -0.10640404 -0.22642975 0.15852185 -0.5167193 -1.1177793 -0.07371866 0.25018722 -0.15353163 0.58605105 -0.41287568 -0.01693437 0.09971011 0.13954608 -0.091739625 -0.16426694 -0.104607396 0.4319154 -0.07663519 0.42294014 0.44259554 0.2587004 -0.014877301 0.27558735 -0.56204724 0.14440672 -0.14407845 -0.463397 -0.12112237 -0.06624424 -0.48901054 -0.45952904 -0.47061136 -0.12696537 0.4187118 0.466273 -0.27236238 0.38793215 -0.03341112 -0.018324254 0.1990369 0.14882536 0.06435036 0.3635704 -0.0066320207 -0.17378727 -0.13860336 0.61870867 0.20415708 0.055578772 0.16649352 0.35968184 0.21583056 -0.2587456 0.16670194 -0.22432281 0.09129487 0.14695928 -0.1298222 -0.123083435 0.31105444 0.22973181 -0.09333357 -0.12580995 -0.19549915 -0.18927257 0.20563816 0.16501197 -0.40401235 -0.036425553 0.01513014 0.22200394 -0.0035612464 0.014187874 0.2147245 -0.2639931 0.20342895 0.27260214 -0.2500525 -0.12454161 0.12360844 0.36242363 0.47521463 0.27890953 -0.26383796 -0.09456044 -0.02933102 -0.09869499 0.36322635 -0.24729393 0.005695277 0.07735256 0.21181782 0.12968579 -0.2304495 0.05805986 0.20028816 0.30218437 0.3897477 -0.14484522 0.4539049 0.080574386 -0.3278993 -0.23820733 0.07158245 -0.08708253 -0.30280167 -0.31809008 -0.13728386 0.028128058 0.058164895 0.27756917 -0.16154331 -0.024177799 -0.046516355 0.053395934 0.19266176 0.2628203 0.5841891
541 -0.19091995 0.3083831 0.20224637 0.012537781 -0.19084287 -0.09297337 -0.38683802 -0.102903575 -0.016722659 0.3731171 -0.13133019 0.13422287 0.5057457 -0.07631604 0.031194648 -0.15723357 -0.056450505 -0.25200027 -0.102035895 -0.06747312 -0.26090562 0.07226395 0.1868175 0.024956578 -0.23991483 0.5943354 0.1356343 -0.6865286 -0.11292335 0.08352034 -0.4097844 0.22653717 -0.05652134 0.10646548 -0.4571991 0.531623 -0.29339713 -0.05045419 -0.21643777 0.3979496 0.045556445 0.14662795 0.13593031 -0.10377332 0.36394295 -0.05663629 0.6606197 -0.60107154 -0.29697794 -0.13131559 -0.00018408295 0.33576626 0.04494036 -0.354561 0.49529684 0.06594661 -0.1885782 0.56423604 0.2468728 -0.19057474 0.059964098 -0.1732525 -0.4693255 -0.3640554 -0.40389064 -0.3440757 0.32289279 -0.14714852 -0.10060515 0.096642904 0.17972025 0.3537389 0.32038963 -0.33476132 -0.098302014 -0.023477124 0.072736405 0.12897553 -0.2613897 0.121097334 0.41008687 -0.16927095 -0.0005410146 0.27379394 -0.34707218 0.05240751 0.17980097 -0.43538332 -0.4865837 0.13537517 -0.00068242336 0.11408113 0.24720164 -0.14893216 -0.15556802 -0.009676782 0.16063648 0.22011764 -0.39244616 -0.015344163 0.2140094 -0.03687768 -0.0065231044 0.09505063 0.13113718 0.38023245 -0.35487646 1.0017827 0.010190278 0.025505586 -0.15136473 -0.24694262 -0.24953799 -0.7136779 0.18112826 -0.08386351 -0.80673957 -0.22999333 0.42671913 0.091331705 -0.081884906 -0.2814226 -0.21492983 -0.20005551 -0.42515692 -0.69069725 -0.23580419 0.7151103
649 -0.38092938 0.06692134 -0.09744836 0.20493041 -0.24200164 -0.3962094 -0.03427841 -0.13519304 -0.17976806 0.036667716 -0.12578766 -0.44350338 -0.110624 -0.010173384 -0.93251944 0.17831242 0.1673698 -0.41886672 0.18329272 -0.14572021 0.11125786 0.08640173 -0.31053695 0.49524316 -0.17677285 0.28444132 -0.03294518 -0.22615986 0.53805995 0.19206531 0.14035544 0.08544574 0.25756428 -0.3413772 0.0039420356 0.21827425 -0.20009975 -0.036490712 -0.12685832 -0.28856108 -0.17954266 -0.14524463 -0.5784903 -0.16669592 0.5091958 -0.19722849 0.120001994 -0.057652697 -0.033948295 0.2331922 -0.05966474 0.23371218 0.30180278 -0.25539154 0.078541666 -0.2594543 0.36285722 0.581048 -0.014904615 -0.081484795 0.2972757 -0.11890582 -0.19317488 0.42092565 0.04660671 0.11072603 -0.1301392 -0.17774421 -0.25955617 -0.09095819 0.4846579 -0.18639462 -0.52261966 -0.23331942 -0.18915786 0.22456029 0.2697311 -0.30664682 0.12884119 0.18465275 0.11700948 0.29755715 0.15838464 0.13922206 -0.14883773 0.13210008 -0.089268 -0.033960853 -0.07345852 0.30558336 -0.17377554 0.28654432 0.067025065 -0.46615177 0.094053395 -0.24121292 -0.09486892 0.28564999 -0.43927747 -0.116172366 -0.5875912 0.3402941 0.15645075 -0.03634565 0.009820336 0.21986549 -0.28216782 0.07358591 -0.02469994 0.30657923 0.34341943 -0.2761608 -0.13998011 -0.11487075 0.408109 -0.3626112 -0.26852706 0.1828831 -0.2621212 0.12601657 0.5046851 -0.11816468 -0.36974496 0.09097784 -0.07504569 0.2150203 0.384957 0.42258742
677 0.8954122 0.27595633 0.008567364 0.11713137 -0.1278502 0.06900142 -0.2125996 -0.4328302 0.19721954 -0.04900092 -0.537052 -0.62271017 0.10660033 0.39313817 0.31156433 -0.3517389 0.15711586 -0.3226866 0.26972625 -0.74466884 -0.11416525 0.24565864 -0.5064577 0.20359303 -0.35341555 -0.13340527 0.19223265 -0.00028915267 0.56173104 0.17846344 0.04235137 0.15288655 -0.04770852 -0.38900816 0.35335457 -0.6335801 -0.5355561 0.0018348019 -0.5751107 0.13277316 -0.23148115 -0.026162645 0.15817526 -0.17834188 0.11066471 0.08207151 0.27412724 -0.032515697 0.17617379 0.10010711 -0.1716606 0.26111755 0.658808 -0.06547842 0.6001634 -0.574041 -0.16230848 0.29280007 0.35481676 0.107477576 0.14099126 -0.088444166 -0.5868906 -0.08009834 -0.26385507 0.20542833 0.4920992 0.53149724 -0.23313944 0.07601205 0.053814407 -0.40612248 0.09165249 -0.35073793 -0.076980546 -0.3172565 0.74517274 0.119531326 -0.007067972 -0.1865816 0.09708349 0.3550921 0.50168675 -0.22435324 -0.024799636 0.20396906 -0.36915532 0.065517075 0.27949128 -0.21715261 -0.14630443 0.2628228 -0.36672622 -0.3368302 -0.14614117 -0.10604561 0.20835643 -0.17003287 -0.1132674 0.20826587 -0.39883897 0.17019697 -0.5841759 0.22239228 -0.25494665 0.021951443 -0.24428375 0.029433662 0.62632877 -0.06412739 0.14872365 -0.09815589 -0.10475698 0.11417084 -0.33411244 -0.023202412 -0.98568714 -0.10714189 0.28923142 0.50236213 0.16527511 0.57811815 -0.45474276 -0.08382281 -0.124044046 0.17597714 0.017574484 0.19141546
681 0.029085305 0.2610528 -0.13119936 -0.07566044 0.0357538 -0.1409839 -0.64758706 0.22137438 -0.049831346 0.04159451 -0.38848495 -0.33713648 0.24044965 -0.22016694 -0.42467216 0.14530005 0.21473065 0.2803969 -0.3919937 -0.58699477 0.15874441 0.3890218 -0.90230906 0.1801352 -0.44753674 0.04800991 0.5131769 -0.48768032 0.5522107 0.3541705 0.19315282 -0.2597066 0.10452186 -0.21359873 0.35306987 -0.009178498 -0.79544175 -0.18719435 -0.34993303 0.04814024 -0.057557497 -0.08493184 -0.17575599 0.08179793 0.55770993 0.3399089 0.32124272 0.13990714 -0.08802767 -0.30015624 -0.2543046 0.073643185 0.37200686 0.09792167 0.26643616 0.081883915 -0.17474449 0.23129793 -0.006269796 0.03087091 0.04546559 0.304421 0.2503542 -0.28882083 -0.0478384 0.14750475 0.07894842 -0.5261221 -0.46485475 -0.07887877 0.26198244 -0.3496459 0.37551227 -0.13366479 -0.06409725 0.25633535 0.22839043 0.2714693 -0.06398456 -0.09089315 0.48268008 0.15609036 0.121022515 0.07082292 -0.50660527 0.5856845 -0.26162064 -0.53197557 0.31956685 0.22111422 -0.28040275 0.10120746 -0.3647223 -0.23625146 0.009885398 -0.30870134 -0.3813358 0.3657409 -0.66733974 -0.31406775 -0.36561373 0.079262815 0.37130335 -0.49216196 -0.12165786 -0.056430798 -0.27034017 -0.17185217 0.0006034008 0.033341072 -0.13295385 -0.14859042 -0.05146798 0.10896197 -0.0495067 0.051516674 -0.4130135 0.27807394 -0.14774716 -0.033217985 0.14947282 -0.26886642 -0.26723742 -0.123208046 0.14835452 0.35521063 -0.12665592 0.32907155
510 -0.02945794 0.24821176 0.4345942 0.38746405 -0.19131675 -0.015976384 -0.18085374 -0.041072894 0.307791 -0.079880565 -0.034654 -0.08656717 0.3280786 -0.14748694 -0.12770179 -0.2850553 0.014232117 0.24063146 -0.10061597 -0.422588 -0.00042628625 0.16571648 -0.26209378 0.682061 0.075155444 0.3630558 0.04412338 -0.38498104 0.2829435 0.2627287 -0.10343418 -0.17195544 -0.46370777 0.109095916 -0.46963897 0.109036714 -0.25245512 -0.26256073 -0.0440904 -0.14869735 -0.07599453 -0.081655554 -0.5386303 0.18946424 1.0043337 -0.31879282 0.27438563 -0.41129845 -0.018290272 0.13011055 0.2284352 0.2404786 -0.30767238 -0.08259212 0.12602168 0.48308265 0.09727542 0.21041195 0.9125443 -0.09764358 -0.16943295 -0.06459508 -0.0715395 -0.873637 -0.42188922 -0.34077856 -0.43830842 -0.49279007 -0.5761262 0.20406075 0.2995333 -0.25786465 -0.15847656 -0.043265782 -0.14570926 0.39273444 0.19168872 0.0072538783 -0.41518205 0.3328021 0.15635042 0.32805067 -0.008524291 -0.059090137 -0.6163279 0.5937503 0.15998463 -0.44055697 -0.021398311 0.39026916 0.20990825 0.34186906 0.15310326 -0.07893601 -0.4983771 -0.03184833 0.76795864 0.54587793 0.14346585 -0.21073414 -0.11768479 -0.28365573 0.784471 0.38472927 -0.030431375 0.0125850765 -0.27599043 0.6392539 0.12466672 0.020604515 -0.04527087 -0.60130984 0.081764385 -0.37288666 -0.35980943 0.10234542 -0.7206438 -0.10683508 0.3414536 0.121887594 -0.41311195 -0.2727765 -0.21028832 0.22800957 0.24001381 -0.10173034 -0.16880801 0.8507616
573 -0.0050206115 0.63791543 0.6312918 0.4443394 -0.37995467 0.35191044 -0.7568428 -0.45812467 0.49079657 -0.022630762 -0.32349327 -0.26583573 -0.21044248 -0.20898668 -0.27657378 0.10354309 0.4731998 0.17886974 0.24364756 0.058762465 -0.06442936 0.101862475 -0.67870635 0.4224938 -0.34198156 0.19052349 0.4988298 -0.46886024 0.137057 0.12468536 0.0731227 -0.18711153 -0.014445358 0.08778184 0.3311392 0.053294323 -0.3824546 -0.28079137 -0.07382046 0.43364742 -0.20817414 -0.06204383 0.2744131 -0.16234097 0.1426871 -0.46822366 0.46571514 -0.3430013 -0.60162145 -0.18691152 0.24118315 0.18427795 -0.47415322 0.3399926 0.093434565 0.44318777 -0.08841352 0.32469702 0.14356501 -0.69528705 0.3096042 0.09262703 -0.2416314 -0.3280189 -0.14939083 -0.008113431 0.29231027 -0.16082874 -0.24049541 -0.031340934 0.19232269 -0.6080352 0.28495428 -0.17094925 -0.45467317 -0.27202532 -0.027058437 -0.007852634 0.16712968 0.0843294 0.29144013 0.37113178 0.20951223 -0.360739 0.16292606 0.33794463 0.35500652 0.26072043 -0.28819963 -0.15578312 -0.16994993 0.06517208 -0.36731267 -0.056599557 -0.44299248 -0.28105637 0.72133505 -0.0560793 -0.65406257 -0.11712953 -0.41385904 0.10963793 -0.27295578 0.37324557 0.17265828 0.20872363 -0.46491957 0.30592462 -0.05376501 0.22882836 -0.12434151 -0.23390487 -0.5439539 -0.31178677 0.5250065 0.4481151 -0.2723787 -0.05336352 0.26157948 -0.14509225 0.269052 -0.106926374 0.20295149 0.00095137116 -0.31314608 -0.18342264 -0.3259071 0.43128327
542 0.033175338 0.23082982 0.6277997 -0.11678196 0.017197208 -0.1399599 -0.2551797 -0.15930162 0.30808362 -0.21311477 -0.0347004 0.0082911905 0.36051318 -0.16408642 -0.012717768 -0.17523298 -0.23888034 -0.017849807 0.14248748 -0.25281733 -0.037097413 -0.05786276 0.2435556 0.12699062 -0.22099862 0.35708416 0.18563685 -0.3902523 -0.054679375 0.229818 -0.23067074 0.17792866 -0.5926989 0.043111145 -0.13937399 0.10013814 -0.16379964 0.23871614 -0.27380136 0.06662196 0.35298944 -0.22340126 0.2186975 -0.05105542 0.23068705 -0.33807003 0.84784615 -0.5801883 0.059517976 0.124657966 -0.058669053 0.3819775 0.013854555 -0.39244008 0.33983463 -0.1396556 0.1139308 0.38462192 0.1789467 -0.22669695 0.18836997 0.17319217 -0.8983939 -0.41042086 -0.36785457 -0.34448874 0.45503762 -0.15750718 -0.20075172 0.36102965 0.11858165 0.076432824 0.3087153 -0.16136146 0.16768721 0.15044136 0.09688079 0.17013976 -0.08587428 -0.05432691 0.38730705 -0.035453226 -0.09743444 0.42336804 -0.31168598 0.018066155 -0.028078241 -0.28615296 -0.023096278 0.21537392 0.13811314 0.1391296 -0.077849016 -0.1560756 -0.51824605 -0.12019923 0.10500292 0.29633376 -0.21360216 0.15711324 -0.27068967 0.044078954 0.046396554 0.021931434 0.19388542 0.19811544 -0.33212498 0.93382955 0.03885462 -0.5039133 -0.18727608 -0.4638697 -0.537159 -0.67428994 0.043188334 0.13785413 -0.8884543 -0.33455166 0.25968808 0.3180746 -0.19173719 -0.4775828 -0.18882793 0.1598649 -0.24572602 -0.06894455 -0.19888058 0.99792486
802 0.023452673 0.6589547 -0.16423506 0.0028302318 -0.3920948 -0.10054408 -0.5186635 0.14136872 0.076438464 -0.074595094 -0.19701344 -0.0088564735 -0.072699405 0.2347409 -0.4114528 0.09312907 -0.41067576 -0.14582373 0.31823373 -0.1898328 0.09897186 0.39934513 -0.14532316 -0.21383138 -0.293872 0.14440188 0.024017554 0.14465241 0.062491346 0.44111595 0.11674237 0.35024008 0.28532895 -0.60051745 0.15703258 -0.061636783 -0.06843207 -0.38466015 -0.08302549 -0.31319758 -0.5140595 -0.17481184 -0.49919644 -0.6294574 0.25391912 0.025241327 0.51255435 0.009184569 -0.6711549 -0.05192954 -0.15674138 0.36074266 0.18762405 0.41755578 0.8512451 -0.6348325 -0.35223246 0.16604741 0.14309248 -0.39051205 -0.17362826 0.47298226 -0.10192911 -0.43795678 -0.13882726 0.27329057 0.29727837 -0.31557822 0.003217181 -0.06474177 -0.13749444 -0.024330026 0.094809525 0.24938557 -0.39797124 -0.3324726 0.09176351 -0.06839464 -0.27147588 0.40260863 -0.29682675 0.87173885 0.07091699 -0.32443538 0.024296882 0.1718267 -0.0011415618 0.12415163 0.23350571 0.67967606 -0.146585 0.24802901 -0.33113828 0.15826036 0.01077201 0.16751504 0.13005765 -0.19597127 -0.36246723 0.20316048 -0.20776686 -0.25223768 -0.21223918 0.11811376 -0.036818884 -0.20118299 -0.29330713 -0.39195725 0.24758978 -0.040548302 0.22781515 -0.45064053 0.021542087 -0.093604766 -0.2554372 -0.09281424 -0.4645171 0.18177254 0.29346162 0.043119762 -0.13148387 0.17880131 -0.17805177 0.18881136 0.23868823 0.4017091 0.013322482 0.35593152
749 0.37943637 0.3801964 0.035179157 0.13461454 -0.043734383 0.028165152 -0.02613593 -0.19099575 0.109669626 0.29642764 -0.20600116 -0.82607174 0.1615205 0.14297788 -0.787267 0.2956693 0.07247868 0.073139794 0.3484564 -0.36106572 0.5208631 0.3183655 -0.61102855 0.2948301 -0.28091726 -0.017498864 -0.15891187 -0.26089278 0.51054806 0.08609398 0.58711916 -0.1899266 0.1898805 -0.08516497 0.43499574 -0.18660788 -0.40495756 0.00093322597 -0.53855 -0.26387158 -0.6519668 -0.26681992 -0.8809465 0.55010855 0.7982773 0.04162111 0.37639317 0.08097636 -0.08939929 -0.12956037 -0.2673811 0.69233644 0.73605365 0.20368917 0.42247412 0.4091342 -0.08311785 -0.035743248 0.08893387 -0.35769123 0.052692447 0.27367008 0.00589918 -0.35602644 -0.47125357 -0.07802383 0.13227427 -0.13816518 -0.11402872 -0.3265799 0.3806097 -0.6487362 -0.10055843 0.080553144 -0.016589038 0.20164366 0.17309357 -0.11507509 0.4581606 0.36541474 0.27395025 0.6223049 0.20763347 -0.18332823 -0.1629987 -0.03364264 0.15563029 -0.18011513 0.5142048 0.21605426 0.24415794 0.17673998 -0.37050563 0.004835095 -0.3905835 -0.23127215 0.02304122 0.16737941 -0.36410534 -0.17838353 -0.43079942 0.08180018 0.40970394 0.015609426 0.06448666 0.0035310467 -0.5223231 0.21009308 0.3771915 0.17615952 -0.11333152 0.121386185 -0.18231277 -0.13996334 -0.23343815 0.21369532 -0.34225687 0.025025291 -0.3709849 -0.12463851 -0.1845756 0.29367682 -0.25601026 -0.07842412 0.23501231 0.25395215 -0.23626813 -0.30208957
544 0.03144293 1.0252692 0.15801351 0.9496792 0.049211968 -0.27228627 -0.17282374 -0.05369287 0.029419642 0.13606916 -0.42942545 -0.58610624 0.04801961 -0.2405083 -0.697661 -0.005058533 0.07492033 0.09318882 0.104879804 -0.41078708 0.18082064 0.21099761 -0.1051496 0.297599 0.19170043 0.22789116 -0.10960605 0.03130284 -0.1493004 0.04341139 -0.19629967 -0.3506809 -0.15441759 0.051204905 -0.63014174 0.14813292 -0.31845778 0.1874025 0.19449766 -0.048366264 0.08661645 -0.24198885 -0.27220088 0.5833605 0.42752346 -0.2830997 0.1542576 -0.45571417 0.57516164 0.011667179 0.0666763 0.08061769 -0.4015222 -0.23493063 0.010903559 0.33580035 -0.111258 0.083547644 0.17546046 -0.07401665 -0.030806584 0.27627018 0.04295359 -0.29686257 -0.024429735 -0.3857779 0.15142843 -0.49811053 -0.5927109 0.10715626 0.011240366 -0.2664243 -0.076976754 -0.18642722 0.27768457 0.3024507 0.13178304 0.124227904 -0.20906916 0.29381472 0.33721557 0.39510915 0.47949135 -0.27409795 -0.95129204 0.16754597 0.10978657 -0.5692062 -0.4239329 0.23741199 -0.2016156 0.38166198 -0.1673707 -0.26634696 -0.48166957 -0.016582325 0.7045366 0.50622666 -0.21647727 -0.035897747 -0.3863154 0.18586391 0.4885563 0.2869385 0.0672753 0.10031025 -0.5021527 0.9173683 0.07960714 -0.08880108 0.119610436 0.05153873 -0.019654643 -0.4188018 -0.1840277 0.22360954 -0.4270182 -0.3041501 0.06461854 0.030908728 -0.025103528 -0.27701685 -0.28059945 -0.034398057 -0.17025787 0.09796176 -0.083084516 1.1698816
647 -0.43273032 0.23927875 0.019722302 -0.13179015 -0.15695941 -0.055906773 -0.032006256 0.19867435 -0.17946239 -0.38456285 -0.16886166 -0.20208135 0.39739197 -0.35717818 -0.74896544 -0.0023641826 0.17156447 0.5685859 -0.063219786 -0.32478854 0.038277347 0.56905615 -0.7211808 0.25603265 -0.32432097 0.355746 0.119750835 -0.18111731 0.29344705 -0.3768385 0.28748986 -0.11066578 0.039106186 -0.16490829 0.09708374 0.3217724 -0.24102405 -0.18529329 -0.79865634 -0.21686785 0.26534143 -0.11872498 -0.150831 0.32547748 0.55705893 0.12366527 0.26245633 0.22320329 0.081762776 0.045633428 0.07396116 0.14691235 0.379298 -0.17544258 0.8083206 -0.33282718 -0.008311177 0.2987822 -0.28651884 -0.08018234 0.25320756 -0.1086499 0.17228091 -0.46031722 -0.29817334 0.21597278 -0.011382911 -0.60157895 -0.36192405 -0.38363454 0.38901347 -0.23976661 -0.15937041 0.02479946 0.0630458 0.21864443 -0.001923079 0.3846196 0.10240303 0.28757647 0.32789302 0.37707052 0.37298822 -0.45636153 -0.47157785 0.34512573 -0.18672742 -0.33165917 0.32601333 0.11134005 0.06845719 -0.054280616 -0.19985832 -0.01941673 0.017740617 -0.095416114 -0.18260837 0.2491 -0.4578615 0.27676415 0.16718285 0.2297293 0.3929788 -0.022097908 -2.27261e-05 -0.06967363 -0.107498005 -0.4261595 0.21257253 0.09848485 -0.18639107 -0.15759009 -0.25479674 0.20339358 0.29270107 -0.040570848 -0.41446468 -0.08719495 -0.10263224 -0.15462671 -0.10987397 0.11773264 0.07158615 -0.2211097 0.37066713 0.3850857 -0.16254361 0.3926875
678 0.37119246 -0.27331266 -0.19184339 -0.12984309 -0.30801877 -0.19139351 -0.06681808 -0.28865302 0.0252302 0.83147126 -0.4595906 -0.3129022 -0.24623634 0.40398175 0.08352158 -0.2752455 0.08265908 -0.34672317 0.24926847 -0.83319676 -0.13833979 0.40389425 -0.18244733 0.30554286 -0.21093503 0.10397691 0.48452333 0.030765519 0.5669165 -0.23040828 -0.033044387 0.014364121 0.071895085 -0.4964267 -0.14526282 -0.113990664 -0.102792285 0.64705896 -0.4354105 -0.20889835 -0.09052939 -0.19390294 -0.41504425 -0.16776477 0.12609076 0.050407253 0.5330382 0.112356044 0.042992435 0.04069597 -0.18175077 0.40336096 0.56163037 -0.08194995 -0.08963728 -0.06739551 -0.44872817 0.2251633 0.20729426 -0.13496746 0.044475306 0.11044209 -0.48628563 -0.22459155 -0.38588265 -0.11324623 0.5803963 0.4320221 0.0068805628 0.1935703 0.45554993 0.19859953 -0.16166694 -0.07432335 -0.26067275 -0.20765482 0.14975142 0.1743055 -0.2977528 0.010602457 -0.026485348 0.37031996 0.17139502 -0.3311916 -0.009014913 0.057677418 -0.30243796 -0.15656447 0.22488438 0.43413064 -0.028712919 0.19423422 -0.349455 -0.24383752 -0.3610342 -0.018088106 -0.004766492 -0.16234575 0.1703406 0.3305742 -0.63360953 0.24464868 0.21896233 0.055925485 -0.21620737 0.17968024 -0.034786757 0.27191702 0.28277573 -0.09555577 -0.20961331 -0.077966906 -0.025976095 0.13055082 -0.51066226 -0.3403433 -0.70520574 -0.06865584 0.42779106 0.514819 -0.06581687 0.4764799 -0.34102213 0.054991316 0.26559222 0.5166216 0.270298 0.2521385
744 0.14569688 0.17827857 0.34491825 0.15638506 0.0551516 -0.16526426 -0.35238117 -0.13122603 -0.24427143 0.36492783 -0.03297474 -0.5557222 -0.2280908 0.2575248 -0.8251235 -0.15176429 -0.1235249 -0.4655841 0.61549646 -0.054975968 -0.29377452 -0.06379061 -0.28573814 0.025224203 -0.07111652 -0.4926168 -0.24092159 -0.0029822467 -0.030277405 -0.14355743 0.22670646 0.28320226 0.010168539 -0.36553335 0.9472405 0.51577204 0.018374601 0.31100038 -0.31729352 0.065342985 0.013650721 0.22722791 -0.19149604 -0.3432202 0.9988927 0.1485488 0.008300305 -0.25010014 0.046084836 -0.1880502 0.17846969 0.28893092 -0.11859465 -0.0008825011 0.21726786 0.25017348 0.019178597 0.53417337 0.419866 0.008173423 0.3155064 -0.5951991 -0.640364 -0.65598536 -0.23593728 0.08585272 0.043424703 0.6233505 0.14340223 0.14392436 -0.0400482 -0.08919608 0.26828393 0.08006436 -0.6779269 -0.07356239 0.38105488 -0.060761392 0.3343386 0.14688857 0.20029509 -0.018212318 0.19654462 -0.3140805 -0.06987483 -0.19991419 -0.42951018 -0.1622235 -0.1856956 -0.02238196 -0.117893584 0.14855595 -0.22249086 0.44294927 -0.056013122 -0.5039335 0.14328 0.14659442 -0.6035645 -0.42580026 -0.36808082 0.7140993 -0.21033934 -0.3409269 0.19896945 0.64409673 -0.47408295 -0.010685286 0.19309619 0.2620625 -0.06147061 -0.245687 -0.2055014 0.0015833223 -0.41100144 0.018336572 -0.5216022 -0.34020662 0.21774557 0.6521922 0.12589046 0.15437493 -0.21626262 0.18988699 0.28913164 -0.21410272 -0.18338461 0.11280882
849 0.14728288 0.585211 -0.1795817 0.5730732 -0.16308431 -0.7590707 -0.41502443 0.08821495 -0.22757521 -0.15253326 -0.17205392 -0.3569032 0.44192332 0.07460384 -0.66192603 0.43583292 -0.3354638 0.029187359 0.19893187 -0.27739698 0.61056113 0.35546097 0.2618675 0.04872817 0.32482305 0.38331577 0.091839574 -0.34560573 -0.15085647 0.46175072 0.2978607 0.12959655 0.14320344 -0.12499869 0.4262812 0.2794617 0.6131541 0.42683402 -0.09698732 0.30311328 0.14152877 -0.5107202 -0.03034132 -0.25459576 0.19055255 -0.07127775 0.2501442 0.67236084 -0.013698912 -0.267145 0.0119751915 0.42813924 -0.04834621 -0.15907732 0.38334385 0.08316111 -0.61968005 0.22759573 0.117192216 0.25042444 0.20283478 0.17202473 -0.40435338 -0.12461684 -0.3736049 -0.003640931 0.20983133 0.8161229 -0.6703557 0.422362 -0.1499256 -0.18958801 0.121536754 0.35539114 -0.3685536 0.5567656 0.13507107 -0.20978719 0.6203266 -0.018781412 0.17610696 0.4118567 0.25145748 -0.17537628 -0.019651562 -0.12386126 -0.5823978 -0.27561057 -0.16818982 -0.086149596 0.09822913 0.8641169 0.17664634 0.16398962 -0.3194631 -0.39033717 -0.18739969 0.2653459 -0.12846264 0.27780986 -0.61083597 0.11170193 0.42914516 -0.21348324 -0.19060579 -0.26229015 0.38820383 0.39670292 0.8473243 0.24238467 -0.054455344 0.035491478 -0.21682274 0.1609705 -0.19758421 0.09570883 -0.5426635 0.059418123 0.10033531 -0.05313781 -0.15805829 0.25397497 0.40368122 -0.11067645 0.5644346 -0.046194065 0.2541073 0.012117436
607 0.4313409 0.34853297 0.43844855 0.18995468 -0.13817291 0.20733951 -0.7474524 -0.49748915 0.22288127 -0.17356469 -0.5072931 -0.9467425 0.22985841 -0.32513058 -0.1702959 -0.29640236 1.1264346 0.07586626 0.7364904 -0.78115755 -0.077870734 0.4162005 -0.32008508 -0.030187048 -0.04188265 -0.043580245 0.4085914 -0.59904736 0.086439006 -0.20230447 -0.06417971 0.03002804 -0.2775399 -0.19173382 -0.08515436 0.22263867 -0.45098156 0.05252583 0.001117323 0.6109988 -0.107372634 0.24543709 0.3372516 -0.07829383 0.17224722 -0.101631016 0.26781937 0.3231333 -0.20834695 -0.09287383 0.055787493 0.39606133 -0.35256284 0.16434714 0.089759104 0.3409821 -0.44790703 0.48574582 0.031816337 -0.7953181 -0.07598819 0.05753263 -0.12866941 -0.3299432 -0.050343666 0.32164967 0.7125171 0.035034087 -0.26319617 0.3863534 -0.047551576 -0.3812568 0.6077066 -0.19243065 -0.3639077 -0.16161829 -0.27478775 0.5535553 -0.047360476 0.028748306 0.248524 0.32103503 -0.16362545 -0.55655235 -0.2316161 0.5142423 -0.08124038 0.22122651 -0.3334061 0.10553535 0.18144847 -0.06060239 0.117882356 -0.33249235 -0.08094355 -0.115014635 0.023078525 0.30863243 -0.7280055 0.22539282 -0.35420987 0.2911683 0.22752173 0.040203825 0.14894791 -0.0936218 -0.30873236 0.41625068 -0.04625836 -0.29954174 -0.56693995 0.16539177 -0.44651693 -0.042958513 -0.005233605 0.4457057 -0.6360313 -0.31711143 -0.16572103 -0.056820408 0.5972584 0.19075343 0.03915331 -0.4111006 0.13158579 0.010952082 -0.114992686 0.43591902
476 0.09493336 0.2736326 0.045412686 0.36542737 -0.044450592 0.22764759 -0.030817127 -0.1783878 0.10351792 -0.1672414 -0.43831682 0.13904624 0.15140468 0.03841512 -0.20925061 -0.34589484 0.034271393 0.072701104 -0.27577502 -0.62075084 -0.25398728 0.11640186 -0.4730497 0.37032792 0.040666286 0.29514244 0.020376947 -0.18388106 -0.072254054 0.32289496 -0.19827558 -0.078105666 -0.41832563 0.36160064 -0.62617016 0.15071651 -0.20978795 0.024158908 -0.071472004 -0.2798628 0.0031545633 -0.19921738 -0.33276746 0.3270651 0.80066866 -0.47151256 0.10491338 -0.46282643 -0.10364964 0.14703707 0.45186505 0.24906076 0.2495143 -0.34380737 0.3129088 0.33406055 -0.23654401 0.02327341 0.57523644 -0.15336697 0.03000617 -0.0066980133 0.080155484 -0.5657572 -0.4508645 -0.48639107 -0.03264337 -0.49001682 -0.44388264 -0.20113073 0.37415248 -0.20116456 -0.10291562 -0.15549745 -0.3096666 0.21056025 0.20198917 -0.32097322 -0.15217394 0.46210226 0.3077011 0.4069415 0.14403452 0.17292902 -0.60699034 0.21635945 0.12916367 -0.24211632 0.29248065 0.30642146 -0.095006816 0.7922157 0.26576328 -0.32356054 -0.5247791 -0.095404446 0.8270726 0.24297865 -0.013079646 -0.20876163 -0.25550482 -0.13125739 0.4189473 0.42202923 0.03680757 0.33746064 -0.47195005 0.53952396 0.35341346 -0.4089753 -0.28669187 -0.62632376 0.117510945 -0.38148907 -0.114202134 0.15738703 -0.58074826 -0.32467526 -0.12921683 0.16463941 -0.20123483 -0.1810472 -0.42798996 0.007196326 -0.054786626 0.24007088 -0.22275306 0.75746477
785 -0.45628303 0.20266475 0.017382206 0.3352421 -0.17152077 -0.5428008 0.19287527 0.19378328 0.06608978 0.0072274446 -0.16484725 -0.50324064 -0.022123974 -0.004149657 -1.0486985 0.45287934 0.31329197 -0.26582822 0.1788274 -0.46274212 0.4167566 0.088859916 -0.30677867 0.046675496 -0.4199868 -0.38358793 0.43695953 -0.04458322 0.16324563 0.3306883 0.003838112 -0.11125635 0.12853323 -0.08094971 0.23253593 0.12883468 -0.6229844 0.29200706 -0.46264255 -0.53465617 -0.56977415 -0.38095045 -0.21921766 0.17645663 0.5083556 -0.21686278 0.20777333 -0.26285657 -0.058568988 0.5225097 -0.35439473 -0.08042882 0.6137066 -0.047396287 -0.081426196 -0.2928165 0.22825186 0.10826988 0.14346282 0.17100577 0.3435726 0.063433476 0.32564476 -0.17460184 -0.38834408 0.2754688 0.08138359 0.06680316 -0.36474332 -0.3202388 0.62715375 -0.12023002 -0.16819723 -0.108928554 -0.07541666 0.21317717 0.30312195 -0.23200138 0.368987 -0.05456253 0.12031101 -0.37040976 -0.39405742 -0.05112827 -0.35657415 0.03517036 -0.06747546 -0.41318372 0.0028310888 0.21057732 -0.19622374 0.7847293 0.1361597 -0.4611632 -0.18991676 -0.18723568 0.036466084 0.16137287 -0.4766498 -0.1837867 -0.5750343 0.6186462 0.07809049 0.13057455 0.123509146 0.025226794 0.17378698 -0.02942329 0.10118202 0.3020259 -0.06366671 -0.21861409 -0.39186108 0.20111658 -0.09054765 0.05636671 -0.1680507 -0.38238725 -0.07312975 0.21849594 0.4099942 -0.4322073 -0.28431877 0.21497703 0.34022096 0.43549398 0.0021100466 0.31874046
641 0.48436722 0.39439407 0.44814852 0.0030511217 -0.057591673 0.5403516 0.17801744 0.2472802 -0.078079805 0.16777675 -0.41868532 -0.18587345 -0.19358988 0.033303753 -0.2036632 -0.4921322 0.51120484 -0.25600052 0.58359784 -0.5365492 -0.18632992 -0.14283125 -0.19669269 0.1864885 -0.6122928 0.37784767 0.289696 -0.19152652 0.5147961 0.11964025 -0.5736759 0.6847359 0.19839853 -0.4119176 -0.0075821113 -0.5245196 -0.6087464 -0.14569171 -0.54982847 0.48618746 -0.13395801 0.4208632 0.021572275 -0.1384101 0.12968726 -0.22718807 0.13883312 -0.05203036 -0.07540552 0.17216136 -0.124373026 0.3678985 -0.10319704 -0.22668825 0.11661542 0.1611264 -0.038528882 0.46480095 0.21134372 -0.06320006 0.1618247 -0.34313083 -0.83028364 -0.28463334 -0.39483133 -0.16103615 0.45781383 0.03200407 -0.018671824 0.4090393 0.3908456 -0.29854235 0.29289162 -0.027454222 -0.20267326 -0.047183603 0.4360681 0.09382334 -0.16784096 -0.09646839 0.24058035 0.108138576 0.15118372 -0.46989462 -0.29780993 0.47159618 -0.2618687 0.28328308 0.06399414 -0.4525832 -0.2625392 -0.124989495 -0.18969716 0.37989748 -0.2517748 -0.5205606 0.45191377 -0.25890148 -0.66574824 0.06270941 -0.2542547 0.28709495 -0.32391003 0.548599 0.05426957 0.684239 -0.26700628 -0.015680548 0.51351845 0.06286749 -0.09194541 0.1153944 0.15523206 -0.10708006 -0.32545203 -0.122429326 -0.32808316 0.0058435816 0.12752958 0.416265 0.4943962 0.37041765 -0.18428952 0.017050026 -0.080598906 0.08838676 -0.05747648 0.36239576
816 0.18535505 0.5851628 -0.06265233 0.39581326 -0.20804211 -0.083635196 0.10186164 0.60076433 0.043600947 0.23273417 0.03313585 -0.2611374 0.10303601 -0.094070606 -1.1509514 0.37803084 -0.15525055 -0.20200233 0.022005681 0.22688374 0.48659784 0.08684282 0.037082534 0.04269276 0.364405 0.21108387 0.0030412748 -0.2980793 -0.078140646 -0.10802514 -0.20210406 0.41459703 0.1323619 0.25297603 0.5311539 0.09269105 0.18092191 0.43673226 -0.20492072 0.139466 -0.12499955 -0.97777104 0.07200867 -0.030210448 0.66736484 0.3169796 0.58063996 0.18469629 -0.17366795 0.010797005 -0.2845224 0.048991013 0.14059843 0.0019645416 0.8410312 0.10528844 -0.0035513858 0.14432135 0.038582113 0.29480478 0.018912405 -0.13210139 0.12242333 -0.56879485 -0.40397015 0.12176197 -0.32813925 0.31663674 -0.123177275 0.25746197 0.44755575 -0.21162808 -0.39128953 -0.40388116 0.021682508 0.5412638 -0.13170567 -0.021588089 0.124572895 0.5373558 0.42879078 -0.044926394 0.055023864 0.14204024 -0.2893318 0.39509815 0.046867386 -0.24032381 -0.0057619927 -0.7294985 -0.20111057 0.58895135 -0.32610273 -0.2203622 -0.28258097 0.14476214 0.27477977 -0.15632226 0.26066306 -0.19281147 -0.02919033 -0.092772245 0.21241711 0.030316288 0.17278595 -0.047698583 -0.16658612 0.05854594 0.4827295 0.2447907 0.27107674 -0.16055459 0.2810416 -0.085268736 -1.022174 0.009499191 -0.4507444 0.064863175 0.2298435 0.29460263 -0.15696517 -0.19134885 -0.21515281 -0.16015092 0.7884712 -0.41020057 -0.18065046 0.34879678
850 -0.07103381 0.42964193 0.029656284 0.76232594 -0.3840153 -0.46341938 -0.5026972 -0.1020555 0.10824 -0.457766 0.08053038 -0.15016097 0.19333187 0.024946133 -1.079937 0.2780571 -0.57201785 0.20090914 -0.15605773 0.26723146 0.61746335 0.33993575 0.560794 0.0056142127 0.41635767 0.041285217 -0.43534428 -0.013336089 -0.03578189 0.32365793 0.21967229 0.2807833 0.27548042 -0.22225054 0.13965061 0.33408293 0.6037143 0.49147534 0.16436853 -0.012141432 -0.18991579 -0.7623541 0.23759449 -0.13417266 0.5376407 -0.104618855 0.31167355 0.48641005 -0.16745213 -0.046163224 0.018389381 0.37026906 -0.07875692 0.17333183 0.3485978 0.3587281 -0.35336933 0.050780535 -0.10723413 0.14503977 0.10995088 0.16695347 -0.32469282 -0.2487571 -0.37339005 0.1887052 0.72623664 0.38198048 -0.052217703 0.44652304 0.17987692 -0.17178494 0.2937515 -0.049671356 -0.20722528 0.53867066 -0.07689123 -0.035577536 0.16617814 -0.16617854 0.46582478 0.65612465 0.35408702 0.10731819 -0.13967812 0.11026382 -0.14841142 -0.19900876 0.14250505 -0.11934371 -0.14640714 0.4045045 0.41042015 -0.042278785 -0.6267741 -0.27746132 0.2001854 0.110126525 0.06208974 0.076123886 -0.39583227 0.27613318 0.0377316 -0.39208114 -0.10882155 -0.40962666 0.33155376 0.024078945 0.67866987 0.16543308 0.11180997 0.045509435 -0.01973635 0.0077701593 -0.58558047 0.04769194 -0.6676809 -0.31928125 0.22344242 -0.1199773 -0.35431734 0.26954007 0.12494351 -0.3728167 0.67733574 0.058251232 0.042311143 0.12771799
511 -0.10357512 0.2023315 -0.0027499143 0.31474394 -0.22082807 0.33686477 0.09446199 -0.06125796 0.00030021975 -0.18989207 -0.35099512 -0.27100205 0.039541315 0.032051772 -0.2769663 0.048960548 0.08689134 0.332957 -0.29244235 -0.21195517 0.28045505 0.2925348 -0.35404256 0.3421679 0.14022543 0.67786074 -0.09918728 -0.059523467 0.16927123 0.13713758 -0.19592825 -0.16961004 -0.39096287 0.015587361 -0.9915002 0.28027087 -0.45286906 0.080138646 -0.38170493 -0.20903017 0.010938147 -0.13019522 -0.47894198 0.29702345 1.00955 -0.36480716 0.20638926 -0.3810111 -0.04357695 0.13555105 0.6020688 0.2849326 -0.41965392 -0.55612713 0.0644762 0.48964402 -0.16980845 0.09141145 0.63648546 -0.0960034 -0.15615132 0.31200662 0.08382669 -0.6134521 -0.33618385 -0.37342152 -0.005090564 -0.46200544 -0.56181 -0.064353436 0.3487527 -0.2695559 -0.31073126 -0.14667562 -0.21283884 0.17087832 0.083317034 -0.23077092 -0.14555056 0.3952404 0.38645348 0.5971179 -0.053602867 0.088630706 -0.5807511 0.2996314 0.17487243 -0.35659084 0.034942176 0.3123855 -0.4602132 0.42407876 0.15423025 -0.086787924 -0.6235852 -0.052018862 0.81588566 0.1402077 -0.035663202 -0.02895492 -0.45664883 -0.05456435 0.579298 0.4132197 0.08222418 0.16592649 -0.2713668 0.52516264 0.09746776 0.10320187 -0.10742557 -0.575088 0.3591539 -0.37502795 -0.266765 0.30269295 -0.3265705 -0.4634726 -0.13970195 -0.12095329 -0.14137805 -0.18044938 -0.41346464 0.13385285 -0.012870834 -0.023388954 -0.28030175 0.81955266
569 -0.18062171 0.29016727 0.20269638 0.53795636 -0.04923289 -0.059342567 -0.6146976 -0.15203784 -0.051205944 0.033955637 -0.3291987 -0.0005362354 -0.31812704 0.057575326 -0.78373396 -0.08397766 -0.13463803 -0.10565744 0.29897013 -0.22653055 0.2568513 -0.26712415 -0.35973942 -0.046647787 0.1075844 0.38402483 -0.050481964 0.044829868 -0.13890627 0.070662566 -0.027977977 0.124310836 0.017507693 0.31026402 0.25933623 0.439154 -0.44415933 0.005500701 -0.35932294 -0.2878698 0.5405037 0.4475649 0.18375541 0.10185134 0.6074541 -0.17967993 0.2112769 -0.54124856 0.30963483 0.010957638 0.2212921 0.28993952 -0.27628177 -0.46725217 0.23652306 0.3501663 0.24131258 0.36668536 0.40780842 0.39062104 0.09666464 -0.48973957 -0.27258065 -0.40798852 -0.17794013 -0.50974494 0.17395388 0.16833495 0.018403273 0.49827507 0.42735693 -0.033835974 0.29620272 0.24540068 0.20993829 -0.2338588 0.5119106 -0.3285289 -0.14247675 -0.39157933 0.20782594 0.33476582 -0.012762824 -0.39899683 -0.41803417 0.074656285 -0.16270667 0.41749656 -0.15170117 -0.0014052528 -0.09367432 0.32882595 -0.25415635 0.29559278 0.34004962 0.42382956 0.08373527 0.20137914 -0.54060143 -0.2462165 0.010405045 -0.03904092 0.061187044 0.26192448 -0.001907575 0.19306614 0.1624655 0.2881869 0.1799967 -0.5489643 -0.55709064 -0.32268256 -0.048879243 0.077570856 -0.50837916 0.39689723 -0.47155124 -0.18429504 0.043250665 0.19200009 -0.30880013 0.53769207 0.039694577 -0.08265166 0.35251385 -0.25209302 -0.1742882 -0.013619853
675 0.4826267 -0.095870264 0.32331955 0.3402456 0.20966958 0.1858729 0.17392814 -0.03254976 -0.14503986 -0.33769983 -0.24574065 -0.18699202 -0.33815178 0.6225012 -0.4853266 0.26637203 0.59706557 -0.12590921 0.03303442 -0.65186197 0.51413614 -0.22406988 -0.59748363 0.22045922 -0.3998477 -0.0026855215 0.35444972 -0.24793798 0.26111022 -0.17825016 0.1691518 0.33966827 0.18633275 -0.22865476 0.22032154 -0.27640188 -0.47128305 -0.22728567 -0.6685353 0.3604544 0.10016365 -0.0756079 0.24242647 0.025734851 0.044046085 -0.26226607 0.4038132 0.09632362 -0.13588473 0.32992628 -0.04135929 0.13552812 -0.21985315 0.24019668 0.33914477 0.33685213 -0.44586128 -0.22075137 0.37521592 0.21953043 0.46921724 -0.05909902 -0.7040865 -0.5193941 -0.75185996 0.1758524 0.41203168 0.27937406 -0.24372403 0.27252683 0.3841276 -0.45592144 0.49663547 -0.20651291 -0.30923757 0.0564155 0.46081564 0.16210693 -0.033986818 -0.16602486 0.24212502 0.5532111 0.6089159 -0.36904126 -0.20940001 0.46986625 -0.5102841 0.20209347 -0.10559496 -0.008216317 -0.25100937 0.09966647 0.36663842 -0.20820542 -0.28079325 -0.5657581 0.27083272 0.5019773 -0.5058496 -0.4253582 -0.372701 0.027154291 -0.3018259 0.20540656 -0.07408033 0.057703104 -0.17987095 0.03777931 0.43598697 -0.3798427 -0.22697954 0.15690862 -0.43881613 0.2536605 -0.33105147 0.031790815 -0.9256189 -0.11997259 0.18734276 0.12522568 0.23085018 0.2584993 -0.076525584 0.07030782 -0.18045284 0.23520051 -0.49166313 0.37645766
610 0.44177634 0.28939393 0.17965102 0.46407056 -0.1640983 0.025581444 -0.69616884 -0.38849083 0.10543613 0.24090122 -0.64165145 -0.18383844 0.31291854 -0.22724178 -0.089674056 0.31901172 0.49779832 0.6252171 0.06814886 0.15218784 -0.041124303 -0.06381597 -0.5521313 0.43765253 -0.3510277 -0.22409357 0.3725654 -0.71882665 0.13915633 0.09761136 -0.2679555 -0.19658545 -0.34001142 0.38604623 0.12299295 0.22022973 -0.6704216 0.1464067 -0.40214232 -0.4921601 -0.010987872 -0.2643266 0.3426276 -0.08510373 0.44839948 0.16908954 0.4297127 0.18997797 -0.7021579 -0.18986954 -0.051543307 0.16270699 -0.16406636 0.11565167 0.1785092 -0.24063024 -0.5441902 0.13535294 -0.031782296 -0.2676956 -0.13793193 -0.0059182444 0.030457316 -0.799578 -0.7000063 0.3329016 0.037068654 -0.47915447 -0.49835342 -0.21696305 0.20733438 -0.41398826 0.19789559 -0.10086788 -0.31822297 0.3808571 0.23308969 -0.001991519 0.46433705 0.25594676 -0.05308728 0.49744555 -0.1837383 -0.23574477 -0.25296688 0.4917354 0.07496323 -0.4979674 -0.022183388 -0.17373711 -0.025667386 -0.030160066 -0.17545466 -0.33189994 -0.048889045 0.020504516 0.10363629 0.026323102 0.16244565 0.11305385 -0.0006079436 0.10157412 0.33778748 0.2445583 -0.37711954 -0.21588393 -0.4091016 0.25282767 0.07828801 -0.08454369 -0.2773128 -0.41375712 -0.5922633 0.0891227 -0.035491213 0.09586452 0.34402353 -0.27103075 0.06863592 0.2567412 0.05614369 -0.1032656 0.13194543 0.09671865 -0.036201373 0.38025448 -0.24477592 0.41958392
650 -0.36594814 0.334238 0.06145038 0.36496565 -0.09912433 -0.2291259 -0.4073407 -0.16515188 -0.27746814 0.078614436 -0.03789789 -0.5965506 -0.029533586 0.02928809 -0.7841202 0.27227792 0.5536313 -0.08419729 0.06443713 -0.1926793 0.04930027 -0.08384489 -0.33977577 0.27432588 -0.08634546 -0.118695 0.21053004 -0.22853488 0.33484513 0.10135193 0.17084365 0.14208254 0.6268062 -0.36054122 -0.056840435 0.19487879 -0.72460896 -0.034152817 0.02686937 -0.37725255 -0.43762523 0.08900218 -0.37805668 0.29535046 0.42939115 -0.06541782 0.63416344 0.14293872 -0.3183069 0.27566934 -0.12586541 0.15925384 0.38722864 -0.088541195 0.012280942 -0.39271575 0.4821881 0.19015181 0.24866673 0.2875936 -0.026406083 -0.15213713 -0.20907986 0.29182956 -0.20433243 0.16503018 0.061675496 -0.31929138 -0.19805947 -0.1913468 0.04240915 -0.13482566 -0.51332766 -0.33856925 -0.030653704 0.20607412 0.1888439 -0.36775294 0.18185924 -0.028004143 0.28366464 0.092587285 0.0011559691 -0.010731167 -0.06833679 -0.11258424 -0.38826174 0.16418019 -0.09056196 0.20303787 -0.13351472 0.29134163 0.2752389 -0.34492883 -0.063207276 -0.36575532 0.048300438 0.10672028 -0.03127982 -0.35526946 -0.27353752 0.45055485 0.13113523 0.048669893 0.10012278 0.0048673796 -0.27531406 0.38469782 -0.27777475 0.17180225 0.24483731 -0.46113756 -0.04057025 -0.047117133 0.06731289 -0.38757882 -0.18137579 -0.24401142 -0.11689963 0.026982844 0.42877227 -0.03855086 -0.6507307 0.43161705 -0.23088184 0.045470666 0.119575605 0.29605532
509 -0.31729183 0.036151025 0.22190285 0.11812445 0.031310022 -0.10030747 -0.08352974 -0.48372027 0.28953093 0.096089944 -0.46326932 -0.018560743 0.24270047 -0.3227639 -0.00074246555 0.045004617 0.54961437 0.10701645 0.09453191 -0.07708702 -0.10421926 0.22003168 -0.41574976 0.5878407 -0.30262652 0.2742809 -0.25409338 -0.3314544 0.15353227 0.17000785 -0.1950271 0.08917561 -0.4551129 0.018827118 -0.0949782 0.3200986 -0.060128864 0.231341 -0.3348864 0.089158654 0.1937841 -0.5276781 0.36108437 0.20344748 0.9055846 -0.048809316 0.36481193 -0.49298796 0.30598554 0.20295967 -0.20623642 0.4772555 -0.05277276 -0.005617728 0.24028006 0.16028413 0.0935937 0.14467828 0.26253626 0.026891664 -0.37255004 -0.3448525 -0.46054775 -1.0310181 -0.62882805 -0.6621457 0.35771507 -0.44639316 -0.27147123 -0.10089545 0.13602889 0.1117807 -0.07520029 -0.11078817 -0.13501973 -0.37767768 0.039076615 -0.038993973 -0.38988635 0.046894576 0.19835056 0.16323112 0.013189442 -0.039776724 -0.40545508 0.015170176 -0.3913485 -0.10035003 0.0020712672 -0.3255612 0.12059085 0.14721483 -0.052764095 -0.39117593 -0.4405814 -0.11397646 0.4789115 0.007754221 -0.28493857 -0.025785303 -0.2490476 -0.10967179 0.14180319 0.4973191 -0.3024526 0.3246758 -0.6837627 0.76817966 0.6566226 -0.4264858 0.08157946 -0.5875223 -0.5852072 -0.29566014 -0.19705613 0.35240874 -0.52619946 -0.54900783 -0.05959642 0.05470278 -0.33134437 -0.03781011 -0.32081878 0.1751693 0.16626494 -0.1602846 -0.018540524 0.83347076
