656 128
682 0.07456632 0.034201972 0.25973058 0.58900714 0.3201042 -0.1373782 0.53282756 -0.033887647 0.5127228 0.22785087 0.12810688 -0.034269493 0.2906154 -0.060252268 -0.08840388 -0.1377889 -0.030808343 -0.34786618 0.016512776 0.114434764 0.12633415 -0.38594502 -0.14923054 0.29687837 -0.1724303 0.28501263 -0.034033276 0.23911941 -0.14569908 -0.059270445 -0.06414447 0.04446462 -0.06591788 0.4547517 -0.08967492 -0.38080853 0.21654558 0.11018149 -0.049139652 0.016686419 -0.10477302 -0.28654754 -0.31896707 -0.1744844 -0.019472659 -0.30965623 0.69126797 0.6949488 0.034741063 -0.32668185 0.093041785 -0.34391063 0.021478657 -0.49117512 -0.16919123 -0.1867863 0.31864595 0.034458924 0.30488843 0.0059638303 0.25054622 0.1982702 -0.31013286 -0.09637141 0.4312768 0.2549461 -0.6377485 -0.004728874 0.24352334 -0.19165955 -0.4891136 0.14285122 -0.53822976 -0.14982969 -0.1582113 -0.07886874 -0.23517734 -0.20304637 0.107164815 -0.3246167 -0.07494098 -0.072329246 0.07711313 -0.23045175 -0.31689888 0.15276405 -0.37384647 0.35689768 0.16265328 0.13125144 -0.17285758 -0.46739462 0.16528805 0.17978317 0.2427898 -0.23905607 0.055342123 -0.0050685704 0.1394224 0.5062184 0.02610651 -0.21541664 0.077033415 0.44987383 0.38027582 -0.20122324 -0.14292258 -0.016736433 0.12475212 -0.050041832 0.21276627 -0.24717729 -0.046686843 0.2833426 -0.0015511351 -0.2760264 -0.21219048 -0.49828628 0.42114165 -0.36127636 -0.8204944 -0.24594666 -0.046878897 -0.6098133 -0.07941672 -0.12238964 0.35699078 -0.18647188
716 0.09737383 -0.013336477 0.19295603 0.5626011 0.3881037 -0.10697121 0.5040854 -0.08597091 0.48054218 0.2625275 0.10296108 -0.06278279 0.30212936 -0.12744062 -0.11614991 -0.1515914 0.04322318 -0.40314525 0.087556176 0.09527157 0.1073729 -0.48052177 -0.1484239 0.3472104 -0.14629248 0.30375367 -0.02168422 0.19754273 -0.19322911 -0.0011350359 -0.07942649 0.07191838 -0.10170933 0.46372247 -0.04097201 -0.43984473 0.20658045 0.08141256 -0.04446759 0.0420081 -0.1100914 -0.32365897 -0.28362438 -0.21469834 0.01927045 -0.28498593 0.62000346 0.6635872 -0.04679372 -0.3043544 -0.0011230488 -0.30009648 0.04609399 -0.5473371 -0.17927079 -0.2407759 0.33276606 -0.018938337 0.27388543 -0.011800712 0.27067688 0.20631954 -0.30032548 -0.14243636 0.4242822 0.2813272 -0.58484256 -0.035624832 0.29551837 -0.09994722 -0.44173366 0.19100216 -0.52715325 -0.16644685 -0.18478444 -0.058374424 -0.29372323 -0.17986675 0.06255686 -0.31709164 -0.16225542 -0.06872039 0.08991315 -0.20830566 -0.23713808 0.18497394 -0.27888075 0.33659256 0.120152764 0.18857144 -0.14701651 -0.43244487 0.1372961 0.18065934 0.20320587 -0.23240653 0.06520951 0.06137643 0.05480071 0.566019 0.015095929 -0.18052989 0.059071045 0.44170827 0.32860932 -0.14549816 -0.18530506 -0.069597915 0.13487387 -0.06092587 0.26024806 -0.16484167 -0.02242101 0.28647012 0.02230766 -0.31809986 -0.25064504 -0.52409375 0.5384014 -0.33746892 -0.7847168 -0.19656642 -0.052241635 -0.5508207 -0.03848974 -0.085311465 0.32855278 -0.25821275
680 0.044943903 0.07218393 -0.0343777 0.3777099 0.4873973 -0.08089811 0.3465222 -0.0945316 0.33083183 0.04158055 0.08595999 0.010322302 -0.103649594 -0.04704119 -0.08350402 0.06142132 0.06473506 -0.12979497 0.10528725 0.035969127 0.021807864 -0.34516662 -0.19702353 0.21598701 -0.3400393 0.15460147 -0.036415998 0.20627883 -0.28822097 -0.21242522 0.036497436 0.19982354 -0.024699919 0.26718432 0.12920891 -0.31065816 0.0132888965 -0.017322363 0.00022041163 0.13287885 -0.13682628 -0.09281824 -0.072501585 -0.17271082 -0.1315458 -0.1835894 0.52844155 0.6124198 0.3586987 -0.36628163 -0.14783521 -0.2440933 0.21173099 -0.2570053 -0.48948008 -0.18426204 0.50744164 0.025020892 0.18032378 -0.14468367 0.23640013 0.25121003 -0.3456548 -0.08459007 0.5181409 0.21038283 -0.34560287 0.038169157 0.23716234 0.0089606885 -0.25668934 0.0682784 -0.6305258 -0.31822065 -0.0900091 0.01616988 -0.21402843 0.017616736 -0.071798824 -0.32618782 -0.12680107 -0.08360307 0.15008119 -0.11836079 -0.16624346 0.15584548 -0.38990828 0.2377664 0.21526274 0.1523959 0.047002163 -0.59219575 0.012362674 0.10136496 -0.0913354 -0.08192493 -0.047160655 0.21669689 0.061917156 0.5287065 0.37306026 -0.33409205 0.122494824 0.5026849 0.38732722 0.05015042 -0.15796949 -0.21103483 0.13067381 0.06383621 0.056848694 -0.25070527 0.109684125 0.16946271 0.23506923 -0.09268185 -0.19111499 -0.412796 0.2707402 -0.20894295 -0.67959446 -0.28925967 -0.07496095 -0.49695158 0.055374146 -0.074510984 0.34308457 -0.22378439
679 0.07731157 0.06883938 -0.03930241 0.40180406 0.54521036 -0.1038738 0.43025208 -0.07599105 0.3494847 0.005261032 0.051468678 0.11555929 -0.16430771 -0.026116718 -0.016381865 0.08706222 0.10294113 -0.109398365 0.12166282 0.058520697 0.02974451 -0.317462 -0.22310036 0.13965935 -0.2887157 0.14452909 -0.068896934 0.1950579 -0.28347865 -0.2039997 0.0047185877 0.1766104 -0.013705367 0.30283344 0.15873972 -0.35799563 0.015679589 -0.025621736 -0.005420356 0.1638519 -0.101799496 -0.122165605 -0.06990342 -0.14636704 -0.099753715 -0.17803772 0.53402555 0.57263696 0.36358213 -0.323206 -0.2255208 -0.24074356 0.20038727 -0.32915112 -0.5524402 -0.20163046 0.489667 -0.031329952 0.14657544 -0.22036675 0.22551598 0.25768873 -0.34567234 -0.119019225 0.5527196 0.23574086 -0.37327155 0.04941466 0.16211809 0.082899325 -0.24285759 0.069496416 -0.6823284 -0.32723707 -0.07580827 0.026296206 -0.23772386 0.04252497 -0.080876276 -0.38098043 -0.17870735 -0.11299824 0.07567851 -0.11040355 -0.1852834 0.13487771 -0.31622568 0.15039109 0.22676958 0.085775055 0.109636754 -0.57337993 0.04084931 0.09740675 -0.115262784 -0.06657367 -0.12502931 0.25455347 0.032365855 0.55414486 0.40869936 -0.40325016 0.15784366 0.5002597 0.37240472 0.104411826 -0.17711528 -0.2347666 0.14537857 0.027586326 0.03766567 -0.19937561 0.094828196 0.1896569 0.2658871 -0.15697592 -0.22801743 -0.35627943 0.34065598 -0.26765454 -0.71240765 -0.23954162 -0.01762848 -0.50693387 0.064982265 -0.029964961 0.3205932 -0.30602923
717 0.059957154 -0.01240081 0.1783669 0.5992245 0.34156314 -0.14482643 0.5976404 -0.103537135 0.46527708 0.29986876 0.14349833 -0.04259873 0.34814832 -0.11417368 -0.12268589 -0.18199457 -0.008965478 -0.35392326 0.05281221 0.0857916 0.13037455 -0.45283908 -0.17882621 0.33098632 -0.15805508 0.34333417 -0.05384302 0.18377596 -0.14525867 -0.0059770015 -0.09079512 0.08174747 -0.06330285 0.49893537 -0.06251194 -0.44117436 0.24116434 0.11216564 -0.0071120188 0.010520836 -0.13302396 -0.36644918 -0.32677788 -0.21063115 0.019137353 -0.3482007 0.6106823 0.6217571 -0.049661882 -0.2906519 0.087896384 -0.32619953 0.016753664 -0.5497313 -0.13617162 -0.24603535 0.28722364 0.02593204 0.3168907 0.06442248 0.26283076 0.18109867 -0.32702243 -0.15164432 0.41315943 0.30819863 -0.62580013 -0.012755497 0.2656571 -0.10876934 -0.48790595 0.16534522 -0.47555155 -0.15880765 -0.15520298 -0.06337685 -0.3224576 -0.21795604 0.10301393 -0.331927 -0.12523036 -0.09120497 0.06982347 -0.19751264 -0.25190145 0.17518745 -0.29710224 0.32250127 0.09015332 0.13868949 -0.15075041 -0.37929583 0.15631194 0.189274 0.23802319 -0.25495976 0.08501955 0.032252897 0.10504361 0.5714629 -0.033656243 -0.17740504 0.043028526 0.41777396 0.37360454 -0.11891261 -0.19566576 -0.056784447 0.1826306 -0.033496242 0.26289174 -0.13527727 0.00058560795 0.28190595 0.010644615 -0.3175396 -0.29309413 -0.55144215 0.5221342 -0.3321021 -0.7464376 -0.20576276 -0.05065305 -0.54273534 -0.047400206 -0.114185296 0.30154076 -0.23702623
645 0.14852737 0.045010176 0.073296815 0.27057186 0.6630198 -0.035640854 0.3521414 -0.12154248 0.37667674 -0.05475084 -0.003280922 0.13753289 -0.20079276 0.039930005 0.011077445 0.11915648 0.13238946 -0.09293101 0.21547802 -0.063486494 -0.047884036 -0.1822728 -0.19517651 0.14611802 -0.3317743 -0.0008198203 0.033721562 0.24553125 -0.37166804 -0.22076653 -0.023405964 0.15661629 0.02143237 0.277287 0.24242298 -0.3444007 0.048684377 -0.1883767 -0.10680853 0.11912536 0.037952174 -0.14395483 -0.092001 -0.1625623 -0.06936991 -0.09024893 0.47479525 0.67580175 0.4685302 -0.34164584 -0.24824154 -0.21024373 0.16332887 -0.22326364 -0.60125786 -0.1811796 0.54427385 0.0057826275 0.24401379 -0.2926952 0.19185874 0.27443162 -0.31184962 -0.07135155 0.5962718 0.12128802 -0.28247678 0.04452476 0.19354951 0.12576559 -0.101096116 0.110585675 -0.7374938 -0.33927938 0.016284276 -0.021321364 -0.22946845 0.101659186 -0.03649949 -0.29269764 -0.19348954 -0.010389977 0.08235924 -0.004288919 -0.19830015 0.12134446 -0.35269842 0.18761206 0.38866112 0.10912293 0.13310371 -0.6663207 -0.07839601 0.14189382 -0.17037068 -0.030029586 0.0037026543 0.29724553 0.10699414 0.48780128 0.5413427 -0.48499534 0.22391748 0.57382184 0.28257248 0.072647884 -0.18441941 -0.13105801 0.16121757 -0.019709561 0.004181884 -0.3291472 0.13041547 0.10982228 0.23254341 0.06630347 -0.24003989 -0.46685323 0.21961352 -0.19235574 -0.7704646 -0.2798255 -0.1669051 -0.4672288 0.033937022 -0.021410013 0.38003126 -0.2999712
683 0.0076126913 0.041545622 0.15715022 0.64269555 0.31617004 -0.19350749 0.6476006 -0.07014437 0.50466937 0.31884378 0.15617833 -0.0022457475 0.32797676 -0.06266139 -0.10427305 -0.17564806 -0.061624587 -0.3151159 -0.02032966 0.14712614 0.13082103 -0.42075035 -0.20773055 0.23531605 -0.14087759 0.32674065 -0.069777 0.18422289 -0.051647786 -0.0169485 -0.13363212 0.038853157 -0.039931856 0.51460475 -0.09692567 -0.43224168 0.26902735 0.12180819 -0.01507606 -0.009467355 -0.16550629 -0.3840925 -0.3514344 -0.19773036 0.001927449 -0.36149925 0.5954395 0.60529846 -0.049362525 -0.25166488 0.12511376 -0.37290075 -0.035967123 -0.5703758 -0.104986034 -0.19572197 0.22692011 0.08736282 0.2954406 0.09452229 0.21991774 0.19056138 -0.35031265 -0.13935658 0.42339957 0.30039677 -0.6439036 -0.020707456 0.17576186 -0.12982395 -0.5162668 0.13722064 -0.4320151 -0.11778545 -0.1542275 -0.04421842 -0.31372333 -0.28600374 0.15390465 -0.36189127 -0.10789361 -0.06280725 0.009334667 -0.19653781 -0.29705718 0.15966451 -0.3401639 0.3139799 0.07005353 0.081192546 -0.14799075 -0.348153 0.23384476 0.15360783 0.27851936 -0.28212193 0.04828599 -0.011113833 0.1819379 0.5755801 -0.07452251 -0.21078272 0.044957567 0.383216 0.40597996 -0.15045625 -0.14416285 -0.05410913 0.16195032 -0.016364235 0.275573 -0.14355926 -0.030901501 0.2662174 0.022840561 -0.3590413 -0.3023801 -0.4847602 0.47403637 -0.43269756 -0.7520363 -0.18276592 0.011555544 -0.5723917 -0.08359124 -0.13588148 0.3001724 -0.22074248
642 0.39497387 0.026701948 -0.13262624 0.14074366 0.7503588 0.014318325 0.29575783 0.02061868 0.62761176 0.12199784 0.12590759 0.14188626 -0.117883496 0.14161812 -0.0087293405 -0.023216115 0.22200134 -0.18793035 0.23720665 0.06507617 -0.09448762 -0.45110777 -0.24162585 0.015397217 0.0039368374 0.067378856 0.19976944 0.25195664 -0.29799575 -0.042793114 -0.35032365 0.11392756 0.021678323 0.46763238 0.22549343 -0.67388517 -0.017082993 -0.1587818 -0.12505502 -0.0706898 0.015374372 -0.29796493 0.071717195 -0.1869778 0.036445536 -0.030008048 0.39097938 0.57650393 0.12981683 -0.25725412 -0.2791542 -0.13452275 -0.24144065 -0.5532621 -0.4222115 -0.18574338 0.28133354 -0.08395461 0.29500556 -0.22553304 0.19583865 0.0650518 -0.23939988 -0.058621835 0.35944307 0.26369178 -0.3419446 -0.18470344 -0.025607942 0.17319557 -0.02344592 0.12599784 -0.60761917 -0.2294318 -0.07839333 -0.045149125 -0.1740111 -0.025030252 -0.017091867 -0.25166282 -0.42936552 -0.2590669 -0.0710177 -0.02546565 -0.10102148 0.1743712 -0.06796101 -0.113492705 0.1342077 0.2749354 0.18169487 -0.2881877 -0.0039228876 0.13038735 -0.044647396 -0.06269549 0.025635721 0.14753805 0.13579322 0.66754854 0.24823803 -0.5200839 0.33359957 0.4888362 0.09900678 -0.12806311 -0.22040938 -0.25106466 0.0795261 -0.08604411 0.15301849 -0.17854531 0.031214818 0.027293693 -0.045383662 0.050699357 -0.079133995 -0.1883483 0.4738751 -0.4910566 -0.70632976 -0.079032354 0.097087264 -0.4072182 -0.14158083 -0.04548299 0.03613828 -0.49091876
786 0.23295185 -0.26039013 0.34770793 0.49833137 0.5474498 -0.07016626 0.6215949 -0.29174796 0.43128198 0.27589288 0.012403542 -0.04140286 0.39315736 -0.1535812 -0.08997916 -0.14055707 0.16480428 -0.51392305 0.27744648 -0.12858966 0.08330883 -0.40916374 -0.08604183 0.50160193 -0.12132488 0.3386443 0.030515555 0.17238128 -0.31591704 0.07536899 -0.10363705 0.043860175 -0.06573671 0.51565284 0.1423098 -0.5560119 0.38668033 -0.07468956 -0.07776779 0.012449251 0.09260085 -0.5960143 -0.44843835 -0.35155255 0.080514595 -0.20398457 0.44497287 0.75582016 -0.16319668 -0.24067204 -0.06374045 -0.260818 0.06346653 -0.5365173 -0.22660735 -0.36950693 0.35998654 -0.11991458 0.37313214 -0.06565349 0.17373265 0.2244934 -0.28309086 -0.23116633 0.4739138 0.29546493 -0.5465016 0.0053244284 0.38844284 0.13216336 -0.2938317 0.35705656 -0.5925706 -0.26112184 -0.020348571 -0.063358 -0.478541 -0.10951505 0.09393541 -0.3082559 -0.27346328 0.057206903 0.023468645 0.010068033 -0.18339796 0.16413587 -0.111784 0.34834078 0.2834175 0.23391514 -0.07292301 -0.42755818 -0.021811077 0.22323619 0.17026865 -0.21797492 0.27109724 0.22502598 -0.030341836 0.6107132 0.11580097 -0.17875189 0.09029334 0.44592205 0.14001983 0.015550977 -0.31945586 -0.006919222 0.28189713 -0.16020493 0.30569068 -0.11236669 0.051141113 0.23468065 0.025864447 -0.23462681 -0.5163965 -0.83161354 0.6576611 -0.21063617 -0.80501276 -0.18129978 -0.28696594 -0.43073496 -0.02136628 0.010164789 0.41605875 -0.399656
612 -0.08594903 0.1181726 0.24638271 0.3096052 0.47492585 -0.016857479 0.29517937 -0.11456327 0.55176497 -0.08364452 -0.07084925 0.20353939 -0.18563922 0.17892823 -0.06684677 0.19412722 0.07250333 -0.18937412 -0.10804999 0.026927186 -0.04968589 -0.118318565 -0.006494211 0.03480103 -0.30571255 -0.09447554 -0.019533357 0.24447447 -0.31452838 -0.2897734 0.010446547 0.031435132 0.14782396 0.07735639 0.21655586 -0.21434851 0.13419107 -0.19338514 -0.051910236 0.081392355 -0.05397642 -0.15790011 -0.25533345 -0.119575 -0.2027416 0.09285594 0.4485477 0.84942335 0.44802022 -0.47845033 -0.121594414 -0.3397321 0.22991754 0.027771736 -0.67621166 -0.06475096 0.5603941 -0.0067290333 0.25013968 -0.2893749 -0.13137141 0.26971358 -0.32171008 -0.020315887 0.62813693 0.07621073 -0.32270902 0.1834525 0.0577044 -0.15955299 -0.16839905 -0.07009218 -0.64540136 -0.32626563 0.12110587 -0.019622704 -0.12862273 -0.02991843 0.023643957 -0.37341613 -0.035952803 0.18934104 -0.03079008 -0.020019673 -0.2691608 -0.022273974 -0.6401618 0.3755855 0.4754851 0.005316273 -0.05020431 -0.8398766 0.049526025 0.070765704 -0.025954781 -0.019642657 0.067787595 0.14331561 0.18731523 0.2880206 0.6015881 -0.29122716 0.25339824 0.45221195 0.37778872 -0.06666199 0.10635523 0.049061835 0.05236937 0.15394554 -0.044226844 -0.5357649 0.053120576 0.08181545 0.21178025 -0.012047421 -0.19458081 -0.50534016 -0.030999959 -0.25341666 -0.84536076 -0.47344846 -0.19151028 -0.5284548 -0.006010847 -0.100216776 0.6579713 -0.12207127
714 0.06477016 0.05695681 0.044112958 0.4427538 0.50470793 -0.06017979 0.31397057 -0.13400242 0.39248317 -0.04809587 -0.004353076 0.09559637 -0.13195895 -0.097030535 -0.025689999 0.11901207 0.18729837 -0.2859685 0.1697095 0.048091944 0.08661426 -0.32246643 -0.056364555 0.22827843 -0.31954935 0.0568954 -0.08517863 0.22234756 -0.4132074 -0.17171781 0.0791102 0.12367939 -0.0540327 0.12874353 0.19956161 -0.27939278 0.02528924 -0.016242 -0.029483994 0.29364237 -0.08278014 -0.08454473 -0.12472509 -0.14842686 -0.12875615 -0.10022209 0.5274302 0.7192073 0.33456117 -0.45806578 -0.29652813 -0.28011543 0.38489357 -0.23160616 -0.65066963 -0.23451816 0.5889929 -0.14500697 0.069160916 -0.31755537 0.17414324 0.3073609 -0.30922064 -0.14582351 0.5895664 0.1740065 -0.3879715 0.094844595 0.29204664 0.014769471 -0.26756197 0.0232277 -0.7701561 -0.38779488 -0.14840496 0.07257813 -0.23156774 0.06479821 -0.10081396 -0.43057773 -0.10931671 0.027566528 0.108151145 -0.08694187 -0.2040125 0.12306606 -0.34882608 0.34817827 0.31295684 0.11178965 0.019622412 -0.7926289 0.04997542 0.14551613 -0.085619554 -0.028840706 -0.15243988 0.27198216 -0.11644286 0.4448987 0.52504253 -0.25860792 0.15974681 0.49923787 0.3337081 0.0728232 -0.13308823 -0.13008535 0.1366304 0.042693555 0.029402489 -0.2714314 0.10953663 0.20058233 0.27901834 -0.23989749 -0.24483673 -0.47060665 0.3214608 -0.15188277 -0.75864303 -0.3134643 -0.0722871 -0.46931362 0.10971286 -0.0107347565 0.5388659 -0.24537115
577 -0.032148667 0.053871 0.27451542 0.2393543 0.4877291 -0.10186277 0.34103617 -0.0805917 0.5233057 -0.12948148 -0.060915507 0.38774306 -0.33851323 0.3683069 0.042367354 0.2248247 0.1619055 -0.09423353 -0.060884386 0.024154425 0.008140054 0.024996847 -0.025787124 -0.17691441 -0.22848356 -0.16419674 -0.017048249 0.20421529 -0.23174343 -0.17838311 -0.051919077 -0.046104506 0.18035468 0.0642526 0.3156427 -0.24571776 0.103906415 -0.21319285 -0.17147349 0.059799194 -0.019043252 -0.16097178 -0.26569235 -0.076469555 -0.10272304 0.09980192 0.31574377 0.7323055 0.52378047 -0.4128756 -0.15109578 -0.36344102 0.07853535 0.051408645 -0.7127603 0.036719084 0.49423602 -0.07203275 0.24409917 -0.28790966 -0.14993685 0.17552377 -0.21582931 -0.04328045 0.64331913 0.00022700167 -0.36204773 0.17768802 -0.13027197 -0.055305194 -0.078124695 -0.010156575 -0.55215794 -0.28080615 0.2000242 -0.09882234 -0.058099896 -0.045473363 0.10895586 -0.365649 -0.09447692 0.20109066 -0.20303243 0.11278112 -0.35816404 -0.08845923 -0.56895596 0.17621742 0.5070438 -0.015192853 0.01649857 -0.7040462 0.086895734 0.044619948 -0.045295108 -0.034639414 0.0502833 0.12201902 0.2944926 0.22057709 0.58647203 -0.40465802 0.22056639 0.4282891 0.31834066 0.013892317 0.04916317 0.03252516 0.075260095 0.064670965 -0.10283851 -0.5515063 0.061594557 -0.025518382 0.18245149 0.094940506 -0.26317075 -0.37684768 -0.13430473 -0.39552453 -0.85299563 -0.31448224 -0.08822313 -0.51843554 -0.12247078 -0.10557416 0.52980286 -0.16244687
608 0.36150378 0.17203599 -0.068955906 0.11803021 0.77725106 0.026459932 0.22395036 0.14810489 0.7474849 0.054728687 0.15899362 0.21428429 -0.25838068 0.26134017 0.020901877 0.040345453 0.18098271 -0.08032997 0.15346323 0.12952194 -0.18207403 -0.33942607 -0.24129243 -0.06907933 -0.10087162 -0.08368624 0.19902156 0.28889722 -0.31015483 -0.1831375 -0.3106026 0.12988836 0.08220549 0.42720944 0.18436381 -0.603717 -0.18467641 -0.19819184 -0.13617793 -0.0334652 0.010708538 -0.11932444 0.10664123 -0.105857775 0.016144346 -0.075630374 0.5119443 0.6368635 0.3967355 -0.4217728 -0.24130763 -0.17360653 -0.24477094 -0.37567452 -0.5310818 -0.06669988 0.40470594 -0.07111223 0.39583248 -0.27326643 0.16270241 0.055421013 -0.14405608 0.02513076 0.4474979 0.20277 -0.3724725 -0.13794802 -0.17775083 0.010400923 -0.044122785 0.0037803892 -0.6640123 -0.25825593 0.013096066 -0.1849518 -0.00563009 -0.03257008 -0.022607425 -0.30671632 -0.36346593 -0.29683754 -0.05282424 -0.025601573 -0.3032597 0.09090915 -0.3526906 -0.142682 0.25009993 0.22771963 0.20583501 -0.5015441 0.0336936 0.14959368 -0.10957492 -0.07185764 -0.057881072 0.0661639 0.354414 0.5461748 0.41012636 -0.63783634 0.40242887 0.5698817 0.24303122 -0.19404624 -0.12618217 -0.19016874 -0.017539186 0.055497605 0.056837387 -0.39267567 0.023114169 0.0055271867 -0.16737333 0.10647288 -0.006117728 -0.13237698 0.23393938 -0.51451415 -0.82083064 -0.22149149 0.1390116 -0.57848907 -0.19946699 -0.17770512 -0.0058045317 -0.38637155
615 -0.045419116 -0.09874757 0.3800431 0.60355335 0.3374824 -0.20404962 0.6899048 -0.22406504 0.6231871 0.22486511 0.041468184 0.21066658 0.3115131 0.077565216 -0.13512166 -0.032001186 0.030152744 -0.4977541 -0.17589097 0.09458114 0.08981836 -0.31129035 -0.12448927 0.18027411 0.023314925 0.25236568 -0.022385156 0.15850648 -0.08541679 -0.011070395 -0.24125102 -0.12658307 0.15461999 0.39698276 0.026548177 -0.5404471 0.52441466 -0.0713497 0.0008767181 -0.086437404 -0.08323025 -0.7048985 -0.644472 -0.28168944 -0.08607747 -0.042202175 0.34222707 0.79929835 -0.10353697 -0.24122287 0.12910323 -0.46191087 -0.039487578 -0.3375964 -0.21801795 -0.23093982 0.14340577 -0.024458785 0.3592425 -0.00447488 -0.22630271 0.1956781 -0.33297446 -0.14871731 0.54438287 0.32538867 -0.6190044 0.10043927 0.009238055 -0.19138135 -0.38072494 0.09987754 -0.38054952 -0.18046635 0.13917938 0.019545848 -0.4032101 -0.40282282 0.24199648 -0.52429223 -0.1412485 0.1978993 -0.25889248 0.08102209 -0.29145944 0.0021282271 -0.40833595 0.4644554 0.30595368 -0.015228261 -0.19892412 -0.45051363 0.25765634 0.07932643 0.38065544 -0.27341148 0.23842964 -0.050866563 0.2361295 0.4624758 0.04738646 -0.1424117 0.17497113 0.28090668 0.28927666 -0.14957564 0.02514552 0.11061206 0.18922436 0.027041225 0.22882843 -0.23118924 -0.04404452 0.0911741 0.024247363 -0.32425508 -0.51688224 -0.74116737 0.3678676 -0.5176387 -0.83334213 -0.23502426 -0.19011284 -0.5006675 -0.2174276 -0.06231125 0.5893295 -0.22355285
646 -0.0487991 0.14064144 0.1286521 0.3344832 0.49774945 -0.049873285 0.32800096 -0.08967063 0.46785852 -0.03501887 -0.051021814 0.1408226 -0.18525958 0.08520907 -0.050112348 0.13523617 0.025976783 -0.083404526 -0.016564153 0.041722387 -0.06122028 -0.16202284 -0.094514534 0.07656531 -0.36916584 -0.026619997 -0.046639763 0.24486372 -0.29903963 -0.2930192 0.029850187 0.109889165 0.07483742 0.1577939 0.20030597 -0.23095937 0.078414135 -0.1287856 -0.013720391 0.14590725 -0.06589637 -0.08171852 -0.15763937 -0.084055796 -0.16675973 -0.06888934 0.49785474 0.7288572 0.45098388 -0.42580613 -0.14204825 -0.27550104 0.23746121 -0.092997774 -0.6211323 -0.09460068 0.54851097 0.025250202 0.18999662 -0.24539776 0.07968596 0.29109478 -0.33641595 -0.0533258 0.61044 0.10051725 -0.32696155 0.1482787 0.11964004 -0.076071136 -0.22752303 -0.008368683 -0.69973016 -0.35244352 0.015312159 -0.0071350345 -0.14872953 0.013463257 -0.022713868 -0.34604365 -0.07520527 0.089440815 0.041362863 -0.055621043 -0.25808504 0.058121264 -0.5647538 0.27645615 0.3873318 0.040655468 0.03768058 -0.7815984 0.061497968 0.07929684 -0.10549142 -0.038734514 -0.011687312 0.19121653 0.14541034 0.38848436 0.5653102 -0.37765127 0.20023671 0.49812418 0.41404787 0.012225635 -0.022350727 -0.07455996 0.08917382 0.1149908 -0.0053048646 -0.42359293 0.071184635 0.14280917 0.25804007 -0.058831945 -0.19588424 -0.395246 0.07092643 -0.23680566 -0.7798189 -0.4057947 -0.11874093 -0.53783584 0.05501795 -0.113065 0.53326637 -0.17283832
538 0.031420127 0.07735392 0.099799536 -0.16523413 0.7372927 0.21053183 -0.049554504 0.13363694 0.725681 -0.13721023 0.033581693 0.10131777 -0.15180187 0.3888357 -0.2920318 0.1859415 0.056425326 -0.11898973 -0.18185481 0.106990606 -0.4175358 -0.087429345 -0.10137701 -0.18060301 0.044569787 -0.060198247 0.13368036 0.16936944 -0.31361282 -0.37921315 -0.23154317 0.23225947 0.27376983 0.30673632 0.33390528 -0.5492606 -0.08415739 -0.49734557 0.11102437 -0.32655337 -0.058817655 -0.27170157 0.077188194 -0.114310995 -0.26508266 0.34359312 0.40700865 0.66090846 0.24976704 -0.344426 -0.19321062 -0.18432797 -0.26976284 0.10583921 -0.5971514 0.04919918 0.5516883 0.074146315 0.58592904 -0.22956243 -0.1384952 -0.13272506 -0.3154 0.40819213 0.37272698 0.28318223 -0.19777976 -0.04309472 -0.30963105 -0.13572979 0.20715575 -0.23328361 -0.3238869 -0.21146756 0.36100847 -0.39290655 0.026519055 0.00421323 -0.15671366 -0.14364357 -0.21579497 -0.12615399 -0.07159108 0.056362327 -0.14472292 0.012785774 -0.66225 -0.11324442 0.3230591 0.2635646 0.1359956 -0.42182586 -0.2006361 0.032359067 -0.25668168 0.05741239 0.33220598 0.011833789 0.2903187 0.3487044 0.4034375 -0.31655374 0.43665466 0.43450075 0.3028771 -0.16830006 0.2387175 0.025088396 -0.11739204 0.26393923 -0.065896265 -0.5187846 0.11665235 -0.21919507 -0.21515383 0.363826 0.059984047 -0.29364547 -0.056059234 -0.32598242 -0.72948074 -0.26923198 -0.11300247 -0.36778527 -0.120394506 -0.24438019 0.07689386 -0.44354135
745 0.19733654 -0.046534985 -0.1805294 0.27523383 0.5354805 0.041753277 0.09522225 -0.020638267 0.71912366 0.14065522 0.088701114 0.32168424 -0.18734898 0.066297695 -0.021763694 -0.01777785 0.5472891 -0.42945084 0.22346169 0.15913644 0.13105722 -0.56589156 0.0934136 0.016518168 -0.0139454035 -0.01259488 0.10997625 0.15775055 -0.3565596 0.0114646265 -0.20647961 -0.04061834 -0.0821573 0.06313334 0.32425132 -0.5527432 -0.08751806 0.048779767 -0.073191956 0.20964953 -0.09604824 -0.1388217 0.018212 -0.19204292 0.102390975 0.10440414 0.27601358 0.645394 0.0069788825 -0.38217384 -0.5387068 -0.113804996 0.22369483 -0.4807105 -0.76731426 -0.14399298 0.40953785 -0.5040789 -0.13978241 -0.367242 0.04105052 0.17979582 -0.15792131 -0.3342278 0.35887086 0.23658931 -0.3552474 -0.06498373 0.028551865 0.10460319 -0.1703829 0.020665178 -0.7190846 -0.3492932 -0.30629948 0.1508457 -0.09031208 0.017648218 -0.16584077 -0.48227122 -0.36183003 0.013969147 -0.18883927 0.04068038 -0.11184541 0.14173387 0.07548324 -0.0040222085 0.12373403 0.23497191 0.002885279 -0.59141403 0.1706915 0.0585078 0.064854026 0.010982936 -0.29056403 0.14316341 -0.3249926 0.56677574 0.4717497 -0.09828138 0.23407437 0.30337998 -0.052773137 0.0044926414 -0.11656521 -0.208025 -0.013623382 -0.004447531 0.10308706 -0.18298022 0.01205768 0.087777026 0.147828 -0.4179452 -0.11903363 -0.19327395 0.49037325 -0.4914796 -0.72437394 -0.11990372 0.29244775 -0.42330348 -0.0024832904 0.061359145 0.26737422 -0.48712394
643 0.4131175 0.06748693 -0.01448312 0.19596231 0.79092425 -0.017776838 0.38745362 0.017178204 0.6023659 0.10806698 0.083127335 0.15623942 -0.098936796 0.12590376 0.02210572 -0.043327298 0.14332524 -0.1472871 0.23770939 0.035769247 -0.13536698 -0.36171356 -0.29484478 0.0758167 -0.048524395 0.07101613 0.22013062 0.3037426 -0.25878307 -0.09062166 -0.3473669 0.08846118 -0.003509169 0.56300664 0.1453187 -0.6519653 0.04280956 -0.20744115 -0.16326138 -0.077686764 0.08133045 -0.3158001 -0.006331678 -0.19857112 0.077351056 -0.13924563 0.48584142 0.6208747 0.22594279 -0.23807415 -0.21683148 -0.15262851 -0.25163564 -0.5641877 -0.3235667 -0.18476 0.26221603 0.018610353 0.3476693 -0.22979042 0.24463347 0.14483468 -0.2125646 -0.02855835 0.455701 0.23873045 -0.38099825 -0.1725099 -0.022679336 0.13021556 -0.06382565 0.18572421 -0.6597767 -0.17911382 -0.0041616936 -0.07851085 -0.1863503 -0.03548842 0.03130607 -0.26885432 -0.42564827 -0.2481049 -0.026701713 -0.00780206 -0.20010367 0.15888235 -0.15335585 -0.051017646 0.23443806 0.22543983 0.184041 -0.34167263 -0.01812689 0.14359118 -0.017159907 -0.108967185 0.039227873 0.14826624 0.27718416 0.6541944 0.2601661 -0.65104145 0.3317707 0.59073335 0.15215947 -0.16412343 -0.26798218 -0.20823151 0.095174864 -0.14760716 0.17019019 -0.22878991 0.006245197 0.061267626 -0.043156046 0.08339828 -0.14191447 -0.2518152 0.45513675 -0.5080923 -0.7981585 -0.09523015 0.013715544 -0.51013964 -0.17019771 -0.063146085 0.06760886 -0.4513721
715 0.14023657 0.12133982 -0.0033375006 0.5111937 0.47420877 -0.014245502 0.25484768 0.0070536667 0.5414614 0.17923409 0.13103074 -0.124116406 0.15120354 -0.19741319 -0.11626451 -0.10195903 0.054492507 -0.3663304 0.1723433 0.17454123 0.05534828 -0.54413986 -0.15751748 0.37451637 -0.25600132 0.21632124 -0.0032906511 0.2769754 -0.32249787 -0.16068532 0.012021428 0.18400557 -0.16282527 0.35324547 -0.038248535 -0.37973553 -0.042882487 0.13320157 0.0156033775 0.17545493 -0.12921794 -0.046359856 -0.012827811 -0.110779196 -0.09859427 -0.2651278 0.74529994 0.70929474 0.12938811 -0.42230007 -0.16643879 -0.22437829 0.1930383 -0.506237 -0.38610265 -0.26681358 0.47321182 -0.09119933 0.17269081 -0.13146906 0.39559272 0.21592382 -0.28989983 -0.08098268 0.41622198 0.265191 -0.49926755 -0.06213711 0.33482972 -0.12816103 -0.42750594 0.049734645 -0.73010665 -0.3072846 -0.32689884 -0.025180526 -0.18321978 -0.06140003 -0.13184178 -0.34519467 -0.1385692 -0.16821331 0.2260865 -0.29603198 -0.23792844 0.23361082 -0.32313588 0.30300358 0.06195425 0.27010158 -0.07387068 -0.6298062 0.10150996 0.16842565 0.037612684 -0.14755225 -0.12847106 0.10622116 -0.08643596 0.5831343 0.2007247 -0.2226944 0.1321252 0.5282295 0.37038448 -0.13192326 -0.20616695 -0.14129733 0.081364535 0.04429151 0.1835014 -0.19933751 0.013078474 0.3163683 0.06341508 -0.33117622 -0.05851885 -0.3534604 0.49788198 -0.24900384 -0.7732764 -0.2968388 0.086771175 -0.5876183 0.047364637 -0.14686333 0.29683465 -0.30175048
748 -0.048626836 0.027072817 0.03907292 0.42358592 0.3765845 -0.018891998 0.14395602 -0.13917062 0.42349112 -0.08904119 -0.010491399 0.1464101 -0.15729623 -0.08113522 -0.0671604 0.15582596 0.3106031 -0.38558847 0.105599575 0.079339184 0.21201997 -0.3748747 0.0733614 0.17173128 -0.2742151 0.029689692 -0.074448384 0.18858334 -0.41214085 -0.13334604 0.09871646 0.07432125 -0.079297535 -0.09561072 0.26489228 -0.22193153 -0.010940388 0.050075464 -0.048802946 0.33343852 -0.16433702 -0.047355432 -0.1259033 -0.161273 -0.123891465 0.06316118 0.44743562 0.748077 0.2731622 -0.49246156 -0.35413253 -0.3069396 0.48140877 -0.13439737 -0.75740266 -0.18733057 0.60160506 -0.2672104 -0.06045372 -0.3458652 0.067429796 0.27724174 -0.319261 -0.18497014 0.5347871 0.16541602 -0.3681681 0.110546574 0.30614522 -0.071503 -0.28006855 -0.057460852 -0.6932207 -0.3884156 -0.20813565 0.15047315 -0.17915523 0.041388385 -0.1339245 -0.46938694 -0.059839047 0.13970686 0.0479082 -0.08434844 -0.1330004 0.10351313 -0.33054757 0.41322592 0.28267092 0.12827002 -0.08422651 -0.8230316 0.089430965 0.102965884 -0.045851875 0.029895576 -0.17158353 0.22316347 -0.27578506 0.38504872 0.54763126 -0.04312477 0.1336809 0.4062804 0.26199895 0.06451259 -0.03590455 -0.09976971 0.06753469 0.094402105 0.01255556 -0.27777603 0.115165666 0.09895878 0.32798904 -0.3047306 -0.16982621 -0.46894053 0.22673523 -0.17024639 -0.73788357 -0.3011172 -0.0069895075 -0.43116844 0.116337866 0.02481227 0.6296389 -0.21279839
576 0.14713685 0.025583435 0.3592073 0.15988803 0.5658639 -0.037356444 0.34049088 -0.032178175 0.6085917 -0.05642258 0.01982667 0.3377269 -0.23578654 0.4549563 0.028907083 0.17694257 0.1390634 -0.1371021 -0.022500005 -0.0059579606 -0.037670497 0.009132241 -0.09112904 -0.13442083 -0.16947107 -0.14744233 0.12982935 0.23196957 -0.20932868 -0.1361082 -0.16959108 -0.05697085 0.18501234 0.2060887 0.26334646 -0.3312038 0.08257911 -0.25828186 -0.22549827 -0.065977775 0.059322104 -0.2184708 -0.22226731 -0.11176482 -0.041024745 0.055607464 0.38021058 0.7502701 0.5121857 -0.39242268 -0.08820085 -0.33826092 -0.17064224 0.026151989 -0.6023699 0.039814007 0.4074676 -0.05440807 0.4437431 -0.23886949 -0.11986269 0.078878105 -0.15798776 0.04121365 0.6058377 0.0015837733 -0.41889948 0.086464405 -0.22165138 -0.08586973 -0.016551927 0.073526636 -0.52500015 -0.24632014 0.26312557 -0.22760482 -0.0047032563 -0.09321675 0.1761337 -0.30628365 -0.17053124 0.07139417 -0.2144681 0.14011702 -0.3916185 -0.08506955 -0.55958235 0.06995589 0.4913428 0.09307993 0.058971744 -0.5700607 0.029358622 0.051177308 0.0064999103 -0.081332654 0.17446117 0.06873278 0.44897258 0.2406902 0.47059786 -0.49964523 0.26550207 0.46836913 0.25786477 -0.08940141 -0.025488604 0.08691306 0.033125933 0.02047759 -0.05004594 -0.5947619 0.021889033 -0.06745291 -0.049603395 0.24029572 -0.23616497 -0.39357835 -0.12941806 -0.47116137 -0.911705 -0.26769486 -0.08936614 -0.5851234 -0.24727616 -0.17565583 0.3430099 -0.23228422
581 -0.05756031 -0.07624248 0.38239664 0.72470045 0.24772497 -0.27569368 0.77546835 -0.15407546 0.6733589 0.20596872 -0.047687527 0.35819554 0.24875003 0.055517506 -0.05079142 0.017065592 -0.011722963 -0.44136494 -0.17830387 0.18220711 0.18172166 -0.2812738 -0.11076462 0.0181629 0.11847369 0.26175013 -0.0928223 0.2216362 -0.019195866 0.0067356164 -0.25623074 -0.11631253 0.2562852 0.33364758 0.0050076423 -0.52714473 0.5821747 -0.0053262683 0.026237916 -0.067022964 -0.07880964 -0.7289655 -0.7518849 -0.2581922 -0.029415509 -0.089807905 0.42015302 0.71116257 -0.1934525 -0.25839946 0.21525168 -0.51926535 -0.039914377 -0.42114854 -0.19396448 -0.18632175 0.15040591 0.0029741023 0.32705927 -0.017783869 -0.20747574 0.11994705 -0.3409437 -0.18699679 0.5416958 0.28297183 -0.6732155 0.09531146 0.0027981685 -0.21577132 -0.49536136 0.031036172 -0.36750194 -0.08972901 0.20914364 0.0006133935 -0.3914186 -0.4020844 0.26483518 -0.5648794 -0.09035043 0.16318946 -0.3294295 0.07184445 -0.27115443 -0.03096333 -0.40339196 0.34850672 0.3418906 -0.15597458 -0.2584178 -0.29207745 0.29514796 0.062897764 0.47415525 -0.2502491 0.14895731 -0.13290855 0.19175847 0.45714873 0.030529588 -0.23237665 0.26703623 0.29655424 0.34511855 -0.14600278 0.02050552 0.07651907 0.15323874 -0.096213885 0.23989268 -0.14670832 -0.04788108 0.10190034 0.04689792 -0.31478992 -0.50848955 -0.673523 0.3572097 -0.51511866 -0.7777947 -0.16660167 -0.06993506 -0.44656384 -0.22717822 0.02241129 0.6377528 -0.15623246
578 -0.15916516 0.05024806 0.29645365 0.30149966 0.43434486 -0.062606625 0.39144439 -0.16182452 0.56183016 -0.0016973272 -0.06875861 0.208649 -0.07175563 0.24893759 -0.15972291 0.16248243 0.041247968 -0.253313 -0.26809406 0.042227127 -0.12387824 -0.09248073 -0.00023638806 0.037040167 -0.20412365 -0.0030883057 -0.026383497 0.18155 -0.2231685 -0.25430298 -0.08163207 -0.0004692494 0.21245687 0.15467562 0.21045661 -0.31583384 0.2760172 -0.26255405 0.031046117 -0.045123745 -0.116349325 -0.37471846 -0.4236593 -0.1909463 -0.22583446 0.13027635 0.29708126 0.85197526 0.3071244 -0.42022303 -0.0005473089 -0.38987094 0.11038895 0.08031898 -0.54293567 -0.04058014 0.43492776 0.010208819 0.35119867 -0.17708945 -0.32471764 0.22574723 -0.29951674 0.01311498 0.59177446 0.15770207 -0.34927845 0.23970233 -0.068363145 -0.2368863 -0.14751358 -0.049665686 -0.4402552 -0.27875394 0.2884236 -0.042383134 -0.1874656 -0.16023315 0.09159033 -0.39450806 -0.024108615 0.2667528 -0.11502228 0.06109177 -0.2966375 -0.09713092 -0.72790635 0.39224154 0.44874743 -0.038011745 -0.0959787 -0.7518218 0.09260087 0.04155289 0.069070876 -0.10810608 0.23462439 0.06474706 0.33814836 0.27668044 0.47312212 -0.1962002 0.2126515 0.34845415 0.36283216 -0.097677454 0.17967656 0.11916321 0.08509631 0.24442908 0.023929458 -0.53446364 0.026231416 0.048911143 0.1115756 -0.09159823 -0.304272 -0.61619014 -0.013050198 -0.34417114 -0.8514416 -0.49079686 -0.29963747 -0.49761316 -0.11206406 -0.15846223 0.63178533 -0.11165578
611 -0.07908777 0.13551503 0.18104136 0.30213672 0.5297061 -0.01678508 0.2888184 -0.09427325 0.52757555 -0.070572235 -0.06376305 0.23316796 -0.25436056 0.19880241 -0.060935855 0.18776368 0.064032555 -0.1162413 -0.07870943 0.065889075 -0.07277667 -0.088379204 -0.07829657 -0.035537314 -0.31638804 -0.11130072 -0.008675977 0.24695219 -0.27291334 -0.29199603 -0.024448043 0.039333835 0.12770684 0.13276027 0.22679266 -0.24055551 0.11102457 -0.21378236 -0.056391012 0.08019181 -0.045596354 -0.1213711 -0.19193456 -0.07090054 -0.17684084 0.034541775 0.42194906 0.76943994 0.4819396 -0.40603814 -0.18037719 -0.30294678 0.1999505 -0.014716614 -0.6861568 -0.04810822 0.53484154 0.02562956 0.19481532 -0.28541923 -0.04535795 0.2688163 -0.3343311 -0.0028304162 0.6388545 0.0588421 -0.29019096 0.15206596 0.014828471 -0.09001501 -0.14281948 -0.045933675 -0.6538523 -0.31389418 0.09515074 -0.028917484 -0.11096966 -0.00044439943 0.011591874 -0.3619586 -0.08303049 0.18491152 -0.071662955 0.025145395 -0.28095096 0.024863902 -0.58231056 0.2834883 0.4359113 -0.011175934 0.009742614 -0.7976866 0.058813803 0.045770764 -0.08758483 -0.029170984 0.022272274 0.15317719 0.17816123 0.3235653 0.60915315 -0.38005546 0.24640161 0.47307396 0.3628424 -0.00845189 0.06471511 0.012897753 0.059917603 0.10392699 -0.05387451 -0.5100556 0.059490167 0.06013263 0.2572228 -0.00044714304 -0.21326715 -0.41919988 -0.030259153 -0.31941408 -0.8332795 -0.3929418 -0.1104868 -0.52403206 0.008794698 -0.11834605 0.5752888 -0.20186108
575 0.20734605 0.13449226 0.25188094 0.0950714 0.64662534 0.038167626 0.21950935 0.087214805 0.6892643 -0.063990645 0.061006922 0.21910435 -0.16514221 0.38127956 -0.034034595 0.11603031 0.10064523 -0.14889957 -0.027653472 0.04560842 -0.15614896 -0.06021905 -0.11150238 -0.10133573 -0.09604512 -0.14532189 0.1786379 0.27192038 -0.26061127 -0.20716871 -0.25152764 -0.014034726 0.114626095 0.30648533 0.17507055 -0.40335125 0.01856492 -0.26735222 -0.18702142 -0.13672101 0.05971634 -0.19523229 -0.07639692 -0.08906807 -0.060931955 0.10586938 0.49256903 0.73943156 0.44343928 -0.3864029 -0.13695757 -0.29143506 -0.22600992 -0.08226012 -0.4960478 0.008607769 0.36726257 0.024789646 0.43631923 -0.2721452 -0.05700421 0.07622794 -0.19545285 0.15883209 0.49465737 0.11029575 -0.37121108 -0.010171794 -0.23220097 -0.1274808 0.016217586 -0.010686161 -0.5469499 -0.19418363 0.16654648 -0.20898633 0.008112946 -0.068069585 0.088578485 -0.2586209 -0.20209686 -0.05869183 -0.13049677 0.03837609 -0.36343738 -0.0073046708 -0.5349919 0.0702504 0.40751693 0.13978589 0.085902676 -0.5557676 -0.016409725 0.13783017 -0.033359546 -0.049812578 0.14173007 0.04376366 0.41684633 0.31585523 0.40894005 -0.52467275 0.36218005 0.5209104 0.24638331 -0.24856736 0.024260307 0.07616227 -0.05586457 0.038493127 -0.0069428296 -0.57002217 -0.007734903 -0.06896621 -0.12281468 0.23900041 -0.043039486 -0.30686602 -0.026275799 -0.48516268 -0.8827482 -0.24750805 -0.07063901 -0.576469 -0.23635475 -0.17733374 0.25343016 -0.27995333
547 -0.1463919 -0.10735438 0.44272178 0.7638631 0.17133893 -0.3258373 0.81188726 -0.16832656 0.6540367 0.20061663 -0.09179162 0.40924504 0.21085127 0.098855734 -0.045011055 0.053914048 -0.02096416 -0.40442562 -0.2319719 0.18148349 0.21417242 -0.24367714 -0.059343945 -0.05450326 0.11489972 0.27166244 -0.15896428 0.19446446 0.026424507 0.021527333 -0.20913902 -0.10587358 0.32920286 0.26309776 0.05245641 -0.51343787 0.6085585 -0.025680153 0.059750866 -0.08400466 -0.12509611 -0.73883736 -0.8254146 -0.23929454 -0.033518273 -0.100071885 0.39007384 0.6725027 -0.21092387 -0.29260698 0.28286883 -0.5593768 -0.025753636 -0.36968827 -0.24713075 -0.1052722 0.20692475 0.0046571093 0.3569591 0.023091583 -0.25534403 0.08586876 -0.32262367 -0.20518275 0.58024514 0.23783399 -0.716323 0.1608799 -0.030788051 -0.23010468 -0.5399219 0.0122236 -0.2888618 -0.09968517 0.2696441 -0.07077829 -0.35782704 -0.42445898 0.2952185 -0.5522102 -0.040980034 0.21062863 -0.37144938 0.118620105 -0.2817325 -0.06822824 -0.46999574 0.30169785 0.36154196 -0.19890015 -0.2973484 -0.25595433 0.32622313 0.007379282 0.49248105 -0.25921395 0.16864441 -0.17532195 0.19671364 0.40729734 0.031168595 -0.18917854 0.22816865 0.22207265 0.39339072 -0.1080082 0.05750761 0.10059617 0.16409005 -0.06729532 0.21507935 -0.16557254 -0.03835987 0.08452499 0.062231693 -0.3254752 -0.57961 -0.67578435 0.30171072 -0.494136 -0.7697119 -0.17696586 -0.046851233 -0.44359428 -0.2185438 0.015789703 0.66166556 -0.106363565
676 0.49375048 0.063246034 -0.1688695 0.11484241 0.7705507 0.009220748 0.24876295 0.027205762 0.65781456 0.045916606 0.096007235 0.24378178 -0.23832408 0.17290032 0.112811744 -0.012501524 0.39879745 -0.27972075 0.3306637 0.0122953 -0.04480652 -0.4640789 -0.07677443 -0.023089396 0.035580922 -0.080375805 0.17191412 0.2302221 -0.43401688 0.04724904 -0.33822033 -0.0025896726 -0.0005332877 0.31887743 0.2949201 -0.64058745 -0.15624146 -0.13967758 -0.1914775 0.046645988 0.074697 -0.23963036 0.09367669 -0.15313147 0.099090554 0.055523895 0.36081704 0.60781866 0.16684721 -0.4009028 -0.40851507 -0.14603637 -0.17032117 -0.53168744 -0.56580746 -0.20002078 0.3411046 -0.31327182 0.20121077 -0.40192232 0.10894898 0.080913305 -0.11501841 -0.1173439 0.36347508 0.24388863 -0.36083105 -0.1470496 -0.07658612 0.20134248 0.021446709 0.07541151 -0.6899025 -0.30611593 -0.14326045 -0.014616667 -0.13818693 0.04040623 -0.014119583 -0.3061757 -0.4530309 -0.28541082 -0.096251 -0.01616859 -0.14215288 0.10112593 0.04594276 -0.14487064 0.17296948 0.28118303 0.26228562 -0.43969208 0.04280363 0.25983366 -0.06331333 0.03297089 -0.14945988 0.2049734 0.047050063 0.56583655 0.3972837 -0.50657314 0.40233752 0.44863492 0.027332176 -0.10014987 -0.19769816 -0.25799778 0.045589935 -0.041618913 0.114077285 -0.20529903 0.018326957 0.01929651 -0.13839741 -0.026599959 -0.069610216 -0.14207765 0.49366975 -0.46223143 -0.6969686 -0.094632946 0.16885069 -0.37910667 -0.1064136 -0.016153703 0.054857615 -0.45605063
609 0.28759125 0.19438766 0.0353516 0.18062392 0.756506 0.005212253 0.3188724 0.10465425 0.777467 0.014229143 0.08678374 0.26561338 -0.22738035 0.2930511 0.04173631 0.058430642 0.12317889 -0.07215052 0.09568631 0.11173341 -0.15270656 -0.24854118 -0.26297885 -0.10147882 -0.11665626 -0.12152512 0.20681931 0.33301893 -0.25404626 -0.20753798 -0.3141946 0.032106955 0.10834273 0.40247497 0.16213728 -0.52449536 -0.04163617 -0.20361868 -0.15881394 -0.05057776 0.06343741 -0.19254872 0.021580681 -0.06035789 -0.017189736 -0.06242873 0.53038704 0.71312344 0.41852576 -0.34430444 -0.20696792 -0.21828869 -0.23251033 -0.35843176 -0.51173717 -0.070583716 0.3230001 -0.01693293 0.3573668 -0.30126682 0.11885905 0.13293092 -0.22806802 0.029393647 0.5000178 0.13123286 -0.37508997 -0.088091925 -0.18935087 -0.01554763 -0.05998306 0.010821961 -0.7145295 -0.22041272 0.028199293 -0.119067036 -0.04181519 -0.049633123 0.048088152 -0.32235616 -0.31628332 -0.15626629 -0.113176376 0.010665117 -0.3178962 0.07625943 -0.3906712 -0.055556748 0.3252509 0.11939504 0.16347755 -0.5412262 0.048873134 0.1320638 -0.03717426 -0.064272694 -0.04251018 0.07571668 0.3471699 0.5176055 0.45510408 -0.6752802 0.4188575 0.56683356 0.2716547 -0.21284635 -0.100434326 -0.09727864 0.013797671 -0.011419882 0.038814735 -0.42137414 -0.029751247 0.014843601 -0.053366993 0.12686923 -0.060072925 -0.16602777 0.17103258 -0.53448457 -0.8614105 -0.23090094 0.09971467 -0.6034752 -0.19223924 -0.14675073 0.17291531 -0.35186085
648 0.11969499 0.044466976 0.357673 0.5368669 0.4224789 -0.0937207 0.4931999 -0.08022147 0.63538396 0.11021728 0.015123778 0.11916428 0.18521997 0.01499196 -0.06651436 0.0069710794 0.009293691 -0.41483182 -0.011016621 0.09898928 0.06703332 -0.34215334 -0.14647278 0.20542322 -0.0765678 0.13127187 0.053672086 0.3013125 -0.19416128 -0.0799135 -0.1701593 -0.03690207 0.035737395 0.38739774 -0.05324279 -0.4353975 0.335008 -0.036997467 -0.11352203 0.013707575 -0.0020089396 -0.41367257 -0.42716864 -0.2191525 -0.025860867 -0.11702541 0.61510015 0.8137569 0.08014921 -0.3726966 0.07830021 -0.40345618 0.004970769 -0.3996405 -0.20694502 -0.21373403 0.2585063 0.06463798 0.32278156 -0.11610799 0.035518564 0.2347807 -0.28132185 -0.07119059 0.5551931 0.22117794 -0.5451977 -0.0021344703 0.1596613 -0.21278627 -0.37400404 0.115715995 -0.5800418 -0.13548598 0.02518997 -0.033618473 -0.25728187 -0.24544296 0.17011814 -0.42211306 -0.15743843 0.021969728 -0.07614857 -0.05990274 -0.30888125 0.07111851 -0.41318262 0.42143646 0.3583767 0.041941606 -0.19132288 -0.538239 0.15196267 0.14731401 0.28197566 -0.22638191 0.114323966 -0.001993806 0.2182811 0.47057936 0.16005309 -0.35597566 0.25795317 0.51908475 0.33184603 -0.25589627 -0.05973972 0.053643066 0.07392115 -0.123792455 0.20238103 -0.30239087 -0.051573962 0.17622899 0.041375544 -0.15077762 -0.26929513 -0.5681924 0.33740368 -0.4468029 -0.8878968 -0.22154002 -0.12974684 -0.5836759 -0.17838451 -0.060071368 0.5551001 -0.18284525
539 0.14474136 0.076583974 0.1798669 -0.08488335 0.75351745 0.12891191 0.122886136 0.09016495 0.7382069 -0.18200323 0.016264401 0.17243817 -0.19025648 0.43736374 -0.17861284 0.22858948 0.13354856 -0.16582447 -0.13230783 0.045589805 -0.3287393 -0.08289845 -0.073910855 -0.1591796 0.041465238 -0.08666252 0.12902431 0.22111166 -0.35388967 -0.29658642 -0.27129984 0.12470403 0.25371483 0.31011754 0.30484018 -0.5465207 -0.016714845 -0.469818 -0.0076498473 -0.27372575 -0.024511877 -0.356277 -0.050221037 -0.16671409 -0.1625463 0.3208729 0.44250154 0.74636936 0.32970253 -0.4442329 -0.16905177 -0.26094407 -0.26976398 0.07025915 -0.56280595 0.009785445 0.506858 0.025385106 0.60548645 -0.31315657 -0.21332191 -0.040592495 -0.24731517 0.3340067 0.43873146 0.2787965 -0.27193305 0.017084606 -0.3158031 -0.15377131 0.1882016 -0.15276389 -0.39166245 -0.1916444 0.39982215 -0.33220133 -0.031983983 -0.016376354 -0.03386952 -0.23190263 -0.20432425 -0.11559839 -0.08840853 0.06775507 -0.23537754 -0.054613482 -0.6778998 -0.04112749 0.4201655 0.17259791 0.106937684 -0.4818971 -0.15845922 0.1183453 -0.15707012 0.040068217 0.2872475 0.038418017 0.40540394 0.33600304 0.45399022 -0.4078242 0.4884124 0.48330784 0.27113014 -0.24306995 0.19838299 0.06352967 -0.11654577 0.20212464 -0.03061885 -0.5768242 0.07478578 -0.1815012 -0.2532249 0.31902772 0.006165769 -0.3995035 -0.013550914 -0.37888026 -0.8427143 -0.29163605 -0.18529752 -0.41850474 -0.20148915 -0.18041423 0.18248147 -0.34027222
710 0.27347907 -0.054672707 -0.21961102 0.16763006 0.67774403 0.12520088 0.032713193 0.009895168 0.77915376 0.09336851 0.06522154 0.30943334 -0.2533527 0.09766026 -0.024483668 0.027767815 0.54792655 -0.40788305 0.2718965 0.15873967 0.060348637 -0.5633725 0.033663873 -0.034764063 0.04339669 -0.05115116 0.16065192 0.18016848 -0.3984309 -0.0056689056 -0.27611485 0.0022922528 -0.048681244 0.117429346 0.38223317 -0.64129627 -0.14401233 -0.060785353 -0.10641619 0.15495315 -0.045912255 -0.19038542 0.12350901 -0.17687689 0.09280735 0.18080996 0.2682291 0.658605 0.0043202955 -0.3691018 -0.60747737 -0.09703216 0.10003704 -0.48968375 -0.77897716 -0.1668724 0.4387864 -0.47081396 -0.028746061 -0.41311273 0.077036195 0.11400715 -0.18351148 -0.23835169 0.3511675 0.2434071 -0.31273854 -0.14745596 -0.019721821 0.15325956 -0.045871347 -0.0057560033 -0.7214044 -0.31537998 -0.24115936 0.07152588 -0.10115321 0.047087368 -0.18548952 -0.42725298 -0.445757 -0.060282007 -0.18691383 0.050688397 -0.070739605 0.14381073 0.05272489 -0.10005705 0.12999639 0.28310567 0.08349127 -0.54346716 0.08534261 0.08887048 -0.029209089 0.041958768 -0.24382141 0.16699477 -0.29848287 0.5998621 0.50043064 -0.19600014 0.3218963 0.37473416 -0.030853154 -0.008200969 -0.12866849 -0.22723167 -0.020518713 -0.0124930125 0.11011675 -0.18133856 0.049186658 0.010086021 0.07018749 -0.26024696 -0.0773909 -0.15738702 0.49443513 -0.5057506 -0.7312922 -0.081516944 0.30490956 -0.37797484 -0.027711164 0.048077986 0.19258307 -0.5637716
782 0.00073665613 -0.028518146 0.063083075 0.40148067 0.3436687 0.019374331 0.04390764 -0.12305411 0.389878 -0.0878446 0.024978869 0.08357364 -0.060885813 -0.13113342 -0.074052766 0.1312996 0.3441767 -0.48574367 0.18188657 0.07114562 0.2814774 -0.42718214 0.07579581 0.2707029 -0.23572312 0.04602518 -0.04505257 0.1655847 -0.4378322 -0.08044122 0.1231934 0.09303817 -0.14508083 -0.14229663 0.25792938 -0.20709366 -0.05688339 0.11440467 -0.087743685 0.3451832 -0.13531902 -0.0316254 -0.09625589 -0.18005288 -0.12598531 0.07784153 0.45422077 0.74430007 0.21804953 -0.50625396 -0.36928976 -0.30859277 0.47137502 -0.12756519 -0.74905276 -0.23120496 0.6053192 -0.34170127 -0.027427515 -0.32024992 0.13834469 0.18377905 -0.2937526 -0.18858865 0.45811772 0.17196284 -0.39743593 0.046694145 0.39145195 -0.06830622 -0.28935277 -0.05404862 -0.66737413 -0.37971374 -0.26760322 0.1212355 -0.16556962 0.031920608 -0.165968 -0.42874077 -0.054766923 0.07725332 0.10271799 -0.10030101 -0.11319501 0.13335672 -0.25427517 0.4461519 0.25371903 0.2487726 -0.083338276 -0.77337825 0.040961273 0.1272828 -0.027838202 0.03151834 -0.14684819 0.22896434 -0.37973413 0.36838502 0.4657293 0.04586959 0.09704735 0.39009687 0.21218398 0.05179887 -0.079065934 -0.07674411 0.077454746 0.07445314 0.024200346 -0.22809583 0.13657998 0.049082372 0.25088653 -0.25316244 -0.13609138 -0.47473335 0.24172746 -0.09309531 -0.6651571 -0.2545621 -0.017162463 -0.38474223 0.11470282 0.027801374 0.587883 -0.24550705
783 -0.0051370733 -0.06413373 0.13588148 0.5560833 0.25269938 0.018184947 0.091711015 -0.13349545 0.5331925 0.05123728 0.019085586 0.017919373 0.17754664 -0.27923217 -0.13030668 0.038995557 0.30163962 -0.6990376 0.12346158 0.16514887 0.31405395 -0.5896658 0.093172446 0.3823808 -0.10984323 0.15399104 -0.025660405 0.2049832 -0.38589612 0.0019164213 0.09290254 0.04251891 -0.19103025 -0.078125305 0.11249114 -0.30598783 0.09130025 0.20350088 -0.03067502 0.3193267 -0.16199963 -0.15132579 -0.19790065 -0.22079675 -0.13153581 0.06156938 0.49769324 0.8156931 -0.10328858 -0.4724232 -0.30606535 -0.31280482 0.4714177 -0.3198483 -0.55412567 -0.2931929 0.47499746 -0.38103554 -0.06129884 -0.24132423 0.14624554 0.21120621 -0.30521467 -0.23049195 0.39938733 0.2341504 -0.48960558 -0.009095226 0.47056693 -0.17108078 -0.4196996 -0.035525177 -0.6427476 -0.29051188 -0.34643033 0.16123831 -0.2292156 -0.0962856 -0.16590396 -0.4853786 -0.082399435 0.11596946 0.0763468 -0.14460109 -0.081439786 0.17876998 -0.17079374 0.5724007 0.14716733 0.2697885 -0.24198519 -0.7390651 0.13798395 0.111218795 0.17637311 -0.060352862 -0.13024542 0.09195487 -0.47123557 0.42776877 0.27558735 0.17918181 0.090211086 0.3529604 0.19619656 -0.07326155 -0.070791796 -0.043528244 0.062349267 0.021798646 0.14350654 -0.13064398 0.039152566 0.15399168 0.2237626 -0.46305162 -0.1463968 -0.52785236 0.45442435 -0.1721795 -0.6983147 -0.24246827 0.018530654 -0.40617672 0.093549386 0.036714815 0.67693096 -0.24888115
747 -0.055427246 -0.0076069473 -0.082075514 0.33760604 0.44409245 0.013412133 0.14062808 -0.10527972 0.48788318 -0.050302364 0.025306934 0.24293302 -0.26743177 0.009777342 -0.06865794 0.16863741 0.394405 -0.3282689 0.096028656 0.104802415 0.17657346 -0.377936 0.056613006 0.065703966 -0.25951642 -0.010223679 -0.02459828 0.13833697 -0.3910837 -0.16240986 0.040739976 0.05868091 -0.05189531 -0.100694 0.34090003 -0.2726294 -0.070375405 0.04465769 -0.04064416 0.30078247 -0.15088095 -0.053708225 -0.030141093 -0.1564684 -0.10963341 0.106358655 0.34627417 0.69479805 0.285508 -0.42092082 -0.4677975 -0.22622043 0.44945908 -0.15423882 -0.868009 -0.1494075 0.5671571 -0.36886424 -0.107328914 -0.3657776 0.01710547 0.26940215 -0.30616543 -0.22622414 0.5193897 0.17725398 -0.3194654 0.09163965 0.16956306 0.024845846 -0.19859314 -0.071143046 -0.7244464 -0.4083523 -0.20156182 0.15877667 -0.13536459 0.06354554 -0.18541926 -0.48734024 -0.16252865 0.11064522 -0.0302722 -0.010147278 -0.09790327 0.09310865 -0.23505978 0.23582776 0.24595435 0.11327748 0.012116143 -0.8217927 0.08944802 0.047177196 -0.08233809 0.05020707 -0.25411403 0.24109034 -0.2966423 0.43421596 0.64029086 -0.07447462 0.14867862 0.36863106 0.20030172 0.15391962 -0.020198295 -0.17606027 0.03806056 0.13582811 -0.045704767 -0.27503082 0.120976105 0.07640973 0.35312784 -0.30683923 -0.17766283 -0.35507965 0.21805644 -0.26235148 -0.695004 -0.2733139 0.09107428 -0.44307157 0.13333488 0.040701464 0.52602077 -0.32120073
988 0.43639177 -0.6501698 0.5525599 0.32089484 0.41648299 -0.36342373 0.6395575 -0.271773 0.30586588 0.23867245 0.04093214 0.20065671 0.68294346 -0.10002993 0.27593574 -0.14372703 0.00501623 -0.4987783 0.595569 -0.56677026 0.17040016 0.28427768 0.13271013 0.7144656 0.11726158 0.52956563 -0.23101749 0.011710404 -0.47897255 -0.052959636 0.25801873 0.18415058 0.51674306 0.15565135 0.29854864 -0.41338402 0.4183953 0.014264471 0.47862953 -0.22279997 0.46519053 -0.5530991 -0.55612177 -0.14007585 -0.26053622 -0.07805368 0.47333664 0.47590923 -0.3334484 -0.16882834 0.0948957 -0.03023224 -0.10760944 -0.015056735 -0.63996667 -0.41154054 0.5222278 -0.64806384 0.88340205 0.13354146 0.105568804 -0.48014018 -0.1832416 -0.09946713 0.074565805 0.2538768 -0.76760125 0.3256831 0.07143267 0.30405426 -0.22963157 0.061645918 -0.294362 -0.7276587 0.3928194 -0.5233552 -0.4844133 0.1433138 -0.21357763 0.05729623 0.1548646 -0.2810309 0.0129358005 0.35829502 -0.13535027 -0.0737877 -0.07352182 -0.48589176 0.41354457 0.54930294 0.32508284 0.11553279 -0.54207826 0.23130491 0.0913863 0.081712894 0.54779375 0.19732517 -0.42067042 0.20722495 -0.014270909 0.07537373 0.051509246 -0.06755167 0.03801395 0.41070282 -0.680294 0.1568475 0.57440275 -0.060276672 -0.017859388 -0.07904642 0.20781247 0.10954089 -0.62726605 0.21028362 -0.7154839 -0.96479195 0.46050355 0.65078497 -0.25751114 -0.28537238 -0.4394302 -0.036474958 -0.034267873 -0.05370978 0.06234638 -0.5252464
543 -0.17478408 -0.054888185 0.22388944 0.1574277 0.5107965 -0.09837983 0.33902282 -0.11303485 0.5415665 -0.1133457 -0.122637965 0.45176837 -0.4565984 0.46098247 -0.063856475 0.3138438 0.14924622 0.010530358 -0.19547586 0.06431706 -0.103443496 0.02479963 -0.029341497 -0.31408122 -0.2120589 -0.082709044 -0.08078905 0.13069856 -0.16254622 -0.24240847 -0.035361 0.09431518 0.34133002 0.03842832 0.49731714 -0.34723502 0.107998274 -0.37937713 0.014268734 -0.04102828 -0.12892246 -0.2568926 -0.31376594 -0.11468934 -0.2037404 0.14400093 0.17597003 0.6467763 0.45421714 -0.41024545 -0.14053042 -0.3186651 0.059699666 0.17951007 -0.87379193 0.16279098 0.63870776 -0.041977696 0.35274363 -0.23697302 -0.2533328 0.063136116 -0.23436971 -0.031504307 0.6876599 0.020449724 -0.32068357 0.26675814 -0.2619805 -0.035222072 -0.027510788 -0.07673719 -0.39819553 -0.32968673 0.41982475 -0.21813826 -0.023563247 -0.047987916 0.012715674 -0.3557694 -0.10762472 0.25696626 -0.26675156 0.22725154 -0.27054048 -0.12794301 -0.7039306 0.000990071 0.49317372 -0.011840662 0.052432213 -0.59766537 0.08005721 -0.1381491 -0.14531101 -0.028266814 0.15420458 0.08112046 0.3129275 0.2454379 0.66319835 -0.33588102 0.2120322 0.31073472 0.3641096 0.17731366 0.12847348 -0.04961332 0.10452862 0.19633868 -0.13400373 -0.5411737 0.12868719 -0.112683155 0.19934532 0.09855025 -0.3880499 -0.38560113 -0.19355948 -0.37254116 -0.82562685 -0.335537 -0.0682726 -0.4462038 -0.08317592 -0.15318465 0.44909447 -0.23594582
616 0.025421739 -0.11687096 0.41786042 0.6486474 0.31857553 -0.21319017 0.6926689 -0.1791431 0.6471464 0.18073843 0.024951993 0.26917022 0.2791982 0.08349725 -0.066698164 0.0029234705 0.039414085 -0.49239206 -0.114116356 0.103175186 0.15797028 -0.29320815 -0.1261571 0.111300625 0.09423443 0.25771224 -0.029691035 0.18834195 -0.07719396 0.031754903 -0.22914535 -0.113237396 0.17245771 0.38824397 -0.020622058 -0.5338817 0.5149107 -0.049364056 -0.02505773 -0.09722012 -0.03294457 -0.678099 -0.65347236 -0.2998127 -0.018018134 -0.046030883 0.44152465 0.7696655 -0.10620398 -0.2541733 0.14064158 -0.4883313 -0.05185771 -0.38081706 -0.19361112 -0.2130594 0.14338486 0.0044347746 0.36081558 -0.013869488 -0.17687236 0.1525123 -0.30155143 -0.13433076 0.5399323 0.31718123 -0.64420736 0.03098093 0.008225132 -0.1886413 -0.39277288 0.09405824 -0.38670596 -0.09313208 0.17238887 -0.006229029 -0.37639773 -0.3613222 0.25185838 -0.5168165 -0.13479824 0.13726301 -0.27341953 0.090473585 -0.29599923 -0.0101731075 -0.3695503 0.38265294 0.35660112 -0.070386365 -0.24451521 -0.34055635 0.21572235 0.08448143 0.4000656 -0.28301382 0.19681717 -0.09486646 0.20409232 0.4782614 0.020584876 -0.18749323 0.23297349 0.32495382 0.27725375 -0.1548324 -0.011963045 0.09941408 0.15754816 -0.09015041 0.2307428 -0.20097838 -0.03966406 0.09081273 0.012503124 -0.26635873 -0.4798611 -0.7113007 0.3677332 -0.5112208 -0.8366647 -0.14059919 -0.15004191 -0.48699597 -0.27252713 0.0020797504 0.5760527 -0.1988939
713 0.098344155 0.059372116 0.009439274 0.36497656 0.57682973 -0.054394197 0.2786745 -0.13860682 0.42236936 -0.1509871 -0.021895528 0.19667964 -0.28027734 -0.035670586 0.05553087 0.1675835 0.28142813 -0.23976132 0.22515611 0.015801461 0.11718558 -0.2875964 -0.03440695 0.11730694 -0.29985046 -0.021959193 -0.06132457 0.23221897 -0.47277504 -0.1605832 0.037749995 0.09558202 -0.046324052 0.046794172 0.2906957 -0.29710156 -0.02989281 -0.036161203 -0.08175227 0.29423553 -0.04063669 -0.05856481 -0.06175056 -0.10899659 -0.11414011 0.013767784 0.47916716 0.7012225 0.42264158 -0.45636362 -0.4278886 -0.2530123 0.3587537 -0.23026963 -0.78556097 -0.20966321 0.6010004 -0.22193022 0.013637288 -0.4383118 0.13620669 0.30888408 -0.31627092 -0.14742696 0.5911685 0.15408835 -0.3490313 0.07197209 0.21620724 0.08333691 -0.15374206 3.449821e-05 -0.82830065 -0.41950446 -0.1650487 0.106447145 -0.21207404 0.14235765 -0.124915004 -0.43096215 -0.17662874 0.0029609485 0.050284564 -0.05643464 -0.15797283 0.099457346 -0.27384505 0.25352567 0.34815642 0.107199475 0.106980965 -0.8199004 0.022181004 0.14677604 -0.15962818 0.06449729 -0.20945507 0.31260172 -0.16112866 0.43835452 0.6518647 -0.3342869 0.24522257 0.51006275 0.2794594 0.117939994 -0.12225657 -0.17422451 0.12014167 0.013847676 -0.02106542 -0.28142607 0.116815135 0.11820048 0.32152992 -0.14040957 -0.21081844 -0.41179714 0.29402113 -0.185749 -0.77629423 -0.26066554 -0.029663548 -0.44372824 0.13745618 0.04767303 0.5387891 -0.296387
751 0.17928986 -0.22124125 0.3709022 0.53943855 0.46526557 -0.09141108 0.5922313 -0.26233438 0.50317585 0.27255082 0.02689062 -0.006733311 0.38332757 -0.12880762 -0.1035603 -0.13425197 0.15050553 -0.54790837 0.17184693 -0.047860503 0.12278667 -0.4306191 -0.06269883 0.4450918 -0.08313443 0.31425676 0.022329522 0.1932787 -0.26473108 0.08007111 -0.12791346 -0.012029024 -0.06880861 0.45975307 0.107008636 -0.5462181 0.41130263 -0.042057276 -0.06715807 0.032191414 0.027907135 -0.59839296 -0.49917233 -0.3419579 0.04667843 -0.17479426 0.4294554 0.7824958 -0.19365394 -0.2642978 -0.012372589 -0.29441005 0.07384087 -0.5123604 -0.2034298 -0.32586354 0.3062719 -0.12416869 0.31784663 -0.06408389 0.1155359 0.23539291 -0.28055152 -0.21662836 0.4773455 0.2738861 -0.573037 0.032457817 0.34808213 0.030721989 -0.35531116 0.29528084 -0.5756993 -0.222434 -0.032960344 -0.020190775 -0.42714086 -0.19119862 0.117700785 -0.36219802 -0.22776671 0.10513191 -0.012009304 -0.0075203073 -0.19897254 0.14765619 -0.16325998 0.42923537 0.27148557 0.18436176 -0.14404425 -0.46661985 0.08931117 0.19364275 0.25416848 -0.24224754 0.2307491 0.13377206 0.0023663337 0.5644957 0.09742436 -0.120049275 0.096325345 0.40211254 0.1476044 -0.06858346 -0.2204546 0.022811454 0.2268 -0.124927215 0.30389678 -0.14013815 0.0070321616 0.21726327 0.016178956 -0.3046103 -0.47156763 -0.7821423 0.6162313 -0.30701098 -0.83462614 -0.19004807 -0.24863736 -0.44709826 -0.0636115 -0.008028246 0.474006 -0.33786738
856 0.18818472 -0.40258393 0.5011553 0.5849724 0.4409448 -0.107278675 0.72736603 -0.31907338 0.37236813 0.3480836 0.07581465 -0.105036646 0.5474112 -0.1404842 -0.08766351 -0.21409109 0.11839997 -0.52298963 0.31421182 -0.22085567 0.2382188 -0.36513984 -0.038539533 0.61753434 -0.19876613 0.5025604 -0.07596122 0.14261173 -0.30869982 0.13560212 0.0372057 0.11857237 -0.06191575 0.5088561 0.21668431 -0.5008609 0.37545094 -0.0021584828 -0.06792322 -0.03289114 0.07681927 -0.64412063 -0.5609383 -0.3456447 0.08524832 -0.30524078 0.5529259 0.75835013 -0.21151328 -0.27144894 0.07438961 -0.31254208 0.0923028 -0.45238587 -0.26860082 -0.33284315 0.50296676 -0.16251111 0.5549471 0.055285454 0.28692472 0.0833871 -0.31301764 -0.2463505 0.4313946 0.2594865 -0.71135455 0.08326986 0.5391062 0.13154678 -0.38379306 0.3663438 -0.5667564 -0.29324946 0.015717926 -0.20426802 -0.4880718 -0.1173333 0.12310801 -0.19837871 -0.10228574 0.0522968 0.1299409 -0.047983713 -0.2220629 0.18365598 -0.18837078 0.38433993 0.30197403 0.32895875 -0.12041927 -0.35016707 -0.07993919 0.27894026 0.1956865 -0.22968996 0.4130843 0.21532632 -0.09515502 0.5502476 0.011774238 0.0069463714 -0.055064093 0.38353312 0.195979 0.10881508 -0.40510365 0.04974055 0.39961967 -0.14002316 0.31435823 -0.12982158 0.13554333 0.20934258 -0.07345012 -0.14782327 -0.5943171 -1.0037023 0.576696 -0.057375614 -0.79935426 -0.23615356 -0.35987112 -0.41328478 0.016052162 -0.03149188 0.3828021 -0.3388655
574 0.30942893 0.11395699 0.118704125 0.014781867 0.6927086 0.06522374 0.1647457 0.09340631 0.6870789 -0.03900439 0.08952084 0.23378597 -0.23043999 0.38340798 -0.011837307 0.105516694 0.20761016 -0.15839624 0.046429373 0.01853813 -0.18873405 -0.14251204 -0.10190045 -0.09767909 -0.053079877 -0.17240342 0.23483135 0.2521893 -0.3140462 -0.14997403 -0.2975234 -0.007901107 0.14274448 0.29439956 0.21926758 -0.46821898 -0.060197648 -0.2921887 -0.18388078 -0.12382322 0.060558125 -0.19240299 -0.010828571 -0.12723044 -0.025711251 0.12542255 0.40379605 0.71238214 0.41476372 -0.41295826 -0.20301914 -0.22299494 -0.26272553 -0.11463307 -0.5297518 -0.019528616 0.37062955 -0.06310823 0.4232452 -0.3065376 -0.069942035 0.05534609 -0.14994988 0.11987572 0.44765 0.14527403 -0.31824565 -0.046228215 -0.2355468 -0.05020888 0.08642479 0.021990232 -0.55322903 -0.21667248 0.17665023 -0.2003162 0.012995373 -0.022156192 0.05087988 -0.25172654 -0.2811928 -0.12175911 -0.13157742 0.07293303 -0.3008795 -0.01752894 -0.4163646 -0.044518024 0.3858047 0.19560356 0.14451824 -0.5073162 -0.03796352 0.13797739 -0.05560448 -0.027517691 0.095727116 0.06839327 0.39367506 0.3508391 0.43718883 -0.5461287 0.38174596 0.5053867 0.16372102 -0.2243838 -0.014422348 -0.0067202076 -0.077105716 0.030573444 0.0064466354 -0.52977175 0.010210973 -0.07796789 -0.19467889 0.24186479 -0.03426258 -0.26486942 0.058887605 -0.47528884 -0.83220804 -0.22444752 -0.034885127 -0.50993186 -0.23486666 -0.16271056 0.15076135 -0.3125707
677 0.46468455 0.14563367 -0.1751483 0.27278942 0.7525609 -0.03944404 0.3224563 0.10902221 0.68083924 0.10306579 0.15103835 0.19290116 -0.19632664 0.10913356 0.11348024 -0.07835461 0.2909416 -0.22061205 0.32747352 0.10171711 -0.002318352 -0.5028151 -0.17100565 0.02864256 -0.06757907 -0.0026411677 0.1203317 0.26540112 -0.36906213 -0.026028717 -0.29064277 0.063879326 -0.054908056 0.40345046 0.16352908 -0.5905456 -0.20936193 -0.014119655 -0.1502904 0.07926732 0.0068795793 -0.11467126 0.1263527 -0.09532108 0.10172535 -0.15476073 0.57793486 0.59621465 0.26085937 -0.4219027 -0.36094165 -0.18169764 -0.124732904 -0.6229548 -0.54604614 -0.19536357 0.3703486 -0.23931256 0.1999009 -0.32489234 0.27877265 0.109279916 -0.13745186 -0.11425055 0.3997102 0.25347707 -0.46560055 -0.16660093 -0.032228112 0.12287039 -0.1484237 0.05219783 -0.76273197 -0.30893266 -0.23500013 -0.053731944 -0.10265328 0.027213946 -0.042207766 -0.33892334 -0.38350934 -0.36649272 -0.0003458351 -0.13151908 -0.25466356 0.15525714 -0.06313519 -0.1421912 0.092191406 0.26374373 0.21898565 -0.4467387 0.10205687 0.25970837 -0.032553043 -0.028363831 -0.24360283 0.16078539 0.07753923 0.62932646 0.33499652 -0.5537302 0.35408053 0.49953005 0.1575967 -0.12141397 -0.2632851 -0.2726583 0.045171663 -0.033296116 0.13493238 -0.21555667 0.009099983 0.12281223 -0.11756288 -0.12706561 -0.030253964 -0.10651426 0.5170478 -0.48267627 -0.77457523 -0.11766581 0.2725887 -0.5110167 -0.1024983 -0.07965364 0.006777306 -0.44525096
649 0.012649822 -0.08952423 0.34039268 0.68555367 0.36480895 -0.22278358 0.73874956 -0.20870589 0.5967419 0.25131732 0.0023284708 0.19114183 0.30221444 -0.026273258 -0.0731402 -0.060813367 0.032373473 -0.48479 -0.060586378 0.07816552 0.14385426 -0.36229202 -0.12201513 0.21113223 -0.019822422 0.28661695 -0.041803803 0.19765379 -0.12309988 0.013988959 -0.20895678 -0.075677 0.1084753 0.40938172 0.025824944 -0.5444512 0.52030075 -0.010854467 -0.018549375 -0.009820325 -0.05965944 -0.65811086 -0.635799 -0.29377374 -0.030235298 -0.14287466 0.44042486 0.7861333 -0.1290413 -0.27198517 0.11702058 -0.4558704 0.015619212 -0.47338697 -0.21439639 -0.2563629 0.20724824 -0.03737815 0.31733266 -0.020944782 -0.073954985 0.23146935 -0.35100114 -0.20363367 0.5502835 0.30233172 -0.63946736 0.071864076 0.13975061 -0.1179098 -0.46120274 0.15275848 -0.47852376 -0.18012938 0.06720754 0.016275752 -0.42636815 -0.33146515 0.21852283 -0.499532 -0.16251823 0.1392358 -0.17796896 0.024141766 -0.26453406 0.056693714 -0.3388421 0.42911428 0.29358238 -0.01414298 -0.18468805 -0.444043 0.24056602 0.1378399 0.3677836 -0.26485127 0.16398692 -0.0006991308 0.14997089 0.52795714 0.06483919 -0.21625024 0.1764743 0.35355058 0.30780414 -0.12702483 -0.081696056 0.037754778 0.21082169 -0.06738697 0.2617082 -0.16860284 -0.021726593 0.1682837 0.07181506 -0.33254603 -0.51384383 -0.73369026 0.4784623 -0.45900446 -0.8384184 -0.20467758 -0.16209371 -0.52037734 -0.15776266 -0.019021139 0.5964018 -0.22269142
541 0.02571684 -0.09214628 0.27309477 0.06386145 0.63252556 -0.013898237 0.33719155 -0.052973308 0.67405534 -0.10740698 -0.020685922 0.42561388 -0.3576783 0.54434323 -0.13683708 0.30961308 0.13761522 -0.07722382 -0.22351068 0.08031447 -0.19451916 -0.031429317 -0.17199177 -0.30257162 -0.015433326 -0.011527854 0.11316396 0.17530805 -0.15933949 -0.22381535 -0.2568566 0.07959294 0.37205547 0.24329557 0.34793845 -0.54502285 0.1546784 -0.4629922 -0.014683001 -0.28317797 -0.05567826 -0.46740738 -0.26426804 -0.21631053 -0.14574607 0.24664825 0.21823362 0.69488144 0.41758397 -0.36781117 -0.08960592 -0.3271853 -0.2093692 0.107404724 -0.6766988 0.103434965 0.4434011 0.06740018 0.57115495 -0.21766172 -0.32836163 -0.018945517 -0.21611059 0.110356756 0.6139731 0.15662481 -0.33767307 0.09596414 -0.43077582 -0.10798036 0.101669796 -0.04156143 -0.32585484 -0.19443902 0.5283337 -0.25491184 -0.029207956 -0.13381332 0.076007836 -0.34545773 -0.20809965 0.104991026 -0.32784092 0.28502852 -0.28143254 -0.11764455 -0.7082465 -0.05335463 0.500593 0.021083562 0.038894404 -0.4066558 -0.02640032 -0.10047614 -0.0659624 -0.11062407 0.32201764 -0.03654862 0.5089117 0.3436453 0.5242978 -0.443334 0.37433004 0.4036665 0.28847483 -0.021794094 0.11895363 -0.0031224547 0.032793567 0.13546923 -0.06709988 -0.5585629 0.0685133 -0.21454988 -0.037968155 0.2699448 -0.2978284 -0.42968202 -0.14801921 -0.54155934 -0.8815579 -0.24161026 -0.12686387 -0.4613149 -0.30498222 -0.14215422 0.29816794 -0.30875432
681 0.11018955 0.10052471 0.24224202 0.40889847 0.45751223 -0.016492713 0.3598489 -0.08618025 0.5019773 0.15456302 0.029139636 -0.06848194 0.16130513 -0.057220623 -0.08726213 -0.057923757 -0.018839475 -0.295394 0.079883 0.018142425 -0.033956937 -0.32132533 -0.10174654 0.34721002 -0.2800663 0.10436915 0.042321716 0.27154598 -0.27884382 -0.15298696 -0.0055364803 0.08827156 -0.040615663 0.3453575 0.002251604 -0.28856072 0.14190912 -0.05858694 -0.062049083 0.045432314 -0.0182091 -0.16278811 -0.23263079 -0.15813628 -0.061001543 -0.20694944 0.6085394 0.7866901 0.19959702 -0.4132054 0.0043827062 -0.25127542 0.12032424 -0.29762283 -0.29731363 -0.20627265 0.43209895 0.05370982 0.31391567 -0.11195165 0.19324578 0.24934356 -0.255634 -0.059376698 0.47336912 0.15621603 -0.4153875 0.051339477 0.29120997 -0.14796513 -0.32862258 0.11547136 -0.62184876 -0.25465208 -0.06287516 -0.06448547 -0.21580054 -0.090510644 0.04053953 -0.26112556 -0.08431518 0.016054906 0.1528925 -0.16681018 -0.2819259 0.12269347 -0.4416955 0.3953943 0.25754026 0.16837236 -0.11847215 -0.63799465 0.044390082 0.1816151 0.095405735 -0.14420812 0.10544484 0.11880297 0.1558421 0.42620274 0.2517274 -0.27970836 0.1487926 0.48885465 0.33046672 -0.17449264 -0.1314605 0.025519395 0.11388079 0.017931404 0.15853713 -0.3388936 0.004475119 0.2389712 0.043611005 -0.13554357 -0.16079423 -0.5308078 0.29157835 -0.20204546 -0.7915081 -0.38529038 -0.17167298 -0.54799664 -0.029196545 -0.1545767 0.44026533 -0.16032988
510 -0.31571272 -0.015277398 0.3550929 0.3065641 0.39019704 -0.12959519 0.54095644 -0.20965894 0.664789 0.042251706 -0.23495463 0.4120631 -0.1892533 0.36788994 -0.100876555 0.25643653 0.008343477 -0.14294851 -0.37612504 0.046123695 -0.12371761 -0.018034734 0.06981341 -0.1416879 -0.14083049 -0.013134642 -0.117352806 0.18010712 -0.15767086 -0.27403197 -0.07570932 0.02113733 0.52921534 0.012194063 0.3933502 -0.30860364 0.37284935 -0.36700374 0.17522717 -0.14448568 -0.10926309 -0.53440183 -0.6170101 -0.12897922 -0.27170804 0.18387862 0.15201217 0.83152515 0.18749335 -0.4397854 0.12622096 -0.40404934 0.0905147 0.21433902 -0.7081058 0.070097096 0.5429644 -0.04684969 0.5131841 -0.14452282 -0.51635915 0.049246624 -0.29366538 -0.073364705 0.6010411 0.05586203 -0.37247708 0.42553723 -0.19961135 -0.20109479 -0.17499575 -0.17435138 -0.3374744 -0.3164492 0.55333155 -0.17542104 -0.18136415 -0.21133922 0.12629008 -0.36802498 0.050598238 0.39280006 -0.25433928 0.18316378 -0.25499183 -0.21114953 -0.88098323 0.17831092 0.5281519 -0.13763171 -0.085658945 -0.6216727 0.10006996 -0.09130676 0.12792552 -0.057205863 0.32479218 -0.01571426 0.3602719 0.1801833 0.58840114 -0.18643863 0.26369336 0.16360217 0.41940668 0.034914307 0.25366023 0.13634086 0.13367979 0.34531805 -0.036896273 -0.5331918 0.054243125 -0.0464458 0.054175794 -0.017262561 -0.44969505 -0.63044643 -0.18029715 -0.2612391 -0.7301434 -0.6220432 -0.25991255 -0.36913693 -0.0929407 -0.155933 0.7223873 -0.03369172
573 0.24469925 0.19021064 -0.014163073 -0.064595394 0.76008123 0.13375135 0.05038784 0.14746591 0.72130334 -0.07252948 0.08756468 0.08239151 -0.21851888 0.30828056 -0.15440446 0.1430597 0.10556742 -0.09802892 -0.024033591 0.11547942 -0.3511012 -0.22205119 -0.17099234 -0.087297074 -0.04121202 -0.08008965 0.16703187 0.24903296 -0.34143203 -0.31179112 -0.2797754 0.1911144 0.15831737 0.3827027 0.21293172 -0.56147397 -0.13474064 -0.36041528 0.004970959 -0.1454004 -0.034076963 -0.17151766 0.1319427 -0.109367914 -0.12647147 0.12536348 0.5087857 0.6254055 0.35390434 -0.45507872 -0.19947805 -0.17161694 -0.26521754 -0.11703105 -0.49074325 -0.020983664 0.47513935 0.044377718 0.49796697 -0.2676454 0.016134024 0.0071188915 -0.22362906 0.26360402 0.39759532 0.28608903 -0.24977149 -0.08817718 -0.2420181 -0.10067875 0.11044073 -0.1252909 -0.507956 -0.23060317 0.21532126 -0.27421468 0.018108977 -0.00093397824 -0.10092491 -0.21600953 -0.26107645 -0.26498303 0.015849901 -0.017883277 -0.22082157 0.02478509 -0.5637179 -0.10098158 0.2918633 0.21643683 0.15536264 -0.47248527 -0.09251274 0.16145606 -0.19857061 -0.010789512 0.12169022 0.041666336 0.3782739 0.43871802 0.41178617 -0.49858087 0.45470715 0.54978055 0.29463202 -0.2578206 0.07054105 -0.07323349 -0.12166938 0.18281403 0.031982582 -0.47208527 0.07562837 -0.054173566 -0.25035933 0.22330965 0.09270747 -0.21163051 0.113741234 -0.38104182 -0.75991833 -0.26402637 -0.027444892 -0.46042845 -0.15847883 -0.21667768 0.019704696 -0.359733
542 -0.09640473 -0.11139559 0.2558955 0.09171468 0.5655174 -0.039064717 0.2994403 -0.0741521 0.5726872 -0.10623125 -0.08078771 0.42771843 -0.4204904 0.49944165 -0.10844469 0.30822495 0.10745189 0.0076394766 -0.19711302 0.05685732 -0.15054728 0.03314436 -0.10433775 -0.3236936 -0.14554635 -0.028814944 -0.0039897393 0.13590446 -0.15994287 -0.23034294 -0.10808358 0.10877498 0.32310465 0.12161249 0.43951568 -0.4179456 0.08479873 -0.44117066 0.008441389 -0.17081234 -0.09008285 -0.31115988 -0.23012757 -0.13692793 -0.18316993 0.1821282 0.17512867 0.62781715 0.46482575 -0.3572176 -0.14012803 -0.2922082 -0.041602843 0.18749283 -0.8208851 0.15685073 0.5693483 0.006104224 0.4658078 -0.21878618 -0.23390456 -0.014291486 -0.22688964 0.05680596 0.6474531 0.058342483 -0.3035747 0.18295005 -0.36879623 -0.044300534 0.056718398 -0.06702062 -0.34596398 -0.27770835 0.4562719 -0.27152 0.010433266 -0.05897034 0.009634335 -0.29734245 -0.1417551 0.19134948 -0.2836867 0.2715893 -0.26880792 -0.10633697 -0.71913946 -0.0659251 0.46666738 0.017330691 0.0791598 -0.478791 0.0020669212 -0.16275845 -0.15905677 -0.049996078 0.2523279 0.03825908 0.38123536 0.27846977 0.5975047 -0.35814908 0.2460087 0.3392917 0.32881847 0.13413636 0.12346738 -0.017734481 0.08749295 0.17119522 -0.12450593 -0.5586448 0.106741056 -0.19392422 0.092300504 0.20593259 -0.35084757 -0.3657964 -0.21673462 -0.43123803 -0.82738173 -0.2755713 -0.06857782 -0.44511464 -0.15180688 -0.15906514 0.32617274 -0.30438977
802 -0.006133712 0.3223219 -0.23065908 0.6271177 0.48118258 0.06538888 0.30601156 0.21153215 1.1612333 0.4813969 0.48265654 0.38009095 0.13960905 0.4090907 0.18178225 -0.50659454 -0.21128295 0.11236653 0.51475495 0.48961857 0.24342878 -0.024297167 0.055723656 -0.45417982 -0.2683049 -0.03679601 -0.40784085 0.1771809 -0.2128787 -0.1506293 -0.04963056 0.3278424 0.30218148 0.4415051 -0.10110625 -0.20452128 -0.607168 0.23128508 0.2465041 -0.24401113 -0.15784577 0.27555192 0.21132185 0.65130514 -0.07384646 -0.705712 0.83509517 0.39142722 0.34099114 -0.44878158 -0.086627685 -0.1923117 -0.12883562 -0.4203848 -1.1778036 0.053390104 0.6648793 0.027585166 0.38013688 0.13121572 0.504714 -0.56316835 -0.05746708 -0.02393263 -0.053170662 0.09717518 -0.8236227 -0.13305388 -0.41318384 -0.053485423 -0.5225487 -0.79200536 -0.47112924 -0.5314557 -0.58798486 -0.37817147 0.16744031 -0.07869052 -0.18272445 -0.02979658 0.39986476 -0.25852424 -0.15076417 -0.15896495 -0.71291864 0.29471022 -0.5108896 -0.4892376 -0.2662911 0.3451211 -0.23346707 -0.10858899 0.21631898 0.159128 0.050696347 0.020970635 -0.38132185 -0.26792195 -0.1122429 0.25310835 0.008035121 0.12296895 0.23725858 -0.16349533 0.3557168 -0.08753818 -0.13422637 0.5218225 0.25121033 0.36460882 0.017118534 -0.3139207 0.3509899 -0.14549047 -0.7292983 -0.2712253 0.04261272 0.20543042 -0.09661516 -0.19253768 -0.4945468 -0.3418775 0.9934367 -0.37474656 0.0076501537 -0.58821976 -0.3279094 -0.44445875
749 0.03476349 0.0805463 0.116659 0.6146511 0.29984337 -0.069032855 0.2483462 -0.09635556 0.576471 0.08697324 0.0567515 0.029451538 0.1377056 -0.212555 -0.06917387 -0.009726469 0.21205673 -0.59316283 0.0916311 0.19047524 0.26027176 -0.56854934 0.021298751 0.33600006 -0.19450404 0.10083246 -0.05125289 0.23846665 -0.35425842 -0.03819388 0.04928995 -0.0025088622 -0.14774856 0.057959165 0.021170115 -0.30210856 0.076326 0.21093784 -0.048365626 0.29291928 -0.17297652 -0.102179036 -0.24335055 -0.16542406 -0.10710014 -0.097148515 0.603946 0.8240399 0.05882433 -0.52070946 -0.20112208 -0.35530803 0.36836666 -0.3970046 -0.5083378 -0.28295565 0.44155884 -0.26807153 -0.011758938 -0.2198881 0.1566558 0.27969652 -0.283252 -0.21810132 0.47224796 0.23202507 -0.5484372 0.03060865 0.39376578 -0.21305357 -0.5011639 -0.012910517 -0.683579 -0.3252075 -0.3753871 0.15708128 -0.24342737 -0.14146428 -0.062602416 -0.52130306 -0.074312344 0.0373691 0.06898634 -0.2055089 -0.21099666 0.14552748 -0.2634067 0.55894315 0.1526195 0.18558353 -0.21007597 -0.78780794 0.23774378 0.1698565 0.20089486 -0.10146577 -0.20733629 0.096022375 -0.24707112 0.44522852 0.25839025 -0.027293451 0.13321806 0.4001506 0.31183687 -0.14822799 -0.06931594 -0.0462491 0.060817707 0.04144165 0.14388813 -0.19525328 -0.0085202055 0.23879552 0.1743858 -0.48637703 -0.15118164 -0.49109805 0.44792888 -0.26661223 -0.7885578 -0.29688138 0.05650678 -0.5326167 0.058509506 -0.036975946 0.64095086 -0.1916154
544 -0.29518577 -0.020879094 0.24697128 0.24373223 0.39891073 -0.034671567 0.358909 -0.22884381 0.58431065 0.004908812 -0.18886384 0.27732033 -0.18020172 0.26606828 -0.19353023 0.27317303 0.05208835 -0.21845473 -0.36097163 0.053521726 -0.16387545 -0.12883715 0.058757234 -0.018225426 -0.15064871 0.018167475 -0.05345556 0.16029948 -0.23142381 -0.29941013 -0.049861245 0.073972166 0.40187246 -0.0022719307 0.35577872 -0.33238786 0.30632055 -0.36501667 0.17670089 -0.0985385 -0.15852843 -0.48799992 -0.49233288 -0.23150806 -0.28711647 0.2585928 0.15492329 0.8573362 0.17793208 -0.44057605 0.02364231 -0.35866764 0.18565273 0.20510948 -0.6697762 -0.014317536 0.5498418 -0.01862362 0.40911752 -0.18478845 -0.47934943 0.1295648 -0.31343293 -0.03741802 0.5640938 0.14683634 -0.25856084 0.3287235 -0.0841365 -0.22661753 -0.11301939 -0.14671537 -0.3526138 -0.30026016 0.4751131 -0.059786946 -0.200801 -0.15925284 0.03284114 -0.38071343 0.010117242 0.36805317 -0.14038412 0.119353965 -0.16134585 -0.14216097 -0.8128965 0.30816397 0.4825057 -0.051973857 -0.123692356 -0.6922592 0.04508879 -0.07951045 0.06133856 -0.060618684 0.32214874 0.03798662 0.2812278 0.2505094 0.5807519 -0.091677144 0.25259602 0.23715417 0.36643425 0.0015332944 0.25404865 0.0715412 0.09857847 0.35952672 0.0035127655 -0.50672174 0.07408338 -0.032148812 0.14949363 -0.061198767 -0.34680003 -0.6446441 -0.09566102 -0.2373562 -0.7173444 -0.6072116 -0.33810303 -0.35157415 -0.06456502 -0.12527901 0.7176391 -0.053271703
647 0.013201536 0.16023546 0.31621316 0.45867884 0.40334865 -0.0011839172 0.30394888 -0.06500558 0.6066278 0.12780282 0.0027112013 -0.02803321 0.15037896 0.016933741 -0.1172828 -0.015116362 -0.05225954 -0.33388796 -0.048587985 0.081308946 -0.055405624 -0.2598968 -0.0552142 0.28051156 -0.28882745 0.038578525 0.043240517 0.29962 -0.25400388 -0.22176158 -0.0051249727 0.048167333 -0.009637965 0.25611442 -0.038007904 -0.2446896 0.17965376 -0.05437479 -0.049125582 0.037966803 -0.038444098 -0.13984184 -0.29457754 -0.10446302 -0.15035371 -0.111803666 0.64656514 0.88134027 0.26220176 -0.47105968 0.029791418 -0.33747324 0.14217049 -0.18982616 -0.35110617 -0.15330137 0.4324262 0.053085078 0.31323698 -0.116685554 0.07679665 0.24116845 -0.27255 0.004111371 0.49319026 0.116497755 -0.44837227 0.07857036 0.2226076 -0.29231337 -0.34558982 0.028526574 -0.62766874 -0.24486339 -0.03634385 -0.046633236 -0.16498165 -0.1421916 0.04752045 -0.30936798 -0.0051210853 0.09748575 0.11134961 -0.16184132 -0.33941668 0.091899335 -0.58836895 0.49718034 0.30684143 0.10946649 -0.19109054 -0.76591843 0.087054916 0.1791139 0.13648285 -0.15584654 0.119933434 0.035015788 0.1995134 0.33634305 0.29246593 -0.25764644 0.1777664 0.4901389 0.3776301 -0.25669384 -0.012446972 0.1410964 0.049807034 0.06782653 0.13254757 -0.46178564 -0.04442957 0.2331697 0.060211822 -0.12904634 -0.11613886 -0.54077446 0.14383414 -0.26140976 -0.86039287 -0.4650264 -0.18014155 -0.61198044 -0.052530557 -0.20896275 0.57564044 -0.102234825
678 0.17254655 0.052440885 -0.15679145 0.3638653 0.67202675 -0.049466763 0.45700654 -0.06532073 0.48960516 0.16479607 0.10225384 0.09284065 -0.0678218 -0.03615947 -0.059369035 -0.021295207 0.070592694 -0.119688444 0.18406099 0.12050523 -0.08480154 -0.4244597 -0.31912678 0.14551641 -0.16959983 0.18322924 0.04850315 0.24507345 -0.23005779 -0.16630808 -0.16898006 0.18695818 0.012364403 0.52478 0.114377074 -0.55963904 0.06193758 -0.074778415 -0.004118213 0.035496853 -0.031741455 -0.26205814 -0.013117251 -0.19071999 -0.05274846 -0.22875664 0.46999726 0.57128054 0.15586098 -0.17322023 -0.2306718 -0.15456939 0.009810087 -0.5384268 -0.39753753 -0.25359136 0.34629694 0.037682585 0.19248755 -0.16805571 0.29471055 0.21773325 -0.37471402 -0.10476217 0.4810525 0.2762116 -0.34296447 -0.09197384 0.13064878 0.16470055 -0.20728192 0.12082603 -0.6751074 -0.23916744 -0.09409075 0.00092344056 -0.28969818 -0.015608439 -0.061793257 -0.3499395 -0.35841328 -0.16907898 0.017289326 -0.0707369 -0.12430835 0.23795928 -0.18056193 0.037663724 0.13832551 0.15567186 0.12880059 -0.42544284 0.034711197 0.044551857 -0.060147215 -0.12517242 -0.06354579 0.21598335 0.056748945 0.7143329 0.28049305 -0.49346605 0.24297008 0.52771515 0.29552546 0.02919658 -0.23822851 -0.2778452 0.1650386 -0.062667176 0.13129827 -0.10589108 0.0641905 0.18179843 0.1972084 -0.12915923 -0.24549474 -0.29161677 0.5151992 -0.4012178 -0.6946921 -0.15240486 0.048513692 -0.49001396 0.018247975 -0.04835596 0.1751822 -0.4589675
744 0.31089872 -0.048976853 -0.22589846 0.16576856 0.57101434 0.06497687 0.0004161619 0.022845095 0.75032085 0.08279738 0.10724181 0.3362132 -0.23956485 0.15000975 0.04074649 -0.012204404 0.60510254 -0.4676716 0.28724566 0.09222788 0.17496726 -0.5946476 0.15866256 -0.05859809 0.07400352 -0.07395056 0.11669427 0.1433367 -0.4434068 0.07552324 -0.23863237 -0.06204502 -0.047097664 -0.02563625 0.4233952 -0.57130396 -0.2291275 0.019264555 -0.13267115 0.16122715 -0.04584109 -0.12841718 0.10214697 -0.14177708 0.097993724 0.24036908 0.26681125 0.63761467 0.0059973192 -0.4484242 -0.60950863 -0.124206126 0.123910055 -0.47416884 -0.87902266 -0.13619965 0.45469657 -0.620243 -0.083821885 -0.42771718 0.012700226 0.047240544 -0.1237374 -0.27132148 0.28054932 0.22988725 -0.38241002 -0.10593171 -0.02916523 0.14370507 -0.07858086 -0.056461763 -0.69162154 -0.3990957 -0.34986296 0.123780645 -0.060771693 0.05208241 -0.16148375 -0.38321555 -0.38365167 -0.09369268 -0.19036746 -0.020994112 -0.051123533 0.11766822 0.18601307 -0.121628955 0.07850681 0.34048772 0.12388574 -0.53891075 0.113110386 0.16219571 0.020610634 0.11770424 -0.2792248 0.1505631 -0.40308613 0.52291805 0.47726545 -0.07633916 0.30008253 0.23349798 -0.11919722 0.0046910094 -0.10926841 -0.22588782 -0.01698618 0.035974316 0.07214843 -0.21065004 0.04509919 -0.031435184 -0.0024226476 -0.286247 -0.0044336827 -0.09079085 0.45029408 -0.46026236 -0.6565559 -0.10678008 0.34775367 -0.30311808 -0.008493593 0.049653225 0.17856605 -0.5130755
849 0.01965293 -0.3236877 0.05622648 0.24430433 0.10071701 -0.0069015645 0.052028853 -0.28198463 0.30730665 -0.01751157 0.17812459 0.089346506 0.06867713 -0.0031327298 0.0371124 0.046463396 0.51568985 -0.5429703 0.30193058 -0.2539521 0.6022395 -0.521233 0.22590505 0.29958862 -0.19336818 0.14845209 -0.052839752 -0.0050398232 -0.56485057 0.19352373 0.18960279 0.07748807 -0.026702356 -0.5300364 0.5957166 -0.12573802 -0.22124939 0.3522409 -0.13839923 0.17298873 -0.11268209 -0.12092003 -0.06397024 -0.18120101 -0.15284 0.37069985 0.26363468 0.67568517 0.079967804 -0.52400696 -0.29160443 -0.30897817 0.3021358 0.007779574 -0.948484 -0.20072512 0.6428571 -0.7278093 0.14774096 -0.18408842 0.06209987 -0.2266175 -0.29053465 -0.32477582 0.18786962 0.15296422 -0.54892987 0.051136564 0.4422576 0.011344779 -0.22184838 -0.0698584 -0.43962517 -0.59782016 -0.3796417 0.14610206 -0.19181345 -0.022574913 -0.13417228 -0.2574943 -0.021238368 -0.08691293 0.048770674 -0.084266715 0.12942408 0.10082826 0.022596639 0.26328927 0.09411919 0.5448707 0.068831705 -0.58666515 -0.102087416 0.2617067 -0.04554765 0.25792462 -0.020409783 0.25006524 -0.68906313 0.2495419 0.33375376 0.40062228 -0.022615451 0.0961563 0.07294867 0.33505356 -0.25752515 -0.19038683 0.23851268 0.19067311 -0.087745704 -0.108449616 0.23635669 -0.1905871 0.065253645 0.0843954 -0.14753553 -0.52900887 0.079445384 0.12598743 -0.31400758 -0.24985859 0.07282663 -0.19086713 0.08402222 0.08031433 0.4497972 -0.22532853
607 0.27248332 0.089168236 -0.12129782 -0.039125126 0.78763986 0.1856037 0.0451843 0.049466357 0.63048714 0.047125272 0.09123858 0.0032283005 -0.12900028 0.1784952 -0.20210187 0.085067116 0.13068928 -0.16282369 0.083353244 0.106115125 -0.31596604 -0.39699578 -0.2581018 0.062995456 -0.04140393 0.036758777 0.22189094 0.23489606 -0.31730324 -0.24513942 -0.2662992 0.23544729 0.07718299 0.46675158 0.20312776 -0.63969505 -0.07643665 -0.32546014 0.0061984938 -0.12206613 -0.019002207 -0.2496256 0.18103242 -0.18957774 -0.09990115 0.06455622 0.41392773 0.62042475 0.20411225 -0.32255396 -0.27492994 -0.09511428 -0.19602735 -0.28532383 -0.44375262 -0.1563138 0.42737556 0.048721425 0.4229662 -0.20069551 0.15680894 0.048004426 -0.29443148 0.15191847 0.3800528 0.32184926 -0.20484452 -0.15976948 -0.054153983 0.053453002 0.090815425 -0.008807318 -0.54669636 -0.21593426 0.10119333 -0.18321098 -0.09481764 -0.0015869468 -0.1533369 -0.19599324 -0.37670344 -0.22425091 0.050453313 -0.021536186 -0.08921185 0.15823485 -0.32758504 -0.058951188 0.18408436 0.321553 0.1449435 -0.3904607 -0.11798424 0.08159676 -0.18022045 -0.074004896 0.15713337 0.11968762 0.19584481 0.58981913 0.3315417 -0.44013515 0.3727995 0.55897117 0.1986933 -0.15081775 -0.060480915 -0.17271003 -0.030439334 0.08137454 0.10510719 -0.30856067 0.0983656 -0.016646804 -0.11394606 0.16867574 0.015409572 -0.23154463 0.29309306 -0.39233473 -0.69064486 -0.19159566 -0.020592028 -0.40422574 -0.0836441 -0.17290413 0.013802126 -0.50240827
476 -0.47951138 -0.027074588 0.4326044 0.34682927 0.2974341 -0.18922876 0.5978167 -0.18458371 0.69822526 0.09688347 -0.30068442 0.48425013 -0.13401975 0.4172436 -0.084838524 0.20348611 -0.08473818 -0.09048528 -0.4354264 0.09619302 -0.0942374 0.12093225 0.14606029 -0.2795837 -0.126349 -0.034956817 -0.22605725 0.14717345 -0.048985057 -0.26453453 -0.057676364 0.005173938 0.60992205 -0.035714917 0.46196228 -0.27683437 0.42456508 -0.3549968 0.20322059 -0.16958097 -0.11123108 -0.5445259 -0.7032654 -0.025988564 -0.30091935 0.12650491 0.0922809 0.75732017 0.06385816 -0.37931824 0.22441074 -0.4437235 0.019898403 0.2285374 -0.7207347 0.15981877 0.5374978 -0.042117916 0.52679175 -0.056225903 -0.51369977 -0.062528044 -0.31243038 -0.07638044 0.5648336 -0.0539676 -0.4377984 0.47687382 -0.24596985 -0.19895068 -0.2511814 -0.24565996 -0.2492187 -0.30832812 0.5562399 -0.2897072 -0.15733132 -0.2634384 0.17154448 -0.31447318 0.116367996 0.4815279 -0.34408835 0.18405822 -0.28528184 -0.21830727 -0.90573496 0.09786704 0.48790017 -0.15632537 -0.09888957 -0.5532815 0.19320612 -0.12818788 0.16310912 -0.025839353 0.35164243 -0.06799725 0.32990614 0.09442701 0.51478046 -0.1211287 0.20965791 0.041681577 0.47406808 0.07364597 0.3007089 0.20810887 0.16570419 0.37175477 -0.05355117 -0.5166796 0.048321 -0.07632449 0.03762304 -0.03086628 -0.50158525 -0.5548994 -0.26525018 -0.24966453 -0.6763932 -0.60778314 -0.15728097 -0.3401603 -0.047984723 -0.23110163 0.71783245 -0.032741234
785 0.21122836 -0.23699668 0.38555753 0.5325538 0.44103888 -0.07104988 0.48721424 -0.24766657 0.4507592 0.21620125 -0.025060209 -0.018060518 0.39856553 -0.20685706 -0.076247446 -0.12434337 0.18852563 -0.6040097 0.2551212 -0.06712623 0.13821165 -0.39994496 -0.00057106605 0.5114666 -0.07630196 0.29473037 0.013112863 0.1913585 -0.31797585 0.0945596 -0.050098304 -0.008960248 -0.107816465 0.38153785 0.1052292 -0.50193465 0.37983733 -0.026764836 -0.059413653 0.09591987 0.07693582 -0.49253395 -0.45659187 -0.30750328 0.05871595 -0.15076016 0.4772553 0.7731608 -0.20982382 -0.27361882 -0.10254428 -0.24477357 0.16874638 -0.51223147 -0.24066466 -0.3587233 0.35358793 -0.19255579 0.24502437 -0.11150158 0.16865294 0.24956664 -0.24198598 -0.2279796 0.4501238 0.2574799 -0.54413897 0.021472821 0.4186919 0.053308796 -0.35011908 0.3010762 -0.6051349 -0.23530515 -0.09392176 -0.008701331 -0.4136331 -0.10282189 0.05482406 -0.32302704 -0.20293026 0.10995402 0.033157565 -0.0067482726 -0.1820756 0.1577083 -0.075549886 0.41977257 0.28496134 0.2148517 -0.15866448 -0.48003057 0.028099826 0.20156766 0.22215776 -0.190538 0.18381077 0.17099424 -0.15345313 0.5180714 0.11376955 -0.078746766 0.07967107 0.39973402 0.09528453 -0.048267778 -0.275507 0.039052323 0.22689174 -0.20150939 0.2886735 -0.12250508 0.008804299 0.26381946 0.0588386 -0.32799697 -0.45383507 -0.778401 0.6485925 -0.18234326 -0.8100668 -0.16394341 -0.25533757 -0.40672666 -0.0064429697 0.04555604 0.5094507 -0.345801
641 0.33449027 0.034866873 -0.24502541 -0.0039014972 0.8198859 0.16085358 0.118450984 0.019138135 0.6613803 0.103195034 0.10039807 0.11043002 -0.15585935 0.15144037 -0.13559745 0.041322738 0.237454 -0.23950535 0.16991022 0.12255135 -0.25667626 -0.49617252 -0.23595537 0.0073892637 0.074798174 0.028764628 0.21704485 0.21037175 -0.3217084 -0.12661614 -0.35807762 0.1723104 0.08149345 0.4608308 0.2500442 -0.741518 -0.05521202 -0.27188873 -0.022241507 -0.11604081 0.01313352 -0.34379333 0.17023087 -0.21660972 -0.052175853 0.11189681 0.28844467 0.5814199 0.028857177 -0.23922083 -0.36291644 -0.06273672 -0.21594042 -0.43291286 -0.45599076 -0.22719632 0.33453003 -0.09965738 0.30198124 -0.25871685 0.10333853 0.026552076 -0.28784466 0.036114957 0.32676607 0.34118634 -0.20227423 -0.21014424 -0.06705252 0.19582276 0.09929683 0.021547059 -0.5502885 -0.21755074 0.037936617 -0.09696971 -0.17409413 -0.010677333 -0.12769246 -0.24793239 -0.4981221 -0.23682076 -0.07012068 0.015256859 -0.006169522 0.17958906 -0.07471125 -0.16310419 0.11705338 0.3279147 0.19175157 -0.313196 -0.07288136 0.076634586 -0.107526034 -0.05610686 0.06655661 0.15401022 0.05819672 0.66619873 0.29909208 -0.4191525 0.40749976 0.48175502 0.08366669 -0.09842246 -0.10249385 -0.2570873 0.0038495178 0.017746897 0.11935521 -0.1846041 0.0743179 -0.023360815 -0.082128406 0.08394043 -0.046677615 -0.16186625 0.4638686 -0.47856402 -0.6091657 -0.10501822 0.067130804 -0.31510782 -0.06223692 -0.09629949 -0.0039002197 -0.579908
511 -0.43446082 -0.017409831 0.40904132 0.35335582 0.31774393 -0.16132064 0.61294115 -0.22686258 0.6731962 0.15152328 -0.2690208 0.36320406 -0.05074076 0.3318058 -0.15320367 0.17398864 -0.094653584 -0.13200328 -0.4423188 0.04816746 -0.14787568 0.019684203 0.1351153 -0.12998332 -0.15818249 0.015168887 -0.19174422 0.15647194 -0.09450456 -0.29777718 -0.078464076 0.02021066 0.58259225 0.011754411 0.4066103 -0.2810139 0.435449 -0.3536531 0.25431132 -0.19374055 -0.12726368 -0.57649225 -0.6896587 -0.071844764 -0.31147748 0.11432761 0.10711165 0.78814214 0.06286012 -0.39479783 0.2516201 -0.40289164 0.045343366 0.22616419 -0.64971894 0.07717862 0.5003134 -0.016730517 0.55930924 -0.033213727 -0.5524256 -0.012353986 -0.3212133 -0.06721441 0.5625561 -0.006976119 -0.38849428 0.48939025 -0.18754816 -0.23596667 -0.25530386 -0.22021556 -0.25594267 -0.3401701 0.53381 -0.2373324 -0.2138159 -0.27181518 0.17053795 -0.3186907 0.13485785 0.4639761 -0.25673488 0.16138951 -0.2439295 -0.20662977 -0.9263643 0.19656575 0.46469647 -0.1479957 -0.11015646 -0.5585468 0.16123143 -0.07803373 0.18256275 -0.041978586 0.38163018 -0.05306026 0.36068416 0.12745981 0.49903283 -0.09939518 0.21793535 0.03499786 0.4596266 0.013601862 0.3030969 0.19657984 0.14226839 0.4189077 -0.0005038067 -0.51578414 0.02884828 -0.04495797 -0.0031051075 -0.07502567 -0.48664626 -0.6556049 -0.20101449 -0.1959796 -0.65708566 -0.68372184 -0.24436276 -0.3280057 -0.03615936 -0.21339083 0.722508 0.014132907
816 0.120688766 -0.11188266 0.18111518 0.38404784 0.28645575 -0.010176118 -0.017994808 -0.10254843 0.27318966 -0.17854755 -0.017893689 0.061239507 0.043573894 -0.1618964 0.037756518 0.08337214 0.42052105 -0.64640933 0.33892322 -0.07106708 0.45377177 -0.37642568 0.2537285 0.32860708 -0.11564005 0.040373698 -0.11457027 0.14914688 -0.55095583 0.103162535 0.19715174 0.045265373 -0.19525656 -0.29130015 0.3692124 -0.14895993 -0.10811342 0.115456395 -0.17239146 0.36149514 -0.073329546 -0.03851571 -0.14707604 -0.16594616 -0.07727136 0.13717619 0.46197292 0.71625495 0.098679245 -0.60307914 -0.4169688 -0.36474398 0.48162395 -0.08387294 -0.8341129 -0.24580689 0.692732 -0.5215858 0.03798102 -0.3690571 0.18782747 0.031650364 -0.24085422 -0.15179908 0.35395092 0.13132472 -0.50374997 0.06423775 0.5284493 -0.0018251494 -0.2489212 -0.09337093 -0.60387576 -0.41004452 -0.31381187 0.050763406 -0.200551 0.11167856 -0.13012515 -0.2711433 0.066500425 0.039326448 0.16839716 -0.14701763 -0.07154888 0.117326036 -0.09365661 0.45095176 0.25987512 0.4014437 -0.047277827 -0.6245085 -0.03763723 0.269535 -0.019949514 0.15517284 -0.05688975 0.27507344 -0.5779717 0.24556416 0.3715209 0.21400923 0.04270027 0.25496355 0.104648136 0.059037685 -0.12677254 -0.0035989648 0.15303835 0.010216067 0.051519856 -0.20504399 0.19692019 -0.07521079 0.08821053 -0.16980362 -0.097778305 -0.55749214 0.27283052 0.12746821 -0.60029596 -0.18936722 -0.07500379 -0.16009432 0.17655158 0.06217093 0.5933451 -0.21256095
850 0.03780455 -0.22809623 0.12034636 0.30905008 0.13813126 -0.017319046 -0.0013546252 -0.21672244 0.24553281 -0.11318298 0.10492578 0.059456546 0.087553285 -0.11814261 0.041238435 0.081608005 0.44190803 -0.57738954 0.33759788 -0.19606958 0.5287176 -0.41980648 0.21893011 0.36968485 -0.21336156 0.09422026 -0.09980414 0.04267446 -0.56990814 0.12064201 0.26261222 0.08966401 -0.061091267 -0.48148224 0.46335936 -0.05523474 -0.183732 0.2952585 -0.10905968 0.2648496 -0.105069056 -0.022008566 -0.087084636 -0.1475499 -0.19840944 0.27013767 0.36351636 0.7010796 0.15748753 -0.5651849 -0.31789872 -0.330934 0.4018483 0.06367903 -0.9270509 -0.23420842 0.6658297 -0.64634967 0.12565438 -0.23909563 0.12534612 -0.14303984 -0.28601882 -0.23139499 0.25991827 0.12882681 -0.51470166 0.0789138 0.47681886 -0.0317567 -0.25969887 -0.10388745 -0.48630953 -0.5538204 -0.33799908 0.08327459 -0.18679571 0.03021874 -0.16162187 -0.26928815 0.07377859 -0.043699004 0.12770203 -0.09175911 0.04391475 0.0898598 -0.07783755 0.35501704 0.16696817 0.48608926 0.027701112 -0.63313663 -0.12843068 0.25173837 -0.0635339 0.22658034 -0.06122966 0.2549182 -0.66730255 0.20593005 0.35091728 0.32776824 -0.001519172 0.16527776 0.12706047 0.23879115 -0.22454642 -0.09029853 0.21237677 0.15706667 -0.074890144 -0.16683944 0.23899943 -0.14156012 0.063029416 0.023253012 -0.1385936 -0.5565041 0.0929527 0.23223004 -0.38282725 -0.25991628 -0.013609552 -0.19277267 0.12753202 0.040269915 0.5193035 -0.20591927
569 -0.2619665 -0.1836566 -0.40604272 -0.035388723 0.7469795 0.37154073 -0.105175644 -0.04566411 0.86664563 0.22093081 0.08060068 0.14843775 0.0017038275 0.24018133 -0.5241121 0.109781444 -0.029002177 -0.20235582 -0.15222216 0.39645863 -0.30854616 -0.5128343 -0.3368794 -0.18445133 0.21823877 0.2941638 0.13787687 0.12106108 -0.14279689 -0.39784855 -0.29447433 0.478935 0.34313014 0.27784306 0.4356441 -0.82512623 -0.019462828 -0.2803608 0.42837796 -0.5537519 -0.15978321 -0.52984357 0.32021195 -0.12351329 -0.53186584 0.49051625 0.13068666 0.6310461 -0.3084075 0.1414477 -0.4548488 -0.023723649 -0.19642763 -0.21880324 -0.8730651 -0.1795306 0.4726954 -0.0066044102 0.41149965 -0.04596984 0.055914074 -0.4489704 -0.6997248 0.20553167 0.1131371 0.41411412 -0.13518776 -0.2824776 -0.20049351 0.106836066 0.1464934 -0.39369354 -0.25371748 -0.24955869 0.067104176 -0.13529345 -0.14635326 -0.08902167 -0.45044768 -0.15868858 -0.39556456 -0.062238168 -0.21369149 0.01606934 0.29977643 0.38241985 -0.26723838 -0.34161702 -0.17210308 0.5262151 0.104337566 -0.07910217 -0.28232053 -0.44696862 -0.21781601 0.0764753 0.3832914 7.858833e-05 -0.45922893 0.769855 0.17522277 0.08577822 0.37843266 0.16962905 0.15408266 0.17727837 0.055227976 -0.21550882 0.11802524 0.26281893 -0.019695818 -0.07371748 0.1978934 -0.34233034 0.171497 0.25652316 -0.004891039 -0.050219707 0.20869544 -0.4302611 -0.39796153 -0.16321781 0.26402503 -0.14941838 0.08160911 -0.19198997 0.0388861 -0.95884687
675 0.34920993 0.026367169 -0.26526204 0.027463686 0.715318 0.14880444 0.045458008 -0.0132064335 0.6663422 0.09787035 0.10560278 0.110784195 -0.16239397 0.08878757 -0.07184278 0.039386787 0.3232444 -0.29378763 0.23641159 0.095497146 -0.13270544 -0.52082884 -0.12335916 0.03139085 0.030089442 -0.0006419268 0.17150885 0.18827328 -0.40383542 -0.060636654 -0.29131684 0.14126176 0.040217962 0.27460337 0.28367743 -0.6419091 -0.13387907 -0.1434814 -0.04135105 0.00764474 0.007427577 -0.2184141 0.20981221 -0.1626982 -0.049529426 0.15992549 0.28628847 0.5632491 0.03485383 -0.33246186 -0.42658728 -0.07081032 -0.09799323 -0.4156687 -0.55616707 -0.23252378 0.37317625 -0.24232742 0.1833571 -0.3144481 0.100405075 0.028346235 -0.23677357 -0.037403185 0.2895501 0.2991904 -0.21851337 -0.19400804 -0.0059295464 0.18169329 0.053240452 -0.0038887302 -0.59017247 -0.31562185 -0.106151134 -0.0053440444 -0.14459896 0.024123957 -0.16506872 -0.26743847 -0.45394942 -0.2327426 -0.0704249 -0.0042374134 -0.0026876824 0.1688926 -0.0075531704 -0.13164765 0.092584476 0.338832 0.17306468 -0.40890083 -0.025389167 0.13680628 -0.1152013 0.015749734 -0.06146519 0.16611896 -0.106155284 0.59352773 0.34881938 -0.3140296 0.3675967 0.4211777 0.040108915 -0.04873341 -0.1444935 -0.24688335 0.00016230014 0.04493566 0.09774121 -0.15782902 0.08586955 0.0072287098 -0.06296516 -0.0039526736 -0.016490253 -0.13426664 0.45818204 -0.39053205 -0.5550202 -0.10343403 0.14977382 -0.27907366 -0.025567098 -0.058205973 0.052016236 -0.5270962
610 0.14875549 0.18818502 0.13718344 0.19935896 0.5871281 -0.0027545437 0.25535932 0.02993527 0.60524976 -0.008970107 0.047138035 0.16584022 -0.17092516 0.22538604 -0.012298627 0.08825821 0.04084757 -0.07940777 0.010518993 0.04865516 -0.12799695 -0.15346472 -0.15942082 0.009710686 -0.24460879 -0.1012293 0.12824298 0.28638518 -0.26759234 -0.255664 -0.15457647 0.05649623 0.089761235 0.26454827 0.14211242 -0.33117506 -0.0030381517 -0.17462048 -0.11288239 0.0060131443 0.01727482 -0.091308 -0.05501367 -0.06727778 -0.10041946 -0.040946327 0.5024193 0.724093 0.48409584 -0.41784915 -0.1072289 -0.25166944 -0.079376616 -0.14270432 -0.5003445 -0.049158227 0.40114245 0.038282286 0.34880066 -0.22485639 0.06741519 0.16043778 -0.23046409 0.056729954 0.5126567 0.09635368 -0.33818096 0.013480931 -0.05039846 -0.12079423 -0.10489448 -0.011268243 -0.6356946 -0.27664328 0.050908394 -0.09363219 -0.04626173 -0.048755597 0.041683465 -0.2798696 -0.1507173 -0.06551109 0.0016815099 -0.039154854 -0.31088158 0.045292515 -0.5233018 0.13762152 0.35861418 0.114105456 0.0914227 -0.65175647 0.03120177 0.12944958 -0.05716869 -0.048768584 0.037745494 0.085754395 0.3434482 0.3638459 0.45038787 -0.52346545 0.28846276 0.5228149 0.31875566 -0.1849606 -0.04685668 -0.021117702 0.010980296 0.07431695 0.015168478 -0.48412374 0.011754075 0.05010665 -0.0077854777 0.12788367 -0.06356346 -0.29611495 0.023882758 -0.36155137 -0.8086301 -0.34571207 -0.058532923 -0.5660914 -0.13032721 -0.17404741 0.30790105 -0.20793787
650 0.00696638 -0.13990887 0.39737943 0.68671954 0.32507235 -0.22818549 0.72929496 -0.21703804 0.60159564 0.22224498 -0.02718396 0.2349254 0.27770203 -0.0068368926 -0.0831789 -0.013821801 0.063833274 -0.500411 -0.079336554 0.09538117 0.17876329 -0.3754607 -0.10748077 0.1639652 0.04801767 0.29026148 -0.05526315 0.18637183 -0.09814502 0.058152385 -0.21525408 -0.08815651 0.111905925 0.38626966 0.057915192 -0.56083626 0.5279621 -0.027448421 -0.046307076 -0.03500659 -0.07157212 -0.7162789 -0.6765791 -0.32173428 0.010260798 -0.11958274 0.4224005 0.76369846 -0.17688435 -0.28795025 0.1493134 -0.49487397 0.00187942 -0.47430092 -0.19037703 -0.22403519 0.20577851 -0.020070542 0.333586 -0.01201496 -0.10633485 0.18573895 -0.34007442 -0.21078032 0.5708003 0.2948695 -0.6552094 0.06536442 0.13494082 -0.12726222 -0.44455302 0.14818913 -0.41460654 -0.10351972 0.1292304 -0.008069322 -0.4183508 -0.35207152 0.25676537 -0.5109044 -0.16467027 0.16301408 -0.21925586 0.046811882 -0.25940874 0.035664145 -0.33678105 0.42200476 0.33085054 -0.057213802 -0.23199171 -0.3695879 0.25232464 0.111499585 0.40624633 -0.27056625 0.1897036 -0.02731892 0.15511511 0.5270897 0.05154253 -0.17810862 0.17876175 0.35147712 0.3054142 -0.11289495 -0.055058986 0.03970698 0.19563204 -0.09881856 0.26856402 -0.13805206 -0.017759118 0.11828453 0.07308749 -0.3207078 -0.52626246 -0.7369534 0.4666871 -0.48157266 -0.83733255 -0.16440468 -0.15454832 -0.47667027 -0.17990206 0.009382872 0.6097658 -0.22622512
781 0.064812586 -0.122580126 0.05356576 0.317839 0.37567785 0.050915353 -0.011589915 -0.13040245 0.40738297 -0.080485165 -0.023658434 0.16543195 -0.0791144 -0.08867727 -0.053726327 0.1115019 0.4933547 -0.57267785 0.24640326 0.015075277 0.3354642 -0.45588997 0.18522426 0.19975246 -0.103098355 0.01282775 -0.010345065 0.122521274 -0.4596796 0.039464712 0.051744398 0.007450144 -0.15545961 -0.1934051 0.39590046 -0.3024204 -0.04802149 0.052590147 -0.15324931 0.32488942 -0.1052996 -0.12481258 -0.10363196 -0.23291047 -0.024679624 0.18283752 0.30974558 0.73075414 0.058547027 -0.48862997 -0.4914423 -0.28074616 0.45900247 -0.18123147 -0.81142074 -0.20935021 0.5853869 -0.48840034 -0.082149506 -0.36605096 0.09276389 0.1314113 -0.26964146 -0.24241294 0.41976202 0.16517733 -0.37677336 0.021706201 0.38535485 0.059531298 -0.18959554 -0.023630852 -0.6362838 -0.36092308 -0.2576674 0.1416545 -0.19073544 0.0757721 -0.14829299 -0.39466843 -0.12280105 0.12831108 0.013488683 -0.020681169 -0.021455932 0.13076083 -0.058733452 0.35349652 0.24832974 0.29953155 -0.06460781 -0.6700153 0.019604685 0.14850095 -0.0019385513 0.088749714 -0.095780805 0.25491557 -0.5028656 0.39783624 0.48649576 0.12267848 0.083053656 0.31802794 0.052534185 0.07957018 -0.07496098 -0.08550116 0.08669899 -0.0014544898 0.06728595 -0.20186609 0.1650966 -0.04202197 0.23155324 -0.24456641 -0.15587644 -0.48221824 0.32417867 -0.13543652 -0.6611704 -0.15410408 -0.0057397326 -0.25803068 0.12351218 0.09160408 0.5612705 -0.3440247
